-3.072819672524929047e-02 1.178831513971090317e-02 4.481136426329612732e-02 6.253678351640701294e-02 1.388180349022150040e-02 2.137144841253757477e-02 8.793598972260951996e-03 2.721630968153476715e-02 -2.354308962821960449e-03 4.115624353289604187e-02 1.233938988298177719e-02 2.041999995708465576e-02 8.046077191829681396e-02 -2.689999714493751526e-02 -1.115167327225208282e-02 -6.311877071857452393e-02 2.301557455211877823e-03 3.764451295137405396e-02 4.435043036937713623e-02 -3.740707784891128540e-02 -2.949147112667560577e-02 2.616527490317821503e-03 -2.719303220510482788e-02 -1.039493922144174576e-02 2.219399064779281616e-02 2.421573735773563385e-02 3.955656662583351135e-02 -1.936332322657108307e-02 -3.374811960384249687e-03 2.723034098744392395e-02 -3.127360250800848007e-03 1.995665580034255981e-02 -6.466779450420290232e-05 -5.236424505710601807e-03 -5.214977636933326721e-02 3.001033328473567963e-02 3.069537878036499023e-02 5.398052185773849487e-02 2.054453454911708832e-02 2.546755410730838776e-02 2.320871688425540924e-03 3.050087764859199524e-02 2.729048207402229309e-02 4.447260126471519470e-02 3.728397935628890991e-02 2.057930082082748413e-02 1.719851978123188019e-02 1.123082451522350311e-02 3.354571061208844185e-03 2.664893679320812225e-02 5.670142918825149536e-02 1.761852949857711792e-02 -1.633348129689693451e-02 2.883925102651119232e-02 1.317841652780771255e-02 -1.100555062294006348e-02 2.553193271160125732e-02 2.500248514115810394e-02 2.262938208878040314e-02 1.241274550557136536e-02 7.776422053575515747e-02 5.953737534582614899e-03 3.758328675758093596e-04 3.501057252287864685e-02 1.013258006423711777e-03 7.367018260993063450e-04 1.077704876661300659e-02 5.317926406860351562e-02 2.902678912505507469e-03 -2.536124549806118011e-02 -8.742379024624824524e-03 -6.275083869695663452e-02 -1.102344878017902374e-02 -2.158863935619592667e-03 3.453005477786064148e-02 2.254796586930751801e-02 -9.372972883284091949e-03 1.365093886852264404e-02 4.390223324298858643e-02 -1.539198961108922958e-02 4.188521578907966614e-02 -2.371832542121410370e-02 8.534609340131282806e-03 5.317155271768569946e-02 -1.982448995113372803e-02 -4.353682510554790497e-03 2.038380689918994904e-02 -1.688322634436190128e-03 1.203161254525184631e-01 4.869674518704414368e-02 -3.898274898529052734e-02 2.338296920061111450e-02 1.071610674262046814e-02 2.890940383076667786e-02 2.116385847330093384e-02 -1.668392308056354523e-02 -8.917071856558322906e-03 7.451306562870740891e-03 2.673166058957576752e-02 1.358012319542467594e-03 6.610769778490066528e-02 -1.884921826422214508e-02 1.467075198888778687e-01 5.973991355858743191e-04 1.046053413301706314e-02 -2.575491927564144135e-02 4.902611952275037766e-03 -5.464758258312940598e-03 4.113937169313430786e-02 4.916197154670953751e-03 1.976616494357585907e-02 2.473349682986736298e-02 1.648399047553539276e-02 4.499243572354316711e-02 4.955790564417839050e-02 3.735841251909732819e-03 -4.371013026684522629e-03 2.792934887111186981e-03 -1.300797238945960999e-02 1.854624599218368530e-03 1.803768239915370941e-02 9.424732625484466553e-02 -2.859098836779594421e-03 -4.470031242817640305e-03 -2.072808519005775452e-02 3.711403906345367432e-02 -1.083004899555817246e-04 -7.136654108762741089e-03 -1.272119488567113876e-02 1.780317537486553192e-02 -2.970612421631813049e-02 -2.193623781204223633e-02 6.382139772176742554e-02 2.656474150717258453e-02 -5.879309028387069702e-03 2.803364396095275879e-02 4.144517704844474792e-03 4.307809844613075256e-02 1.512938179075717926e-02 7.555598020553588867e-02 -2.443752600811421871e-04 -3.465207666158676147e-02 1.286633219569921494e-02 6.458463612943887711e-03 -1.391785033047199249e-02 4.013161361217498779e-02 3.036102280020713806e-02 -9.945939294993877411e-03 -4.107716958969831467e-03 1.858129538595676422e-02 1.971477828919887543e-02 -1.863503275671973825e-04 -1.771723153069615364e-03 6.130356341600418091e-02 7.676439359784126282e-03 1.753734610974788666e-02 4.038986936211585999e-02 -8.527822210453450680e-04 -1.226073037832975388e-02 3.260608762502670288e-02 2.572798402979969978e-03 -1.330345682799816132e-02 -2.758190760232537286e-07 3.595410846173763275e-03 6.575743854045867920e-02 1.714269397780299187e-03 -1.447040290258883033e-06 2.158327028155326843e-03 5.629122257232666016e-03 1.530224643647670746e-02 6.790110841393470764e-03 3.298533707857131958e-02 6.771608442068099976e-02 7.729978766292333603e-03 -1.826739311218261719e-02 6.781186908483505249e-03 5.012281239032745361e-03 -5.568343400955200195e-02 6.435823440551757812e-02 -2.956059470307081938e-04 1.192678883671760559e-02 3.353365138173103333e-02 1.873037219047546387e-02 9.558774530887603760e-03 2.550658537074923515e-03 3.298258781433105469e-02 8.107501082122325897e-03 1.178298238664865494e-02 9.227605536580085754e-03 4.115909337997436523e-02 -2.997294068336486816e-02 -4.296282678842544556e-02 -1.807976141571998596e-02 2.111223153769969940e-02 -7.978959009051322937e-03 -3.574614226818084717e-02 2.526212483644485474e-02 -6.895695347338914871e-03 -2.041574101895093918e-03 8.845793455839157104e-02 -1.155939768068492413e-03 3.582224249839782715e-03 -6.123432423919439316e-03 3.856575116515159607e-03 7.879487425088882446e-02 -1.874686800874769688e-03 -1.737642474472522736e-02 -6.396098062396049500e-03 3.117967210710048676e-02 6.751106679439544678e-02 -4.629638791084289551e-02 9.760940447449684143e-03 3.687965124845504761e-02 4.699576646089553833e-03 4.870202764868736267e-02 -4.134333226829767227e-03 1.373545452952384949e-02 3.468655422329902649e-02 -1.963613182306289673e-02 1.445319689810276031e-02 1.130950171500444412e-02 1.574247144162654877e-03 5.116852698847651482e-04 2.858780696988105774e-02 3.001655265688896179e-02 7.766904775053262711e-03 3.631670027971267700e-02 2.606361731886863708e-02 -1.488817576167367207e-11 1.643251813948154449e-02 6.024389527738094330e-03 2.844074927270412445e-02 7.795311976224184036e-03 3.640248673036694527e-03 5.990224424749612808e-03 6.660430133342742920e-02 2.018725126981735229e-02 3.608088940382003784e-02 5.386652052402496338e-02 2.706774696707725525e-02 4.615695774555206299e-02 4.746712371706962585e-02 2.353845164179801941e-02 1.507820561528205872e-02 3.930769395083189011e-03 1.002728356979787350e-03 7.633426040410995483e-02 -3.708560392260551453e-02 1.055488362908363342e-02 5.156976170837879181e-03
4.479628801345825195e-02 4.127819463610649109e-02 -2.484102733433246613e-02 1.640468486584722996e-03 -2.843606658279895782e-02 5.761219188570976257e-02 1.512506883591413498e-02 8.469782769680023193e-03 3.123011440038681030e-02 -4.299248754978179932e-02 2.424317784607410431e-02 -1.757947541773319244e-02 -3.468996658921241760e-02 3.733808174729347229e-02 -6.151429843157529831e-03 7.186994701623916626e-02 -3.886570921167731285e-03 1.815715059638023376e-02 -2.262256667017936707e-02 1.792625710368156433e-02 -4.478928074240684509e-02 -5.863719619810581207e-03 5.792447552084922791e-02 4.588918760418891907e-03 -5.951016675680875778e-03 -5.366745870560407639e-03 1.378421951085329056e-02 9.966830909252166748e-02 -1.325206947512924671e-03 2.999041680595837533e-05 5.022537428885698318e-03 -3.610289841890335083e-02 4.635894729290157557e-04 1.283979136496782303e-02 -1.694227196276187897e-02 -6.435723043978214264e-03 2.360192872583866119e-02 2.055688947439193726e-02 -2.450994960963726044e-02 4.295682907104492188e-02 3.184615075588226318e-02 3.663866221904754639e-02 5.558270215988159180e-02 -3.972347825765609741e-03 -4.675832018256187439e-02 -1.527858898043632507e-02 -1.840443536639213562e-02 1.779134571552276611e-02 1.774463616311550140e-02 -2.406615018844604492e-02 -2.525036409497261047e-02 2.154302783310413361e-02 1.734513975679874420e-02 3.370957914739847183e-03 -7.690744940191507339e-03 1.007547881454229355e-02 -1.463057193905115128e-02 -1.754038222134113312e-02 3.286662697792053223e-02 -2.332225209102034569e-03 -1.348297391086816788e-02 -2.711827307939529419e-02 8.958715014159679413e-03 2.127399202436208725e-03 1.043143775314092636e-02 2.367620170116424561e-02 6.116373464465141296e-02 -5.900542717427015305e-03 4.020315036177635193e-02 6.946672499179840088e-02 2.551578916609287262e-03 -3.541833953931927681e-03 1.888986676931381226e-02 6.899370253086090088e-02 -7.618953008204698563e-03 4.634721577167510986e-02 -4.669906571507453918e-03 6.348141469061374664e-03 7.675614324398338795e-04 -5.630103405565023422e-03 7.890037260949611664e-03 4.869300499558448792e-02 6.129195168614387512e-02 -5.983599647879600525e-02 1.173887494951486588e-02 4.773345962166786194e-02 -2.617720700800418854e-02 1.225716527551412582e-02 -5.151748284697532654e-02 4.065797477960586548e-02 -2.151645347476005554e-02 -1.755144447088241577e-02 -2.716384362429380417e-03 -1.846647076308727264e-02 2.703603729605674744e-02 7.623141258955001831e-02 3.827064484357833862e-02 3.438582411035895348e-03 -1.888918504118919373e-02 1.091537177562713623e-01 -1.372085791081190109e-02 -2.381029166281223297e-02 -7.327350974082946777e-02 -2.517236280255019665e-04 -6.354139186441898346e-04 3.087808005511760712e-02 4.980305209755897522e-03 -5.027050618082284927e-03 -2.523605898022651672e-02 -3.389582410454750061e-02 -4.575670231133699417e-03 6.816727109253406525e-03 -1.592955365777015686e-02 1.123724598437547684e-02 2.067644672933965921e-04 -2.723222365602850914e-03 7.694924715906381607e-03 -9.143968112766742706e-03 -3.116229316219687462e-03 -4.615950863808393478e-03 -2.657864801585674286e-02 -2.209598943591117859e-02 -1.848300686106085777e-03 6.055114790797233582e-03 3.679374232888221741e-02 -2.076943218708038330e-02 5.595089867711067200e-02 1.575914956629276276e-02 3.567469865083694458e-02 -2.437705546617507935e-02 -6.884015165269374847e-03 4.914387315511703491e-02 -7.628420367836952209e-03 4.398065432906150818e-02 2.073897235095500946e-02 -5.969696212559938431e-04 -6.557363085448741913e-04 -2.185125462710857391e-02 6.464265286922454834e-03 -7.110195606946945190e-02 3.298798983450978994e-04 3.515329957008361816e-02 5.973374936729669571e-03 -3.525557462126016617e-03 2.771242521703243256e-02 -2.848965488374233246e-02 -1.158078294247388840e-02 9.744483046233654022e-03 3.393097780644893646e-03 8.682608604431152344e-03 1.118559110909700394e-02 2.994671463966369629e-02 4.148802533745765686e-02 -5.220830813050270081e-02 -1.798112061806023121e-03 -4.064469831064343452e-04 3.648794069886207581e-02 4.803491756319999695e-03 7.220704853534698486e-02 1.596551947295665741e-02 -6.531071849167346954e-03 -8.634399622678756714e-03 -1.355187428941917460e-08 1.068410836160182953e-02 2.677507512271404266e-02 5.601551383733749390e-02 -3.336677423249057028e-07 -5.820477963425219059e-04 -7.117520086467266083e-03 -1.033714972436428070e-02 5.778917577117681503e-03 -8.956930600106716156e-03 -1.325173955410718918e-02 6.968525238335132599e-03 3.187033534049987793e-02 6.098482385277748108e-02 4.486232995986938477e-03 2.731030061841011047e-02 -4.236707463860511780e-02 5.404489859938621521e-02 3.489556256681680679e-03 -2.911607548594474792e-02 7.148944586515426636e-02 -2.860490791499614716e-02 -1.004611793905496597e-02 -3.310197219252586365e-02 -7.260960061103105545e-03 4.447935521602630615e-02 -8.369274437427520752e-04 2.362952753901481628e-02 1.401135418564081192e-02 8.814550237730145454e-04 2.435521781444549561e-02 -1.937573775649070740e-02 2.016735821962356567e-02 -6.011063233017921448e-03 -1.415581908077001572e-03 4.369319230318069458e-02 -2.968543209135532379e-03 -3.361398726701736450e-02 -3.808347973972558975e-04 -7.381950505077838898e-03 4.049986228346824646e-02 1.141531020402908325e-02 9.852797957137227058e-04 6.042944267392158508e-03 4.055883327964693308e-04 -1.005308702588081360e-03 -1.643096655607223511e-02 9.726485237479209900e-03 5.912583786994218826e-03 -2.225022949278354645e-02 4.892281442880630493e-02 -2.038134261965751648e-03 -2.188332565128803253e-02 1.039566937834024429e-02 -9.296691976487636566e-03 -1.324700471013784409e-02 5.217730533331632614e-03 -5.739636346697807312e-02 -5.308737512677907944e-03 -2.247765893116593361e-03 -8.716264856047928333e-04 -1.601367443799972534e-02 -7.293199189007282257e-03 -3.952501341700553894e-02 1.759477308951318264e-03 -1.182799343951046467e-03 -2.476757340885704650e-11 3.045792505145072937e-02 4.855870455503463745e-02 1.167638134211301804e-02 2.641104161739349365e-02 -4.745757579803466797e-02 3.747871611267328262e-03 2.035214379429817200e-02 -3.603066084906458855e-03 -1.656045578420162201e-02 -5.897035449743270874e-02 6.207378581166267395e-02 -4.376033786684274673e-03 -6.661883741617202759e-02 -8.418013341724872589e-03 2.572342939674854279e-02 -8.331458084285259247e-04 2.238594461232423782e-03 -1.767832040786743164e-02 3.314828872680664062e-02 -6.871702615171670914e-03 2.228238387033343315e-03
8.376317471265792847e-02 2.747765369713306427e-02 1.623645797371864319e-02 -6.410668138414621353e-03 2.655906416475772858e-02 7.439193129539489746e-02 5.921964999288320541e-03 -7.652838528156280518e-02 4.694103449583053589e-02 -4.848052561283111572e-02 -1.057400368154048920e-02 -2.000234462320804596e-02 -2.238431200385093689e-02 -2.872253395617008209e-02 -3.198483213782310486e-02 4.117600619792938232e-02 -5.168148316442966461e-03 -3.259097039699554443e-02 -3.302040323615074158e-02 9.653238579630851746e-03 6.400448083877563477e-02 1.994841732084751129e-02 9.802109003067016602e-02 2.115371264517307281e-02 -3.243262320756912231e-02 4.152137041091918945e-02 -4.155083745718002319e-02 -1.895112567581236362e-03 1.398733351379632950e-02 -4.800549149513244629e-02 3.686178475618362427e-02 -3.847006708383560181e-02 3.107065567746758461e-04 3.554093092679977417e-02 7.592238485813140869e-02 -4.669373389333486557e-03 3.741659969091415405e-02 3.477103635668754578e-02 4.887392744421958923e-02 7.586405426263809204e-02 5.541519820690155029e-02 -6.040085572749376297e-03 -3.962136059999465942e-02 -1.919667609035968781e-02 7.841555401682853699e-03 -2.007260546088218689e-02 -7.422378286719322205e-03 1.110129710286855698e-02 -1.357411127537488937e-02 4.003124684095382690e-02 2.088334225118160248e-02 -6.024680286645889282e-02 6.069369241595268250e-02 1.204360648989677429e-02 -3.470964264124631882e-03 2.236512303352355957e-02 3.081708773970603943e-02 7.579915970563888550e-02 3.306739404797554016e-02 -2.172694727778434753e-02 1.128799840807914734e-01 -3.459135442972183228e-02 2.392898686230182648e-02 -1.589689962565898895e-02 -1.479713828302919865e-03 5.359952524304389954e-02 2.215792983770370483e-02 4.797329381108283997e-02 2.372988499701023102e-02 7.076913118362426758e-02 4.373909439891576767e-03 8.288260549306869507e-02 4.215629026293754578e-02 5.877545103430747986e-02 -8.211373351514339447e-03 1.471861153841018677e-01 5.771753937005996704e-02 -7.979687303304672241e-03 3.222112136427313089e-04 2.689030952751636505e-02 5.298352614045143127e-02 5.487749725580215454e-02 -1.105387695133686066e-03 -2.257497049868106842e-03 7.673230767250061035e-02 6.731557194143533707e-03 -7.073416560888290405e-02 3.260758891701698303e-02 5.864727497100830078e-02 1.338406745344400406e-02 2.712483145296573639e-02 -5.328016355633735657e-02 1.981984591111540794e-03 1.880350708961486816e-02 2.691854536533355713e-02 2.703378163278102875e-02 -1.463345345109701157e-02 -1.514993049204349518e-02 -5.229406431317329407e-02 1.230610534548759460e-01 4.552219435572624207e-02 -3.341217339038848877e-02 1.325388699769973755e-01 2.006084469030611217e-05 6.019818596541881561e-03 3.945701941847801208e-02 4.409206658601760864e-02 -5.080315284430980682e-03 3.650121856480836868e-03 -8.151227375492453575e-04 -1.764836907386779785e-02 -1.032354217022657394e-02 7.441094517707824707e-02 3.420474380254745483e-02 -3.293678537011146545e-02 -5.383001174777746201e-03 1.940474472939968109e-02 -1.659385114908218384e-02 -1.892891596071422100e-03 1.183082163333892822e-02 -2.599835209548473358e-02 -6.743846833705902100e-02 1.350941415876150131e-02 1.198929548263549805e-02 2.525326609611511230e-02 -1.989367231726646423e-02 9.109733998775482178e-02 -1.068438123911619186e-02 -3.822264075279235840e-02 -3.795035555958747864e-02 6.342423707246780396e-02 4.629857093095779419e-02 -1.788814924657344818e-02 7.185204327106475830e-02 1.280407160520553589e-01 3.565063700079917908e-02 3.922519832849502563e-02 -5.001708865165710449e-02 3.147035092115402222e-02 -4.453003779053688049e-02 2.712792957026977092e-05 1.850353926420211792e-02 -2.439388446509838104e-02 7.213096600025892258e-03 9.418623149394989014e-02 -6.886064261198043823e-02 -1.643724553287029266e-02 3.555407375097274780e-02 4.211342707276344299e-02 2.585747465491294861e-02 5.092494189739227295e-03 -1.267767162062227726e-03 3.610204160213470459e-02 -8.082968741655349731e-02 1.262414921075105667e-02 -4.708871711045503616e-04 -5.563765764236450195e-03 3.970848023891448975e-02 9.482080116868019104e-03 -4.606634378433227539e-03 4.094193864148110151e-04 7.408322300761938095e-03 -6.930477525202149991e-08 -2.521149255335330963e-02 -3.753732517361640930e-02 7.743293792009353638e-02 -1.085550593415973708e-06 -7.386160548776388168e-03 1.838680356740951538e-02 8.797618560492992401e-03 9.707899298518896103e-04 2.150327712297439575e-02 3.736152872443199158e-02 6.369458884000778198e-02 7.913213968276977539e-02 -2.516658976674079895e-02 5.958370398730039597e-03 -1.601055450737476349e-02 -3.419607505202293396e-02 -2.021609619259834290e-02 4.705829173326492310e-02 -2.078473567962646484e-02 6.550440937280654907e-02 -4.196566715836524963e-02 -6.976293516345322132e-04 4.822022095322608948e-02 3.208437410648912191e-04 5.508435517549514771e-02 2.079248055815696716e-02 2.194694941863417625e-03 1.096370518207550049e-01 9.976249188184738159e-02 -3.742335829883813858e-04 8.753898553550243378e-03 -4.737167619168758392e-03 3.968006372451782227e-02 6.237846612930297852e-02 1.703319698572158813e-02 2.782514551654458046e-03 1.599706895649433136e-02 -2.873743418604135513e-03 1.575769297778606415e-02 1.880651339888572693e-02 -2.874448895454406738e-02 -1.206356659531593323e-02 6.430543959140777588e-02 -3.421944752335548401e-02 -9.320308454334735870e-03 -6.713384389877319336e-02 -5.567700136452913284e-03 2.750679105520248413e-02 -6.284357607364654541e-02 3.210772946476936340e-02 -4.395384748931974173e-04 4.758778586983680725e-02 -2.290235087275505066e-02 -1.797321811318397522e-02 -9.665084071457386017e-03 -2.528819814324378967e-02 -4.833824187517166138e-02 3.086487948894500732e-02 -6.948351394385099411e-03 -3.218404250219464302e-03 -1.697987318038940430e-02 1.657306216657161713e-03 2.790810540318489075e-02 4.940846562385559082e-02 3.499624505639076233e-02 -3.090200664801479036e-11 2.826182171702384949e-02 7.027287781238555908e-02 3.346233442425727844e-02 9.297344833612442017e-02 -8.116859942674636841e-02 3.545838221907615662e-02 8.583222329616546631e-02 4.690943751484155655e-03 -3.183076903223991394e-02 3.660216927528381348e-02 5.199898034334182739e-02 -6.435811519622802734e-02 -3.983202949166297913e-02 -2.113093994557857513e-02 5.746317654848098755e-02 1.142347082495689392e-01 1.354752574115991592e-02 -1.062082313001155853e-02 3.661716729402542114e-02 9.360711090266704559e-03 4.426337406039237976e-02
3.158167237415909767e-03 2.418727055191993713e-02 4.136506840586662292e-02 2.430792152881622314e-02 2.269782312214374542e-02 3.301196172833442688e-02 -2.047806046903133392e-02 -7.794867269694805145e-04 1.785132847726345062e-02 -2.420026622712612152e-02 -2.118346095085144043e-02 2.994454698637127876e-03 1.637729071080684662e-02 -3.964557778090238571e-03 5.246473941951990128e-03 2.936440333724021912e-02 -2.558560110628604889e-03 4.077595192939043045e-03 2.095383033156394958e-02 -1.671708002686500549e-02 -1.999026909470558167e-02 3.571265609934926033e-03 1.045497693121433258e-02 1.683791168034076691e-02 2.977655455470085144e-02 3.904756857082247734e-03 2.737876214087009430e-02 4.610082134604454041e-02 8.850727230310440063e-03 2.064696513116359711e-03 -1.137704867869615555e-02 -8.991329930722713470e-03 4.346669302321970463e-04 -8.911067619919776917e-03 3.301405161619186401e-02 8.212001994252204895e-03 2.768560126423835754e-02 -3.414174541831016541e-03 -1.203231327235698700e-02 5.270417034626007080e-02 3.239705786108970642e-02 -3.067651949822902679e-02 2.887006616219878197e-03 8.532972075045108795e-03 1.283996086567640305e-02 5.369560793042182922e-03 4.061840847134590149e-02 3.936770185828208923e-02 -8.327598683536052704e-03 8.909066207706928253e-03 -2.654157392680644989e-02 8.724720217287540436e-03 2.775631472468376160e-02 -6.317532621324062347e-03 -2.858475781977176666e-03 3.657560423016548157e-02 -8.246276527643203735e-03 1.850032992660999298e-02 -1.357101486064493656e-03 -3.856376570183783770e-04 -2.265648730099201202e-02 -1.247797976247966290e-03 7.978742010891437531e-03 3.853625385090708733e-03 -1.262978930026292801e-02 3.290195763111114502e-02 9.055166505277156830e-03 1.822525076568126678e-02 3.607725352048873901e-02 6.093160808086395264e-02 -4.460409749299287796e-03 2.520314650610089302e-03 1.638314686715602875e-02 -1.045809686183929443e-02 -2.390549052506685257e-03 3.992143645882606506e-02 -2.915865927934646606e-02 -3.954567364417016506e-04 3.170623444020748138e-03 3.433797508478164673e-03 -2.208908088505268097e-02 2.143980003893375397e-02 4.955364018678665161e-02 3.036426007747650146e-02 2.482650987803936005e-02 4.668520763516426086e-02 1.390423625707626343e-02 1.920624077320098877e-02 -3.758388385176658630e-02 -1.474423427134752274e-02 1.258998923003673553e-02 1.191122271120548248e-02 5.773783661425113678e-03 2.083492092788219452e-02 3.781306371092796326e-02 3.677474334836006165e-02 2.191755920648574829e-02 -6.010216195136308670e-03 7.212997879832983017e-03 3.277793526649475098e-02 -8.689953945577144623e-03 -2.250812761485576630e-02 3.120006434619426727e-02 -8.416969329118728638e-03 3.179922699928283691e-03 1.374461501836776733e-02 -3.816973790526390076e-02 1.431079301983118057e-02 8.884432725608348846e-03 -1.141959987580776215e-02 1.041391049511730671e-03 2.680433169007301331e-02 -2.330115810036659241e-02 2.435776032507419586e-02 3.492313995957374573e-02 2.615777309983968735e-03 3.017313964664936066e-02 -5.446455907076597214e-03 1.197719108313322067e-02 1.678579114377498627e-02 1.457080524414777756e-02 7.869028486311435699e-03 -6.140788318589329720e-04 1.222624536603689194e-02 2.546258037909865379e-03 -6.506619974970817566e-03 3.786070644855499268e-02 5.901658441871404648e-03 -6.728888954967260361e-03 1.540802046656608582e-02 2.030946686863899231e-02 5.519096739590167999e-03 -2.832904644310474396e-02 -1.760906912386417389e-02 2.653429110068827868e-04 1.229600794613361359e-02 4.909749701619148254e-02 -1.753905601799488068e-02 2.694894559681415558e-02 1.422618702054023743e-02 -3.286019491497427225e-04 1.098858658224344254e-02 8.359944447875022888e-03 2.104678563773632050e-02 3.399741277098655701e-02 4.989674314856529236e-03 1.191446743905544281e-02 1.529720705002546310e-02 1.323983632028102875e-02 6.196291185915470123e-03 1.119667664170265198e-02 -2.388207055628299713e-02 6.694317329674959183e-03 4.341244697570800781e-03 9.658287279307842255e-03 -2.116709947586059570e-03 -4.609812982380390167e-03 1.226394157856702805e-02 8.540692739188671112e-03 1.600236818194389343e-02 1.197555847465991974e-02 7.135909982025623322e-03 -3.239523883521999714e-12 2.651621773838996887e-02 2.032776735723018646e-02 8.894172497093677521e-03 -1.024656484105435084e-07 -4.913175362162292004e-04 -2.169854938983917236e-03 -3.104935167357325554e-04 -1.791627379134297371e-03 -4.838213790208101273e-03 4.363544285297393799e-03 6.812249775975942612e-03 2.287279814481735229e-02 3.283376106992363930e-03 -4.985976964235305786e-03 -2.070838399231433868e-02 -2.223967947065830231e-02 1.419093366712331772e-02 -2.591599477455019951e-04 -9.285817854106426239e-03 2.475795522332191467e-02 -1.000003074295818806e-03 -1.007233440759591758e-04 2.513458952307701111e-03 7.650149986147880554e-03 -3.046105150133371353e-03 3.815821837633848190e-03 2.357812365517020226e-03 1.650634780526161194e-02 6.950288079679012299e-04 -2.119806827977299690e-03 -4.589742515236139297e-03 1.046424638479948044e-02 -1.661060005426406860e-02 1.446390990167856216e-02 -2.450305782258510590e-02 -5.135235551279038191e-05 4.536516591906547546e-02 -8.621225133538246155e-03 1.561486348509788513e-02 -2.298190630972385406e-02 -2.794091776013374329e-02 -4.456435889005661011e-02 -1.245383918285369873e-02 -1.186936069279909134e-02 6.179502233862876892e-03 1.898505724966526031e-03 6.558681372553110123e-03 4.801736399531364441e-02 3.175728255882859230e-03 2.683977829292416573e-03 -2.222968178102746606e-04 6.487620994448661804e-03 -2.442646212875843048e-02 3.412861842662096024e-03 1.268639136105775833e-02 1.862473785877227783e-02 1.822309195995330811e-02 7.101013790816068649e-03 -3.772326279431581497e-03 -1.397799787810072303e-04 1.361082494258880615e-02 1.762174069881439209e-02 -8.285052143037319183e-03 5.882370844483375549e-02 1.294623070862144232e-04 -7.166381637419005912e-12 -7.373922504484653473e-03 -4.441383760422468185e-03 8.512761443853378296e-03 6.388288922607898712e-03 -5.281129851937294006e-03 1.805287087336182594e-03 -2.427444234490394592e-02 -8.053218945860862732e-03 -9.076250717043876648e-03 -2.033149590715765953e-03 6.641004234552383423e-03 2.478379942476749420e-02 -6.078944541513919830e-03 3.094298765063285828e-03 7.272955263033509254e-04 -7.122582290321588516e-03 -3.210742026567459106e-03 -2.743576653301715851e-03 1.292586885392665863e-02 4.551741760224103928e-03 3.594034537672996521e-02
-5.562397465109825134e-02 -1.865799538791179657e-02 1.970389671623706818e-02 -3.721384331583976746e-02 -4.725517332553863525e-02 -4.988665506243705750e-02 -9.331408888101577759e-03 8.952890522778034210e-03 -3.779470920562744141e-02 8.229530602693557739e-02 4.725930839776992798e-02 5.561120063066482544e-02 2.903323993086814880e-02 -2.831558696925640106e-02 8.232378214597702026e-02 -3.483619168400764465e-02 8.873035199940204620e-03 -3.258591517806053162e-03 -1.456105429679155350e-02 2.611079253256320953e-02 2.748632431030273438e-02 -4.788027144968509674e-03 -2.691110037267208099e-02 6.412562727928161621e-02 -3.903160616755485535e-02 -2.174929343163967133e-02 -4.886247590184211731e-02 3.944541886448860168e-02 3.249598294496536255e-02 -9.399726055562496185e-03 7.333181798458099365e-03 2.708903700113296509e-02 2.431715111015364528e-04 5.175346974283456802e-03 -6.301610916852951050e-02 1.771548949182033539e-02 -1.402102038264274597e-02 1.823406852781772614e-02 2.309026196599006653e-02 1.620384491980075836e-02 -4.232479259371757507e-02 6.471419334411621094e-02 -2.219830080866813660e-02 2.966606058180332184e-02 3.438455238938331604e-02 -1.004835963249206543e-02 1.549678947776556015e-02 -2.557492628693580627e-02 4.605229571461677551e-02 -2.111623529344797134e-03 5.023489892482757568e-02 3.982612490653991699e-02 -3.492095693945884705e-02 2.050485648214817047e-02 2.227823995053768158e-02 1.153103820979595184e-02 -1.781522529199719429e-03 6.300821155309677124e-02 -1.960624195635318756e-02 -1.206155680119991302e-02 9.731054306030273438e-03 -1.412885636091232300e-02 -7.425121497362852097e-03 2.669179812073707581e-02 -1.787841506302356720e-02 3.543780650943517685e-03 -3.941022977232933044e-02 -3.398939222097396851e-02 -4.722652956843376160e-02 -6.301915645599365234e-02 -2.776210941374301910e-02 3.956292942166328430e-02 3.068183735013008118e-02 4.256601631641387939e-02 -4.392527509480714798e-03 -5.196461826562881470e-02 6.852401793003082275e-02 -3.049229271709918976e-02 -6.110334070399403572e-04 4.509607702493667603e-02 7.961738854646682739e-02 -1.448498107492923737e-02 -5.574218183755874634e-02 4.933390393853187561e-02 -5.452375859022140503e-02 -2.788423933088779449e-02 -1.262771990150213242e-02 -1.663058437407016754e-02 -2.688225544989109039e-02 -9.482969529926776886e-03 -1.763809123076498508e-03 -1.612962782382965088e-02 5.053321830928325653e-03 -2.738051861524581909e-02 -2.676188386976718903e-02 1.675536297261714935e-02 3.010950237512588501e-02 -2.060643769800662994e-02 8.707622066140174866e-03 -3.408810496330261230e-02 -2.348714694380760193e-02 7.172836456447839737e-03 -9.587273932993412018e-03 5.193243175745010376e-02 -1.086620707064867020e-02 1.206419058144092560e-02 1.788467541337013245e-02 5.589448288083076477e-02 5.284586455672979355e-03 -1.306947041302919388e-02 -2.333500795066356659e-02 1.462057605385780334e-02 1.361410878598690033e-02 -4.309142380952835083e-02 -4.140500351786613464e-02 1.045830920338630676e-02 -1.286785211414098740e-02 3.482048213481903076e-02 3.589983284473419189e-02 -1.451110467314720154e-02 -5.236634518951177597e-03 -7.813666947185993195e-03 2.531038597226142883e-02 3.059940412640571594e-03 3.362160176038742065e-02 2.611571922898292542e-02 -4.470502585172653198e-02 -1.654326915740966797e-02 -3.018477000296115875e-03 -1.598438248038291931e-02 1.526564732193946838e-02 2.278611529618501663e-03 -1.338708214461803436e-02 2.952726325020194054e-03 -8.727484964765608311e-04 -4.405115731060504913e-03 -3.994229808449745178e-02 4.237333685159683228e-02 5.248737521469593048e-03 4.877255111932754517e-02 9.843337466008961201e-05 -3.208880871534347534e-02 3.577331081032752991e-02 1.276710629463195801e-02 -5.406921356916427612e-02 -8.345932699739933014e-03 5.442899465560913086e-02 4.550527036190032959e-02 3.951467573642730713e-02 -1.710550487041473389e-02 3.625809401273727417e-02 8.024722337722778320e-02 -1.784453168511390686e-02 1.837728358805179596e-02 -1.637456379830837250e-02 2.576657338067889214e-03 4.695399105548858643e-02 4.330013319849967957e-02 7.461146265268325806e-02 -3.095926158130168915e-02 -1.005483674816787243e-03 -2.005679905414581299e-02 -5.622638923341582995e-07 3.358125314116477966e-02 -1.844905130565166473e-02 -4.537844564765691757e-03 -3.549379016476450488e-06 -3.308817977085709572e-03 1.408911030739545822e-02 -5.200277268886566162e-02 -1.756883226335048676e-02 -3.404456749558448792e-02 3.881514817476272583e-02 1.542727695778012276e-03 -1.937296986579895020e-02 -4.038833454251289368e-02 1.714435871690511703e-03 3.856770694255828857e-02 5.900554731488227844e-02 -2.830935642123222351e-02 3.097855485975742340e-02 1.288600172847509384e-02 2.236897125840187073e-02 3.407084196805953979e-02 -9.019510820508003235e-03 -1.859439723193645477e-02 2.162466198205947876e-02 -3.157092258334159851e-02 2.166711166501045227e-02 -3.587283659726381302e-03 -1.497933641076087952e-02 5.310424137860536575e-03 6.590360426343977451e-04 9.429799392819404602e-03 4.664796218276023865e-02 1.114490479230880737e-01 7.813996635377407074e-03 3.662817552685737610e-02 -8.703465573489665985e-04 -4.111881554126739502e-02 2.086249738931655884e-02 4.906748980283737183e-02 1.448322366923093796e-02 3.571182116866111755e-02 9.290316142141819000e-03 2.300595119595527649e-02 2.545832423493266106e-03 6.495794653892517090e-02 2.486964128911495209e-02 5.938091129064559937e-02 -3.009701846167445183e-03 8.107288181781768799e-02 -6.219981983304023743e-02 1.653275685384869576e-03 1.399169024080038071e-02 4.001758247613906860e-02 6.599226500838994980e-03 -8.313551545143127441e-03 3.313710540533065796e-02 6.113727390766143799e-02 3.785709291696548462e-02 3.999501001089811325e-03 1.457697246223688126e-02 -4.165552556514739990e-02 -2.505227737128734589e-02 4.027528484584763646e-05 -6.195172667503356934e-02 -3.481883788481354713e-03 1.340929748066194586e-23 -2.749746292829513550e-02 -1.205146498978137970e-02 1.940388977527618408e-02 -9.493712335824966431e-03 6.296841055154800415e-02 3.831197321414947510e-02 -4.257533326745033264e-02 3.886082768440246582e-02 3.728097677230834961e-02 5.517111718654632568e-02 -2.335460111498832703e-02 8.124266751110553741e-03 6.529066711664199829e-02 -1.894921809434890747e-02 2.907216362655162811e-02 1.586377620697021484e-02 9.200705215334892273e-03 -1.432233676314353943e-02 2.661595121026039124e-02 3.891089931130409241e-02 -4.755304381251335144e-02
2.153346873819828033e-02 -2.259321510791778564e-02 1.001384481787681580e-02 4.691634327173233032e-02 4.559956490993499756e-02 2.203167043626308441e-02 1.024330314248800278e-02 -2.020035311579704285e-02 -2.410382963716983795e-02 -8.614840917289257050e-04 -7.230964489281177521e-03 -2.639715000987052917e-02 -9.774670004844665527e-03 8.712731301784515381e-03 1.375819370150566101e-02 7.752877660095691681e-03 7.496600970625877380e-03 1.356700202450156212e-03 3.297046944499015808e-02 3.881818428635597229e-02 2.606820315122604370e-02 1.673209853470325470e-02 2.169876918196678162e-02 -2.522141858935356140e-02 2.211952395737171173e-02 2.535120956599712372e-02 4.777457937598228455e-02 -3.817331045866012573e-03 3.707610536366701126e-03 -2.915998920798301697e-02 8.143613114953041077e-03 -3.556386008858680725e-02 2.272857964271679521e-04 3.414822975173592567e-03 -4.678280651569366455e-02 1.664210669696331024e-02 -2.114381268620491028e-02 -1.205728296190500259e-02 1.182998530566692352e-02 4.254110530018806458e-02 -2.716006524860858917e-02 5.012308247387409210e-03 1.660911738872528076e-02 4.309570044279098511e-02 3.792549669742584229e-02 3.221570327877998352e-02 2.263529677293263376e-05 8.731935173273086548e-03 1.309884060174226761e-02 2.841559704393148422e-03 2.392208762466907501e-02 6.577174644917249680e-03 -8.997174911201000214e-03 -1.460541039705276489e-02 -6.510368548333644867e-03 -9.331598877906799316e-03 3.017423488199710846e-02 -2.960280328989028931e-02 -2.124006301164627075e-02 9.361397475004196167e-03 -5.650880746543407440e-03 3.874257579445838928e-02 -3.241080325096845627e-03 1.526330225169658661e-02 3.212129740859381855e-05 -3.981478977948427200e-03 2.098585478961467743e-02 1.275431457906961441e-02 3.189536510035395622e-03 2.940356265753507614e-03 -3.807770321145653725e-03 -5.894503742456436157e-02 9.348430670797824860e-03 3.286689054220914841e-03 -1.763046137057244778e-03 -1.907140202820301056e-02 -4.512103623710572720e-04 1.074240542948246002e-02 1.117306854575872421e-02 1.381506957113742828e-02 -1.892908290028572083e-02 9.547665715217590332e-03 2.244390081614255905e-03 8.879343047738075256e-03 -6.031727883964776993e-03 5.005876347422599792e-02 3.772690519690513611e-02 1.583511196076869965e-02 -2.502630092203617096e-02 -2.910149469971656799e-02 -1.353593077510595322e-02 -8.824820630252361298e-03 -4.977324046194553375e-03 -4.079909995198249817e-03 1.193507388234138489e-02 1.420366764068603516e-02 3.332758694887161255e-02 5.814565345644950867e-03 1.930706948041915894e-02 -1.917424239218235016e-02 -2.624686993658542633e-02 4.509685561060905457e-03 9.788505733013153076e-03 6.266873795539140701e-03 1.159922871738672256e-02 -2.434315718710422516e-02 -3.439271356910467148e-03 9.641405194997787476e-03 5.259492900222539902e-03 -4.370873793959617615e-03 2.172745950520038605e-02 1.353440806269645691e-02 5.658767651766538620e-03 1.098092179745435715e-02 3.561792895197868347e-02 -5.658190231770277023e-03 -3.519000019878149033e-03 1.050601154565811157e-02 1.974504813551902771e-02 7.877196185290813446e-03 6.077992264181375504e-03 2.942277491092681885e-02 7.404487580060958862e-03 1.506609283387660980e-02 3.245719708502292633e-03 2.966714091598987579e-02 -1.773870922625064850e-02 2.471089549362659454e-02 3.370072226971387863e-03 2.618447318673133850e-02 5.581596866250038147e-03 2.252284809947013855e-02 2.898331359028816223e-02 7.389662321656942368e-03 -1.896287314593791962e-02 3.830801695585250854e-02 -4.361042287200689316e-03 5.946340970695018768e-03 -2.695944160223007202e-02 8.352427976205945015e-04 1.440477790310978889e-04 -2.974850684404373169e-02 4.949457570910453796e-02 4.691419377923011780e-02 -2.773786708712577820e-02 -7.444275543093681335e-04 -3.744865301996469498e-03 9.834786877036094666e-03 -2.526082389522343874e-04 1.284203492105007172e-02 4.538265615701675415e-02 1.787804625928401947e-02 -1.438946928828954697e-02 5.483341962099075317e-02 1.152487751096487045e-02 2.460884861648082733e-02 -3.633210062980651855e-02 -5.103656090795993805e-03 -1.750281080603599548e-02 1.554695144295692444e-02 -2.287612482905387878e-02 -1.838757772929966450e-03 -2.591697345621923887e-08 3.490749001502990723e-02 4.851831123232841492e-02 1.097206142731010914e-03 -1.723825562294223346e-07 4.397512413561344147e-03 6.406564731150865555e-03 9.287435561418533325e-03 1.044155191630125046e-02 1.625383459031581879e-02 8.279522880911827087e-03 -1.174153480678796768e-02 1.394685357809066772e-02 6.983567029237747192e-03 3.545399010181427002e-02 1.858001574873924255e-02 1.520830951631069183e-02 -1.192726660519838333e-02 -5.805479828268289566e-03 1.307802088558673859e-02 -3.025315888226032257e-02 -3.465158166363835335e-03 -1.333932299166917801e-02 1.545366551727056503e-02 6.873478647321462631e-03 -1.230272091925144196e-02 -5.995007231831550598e-03 1.114868000149726868e-02 -2.132930094376206398e-03 -7.014193572103977203e-03 3.007496893405914307e-02 -6.850200239568948746e-03 1.668919064104557037e-02 -2.684309706091880798e-02 -1.019445154815912247e-02 -1.421466935425996780e-02 -5.769708193838596344e-03 1.715838909149169922e-02 1.413258351385593414e-02 6.216623820364475250e-03 1.227379124611616135e-02 -1.493171788752079010e-02 -7.553674280643463135e-03 -3.240678831934928894e-02 -5.088275298476219177e-03 3.902871161699295044e-02 6.335434317588806152e-02 3.456166712567210197e-03 -1.874579302966594696e-02 -2.046269597485661507e-03 -1.122715766541659832e-03 -3.427451156312599778e-05 3.062622249126434326e-02 4.071490839123725891e-02 2.886322326958179474e-02 -2.482543699443340302e-02 -7.094054482877254486e-03 3.791391849517822266e-02 -2.496310975402593613e-03 1.118906959891319275e-02 -1.650628447532653809e-02 7.669944316148757935e-03 -1.514043007045984268e-02 -4.107845947146415710e-02 5.229922942817211151e-03 1.048888359218835831e-02 -4.529119700807937576e-12 -8.885762654244899750e-03 -1.780878752470016479e-02 9.623097255825996399e-03 -2.225809544324874878e-02 -4.051111266016960144e-02 1.355999987572431564e-02 -2.531781047582626343e-02 -2.182535128667950630e-03 5.190524458885192871e-02 -3.530519083142280579e-02 4.075700882822275162e-03 3.136203857138752937e-03 -2.790527360048145056e-04 -3.908658772706985474e-02 -2.635318599641323090e-02 -1.479533128440380096e-02 5.752599332481622696e-03 -4.478709306567907333e-03 -1.301104947924613953e-02 -6.405257619917392731e-03 1.962978020310401917e-02
1.203626021742820740e-02 3.811684623360633850e-02 2.170300669968128204e-02 6.226692348718643188e-03 -2.456269972026348114e-02 -2.682030759751796722e-02 -1.469479221850633621e-02 1.754488609731197357e-02 4.355965182185173035e-02 2.879385370761156082e-03 9.204241447150707245e-03 1.187144406139850616e-02 1.284516602754592896e-02 -2.947383746504783630e-02 -6.184190278872847557e-04 2.600190602242946625e-02 -5.529168993234634399e-03 2.481618896126747131e-03 -7.936105132102966309e-03 -1.508497912436723709e-02 1.419724710285663605e-02 1.677042618393898010e-02 4.859959706664085388e-02 7.471731305122375488e-02 1.057603117078542709e-02 -1.627482287585735321e-02 -1.622732356190681458e-02 1.401724480092525482e-02 2.284075319766998291e-02 3.561731800436973572e-02 4.628985747694969177e-02 4.040321335196495056e-02 -1.134534613811410964e-04 2.830879017710685730e-02 3.811188787221908569e-02 1.546590588986873627e-02 4.388617724180221558e-02 2.725390903651714325e-02 1.718940213322639465e-02 1.730503514409065247e-02 4.796491563320159912e-02 -5.629803612828254700e-02 -1.183594670146703720e-02 -9.333231486380100250e-03 -5.375569453462958336e-04 -3.379597142338752747e-02 1.500478759407997131e-02 2.176581695675849915e-02 6.946052890270948410e-03 9.994491934776306152e-03 2.815802581608295441e-03 -7.276177871972322464e-03 3.123448230326175690e-02 1.657257322221994400e-03 5.334785208106040955e-03 7.633622735738754272e-02 -1.549870241433382034e-03 4.726876318454742432e-02 2.226467244327068329e-02 -1.480253413319587708e-02 -6.402172148227691650e-03 -4.438221827149391174e-02 1.479457877576351166e-02 -3.879725560545921326e-02 -2.599890343844890594e-02 3.441479057073593140e-02 -5.342506803572177887e-03 -2.100517787039279938e-02 8.642701432108879089e-03 3.333878517150878906e-02 -1.081185042858123779e-02 1.360027585178613663e-02 4.013180732727050781e-02 3.683813288807868958e-02 -6.325067952275276184e-03 6.113313511013984680e-02 7.398590445518493652e-03 -2.475536614656448364e-02 1.582588069140911102e-02 1.237320806831121445e-02 1.258077379316091537e-02 3.144853189587593079e-02 1.873659901320934296e-02 -4.721878562122583389e-03 5.696917325258255005e-02 -2.949763089418411255e-03 -2.020268514752388000e-02 1.968600973486900330e-02 1.996985450387001038e-02 2.158808521926403046e-02 -5.429117474704980850e-03 2.769441343843936920e-04 9.555027820169925690e-03 -1.625138102099299431e-03 1.025728764943778515e-03 2.998879179358482361e-02 -3.909754566848278046e-03 -3.553156927227973938e-02 -1.147127617150545120e-02 3.792262449860572815e-02 2.344504557549953461e-02 -8.645271882414817810e-03 -3.591576387407258153e-05 1.564965769648551941e-02 -8.512857370078563690e-03 3.701076656579971313e-02 -1.018930575810372829e-03 1.752854324877262115e-02 -4.436850547790527344e-03 -6.398237310349941254e-03 -3.977113589644432068e-02 -5.487873684614896774e-03 1.611367613077163696e-02 3.246089443564414978e-03 -8.503792923875153065e-04 -8.871467784047126770e-03 3.311105072498321533e-02 -7.538461126387119293e-03 1.068300101906061172e-02 1.215231698006391525e-02 -5.130767356604337692e-03 7.899989373981952667e-03 1.526785432361066341e-03 -7.242763880640268326e-03 3.377287834882736206e-02 -1.391645055264234543e-02 4.078118503093719482e-02 -2.547728829085826874e-02 2.566142939031124115e-02 -5.046471953392028809e-03 2.634985186159610748e-02 4.411118105053901672e-02 -8.097560144960880280e-03 3.140643239021301270e-02 3.206627070903778076e-02 -1.956524699926376343e-02 2.108329720795154572e-02 3.080611117184162140e-03 3.686155751347541809e-02 4.818611778318881989e-03 -7.160236418712884188e-05 6.454876624047756195e-03 -1.153913885354995728e-02 -2.813321538269519806e-03 6.962954998016357422e-02 -8.119932608678936958e-04 1.415155548602342606e-02 4.075436294078826904e-02 3.997765481472015381e-02 -1.798508502542972565e-02 -2.765989489853382111e-02 2.577771991491317749e-02 1.325856428593397141e-02 -1.204239577054977417e-02 1.237176172435283661e-02 -1.829823292791843414e-02 3.647423163056373596e-02 5.124317854642868042e-02 3.786917310208082199e-03 -3.438397496938705444e-02 2.405858784914016724e-02 2.509082481265068054e-02 -8.721431576930172014e-09 -1.996864564716815948e-02 -1.037163939327001572e-02 3.051793016493320465e-02 -6.562478915839164983e-08 -1.009204611182212830e-02 -6.495674606412649155e-04 -3.361204406246542931e-03 -2.183277159929275513e-02 1.021282095462083817e-02 5.114091560244560242e-03 3.981234878301620483e-02 4.027015715837478638e-02 -4.876971244812011719e-02 -7.818075828254222870e-03 -2.498554252088069916e-02 -1.317180600017309189e-02 -5.811175797134637833e-03 3.039538301527500153e-02 -2.358338609337806702e-02 3.151104971766471863e-02 1.138453837484121323e-02 6.086556706577539444e-03 2.529604919254779816e-02 1.233922410756349564e-02 2.495798654854297638e-02 1.502231508493423462e-02 1.645965129137039185e-02 3.014601394534111023e-02 3.502387925982475281e-02 -2.716891840100288391e-02 5.070986808277666569e-04 1.775715686380863190e-02 3.028726764023303986e-02 1.965083368122577667e-02 1.278076320886611938e-02 2.320826752111315727e-04 -9.290153975598514080e-04 5.547902081161737442e-03 2.932129614055156708e-02 -4.996895790100097656e-03 1.502796355634927750e-02 -4.692720994353294373e-02 4.083648696541786194e-02 -1.057204976677894592e-02 1.514135766774415970e-02 -4.292367026209831238e-02 4.989481531083583832e-03 1.657134667038917542e-02 1.065783668309450150e-02 8.350817486643791199e-03 2.534506376832723618e-03 1.041024271398782730e-02 -3.497249854262918234e-04 -1.776686869561672211e-02 3.129801526665687561e-02 4.210137296468019485e-03 4.472003318369388580e-03 3.004846535623073578e-02 -5.877088755369186401e-03 -2.060731640085577965e-05 -7.966876961290836334e-03 3.313618153333663940e-02 4.538945853710174561e-02 1.270928699523210526e-02 1.382069848477840424e-02 -1.345657613116557627e-11 1.109888777136802673e-03 3.299587965011596680e-02 6.437377538532018661e-03 5.774921178817749023e-02 2.575577050447463989e-02 1.333026122301816940e-02 1.874027214944362640e-02 3.920165449380874634e-02 -3.722006455063819885e-02 9.786336682736873627e-03 3.379095345735549927e-02 -5.624200683087110519e-03 1.052847784012556076e-02 5.241645127534866333e-02 4.232729971408843994e-02 9.960562922060489655e-03 1.160048320889472961e-02 -9.389642626047134399e-03 2.716383524239063263e-02 2.670157514512538910e-02 1.261084713041782379e-02
-2.148992568254470825e-02 -2.345225308090448380e-03 3.284348547458648682e-02 4.759969934821128845e-02 4.966472461819648743e-02 6.395415216684341431e-02 1.901101693511009216e-02 -1.712566800415515900e-02 -1.228520087897777557e-02 -1.500960253179073334e-02 -1.952550001442432404e-02 -2.844878286123275757e-02 2.636984921991825104e-02 2.119019627571105957e-02 -2.232636883854866028e-02 -4.913022741675376892e-02 5.403689108788967133e-03 1.428896375000476837e-02 3.427661582827568054e-02 -9.802416898310184479e-03 -3.864395897835493088e-03 -2.898517297580838203e-03 -4.692857339978218079e-02 -6.575870513916015625e-02 3.068596124649047852e-02 5.254020169377326965e-02 1.821061782538890839e-02 1.104123797267675400e-02 -2.390960603952407837e-02 2.462096977978944778e-03 -2.167916670441627502e-02 -5.110991001129150391e-02 3.916906425729393959e-04 -3.679055720567703247e-02 -2.331956289708614349e-02 -8.386408910155296326e-03 7.784082088619470596e-03 2.539230277761816978e-03 -3.191036870703101158e-03 2.585230022668838501e-02 -9.017474949359893799e-03 5.726035684347152710e-02 2.619427442550659180e-02 -8.223580196499824524e-03 3.342136368155479431e-02 4.133910685777664185e-02 1.959517598152160645e-02 1.068341545760631561e-02 -2.496519312262535095e-02 1.362649630755186081e-02 1.352923735976219177e-02 3.310479514766484499e-04 -1.398288458585739136e-02 1.410898938775062561e-02 5.769407842308282852e-03 -5.381134524941444397e-02 8.516056463122367859e-03 -1.000540982931852341e-02 -3.264260664582252502e-02 2.281641773879528046e-02 4.742314666509628296e-02 6.019470095634460449e-02 -7.740691304206848145e-03 7.821068167686462402e-02 1.953754015266895294e-02 -5.575682036578655243e-03 1.842953264713287354e-02 4.562759771943092346e-02 2.003430947661399841e-02 -1.243822649121284485e-02 3.535135765559971333e-04 -8.725687861442565918e-03 -3.076047450304031372e-02 -3.968112915754318237e-02 1.178261451423168182e-02 -1.319029601290822029e-03 -4.162508249282836914e-02 3.614214435219764709e-02 1.938696950674057007e-02 -1.708783768117427826e-02 -2.023204602301120758e-02 -1.669736951589584351e-02 2.006552740931510925e-02 1.736360043287277222e-02 -2.783291973173618317e-02 2.780931256711483002e-02 2.002623490989208221e-02 -9.384992532432079315e-03 -1.636281423270702362e-02 4.434493021108210087e-04 -9.296195581555366516e-03 -5.100490059703588486e-03 3.340546973049640656e-03 4.046296328306198120e-02 3.407791256904602051e-02 -1.278506312519311905e-02 1.078024506568908691e-02 4.475943371653556824e-02 1.550429966300725937e-02 -1.282123476266860962e-02 -1.717081293463706970e-02 -3.796250373125076294e-02 6.726853549480438232e-02 -1.959613338112831116e-02 1.825927011668682098e-02 -2.249347232282161713e-02 -2.841173298656940460e-02 -2.776488661766052246e-02 2.293522097170352936e-02 -2.216813445556908846e-04 1.769888959825038910e-02 2.480450831353664398e-02 -1.816423982381820679e-02 4.143920913338661194e-02 6.332352757453918457e-02 9.117640554904937744e-03 -2.838737703859806061e-02 6.665919208899140358e-04 -1.779597625136375427e-02 -9.254239499568939209e-03 2.882853336632251740e-02 5.864460021257400513e-02 -4.273037891834974289e-03 1.473228167742490768e-02 -6.547223031520843506e-02 -3.288047853857278824e-03 -9.423677809536457062e-03 1.924172043800354004e-02 -5.726148933172225952e-02 1.834633760154247284e-02 -2.024944685399532318e-02 -3.445608913898468018e-02 3.563657402992248535e-02 -2.380336448550224304e-02 -3.128689527511596680e-02 5.902513489127159119e-02 1.825249753892421722e-02 -2.739341184496879578e-02 -2.452132664620876312e-02 4.872231278568506241e-03 -2.931293274741619825e-04 -4.559043049812316895e-02 2.603293024003505707e-02 2.988855540752410889e-02 -9.102952666580677032e-03 -7.943398668430745602e-04 -8.060629479587078094e-03 -4.112867265939712524e-02 -3.283153474330902100e-02 3.905937820672988892e-02 4.485988616943359375e-02 -5.851013958454132080e-02 1.470433548092842102e-02 7.674592733383178711e-02 -3.426391864195466042e-03 2.337198145687580109e-02 -3.458448499441146851e-02 -4.519142210483551025e-02 -2.512645162642002106e-02 7.504189014434814453e-02 -3.681451082229614258e-02 -1.608844473958015442e-02 -8.871708923052779028e-11 3.762208297848701477e-02 7.336448878049850464e-02 -3.764205612242221832e-04 -6.392180011971504427e-07 9.476326406002044678e-03 5.990019533783197403e-03 1.183727290481328964e-02 2.764313854277133942e-02 2.092372626066207886e-02 1.305872388184070587e-02 -1.586340554058551788e-02 -2.405937202274799347e-02 4.811704158782958984e-02 1.288040261715650558e-02 -2.852171845734119415e-02 3.691692650318145752e-02 -1.107033807784318924e-02 -1.593396812677383423e-02 3.222060576081275940e-02 -3.495405614376068115e-02 -2.513185143470764160e-03 -7.258587284013628960e-04 6.387472618371248245e-03 -5.045507103204727173e-03 -5.185638554394245148e-03 -7.295630872249603271e-03 2.003004588186740875e-02 4.940344369970262051e-04 -3.602489456534385681e-02 2.981569059193134308e-02 -6.933081895112991333e-03 -2.829742245376110077e-02 -6.007045879960060120e-02 4.016026388853788376e-03 -3.331903368234634399e-02 -2.249602694064378738e-04 7.783491164445877075e-02 -2.249231934547424316e-02 -2.551518753170967102e-02 -2.731421217322349548e-02 -2.754039876163005829e-02 3.621161356568336487e-02 -4.406623542308807373e-02 -3.341672569513320923e-02 -2.494319714605808258e-02 5.148261040449142456e-02 2.769733965396881104e-02 -2.029406279325485229e-02 -3.942877054214477539e-02 2.526735141873359680e-02 8.181001176126301289e-04 1.788138970732688904e-02 -2.681913971900939941e-02 2.482737228274345398e-02 -1.999582722783088684e-02 -8.281088434159755707e-03 1.153291668742895126e-02 -1.942882686853408813e-02 9.409199468791484833e-03 7.355861453106626868e-05 2.573530934751033783e-02 1.282348483800888062e-02 -2.827549353241920471e-02 5.629455298185348511e-02 1.211783662438392639e-02 -2.627238287467845618e-17 -3.238369827158749104e-04 -1.850436441600322723e-02 3.694700449705123901e-02 -3.192600235342979431e-02 -4.019887745380401611e-02 -8.988549932837486267e-03 3.534958511590957642e-02 -2.052105963230133057e-02 3.176868334412574768e-02 4.530500620603561401e-03 -1.775871403515338898e-02 2.716463617980480194e-02 -8.318476378917694092e-03 -1.475772913545370102e-02 -5.340723693370819092e-02 -2.540207654237747192e-02 -1.170280203223228455e-02 6.184269487857818604e-02 -1.579331047832965851e-02 -2.386113256216049194e-02 2.563232369720935822e-02
-4.258135706186294556e-02 6.939230859279632568e-02 5.807822942733764648e-02 -4.339595761848613620e-05 5.294619128108024597e-02 2.972348034381866455e-02 -1.953301252797245979e-03 -5.055873468518257141e-02 -2.746365731582045555e-03 3.183279559016227722e-02 2.758317999541759491e-02 -1.599695906043052673e-02 -1.148241106420755386e-02 -8.273612707853317261e-03 1.409276039339601994e-03 -5.254966393113136292e-02 2.672391245141625404e-03 2.396634779870510101e-02 4.322753846645355225e-02 -1.568566821515560150e-02 -2.493238821625709534e-02 -1.005638297647237778e-02 -9.113942505791783333e-04 1.406157272867858410e-03 -1.856547035276889801e-02 6.014475226402282715e-02 -5.158738419413566589e-02 2.608959190547466278e-02 -4.321060609072446823e-03 -9.000994265079498291e-03 -4.542896151542663574e-02 1.817244570702314377e-03 2.840096422005444765e-04 -2.410128526389598846e-02 3.944093361496925354e-03 -5.411671008914709091e-03 -7.812768220901489258e-03 3.499354049563407898e-02 4.684553667902946472e-02 2.879231423139572144e-02 5.856974050402641296e-03 3.651643916964530945e-02 -2.925246581435203552e-02 -2.467817254364490509e-02 5.798287317156791687e-02 -4.487587139010429382e-03 -3.168790601193904877e-03 -6.399479229003190994e-03 -2.778308838605880737e-02 2.871122211217880249e-02 9.559667855501174927e-02 3.965785261243581772e-03 -9.383047930896282196e-03 2.349680475890636444e-02 -2.331102499738335609e-03 -4.140641540288925171e-02 9.049075655639171600e-03 5.468366295099258423e-02 -1.852902397513389587e-02 -1.080213952809572220e-02 1.205407530069351196e-01 1.708815991878509521e-02 -2.845537848770618439e-03 6.216945871710777283e-02 1.253793016076087952e-02 2.123183570802211761e-02 -1.845019496977329254e-02 6.539072096347808838e-02 2.502214722335338593e-02 -8.701123297214508057e-03 2.644232881721109152e-04 4.101821407675743103e-02 -5.293411668390035629e-03 -3.522995684761554003e-04 3.100041113793849945e-02 4.025307297706604004e-02 1.177456229925155640e-02 1.558238267898559570e-02 1.552128884941339493e-02 1.488604582846164703e-02 4.352594166994094849e-02 -1.401279214769601822e-02 -1.084795501083135605e-02 4.389408975839614868e-02 -4.159849509596824646e-02 -2.777996100485324860e-02 -9.075403213500976562e-03 -5.417357198894023895e-03 1.049910858273506165e-01 1.678320951759815216e-02 2.891592681407928467e-03 -3.206836059689521790e-02 5.469306837767362595e-03 4.682732000946998596e-02 1.977807469666004181e-02 -2.609623409807682037e-02 -3.018152154982089996e-02 1.699695922434329987e-02 5.699384957551956177e-03 -3.001544997096061707e-02 9.408707730472087860e-03 -2.878108620643615723e-02 1.376805454492568970e-01 -4.615744110196828842e-03 2.103958092629909515e-02 -2.491794759407639503e-03 -4.073018580675125122e-02 -1.236551441252231598e-02 6.178026273846626282e-02 -7.477656938135623932e-03 1.907728612422943115e-02 6.893107295036315918e-02 3.450345993041992188e-02 6.894802302122116089e-02 3.344205394387245178e-02 5.875820294022560120e-03 -1.056814752519130707e-02 2.541747642681002617e-03 -1.094683073461055756e-02 1.459712907671928406e-02 3.203336894512176514e-02 5.132499709725379944e-02 1.568313315510749817e-02 2.023666910827159882e-02 -3.717634081840515137e-02 -2.333352155983448029e-02 -1.904408633708953857e-02 -8.178514428436756134e-03 -6.535658240318298340e-02 -9.298949502408504486e-03 6.470233201980590820e-04 -1.901736855506896973e-02 2.660175599157810211e-02 3.126329928636550903e-02 8.609259873628616333e-02 3.280005604028701782e-02 7.901674136519432068e-03 -3.983029350638389587e-02 -2.003210969269275665e-02 2.935981191694736481e-02 -4.889130359515547752e-04 -3.384438529610633850e-02 7.937502115964889526e-03 -6.663609296083450317e-03 -8.212963119149208069e-03 1.029565278440713882e-02 9.997448883950710297e-03 -6.938227917999029160e-03 6.735990755259990692e-03 4.727637022733688354e-02 4.774561151862144470e-02 -5.506458878517150879e-02 1.572166383266448975e-02 1.220110524445772171e-02 -4.985333420336246490e-03 3.443451598286628723e-02 -1.464479323476552963e-02 -4.701974801719188690e-03 -2.610721439123153687e-02 3.375718742609024048e-02 -3.618031740188598633e-02 -1.907614059746265411e-02 -7.728027245912372223e-11 1.413680799305438995e-02 5.338718369603157043e-02 4.181290790438652039e-02 -3.392147789327282226e-07 1.039481721818447113e-03 1.676499098539352417e-02 8.641192689538002014e-03 1.334424037486314774e-02 2.666035853326320648e-02 9.433863312005996704e-02 2.270593680441379547e-02 -8.560736663639545441e-03 3.121481649577617645e-02 7.615990936756134033e-03 -5.063232406973838806e-02 5.172603763639926910e-03 -5.021060258150100708e-02 1.468651182949542999e-02 2.123154699802398682e-02 -3.248338028788566589e-02 8.885378949344158173e-03 -7.783687906339764595e-04 -2.029425464570522308e-03 -1.312492386205121875e-04 5.154106393456459045e-02 2.348589338362216949e-02 -1.791553944349288940e-02 3.595492988824844360e-02 -2.611280605196952820e-02 -1.411631982773542404e-02 -1.432408951222896576e-02 -1.277221553027629852e-02 1.465228293091058731e-02 4.196939244866371155e-02 -2.031994238495826721e-02 -2.721605123952031136e-04 3.441051021218299866e-02 -1.969529315829277039e-02 2.947197062894701958e-03 -4.208461195230484009e-02 -2.082955092191696167e-02 3.143285214900970459e-02 6.162516307085752487e-03 -4.200487211346626282e-02 -1.898001693189144135e-02 8.660438470542430878e-03 1.077491417527198792e-01 1.683390885591506958e-02 -2.833136916160583496e-02 -1.527224201709032059e-02 -1.232898910529911518e-03 3.030829690396785736e-02 -3.015710599720478058e-02 -4.509850405156612396e-03 -1.351164467632770538e-02 -2.212919294834136963e-02 1.139714661985635757e-02 1.200073212385177612e-02 7.450005039572715759e-03 -1.725486799841746688e-05 1.558633614331483841e-02 -5.379989277571439743e-03 2.627536095678806305e-02 2.893753349781036377e-02 2.697395719587802887e-02 -1.491265093150785761e-18 5.379342474043369293e-03 1.116720959544181824e-02 4.839612916111946106e-02 -2.186440397053956985e-03 1.589259319007396698e-02 9.017784148454666138e-03 9.435553103685379028e-02 -2.060480229556560516e-02 1.565101556479930878e-02 6.023515388369560242e-02 -3.763180226087570190e-02 -1.920619979500770569e-02 1.720905862748622894e-02 7.318638265132904053e-03 -1.441917475312948227e-02 -1.457763370126485825e-02 -5.659900489263236523e-04 5.483645573258399963e-02 -3.075279109179973602e-02 5.371699808165431023e-04 1.882718689739704132e-02
-2.222402952611446381e-02 -3.042069962248206139e-03 5.401991307735443115e-03 -1.016599982976913452e-01 2.380241639912128448e-02 3.112076781690120697e-02 1.406261464580893517e-03 1.951397396624088287e-02 2.806152449920773506e-03 -8.071477711200714111e-02 -4.422432184219360352e-02 -1.499039307236671448e-02 -8.532950596418231726e-05 3.629264980554580688e-02 9.641948342323303223e-02 1.187826879322528839e-02 2.866972004994750023e-03 -5.787499248981475830e-03 1.150145940482616425e-02 2.865051664412021637e-02 1.039319187402725220e-01 2.800132520496845245e-02 1.903001591563224792e-02 6.061990931630134583e-02 -7.199772447347640991e-02 -6.029922515153884888e-02 -3.496580198407173157e-02 1.402428299188613892e-01 2.722809836268424988e-02 -3.477828577160835266e-02 8.791589736938476562e-02 -1.839461736381053925e-02 6.722212419845163822e-04 2.341527678072452545e-02 2.932163886725902557e-02 6.901208776980638504e-03 -1.447918731719255447e-02 -2.174438908696174622e-02 3.138052299618721008e-02 7.573961466550827026e-02 1.495206262916326523e-02 -2.415289729833602905e-02 -1.294696051627397537e-02 7.141360081732273102e-03 -2.089306153357028961e-02 -2.215670654550194740e-03 -1.201334595680236816e-02 1.248274557292461395e-02 3.018454834818840027e-02 2.398215048015117645e-02 -7.352626323699951172e-02 -7.684333715587854385e-03 1.923114992678165436e-02 -1.579916290938854218e-02 -1.115072169341146946e-03 6.438553333282470703e-02 6.196457543410360813e-04 1.491288375109434128e-02 3.418029751628637314e-03 -1.900976151227951050e-02 -4.789000377058982849e-02 -5.560077726840972900e-02 1.761464774608612061e-02 -1.638805144466459751e-03 -2.230563433840870857e-03 5.996869876980781555e-02 -4.092626273632049561e-02 -3.891208022832870483e-02 1.220675534568727016e-03 1.389251090586185455e-02 9.642190299928188324e-03 8.704615756869316101e-03 5.608792975544929504e-02 2.145878523588180542e-01 -2.662057057023048401e-02 3.078550472855567932e-02 7.569734007120132446e-02 -1.848935522139072418e-02 3.138954925816506147e-04 1.881878823041915894e-02 2.439059689640998840e-02 1.030409410595893860e-01 -5.540254712104797363e-02 2.300897985696792603e-02 6.238030269742012024e-02 -7.450733333826065063e-02 -5.900990590453147888e-02 1.087345741689205170e-02 2.614261582493782043e-03 -2.685603313148021698e-02 1.735279709100723267e-02 -8.528424799442291260e-02 -1.507546938955783844e-02 -5.939583107829093933e-02 -4.358795937150716782e-03 1.146465316414833069e-01 4.499191418290138245e-02 -5.414978601038455963e-03 -6.185276899486780167e-03 1.145839467644691467e-01 2.523474767804145813e-02 2.301402855664491653e-03 -1.269927155226469040e-02 3.231617435812950134e-02 2.858307911083102226e-03 7.691665086895227432e-04 -2.018862217664718628e-02 5.538890138268470764e-02 4.919721744954586029e-03 1.179143600165843964e-02 -3.990514203906059265e-02 -2.169789932668209076e-02 3.794312477111816406e-03 -3.895052149891853333e-02 -7.820623432053253055e-05 -3.523653140291571617e-03 3.160106483846902847e-03 1.245831605046987534e-02 3.138277307152748108e-02 -2.648983150720596313e-02 8.136003743857145309e-04 -1.300978809595108032e-01 1.862196996808052063e-02 1.870559900999069214e-02 7.280108332633972168e-02 -1.030160579830408096e-02 6.610775366425514221e-03 8.141322061419487000e-03 4.543767496943473816e-02 -7.634726911783218384e-02 6.259141862392425537e-02 7.278798520565032959e-02 1.055632531642913818e-02 1.022819355130195618e-01 -5.525595974177122116e-03 -1.801520120352506638e-03 -7.718084752559661865e-02 -4.822254180908203125e-02 6.959992647171020508e-02 7.485627662390470505e-03 3.150733828078955412e-04 1.012549176812171936e-01 1.577607914805412292e-02 2.573068253695964813e-02 1.673088409006595612e-02 -2.380187064409255981e-02 -1.105424575507640839e-02 7.207147777080535889e-02 5.041264370083808899e-02 4.304545000195503235e-02 2.997525036334991455e-02 1.013770177960395813e-01 -1.588688977062702179e-02 -8.419224619865417480e-02 1.061933115124702454e-02 -2.618951164186000824e-02 1.406511105597019196e-02 5.233873426914215088e-02 1.122174039483070374e-01 -2.763275243341922760e-02 -5.444971099495887756e-02 4.216118156909942627e-02 -1.429411440767580643e-05 8.864203840494155884e-02 -1.207053512334823608e-01 4.795100912451744080e-02 -2.645507493070908822e-07 -2.956619951874017715e-03 4.697439260780811310e-03 -1.597579941153526306e-02 -3.359053516760468483e-03 -4.980622231960296631e-02 -2.072463557124137878e-02 5.506795831024646759e-03 5.376560613512992859e-02 2.984774298965930939e-02 -1.045913062989711761e-02 -1.128704659640789032e-02 -9.565278887748718262e-02 -2.948416396975517273e-02 2.611144818365573883e-02 -6.717070192098617554e-02 7.079801708459854126e-02 -1.719057932496070862e-02 -1.321375183761119843e-02 -2.878351835533976555e-03 1.144975889474153519e-02 -3.840428590774536133e-02 1.334340311586856842e-02 -8.200015127658843994e-02 6.196804717183113098e-02 7.132463902235031128e-02 8.008091896772384644e-02 2.698756521567702293e-03 9.560641646385192871e-02 5.901410430669784546e-02 -8.425265550613403320e-03 7.038841396570205688e-02 2.144932281225919724e-03 2.104856073856353760e-02 4.519151523709297180e-03 3.834897279739379883e-02 5.554574728012084961e-02 5.546419695019721985e-02 -1.351320296525955200e-01 5.475572310388088226e-03 -4.010396078228950500e-02 6.061043217778205872e-02 9.914558380842208862e-03 -9.226817637681961060e-03 4.223172739148139954e-02 2.546922490000724792e-02 -2.702027373015880585e-02 -1.672757323831319809e-03 2.990826405584812164e-02 1.366409193724393845e-02 -2.087439177557826042e-03 -5.207857489585876465e-02 -3.073457337450236082e-04 3.318824246525764465e-02 2.629130147397518158e-02 -1.892931293696165085e-03 -1.906097866594791412e-03 -5.502019077539443970e-02 -6.785736232995986938e-02 -3.237261995673179626e-02 -8.048968017101287842e-02 -8.370651863515377045e-03 -2.180303246973602782e-12 -2.858928404748439789e-02 -1.323270890861749649e-02 -1.660117995925247669e-04 3.620370477437973022e-02 -4.511093720793724060e-03 3.667292743921279907e-02 1.035075448453426361e-02 3.264312446117401123e-02 6.190090905874967575e-03 -2.293838188052177429e-02 -9.040230885148048401e-03 -1.589173637330532074e-02 3.890565410256385803e-02 1.113516744226217270e-02 4.740808531641960144e-02 -1.411078992532566190e-04 6.652900483459234238e-03 -4.096492379903793335e-02 9.524942934513092041e-02 1.537054125219583511e-02 -1.820184476673603058e-02
6.818488240242004395e-02 9.150837548077106476e-03 3.266184404492378235e-02 5.421699583530426025e-02 7.794370502233505249e-02 8.005844801664352417e-02 -3.945628646761178970e-03 2.760413475334644318e-02 5.296713206917047501e-04 -2.750486321747303009e-02 9.068363346159458160e-03 -4.774154722690582275e-02 2.643183059990406036e-02 2.574457414448261261e-02 3.765020892024040222e-02 3.281124681234359741e-02 1.012959168292582035e-03 2.142469584941864014e-02 5.495088174939155579e-02 1.678427495062351227e-02 2.818834036588668823e-02 1.121894922107458115e-02 -5.543324630707502365e-03 -1.387245301157236099e-02 4.899129644036293030e-02 -1.224242802709341049e-02 7.210793346166610718e-02 5.874222889542579651e-02 -1.191489305347204208e-02 2.534001879394054413e-02 -1.458782702684402466e-02 -3.962831571698188782e-02 1.338608562946319580e-03 4.466102924197912216e-03 1.480886526405811310e-02 4.184610396623611450e-02 -1.628451608121395111e-02 -9.724579751491546631e-03 -2.862230874598026276e-03 7.365881651639938354e-02 8.223272860050201416e-03 1.521870587021112442e-02 5.540898442268371582e-02 1.038031131029129028e-01 3.921642899513244629e-02 6.444729864597320557e-02 -4.716504737734794617e-02 2.788026258349418640e-02 -3.537008911371231079e-02 3.957950044423341751e-03 2.351562306284904480e-02 -7.628065068274736404e-03 1.096789259463548660e-02 -2.881226874887943268e-02 -2.018086984753608704e-02 4.845619667321443558e-03 -3.777895867824554443e-02 -1.003026217222213745e-01 -3.162677958607673645e-02 2.709218487143516541e-02 3.316360060125589371e-03 2.943271957337856293e-02 -1.573616638779640198e-02 3.586801141500473022e-02 9.363545104861259460e-03 1.001022569835186005e-02 -9.737629443407058716e-03 9.149040095508098602e-03 3.998415544629096985e-02 5.759665369987487793e-02 -4.796950612217187881e-03 2.986945584416389465e-02 -1.135698519647121429e-02 3.135853633284568787e-02 4.846966359764337540e-03 -8.810440078377723694e-03 -4.342126846313476562e-02 2.378885075449943542e-02 -3.552771871909499168e-03 -4.081719741225242615e-02 -3.916870430111885071e-02 5.416298285126686096e-02 4.143901541829109192e-02 5.521138757467269897e-02 2.451748773455619812e-02 1.014695167541503906e-01 5.824245139956474304e-02 -2.341283112764358521e-02 -8.738131821155548096e-02 -2.158564515411853790e-02 1.853314414620399475e-02 1.513388101011514664e-02 -8.166810497641563416e-03 -2.734324429184198380e-03 -3.958453610539436340e-02 2.000193111598491669e-03 5.638556554913520813e-02 3.333489224314689636e-02 3.667043894529342651e-02 -5.809994041919708252e-02 1.177217997610569000e-02 -2.372288890182971954e-02 9.175405837595462799e-03 -2.519388683140277863e-02 4.787413054145872593e-04 -1.941572874784469604e-03 -4.881770163774490356e-02 2.331418357789516449e-02 1.595222018659114838e-02 -1.693759672343730927e-02 2.941995672881603241e-02 4.841081425547599792e-02 3.342768177390098572e-02 1.450213021598756313e-03 5.968109890818595886e-02 6.080652819946408272e-04 -1.457527652382850647e-02 7.948129437863826752e-03 8.303986862301826477e-03 1.484323199838399887e-02 6.255047768354415894e-02 2.561597898602485657e-02 2.939984574913978577e-02 9.630588814616203308e-03 -1.455886662006378174e-02 1.187067385762929916e-02 2.044137194752693176e-02 4.816258326172828674e-02 -4.949609283357858658e-03 3.160752356052398682e-02 2.336297184228897095e-02 1.849489472806453705e-02 8.861882239580154419e-02 -8.456817828118801117e-03 -7.054918259382247925e-02 1.291427481919527054e-02 2.796502085402607918e-03 -2.762981131672859192e-02 -4.097715020179748535e-02 1.022779848426580429e-02 -4.223650030326098204e-04 -1.265565026551485062e-02 5.779023841023445129e-02 1.044467166066169739e-01 -1.059252675622701645e-02 2.307393588125705719e-02 -5.629604682326316833e-02 -1.928472705185413361e-02 -1.980712451040744781e-02 -2.141344361007213593e-02 3.908360004425048828e-02 3.990699350833892822e-02 -1.327703823335468769e-03 2.612465433776378632e-02 -2.403752319514751434e-02 2.837747894227504730e-02 -5.764284357428550720e-02 -2.727982401847839355e-02 9.197228401899337769e-02 2.915656939148902893e-02 -5.826076027005910873e-03 6.534871645271778107e-03 -3.430733102049998706e-07 1.009591072797775269e-01 3.926466777920722961e-02 1.557616889476776123e-02 -5.408365382209012751e-07 1.161057781428098679e-02 -2.875073440372943878e-02 -3.602055599913001060e-03 1.343986578285694122e-02 -2.859234996140003204e-02 7.784039480611681938e-04 -4.622313380241394043e-02 2.967143990099430084e-02 1.174596920609474182e-01 -2.565543400123715401e-03 6.581503897905349731e-03 3.762169554829597473e-02 4.120563343167304993e-02 -4.148763045668601990e-02 -1.441295724362134933e-02 -7.352451235055923462e-02 -1.469744928181171417e-02 -8.998124394565820694e-04 7.310042856261134148e-04 -1.950051076710224152e-02 -5.909794196486473083e-02 -1.597427017986774445e-02 1.116970479488372803e-01 3.154172003269195557e-02 -2.028372883796691895e-02 1.807495206594467163e-02 -4.457766562700271606e-02 1.024291887879371643e-01 -6.518084555864334106e-02 -3.312843665480613708e-02 3.931705281138420105e-02 -3.481447347439825535e-04 7.739358395338058472e-02 -2.251543849706649780e-02 -1.192328333854675293e-02 3.559360653162002563e-02 -3.017100878059864044e-02 3.647918999195098877e-02 -4.381143674254417419e-02 9.292881935834884644e-03 3.478749096393585205e-02 5.581651628017425537e-02 2.943608909845352173e-02 2.907864376902580261e-02 -1.408355869352817535e-02 3.340629488229751587e-02 1.100987545214593410e-03 2.490987535566091537e-03 5.619371775537729263e-03 1.616391818970441818e-03 -1.517807878553867340e-02 2.206444554030895233e-02 6.085153669118881226e-02 -2.331036701798439026e-02 -5.171508528292179108e-04 -1.967619464267045259e-04 3.223749250173568726e-02 -4.409449640661478043e-03 -1.582222059369087219e-02 4.008178040385246277e-02 -3.141335770487785339e-02 -1.401652665461439184e-11 -1.781173050403594971e-02 -1.443344447761774063e-02 4.430336877703666687e-02 -2.350551821291446686e-02 5.112905520945787430e-03 -4.159044474363327026e-02 -2.614270150661468506e-02 -5.050345137715339661e-02 3.033150546252727509e-02 -3.730269894003868103e-02 -4.347328096628189087e-02 6.015353277325630188e-02 1.920736581087112427e-02 -3.311040997505187988e-02 -7.391918916255235672e-03 7.016260176897048950e-02 -2.271216362714767456e-02 -1.363071799278259277e-02 2.419341541826725006e-02 -2.199778705835342407e-02 5.035927519202232361e-02
-7.137214299291372299e-03 2.419333718717098236e-02 2.003897354006767273e-02 2.765849418938159943e-02 4.467685648705810308e-04 -4.421591758728027344e-02 -8.373495191335678101e-03 -8.791013620793819427e-03 -5.631935317069292068e-03 3.864727541804313660e-02 8.138164877891540527e-03 1.849797740578651428e-02 -2.800319530069828033e-02 -3.881995379924774170e-02 2.249828539788722992e-02 -1.523424405604600906e-03 3.865807550027966499e-03 1.047826278954744339e-02 1.753066107630729675e-02 3.038419410586357117e-02 3.492906317114830017e-02 2.487616613507270813e-02 5.085064098238945007e-02 4.912037029862403870e-02 1.204988639801740646e-02 1.569693093188107014e-03 -4.151122702751308680e-04 9.814680088311433792e-04 2.763112448155879974e-02 1.010642480105161667e-02 1.506649330258369446e-02 1.945246569812297821e-02 -4.218954127281904221e-04 3.213105350732803345e-02 2.963832020759582520e-02 2.603527717292308807e-02 1.647723955102264881e-03 1.486895885318517685e-02 2.638415433466434479e-02 2.629936672747135162e-02 -4.080789163708686829e-03 -1.241077575832605362e-02 -1.319230627268552780e-02 1.237596757709980011e-02 3.590509295463562012e-02 -3.693784400820732117e-02 1.006555650383234024e-02 5.469776224344968796e-04 2.507579699158668518e-02 1.208129525184631348e-02 1.966914162039756775e-02 -3.291670931503176689e-03 -3.121668240055441856e-03 1.146475318819284439e-02 1.124871708452701569e-02 3.983854874968528748e-02 2.768613584339618683e-02 4.104413092136383057e-02 2.167924679815769196e-02 -9.956303052604198456e-03 6.990162655711174011e-04 5.019550211727619171e-03 1.690213754773139954e-02 -1.726712845265865326e-02 -1.222578156739473343e-02 3.948358353227376938e-04 1.190613396465778351e-02 -3.288425737991929054e-03 -3.913183230906724930e-03 -1.406312105245888233e-03 -2.226088382303714752e-02 -1.433557458221912384e-02 3.471084684133529663e-02 2.651045471429824829e-02 2.836496336385607719e-03 1.631338894367218018e-02 3.260377049446105957e-02 -1.766369864344596863e-02 1.916245557367801666e-02 4.376752302050590515e-02 2.157104201614856720e-02 1.804339699447154999e-03 3.619975876063108444e-03 1.797000993974506855e-03 2.631087414920330048e-02 9.431245736777782440e-03 1.149811036884784698e-02 3.221919387578964233e-02 4.501423612236976624e-02 3.173453733325004578e-03 -1.579156704246997833e-02 -1.103722769767045975e-02 8.262275718152523041e-03 7.150738034397363663e-03 1.381137408316135406e-02 5.600360687822103500e-03 1.942555047571659088e-02 -2.735124900937080383e-02 2.322448976337909698e-02 -3.654833137989044189e-02 1.035531517118215561e-02 2.911264635622501373e-02 3.416432812809944153e-02 3.443237021565437317e-02 7.498007034882903099e-04 -2.101126010529696941e-04 2.254339493811130524e-02 2.490405179560184479e-02 3.916390705853700638e-03 1.452518068253993988e-02 -2.018224447965621948e-03 -2.960810088552534580e-04 2.588190510869026184e-02 1.462018210440874100e-02 2.186063863337039948e-02 5.549191962927579880e-03 2.980889938771724701e-02 7.701731286942958832e-03 2.909039333462715149e-02 2.393439784646034241e-02 2.104459563270211220e-03 1.081565674394369125e-02 1.322315633296966553e-02 -4.492856678552925587e-04 2.586924284696578979e-02 2.838318236172199249e-02 -1.128600072115659714e-02 -1.851863227784633636e-02 6.727416999638080597e-03 1.042482350021600723e-02 1.604599878191947937e-02 3.831044957041740417e-02 8.010689169168472290e-03 4.617137089371681213e-02 2.662597782909870148e-02 8.030826225876808167e-03 1.300036441534757614e-02 2.293909713625907898e-02 -8.086461457423865795e-04 2.010824345052242279e-02 1.476553443353623152e-04 1.440506987273693085e-02 2.727965824306011200e-02 7.430310361087322235e-04 -4.710345237981528044e-04 6.240495946258306503e-03 2.841487713158130646e-02 3.948640823364257812e-02 3.507973998785018921e-02 -3.445344511419534683e-03 -7.880111807025969028e-04 3.533652797341346741e-02 -1.447345130145549774e-02 2.429915219545364380e-02 2.158744819462299347e-02 1.055687945336103439e-02 1.213810406625270844e-02 4.162577912211418152e-02 3.179343044757843018e-02 -2.433665096759796143e-02 4.692554939538240433e-03 1.119179837405681610e-02 3.249296298690751428e-07 -2.099889330565929413e-02 4.755326360464096069e-02 5.611669272184371948e-03 3.251607836318726186e-07 -5.527132190763950348e-03 1.734805479645729065e-02 6.969997659325599670e-03 -1.438482571393251419e-02 3.204045072197914124e-02 3.224798291921615601e-02 2.749977819621562958e-02 2.275167591869831085e-02 -4.933929070830345154e-02 -5.302591016516089439e-04 -9.348277933895587921e-03 1.021307427436113358e-02 -2.431959286332130432e-02 2.560253068804740906e-02 1.005042344331741333e-02 1.315245684236288071e-02 2.530860714614391327e-02 1.383510185405611992e-03 3.196885809302330017e-02 2.278998680412769318e-02 4.071182571351528168e-03 1.287814695388078690e-02 7.821192033588886261e-03 1.828039065003395081e-02 1.750307506881654263e-03 -1.256455946713685989e-02 2.620038762688636780e-02 2.519831620156764984e-02 4.267267510294914246e-02 2.623797394335269928e-02 -2.716505667194724083e-03 6.438489072024822235e-04 -1.687025465071201324e-02 3.380304574966430664e-02 3.415941447019577026e-02 2.137828152626752853e-03 1.117304619401693344e-02 -1.725442893803119659e-02 2.428612112998962402e-02 1.291590859182178974e-03 3.942064940929412842e-02 1.291198469698429108e-02 -6.160878576338291168e-03 -4.612122476100921631e-02 3.116842731833457947e-02 -1.190537773072719574e-02 2.395804040133953094e-03 4.818839207291603088e-02 4.707628861069679260e-02 1.545546296983957291e-02 8.313165977597236633e-03 -5.312873981893062592e-03 4.155917093157768250e-02 3.041352145373821259e-02 1.172046177089214325e-02 -1.470677671022713184e-03 -5.884826648980379105e-03 9.818507358431816101e-03 3.170578554272651672e-02 1.259131729602813721e-02 2.228652499616146088e-02 -2.258494433138302782e-11 1.226530410349369049e-02 3.669611178338527679e-03 9.161395952105522156e-03 1.014302950352430344e-02 -1.275398023426532745e-02 3.016347996890544891e-02 1.312669273465871811e-02 4.321781918406486511e-02 9.558459743857383728e-03 -5.925984005443751812e-04 2.939902432262897491e-02 -2.543405257165431976e-02 2.170109003782272339e-02 4.025323782116174698e-03 3.440280258655548096e-02 -2.161427633836865425e-03 2.294349856674671173e-02 -7.538162637501955032e-03 7.524723187088966370e-03 2.683069743216037750e-02 2.807486569508910179e-03
6.204748526215553284e-03 1.629103347659111023e-02 -2.811097772791981697e-03 1.794130168855190277e-02 2.237285021692514420e-03 -6.619593594223260880e-03 7.057581096887588501e-03 -1.097051333636045456e-02 6.988314446061849594e-03 6.515131797641515732e-03 8.146665059030056000e-03 -1.048606703989207745e-03 -5.079353693872690201e-03 -1.859602634795010090e-03 -4.108244087547063828e-03 -4.306541755795478821e-03 1.240939134731888771e-03 -7.033606991171836853e-03 -2.187990117818117142e-03 7.012624759227037430e-03 1.830423623323440552e-02 9.525337256491184235e-03 3.180413320660591125e-02 1.525445282459259033e-02 -1.927442615851759911e-03 1.417519897222518921e-02 -5.127548240125179291e-03 -8.489507599733769894e-04 9.623901918530464172e-03 -1.592536107636988163e-03 2.666648477315902710e-02 2.223932649940252304e-03 -1.988530420931056142e-04 7.862681522965431213e-03 1.172979318653233349e-04 -4.342602565884590149e-03 8.777891285717487335e-03 1.456339564174413681e-02 1.890685409307479858e-02 2.130626235157251358e-03 6.412907503545284271e-03 1.911221479531377554e-04 -5.999315530061721802e-03 -1.352978311479091644e-02 6.897882558405399323e-03 -1.098381262272596359e-02 1.398154906928539276e-02 5.330976564437150955e-03 1.978228241205215454e-02 1.464103232137858868e-03 1.187558844685554504e-02 7.552997558377683163e-04 4.284231457859277725e-03 1.451447606086730957e-02 7.813917472958564758e-03 1.097680628299713135e-02 2.960368618369102478e-02 1.550285704433917999e-02 5.844668485224246979e-03 -9.909962303936481476e-03 1.775869284756481647e-03 -2.445864258334040642e-03 1.664037257432937622e-02 9.016034309752285480e-04 -7.580960664199665189e-05 1.202800963073968887e-02 1.448596175760030746e-02 -4.107064101845026016e-03 -4.519131965935230255e-03 1.571596367284655571e-03 4.124320548726245761e-05 -7.840601727366447449e-03 2.293839864432811737e-02 2.095207758247852325e-02 2.307458780705928802e-03 1.315576303750276566e-02 1.689867302775382996e-02 -4.690698813647031784e-03 9.056064300239086151e-03 2.070323564112186432e-02 -2.804381540045142174e-03 3.082765964791178703e-03 -2.646521199494600296e-03 -1.779372803866863251e-02 6.004836410284042358e-03 1.460120780393481255e-03 -4.478720948100090027e-03 2.013775147497653961e-02 9.737225249409675598e-03 7.509794522775337100e-05 -1.340647228062152863e-02 -8.625453338027000427e-03 5.613449029624462128e-03 -4.624866414815187454e-03 1.459551043808460236e-02 1.861312799155712128e-02 -4.467798862606287003e-03 -1.237941719591617584e-02 -5.648254416882991791e-03 2.924830280244350433e-02 -7.307827472686767578e-03 2.164299599826335907e-03 1.531106140464544296e-02 1.747824624180793762e-02 3.508685622364282608e-03 2.748332917690277100e-03 1.158973388373851776e-02 6.868013588245958090e-05 -6.329423747956752777e-03 -1.997431740164756775e-03 -1.018557138741016388e-02 -8.508568629622459412e-03 5.012959241867065430e-03 1.018913090229034424e-02 -4.098901990801095963e-03 3.934178967028856277e-03 8.148369379341602325e-03 -1.252066227607429028e-03 7.264389190822839737e-03 2.467183861881494522e-03 -1.619718410074710846e-02 1.629903167486190796e-02 -6.130253430455923080e-03 7.676918525248765945e-03 1.374020986258983612e-02 -1.941169728524982929e-03 5.241983570158481598e-03 -6.994142197072505951e-03 2.089811488986015320e-03 -3.771503223106265068e-03 1.245610881596803665e-03 2.576050534844398499e-02 -3.368956269696354866e-03 1.569336466491222382e-02 2.420645393431186676e-02 8.768573403358459473e-03 3.398673841729760170e-03 2.674570772796869278e-03 9.729043580591678619e-03 -8.194751106202602386e-03 2.028488670475780964e-04 -6.923964712768793106e-03 3.494792850688099861e-03 -9.966996731236577034e-04 1.597728021442890167e-02 -1.313965860754251480e-02 1.435964740812778473e-02 1.865581050515174866e-02 1.631506718695163727e-02 1.068757195025682449e-02 9.298815391957759857e-03 9.796421043574810028e-03 4.761737771332263947e-03 9.500904940068721771e-03 1.693419925868511200e-02 -2.377122407779097557e-03 9.369673207402229309e-03 1.894290558993816376e-02 -1.644506864249706268e-02 -4.637158010154962540e-03 -7.672648876905441284e-03 4.689570050686597824e-04 -4.330003733343801287e-08 -1.371607370674610138e-02 1.004549022763967514e-02 1.423205155879259109e-02 -2.571539425844093785e-07 -4.145205020904541016e-03 9.500733576714992523e-03 1.081086602061986923e-02 -2.578953746706247330e-03 2.073816955089569092e-02 5.387929733842611313e-03 2.084453962743282318e-02 1.590307988226413727e-02 -2.153508365154266357e-02 2.381653059273958206e-03 -1.313913241028785706e-02 -3.403309034183621407e-03 -1.468457747250795364e-02 2.144245430827140808e-02 -2.916689496487379074e-03 1.100786589086055756e-02 2.462042262777686119e-03 -2.112192305503413081e-04 1.362555753439664841e-02 1.026163063943386078e-02 2.115354686975479126e-02 9.508950635790824890e-03 -1.155222021043300629e-02 9.102817624807357788e-03 1.735425367951393127e-02 8.373081684112548828e-03 6.961867213249206543e-03 -7.235975936055183411e-03 1.471225731074810028e-02 1.565596903674304485e-03 -3.140985267236828804e-03 -5.813791358377784491e-05 -1.907776459120213985e-03 1.406373269855976105e-02 9.668787941336631775e-03 4.551916383206844330e-03 1.070570852607488632e-02 -1.705169863998889923e-02 9.323435835540294647e-03 -9.821087121963500977e-03 9.662298485636711121e-03 -1.580713724251836538e-04 4.008061252534389496e-03 -8.838866837322711945e-03 2.117196330800652504e-03 -1.173838623799383640e-03 -2.014714846154674888e-05 9.525624103844165802e-03 1.908571273088455200e-02 5.390224978327751160e-03 -3.353190142661333084e-03 -1.282787788659334183e-02 -3.053626744076609612e-03 1.385299302637577057e-02 2.882842207327485085e-03 4.325144345784792677e-06 -6.338848732411861420e-03 5.741307046264410019e-03 3.975777421146631241e-03 -2.149393782019615173e-03 1.971782371401786804e-02 -9.797941971645407477e-12 2.176207257434725761e-03 1.225080434232950211e-02 -3.489470575004816055e-03 1.785582862794399261e-02 -1.886922866106033325e-02 2.270455285906791687e-02 1.247967965900897980e-02 2.416051551699638367e-02 4.905859008431434631e-03 -8.147735148668289185e-03 1.842368580400943756e-02 -1.617288962006568909e-02 -5.758519284427165985e-03 1.025262754410505295e-02 1.884600380435585976e-03 -1.921474561095237732e-02 1.253390312194824219e-02 1.988101517781615257e-03 -4.721172619611024857e-03 9.810077957808971405e-03 3.015455091372132301e-03
6.281834095716476440e-02 -6.826301570981740952e-03 -2.631223760545253754e-02 -9.186705574393272400e-03 -4.398998990654945374e-02 -2.587988413870334625e-02 2.796655520796775818e-02 1.896535418927669525e-02 4.485454410314559937e-02 -4.892333596944808960e-02 5.743271205574274063e-03 4.464142769575119019e-02 -2.191041037440299988e-02 4.350794851779937744e-02 -3.087051585316658020e-02 2.852978929877281189e-02 -3.884985111653804779e-03 -2.226869389414787292e-02 -5.447957664728164673e-02 3.811537846922874451e-02 2.776250708848237991e-03 1.733886194415390491e-03 4.991459473967552185e-02 2.877078764140605927e-02 4.804996401071548462e-02 1.937325485050678253e-02 3.289691358804702759e-02 -4.077177029103040695e-03 3.421350149437785149e-03 6.818156689405441284e-02 1.224117204546928406e-01 3.453215956687927246e-02 -2.484468859620392323e-04 7.343998644500970840e-03 5.957455560564994812e-02 -2.572684735059738159e-02 9.763520956039428711e-02 1.656321436166763306e-02 -3.164582699537277222e-02 -5.556455999612808228e-02 3.871970996260643005e-02 1.378586888313293457e-02 3.190517425537109375e-02 -6.835662573575973511e-02 -5.850949510931968689e-02 2.524035237729549408e-02 6.106072291731834412e-02 1.892175711691379547e-02 4.076914861798286438e-02 3.930554725229740143e-03 -4.485669359564781189e-02 7.334924302995204926e-04 3.764985129237174988e-02 5.726823117583990097e-03 1.608552783727645874e-02 6.987961381673812866e-02 1.652424223721027374e-02 4.757008701562881470e-02 6.393046677112579346e-02 1.357664819806814194e-02 -6.541791372001171112e-03 6.375471595674753189e-03 1.803306490182876587e-02 -4.537840187549591064e-02 5.909468047320842743e-03 -1.201631221920251846e-02 8.485282957553863525e-02 -2.617551945149898529e-02 2.856521867215633392e-03 3.743010759353637695e-02 -1.511010108515620232e-03 5.218063015490770340e-04 5.585419014096260071e-03 2.295230951858684421e-04 -1.113140024244785309e-03 9.883758425712585449e-02 -4.081252962350845337e-02 3.052961546927690506e-03 6.347066257148981094e-03 9.594512172043323517e-03 -5.079729855060577393e-02 5.466065928339958191e-02 5.349773168563842773e-02 -8.410327881574630737e-02 2.447663992643356323e-02 1.292487233877182007e-02 -3.508521616458892822e-02 2.402681857347488403e-02 1.022459790110588074e-01 2.680084109306335449e-02 2.232741378247737885e-02 3.122886270284652710e-02 1.302539464086294174e-02 4.594194144010543823e-02 3.960360214114189148e-02 2.176704630255699158e-02 -9.501190856099128723e-03 -1.394878700375556946e-02 -2.449024282395839691e-02 7.991612702608108521e-02 -2.319433540105819702e-02 2.077632956206798553e-02 -9.076669812202453613e-02 9.103243239223957062e-03 -8.681009523570537567e-03 3.586612641811370850e-02 7.930722087621688843e-02 -1.820972003042697906e-02 -4.485854133963584900e-02 6.706642359495162964e-02 -2.842075191438198090e-02 -6.080942973494529724e-02 -3.102192096412181854e-02 8.852468803524971008e-03 -5.413715168833732605e-02 -6.449298001825809479e-03 5.066744238138198853e-02 -1.276656519621610641e-02 3.225392894819378853e-03 -1.131860725581645966e-02 2.761494833976030350e-03 -2.419759752228856087e-03 -2.006058022379875183e-02 -1.496359240263700485e-02 3.589622676372528076e-02 -1.983624696731567383e-02 1.376934647560119629e-01 -5.822029430419206619e-03 4.318437352776527405e-02 2.860205993056297302e-02 -4.212539177387952805e-03 8.057375438511371613e-03 5.738458596169948578e-03 -3.868084400892257690e-02 -1.837027072906494141e-02 1.736521162092685699e-02 7.340355217456817627e-02 2.066550403833389282e-02 5.197099968791007996e-02 -2.263431251049041748e-02 7.755424012430012226e-04 8.386430889368057251e-02 -3.979240730404853821e-02 -1.342504983767867088e-03 1.000942662358283997e-01 -2.802631258964538574e-02 2.282273583114147186e-02 6.652924697846174240e-03 -3.727854928001761436e-04 -1.030423562042415142e-03 -6.686199456453323364e-02 5.472254380583763123e-02 1.223783101886510849e-02 -3.530976921319961548e-02 1.828727871179580688e-02 -3.249459341168403625e-02 1.044015288352966309e-01 1.014642976224422455e-02 -1.953868567943572998e-02 3.567117825150489807e-02 5.209885165095329285e-02 1.107793487608432770e-02 -1.824623674373526683e-09 -3.518613800406455994e-02 -1.321833021938800812e-02 -4.918339475989341736e-02 -2.110293735313462093e-07 -3.573344089090824127e-03 9.793071076273918152e-03 9.149879217147827148e-03 -1.364414929412305355e-03 1.769426837563514709e-02 -5.285479128360748291e-02 2.527241222560405731e-02 2.905290760099887848e-02 -6.848240643739700317e-02 5.005298648029565811e-03 5.316279828548431396e-02 -7.277798373252153397e-03 5.265114828944206238e-02 1.483278442174196243e-02 1.211262587457895279e-02 1.021645218133926392e-01 -3.945796284824609756e-03 4.033619072288274765e-03 1.833757385611534119e-02 1.436541974544525146e-02 1.005123481154441833e-01 -1.274885889142751694e-02 -5.262280255556106567e-02 -1.040680892765522003e-02 9.597999602556228638e-02 1.167900208383798599e-02 6.104772165417671204e-02 -1.596964895725250244e-02 2.721685543656349182e-02 9.093022905290126801e-03 -1.554690767079591751e-02 5.371803999878466129e-04 4.392693191766738892e-02 1.552780438214540482e-02 -5.046041216701269150e-03 4.549716785550117493e-02 3.068247064948081970e-02 -5.660399794578552246e-02 6.964741647243499756e-02 4.838150367140769958e-02 -2.372302860021591187e-02 -3.313958272337913513e-02 -1.388827711343765259e-01 -1.021189987659454346e-02 -9.754893369972705841e-03 6.438528746366500854e-02 2.552772406488656998e-03 -7.009689696133136749e-03 1.995135843753814697e-02 1.698725856840610504e-02 4.706379026174545288e-02 5.509170517325401306e-02 -1.040030345320701599e-01 -5.078227259218692780e-03 -4.633270204067230225e-03 -4.402102495077997446e-04 1.850699074566364288e-02 4.260766133666038513e-02 -4.918674752116203308e-02 5.290902033448219299e-02 7.121504750102758408e-03 -1.661207629788385987e-11 4.904181882739067078e-02 3.889612853527069092e-02 -6.317195296287536621e-02 3.890119493007659912e-02 -1.901652291417121887e-02 1.996908523142337799e-02 8.296054787933826447e-03 4.230338335037231445e-02 -3.117766231298446655e-02 -4.461207613348960876e-02 1.031573265790939331e-01 1.566221565008163452e-02 -6.126606464385986328e-02 1.061570364981889725e-02 3.345101373270153999e-03 -5.567650124430656433e-02 1.023393683135509491e-02 2.123276144266128540e-02 1.190218627452850342e-01 3.738956060260534286e-03 3.144128620624542236e-02
-1.553529500961303711e-02 4.093550518155097961e-02 2.136234752833843231e-02 -1.066850498318672180e-02 -1.482947450131177902e-02 -6.549674551934003830e-03 -1.214426197111606598e-02 -1.364378072321414948e-02 1.531419251114130020e-02 -1.168674440123140812e-03 4.011510685086250305e-02 2.907907590270042419e-03 4.151169955730438232e-02 8.616722375154495239e-02 2.102674916386604309e-02 5.975951999425888062e-02 2.033867873251438141e-03 -2.215629257261753082e-02 6.847047712653875351e-03 -2.408233471214771271e-02 3.249116614460945129e-02 2.880681678652763367e-02 4.520316794514656067e-02 7.649724185466766357e-02 -2.378663234412670135e-02 5.333205685019493103e-03 -3.759092092514038086e-02 7.667373120784759521e-02 2.050050534307956696e-02 1.611268334090709686e-02 4.139302298426628113e-02 3.288437053561210632e-02 3.201717918273061514e-04 1.594896428287029266e-02 7.498399168252944946e-02 2.632483839988708496e-02 -7.159260101616382599e-03 9.071444161236286163e-03 3.691909089684486389e-02 -8.213289082050323486e-03 2.724171988666057587e-02 -5.155043303966522217e-02 1.104360679164528847e-03 1.545406971126794815e-02 3.409710153937339783e-02 -3.621453791856765747e-02 -2.608388103544712067e-02 1.321290712803602219e-02 -1.033679000101983547e-03 7.377780973911285400e-03 5.632189288735389709e-02 1.669337227940559387e-02 3.044557385146617889e-02 -9.471819736063480377e-03 -7.389018312096595764e-03 5.634547770023345947e-02 -1.741914078593254089e-03 1.624297909438610077e-02 4.446542356163263321e-03 -2.142868377268314362e-02 -4.740025848150253296e-03 -1.258269045501947403e-02 -4.035006742924451828e-03 -4.429348558187484741e-02 -7.422889117151498795e-03 3.323447704315185547e-02 -2.141034230589866638e-02 -1.609101705253124237e-02 6.298229098320007324e-03 4.927096515893936157e-02 4.300494119524955750e-02 6.101531907916069031e-02 4.090291634202003479e-02 5.507660284638404846e-02 4.748352803289890289e-03 2.101319096982479095e-02 2.920103073120117188e-02 -1.309601496905088425e-02 -1.089047268033027649e-02 -3.431662044022232294e-04 6.943158060312271118e-02 8.702118881046772003e-03 -9.031751193106174469e-03 6.615990400314331055e-02 -1.325345132499933243e-02 3.927200660109519958e-02 2.195602655410766602e-02 1.631376892328262329e-02 2.930326201021671295e-02 9.267734363675117493e-03 2.307147160172462463e-02 4.185831639915704727e-03 -3.643063595518469810e-03 2.641561999917030334e-02 -2.028981409966945648e-02 4.177178815007209778e-02 7.290084846317768097e-03 -5.333873629570007324e-02 -2.963024377822875977e-02 1.148822531104087830e-02 -3.532848134636878967e-02 1.392414048314094543e-02 5.791621655225753784e-02 1.587719842791557312e-02 2.354469848796725273e-03 1.204318460077047348e-02 2.343372441828250885e-02 2.834148518741130829e-02 5.074234306812286377e-02 -5.098898708820343018e-02 -1.939341239631175995e-02 5.329328402876853943e-02 3.756540268659591675e-02 2.168430946767330170e-02 4.850156977772712708e-02 -8.508282713592052460e-03 2.652109973132610321e-02 4.918894730508327484e-03 2.045346423983573914e-02 2.344834804534912109e-02 -1.959756016731262207e-02 -3.182121366262435913e-02 2.537596412003040314e-02 1.835139654576778412e-02 7.373191416263580322e-02 -2.602696605026721954e-02 4.393468424677848816e-02 -6.173670757561922073e-03 2.191043831408023834e-02 -1.261976454406976700e-02 3.321488201618194580e-02 7.054083049297332764e-02 -3.000376373529434204e-02 4.905922710895538330e-02 3.900197893381118774e-02 -9.671940468251705170e-03 -2.199625596404075623e-02 -4.506035707890987396e-03 1.930488273501396179e-02 2.289684489369392395e-02 -8.344325760845094919e-05 1.304175006225705147e-03 3.865703940391540527e-02 3.363156318664550781e-02 5.423016380518674850e-03 2.868598094210028648e-03 6.664785556495189667e-03 4.275986179709434509e-02 4.156208783388137817e-02 6.013027857989072800e-03 1.820443198084831238e-02 -1.104670204222202301e-02 -4.536954686045646667e-03 -4.964306950569152832e-03 -3.279087692499160767e-02 -1.425115671008825302e-02 9.318673051893711090e-03 4.566170647740364075e-02 3.947313874959945679e-02 -4.105441644787788391e-02 -1.068315748125314713e-02 2.834087051451206207e-02 -1.338400039685438969e-07 1.831237925216555595e-03 -8.800436742603778839e-03 3.467356786131858826e-02 -7.304906546323763905e-08 -4.415131639689207077e-03 1.080321264453232288e-03 -2.433848939836025238e-02 -8.673783391714096069e-03 3.856851160526275635e-02 -3.961626207455992699e-04 1.268190331757068634e-02 4.208977147936820984e-02 -7.076206151396036148e-03 -2.006719447672367096e-02 -3.681462490931153297e-03 -5.078643187880516052e-02 -2.374720573425292969e-02 1.584060676395893097e-02 -4.542407765984535217e-02 3.483677655458450317e-02 -6.894760881550610065e-04 2.558270283043384552e-02 2.275984361767768860e-02 5.971244070678949356e-03 6.273125112056732178e-02 2.577586658298969269e-02 -2.497663255780935287e-03 5.082991719245910645e-02 3.018405521288514137e-03 2.764296904206275940e-02 -3.131333738565444946e-02 2.414322085678577423e-02 7.002254575490951538e-02 -2.207137271761894226e-02 -3.151119872927665710e-02 -2.009162199101410806e-05 1.885157078504562378e-02 1.765434746630489826e-03 2.899130992591381073e-02 -1.726755872368812561e-02 -2.158952178433537483e-03 6.036227941513061523e-02 4.715090245008468628e-02 -1.326155103743076324e-02 3.059413470327854156e-02 -1.831579953432083130e-02 3.918592259287834167e-02 9.805588982999324799e-03 2.870789496228098869e-03 3.328242525458335876e-02 -7.768189534544944763e-04 1.623711362481117249e-02 -9.719009511172771454e-03 -2.028044499456882477e-02 -4.722291231155395508e-02 -2.594207180663943291e-03 -1.693242229521274567e-02 2.713261917233467102e-02 -1.202931813895702362e-02 5.115498788654804230e-03 8.914550766348838806e-03 -3.982558846473693848e-02 2.911906316876411438e-02 -1.681750826537609100e-02 1.299745403230190277e-02 -2.826494073515650740e-11 -1.050264202058315277e-02 3.514221683144569397e-02 4.705477878451347351e-02 3.551612421870231628e-02 2.027962170541286469e-02 1.793684437870979309e-02 7.017368078231811523e-02 6.584041751921176910e-03 1.117893587797880173e-02 -1.566307060420513153e-02 -4.834285750985145569e-02 -3.527214378118515015e-02 4.580471292138099670e-02 5.713547021150588989e-02 7.227794826030731201e-02 5.863249301910400391e-03 1.040680566802620888e-03 6.213000975549221039e-03 -7.196068763732910156e-03 1.889854855835437775e-02 1.423213072121143341e-02
