-1.185267115943133831e-03 6.987542659044265747e-02 2.993149310350418091e-02 -3.304225206375122070e-02 -5.369899049401283264e-02 5.627193301916122437e-02 1.439949870109558105e-02 7.417421042919158936e-02 6.749058514833450317e-02 7.168090902268886566e-03 -3.216615691781044006e-02 7.373324036598205566e-02 -4.097244143486022949e-02 8.481268584728240967e-02 9.462499618530273438e-02 5.221686139702796936e-02 9.404116868972778320e-02 8.778084814548492432e-02 2.594196412246674299e-04 1.796054281294345856e-02 -3.857831470668315887e-03 1.997071551159024239e-03 -3.384449984878301620e-03 -1.007212785397726407e-10 -3.491123765707015991e-02 6.408846471458673477e-03 3.137109801173210144e-02 1.393066905438899994e-02 1.677005738019943237e-02 -4.977544769644737244e-02 -4.556472599506378174e-02 2.082705684006214142e-02 -2.274873480200767517e-02 -4.177942985062604864e-13 -2.745588310062885284e-02 6.383013725280761719e-02 -2.328541688621044159e-02 -3.356266766786575317e-02 5.280267819762229919e-02 8.277473971247673035e-03 3.428525105118751526e-02 2.530730701982975006e-02 1.828621327877044678e-02 -1.904620602726936340e-02 -2.974754534079693258e-05 -2.720040082931518555e-02 6.345450133085250854e-02 4.945724084973335266e-02 -4.999469965696334839e-03 -4.236700758337974548e-02 -3.429968282580375671e-02 4.075454920530319214e-02 1.208076775074005127e-01 1.733379438519477844e-02 -4.311299324035644531e-02 5.271169822663068771e-03 1.473117154091596603e-03 -6.684467662125825882e-03 -4.565618932247161865e-02 4.316258430480957031e-02 4.204188659787178040e-02 5.526022985577583313e-02 -2.841590344905853271e-02 1.152907982468605042e-01 -2.575135324150323868e-03 -2.445882000029087067e-02 1.043181270360946655e-01 2.204683981835842133e-02 1.691808179020881653e-02 -1.498883590102195740e-02 -1.277421042323112488e-02 -2.751724794507026672e-02 -5.428976193070411682e-02 7.008021697402000427e-03 2.036338299512863159e-02 1.667324081063270569e-02 -3.666514158248901367e-02 2.272820286452770233e-02 1.249632611870765686e-02 -2.427319809794425964e-02 -1.846626028418540955e-02 3.224522620439529419e-02 5.016787722706794739e-02 -2.375519648194313049e-02 -7.041592150926589966e-02 7.815522700548171997e-02 4.166834801435470581e-02 2.197591215372085571e-02 4.230145364999771118e-03 -1.226064842194318771e-02 -2.508223406039178371e-05 2.109100297093391418e-02 8.505317568778991699e-02 -1.493305526673793793e-02 1.922719366848468781e-02 8.181119710206985474e-02 2.696711756289005280e-02 -7.933483459055423737e-03 -1.258053258061408997e-02 -1.468391207237740304e-11 7.510983943939208984e-02 2.124460414052009583e-03 2.620211802423000336e-02 2.873573219403624535e-03 3.848086111247539520e-03 8.988613635301589966e-02 2.111792355208308436e-06 5.026951059699058533e-02 3.517618030309677124e-02 -1.436941046267747879e-02 -3.076212108135223389e-02 -4.700845573097467422e-03 -8.921609260141849518e-03 2.045500651001930237e-02 -1.173745933920145035e-02 6.059190258383750916e-02 -7.286131381988525391e-02 1.000075116753578186e-01 3.407711908221244812e-02 1.574689522385597229e-02 -3.650850802659988403e-02 -3.578617796301841736e-02 -1.495361444540321827e-03 2.834743354469537735e-03 -2.524835616350173950e-02 -3.665667399764060974e-02 5.338246002793312073e-02 5.501036967776847678e-19 2.688247337937355042e-02 -7.325801067054271698e-03 -2.182201296091079712e-02 -2.638792805373668671e-02 1.264824252575635910e-02 -3.812351822853088379e-02 4.961761459708213806e-02 -1.128945499658584595e-02 -6.310805678367614746e-02 3.575446316972374916e-03 -1.265743888506123083e-23 2.305233664810657501e-02 2.989311516284942627e-02 2.916210144758224487e-02 -6.226066103648397743e-12 1.068489509634673595e-03 3.356911987066268921e-02 4.570846259593963623e-02 -5.332813039422035217e-02 5.172561109066009521e-02 1.964015141129493713e-02 -2.121856249868869781e-02 2.012636698782444000e-02 1.059467121958732605e-01 2.076402492821216583e-02 1.568197458982467651e-02 -4.128881543874740601e-02 1.609631691976191801e-19 -2.678446704521775246e-03 4.516980797052383423e-02 -1.140168681740760803e-02 -1.436550170183181763e-02 -4.469271749258041382e-03 -1.482109446078538895e-02 1.190157420933246613e-02 3.526611486449837685e-03 3.156938776373863220e-02 -6.399856880307197571e-03 4.623493179678916931e-03 9.008402703329920769e-04 2.959898300468921661e-02 8.844007551670074463e-02 4.646153002977371216e-02 6.451591104269027710e-02 4.711789637804031372e-02 6.030134856700897217e-03 3.793045505881309509e-02 -1.368882507085800171e-02 3.227450326085090637e-02 7.127727847546339035e-03 1.638300716876983643e-02 -1.056061033159494400e-02 2.909023500978946686e-02 1.600510813295841217e-02 -7.916024886071681976e-03 5.718227103352546692e-02 5.916266143321990967e-02 1.120926346629858017e-02 4.281627014279365540e-03 -3.944140858948230743e-03 -4.924229557445869432e-08 -2.711012586951255798e-02 -3.394512459635734558e-02 3.734499961137771606e-02 9.382656961679458618e-02 5.969205126166343689e-02 3.246309235692024231e-02 -1.465315814130008221e-03 3.152674436569213867e-02 3.065139800310134888e-02 -3.433683887124061584e-02 3.511455282568931580e-02 2.331477124243974686e-03 8.261755853891372681e-02 1.779052987694740295e-02 -1.162473068916369812e-07 2.235414460301399231e-02 1.407920662313699722e-02 4.871476907283067703e-03 -2.760647796094417572e-02 5.561353173106908798e-04 4.755179584026336670e-02 3.311612829566001892e-02 -2.260560356080532074e-02 3.444834612309932709e-03 -3.114699572324752808e-02 -3.700201166793704033e-03 -1.574781537055969238e-02 -3.399590495973825455e-03 1.129558868706226349e-02 -3.038423880934715271e-02 3.782190009951591492e-02 -1.727534458041191101e-02 -2.065442968159914017e-03 4.565055668354034424e-02 8.218194544315338135e-02 5.240000039339065552e-02 1.702100411057472229e-02 2.485802210867404938e-02 -3.999609127640724182e-02 5.519150290638208389e-03 -1.932984328156805987e-10 -1.494111842475831509e-03 -1.395302452147006989e-02 -1.223508641123771667e-02 2.440018206834793091e-02 -1.239678077399730682e-02 5.658211186528205872e-02 -4.141027107834815979e-02 -2.658843994140625000e-02 -3.004554286599159241e-02 2.533810026943683624e-02 -1.595322828507050872e-04 3.609417006373405457e-02 2.692924346774816513e-03 -2.089063264429569244e-02 -2.168769948184490204e-02 2.272345684546314271e-30 -4.580006375908851624e-02 -9.060465797224546980e-15 2.936079166829586029e-02 4.590592533349990845e-02
1.238998840562999249e-03 1.201680023223161697e-02 -1.323461625725030899e-02 3.265940397977828979e-02 6.982233375310897827e-02 7.697682827711105347e-03 7.010129746049642563e-03 -1.057664118707180023e-02 1.627671159803867340e-02 7.521972060203552246e-03 3.933139890432357788e-02 5.893865227699279785e-02 3.294200403615832329e-03 -1.069242693483829498e-02 2.660017274320125580e-02 2.109583653509616852e-02 2.424973621964454651e-02 -1.559990551322698593e-02 -5.275480216369032860e-04 6.409893976524472237e-04 2.372353104874491692e-03 2.533588930964469910e-02 1.905237557366490364e-03 1.839138481518688608e-23 -1.325685624033212662e-02 -6.136856507509946823e-03 1.642074249684810638e-02 4.421272128820419312e-02 2.582015842199325562e-02 -1.606468856334686279e-02 1.142026763409376144e-02 5.793196707963943481e-02 3.792726993560791016e-02 1.328295561188267413e-17 -1.689209789037704468e-02 6.610442884266376495e-03 3.672528266906738281e-02 3.105393797159194946e-02 -1.054110750555992126e-02 5.212868377566337585e-02 -1.738745719194412231e-02 7.579766679555177689e-03 1.142744068056344986e-02 6.881707906723022461e-02 4.339057777542620897e-04 1.404772233217954636e-02 6.401232630014419556e-02 1.662905141711235046e-02 9.862573444843292236e-02 2.854305878281593323e-02 5.150562617927789688e-03 4.682982712984085083e-02 -1.737648807466030121e-02 3.301609831396490335e-04 4.909542202949523926e-02 -1.056220568716526031e-02 3.903520479798316956e-02 1.251913905143737793e-01 -3.460292145609855652e-02 -6.902176421135663986e-03 5.149676650762557983e-02 1.330882403999567032e-02 1.062802970409393311e-03 -8.671957999467849731e-03 1.973689941223710775e-04 3.722106805071234703e-03 -1.393674593418836594e-02 -1.437359396368265152e-02 8.243577554821968079e-03 1.248614303767681122e-02 4.466618970036506653e-02 4.815047979354858398e-02 4.909631237387657166e-02 -1.979229273274540901e-03 -2.931099571287631989e-02 -2.712704939767718315e-03 2.793317846953868866e-02 1.424135116394609213e-04 6.040899083018302917e-02 -3.749424591660499573e-02 2.770566940307617188e-02 -2.998156100511550903e-02 -4.695518314838409424e-02 3.303745016455650330e-02 4.547701403498649597e-02 -2.933293581008911133e-02 -2.147241495549678802e-02 2.653748728334903717e-02 -3.445645095780491829e-03 1.629238203167915344e-02 1.504918211139738560e-03 -2.498351223766803741e-02 -3.451986983418464661e-02 5.846974998712539673e-02 -2.198486961424350739e-02 8.874487830325961113e-04 4.770105704665184021e-02 2.169498801231384277e-02 4.406552389264106750e-02 1.915256938751799632e-21 2.170004695653915405e-02 1.973840966820716858e-02 9.770519100129604340e-03 -2.219279669225215912e-02 -4.562888294458389282e-02 4.967578873038291931e-02 1.446473412215709686e-02 -1.402265392243862152e-02 -2.006159722805023193e-02 2.376316860318183899e-02 2.850493183359503746e-03 8.602080866694450378e-03 7.543023675680160522e-02 -1.700237626209855080e-04 -3.285266086459159851e-02 5.768765881657600403e-02 8.244470693171024323e-03 9.059078060090541840e-03 7.976541668176651001e-02 -1.041697617620229721e-02 -2.487692050635814667e-02 3.102112002670764923e-02 4.180321993771940470e-04 3.397520259022712708e-02 1.619749329984188080e-02 2.561702579259872437e-02 -6.549717858433723450e-03 -2.543024655871778394e-13 -4.824075382202863693e-03 -4.133285023272037506e-03 6.904508336447179317e-04 2.569338679313659668e-02 3.951971232891082764e-02 5.810930207371711731e-02 6.209713406860828400e-03 -2.767406590282917023e-02 2.620143257081508636e-02 6.222696509212255478e-03 2.247808208580244097e-28 -9.631934226490557194e-04 -1.423557940870523453e-02 -3.530995547771453857e-02 -6.830284254855101267e-11 2.787675522267818451e-02 -4.652109462767839432e-03 3.443153202533721924e-02 5.393711384385824203e-03 -3.042547404766082764e-02 -2.734648296609520912e-03 9.946005418896675110e-03 -9.502568282186985016e-03 -1.425909250974655151e-02 1.336323376744985580e-02 1.385212093591690063e-01 -3.151984186843037605e-03 1.647820495350942061e-22 -1.092992257326841354e-02 3.827336768154054880e-04 3.250341862440109253e-02 5.754737555980682373e-02 -2.360083349049091339e-02 1.114215608686208725e-02 -1.919761234603356570e-05 -2.534767054021358490e-02 1.838013157248497009e-02 4.962420091032981873e-03 -9.924424812197685242e-04 3.582669794559478760e-02 -1.544653717428445816e-02 -2.756852889433503151e-03 -9.100944735109806061e-03 -3.714906796813011169e-02 -2.883881703019142151e-02 1.023854711093008518e-03 -3.084746934473514557e-02 4.706916958093643188e-02 1.441760640591382980e-02 5.016157776117324829e-02 3.441746532917022705e-02 2.176949195563793182e-02 -5.983368493616580963e-03 -1.641567051410675049e-02 2.730125188827514648e-02 -4.067149944603443146e-03 2.887286059558391571e-02 -1.084256265312433243e-02 6.709418445825576782e-02 5.077226087450981140e-02 -5.156603144484961376e-09 1.062099337577819824e-01 3.714615479111671448e-02 -1.855758018791675568e-02 1.180478464812040329e-02 -1.498504821211099625e-02 -5.780392140150070190e-02 1.268932688981294632e-02 5.033630505204200745e-02 1.933128573000431061e-02 8.593791164457798004e-03 -1.847254671156406403e-02 6.314470898360013962e-03 -1.730094663798809052e-02 4.265247285366058350e-02 8.757556756770160534e-16 3.273862227797508240e-02 3.447074815630912781e-02 4.442472010850906372e-02 2.892501419410109520e-03 4.066718369722366333e-02 -1.471723429858684540e-02 2.911524660885334015e-02 4.727027192711830139e-02 4.327226057648658752e-02 3.307902440428733826e-02 8.153820410370826721e-03 1.266448292881250381e-03 9.089931845664978027e-02 1.197450328618288040e-02 8.770954795181751251e-03 8.268052339553833008e-02 -6.104956846684217453e-03 4.928039386868476868e-03 -2.547114156186580658e-03 1.268234755843877792e-02 9.329265356063842773e-02 1.087903603911399841e-02 -1.080558542162179947e-02 4.615997523069381714e-02 -4.839719273149967194e-03 -1.855696727707520863e-19 3.549824934452772141e-03 2.200540620833635330e-03 -9.553524665534496307e-03 1.011959742754697800e-02 3.945700824260711670e-02 1.616653241217136383e-02 2.149168401956558228e-03 -3.313687071204185486e-02 -2.598183974623680115e-02 -1.537346187978982925e-02 2.473212662152945995e-04 2.987974137067794800e-02 1.942982152104377747e-02 4.630511999130249023e-02 3.301304951310157776e-02 2.242173671111164263e-23 -4.041772335767745972e-03 -3.757992181330216397e-13 2.695687673985958099e-02 -9.544917382299900055e-03
-5.073308944702148438e-02 2.632033452391624451e-02 -3.814936848357319832e-03 -2.152535319328308105e-02 -1.036499999463558197e-02 1.470652781426906586e-02 1.724317111074924469e-02 2.403525868430733681e-03 -3.582603530958294868e-03 -1.885758247226476669e-03 1.478997152298688889e-02 3.036987269297242165e-03 1.939138956367969513e-02 2.099248953163623810e-02 5.740649253129959106e-02 -3.362019360065460205e-02 2.322424203157424927e-02 -2.593372575938701630e-02 7.502233493141829967e-04 -3.025226667523384094e-02 5.695186555385589600e-04 2.865300141274929047e-02 6.422013975679874420e-04 -2.583729064031814460e-10 -1.001199148595333099e-02 2.747114375233650208e-02 2.409999631345272064e-02 2.028234675526618958e-02 -1.596082700416445732e-03 5.152176599949598312e-03 -1.377710234373807907e-02 -2.641671523451805115e-02 -1.628641411662101746e-02 -5.103933904205062988e-14 -1.473820768296718597e-02 1.113758236169815063e-02 1.412202790379524231e-02 1.608145795762538910e-02 -1.884541846811771393e-02 3.278922289609909058e-02 -1.149032730609178543e-02 3.962810710072517395e-02 1.846056198701262474e-03 4.763627797365188599e-02 3.423578164074569941e-05 -6.808895152062177658e-03 -6.386796943843364716e-03 2.759069763123989105e-02 3.135757753625512123e-03 -5.795035045593976974e-03 2.796454913914203644e-02 5.352030694484710693e-02 3.967572003602981567e-02 -1.483768597245216370e-02 6.464509665966033936e-02 1.932813972234725952e-02 9.714787825942039490e-03 3.303729742765426636e-02 -1.370970625430345535e-02 5.371409468352794647e-03 -4.469442367553710938e-02 8.266049437224864960e-03 3.048585169017314911e-02 1.509495638310909271e-02 8.527233265340328217e-03 -2.496441453695297241e-02 4.289347305893898010e-02 -1.202524732798337936e-02 -2.389347413554787636e-03 2.675706520676612854e-02 6.230147182941436768e-02 -7.236070465296506882e-03 2.603311277925968170e-02 5.376827903091907501e-03 6.092726439237594604e-02 -5.880888178944587708e-02 -1.850227825343608856e-02 4.405809193849563599e-02 -3.697013482451438904e-02 -6.744179874658584595e-03 8.230678737163543701e-03 -2.745691686868667603e-02 4.521582741290330887e-03 3.197876736521720886e-02 4.415016993880271912e-02 1.303647644817829132e-02 3.250878304243087769e-02 3.045730851590633392e-02 2.004231326282024384e-03 1.523574232123792171e-03 1.281983684748411179e-02 3.443956747651100159e-02 -7.414843887090682983e-03 3.584001585841178894e-02 4.042974114418029785e-02 -1.539596356451511383e-02 -9.760204702615737915e-03 1.904375106096267700e-02 2.251538820564746857e-02 -2.893875972187487378e-10 3.787390887737274170e-03 1.600589044392108917e-02 -1.327783614397048950e-02 3.238271176815032959e-02 -1.833226345479488373e-02 3.345102816820144653e-02 7.125535048544406891e-03 4.835792630910873413e-02 1.161662582308053970e-02 -6.392069626599550247e-04 7.094137370586395264e-02 -3.319731622468680143e-04 4.819617792963981628e-02 -2.863304689526557922e-03 1.232964731752872467e-02 -3.690212965011596680e-03 3.395148366689682007e-02 9.989644400775432587e-03 8.001060783863067627e-02 1.251324824988842010e-02 6.960520986467599869e-03 4.382999986410140991e-02 1.507265493273735046e-03 1.462285313755273819e-02 1.527147484011948109e-03 3.697209805250167847e-02 8.253029547631740570e-03 -1.077269024853111379e-12 -4.309189505875110626e-03 -2.581951022148132324e-02 -1.458747591823339462e-02 4.830833058804273605e-03 3.114433726295828819e-03 -1.599313318729400635e-02 1.441026106476783752e-02 -1.008286327123641968e-02 2.860547415912151337e-02 -1.017915923148393631e-02 -6.314497069270385793e-24 -2.910337224602699280e-02 7.141693495213985443e-03 1.142168533988296986e-03 -1.421193163153589012e-10 3.694401122629642487e-03 7.195234298706054688e-02 2.832594618666917086e-04 -6.381711922585964203e-03 -3.038668446242809296e-02 1.774372346699237823e-02 1.686105318367481232e-02 2.250802936032414436e-03 -6.173769012093544006e-03 8.512247353792190552e-03 4.451708868145942688e-02 -2.877059765160083771e-02 1.830337160399137779e-23 2.306173183023929596e-02 2.563470415771007538e-02 2.376198582351207733e-02 2.992969937622547150e-02 -2.779259113594889641e-03 -3.735772892832756042e-02 2.177557209506630898e-03 -2.299246611073613167e-03 2.077796123921871185e-02 -2.014056034386157990e-02 1.452383934520184994e-03 -1.474434696137905121e-02 1.374746486544609070e-02 3.504603728652000427e-02 -2.474643115419894457e-04 3.711483255028724670e-02 5.427149881143122911e-05 2.752397675067186356e-03 -5.652538500726222992e-03 4.660688340663909912e-02 3.222040832042694092e-02 6.531400233507156372e-02 2.017693594098091125e-02 -4.134101793169975281e-03 -1.558175683021545410e-02 -2.912601642310619354e-02 1.053997315466403961e-02 1.646696124225854874e-03 -1.632734388113021851e-02 2.114071696996688843e-02 -3.797321394085884094e-02 1.839401957113295794e-04 -4.754325289013650035e-08 6.730514019727706909e-02 1.799241453409194946e-02 -1.671232166700065136e-04 3.201461955904960632e-02 -1.068624295294284821e-02 -1.547124702483415604e-02 9.549356997013092041e-03 1.465300377458333969e-02 1.636827364563941956e-02 -7.858081720769405365e-03 -1.714718155562877655e-02 -5.322824418544769287e-02 -1.791470684111118317e-02 4.763503000140190125e-02 -2.688111885862376482e-12 -2.299684099853038788e-02 2.538521401584148407e-02 1.394743192940950394e-02 -2.753128670156002045e-02 2.564392052590847015e-02 2.523476257920265198e-02 2.319492213428020477e-02 -4.646806046366691589e-03 -1.205385755747556686e-02 8.518555201590061188e-03 3.778060898184776306e-03 -8.506185375154018402e-03 1.200688444077968597e-02 -5.504521541297435760e-03 1.726159267127513885e-02 2.495992556214332581e-02 9.856070391833782196e-05 1.639736001379787922e-03 3.505319356918334961e-02 -1.830897480249404907e-02 6.150627508759498596e-02 1.839729957282543182e-02 1.293903496116399765e-02 2.681595087051391602e-02 1.274231728166341782e-02 -3.375159596252785832e-10 1.925820019096136093e-03 -2.576381713151931763e-02 6.913803983479738235e-03 -6.548036821186542511e-03 -4.859501495957374573e-03 3.590158885344862938e-03 6.207969412207603455e-02 -2.311134710907936096e-02 1.674871332943439484e-02 -1.151030603796243668e-02 -1.106987008824944496e-03 3.409707173705101013e-02 1.311255269683897495e-03 2.409452572464942932e-02 1.025178655982017517e-02 1.645614390974613158e-31 -2.032255940139293671e-02 -8.273257079416396209e-11 -5.962821189314126968e-03 6.999586708843708038e-03
1.110106240957975388e-02 -1.552281528711318970e-02 4.407125711441040039e-02 7.149926573038101196e-02 6.190974381752312183e-04 2.136632986366748810e-02 1.575076393783092499e-02 -1.069825794547796249e-02 2.062744693830609322e-03 -1.486152037978172302e-02 5.133096128702163696e-02 -2.802364341914653778e-02 3.218847885727882385e-02 -1.694697700440883636e-02 -4.023684561252593994e-02 3.177768550813198090e-03 9.274211712181568146e-03 -1.766634173691272736e-02 6.104859057813882828e-04 6.506821606308221817e-03 3.234161995351314545e-03 -1.980900205671787262e-02 4.313111305236816406e-03 5.580686773016415720e-26 3.325735405087471008e-02 -2.304707095026969910e-02 9.373121894896030426e-03 -2.732170745730400085e-02 2.293414250016212463e-02 1.381905376911163330e-02 1.576700620353221893e-02 1.469902042299509048e-02 3.475461527705192566e-02 2.047248590055302052e-20 2.100836485624313354e-02 -1.169953588396310806e-02 2.242165990173816681e-02 2.237087301909923553e-02 2.261329814791679382e-02 2.219133637845516205e-02 -2.437243610620498657e-02 1.789315044879913330e-02 3.534544259309768677e-03 3.180095925927162170e-02 -3.530569665599614382e-05 2.808685600757598877e-02 -2.970665227621793747e-03 4.979172255843877792e-03 2.551611885428428650e-02 1.123696845024824142e-02 1.064040698111057281e-02 -8.179144933819770813e-04 -2.885194681584835052e-02 1.004660688340663910e-02 1.136521715670824051e-02 -1.265960652381181717e-02 1.380514632910490036e-02 5.714978557080030441e-03 3.181700035929679871e-02 -8.493307977914810181e-04 1.154064200818538666e-02 2.557393908500671387e-02 3.143083304166793823e-02 5.189432762563228607e-03 1.046353206038475037e-02 -2.940705977380275726e-03 -3.088451363146305084e-02 -1.323010865598917007e-02 3.959206864237785339e-02 -1.461026957258582115e-03 1.093525718897581100e-02 7.684037555009126663e-03 2.093593589961528778e-02 2.200166694819927216e-03 -2.678603306412696838e-02 3.555224835872650146e-02 9.520006366074085236e-03 -5.612739827483892441e-03 1.912316121160984039e-02 1.184716634452342987e-02 -3.073481144383549690e-03 -1.919811964035034180e-02 -2.410704270005226135e-02 -4.203991964459419250e-03 5.693232640624046326e-02 -4.304423183202743530e-02 -1.417342107743024826e-02 -2.279406413435935974e-02 1.281730481423437595e-03 2.039454132318496704e-02 8.313265629112720490e-03 3.416173858568072319e-03 -2.732743881642818451e-02 1.131082605570554733e-02 2.972098812460899353e-02 -1.299553085118532181e-02 1.971724443137645721e-02 -1.843173243105411530e-02 -1.246335264295339584e-02 -4.613480922344556544e-29 -2.192091755568981171e-02 -1.036347262561321259e-02 1.124606188386678696e-02 8.036283776164054871e-03 -8.987093344330787659e-03 3.818292869254946709e-03 -1.796702295541763306e-02 3.304398432374000549e-02 3.013895591720938683e-03 2.318522520363330841e-02 2.369495294988155365e-02 9.316774085164070129e-03 8.760101161897182465e-03 -7.424200884997844696e-03 -9.836092591285705566e-03 -2.621673978865146637e-02 1.888219267129898071e-02 3.096925653517246246e-02 2.411213144659996033e-02 7.685567252337932587e-03 9.151044301688671112e-03 2.676555700600147247e-02 1.486398861743509769e-03 -2.064339257776737213e-02 4.494555667042732239e-02 -2.059941878542304039e-03 1.315536070615053177e-02 2.486361457196911525e-20 -1.022475538775324821e-03 1.084345299750566483e-02 7.755858823657035828e-03 3.806236013770103455e-02 -1.170629821717739105e-02 -2.407411346212029457e-03 2.331761084496974945e-02 6.670999340713024139e-03 2.248327992856502533e-02 1.482088770717382431e-02 1.837402046710424549e-28 2.082241699099540710e-02 -7.675254717469215393e-03 2.566939685493707657e-03 1.515723358356054393e-24 -3.779420861974358559e-03 -2.394034713506698608e-02 2.374342828989028931e-02 3.886666148900985718e-03 3.071575239300727844e-02 2.660979051142930984e-03 3.532141819596290588e-02 -5.753140896558761597e-03 -1.346693746745586395e-02 1.371128484606742859e-02 -2.559124957770109177e-03 -5.909226834774017334e-03 -1.275028512132119127e-31 -1.769376359879970551e-02 -1.641114614903926849e-02 4.469756782054901123e-02 -1.177137019112706184e-03 -1.702242903411388397e-02 1.333704870194196701e-02 -5.452685989439487457e-03 -4.710650071501731873e-03 1.065105106681585312e-02 1.368806138634681702e-02 -8.752060239203274250e-04 1.310061081312596798e-03 1.014493871480226517e-02 -3.565300256013870239e-02 -1.097084954380989075e-02 -8.257693611085414886e-03 2.924186922609806061e-02 2.700231270864605904e-03 -2.107197046279907227e-02 3.713219612836837769e-02 2.073723264038562775e-02 1.587204448878765106e-02 1.762735471129417419e-02 -6.807897705584764481e-03 -3.232631832361221313e-02 1.569583266973495483e-02 2.921678870916366577e-02 1.595622301101684570e-02 2.961687371134757996e-02 2.847572555765509605e-03 3.214856609702110291e-02 3.581753000617027283e-02 -1.975975459644896404e-11 1.225764863193035126e-02 3.048664703965187073e-02 3.792027011513710022e-02 -1.649410836398601532e-02 -7.347530219703912735e-03 2.156690880656242371e-02 1.735697127878665924e-02 2.620083279907703400e-02 -8.338589221239089966e-03 2.558810636401176453e-02 -8.739278651773929596e-03 1.404644548892974854e-02 -6.389825139194726944e-03 -2.362672798335552216e-02 7.086667238797989113e-18 -1.983818225562572479e-02 3.523488296195864677e-03 3.001739084720611572e-02 -1.097459625452756882e-02 2.332313545048236847e-02 6.896230857819318771e-03 1.157844997942447662e-02 2.011965494602918625e-03 -1.870406605303287506e-02 2.937809750437736511e-02 1.353020220994949341e-02 3.287545219063758850e-02 9.861730970442295074e-03 6.506476085633039474e-03 1.195436716079711914e-02 2.528906334191560745e-03 2.937993593513965607e-02 1.219622907228767872e-03 1.187776029109954834e-02 -2.505423128604888916e-02 -2.580313570797443390e-02 -7.498836494050920010e-04 4.405790241435170174e-04 2.873750589787960052e-02 6.436249241232872009e-03 -8.051534265696158599e-12 3.967684227973222733e-03 1.653915271162986755e-03 1.995237916707992554e-02 1.224875170737504959e-02 2.112921886146068573e-02 -8.467283099889755249e-03 2.507266402244567871e-02 4.764128476381301880e-02 9.640879929065704346e-03 4.675837606191635132e-02 -1.449970004614442587e-04 -3.549527376890182495e-02 -9.036519622895866632e-05 5.507822334766387939e-02 3.801663592457771301e-02 -5.596111303770368913e-32 -1.294477283954620361e-02 -9.569614198290388174e-12 -2.051323838531970978e-02 -1.037715235725045204e-03
1.275384705513715744e-02 3.276993706822395325e-02 1.003243145532906055e-03 -4.516877979040145874e-02 6.571353413164615631e-03 2.716659102588891983e-03 -8.929720148444175720e-03 6.973545253276824951e-02 6.143692135810852051e-02 7.589393854141235352e-02 -1.972110196948051453e-02 2.878255024552345276e-02 1.007035188376903534e-02 2.084219828248023987e-02 4.667427763342857361e-02 1.836779527366161346e-02 5.638515949249267578e-02 1.467623654752969742e-02 -3.160982741974294186e-04 4.458867013454437256e-02 2.843084977939724922e-03 -2.749937819316983223e-03 8.156473748385906219e-03 -1.984953312827997252e-09 -3.439075872302055359e-02 2.549286931753158569e-02 6.246900185942649841e-03 3.879009559750556946e-02 1.175649557262659073e-02 -1.896861940622329712e-02 2.828541398048400879e-02 -1.784124039113521576e-02 3.046866878867149353e-02 -8.648222485092404294e-15 -3.340282710269093513e-03 5.143816451891325414e-05 5.167076829820871353e-03 -2.530934987589716911e-03 2.325611375272274017e-02 2.145338617265224457e-02 1.839320291765034199e-03 3.268066048622131348e-02 -1.081712357699871063e-02 -1.447916496545076370e-02 3.052436513826251030e-04 -1.501353830099105835e-02 6.425476074218750000e-02 4.076534137129783630e-02 -2.216793224215507507e-02 -6.818434223532676697e-03 2.891542762517929077e-02 1.030311174690723419e-02 9.032914787530899048e-02 -2.244959352537989616e-03 4.886547476053237915e-02 -4.972589388489723206e-02 4.414884373545646667e-02 -2.557798847556114197e-02 -3.826805204153060913e-02 5.924629792571067810e-02 -6.634378805756568909e-03 -1.075242366641759872e-02 -2.515743114054203033e-02 2.994978614151477814e-02 2.945852652192115784e-02 2.841290086507797241e-02 6.376045197248458862e-02 3.688851743936538696e-02 -6.306184222921729088e-04 -6.815783213824033737e-03 4.091235622763633728e-02 -7.025202270597219467e-03 -3.244404215365648270e-04 1.717358478344976902e-03 1.534241158515214920e-02 -2.957993000745773315e-02 -2.910350915044546127e-03 2.322319895029067993e-02 -3.858621791005134583e-02 -9.911009110510349274e-03 7.623288780450820923e-02 8.400969952344894409e-02 4.977340344339609146e-03 6.624587345868349075e-03 -4.972336813807487488e-02 1.135208606719970703e-01 3.352613002061843872e-02 5.223195999860763550e-02 -2.418744406895712018e-04 -2.308963984251022339e-02 -2.457539178431034088e-02 6.707789725624024868e-04 5.418204516172409058e-02 4.831179603934288025e-02 -1.138017792254686356e-02 5.389288440346717834e-02 -3.579567372798919678e-02 6.304878741502761841e-02 -3.091734834015369415e-02 -3.829272477177871753e-15 1.939597353339195251e-02 2.659582905471324921e-02 -1.102467719465494156e-02 1.780157350003719330e-02 2.283382043242454529e-02 -1.613060943782329559e-02 4.495361819863319397e-02 -4.518331494182348251e-03 1.457573287189006805e-02 1.599658839404582977e-02 -2.046741358935832977e-02 2.152889221906661987e-02 -1.494985818862915039e-02 3.597757592797279358e-02 -1.314347982406616211e-02 4.850623756647109985e-02 2.168100886046886444e-02 -5.375390872359275818e-03 -8.215253241360187531e-03 1.511373673565685749e-03 -3.293761238455772400e-02 1.065576914697885513e-03 1.562194898724555969e-03 4.653179645538330078e-02 -9.533536620438098907e-03 5.371802300214767456e-02 2.106320671737194061e-02 -4.303576158631861048e-12 4.759294912219047546e-02 5.389720201492309570e-03 3.220106940716505051e-03 -7.392666768282651901e-03 1.196648273617029190e-02 -2.543444186449050903e-02 8.421263657510280609e-03 1.052410434931516647e-02 -6.234357878565788269e-02 2.023678459227085114e-02 -3.241147281118905710e-11 -9.209980256855487823e-03 -5.387495830655097961e-02 -3.274250775575637817e-03 -1.285793554961500718e-10 -1.458958908915519714e-02 4.624918848276138306e-02 -2.889788709580898285e-02 1.774620078504085541e-02 6.949834642000496387e-04 1.141342148184776306e-02 3.821536526083946228e-02 5.468120332807302475e-03 1.613321341574192047e-02 1.482609845697879791e-02 1.399151794612407684e-02 3.276040032505989075e-02 -4.703069442103921440e-16 7.391806691884994507e-02 8.292973786592483521e-02 -4.839643463492393494e-02 3.740125522017478943e-02 4.353591799736022949e-02 2.371683157980442047e-02 -7.179950363934040070e-03 3.996744751930236816e-02 1.044123340398073196e-02 1.091739069670438766e-02 1.237517921254038811e-03 8.826058357954025269e-03 1.352123450487852097e-02 8.555012941360473633e-02 7.854826981201767921e-05 4.835871607065200806e-02 -5.379465222358703613e-02 1.308833993971347809e-02 6.838970631361007690e-02 -4.083086922764778137e-02 -2.230783179402351379e-02 -9.460790082812309265e-03 -6.613575387746095657e-03 8.351178467273712158e-02 5.079761520028114319e-02 -1.179201621562242508e-02 1.804426126182079315e-02 1.834869943559169769e-02 -4.573613777756690979e-02 7.887521386146545410e-02 3.200138360261917114e-02 -3.049266338348388672e-02 -7.131393431336618960e-07 -8.613043464720249176e-03 2.144625969231128693e-02 8.719227276742458344e-03 4.125287756323814392e-03 6.208647415041923523e-02 -4.045302048325538635e-04 -1.019254326820373535e-02 1.669912715442478657e-03 2.492132224142551422e-02 -3.050257219001650810e-03 6.892819702625274658e-02 2.855934668332338333e-03 1.880954951047897339e-02 2.755284868180751801e-02 -6.162491672512260266e-08 1.052566245198249817e-02 -1.692321337759494781e-02 8.195524662733078003e-02 4.303584992885589600e-02 3.158423304557800293e-02 2.849804796278476715e-02 -3.657670458778738976e-03 -2.209815941751003265e-02 1.152628660202026367e-02 3.561815246939659119e-02 5.132979154586791992e-02 -1.874387450516223907e-02 1.523232273757457733e-02 -2.277104742825031281e-02 -2.496679686009883881e-02 -2.468951232731342316e-02 -9.418257512152194977e-03 -1.383501105010509491e-02 9.793475270271301270e-03 4.951451346278190613e-02 8.353776484727859497e-02 8.129231631755828857e-02 1.368590816855430603e-02 -2.718345727771520615e-03 -5.001475568860769272e-03 -2.388911846118446647e-10 2.557119820266962051e-03 -3.515145927667617798e-02 -3.156157210469245911e-02 -1.075875107198953629e-02 -1.637550629675388336e-02 3.731667296960949898e-03 -1.774551905691623688e-02 -3.272976726293563843e-02 2.104977332055568695e-02 -3.052019514143466949e-02 -3.214214229956269264e-03 6.558647751808166504e-02 -1.527036912739276886e-02 -6.153528764843940735e-02 2.497314661741256714e-02 1.893691995641132351e-27 1.849512383341789246e-02 -5.647833867250540152e-10 -9.471813216805458069e-03 2.666832506656646729e-02
3.519098833203315735e-02 -1.781120896339416504e-02 5.867929384112358093e-02 4.381341859698295593e-02 -9.737243875861167908e-03 4.713499918580055237e-03 1.179353240877389908e-02 7.981222867965698242e-02 8.715873584151268005e-03 2.989877201616764069e-02 2.031695283949375153e-02 -1.058129034936428070e-02 2.909562550485134125e-02 6.814640760421752930e-02 8.044770918786525726e-03 -7.323066703975200653e-03 2.949209511280059814e-02 5.461641773581504822e-02 6.024201502441428602e-05 8.042727410793304443e-02 -9.419549605809152126e-04 -4.650727286934852600e-02 -8.017696673050522804e-04 2.195802957848837215e-25 3.057006280869245529e-03 -4.008698090910911560e-02 -2.582249231636524200e-03 -1.519579626619815826e-02 -1.541347429156303406e-02 2.960130944848060608e-02 4.525041440501809120e-04 1.262631360441446304e-02 -2.906336216256022453e-03 -2.089651091052857623e-10 5.003309622406959534e-02 3.629998117685317993e-02 2.943659201264381409e-03 -1.284798886626958847e-02 2.092583337798714638e-03 -1.376564963720738888e-03 5.090450868010520935e-03 5.254918709397315979e-02 -3.056947840377688408e-03 -2.867207862436771393e-03 1.132406905526295304e-04 1.478249672800302505e-02 2.667438425123691559e-02 2.817282639443874359e-02 3.895483538508415222e-02 1.253956090658903122e-02 4.182723537087440491e-02 -6.498625129461288452e-02 4.245424643158912659e-03 -2.133373543620109558e-02 -6.343326531350612640e-03 -6.967511493712663651e-03 1.741643762215971947e-03 -4.266551136970520020e-02 2.214313857257366180e-02 1.082171034067869186e-02 -7.453683763742446899e-03 1.006898097693920135e-02 3.228230774402618408e-02 3.967254236340522766e-02 -1.524263643659651279e-04 -8.235127315856516361e-04 3.119595162570476532e-02 -2.883477369323372841e-03 2.458093687891960144e-02 2.865957794710993767e-03 -1.145057566463947296e-02 5.266186781227588654e-03 3.019278869032859802e-03 4.477477341424673796e-04 -3.092248365283012390e-02 4.412722960114479065e-02 1.929017342627048492e-02 6.680028978735208511e-03 3.271847963333129883e-03 7.333576679229736328e-03 3.657435625791549683e-02 4.151058942079544067e-02 4.357937257736921310e-03 1.848925463855266571e-02 1.902826712466776371e-03 -7.833309471607208252e-03 3.533712774515151978e-02 9.982918389141559601e-03 -9.141063201241195202e-04 1.520087756216526031e-02 -8.707356639206409454e-03 2.562035433948040009e-02 5.082633718848228455e-02 1.064008474349975586e-02 5.998759344220161438e-02 3.487718477845191956e-02 1.411126088351011276e-02 1.901238411664962769e-02 -3.008306212723255157e-02 -5.047843085976351681e-16 1.179624348878860474e-02 1.055128592997789383e-02 -2.919083088636398315e-02 3.983375802636146545e-02 -8.635937119834125042e-04 -1.454862579703330994e-02 1.771407388150691986e-02 3.690567240118980408e-02 7.756182458251714706e-03 -5.781565792858600616e-03 -3.294001519680023193e-02 -4.797261208295822144e-03 -4.277291148900985718e-02 1.365499477833509445e-02 -1.299313642084598541e-02 9.871657006442546844e-03 -2.348211221396923065e-02 -3.208837937563657761e-03 -1.117694284766912460e-02 -1.026716548949480057e-02 -1.958706416189670563e-02 -9.182653389871120453e-03 -1.362444600090384483e-03 2.386993728578090668e-03 2.297184988856315613e-02 2.217404358088970184e-02 7.723995950073003769e-03 -4.685052259340016789e-13 6.328839063644409180e-02 3.700961545109748840e-02 -1.103844493627548218e-02 4.542715847492218018e-02 -5.154424346983432770e-03 -3.712857514619827271e-02 8.404175750911235809e-03 1.628119684755802155e-02 -3.697912395000457764e-02 -3.039843868464231491e-03 -3.720426590064241098e-24 -3.677202388644218445e-02 1.462257932871580124e-02 2.026934176683425903e-02 -4.330534195129409625e-12 -1.432308182120323181e-02 -1.386495400220155716e-02 2.521077916026115417e-02 -2.904900175053626299e-04 6.671249866485595703e-02 -7.600467186421155930e-03 6.583891808986663818e-02 -7.571637164801359177e-03 5.124234408140182495e-02 6.408209446817636490e-03 3.671031212434172630e-03 1.890238001942634583e-02 -2.982630081285234371e-20 1.316501060500741005e-03 1.869670115411281586e-02 6.959065329283475876e-03 3.333589294925332069e-03 2.316513843834400177e-02 4.141385108232498169e-02 2.738561667501926422e-02 3.480069711804389954e-02 -6.738896016031503677e-03 5.914422497153282166e-02 -9.698725189082324505e-04 5.343123525381088257e-02 2.962588891386985779e-02 3.237167000770568848e-02 7.153995335102081299e-03 2.163097821176052094e-02 -9.288752451539039612e-03 2.788641257211565971e-03 3.572673350572586060e-02 -7.917616516351699829e-03 3.988274559378623962e-02 -8.875695057213306427e-03 5.249530449509620667e-02 3.807905688881874084e-02 3.259603865444660187e-03 -3.515076637268066406e-02 -9.908211417496204376e-03 6.670799851417541504e-02 -9.930612286552786827e-04 -1.794016361236572266e-02 7.064190506935119629e-02 -5.169795453548431396e-02 8.117596365944342897e-16 -3.559046611189842224e-02 -1.920872740447521210e-02 8.329409174621105194e-03 -3.306477516889572144e-02 2.469136193394660950e-02 6.223142147064208984e-02 -1.728933071717619896e-03 1.633436419069766998e-02 3.155712410807609558e-02 -5.395772401243448257e-03 7.424221187829971313e-02 -2.093497663736343384e-02 1.762446947395801544e-02 -3.256792575120925903e-02 -1.827333662163255212e-08 8.244155906140804291e-03 -3.262803331017494202e-02 -2.058655023574829102e-02 3.293950110673904419e-02 3.505998477339744568e-02 5.618710443377494812e-02 -1.041462551802396774e-02 -2.079907245934009552e-02 -1.459195930510759354e-02 -1.627336954697966576e-03 -4.943347448715940118e-05 7.078711641952395439e-04 3.745820000767707825e-02 2.715800702571868896e-02 1.577358879148960114e-02 -3.068613260984420776e-02 2.640128694474697113e-02 4.450784530490636826e-03 -1.511108246631920338e-03 2.103623189032077789e-02 2.109132474288344383e-03 3.825038298964500427e-02 -4.696608986705541611e-03 2.739284560084342957e-02 6.825386546552181244e-03 -1.600744120588970532e-10 -7.185051799751818180e-04 -1.671563647687435150e-02 -1.718707755208015442e-02 -2.327256835997104645e-03 7.344858720898628235e-03 4.279607161879539490e-02 4.932163655757904053e-02 1.900996081531047821e-02 3.319157287478446960e-02 1.011677458882331848e-02 -3.076957655139267445e-04 4.512023646384477615e-03 -3.181704087182879448e-03 7.189976051449775696e-03 -1.264887396246194839e-02 1.218820297147991231e-25 8.741981349885463715e-03 -3.136849512577082923e-15 -1.918438635766506195e-02 1.607453078031539917e-02
8.194900304079055786e-02 -8.168349042534828186e-03 -2.269631018862128258e-03 4.431110993027687073e-02 6.300948560237884521e-02 -5.834019742906093597e-03 -1.574635878205299377e-02 2.484862320125102997e-02 -2.047330699861049652e-02 2.869532629847526550e-02 -2.918224968016147614e-02 3.453719243407249451e-02 -4.349266644567251205e-03 -5.907022394239902496e-03 -1.351491082459688187e-02 5.667956918478012085e-02 -3.699418529868125916e-02 4.580077901482582092e-02 -6.307463045231997967e-04 8.583191037178039551e-02 2.042335458099842072e-03 3.197794780135154724e-02 6.448079366236925125e-03 -6.344215708331546466e-10 -2.289173426106572151e-03 6.017846614122390747e-02 -1.884332485496997833e-02 4.583785682916641235e-02 -5.199109669774770737e-03 1.094086468219757080e-02 1.942426897585391998e-02 6.717091798782348633e-02 2.933700941503047943e-02 1.005067095752263390e-20 2.722134254872798920e-02 -5.376781336963176727e-03 1.099655218422412872e-02 -6.794000975787639618e-03 3.983201086521148682e-02 -1.111632119864225388e-02 2.459364570677280426e-02 -2.202333882451057434e-02 -6.488765589892864227e-03 -1.303228456526994705e-02 2.090218622470274568e-04 -1.087160548195242882e-03 2.390156872570514679e-02 2.400714159011840820e-02 5.205757170915603638e-02 4.421882703900337219e-02 3.910715505480766296e-02 -5.124852433800697327e-02 2.143521606922149658e-02 1.093376427888870239e-02 -1.154570281505584717e-02 -4.401770420372486115e-03 2.762381359934806824e-02 8.703395724296569824e-03 4.306266084313392639e-02 1.201957650482654572e-02 6.108875572681427002e-02 -3.177912160754203796e-02 -2.676016592886298895e-04 -1.222849357873201370e-02 9.112865664064884186e-03 6.773962825536727905e-02 -6.982848048210144043e-03 2.533242665231227875e-02 6.145281367935240269e-04 8.637794293463230133e-03 2.326191868633031845e-03 7.846134155988693237e-02 3.934052214026451111e-02 -2.311260439455509186e-03 -2.497728168964385986e-02 4.039626196026802063e-02 8.399387449026107788e-02 8.673617616295814514e-03 5.471277981996536255e-02 1.533583272248506546e-03 2.155645936727523804e-02 1.084002703428268433e-01 1.171647850424051285e-02 1.988257467746734619e-02 -2.655378170311450958e-02 4.609381407499313354e-02 -2.423577243462204933e-03 2.081273123621940613e-02 -1.174253993667662144e-03 -1.302524004131555557e-02 -7.259786128997802734e-03 1.771409530192613602e-03 2.967501059174537659e-03 -2.090151654556393623e-03 -1.990499161183834076e-02 -9.440675494261085987e-04 -1.221167203038930893e-02 3.499304503202438354e-02 3.310607746243476868e-02 -4.307315151611133258e-18 3.881879895925521851e-02 4.803985729813575745e-02 -3.015046473592519760e-03 6.084564141929149628e-03 6.259147077798843384e-02 -3.147787973284721375e-02 1.546377688646316528e-02 -6.211100891232490540e-02 6.322241853922605515e-03 1.123713329434394836e-02 -2.840689569711685181e-02 1.505079492926597595e-02 -1.936656050384044647e-02 2.391714975237846375e-02 2.635315805673599243e-02 2.796241827309131622e-02 3.103489056229591370e-02 -1.498034503310918808e-02 -3.171596303582191467e-02 6.149464752525091171e-03 -1.949644833803176880e-02 -3.998481854796409607e-02 5.418267683126032352e-04 1.955439709126949310e-02 4.733341280370950699e-03 3.632165724411606789e-03 9.620657074265182018e-04 -2.206657835176670766e-15 5.766820162534713745e-02 4.278049618005752563e-02 1.633148454129695892e-02 -1.337784528732299805e-02 -2.076005795970559120e-03 7.559213787317276001e-02 -1.700042397715151310e-03 2.758339978754520416e-02 2.188256196677684784e-02 2.051229961216449738e-02 8.991691557553659989e-21 -3.281548852100968361e-03 3.222282975912094116e-02 3.368628025054931641e-02 -1.070579735973353763e-10 5.157383531332015991e-02 -1.701113581657409668e-02 1.380614656955003738e-02 2.510247565805912018e-02 1.101564615964889526e-02 -5.768233910202980042e-03 4.502618312835693359e-02 4.789304919540882111e-03 5.402360111474990845e-02 6.751211360096931458e-03 -4.101164266467094421e-02 5.230693891644477844e-02 -2.228882836218144814e-14 5.077167972922325134e-02 9.680986404418945312e-03 -3.708278760313987732e-02 1.033730991184711456e-02 5.919057503342628479e-02 7.158145308494567871e-02 1.232956349849700928e-02 5.370614677667617798e-02 2.115891128778457642e-02 4.859218746423721313e-02 -9.542107582092285156e-04 6.815500557422637939e-02 -3.252505883574485779e-02 2.678750641644001007e-02 -4.980040248483419418e-03 1.290633622556924820e-02 -2.347587980329990387e-02 7.766130845993757248e-03 5.512966588139533997e-02 -3.357327729463577271e-02 -3.034681268036365509e-02 -4.397455602884292603e-02 1.014887914061546326e-02 4.961685091257095337e-02 4.697290807962417603e-02 6.911753211170434952e-03 5.366464145481586456e-03 -1.601803489029407501e-02 -3.047002106904983521e-02 5.467134341597557068e-02 7.255017012357711792e-02 -2.875770069658756256e-02 -3.418584026970705736e-10 -3.066487610340118408e-02 5.082712974399328232e-03 4.407749045640230179e-03 -5.365676805377006531e-02 3.985261544585227966e-02 3.359327092766761780e-02 -1.362355332821607590e-02 -3.544708341360092163e-02 9.107086807489395142e-03 1.005541533231735229e-02 7.472812384366989136e-02 6.126891449093818665e-02 1.300386711955070496e-02 2.474072389304637909e-02 3.508122517814626917e-06 4.653095081448554993e-02 1.395041216164827347e-02 2.341838926076889038e-02 5.307101458311080933e-02 -2.404223196208477020e-02 1.374925207346677780e-02 -1.635294966399669647e-02 5.125552043318748474e-02 7.461919635534286499e-02 1.957363262772560120e-02 2.761252783238887787e-02 -5.650825798511505127e-03 5.270380899310112000e-02 2.220569737255573273e-02 1.038033887743949890e-02 -1.324424706399440765e-02 6.647809874266386032e-03 2.325939480215311050e-03 -1.116193644702434540e-02 3.428240492939949036e-02 3.693769499659538269e-02 3.706580027937889099e-03 -1.704330206848680973e-03 -2.400597790256142616e-03 -1.379758864641189575e-02 -1.821180637122821883e-14 -2.660691039636731148e-03 3.899464756250381470e-02 -2.904084743931889534e-03 -8.790802210569381714e-03 5.502437800168991089e-02 1.521667372435331345e-02 -2.106791129335761070e-03 -1.121928077191114426e-02 1.032710913568735123e-02 -1.180684566497802734e-02 -1.742382068186998367e-03 3.122727014124393463e-02 1.038818620145320892e-02 -4.063202440738677979e-02 1.171346567571163177e-02 3.331970522773020176e-30 3.182782232761383057e-02 -1.510283981209781246e-10 1.688836142420768738e-02 2.259966544806957245e-02
1.491043809801340103e-02 3.224349580705165863e-03 2.312870882451534271e-02 2.863293513655662537e-02 -1.850498141720890999e-03 2.511432394385337830e-02 1.314801257103681564e-02 -1.755927689373493195e-02 7.178706675767898560e-02 1.895693689584732056e-02 4.229947924613952637e-02 -1.446009334176778793e-02 -9.423849172890186310e-03 1.735907862894237041e-03 2.058905363082885742e-02 6.058868765830993652e-02 5.246687307953834534e-02 3.514786064624786377e-02 1.733106182655319571e-04 -4.761729389429092407e-02 -5.285357474349439144e-04 -1.570467650890350342e-02 -3.162723733112215996e-03 2.522120695720336098e-31 5.054772272706031799e-02 -4.774501174688339233e-02 1.008191984146833420e-02 -2.390530519187450409e-02 4.482787474989891052e-02 -2.984970249235630035e-02 -7.723136339336633682e-03 2.131677418947219849e-02 1.450315676629543304e-02 -4.845427947763880638e-10 2.767889993265271187e-03 3.688372438773512840e-03 4.573511891067028046e-03 7.435366511344909668e-03 4.139439016580581665e-02 -3.425978502491489053e-05 3.044636547565460205e-02 -1.606358587741851807e-02 2.016196586191654205e-02 -1.364301331341266632e-02 -1.879207593447063118e-05 1.955301128327846527e-02 -3.088194690644741058e-02 -2.046087197959423065e-02 2.029210701584815979e-02 -1.508553791791200638e-02 -6.478323042392730713e-02 4.193232581019401550e-02 -1.767016015946865082e-02 3.946792334318161011e-02 -3.935927897691726685e-02 3.250914439558982849e-02 -1.159948017448186874e-02 4.925208166241645813e-02 -2.607854083180427551e-02 -1.949154399335384369e-02 8.031953126192092896e-02 6.675864756107330322e-02 -2.306427620351314545e-02 3.800668194890022278e-02 -1.243978179991245270e-02 -3.642938332632184029e-03 -2.260705456137657166e-02 7.332213688641786575e-03 3.887339308857917786e-02 -1.123436726629734039e-02 -4.877365380525588989e-02 -2.106758207082748413e-02 -4.592094570398330688e-02 -1.019270159304141998e-03 -1.792929507791996002e-02 9.185589849948883057e-02 -1.472506858408451080e-02 -4.770558327436447144e-02 6.481773406267166138e-02 1.448334380984306335e-02 -2.451184578239917755e-02 -3.689492866396903992e-02 1.489487010985612869e-02 -4.488653317093849182e-02 -1.232415437698364258e-03 -3.229574486613273621e-02 -2.836253307759761810e-02 -3.476507589221000671e-02 1.833181304391473532e-04 5.301014706492424011e-02 1.510234456509351730e-02 -1.487369555979967117e-02 7.649816572666168213e-03 -2.306277491152286530e-02 1.886395853944122791e-03 5.250521004199981689e-02 5.871750041842460632e-02 -2.007801830768585205e-02 -1.805916056036949158e-02 1.789341351555846457e-16 -3.237985074520111084e-03 -5.350895226001739502e-02 5.948238819837570190e-02 -4.461059719324111938e-02 2.554532513022422791e-02 8.471530675888061523e-02 -1.134208287112414837e-03 3.424759581685066223e-02 -1.545069739222526550e-02 3.631776897236704826e-03 -3.311681374907493591e-02 -8.827719837427139282e-03 1.437064912170171738e-02 -1.537500135600566864e-02 1.002440508455038071e-02 1.832576282322406769e-02 -4.449442028999328613e-02 6.958115100860595703e-02 3.480079025030136108e-02 -9.112525731325149536e-03 3.846677392721176147e-02 4.731140565127134323e-03 -1.249446999281644821e-03 -9.018768556416034698e-03 5.833748728036880493e-03 -4.047138616442680359e-02 3.394050290808081627e-03 -2.045901425704044208e-13 -5.562458932399749756e-02 5.417261854745447636e-04 1.615432649850845337e-02 8.707353845238685608e-03 2.687901072204113007e-02 2.774656750261783600e-02 1.569663733243942261e-02 -1.586432568728923798e-02 1.203854754567146301e-02 3.225315595045685768e-03 -2.603003495920656741e-21 1.006584763526916504e-01 3.662607446312904358e-02 -2.003977820277214050e-02 -2.059117172560284703e-13 -6.191090214997529984e-03 -4.142947867512702942e-02 8.140736073255538940e-02 -1.342410221695899963e-02 3.804175928235054016e-02 -8.392231538891792297e-03 -7.217250764369964600e-02 -4.402152553666383028e-04 2.955412864685058594e-02 -9.274513577111065388e-04 3.660937305539846420e-03 -1.647333428263664246e-02 -1.943745796370750789e-15 -7.096572965383529663e-02 -4.044558107852935791e-02 7.191526144742965698e-02 -2.214467525482177734e-02 -2.900268323719501495e-02 -1.155157200992107391e-02 -1.494689472019672394e-02 -5.561948567628860474e-02 -1.251175254583358765e-02 -5.214020144194364548e-03 5.657084402628242970e-04 -3.247455134987831116e-02 3.471531718969345093e-02 -5.411817505955696106e-02 1.689936220645904541e-02 -3.330373764038085938e-02 1.198625192046165466e-01 -5.189971998333930969e-03 -5.392175912857055664e-02 1.433937810361385345e-02 7.132002152502536774e-03 1.043909811414778233e-03 -1.446431968361139297e-02 -2.740930579602718353e-02 1.447589602321386337e-02 7.504086196422576904e-02 6.074634846299886703e-03 3.599977120757102966e-02 1.355081796646118164e-01 -6.492798030376434326e-02 5.355659872293472290e-02 1.036533489823341370e-01 -7.248318611985382631e-10 3.015483543276786804e-02 -7.533097174018621445e-03 2.875760011374950409e-02 9.289261698722839355e-02 2.029288187623023987e-02 2.185815386474132538e-02 2.084282413125038147e-02 4.445092380046844482e-02 1.901181531138718128e-03 1.314104627817869186e-02 -5.687851458787918091e-02 7.398241758346557617e-02 3.230337426066398621e-02 -3.763262927532196045e-02 -1.943856631214657682e-07 3.238153457641601562e-02 4.684142302721738815e-03 -1.218868978321552277e-02 -7.341710384935140610e-03 1.295108534395694733e-02 -2.529251389205455780e-02 1.747099682688713074e-02 1.356289442628622055e-02 -1.532651390880346298e-02 3.187135607004165649e-02 -2.739220112562179565e-02 5.396814644336700439e-02 -3.200870752334594727e-02 1.714956201612949371e-02 -1.610882580280303955e-02 3.262588381767272949e-02 2.907005604356527328e-03 7.419464644044637680e-03 -8.199757896363735199e-03 4.780170693993568420e-02 -6.082981824874877930e-02 -2.087923511862754822e-02 -8.100748062133789062e-03 9.175552055239677429e-03 4.376734793186187744e-02 -2.229349760352050680e-10 3.905872581526637077e-03 2.889090403914451599e-02 2.216270193457603455e-02 4.581437632441520691e-02 1.028037723153829575e-02 6.413792259991168976e-03 -7.131522893905639648e-02 4.976482689380645752e-02 -2.728218771517276764e-02 8.438703417778015137e-02 -2.400664379820227623e-04 -4.741286113858222961e-02 2.925724349915981293e-02 6.714861094951629639e-02 1.765299588441848755e-03 1.863044288002425774e-31 -1.638474315404891968e-02 -4.255716466077322235e-14 3.306320309638977051e-02 -2.548133209347724915e-02
3.492355113849043846e-03 -1.054576411843299866e-02 -2.518485859036445618e-02 1.924177864566445351e-03 3.602355718612670898e-02 -1.824983023107051849e-02 -3.954498097300529480e-03 6.531963124871253967e-03 1.795352995395660400e-02 3.307067602872848511e-02 1.961183920502662659e-02 3.236491605639457703e-02 -5.712219048291444778e-03 -1.427240762859582901e-02 -2.184969838708639145e-03 -8.971515111625194550e-03 1.181306876242160797e-02 6.890732329338788986e-03 -4.658100078813731670e-04 -8.932779543101787567e-03 3.231039037927985191e-03 7.336742710322141647e-03 3.373493440449237823e-03 -5.769729312377069874e-13 -9.826387977227568626e-04 -3.256136784330010414e-03 4.533551167696714401e-03 3.764737397432327271e-02 1.101078838109970093e-02 7.696203887462615967e-03 3.299615159630775452e-02 -2.627225825563073158e-03 3.743988275527954102e-02 7.239463718431357606e-21 1.056435145437717438e-02 -1.049490645527839661e-02 2.103846892714500427e-02 2.826543338596820831e-02 -3.513953089714050293e-02 2.170237526297569275e-02 1.346111996099352837e-03 1.869555376470088959e-02 6.295401137322187424e-03 2.248410694301128387e-02 2.451547479722648859e-04 2.534489706158638000e-02 2.988493070006370544e-02 -1.455463003367185593e-02 3.573467954993247986e-02 3.116453252732753754e-02 1.701797172427177429e-02 1.747467182576656342e-02 -3.002401255071163177e-02 -1.627049408853054047e-03 5.345348641276359558e-02 -1.550517790019512177e-02 1.044766418635845184e-02 4.707376658916473389e-02 -1.046200189739465714e-02 -4.664580803364515305e-03 -2.326694549992680550e-03 -8.889779448509216309e-03 1.138203497976064682e-02 -2.551021240651607513e-02 1.057978626340627670e-02 9.340410120785236359e-03 -1.890246011316776276e-02 1.699900254607200623e-02 -1.476430054754018784e-02 1.925693824887275696e-02 3.437086939811706543e-02 1.413020491600036621e-02 3.050076588988304138e-02 -3.048394341021776199e-03 -1.512992568314075470e-02 -4.310334566980600357e-03 1.999173313379287720e-02 -1.475609187036752701e-02 4.953581839799880981e-03 -1.469143759459257126e-02 7.018924504518508911e-02 -1.958107110112905502e-03 -1.219578552991151810e-02 3.139882534742355347e-02 1.322773750871419907e-02 1.552693312987685204e-03 -1.940540410578250885e-02 3.859656304121017456e-02 -2.339306520298123360e-03 7.072899024933576584e-03 -1.323050539940595627e-02 -2.042475156486034393e-02 -2.078543603420257568e-02 4.749090597033500671e-02 -1.771141029894351959e-02 2.303041331470012665e-02 3.110860846936702728e-02 3.610580787062644958e-02 2.779202349483966827e-02 -1.821144488792385917e-19 -9.473964571952819824e-03 1.815448328852653503e-02 -5.121888243593275547e-04 -5.516252014786005020e-03 -2.196715772151947021e-02 -5.059725139290094376e-03 3.363765776157379150e-02 -2.771262824535369873e-02 -1.710540428757667542e-02 1.811331696808338165e-02 -1.136607490479946136e-02 8.439629338681697845e-03 1.781317032873630524e-02 -5.698992870748043060e-03 -6.264961324632167816e-03 3.008457459509372711e-02 3.428079187870025635e-02 -3.233068063855171204e-02 1.327183935791254044e-02 -1.190181169658899307e-02 -3.302524099126458168e-03 4.226699844002723694e-02 9.620505734346807003e-04 1.265056151896715164e-02 1.319467846769839525e-04 5.156166106462478638e-02 -1.516160741448402405e-02 -4.284174577595667444e-12 -1.168606337159872055e-03 -1.428384613245725632e-02 1.298707164824008942e-02 4.707084223628044128e-02 2.769576944410800934e-02 2.125325985252857208e-02 -1.697181537747383118e-02 -1.932309567928314209e-02 5.954563152045011520e-03 -4.388126078993082047e-03 -7.335820608594688802e-32 1.181222847662866116e-03 -1.767241023480892181e-02 -2.785892225801944733e-02 -2.207817435817549523e-11 1.064024120569229126e-02 4.408276872709393501e-04 -2.070363983511924744e-02 3.047452867031097412e-02 -3.144643828272819519e-02 -4.663249943405389786e-03 2.250727824866771698e-02 -6.467355415225028992e-03 -3.360543027520179749e-02 -3.988543059676885605e-03 5.330842733383178711e-02 2.518352866172790527e-02 8.643988807347377588e-23 1.849433407187461853e-02 1.594069041311740875e-02 -1.095802336931228638e-02 3.711731359362602234e-02 -2.868687035515904427e-03 2.922444837167859077e-03 1.975011313334107399e-03 -2.030432224273681641e-02 -1.495089847594499588e-02 1.739677740260958672e-03 -7.144920527935028076e-04 2.157455310225486755e-02 -6.731724366545677185e-03 3.918275237083435059e-03 -1.514291204512119293e-02 -4.312351346015930176e-02 -4.587832838296890259e-02 -1.791671849787235260e-03 -1.380000822246074677e-02 -2.715463284403085709e-03 -1.222777087241411209e-02 6.230517756193876266e-03 1.846432313323020935e-02 4.358888417482376099e-02 1.583606936037540436e-02 -1.054087840020656586e-02 1.129239145666360855e-02 9.486221708357334137e-03 -7.045713718980550766e-03 -1.926756650209426880e-02 4.185711592435836792e-02 1.539922971278429031e-02 -4.912132567369553726e-08 5.836493149399757385e-02 3.117816708981990814e-02 -2.922705747187137604e-02 -3.009847924113273621e-02 -2.919080725405365229e-04 -2.730296365916728973e-02 7.077059242874383926e-03 2.321381121873855591e-02 7.601804099977016449e-03 1.314341835677623749e-02 -1.845620339736342430e-03 2.851047180593013763e-02 -2.936105988919734955e-02 1.453200634568929672e-02 -6.538381502885215468e-10 2.309678867459297180e-02 1.295236963778734207e-02 2.965209260582923889e-02 4.317160695791244507e-02 4.055181145668029785e-02 -2.039868384599685669e-02 6.129550747573375702e-03 3.010433167219161987e-02 3.956550359725952148e-02 1.421690639108419418e-02 -8.685494773089885712e-03 1.821545651182532310e-03 4.973189905285835266e-02 -3.466558642685413361e-03 9.093700908124446869e-03 1.198650617152452469e-02 -8.485858328640460968e-03 6.850230973213911057e-03 -1.875792443752288818e-02 1.684206724166870117e-02 6.642912328243255615e-02 4.971924051642417908e-02 -8.412803523242473602e-03 1.653772406280040741e-02 -1.583373919129371643e-02 -5.152224480386990990e-11 3.032678505405783653e-03 -1.386833749711513519e-02 9.689872385933995247e-04 2.258225576952099800e-03 2.123040612787008286e-03 -2.867705002427101135e-02 -8.145933970808982849e-03 -1.064291968941688538e-02 1.866631768643856049e-02 -2.807440422475337982e-02 -5.204986664466559887e-04 1.294809766113758087e-02 -3.057382768020033836e-03 -7.629522588104009628e-04 2.195838466286659241e-02 2.492155033225784533e-28 2.951648831367492676e-02 -2.166388237149954182e-14 2.045482955873012543e-02 -1.995490491390228271e-02
6.601510196924209595e-02 -5.362699739634990692e-03 7.168499287217855453e-03 1.410315036773681641e-01 7.823956757783889771e-02 8.128878544084727764e-04 -2.137408591806888580e-03 4.079666920006275177e-03 -6.179282441735267639e-02 2.249462902545928955e-02 -7.978532463312149048e-03 8.551909588277339935e-03 6.063758581876754761e-02 2.454545907676219940e-02 2.613897807896137238e-02 6.733838468790054321e-02 -7.106661796569824219e-02 1.208041794598102570e-02 -2.766917459666728973e-04 9.108135849237442017e-02 -2.447074279189109802e-03 3.469154238700866699e-02 5.778627819381654263e-04 -2.531241882763879403e-10 1.342909969389438629e-02 8.575417846441268921e-02 -2.943816967308521271e-02 -3.626533551141619682e-03 -2.454825118184089661e-02 5.001660902053117752e-03 -1.403214875608682632e-02 1.206433922052383423e-01 -2.739601209759712219e-02 -3.358854971935443245e-09 1.420587487518787384e-02 8.579840883612632751e-03 2.673338353633880615e-02 -2.678973600268363953e-02 8.085387945175170898e-02 -1.408443134278059006e-02 1.448487397283315659e-02 -4.421206563711166382e-02 -1.934597454965114594e-02 1.437610015273094177e-02 3.335002402309328318e-04 -3.189365938305854797e-02 -2.380788139998912811e-02 6.137330085039138794e-02 1.269124001264572144e-01 3.864891082048416138e-02 5.148612707853317261e-02 -1.131139323115348816e-02 3.226162120699882507e-02 -3.984831273555755615e-03 -4.079938679933547974e-02 1.078612729907035828e-01 1.795944944024085999e-02 6.722854822874069214e-02 8.057955652475357056e-02 -2.804399654269218445e-02 1.332073360681533813e-01 -2.326759323477745056e-02 -1.353891845792531967e-02 1.275971625000238419e-02 -1.883211359381675720e-02 5.663298815488815308e-02 7.503973320126533508e-04 -4.129853844642639160e-02 4.247022047638893127e-02 2.448223531246185303e-02 -1.553846057504415512e-02 9.754803031682968140e-02 4.998198151588439941e-02 -1.568639185279607773e-03 1.762656145729124546e-03 5.241895094513893127e-02 6.977748125791549683e-02 4.233673587441444397e-02 1.042798087000846863e-01 2.134344540536403656e-02 -4.647409915924072266e-02 9.693218022584915161e-02 1.625312492251396179e-02 2.977528981864452362e-02 2.578855119645595551e-02 -3.205530717968940735e-02 4.287616163492202759e-02 -9.991116821765899658e-03 -3.781870706006884575e-03 2.025606110692024231e-02 2.317364700138568878e-02 5.365258082747459412e-02 -5.579617340117692947e-03 -2.979428134858608246e-02 3.446283563971519470e-02 -8.014139533042907715e-02 -1.114433258771896362e-02 3.120148554444313049e-02 6.111000105738639832e-02 -5.631806132555539079e-10 5.870622396469116211e-02 4.043966531753540039e-02 -1.490534655749797821e-02 4.994099959731101990e-03 9.554198384284973145e-02 1.731553673744201660e-02 1.306871231645345688e-02 -3.970322012901306152e-02 -3.659600391983985901e-03 -1.780136115849018097e-02 1.466705277562141418e-02 1.298893359489738941e-03 2.722759358584880829e-02 2.987643517553806305e-02 4.973049089312553406e-02 4.671777784824371338e-02 -1.940139569342136383e-02 -1.126001961529254913e-02 3.416831418871879578e-02 -4.474683664739131927e-03 -5.010718945413827896e-03 -6.020655110478401184e-02 -1.462798798456788063e-03 3.755091503262519836e-02 2.886850200593471527e-02 -3.814231976866722107e-02 -2.066952362656593323e-02 -2.003551404644587919e-14 6.246807426214218140e-02 8.644158393144607544e-02 1.028031110763549805e-03 -4.976211488246917725e-02 -4.224519710987806320e-03 6.852446496486663818e-02 4.461339209228754044e-03 4.263475164771080017e-02 9.041753411293029785e-02 1.014833152294158936e-02 -1.161171332697552572e-11 -1.502630300819873810e-02 1.145550012588500977e-01 3.958288580179214478e-02 -1.290185736024795915e-08 7.444527745246887207e-02 8.064846508204936981e-03 1.235897466540336609e-01 -4.157932475209236145e-03 3.566074743866920471e-02 -1.630057580769062042e-02 2.311280742287635803e-02 -8.181519806385040283e-03 1.201651766896247864e-01 1.213906612247228622e-02 2.533613704144954681e-03 2.558992058038711548e-02 -6.123915859750582967e-16 2.126932702958583832e-02 -3.437191992998123169e-02 5.460773408412933350e-02 1.146596390753984451e-02 7.120648026466369629e-02 8.345461636781692505e-02 1.115863863378763199e-02 7.458502799272537231e-02 2.904460951685905457e-02 7.712397724390029907e-02 -3.565555671229958534e-03 3.181871399283409119e-02 -3.071662224829196930e-02 1.852764375507831573e-02 -4.598206840455532074e-03 7.864611595869064331e-02 5.443271249532699585e-02 1.085691526532173157e-02 6.380562484264373779e-02 7.755909580737352371e-03 1.298173610121011734e-02 5.975880194455385208e-03 2.135974168777465820e-02 2.598590590059757233e-02 4.501714184880256653e-02 -4.660246428102254868e-03 -1.045134756714105606e-02 -3.360779583454132080e-02 1.811633072793483734e-02 6.163673475384712219e-02 6.152197346091270447e-02 -1.256698626093566418e-03 -1.603913091230424470e-07 -1.255128532648086548e-03 -3.992375731468200684e-02 -9.964342461898922920e-04 -2.766099572181701660e-02 3.333570808172225952e-02 4.175507277250289917e-02 -3.288148669525980949e-03 -5.134314298629760742e-02 4.368979483842849731e-02 -2.064348896965384483e-03 4.935724660754203796e-02 7.927102968096733093e-03 7.456090534105896950e-04 3.292015939950942993e-02 -7.876798008510377258e-06 4.649274796247482300e-02 2.508000470697879791e-02 -2.697420492768287659e-02 7.477947976440191269e-03 -4.066572338342666626e-02 5.670188367366790771e-02 -1.880991272628307343e-02 6.117634102702140808e-02 7.808237522840499878e-02 6.090002506971359253e-02 4.784849286079406738e-02 1.245628762990236282e-02 6.904970109462738037e-02 6.846562772989273071e-02 3.082694485783576965e-02 2.870745211839675903e-02 2.860296517610549927e-02 -3.007537219673395157e-03 -7.712779566645622253e-03 2.290221489965915680e-02 -1.061523891985416412e-02 -8.180984854698181152e-02 -1.654675230383872986e-02 7.145877182483673096e-02 3.641940653324127197e-02 -4.897701133543819196e-10 -4.043026361614465714e-03 8.601149171590805054e-02 -2.176624163985252380e-02 -1.857505179941654205e-02 1.142156049609184265e-01 8.845369517803192139e-02 5.825526267290115356e-02 2.543781138956546783e-02 -2.170530334115028381e-02 9.448955766856670380e-03 -5.961499991826713085e-04 3.334198519587516785e-02 7.432386279106140137e-02 4.437974095344543457e-02 -2.561638131737709045e-02 3.174029085588627096e-28 2.458359347656369209e-03 -1.091900615063368107e-11 -8.197575807571411133e-03 1.969453133642673492e-02
5.246129818260669708e-03 1.520924549549818039e-02 1.319764461368322372e-02 1.314994227141141891e-02 -3.651742357760667801e-03 1.793080568313598633e-02 -4.568394506350159645e-04 2.851535798981785774e-03 1.181235187686979771e-03 -1.692185527645051479e-03 -3.354996908456087112e-03 -5.649243248626589775e-04 1.743602752685546875e-02 -4.896884318441152573e-03 7.582076941616833210e-04 1.632788591086864471e-02 6.858471315354108810e-03 -1.563485339283943176e-02 -2.608868953757337295e-06 1.759648509323596954e-02 1.101518049836158752e-03 3.221218707039952278e-03 4.138724878430366516e-03 -5.901406342925349905e-20 -1.109897159039974213e-02 1.308066584169864655e-02 2.832094440236687660e-03 1.650520833209156990e-03 5.922881886363029480e-03 -2.202267944812774658e-02 -5.397311411798000336e-03 1.058779098093509674e-02 1.346926018595695496e-02 -1.275688199657579498e-20 -5.846088752150535583e-03 -5.928637925535440445e-03 8.078450337052345276e-03 -8.140656165778636932e-03 3.313989564776420593e-02 1.436887122690677643e-02 -1.409487612545490265e-02 -2.267258008942008018e-03 -6.895625498145818710e-03 9.410448372364044189e-03 8.886145224096253514e-05 -1.909265667200088501e-02 1.982844620943069458e-02 3.062813542783260345e-02 3.499777056276798248e-03 -7.938456721603870392e-03 6.258744280785322189e-03 -9.653369779698550701e-04 3.388296440243721008e-02 2.901641884818673134e-03 1.948499819263815880e-03 -6.892150733619928360e-03 2.393164299428462982e-02 -2.556302351877093315e-04 -9.871299378573894501e-03 1.706101559102535248e-02 1.164845190942287445e-02 -4.685806052293628454e-04 -9.877095930278301239e-03 1.457386836409568787e-02 8.591847494244575500e-03 8.814343251287937164e-03 8.706549182534217834e-03 -8.174260146915912628e-03 1.781610213220119476e-02 -1.845708303153514862e-02 1.478892657905817032e-02 1.149724517017602921e-02 9.394526481628417969e-03 2.119858516380190849e-03 1.609178609214723110e-03 -1.333364285528659821e-02 -1.174245029687881470e-03 1.287284027785062790e-02 -3.715023631229996681e-04 -5.147076677531003952e-03 -1.039743795990943909e-02 1.930658146739006042e-02 -6.858964450657367706e-03 -1.361780893057584763e-02 -4.768992308527231216e-03 1.256237830966711044e-02 1.037593092769384384e-02 -1.062920317053794861e-02 1.025024103000760078e-04 -9.840848855674266815e-03 -1.273195259273052216e-03 8.310536853969097137e-03 -1.494100037962198257e-02 5.105580203235149384e-03 6.416547577828168869e-03 -1.064507756382226944e-02 -1.889266073703765869e-02 5.977324675768613815e-03 -8.525475859642028809e-03 -2.342946439493989254e-30 1.498270872980356216e-02 1.006839913316071033e-03 -1.690146746113896370e-03 4.898912156932055950e-04 6.209757179021835327e-03 3.291210392490029335e-03 -4.097375087440013885e-03 8.436838397756218910e-04 1.254202332347631454e-02 7.630910258740186691e-03 7.735599298030138016e-03 1.027121953666210175e-02 2.868352923542261124e-03 1.714245416224002838e-02 -7.651831954717636108e-03 2.931192866526544094e-04 5.145831499248743057e-03 2.493705973029136658e-02 2.320697717368602753e-02 7.557827979326248169e-03 -2.020519040524959564e-02 -2.037716470658779144e-02 7.752177771180868149e-04 5.779634695500135422e-03 1.322147902101278305e-02 -1.108301058411598206e-02 1.554635167121887207e-02 -2.192350065651561445e-17 1.692092418670654297e-02 4.328821785748004913e-03 -4.811348859220743179e-03 -2.255720086395740509e-02 -1.062731537967920303e-02 6.983096711337566376e-03 2.024899981915950775e-02 7.814822718501091003e-03 -2.631940878927707672e-03 1.483256835490465164e-02 1.330089255271810485e-31 -5.366519559174776077e-03 -6.771402433514595032e-03 9.351857937872409821e-03 -2.414491816158917905e-23 -1.111114863306283951e-03 5.496109370142221451e-03 1.281224191188812256e-02 -1.388699840754270554e-02 4.398107063025236130e-03 6.334229838103055954e-03 1.271501462906599045e-02 1.730936579406261444e-03 3.321497887372970581e-02 1.607951894402503967e-02 9.831509087234735489e-04 -3.761487547308206558e-03 -2.718781992750600215e-26 1.318846549838781357e-02 1.038559526205062866e-02 3.114921972155570984e-03 7.260587532073259354e-03 4.092538263648748398e-03 6.287615746259689331e-03 -1.349168829619884491e-02 1.413786970078945160e-02 2.310116030275821686e-02 3.792435862123966217e-03 1.432079734513536096e-04 -5.459595937281847000e-03 -4.980195779353380203e-03 1.613678410649299622e-02 -1.372473430819809437e-03 2.543467469513416290e-02 5.718440283089876175e-03 7.962058298289775848e-03 2.303875051438808441e-02 3.702549496665596962e-03 4.809518577530980110e-04 4.107248503714799881e-03 -4.213973879814147949e-03 1.337040122598409653e-02 -1.624987577088177204e-03 -1.789129222743213177e-03 1.455258578062057495e-02 -5.962481722235679626e-03 -1.411466952413320541e-02 3.916621953248977661e-02 1.458586775697767735e-03 -9.268120862543582916e-03 -4.844190604202935901e-10 -1.179490145295858383e-02 8.208199404180049896e-03 2.139559760689735413e-02 -4.160662181675434113e-03 1.769813895225524902e-02 2.104509854689240456e-03 -2.475396497175097466e-03 -5.279640317894518375e-04 6.384280044585466385e-03 -8.522740681655704975e-04 1.337712164968252182e-02 -9.991073049604892731e-03 9.732634760439395905e-03 1.472333632409572601e-02 6.011579428699675987e-11 -1.044398639351129532e-02 2.181737218052148819e-03 2.665012143552303314e-02 -1.586174406111240387e-02 -3.517109202221035957e-03 1.912322454154491425e-02 5.476093385368585587e-03 -2.279503038153052330e-03 -5.882393568754196167e-03 2.334918268024921417e-02 2.656977623701095581e-02 -3.837333759292960167e-03 7.024000398814678192e-03 -1.276228576898574829e-03 -1.517334673553705215e-02 1.598525093868374825e-03 7.389670703560113907e-03 -1.328873168677091599e-02 1.725523732602596283e-02 1.916223671287298203e-03 1.342633459717035294e-02 -4.518641158938407898e-03 6.720887497067451477e-03 5.628583021461963654e-04 -1.657633401919156313e-05 -6.408368974364364590e-11 -2.627023728564381599e-03 -1.438190042972564697e-02 -1.008981559425592422e-02 -4.223241936415433884e-03 1.331281661987304688e-02 1.616764254868030548e-02 3.838902339339256287e-03 -7.474037352949380875e-03 -1.069276127964258194e-02 4.330052528530359268e-03 -1.453831064281985164e-04 9.781096130609512329e-03 1.913996879011392593e-03 -4.026507027447223663e-03 1.681918092072010040e-02 9.619587490293140484e-32 -1.886988431215286255e-02 -6.373371727697805046e-27 -1.514684036374092102e-02 1.983902789652347565e-02
1.884041726589202881e-02 -1.123105641454458237e-03 -4.080048948526382446e-02 -4.851567000150680542e-02 3.862115740776062012e-02 -8.787738159298896790e-03 -7.301452569663524628e-03 -1.504748500883579254e-02 -6.232183892279863358e-03 -2.087715547531843185e-03 -4.912753030657768250e-02 5.797833204269409180e-02 -8.838028460741043091e-02 -5.482373293489217758e-03 -6.269990466535091400e-03 2.938930317759513855e-02 -3.266879916191101074e-02 4.916921630501747131e-02 -3.202128573320806026e-05 -1.477611437439918518e-02 7.136695203371345997e-04 7.330828160047531128e-02 -7.417004089802503586e-04 -4.667227348819974128e-15 1.814576610922813416e-02 9.714345633983612061e-02 3.792484290897846222e-03 7.295477390289306641e-02 -2.430420368909835815e-03 3.576739132404327393e-02 1.378905307501554489e-02 1.949535310268402100e-02 -3.386217635124921799e-03 -3.166485086289472228e-12 1.271053403615951538e-02 1.479009259492158890e-02 -5.740563385188579559e-03 1.060750242322683334e-02 -2.005991153419017792e-02 -2.482647076249122620e-02 7.542209327220916748e-02 -9.015717543661594391e-03 3.003913164138793945e-02 -1.264413446187973022e-02 -2.704719081521034241e-04 2.300007455050945282e-02 -2.755277045071125031e-02 -4.219109565019607544e-02 5.800416693091392517e-03 4.525330290198326111e-02 3.328965744003653526e-03 4.644642025232315063e-02 -1.360447704792022705e-02 2.948307991027832031e-02 2.970512025058269501e-03 7.534138113260269165e-02 -2.939750999212265015e-02 3.813068568706512451e-02 4.486393555998802185e-02 -1.975021138787269592e-02 5.973986815661191940e-03 -8.241501636803150177e-03 3.460716828703880310e-02 -1.160322222858667374e-02 1.822886988520622253e-03 2.413314394652843475e-02 1.015796512365341187e-02 7.504516839981079102e-02 -4.270157590508460999e-02 5.112022161483764648e-02 2.217406220734119415e-02 3.383971378207206726e-02 2.642203681170940399e-02 -8.098770049400627613e-04 2.862906642258167267e-02 2.271309308707714081e-02 6.408490985631942749e-02 8.980993181467056274e-03 3.073564916849136353e-02 8.660338353365659714e-04 1.090835314244031906e-02 6.396765261888504028e-02 6.182111799716949463e-02 3.840246424078941345e-02 -2.945610880851745605e-02 6.246565282344818115e-02 -1.883010752499103546e-02 5.816861242055892944e-02 3.604462370276451111e-03 -1.489364355802536011e-02 3.686076262965798378e-03 2.369240857660770416e-03 1.675200276076793671e-02 -1.748910546302795410e-02 -1.696287468075752258e-02 2.926517277956008911e-02 5.609159171581268311e-02 1.613832660950720310e-03 1.241247951984405518e-01 -3.457125524418741498e-27 2.566197328269481659e-02 5.608306825160980225e-02 2.843038737773895264e-02 1.350384205579757690e-02 4.543783515691757202e-02 1.030734833329916000e-02 8.543237112462520599e-03 -1.855664141476154327e-02 6.816476117819547653e-03 -5.114252679049968719e-03 1.673843339085578918e-02 -5.984548479318618774e-03 5.650158971548080444e-03 -2.484288997948169708e-02 7.532568275928497314e-02 2.746289782226085663e-02 3.997932747006416321e-02 -1.006459351629018784e-02 -4.168945923447608948e-02 2.106930129230022430e-02 2.597007155418395996e-02 4.751234501600265503e-02 5.381881492212414742e-04 -2.031417377293109894e-02 -4.124081134796142578e-02 2.183583565056324005e-02 -5.933437205385416746e-05 -3.063193856824453915e-15 -1.607750914990901947e-02 -1.962471380829811096e-02 1.951791718602180481e-02 1.704962633084505796e-04 1.353077869862318039e-02 7.213297486305236816e-02 -1.371199078857898712e-02 -1.269534789025783539e-02 4.776024818420410156e-02 -1.362140476703643799e-02 7.785218543834700375e-22 3.357673063874244690e-02 5.807588994503021240e-02 4.298807308077812195e-02 -2.429997314479237502e-10 7.558245956897735596e-02 4.432678222656250000e-02 -3.698137402534484863e-02 2.811491116881370544e-02 -4.323773086071014404e-02 7.874177768826484680e-03 -6.384245585650205612e-03 2.169808372855186462e-02 -2.984762564301490784e-02 -1.538170594722032547e-02 -1.949160359799861908e-02 1.681322231888771057e-02 3.904599788847854075e-18 4.239454492926597595e-02 7.503319066017866135e-04 -6.257826834917068481e-02 -1.887465454638004303e-02 4.400654882192611694e-02 6.071185693144798279e-03 2.741718478500843048e-02 8.181849494576454163e-03 2.384522231295704842e-03 -9.472630918025970459e-03 2.534500090405344963e-03 3.477300703525543213e-02 -3.880112618207931519e-02 8.757852017879486084e-03 1.135225035250186920e-02 -3.136400133371353149e-02 -8.918454113882035017e-05 -9.060718119144439697e-03 -2.492105588316917419e-03 -3.621184825897216797e-02 -2.667771652340888977e-02 -3.244127333164215088e-02 5.522494204342365265e-03 -1.108707580715417862e-02 5.047434195876121521e-02 3.748473525047302246e-02 -1.093207579106092453e-02 -1.520511414855718613e-02 2.580213174223899841e-02 -2.006348595023155212e-02 -2.243111096322536469e-02 8.085941895842552185e-03 1.363811747978616040e-07 3.859661146998405457e-02 -6.610007258132100105e-04 -1.411743275821208954e-02 1.147069269791245461e-03 9.147879667580127716e-03 2.634601294994354248e-02 3.913880325853824615e-03 -2.069713547825813293e-02 -1.147355232387781143e-02 7.616976276040077209e-03 -3.399285720661282539e-03 8.087137341499328613e-02 -7.402820629067718983e-04 4.438829049468040466e-02 -1.957498398041934706e-06 7.267606258392333984e-02 6.517264246940612793e-02 -1.720318943262100220e-02 3.252264857292175293e-02 -2.836824208498001099e-02 -2.083633840084075928e-02 5.188943352550268173e-03 6.977193802595138550e-02 9.362026304006576538e-02 -3.905696049332618713e-02 -3.613565117120742798e-02 -1.512801856733858585e-03 8.420380763709545135e-03 1.195954065769910812e-02 3.848423436284065247e-02 9.367365390062332153e-03 -2.677887864410877228e-02 4.098758846521377563e-02 -2.144217025488615036e-03 3.202880173921585083e-02 4.577469825744628906e-02 1.183989923447370529e-02 8.718248456716537476e-03 -5.187522619962692261e-02 -2.703491970896720886e-02 -5.280645278687989830e-12 5.966863129287958145e-03 6.818370521068572998e-02 5.491920188069343567e-02 1.053515356034040451e-02 1.037008711136877537e-03 -4.336993768811225891e-02 -1.026912033557891846e-02 -3.762681782245635986e-02 2.593987248837947845e-02 -1.558935455977916718e-02 -2.184180630138143897e-06 1.277114264667034149e-02 6.446218583732843399e-03 -2.864314615726470947e-02 -8.975517936050891876e-03 -4.770581604591840375e-31 2.760928869247436523e-02 -1.893351170290102914e-10 8.266246318817138672e-02 -3.134732600301504135e-03
-3.795104101300239563e-02 4.245271906256675720e-02 9.105518460273742676e-03 -1.541026774793863297e-02 -2.738839574158191681e-02 4.347997531294822693e-02 1.417309790849685669e-02 -3.428705502301454544e-03 3.663061361294239759e-04 -2.714650146663188934e-02 -1.837250776588916779e-02 3.183120861649513245e-03 6.611034274101257324e-03 -7.327285129576921463e-04 1.179566141217947006e-02 8.157723932527005672e-04 1.873696409165859222e-02 -3.997480124235153198e-02 6.928599905222654343e-04 -2.097247354686260223e-02 1.964524853974580765e-03 3.132295608520507812e-02 5.572037771344184875e-03 -6.502783728157268683e-11 -1.231524441391229630e-02 5.552270635962486267e-02 3.020517155528068542e-02 2.143948152661323547e-02 1.352279353886842728e-02 -1.323766913264989853e-02 -1.959503442049026489e-02 -8.832782506942749023e-03 9.868405759334564209e-04 -3.109251870578830875e-24 -1.533028855919837952e-02 1.502953004091978073e-03 1.391444262117147446e-02 2.353335497900843620e-03 3.326196596026420593e-02 3.241926059126853943e-02 -8.779242634773254395e-03 2.525430545210838318e-02 3.918558359146118164e-03 3.088770061731338501e-02 -1.224199222633615136e-04 -2.181611396372318268e-02 7.475221995264291763e-03 3.913401067256927490e-02 -1.942201331257820129e-02 -1.611205004155635834e-02 1.060974970459938049e-02 5.776567757129669189e-02 7.384767383337020874e-02 9.898054413497447968e-03 3.065852634608745575e-02 2.000322565436363220e-02 2.349831350147724152e-02 4.802687559276819229e-03 -1.059835962951183319e-02 2.576218359172344208e-02 -1.709283515810966492e-02 1.663624309003353119e-02 2.563864365220069885e-02 3.243332728743553162e-02 2.054234035313129425e-02 -8.595745079219341278e-03 3.909260407090187073e-02 1.417643204331398010e-02 8.753446862101554871e-03 -4.280836321413516998e-03 5.912721902132034302e-02 -1.925482683873269707e-05 1.717759296298027039e-02 8.277330547571182251e-03 4.825812205672264099e-02 -4.991243407130241394e-02 -1.231115590780973434e-02 4.576375707983970642e-02 -2.151824161410331726e-02 -7.747880648821592331e-03 -2.248295396566390991e-02 1.548720523715019226e-02 1.769663020968437195e-02 1.572585664689540863e-03 1.021657604724168777e-02 3.949470818042755127e-02 1.351862866431474686e-02 2.188408002257347107e-02 4.536699037998914719e-03 -2.799185551702976227e-02 5.758286453783512115e-03 3.511843085289001465e-02 -2.181453257799148560e-02 1.492031477391719818e-02 4.225079342722892761e-02 -1.306566968560218811e-02 -1.161745190620422363e-02 -1.482045860029757023e-03 3.959732130169868469e-02 5.036160495526606546e-25 1.829612441360950470e-02 1.606814190745353699e-02 4.415204748511314392e-03 2.679215371608734131e-02 3.178763901814818382e-03 3.209122270345687866e-02 -1.375440414994955063e-02 4.081491753458976746e-02 3.417217358946800232e-02 8.234657347202301025e-03 7.170498371124267578e-02 1.050009764730930328e-02 2.600385248661041260e-02 4.133226815611124039e-03 1.383353397250175476e-02 -1.218166481703519821e-02 2.733123116195201874e-02 5.777725949883460999e-02 5.441522598266601562e-02 3.409825265407562256e-02 -1.924116164445877075e-02 1.221734378486871719e-02 2.447872655466198921e-03 -1.805955916643142700e-02 6.013423670083284378e-03 5.972378421574831009e-04 3.812852501869201660e-02 -4.435772207850947543e-15 1.408084528520703316e-03 -2.961320057511329651e-02 -1.385856978595256805e-02 -3.299812600016593933e-02 -2.369173429906368256e-02 4.651803057640790939e-03 4.467788711190223694e-02 -1.909626647830009460e-03 2.017704956233501434e-02 7.392156869173049927e-03 7.094851363778588768e-18 -7.080086972564458847e-03 2.803473034873604774e-03 2.926490828394889832e-02 -3.622093076860455341e-12 1.125783286988735199e-02 7.029409706592559814e-02 -8.467231877148151398e-03 -2.351457066833972931e-02 -3.072135895490646362e-02 2.882677130401134491e-02 1.869373023509979248e-02 1.507478393614292145e-02 1.525026932358741760e-02 2.406417950987815857e-02 1.586198806762695312e-03 -3.729456290602684021e-02 -4.823621320294162975e-30 3.908812254667282104e-02 2.708676271140575409e-02 2.658057957887649536e-03 4.470774438232183456e-03 3.189485287293791771e-03 -2.978992834687232971e-02 -1.616089791059494019e-02 1.540054474025964737e-02 4.947309568524360657e-02 -2.837352827191352844e-02 2.412680536508560181e-03 -2.694930694997310638e-02 -1.227726787328720093e-02 3.580042719841003418e-02 3.559235716238617897e-03 4.145845025777816772e-02 2.261997759342193604e-02 8.693790994584560394e-03 2.595130354166030884e-02 1.831027306616306305e-02 1.496784295886754990e-02 3.401516750454902649e-02 6.189448758959770203e-03 -8.301365189254283905e-03 -1.036237832158803940e-02 -1.363324234262108803e-03 2.674199268221855164e-02 -9.883069433271884918e-03 -1.695017702877521515e-02 6.721011549234390259e-02 -6.355409324169158936e-02 -7.194031495600938797e-03 -1.610725206546703703e-07 1.162362564355134964e-02 2.116989903151988983e-02 3.598299995064735413e-02 1.767882332205772400e-02 1.700134202837944031e-02 1.165554579347372055e-02 1.058784220367670059e-02 3.262175014242529869e-03 3.711133729666471481e-03 -3.698584390804171562e-03 -8.365879766643047333e-03 -2.019062824547290802e-02 1.704210182651877403e-03 4.870481416583061218e-02 -8.600641310252399308e-10 -1.711536571383476257e-02 4.159274697303771973e-02 4.117000102996826172e-02 -4.510841891169548035e-02 -3.480106592178344727e-03 3.367704153060913086e-02 3.145314380526542664e-02 1.355080516077578068e-03 -1.129669602960348129e-02 1.958467811346054077e-02 2.655032090842723846e-02 -6.378339603543281555e-03 -1.240402366966009140e-02 -1.334745809435844421e-02 -5.850656889379024506e-03 1.678163371980190277e-02 1.879719318822026253e-03 -6.336777936667203903e-03 5.825223401188850403e-02 -6.716663949191570282e-03 4.274085536599159241e-02 7.297410164028406143e-03 2.831139042973518372e-02 -1.848314329981803894e-02 -8.394797332584857941e-03 -6.999779662147931347e-12 7.354669505730271339e-04 -2.605614066123962402e-02 1.780415698885917664e-02 -1.457769889384508133e-03 2.559410873800516129e-03 -6.319331936538219452e-03 2.861121296882629395e-02 -3.149003535509109497e-02 1.117010321468114853e-02 5.046190228313207626e-03 9.679186623543500900e-04 1.363898254930973053e-02 -6.444022990763187408e-03 1.004743040539324284e-03 2.986721694469451904e-02 -7.214640400601188235e-30 -4.496366158127784729e-02 -1.322148042763713395e-19 -7.809579372406005859e-03 3.259205818176269531e-02
-6.194657646119594574e-03 1.900731772184371948e-02 6.145294173620641232e-04 -2.621840499341487885e-02 1.805838546715676785e-03 2.417487651109695435e-02 1.294997148215770721e-02 1.279172953218221664e-02 1.012254785746335983e-02 -8.309947326779365540e-03 -2.279444970190525055e-02 4.380660504102706909e-02 -4.146564006805419922e-02 3.877875581383705139e-02 2.683346346020698547e-02 3.132589161396026611e-02 1.544673182070255280e-02 2.836368978023529053e-02 1.484642853029072285e-04 1.035470701754093170e-02 -2.072991803288459778e-03 2.185146883130073547e-02 -3.378563094884157181e-03 -1.148694607766195422e-31 -1.126185338944196701e-02 3.232299163937568665e-02 1.591900736093521118e-02 2.598846703767776489e-02 -1.654339575907215476e-04 -8.356415666639804840e-03 -2.772876992821693420e-02 3.108022361993789673e-02 -2.058872953057289124e-02 -7.563136295563481773e-31 -7.313182577490806580e-03 3.962607309222221375e-02 1.106617040932178497e-03 -1.274338178336620331e-02 1.550647523254156113e-02 6.569613702595233917e-03 2.828924357891082764e-02 5.688155535608530045e-03 1.603497751057147980e-02 8.673001080751419067e-03 -9.794501238502562046e-05 -9.764479473233222961e-03 7.644338998943567276e-03 1.321827899664640427e-02 3.434257954359054565e-02 1.462128362618386745e-03 -4.897370934486389160e-03 2.713894471526145935e-02 2.987795695662498474e-02 7.352621760219335556e-03 -2.001111768186092377e-02 4.549722746014595032e-02 -6.544368341565132141e-03 3.991505503654479980e-02 -1.464774273335933685e-02 -9.412400540895760059e-04 2.585682086646556854e-02 2.375097945332527161e-02 1.056474167853593826e-02 3.409856185317039490e-02 -7.288348395377397537e-03 -9.116022847592830658e-03 3.145527839660644531e-02 6.777761969715356827e-03 -8.652907563373446465e-04 1.488330867141485214e-02 5.032056011259555817e-03 1.055280957370996475e-02 -1.495935721322894096e-03 2.473160857334733009e-03 5.988813936710357666e-03 6.939010694622993469e-03 1.222138572484254837e-02 2.440779097378253937e-02 3.305468335747718811e-02 -1.633337885141372681e-02 -2.386716380715370178e-02 3.279408439993858337e-02 2.353698946535587311e-02 1.827333495020866394e-02 -2.034072205424308777e-02 1.687872409820556641e-02 7.210313342511653900e-03 2.673895098268985748e-02 1.907881349325180054e-03 -4.572466015815734863e-03 3.361163893714547157e-03 1.693072915077209473e-02 1.582984067499637604e-02 -7.718122098594903946e-03 2.035421319305896759e-02 1.552562136203050613e-02 3.443185985088348389e-02 -9.863997809588909149e-03 4.502064362168312073e-02 -3.674746556263760529e-29 5.077053233981132507e-02 2.265199832618236542e-02 9.128456003963947296e-03 6.451711058616638184e-03 1.027234084904193878e-02 5.027411133050918579e-02 -3.515434218570590019e-03 2.311566658318042755e-02 1.248058769851922989e-02 -1.120876986533403397e-02 4.190899897366762161e-03 -6.455787923187017441e-03 1.051849219948053360e-02 -3.909169696271419525e-03 1.505195908248424530e-02 3.624647483229637146e-02 -3.453244641423225403e-02 3.554608672857284546e-02 2.080697007477283478e-02 9.412542916834354401e-03 -2.070561982691287994e-02 -7.864106446504592896e-03 -1.059648813679814339e-03 -7.712459657341241837e-03 -1.373854372650384903e-02 -1.501478161662817001e-02 1.625806279480457306e-02 -3.175049131487299447e-14 1.201952062547206879e-02 -8.786702528595924377e-03 -1.433400716632604599e-02 -1.762770861387252808e-02 5.535225849598646164e-03 1.804294437170028687e-02 2.019403874874114990e-02 -1.098794210702180862e-02 1.031868392601609230e-03 -9.724575094878673553e-03 1.982551321787248394e-28 1.988362055271863937e-03 4.101367294788360596e-02 2.589662931859493256e-02 -8.694193802394334369e-12 2.221997454762458801e-02 3.369178622961044312e-02 2.784513868391513824e-02 -2.581147104501724243e-02 -1.498928759247064590e-02 6.183109711855649948e-03 -1.309700962156057358e-02 8.007025346159934998e-03 3.539799153804779053e-02 5.874147638678550720e-03 4.477081447839736938e-02 -2.266440354287624359e-02 -9.618494195562377058e-11 -6.059412378817796707e-03 1.197939389385282993e-03 -5.833059549331665039e-03 -1.202808413654565811e-02 1.920332945883274078e-02 -1.520231482572853565e-03 1.584465801715850830e-02 6.012645084410905838e-03 2.079661563038825989e-02 2.869696356356143951e-03 1.758239581249654293e-03 2.680785395205020905e-02 -1.583737134933471680e-02 2.250316925346851349e-02 2.033649198710918427e-02 5.685852374881505966e-03 2.253588102757930756e-02 -2.088643610477447510e-03 4.878690000623464584e-03 -3.994482685811817646e-04 2.207272313535213470e-02 6.363053806126117706e-03 2.480264380574226379e-02 -1.295833475887775421e-02 1.807593926787376404e-02 -2.435394562780857086e-03 -7.112042978405952454e-03 1.180774252861738205e-02 3.930708393454551697e-02 -1.058785710483789444e-02 -1.286638434976339340e-03 -2.965038409456610680e-03 -1.260730897456596722e-08 1.584466733038425446e-02 -2.149228192865848541e-02 8.349680574610829353e-04 2.016854844987392426e-02 1.240537595003843307e-02 1.180793624371290207e-02 7.912909612059593201e-03 1.233764830976724625e-02 1.856597140431404114e-02 -1.613291166722774506e-02 3.839852754026651382e-03 2.184336772188544273e-03 2.279613912105560303e-02 2.628068067133426666e-02 -1.578707997662576190e-11 4.009955003857612610e-02 2.875820174813270569e-02 -2.137762494385242462e-02 -1.587990485131740570e-02 -7.177654653787612915e-03 2.065953053534030914e-02 2.075661346316337585e-02 1.731981337070465088e-02 3.071599639952182770e-02 -1.288517378270626068e-02 -1.665456406772136688e-02 -5.853222683072090149e-03 2.530312351882457733e-02 1.649622246623039246e-02 7.006459403783082962e-03 3.462237864732742310e-02 -7.867905311286449432e-03 1.142973545938730240e-02 2.075675688683986664e-02 3.677158057689666748e-02 3.011809661984443665e-02 -6.857888773083686829e-03 6.621326319873332977e-03 -1.882701553404331207e-02 -4.275441169738769531e-03 -4.853643904927158758e-27 1.684898394159972668e-03 2.154122479259967804e-02 2.181140938773751259e-03 1.322615332901477814e-02 8.997424505650997162e-03 1.908319629728794098e-02 5.173419136554002762e-03 -3.862702846527099609e-02 -1.281746570020914078e-02 5.808193702250719070e-03 -2.667482767719775438e-04 1.883392781019210815e-02 1.383152510970830917e-02 1.216875948011875153e-02 -1.663116179406642914e-02 7.089746968432714261e-24 -2.588874101638793945e-02 9.329158015332309904e-19 2.699639648199081421e-02 1.908292993903160095e-02
6.348471343517303467e-02 -1.701543107628822327e-02 3.611678024753928185e-03 5.620365962386131287e-02 5.140379816293716431e-02 -1.199208479374647141e-02 -7.002235855907201767e-03 1.670479588210582733e-02 -3.547649458050727844e-02 1.789958402514457703e-02 -1.160158123821020126e-02 1.802506856620311737e-02 3.539025317877531052e-03 1.240118034183979034e-02 -1.668523438274860382e-02 2.709650993347167969e-02 -4.398426041007041931e-02 4.648307710886001587e-02 -3.390168130863457918e-04 7.315060496330261230e-02 -1.250584464287385345e-04 2.095132134854793549e-02 2.244731876999139786e-03 -1.003235550189884862e-10 6.380815524607896805e-03 4.447985813021659851e-02 -2.000400982797145844e-02 2.520395442843437195e-02 -1.462594233453273773e-02 1.957343891263008118e-02 1.601042039692401886e-02 5.238582193851470947e-02 3.780904226005077362e-03 -7.465956428391248845e-14 3.086662851274013519e-02 2.429288579151034355e-03 1.076000276952981949e-02 -9.489964693784713745e-03 1.891139894723892212e-02 -1.521391235291957855e-02 2.048127166926860809e-02 -1.253067515790462494e-02 -7.916298694908618927e-03 -5.435232538729906082e-03 1.365312782581895590e-04 1.372852013446390629e-03 7.733958773314952850e-03 1.565175689756870270e-02 5.601884052157402039e-02 3.873503580689430237e-02 4.420162364840507507e-02 -4.621135443449020386e-02 2.394367009401321411e-03 -1.176588935777544975e-03 -1.379265822470188141e-02 2.436138875782489777e-02 9.960255585610866547e-03 9.514657780528068542e-03 6.213971599936485291e-02 -5.632202140986919403e-03 4.601382464170455933e-02 -2.499024011194705963e-02 1.134897582232952118e-02 -1.117789745330810547e-02 -1.615437096916139126e-03 4.542180523276329041e-02 -5.836459808051586151e-03 -5.378398112952709198e-03 9.941679891198873520e-04 1.866487413644790649e-02 -6.687674205750226974e-03 6.117613613605499268e-02 3.507813066244125366e-02 -1.840062206611037254e-03 -2.176712639629840851e-02 4.245403781533241272e-02 6.447610259056091309e-02 1.300502289086580276e-02 4.709576442837715149e-02 1.161058247089385986e-02 9.989652782678604126e-03 7.716649025678634644e-02 1.705171540379524231e-02 2.677122503519058228e-02 -1.948939752764999866e-03 1.330150291323661804e-02 1.450723689049482346e-02 7.796500343829393387e-03 -1.637225039303302765e-03 1.438648672774434090e-03 -6.683027604594826698e-04 1.825348474085330963e-02 1.192321069538593292e-02 -1.121779810637235641e-02 8.238045498728752136e-03 -1.928059197962284088e-02 -1.060974504798650742e-02 2.250062115490436554e-02 1.846832409501075745e-02 2.125912981632954816e-20 3.046545758843421936e-02 3.554766625165939331e-02 -1.129575353115797043e-02 1.532938051968812943e-02 5.621191486716270447e-02 -2.487541548907756805e-02 1.488083042204380035e-02 -3.769107908010482788e-02 2.435357455397024751e-04 -1.713509787805378437e-03 -1.376557163894176483e-02 6.007264833897352219e-03 -1.205956190824508667e-02 1.456720847636461258e-02 3.334708511829376221e-02 8.816921152174472809e-03 1.292149350047111511e-02 -2.601126767694950104e-02 -2.417612820863723755e-02 -3.612452710513025522e-04 -2.219130285084247589e-03 -2.612424083054065704e-02 -3.930748498532921076e-04 1.229589711874723434e-02 9.907258674502372742e-03 2.067237626761198044e-03 -1.087706536054611206e-02 -3.014762842241057970e-16 5.066891014575958252e-02 4.201544821262359619e-02 8.476020768284797668e-03 -4.307260271161794662e-03 -4.118536598980426788e-03 4.442584514617919922e-02 -8.936301805078983307e-03 2.667582780122756958e-02 3.199899196624755859e-02 7.858045399188995361e-03 -3.591416984248093423e-29 -1.351117808371782303e-02 4.078557714819908142e-02 3.174694627523422241e-02 -9.985719195970688133e-11 3.847507759928703308e-02 -6.636807229369878769e-03 2.119415067136287689e-02 1.843872293829917908e-02 1.517922710627317429e-02 -9.657891467213630676e-03 3.820157051086425781e-02 -1.211675815284252167e-03 5.034597218036651611e-02 9.998251916840672493e-04 -4.296007566154003143e-03 3.901639208197593689e-02 3.021203775070569501e-18 2.550644613802433014e-02 -5.787542089819908142e-03 -1.060846261680126190e-02 2.703663194552063942e-03 5.735148116946220398e-02 5.399215221405029297e-02 1.764526218175888062e-02 5.140245705842971802e-02 6.730488967150449753e-03 5.196537822484970093e-02 -1.646528718993067741e-03 5.857326835393905640e-02 -2.192877605557441711e-02 7.417543325573205948e-03 -4.143508616834878922e-03 1.904213987290859222e-02 -5.789154674857854843e-03 3.713168436661362648e-03 4.540370032191276550e-02 -1.702523976564407349e-02 -6.780127994716167450e-03 -2.758790738880634308e-02 2.053468301892280579e-02 3.639694303274154663e-02 3.119895048439502716e-02 -5.061017815023660660e-03 -5.927682854235172272e-03 -1.283521018922328949e-02 -2.519742026925086975e-02 1.436888799071311951e-02 4.784923791885375977e-02 -2.648222260177135468e-02 4.070446757431511742e-11 -1.642220653593540192e-02 -9.721557609736919403e-03 -1.032668631523847580e-02 -4.929259046912193298e-02 2.002627775073051453e-02 3.165217861533164978e-02 -7.525425869971513748e-03 -3.275699168443679810e-02 1.432062033563852310e-02 4.886422771960496902e-03 5.559884011745452881e-02 3.815023228526115417e-02 3.938622830901294947e-04 1.378854643553495407e-02 -2.010596489299132372e-07 3.803886845707893372e-02 5.982224829494953156e-03 -4.796986933797597885e-03 3.934478759765625000e-02 -1.781620271503925323e-02 2.154278755187988281e-02 -2.084153518080711365e-02 3.304382041096687317e-02 4.014393687248229980e-02 1.342718861997127533e-02 1.490787975490093231e-02 -1.988840987905859947e-03 4.809554293751716614e-02 3.449820354580879211e-02 2.495220862329006195e-02 -1.060320995748043060e-02 1.421072706580162048e-02 3.383501200005412102e-03 -1.353824697434902191e-02 2.013249322772026062e-02 1.174890343099832535e-02 -1.226661819964647293e-02 -7.555443793535232544e-03 1.939372345805168152e-02 -1.703320536762475967e-03 -2.883443700821275435e-12 -1.736148493364453316e-03 3.749027475714683533e-02 -1.579518429934978485e-03 -8.815282955765724182e-03 5.011887848377227783e-02 1.759696938097476959e-02 2.640946768224239349e-02 6.771760527044534683e-03 1.241680420935153961e-02 -8.059585466980934143e-03 -4.366577195469290018e-04 1.767948269844055176e-02 1.877416670322418213e-02 -1.186283864080905914e-02 -6.694465875625610352e-03 1.233197135064887039e-31 2.717755548655986786e-02 -4.210064913877376025e-13 4.280255176126956940e-03 1.327487081289291382e-02
