2.037470042705535889e-02 -2.770147472620010376e-02 -1.368024386465549469e-02 -1.233681570738554001e-02 3.873716294765472412e-02 1.157028600573539734e-02 -1.898495852947235107e-02 -3.143421187996864319e-02 -3.984922543168067932e-02 3.328505158424377441e-02 1.973099447786808014e-02 2.901010960340499878e-02 1.039484981447458267e-02 9.440924040973186493e-03 -1.980719529092311859e-02 -8.051644545048475266e-04 2.924575097858905792e-02 2.875270321965217590e-02 -1.421190518885850906e-02 -1.919704116880893707e-02 5.969815421849489212e-03 6.999532133340835571e-02 -6.110726644692476839e-06 4.546205699443817139e-02 2.568379230797290802e-02 -1.546597294509410858e-02 1.464250870048999786e-02 -3.004084900021553040e-02 2.786879055202007294e-02 1.748138573020696640e-03 -4.092620313167572021e-02 4.813240841031074524e-02 -4.181129857897758484e-02 -1.999285630881786346e-02 -3.120388276875019073e-02 2.758722053840756416e-03 -5.720439832657575607e-03 -4.960097372531890869e-03 8.224797993898391724e-02 -2.895210310816764832e-02 1.154133211821317673e-02 -4.915902856737375259e-03 -3.080172277987003326e-02 -4.449954212759621441e-05 1.301860343664884567e-02 -2.020400576293468475e-02 4.626617208123207092e-02 -2.066357806324958801e-02 -1.036609057337045670e-02 -1.310985162854194641e-02 -9.365289472043514252e-03 -2.723624929785728455e-03 -6.641630898229777813e-04 -3.472242131829261780e-02 -5.746092181652784348e-03 2.145432680845260620e-02 -3.532445803284645081e-02 1.559736020863056183e-02 -1.801957562565803528e-02 9.659575298428535461e-03 4.454154148697853088e-02 -1.676079817116260529e-02 -2.163245901465415955e-02 -2.471663057804107666e-03 -1.694377698004245758e-02 2.962306514382362366e-02 -6.468252092599868774e-02 -2.044405229389667511e-02 -2.764401771128177643e-02 2.812287211418151855e-02 -3.029442019760608673e-02 3.321858355775475502e-03 1.620179228484630585e-02 -3.844192996621131897e-02 5.643070861697196960e-02 4.605616256594657898e-02 9.051615744829177856e-02 -4.070505872368812561e-02 2.481046132743358612e-02 -1.503344345837831497e-02 2.621118165552616119e-02 7.895947434008121490e-03 4.277816787362098694e-02 3.767711296677589417e-02 -1.693116500973701477e-02 -2.801103284582495689e-03 -4.751947242766618729e-03 -2.163685299456119537e-02 -4.093610122799873352e-02 2.471484616398811340e-02 5.771770142018795013e-03 2.235235832631587982e-02 -2.121777832508087158e-02 3.758028894662857056e-02 6.289105862379074097e-02 1.387937646359205246e-02 2.498698793351650238e-02 2.177740633487701416e-02 8.515488356351852417e-03 4.571979865431785583e-03 5.105904862284660339e-02 3.975965827703475952e-02 7.441507279872894287e-02 -9.008627384901046753e-03 -7.775650173425674438e-02 4.552731662988662720e-02 8.226799778640270233e-03 2.907580696046352386e-02 -1.075644418597221375e-02 -1.383370533585548401e-02 7.730361539870500565e-03 -5.801824852824211121e-03 7.319671660661697388e-02 -3.787377104163169861e-02 1.984799047932028770e-03 -1.444368995726108551e-02 -2.005364373326301575e-02 1.885296590626239777e-02 1.212212350219488144e-02 -3.950413782149553299e-03 1.469350978732109070e-02 1.912999153137207031e-02 2.525340020656585693e-02 -2.232030034065246582e-03 -4.845135658979415894e-02 1.920264773070812225e-02 -4.256584122776985168e-02 -2.106987684965133667e-02 -3.020142950117588043e-02 1.426343526691198349e-02 -3.739588335156440735e-02 7.280948571860790253e-03 -1.189060509204864502e-03 -1.560000795871019363e-02 1.684655249118804932e-02 -4.490561317652463913e-03 -2.669982239603996277e-02 2.585614472627639771e-02 -1.818741485476493835e-02 -2.354538068175315857e-02 -8.051326498389244080e-03 -2.780871652066707611e-02 1.214839424937963486e-02 2.327966503798961639e-03 1.169648952782154083e-02 -1.669874973595142365e-02 -2.790716476738452911e-02 -2.716905623674392700e-02 -6.763754878193140030e-03 2.038924489170312881e-03 1.847112737596035004e-02 -2.432428672909736633e-02 9.496945142745971680e-02 4.603719711303710938e-02 -1.511613372713327408e-02 4.613901674747467041e-02 -1.291984599083662033e-02 -3.536183014512062073e-02 -8.472921326756477356e-03 -5.404459312558174133e-03 -3.582353144884109497e-02 5.220026359893381596e-04 1.435748208314180374e-02 6.137385498732328415e-03 -7.177358865737915039e-02 -1.543889567255973816e-02 4.083559289574623108e-02 1.867679692804813385e-02 -1.271542534232139587e-02 1.731802150607109070e-02 -1.760142669081687927e-02 -7.951378822326660156e-03 -1.021408755332231522e-02 -3.898451104760169983e-02 -1.451355312019586563e-02 6.565809994935989380e-02 5.462860222905874252e-03 8.942786371335387230e-05 7.045234087854623795e-03 8.916866034269332886e-03 1.103110518306493759e-02 -2.308677509427070618e-02 -4.792514815926551819e-02 3.314738278277218342e-04 -1.383703947067260742e-02 6.088271737098693848e-03 1.707090623676776886e-02 -7.006300613284111023e-03 -5.022894218564033508e-02 1.799344271421432495e-02 -3.331530094146728516e-02 1.136241853237152100e-02 2.423785068094730377e-02 -2.734486944973468781e-02 3.111236728727817535e-02 -1.501152524724602699e-03 1.190584432333707809e-02 -1.027237810194492340e-02 2.098692581057548523e-02 2.995738014578819275e-02 1.849691942334175110e-02 3.470928966999053955e-02 -3.847983479499816895e-02 -4.607605561614036560e-02 3.120278380811214447e-02 -4.888819996267557144e-03 4.842254519462585449e-02 -9.293738752603530884e-03 1.505299191921949387e-02 2.856201899703592062e-04 -9.584864601492881775e-03 -1.482219994068145752e-02 -1.557143032550811768e-02 -1.027744030579924583e-03 -4.224351607263088226e-03 -7.900063879787921906e-03 1.704293675720691681e-02 -9.519870509393513203e-04 -5.899973213672637939e-03 -1.574691943824291229e-02 5.501938611268997192e-02 -1.769877411425113678e-02 5.619646236300468445e-02 1.947746030054986477e-03 -1.822573319077491760e-02 -1.146209309808909893e-03 1.084638480097055435e-02 3.145414963364601135e-02 -9.678753092885017395e-03 4.077603807672858238e-04 1.582916826009750366e-02 -1.757761649787425995e-02 -2.627824991941452026e-02 4.057835321873426437e-03 -6.662305444478988647e-02 -3.905671834945678711e-02 -3.766044601798057556e-02 -5.741523113101720810e-03 -1.273925136774778366e-02 -6.397642195224761963e-02 -1.514008734375238419e-02 -1.375085953623056412e-02 -1.777736842632293701e-02 -4.089425131678581238e-02 -3.436705470085144043e-02 4.009059816598892212e-02 -5.426642671227455139e-02 1.910631731152534485e-02 -4.852630198001861572e-03 -2.918755635619163513e-02 1.478781807236373425e-03 -1.045705843716859818e-02 2.653062902390956879e-02 -1.077549345791339874e-02 6.320434808731079102e-02 1.470171008259057999e-02 1.418419275432825089e-02 -5.408410355448722839e-02 2.721982263028621674e-02 2.576475590467453003e-02 1.640122197568416595e-02 -1.867030747234821320e-02 -7.608352228999137878e-03 -1.265588123351335526e-02 -1.114786788821220398e-02 2.091884799301624298e-02 -3.889911575242877007e-03 2.387595362961292267e-02 4.535603336989879608e-03 -2.116541564464569092e-02 -5.806959047913551331e-02 9.003945626318454742e-03 1.032428350299596786e-02 1.358623057603836060e-02 1.129166875034570694e-02 -3.682675957679748535e-02 3.764527291059494019e-02 -9.164983406662940979e-03 -6.123803555965423584e-03 -1.947889104485511780e-03 3.641841001808643341e-03 -4.918570443987846375e-02 -2.385076833888888359e-03 -6.871411949396133423e-02 2.916328841820359230e-03 -2.701460756361484528e-02 1.353452540934085846e-02 -2.636338397860527039e-02 -3.073185309767723083e-02 2.516952529549598694e-02 -2.123784832656383514e-02 1.205813791602849960e-02 2.297958271810784936e-04 -1.833531889133155346e-03 -2.297541499137878418e-02 -1.189534831792116165e-02 -2.556745707988739014e-02 -4.922349378466606140e-02 -1.578658469952642918e-03 -2.330894768238067627e-02
8.077351003885269165e-02 -6.833859253674745560e-03 -5.201274901628494263e-02 -3.668265417218208313e-02 1.557356584817171097e-02 2.977391891181468964e-02 1.951620070030912757e-04 5.562098324298858643e-02 2.780973538756370544e-02 -5.239787860773503780e-04 4.287109896540641785e-02 3.973145037889480591e-03 -3.213614225387573242e-03 -3.599396347999572754e-02 1.010074652731418610e-02 -8.533850312232971191e-03 -6.169129163026809692e-03 1.081196591258049011e-02 3.289541229605674744e-02 2.221322804689407349e-02 1.731245033442974091e-02 -1.646589115262031555e-02 -7.550587505102157593e-02 5.901905894279479980e-02 -2.414275519549846649e-02 1.916653849184513092e-02 9.462676011025905609e-03 3.040297888219356537e-02 5.973138846457004547e-03 3.992233425378799438e-03 -1.524148602038621902e-02 1.714405044913291931e-02 -2.846067072823643684e-04 5.667265038937330246e-03 3.194014728069305420e-02 -1.077316142618656158e-02 3.007024526596069336e-03 -5.803232640027999878e-02 8.950572810135781765e-04 5.376472324132919312e-02 -1.696301996707916260e-02 -7.143560331314802170e-03 -1.636061817407608032e-02 1.536962017416954041e-02 3.034305945038795471e-02 2.126139774918556213e-02 5.228841677308082581e-02 2.548402175307273865e-02 2.393488213419914246e-02 2.042028494179248810e-02 3.476951271295547485e-02 2.401910163462162018e-02 2.577101252973079681e-02 7.074031233787536621e-02 -7.527160923928022385e-03 4.195224866271018982e-02 5.269204080104827881e-02 -4.812230169773101807e-02 2.828849479556083679e-02 3.911975398659706116e-02 -6.247095298022031784e-03 -4.059112817049026489e-02 -3.687158599495887756e-02 1.960538141429424286e-02 3.284388035535812378e-02 3.255958110094070435e-02 -3.864131122827529907e-02 -3.062923997640609741e-02 5.930320173501968384e-02 -3.569507738575339317e-03 -6.501029245555400848e-03 -3.625755757093429565e-02 -1.828860724344849586e-03 -5.283831432461738586e-02 3.103400394320487976e-02 5.412956699728965759e-02 1.791484840214252472e-02 6.627833936363458633e-03 1.843941956758499146e-02 2.660520607605576515e-03 -3.293443098664283752e-02 -1.020887773483991623e-02 1.907845027744770050e-02 6.513626873493194580e-02 2.414961159229278564e-02 2.452215179800987244e-02 6.209227442741394043e-02 2.596183121204376221e-02 2.159191481769084930e-02 2.951776422560214996e-02 -1.443339325487613678e-02 2.491815201938152313e-02 6.197336316108703613e-02 2.387315593659877777e-02 -8.821194991469383240e-03 -1.375407539308071136e-02 1.493229158222675323e-02 -1.607482321560382843e-02 3.828905522823333740e-02 4.783571511507034302e-02 -2.482984447851777077e-03 8.613665122538805008e-04 5.173734202980995178e-02 3.133670613169670105e-02 4.130978509783744812e-02 3.106027096509933472e-02 1.296318415552377701e-02 6.087651941925287247e-03 5.703394860029220581e-02 -1.701442338526248932e-02 -3.099743276834487915e-03 1.731240190565586090e-02 3.277787566184997559e-02 6.605425477027893066e-02 1.151149161159992218e-03 2.786370366811752319e-02 -8.584648370742797852e-03 1.447469554841518402e-02 3.676681593060493469e-02 7.613141555339097977e-03 -1.722166314721107483e-03 5.184408277273178101e-03 4.249384626746177673e-02 2.586707286536693573e-02 -1.540427841246128082e-02 4.913805052638053894e-02 4.468872398138046265e-02 -2.408548071980476379e-02 1.989848725497722626e-02 2.819454530254006386e-03 5.518524721264839172e-02 2.212484739720821381e-02 3.686549142003059387e-02 5.486804246902465820e-02 3.489032760262489319e-02 9.168021380901336670e-03 -8.956081233918666840e-03 2.688506059348583221e-02 -2.321343682706356049e-02 6.484707118943333626e-04 -1.726954057812690735e-02 8.226720616221427917e-03 -4.274573177099227905e-02 1.880414783954620361e-02 5.459684506058692932e-02 1.736889593303203583e-02 1.140390336513519287e-02 -3.286465257406234741e-02 6.876244395971298218e-02 5.665479227900505066e-02 8.023224771022796631e-03 -1.614520698785781860e-02 4.188682883977890015e-02 2.369248121976852417e-02 -1.856739073991775513e-02 9.138737223111093044e-04 -1.171266473829746246e-02 1.483958866447210312e-02 3.911484777927398682e-02 1.908110105432569981e-03 4.111251980066299438e-02 4.212929308414459229e-02 -3.830074518918991089e-02 1.152902282774448395e-02 -5.625954270362854004e-02 2.678128331899642944e-02 1.748817786574363708e-02 1.202447456307709217e-03 2.927395701408386230e-02 -5.296864546835422516e-03 7.835593074560165405e-03 1.818770356476306915e-02 1.642991974949836731e-02 -4.556714743375778198e-02 3.325041756033897400e-02 1.391535717993974686e-02 6.060744822025299072e-02 1.297110784798860550e-02 1.488114474341273308e-03 -1.486585196107625961e-02 -5.094925686717033386e-02 4.233367368578910828e-02 -3.713857382535934448e-02 3.771699592471122742e-02 2.006160560995340347e-03 -5.706314928829669952e-03 -1.624565385282039642e-02 2.890271879732608795e-02 5.168482661247253418e-03 7.467702496796846390e-03 3.360139578580856323e-02 -2.978748269379138947e-02 1.915414817631244659e-02 -1.545383781194686890e-02 5.585501343011856079e-02 -5.620807874947786331e-03 5.062855780124664307e-02 -1.730606704950332642e-02 -1.732598431408405304e-02 1.118971407413482666e-02 -1.399407349526882172e-02 5.175259336829185486e-02 -1.815060153603553772e-02 2.574328519403934479e-02 -5.023126490414142609e-03 5.367330834269523621e-02 2.181252650916576385e-02 -1.394767966121435165e-02 -9.244484826922416687e-03 -2.974882535636425018e-02 7.219251990318298340e-02 -3.079442540183663368e-03 7.436644285917282104e-02 4.799863789230585098e-03 -1.670333556830883026e-02 -3.897860273718833923e-02 4.220603406429290771e-02 1.350565999746322632e-02 7.251975685358047485e-02 3.744053840637207031e-02 3.728387132287025452e-02 1.350527722388505936e-02 -1.603471487760543823e-02 -1.437122561037540436e-02 2.375349588692188263e-02 -1.627168850973248482e-03 1.076000928878784180e-02 -6.581599824130535126e-03 -5.578114837408065796e-02 -2.703856304287910461e-02 4.029870033264160156e-02 3.359841927886009216e-02 -6.614302285015583038e-03 1.406475156545639038e-02 -7.590696960687637329e-02 -1.301519758999347687e-02 -5.769845470786094666e-02 3.033365681767463684e-02 -1.182506885379552841e-02 -3.632908314466476440e-02 2.015011571347713470e-02 -4.506280529312789440e-04 4.475096985697746277e-02 3.231707960367202759e-02 -1.656657829880714417e-02 7.808408886194229126e-02 5.012719333171844482e-02 4.838238656520843506e-02 -2.561130560934543610e-02 1.447755098342895508e-02 3.475936874747276306e-02 -1.801066100597381592e-02 -3.197319433093070984e-02 5.382255837321281433e-02 -9.884384274482727051e-02 3.380769491195678711e-02 7.923351973295211792e-02 3.401359543204307556e-02 4.384998977184295654e-02 5.935941636562347412e-02 1.545005827210843563e-03 9.145266376435756683e-03 -1.133190747350454330e-02 -1.414206065237522125e-02 -6.271981634199619293e-03 3.436736762523651123e-02 -1.452537160366773605e-02 4.218338802456855774e-02 -7.774146739393472672e-03 -1.497689448297023773e-02 3.395600989460945129e-02 -3.751781582832336426e-02 -6.366146355867385864e-02 6.307936459779739380e-02 1.014540437608957291e-02 -1.941732713021337986e-03 -1.075873989611864090e-02 -5.024988204240798950e-03 -2.730037644505500793e-02 1.761439442634582520e-02 5.091518536210060120e-02 7.795436680316925049e-02 3.403960168361663818e-02 -3.021316044032573700e-02 -4.358212649822235107e-02 5.099382251501083374e-02 3.313720598816871643e-02 -2.465805038809776306e-02 -2.451282180845737457e-02 -4.504220187664031982e-02 -2.176952548325061798e-02 8.010023832321166992e-02 3.097275644540786743e-02 5.279502365738153458e-03 -2.639414556324481964e-02 7.858597487211227417e-02 1.338873244822025299e-02 1.177637651562690735e-02 -7.001513149589300156e-03 3.093199804425239563e-03
6.485174596309661865e-02 -2.939131855964660645e-02 1.185656990855932236e-02 1.279555354267358780e-02 2.786252880468964577e-03 -2.451989427208900452e-02 2.402309700846672058e-02 2.275173924863338470e-02 -1.000992767512798309e-02 -5.826095491647720337e-02 1.568207889795303345e-02 -5.474992562085390091e-03 -9.446505457162857056e-03 -2.270266180858016014e-03 -1.843798533082008362e-02 2.423456497490406036e-02 1.345294807106256485e-02 -4.345976188778877258e-02 9.055256843566894531e-03 1.490068715065717697e-02 1.149072404950857162e-02 -2.538659609854221344e-02 -3.762846812605857849e-02 -2.949189394712448120e-03 -5.516327172517776489e-02 3.282631561160087585e-02 -5.347423721104860306e-03 -4.394041839987039566e-03 -4.382118210196495056e-02 -1.682840660214424133e-02 -1.576608046889305115e-02 2.594312839210033417e-02 -2.769547514617443085e-03 2.727724984288215637e-02 1.315151457674801350e-03 2.657755091786384583e-02 2.843915717676281929e-05 1.882242783904075623e-02 1.478885114192962646e-02 -5.493805743753910065e-03 6.103477999567985535e-02 -4.677589982748031616e-03 9.150501340627670288e-03 -1.739225536584854126e-02 1.130089163780212402e-02 6.512730382382869720e-03 -4.789406433701515198e-03 1.707275770604610443e-02 -1.064108218997716904e-02 7.315197587013244629e-02 1.184658799320459366e-02 -6.094088312238454819e-03 1.849392545409500599e-03 1.161956507712602615e-02 -3.189448639750480652e-02 1.235063467174768448e-02 2.616706676781177521e-02 2.018006285652518272e-03 2.078095264732837677e-02 -2.641997113823890686e-02 3.802594915032386780e-02 2.669923007488250732e-03 -1.284788642078638077e-02 1.528460998088121414e-02 -2.872363477945327759e-02 -4.314455389976501465e-02 7.531179115176200867e-03 -4.439778160303831100e-03 -3.974490240216255188e-02 1.169214677065610886e-02 7.354702800512313843e-03 -4.507874604314565659e-03 1.670327037572860718e-02 3.619084134697914124e-02 3.438619524240493774e-02 -8.302681148052215576e-02 3.864938393235206604e-02 4.973334446549415588e-02 1.092723663896322250e-02 6.066824775189161301e-03 4.331992473453283310e-03 3.584063844755291939e-03 7.951122522354125977e-02 -2.748580835759639740e-02 -9.088831953704357147e-03 -2.110365405678749084e-02 -1.535742264240980148e-02 1.443425752222537994e-02 1.016524527221918106e-02 2.573273330926895142e-02 -1.686970144510269165e-02 -2.043625281658023596e-04 -9.058183431625366211e-02 -4.229065962135791779e-03 -2.916498482227325439e-02 -8.488362655043601990e-03 3.810682147741317749e-02 6.976870819926261902e-03 7.157963700592517853e-03 1.653390191495418549e-02 1.056840457022190094e-02 6.145928800106048584e-02 -5.054479092359542847e-02 -4.752587527036666870e-02 8.267934434115886688e-03 -2.635182999074459076e-02 2.871267497539520264e-02 6.253161467611789703e-03 -4.336753487586975098e-02 4.449666477739810944e-03 5.812721326947212219e-03 3.869162872433662415e-02 -9.439353831112384796e-03 4.922281578183174133e-02 1.760747842490673065e-02 6.466572731733322144e-02 -4.456491151358932257e-04 6.619513779878616333e-02 3.577565774321556091e-02 -4.115727543830871582e-02 6.007102131843566895e-02 -6.125989556312561035e-02 1.560792233794927597e-02 7.808149326592683792e-03 4.126529768109321594e-02 4.209147766232490540e-02 -4.487651959061622620e-02 -2.739747287705540657e-03 2.774127572774887085e-02 4.468315746635198593e-03 9.464476257562637329e-03 5.344810895621776581e-03 -1.288028992712497711e-02 1.552309282124042511e-02 -7.107659429311752319e-02 4.341880232095718384e-02 -2.400618605315685272e-02 -2.567999437451362610e-02 2.487247250974178314e-02 3.923690691590309143e-02 -1.601764373481273651e-02 1.806743443012237549e-02 1.306538656353950500e-02 2.072717994451522827e-02 -6.567246466875076294e-02 -9.928091429173946381e-03 1.275887526571750641e-02 1.643472164869308472e-02 6.832424085587263107e-03 -1.728885434567928314e-02 -1.050448324531316757e-02 9.053288958966732025e-03 -1.607827655971050262e-02 5.523478984832763672e-02 2.497349865734577179e-02 -1.910113915801048279e-02 -6.594528444111347198e-03 3.192178846802562475e-04 -3.942291252315044403e-03 -1.739449426531791687e-02 -8.809642493724822998e-02 6.596096325665712357e-03 -6.956448196433484554e-04 -1.258821721421554685e-04 -2.281684055924415588e-02 2.741746976971626282e-02 -2.111450396478176117e-02 3.458160907030105591e-02 2.096550539135932922e-02 3.087706491351127625e-02 2.293543517589569092e-02 2.422496303915977478e-02 -6.429850310087203979e-02 -3.007992543280124664e-02 1.702463487163186073e-03 -2.771844901144504547e-02 -3.785570710897445679e-02 -1.378804910928010941e-02 -1.362843532115221024e-02 1.106406655162572861e-02 6.124158576130867004e-02 -1.375643815845251083e-02 9.357411763630807400e-04 3.312250599265098572e-02 -1.828733272850513458e-02 -5.140335485339164734e-02 1.528311427682638168e-02 -1.585439965128898621e-02 -4.495949670672416687e-02 -7.540704216808080673e-03 9.510219097137451172e-03 -3.919015079736709595e-02 3.369706496596336365e-02 5.887596402317285538e-03 2.277642115950584412e-02 3.192860633134841919e-03 -1.691277697682380676e-02 -5.586485844105482101e-03 4.639235790818929672e-03 -9.196041151881217957e-03 -3.265238774474710226e-04 -7.862701895646750927e-04 5.530785769224166870e-03 3.911127522587776184e-02 -9.360888972878456116e-03 2.415689267218112946e-02 -6.407478824257850647e-03 2.662007324397563934e-02 -4.247196950018405914e-03 7.662865798920392990e-03 3.701286390423774719e-02 -2.840567752718925476e-02 4.258325695991516113e-02 2.015907317399978638e-03 8.860446512699127197e-03 4.517839290201663971e-03 -1.572907553054392338e-03 2.960223890841007233e-02 1.949089579284191132e-02 1.408631633967161179e-02 -1.142581808380782604e-03 2.275478094816207886e-02 -4.010355472564697266e-02 -6.087454501539468765e-03 -4.807445686310529709e-03 1.955630630254745483e-02 -7.190334144979715347e-03 -5.074440315365791321e-02 -2.576274424791336060e-02 9.543788433074951172e-02 1.793646998703479767e-02 -3.898711502552032471e-02 1.465201028622686863e-03 1.210416015237569809e-02 -2.489159442484378815e-02 2.490468695759773254e-02 3.318258747458457947e-02 6.572558730840682983e-02 1.760045066475868225e-02 -5.592029169201850891e-02 -1.732321269810199738e-02 9.189746342599391937e-03 -1.389255397953093052e-03 1.213131565600633621e-02 -5.751305818557739258e-02 3.376018488779664040e-03 3.158762678503990173e-02 2.031134441494941711e-02 -3.359175054356455803e-03 1.865146122872829437e-02 -3.205429995432496071e-03 -2.018071524798870087e-02 4.267628490924835205e-02 -8.512700907886028290e-03 -1.425065658986568451e-02 4.989337176084518433e-03 -8.992491289973258972e-03 -7.725533843040466309e-02 2.686376217752695084e-03 4.139880836009979248e-02 3.587903454899787903e-02 -7.874805480241775513e-03 -1.389809697866439819e-02 -4.336284473538398743e-02 -2.213359810411930084e-03 -5.143821239471435547e-03 -2.900942973792552948e-02 2.576567418873310089e-02 1.806760579347610474e-02 -1.017893012613058090e-02 1.768518821336328983e-03 3.046634048223495483e-02 4.739491268992424011e-02 -1.710638590157032013e-02 2.693284861743450165e-02 -1.692239195108413696e-02 1.067948061972856522e-02 -2.455316716805100441e-03 -2.143719978630542755e-02 4.300240799784660339e-02 1.692601479589939117e-02 -7.496855221688747406e-03 1.603800430893898010e-02 -1.007123570889234543e-02 -6.232532672584056854e-03 -2.871463075280189514e-02 2.661181613802909851e-02 1.831508986651897430e-02 -4.396776854991912842e-02 7.635116577148437500e-02 6.664059474132955074e-04 1.343173719942569733e-02 8.269486948847770691e-03 -3.433747962117195129e-02 9.048062376677989960e-03 4.163718596100807190e-02 2.129479125142097473e-02 -5.124307051301002502e-02 3.717289865016937256e-02 -4.544240608811378479e-02
3.136447444558143616e-02 -1.014398038387298584e-02 -3.406680375337600708e-02 2.242220193147659302e-02 3.665404021739959717e-02 7.064651697874069214e-03 2.495939657092094421e-02 -3.349376842379570007e-03 -4.571902751922607422e-02 4.233881831169128418e-02 1.110672112554311752e-02 -3.872946370393037796e-03 -5.966258700937032700e-03 8.360846550203859806e-05 -1.034975424408912659e-02 -2.761485520750284195e-03 1.620133779942989349e-02 8.649447932839393616e-03 4.700544849038124084e-02 2.863901108503341675e-02 3.694996237754821777e-03 9.072434157133102417e-02 -2.473625540733337402e-02 1.188267581164836884e-02 -2.644733712077140808e-02 -3.255636990070343018e-02 9.601817466318607330e-03 -3.538107266649603844e-03 4.338650498539209366e-03 -3.040395490825176239e-02 -2.566997520625591278e-02 2.779198624193668365e-02 -2.747528813779354095e-02 -8.314185775816440582e-03 -2.427386678755283356e-02 2.363989315927028656e-02 -2.509823068976402283e-03 -6.134169641882181168e-03 1.546713244169950485e-02 -8.012690581381320953e-03 2.975726127624511719e-02 1.009484101086854935e-02 1.597345620393753052e-02 -1.049361005425453186e-02 -2.520793862640857697e-02 -6.312224268913269043e-02 -3.194929799064993858e-03 -4.798739217221736908e-03 -3.099445067346096039e-02 -2.354113385081291199e-03 4.705042578279972076e-03 -6.955365650355815887e-03 2.350130304694175720e-02 -7.114222738891839981e-03 -7.405448704957962036e-02 -2.053086832165718079e-02 -3.506809473037719727e-02 -3.576456755399703979e-02 1.691629178822040558e-02 -1.030849572271108627e-02 8.573478460311889648e-02 -5.465568602085113525e-02 -1.380404829978942871e-02 2.427051030099391937e-02 1.472058612853288651e-02 1.958533376455307007e-02 -4.078213125467300415e-02 1.420016959309577942e-02 -5.679897964000701904e-02 4.139813780784606934e-02 1.481264131143689156e-03 6.542578339576721191e-03 3.983559086918830872e-02 5.102249234914779663e-02 2.231019362807273865e-02 2.445565909147262573e-02 3.183861449360847473e-02 -1.310534030199050903e-02 6.178070791065692902e-03 -1.822947151958942413e-02 4.227447509765625000e-02 7.583102677017450333e-03 3.797890990972518921e-02 -1.185435149818658829e-02 4.567321389913558960e-02 -3.238902240991592407e-02 8.560797199606895447e-03 -2.447472885251045227e-02 -3.532070666551589966e-02 2.980177290737628937e-02 -2.113183587789535522e-02 1.335074007511138916e-02 -2.089472115039825439e-02 -1.354562304913997650e-02 6.631043553352355957e-02 1.645547104999423027e-03 -1.072611007839441299e-02 -5.373227968811988831e-02 -3.839449957013130188e-02 7.704675197601318359e-03 1.165207289159297943e-02 2.874640561640262604e-02 6.222744937986135483e-03 -1.400092430412769318e-02 -1.828128658235073090e-02 -2.889901027083396912e-02 3.469057381153106689e-02 -7.831063121557235718e-03 4.392451606690883636e-03 1.842374168336391449e-02 4.350569471716880798e-02 -1.956486515700817108e-02 -2.438816940411925316e-03 1.600800082087516785e-02 2.668280899524688721e-02 3.017825819551944733e-02 1.100981701165437698e-02 7.861453923396766186e-04 -9.915100410580635071e-03 4.206886887550354004e-02 2.294230833649635315e-02 1.859644427895545959e-02 4.426595941185951233e-02 -2.379038184881210327e-02 -2.783827949315309525e-03 -7.334045221796259284e-05 3.030893020331859589e-02 -4.415037482976913452e-02 1.102305017411708832e-02 -4.155188053846359253e-02 5.367874354124069214e-02 -3.467182861641049385e-03 4.538821056485176086e-02 -1.489293761551380157e-02 -3.305776417255401611e-02 4.265426471829414368e-02 -7.921640761196613312e-03 3.486997156869620085e-04 -5.486231297254562378e-02 -3.119341842830181122e-02 -3.507064282894134521e-02 1.733229495584964752e-02 -4.126741550862789154e-03 1.625546626746654510e-02 1.659707352519035339e-02 1.253554038703441620e-02 -3.132830187678337097e-02 1.025385875254869461e-02 -9.680178947746753693e-03 3.561756387352943420e-02 -1.461494620889425278e-02 -8.690076321363449097e-02 2.911948040127754211e-02 1.414651423692703247e-02 1.632457948289811611e-03 8.979692310094833374e-02 1.027284003794193268e-02 1.504110638052225113e-02 -1.383200567215681076e-02 -8.858960121870040894e-03 -2.347334474325180054e-02 -4.780578892678022385e-03 1.858823560178279877e-02 -2.599129453301429749e-03 4.513164982199668884e-02 8.789842575788497925e-02 2.390380576252937317e-02 -2.536681853234767914e-02 -1.286759693175554276e-02 4.256807267665863037e-02 -3.073400352150201797e-03 -3.256981819868087769e-02 3.682863432914018631e-03 -2.004105970263481140e-02 7.821067236363887787e-03 1.601865515112876892e-02 -3.565013874322175980e-03 -1.275851018726825714e-02 2.017004415392875671e-02 4.085443448275327682e-03 6.880915164947509766e-02 -1.647876948118209839e-02 1.644406700506806374e-03 -2.512166975066065788e-03 -1.511788647621870041e-02 -1.524051767773926258e-03 4.645925760269165039e-02 -3.004714846611022949e-02 -5.624649673700332642e-02 6.442611105740070343e-03 -4.734453558921813965e-02 3.412181138992309570e-02 -5.107794888317584991e-03 1.403488032519817352e-02 4.127056524157524109e-02 -8.152269758284091949e-03 -4.426386579871177673e-02 4.187961295247077942e-02 -1.241094805300235748e-02 -2.217778936028480530e-03 2.390991896390914917e-02 2.154431492090225220e-02 3.232032060623168945e-02 -4.513359069824218750e-02 1.883603818714618683e-02 -3.651604428887367249e-02 2.749908156692981720e-02 2.062769792973995209e-02 3.725078701972961426e-02 -1.159827504307031631e-02 -2.487785741686820984e-02 -6.258286535739898682e-03 -2.551239915192127228e-02 8.302304893732070923e-03 -5.341020412743091583e-03 2.999707125127315521e-03 1.907437480986118317e-02 3.272962756454944611e-03 -7.589640095829963684e-03 -1.159876864403486252e-02 5.296488106250762939e-02 -9.777689352631568909e-03 -9.649186395108699799e-03 -3.065044293180108070e-03 3.965038433670997620e-02 -1.689009554684162140e-02 -5.816675256937742233e-03 1.382602471858263016e-02 1.079367250204086304e-01 3.526149317622184753e-02 -1.704424433410167694e-02 -2.345848828554153442e-03 -1.793586090207099915e-02 2.754027582705020905e-02 1.951157115399837494e-02 -2.917599864304065704e-02 3.708389401435852051e-02 1.006878446787595749e-02 2.856109663844108582e-02 -3.039495460689067841e-02 -3.444451466202735901e-02 -2.229548804461956024e-02 -2.137515507638454437e-02 2.121435478329658508e-02 -2.253533527255058289e-02 2.866026572883129120e-02 -3.759765997529029846e-02 1.012380234897136688e-02 -2.807197347283363342e-02 1.511401403695344925e-02 -3.891213610768318176e-02 -8.446956984698772430e-03 -1.647163555026054382e-02 -2.074512839317321777e-02 1.825599186122417450e-02 3.053082525730133057e-02 -3.095223382115364075e-02 -3.021094389259815216e-02 8.315421640872955322e-03 -7.068747188895940781e-03 2.427680045366287231e-02 -1.709436438977718353e-02 -2.678959816694259644e-02 7.977572083473205566e-02 -3.598230704665184021e-02 1.482443325221538544e-02 -5.043759476393461227e-03 -1.032383926212787628e-02 -1.547848153859376907e-02 2.374548651278018951e-02 -3.291501849889755249e-02 -3.245342522859573364e-02 7.240178994834423065e-03 -6.852808594703674316e-02 5.461269617080688477e-02 -1.632936298847198486e-02 -1.378149259835481644e-03 1.683144271373748779e-02 -1.037603709846735001e-02 -1.991229690611362457e-02 -8.499017567373812199e-04 -8.458413183689117432e-03 3.110387187916785479e-04 -1.043474394828081131e-02 -1.925266697071492672e-03 1.554469577968120575e-02 9.480057284235954285e-03 -1.871670596301555634e-02 3.981196880340576172e-02 1.502671558409929276e-02 -3.634636814240366220e-04 -1.718365959823131561e-02 4.448934458196163177e-03 -1.029372122138738632e-02 -9.779836051166057587e-03 8.894540369510650635e-03 2.962932921946048737e-02 -4.849779885262250900e-03 4.582301713526248932e-03 -5.869776755571365356e-02
2.736920258030295372e-03 1.591233536601066589e-02 2.843038551509380341e-02 6.552146282047033310e-03 -4.498416092246770859e-03 5.178585182875394821e-03 -3.557754680514335632e-02 2.527591772377490997e-02 2.519719861447811127e-02 1.801931485533714294e-02 -3.019516915082931519e-02 3.607718972489237785e-03 -5.792012671008706093e-04 5.656988546252250671e-02 -1.418051216751337051e-02 3.017569705843925476e-02 -8.478533476591110229e-03 5.324306897819042206e-03 -1.026203203946352005e-02 3.355178609490394592e-02 2.098716795444488525e-02 -3.945071250200271606e-02 3.330602496862411499e-02 -4.223719611763954163e-02 -3.355352673679590225e-03 -2.489220909774303436e-02 2.424595504999160767e-02 -6.254844833165407181e-03 2.221803180873394012e-02 -6.251213606446981430e-03 4.681877791881561279e-03 3.135563805699348450e-02 1.551418378949165344e-02 -1.871429011225700378e-02 -3.258040547370910645e-02 1.929561793804168701e-02 -1.124664209783077240e-02 7.504908367991447449e-03 -3.192855510860681534e-03 2.705103531479835510e-02 -1.966238208115100861e-02 3.841075301170349121e-02 5.066327750682830811e-02 -1.583551242947578430e-02 -3.015186637639999390e-02 -9.562396444380283356e-04 1.752910763025283813e-02 -6.174186710268259048e-03 1.213184930384159088e-02 -5.014421790838241577e-02 1.380570512264966965e-02 -7.964079268276691437e-03 -3.060537204146385193e-02 -2.739302441477775574e-02 -1.511606015264987946e-02 -3.308477252721786499e-02 -4.068697988986968994e-02 4.047253727912902832e-02 6.365532986819744110e-03 2.282154746353626251e-03 -2.138302661478519440e-02 2.261348441243171692e-02 8.303777314722537994e-03 7.893478497862815857e-03 1.184012368321418762e-02 -2.489029057323932648e-02 8.331725746393203735e-02 -3.884140169247984886e-03 -1.740835048258304596e-02 -3.100389987230300903e-02 -2.679578214883804321e-02 -4.251357167959213257e-03 -1.340330392122268677e-02 -5.434960126876831055e-03 2.067059511318802834e-03 9.185243397951126099e-03 -9.550931863486766815e-03 -6.076407060027122498e-02 6.897090934216976166e-03 -1.505299471318721771e-02 2.658847486600279808e-03 8.275495842099189758e-03 -5.392673611640930176e-02 -4.356112331151962280e-02 1.798564754426479340e-02 1.550697255879640579e-02 -2.685137093067169189e-03 -3.970694914460182190e-02 1.318113179877400398e-03 -3.966080490499734879e-03 8.360542356967926025e-03 9.693411178886890411e-03 8.504216559231281281e-03 -2.236466296017169952e-02 -1.820112206041812897e-02 -9.499811567366123199e-04 1.552036311477422714e-02 5.290863662958145142e-02 -2.868364192545413971e-02 -3.342193737626075745e-02 -6.403546314686536789e-03 9.665529243648052216e-03 2.568872831761837006e-02 -2.138035558164119720e-02 -1.919095031917095184e-02 1.230729278177022934e-02 -2.286809124052524567e-02 -1.865630783140659332e-02 1.109169702976942062e-02 -2.420771680772304535e-02 -1.116871088743209839e-02 1.360140834003686905e-02 -3.301786631345748901e-02 -1.791177317500114441e-02 -9.242565371096134186e-03 1.526280073449015617e-03 1.824185624718666077e-02 -3.021562099456787109e-02 3.690593689680099487e-02 9.280267171561717987e-03 -2.256104256957769394e-03 3.319116542115807533e-03 -4.823706403840333223e-04 -3.756954893469810486e-02 1.724802330136299133e-02 -2.842338941991329193e-02 -2.153693931177258492e-04 2.784634381532669067e-02 -1.144318282604217529e-02 -8.347842842340469360e-03 -4.221159592270851135e-02 2.907427027821540833e-02 -1.977737434208393097e-02 -4.442520067095756531e-02 3.389571607112884521e-02 -3.503802046179771423e-02 -2.831551432609558105e-02 -2.714827656745910645e-02 -4.964038729667663574e-02 -2.815635642036795616e-03 2.489528059959411621e-02 3.390054777264595032e-02 1.734889927320182323e-03 -5.412599444389343262e-02 1.353662554174661636e-02 -2.146880375221371651e-03 -7.791223935782909393e-03 -1.297296024858951569e-02 1.646893285214900970e-02 -1.488308701664209366e-02 1.160164736211299896e-02 4.060837905853986740e-03 -3.407453373074531555e-02 -1.608096808195114136e-02 3.192181512713432312e-02 -4.006415978074073792e-02 -1.887213555164635181e-03 1.495298650115728378e-02 -1.456640847027301788e-02 -7.228428497910499573e-03 -1.958910189568996429e-02 -3.259350359439849854e-02 1.289921347051858902e-02 -1.257331809028983116e-03 3.805701434612274170e-02 -9.107432328164577484e-03 -3.014360927045345306e-02 -5.545081570744514465e-03 -3.326487494632601738e-03 -4.100789315998554230e-03 -1.063840114511549473e-03 8.221654221415519714e-03 2.584441564977169037e-02 7.424917817115783691e-02 -9.254085831344127655e-03 4.189833253622055054e-02 4.519136995077133179e-02 -7.469858508557081223e-03 -2.518356405198574066e-02 4.659878613892942667e-04 5.687449127435684204e-03 -1.700899936258792877e-02 2.438645996153354645e-02 -3.454844467341899872e-03 1.473476365208625793e-02 -2.998910844326019287e-02 -1.010960154235363007e-02 -1.057016011327505112e-02 4.110904410481452942e-02 2.238504029810428619e-02 8.177688345313072205e-03 1.654069684445858002e-02 -4.878677800297737122e-02 -8.095258846879005432e-03 -2.315878681838512421e-02 7.611000910401344299e-03 -6.082554813474416733e-03 -2.234435174614191055e-03 4.398524761199951172e-04 7.596193463541567326e-04 7.628508843481540680e-03 -3.201860189437866211e-02 2.995567023754119873e-02 1.623573340475559235e-02 -7.537032943218946457e-03 -1.005219016224145889e-02 -6.858762819319963455e-03 -3.136636316776275635e-02 3.297799080610275269e-02 -4.407704994082450867e-02 -6.409413181245326996e-03 -5.342295859009027481e-03 -3.005167469382286072e-02 -5.891288165003061295e-03 2.727812156081199646e-02 1.697039976716041565e-02 1.000356487929821014e-02 -4.198130592703819275e-02 -2.125488966703414917e-02 -1.277290470898151398e-02 1.701403968036174774e-02 2.560914494097232819e-02 5.483281984925270081e-02 2.990361070260405540e-03 2.515033632516860962e-02 -2.706367522478103638e-04 -1.303846854716539383e-02 2.690443955361843109e-02 3.403434529900550842e-03 -1.011929009109735489e-02 -3.166773542761802673e-02 4.674096126109361649e-03 4.861740395426750183e-03 -9.156273677945137024e-03 9.101163595914840698e-02 -1.310842856764793396e-02 3.340082475915551186e-03 -1.292124763131141663e-02 2.950409986078739166e-02 3.062847256660461426e-02 7.356178946793079376e-03 -2.662230399437248707e-04 -1.588400453329086304e-02 -5.510671529918909073e-03 1.754307746887207031e-02 -1.689991727471351624e-02 -1.589995436370372772e-02 -2.069382555782794952e-02 1.346068736165761948e-02 -1.411850284785032272e-02 -2.776143513619899750e-02 3.750116750597953796e-02 2.979147713631391525e-03 -4.069353640079498291e-02 5.504617094993591309e-02 -5.112821608781814575e-02 -2.475031279027462006e-02 3.489357884973287582e-03 -1.589879579842090607e-02 -3.126635774970054626e-02 -2.782774157822132111e-02 -8.197251590900123119e-04 3.070189617574214935e-03 4.914269316941499710e-03 -2.684823609888553619e-02 -1.547198835760354996e-02 3.160884976387023926e-02 -5.394096486270427704e-03 -1.637277938425540924e-02 2.732739038765430450e-02 8.314890787005424500e-03 1.775790005922317505e-02 6.403591483831405640e-02 -1.579185761511325836e-02 -4.055947996675968170e-03 6.912061944603919983e-03 -1.577441208064556122e-02 -1.152663491666316986e-02 1.942858286201953888e-02 2.989860717207193375e-03 -2.647877112030982971e-02 -1.804382074624300003e-03 -2.604212239384651184e-02 2.895345352590084076e-02 2.547292411327362061e-02 -3.209879621863365173e-02 -5.680865142494440079e-03 4.408039897680282593e-02 3.146680071949958801e-03 8.205983787775039673e-03 1.371797174215316772e-02 -5.989116057753562927e-02 -4.181529954075813293e-02 1.044408045709133148e-02 3.521982114762067795e-03 2.120252139866352081e-02 -3.667479380965232849e-03 1.496840640902519226e-02 2.568488195538520813e-02 2.517604269087314606e-02
-5.809687450528144836e-02 1.464766357094049454e-02 -5.476793274283409119e-03 2.055355161428451538e-02 8.258401066996157169e-04 -2.060695405816659331e-04 1.936569926328957081e-03 -5.450963228940963745e-02 -1.526705734431743622e-02 8.747530728578567505e-02 -3.469095006585121155e-02 1.785150915384292603e-02 9.648120962083339691e-03 4.920103028416633606e-02 3.372906893491744995e-02 3.577358322218060493e-03 2.997613698244094849e-02 3.281622380018234253e-02 8.354914374649524689e-03 -4.330700635910034180e-02 3.172639757394790649e-03 3.630348294973373413e-02 3.900304064154624939e-02 -3.649036586284637451e-02 -2.147746738046407700e-03 -3.155280277132987976e-02 -5.447768792510032654e-02 4.063149169087409973e-02 -1.459622988477349281e-03 -2.609207294881343842e-02 2.741484716534614563e-02 2.869711956009268761e-03 1.531671546399593353e-02 2.913572080433368683e-02 1.304592285305261612e-02 -2.638976462185382843e-02 -2.379669807851314545e-02 2.076146379113197327e-02 5.103755742311477661e-03 -9.666156023740768433e-03 6.032724678516387939e-02 -6.848769634962081909e-02 -2.987285330891609192e-02 -3.175340965390205383e-02 -8.520384319126605988e-03 3.725298866629600525e-02 -3.920062631368637085e-02 -8.502255193889141083e-03 1.010876242071390152e-02 -1.088824495673179626e-02 1.969666453078389168e-03 -2.943617291748523712e-02 -2.550835534930229187e-02 -4.824031516909599304e-02 2.845674753189086914e-02 -4.548669606447219849e-02 -5.930245295166969299e-02 2.725897915661334991e-02 -4.146217834204435349e-03 -2.020699717104434967e-02 -1.577014476060867310e-02 -4.899250715970993042e-02 9.247167035937309265e-03 -1.771268621087074280e-02 1.834699325263500214e-02 2.150517102563753724e-04 1.948315091431140900e-02 1.627633720636367798e-02 3.109910339117050171e-02 1.328734401613473892e-02 2.930156700313091278e-02 2.241947129368782043e-02 -5.081339273601770401e-03 5.219523608684539795e-02 -2.463353984057903290e-02 -1.633596047759056091e-02 4.821405932307243347e-02 -4.855213686823844910e-02 9.876623749732971191e-03 2.229348197579383850e-02 4.203342646360397339e-02 -6.999489385634660721e-03 -1.593503169715404510e-02 -2.173801884055137634e-02 -2.541654929518699646e-02 -2.244190685451030731e-02 -6.718522310256958008e-02 -9.909749031066894531e-03 -2.291153371334075928e-02 2.043928764760494232e-02 -4.190498590469360352e-02 3.400555625557899475e-02 -4.478498175740242004e-02 1.145878690294921398e-03 -3.933553025126457214e-02 2.501458674669265747e-02 -1.903392374515533447e-02 3.705272451043128967e-02 -2.083983272314071655e-02 1.410444150678813457e-03 3.196903318166732788e-02 1.989870704710483551e-02 -1.092300657182931900e-02 -5.276769399642944336e-02 -1.281228475272655487e-02 1.905716210603713989e-02 -4.807924106717109680e-02 -7.054192572832107544e-02 -3.654806688427925110e-02 9.359415620565414429e-03 2.613146416842937469e-02 3.739267960190773010e-02 -7.292512338608503342e-03 -6.515783071517944336e-02 -3.657939657568931580e-02 -5.102932825684547424e-02 1.755234040319919586e-02 -3.843714669346809387e-02 6.918004713952541351e-03 4.855109006166458130e-02 -5.716055631637573242e-03 -1.542754750698804855e-02 -1.841626130044460297e-02 2.121397107839584351e-02 7.425802294164896011e-03 -6.662815809249877930e-02 -4.333578795194625854e-02 -2.234292775392532349e-02 1.340487156994640827e-03 2.929371222853660583e-02 -4.257961735129356384e-02 -6.983970850706100464e-02 -1.730246096849441528e-02 -2.933747135102748871e-02 5.042720586061477661e-02 -1.768936589360237122e-02 -7.763059809803962708e-03 3.260390833020210266e-02 -1.877096598036587238e-03 2.127800509333610535e-02 -2.244163863360881805e-02 6.971631199121475220e-03 5.014782398939132690e-02 -9.908588603138923645e-03 1.200265064835548401e-02 5.083078518509864807e-03 5.423237103968858719e-03 -2.705693244934082031e-03 -8.585631102323532104e-02 -5.492315068840980530e-02 1.814846508204936981e-02 2.922060666605830193e-03 -2.555370517075061798e-02 -4.813935235142707825e-02 -1.265680789947509766e-02 4.649585857987403870e-02 1.637438498437404633e-02 1.971180923283100128e-02 3.653642022982239723e-03 -1.347293518483638763e-02 -5.485141277313232422e-02 -5.730578675866127014e-02 2.024931274354457855e-02 -1.366000995039939880e-02 4.872696846723556519e-02 -4.228876437991857529e-03 5.561022553592920303e-03 -1.272695022635161877e-03 2.546108514070510864e-02 2.751539088785648346e-02 1.891560293734073639e-02 6.358896847814321518e-03 -1.077150553464889526e-01 5.239254608750343323e-02 -1.419557537883520126e-02 -2.128787338733673096e-02 -4.022184759378433228e-02 -2.002801746129989624e-02 -5.999849736690521240e-02 4.270973149687051773e-03 4.986745864152908325e-02 -1.353847142308950424e-02 4.098944738507270813e-02 -6.133341230452060699e-03 2.059151418507099152e-02 -2.628014422953128815e-02 -1.894546300172805786e-02 8.928474970161914825e-03 4.924451559782028198e-02 7.009865948930382729e-04 -3.286864142864942551e-03 4.068538919091224670e-02 7.843136787414550781e-03 -6.206464022397994995e-04 -3.492964804172515869e-02 1.202444452792406082e-02 -2.526730066165328026e-03 -6.452773814089596272e-04 3.205250948667526245e-02 -3.431918472051620483e-02 4.863208532333374023e-02 -1.439243927597999573e-02 3.291928023099899292e-02 7.628268748521804810e-02 -2.872802317142486572e-03 -7.869824767112731934e-03 -2.729580923914909363e-02 -1.189881935715675354e-02 5.817887187004089355e-02 -3.470151126384735107e-02 -4.168047383427619934e-02 7.027455419301986694e-02 -8.032730221748352051e-02 -3.691767808049917221e-03 8.616333827376365662e-03 4.812549054622650146e-02 2.969265356659889221e-02 1.173409912735223770e-02 -6.013236194849014282e-02 -1.043460238724946976e-02 -5.130858626216650009e-03 -4.868848994374275208e-02 3.899645758792757988e-03 -7.614162284880876541e-03 -7.762790471315383911e-02 4.473465494811534882e-03 -5.197949358262121677e-04 2.395655587315559387e-02 3.016494214534759521e-02 1.879299059510231018e-02 -8.348550181835889816e-04 2.041353844106197357e-03 8.727315813302993774e-03 9.879421442747116089e-03 4.757098853588104248e-02 7.253884524106979370e-02 3.200459107756614685e-02 -3.060312569141387939e-02 3.138657286763191223e-02 1.172054372727870941e-02 2.859139256179332733e-02 1.890460215508937836e-02 5.436253268271684647e-03 -2.580426260828971863e-02 3.447251394391059875e-02 1.686275191605091095e-02 -1.985370554029941559e-02 -4.493289440870285034e-02 3.113824315369129181e-02 5.538764875382184982e-03 2.204759046435356140e-02 -2.728775376453995705e-03 1.399317570030689240e-02 -1.950611360371112823e-02 1.839534193277359009e-02 1.697413250803947449e-02 -1.033208426088094711e-02 4.508600104600191116e-03 5.675190594047307968e-03 -2.544699236750602722e-02 1.181660406291484833e-02 2.071307972073554993e-02 2.685909718275070190e-02 2.446692623198032379e-02 -7.086780853569507599e-03 -4.374938085675239563e-02 -8.745364099740982056e-02 -3.059364482760429382e-02 6.208988651633262634e-02 1.692033745348453522e-02 -2.666319906711578369e-02 -2.246093703433871269e-03 6.442146003246307373e-02 -2.626847848296165466e-02 1.207542791962623596e-02 3.578113019466400146e-02 3.177615627646446228e-02 3.973587881773710251e-03 5.302009731531143188e-02 -6.565671414136886597e-02 2.654325403273105621e-02 7.947890087962150574e-03 -1.481467764824628830e-02 -1.261748094111680984e-02 2.730522677302360535e-02 -7.299944013357162476e-02 -5.840679164975881577e-03 6.298844516277313232e-02 2.292268350720405579e-02 2.499508112668991089e-02 2.121424302458763123e-02 -1.499835494905710220e-02 1.856348826549947262e-03 1.295494940131902695e-02 1.159314252436161041e-02 -8.887694031000137329e-02 1.537217944860458374e-02 2.552686259150505066e-02 1.418586075305938721e-02 -3.317270055413246155e-02
-1.988198049366474152e-02 -4.498517513275146484e-02 -4.270550608634948730e-02 1.577348448336124420e-02 6.351502239704132080e-02 -1.412228029221296310e-02 1.366219948977231979e-03 -2.270287834107875824e-03 -6.734531372785568237e-02 3.616853058338165283e-02 2.536950446665287018e-02 -8.365016430616378784e-03 -9.243645705282688141e-03 1.261774264276027679e-02 1.251314301043748856e-03 1.715491176582872868e-03 3.568422049283981323e-02 5.993169266730546951e-03 7.801702618598937988e-02 1.279964949935674667e-02 1.769547164440155029e-02 9.925141185522079468e-02 3.499181242659687996e-03 2.311689779162406921e-02 -1.128685101866722107e-02 -2.240531146526336670e-03 -2.231224440038204193e-03 -3.261568490415811539e-03 2.753382921218872070e-02 -1.616767793893814087e-02 1.361508388072252274e-03 5.285723134875297546e-02 -2.569667622447013855e-02 -9.198321495205163956e-04 -1.631237380206584930e-02 -3.327156230807304382e-02 -1.508231647312641144e-02 4.510419443249702454e-02 4.945968277752399445e-03 -5.521845538169145584e-03 1.704942621290683746e-02 -6.799729913473129272e-02 -2.435844205319881439e-02 -4.534600302577018738e-03 -2.922095544636249542e-02 -7.260949164628982544e-02 2.376150898635387421e-02 -5.536042153835296631e-03 2.406358346343040466e-02 1.351110357791185379e-02 3.828753903508186340e-02 7.597773219458758831e-04 5.764940287917852402e-03 -4.496728256344795227e-02 -2.078958787024021149e-02 -1.091487333178520203e-02 -2.556580305099487305e-02 -4.166046902537345886e-02 2.757197059690952301e-02 1.168485451489686966e-02 5.036557465791702271e-02 -7.536286115646362305e-02 9.716339409351348877e-03 6.147759500890970230e-03 -1.699442975223064423e-02 3.250999748706817627e-02 -6.755858659744262695e-02 2.204372547566890717e-02 -6.987186521291732788e-02 2.712330408394336700e-02 3.372995182871818542e-02 1.468666456639766693e-02 9.421498514711856842e-03 3.042352385818958282e-02 5.597211886197328568e-03 2.150788903236389160e-02 2.320664003491401672e-02 -5.244722589850425720e-03 3.277769684791564941e-02 -1.098863314837217331e-02 5.360126867890357971e-02 2.410474792122840881e-02 4.164274409413337708e-02 6.118268519639968872e-02 3.385163843631744385e-02 -3.729754313826560974e-02 -3.641632199287414551e-02 -1.384981721639633179e-02 -1.934757921844720840e-03 5.466884002089500427e-02 -4.573115706443786621e-02 3.051718883216381073e-02 1.428484218195080757e-03 4.522354528307914734e-02 2.879277989268302917e-02 -1.165342051535844803e-03 -2.317667938768863678e-02 -5.159888416528701782e-02 -5.952287465333938599e-02 1.599057018756866455e-02 3.197355568408966064e-02 3.691472485661506653e-02 2.786120213568210602e-02 -3.602088242769241333e-02 -6.793640553951263428e-02 2.723365614656358957e-04 4.580359905958175659e-02 -1.582026109099388123e-02 -2.811730606481432915e-03 6.863222271203994751e-02 3.058737516403198242e-02 2.227921504527330399e-03 4.074383899569511414e-02 -2.766366349533200264e-03 -1.045995112508535385e-02 -5.694096162915229797e-02 -2.607967937365174294e-03 -3.091767057776451111e-02 1.863513141870498657e-02 5.390944704413414001e-02 1.889806054532527924e-02 5.683846771717071533e-03 2.608935162425041199e-02 -3.183025121688842773e-02 -4.576296731829643250e-02 3.816128522157669067e-02 -2.441692911088466644e-02 -3.665908426046371460e-02 1.624054461717605591e-02 7.118118461221456528e-03 1.919130212627351284e-03 4.131252411752939224e-03 6.169705465435981750e-02 -4.044563695788383484e-02 -2.048485726118087769e-02 1.374605018645524979e-02 -3.921402618288993835e-02 3.692774847149848938e-02 -8.009579777717590332e-02 -2.199259027838706970e-02 2.001100592315196991e-02 -1.866537146270275116e-02 5.405745934695005417e-03 2.343698777258396149e-02 4.165031947195529938e-03 6.712636351585388184e-02 3.617865964770317078e-03 -6.435205228626728058e-03 -5.425955727696418762e-02 8.897584863007068634e-03 -2.208273485302925110e-02 -5.280565842986106873e-02 6.345888227224349976e-02 -6.735063623636960983e-03 7.545065134763717651e-03 6.873390078544616699e-02 1.301992125809192657e-02 -8.968752808868885040e-04 -1.767492108047008514e-02 -2.782658487558364868e-02 -3.036007285118103027e-02 -4.768717102706432343e-03 1.748521812260150909e-02 7.119156420230865479e-03 5.394774302840232849e-02 3.039398416876792908e-02 9.106614626944065094e-03 4.273245483636856079e-02 1.671124435961246490e-02 5.736139416694641113e-02 -1.621804945170879364e-02 -2.288329787552356720e-02 -5.562847480177879333e-02 3.879765421152114868e-02 -3.015886433422565460e-02 6.834431737661361694e-02 6.622103042900562286e-03 -1.079782284796237946e-02 1.418653060682117939e-03 1.664084615185856819e-03 5.521925538778305054e-02 1.302751898765563965e-02 -1.391546428203582764e-02 -2.500514499843120575e-03 3.409970924258232117e-02 -4.592878371477127075e-02 4.555851593613624573e-02 -2.184117585420608521e-02 -4.429771751165390015e-02 3.031682223081588745e-02 -3.916332498192787170e-03 4.955207556486129761e-02 5.221589468419551849e-03 -3.349931538105010986e-02 1.549583580344915390e-02 -2.372935973107814789e-02 -1.989276893436908722e-02 2.695331536233425140e-02 -1.502835191786289215e-02 1.270628161728382111e-02 4.034531116485595703e-02 5.554489791393280029e-02 2.331675030291080475e-02 -6.789450347423553467e-02 3.049634397029876709e-02 -2.447849139571189880e-02 -2.228760626167058945e-03 -3.407340729609131813e-03 2.678415365517139435e-02 -4.745684191584587097e-02 -2.333926409482955933e-02 5.579556524753570557e-02 -2.813946828246116638e-02 3.997784573584794998e-03 -5.709793884307146072e-03 -2.697299420833587646e-02 9.662278927862644196e-03 -1.216074172407388687e-02 8.913948200643062592e-03 -2.882140316069126129e-02 5.509407818317413330e-02 4.605787340551614761e-03 9.299316257238388062e-02 -7.089275401085615158e-03 4.582722485065460205e-02 1.051444374024868011e-02 -6.466792896389961243e-03 2.309281565248966217e-02 3.924227878451347351e-02 -3.095710091292858124e-02 1.185608841478824615e-02 -3.840686008334159851e-02 2.919885329902172089e-02 2.098506689071655273e-02 3.536433726549148560e-02 2.900055050849914551e-02 3.354238346219062805e-02 5.279326345771551132e-03 5.476223304867744446e-02 -3.809613734483718872e-02 -2.330518094822764397e-03 1.559578627347946167e-02 -9.855975396931171417e-03 -4.879573732614517212e-02 -1.114245224744081497e-02 6.634815037250518799e-02 -7.922349125146865845e-02 3.003711253404617310e-02 -3.000173717737197876e-02 1.665355265140533447e-02 9.753563441336154938e-03 -7.874291390180587769e-02 3.014595061540603638e-02 -2.321079373359680176e-02 6.076006218791007996e-02 1.345320604741573334e-02 -3.319747745990753174e-02 -3.472476825118064880e-02 7.577190175652503967e-03 -1.213500369340181351e-02 5.516411364078521729e-02 -1.192868570797145367e-03 3.147916169837117195e-03 9.311887621879577637e-02 -1.505611930042505264e-02 1.088215038180351257e-02 -7.185658812522888184e-02 -4.077072069048881531e-02 1.979460753500461578e-02 6.076411344110965729e-03 -1.732305996119976044e-02 -1.328571885824203491e-02 1.369646005332469940e-02 -5.450879782438278198e-02 3.392332419753074646e-02 -2.525799535214900970e-02 1.155865378677845001e-02 2.524603623896837234e-04 -2.014900557696819305e-03 -7.737872749567031860e-02 2.805370837450027466e-02 -1.681136153638362885e-02 -7.284929510205984116e-03 -3.608122840523719788e-02 1.934078894555568695e-02 -1.632959209382534027e-02 1.300911186262965202e-03 7.302737981081008911e-02 3.488658694550395012e-03 7.625701837241649628e-03 -1.738062500953674316e-02 1.573030278086662292e-02 -2.527749538421630859e-02 3.526381682604551315e-03 -4.003962874412536621e-02 5.870692431926727295e-03 -2.898204140365123749e-03 -8.747163228690624237e-03 4.866333678364753723e-02 -1.451193261891603470e-02
-5.092861875891685486e-02 3.670269157737493515e-03 4.559184424579143524e-03 -6.208075582981109619e-02 3.842088207602500916e-02 3.141514956951141357e-02 -3.174509480595588684e-02 -7.959549129009246826e-02 -2.532058022916316986e-02 5.876476317644119263e-02 -2.872543781995773315e-02 1.743843592703342438e-02 -3.661049529910087585e-03 -8.205863647162914276e-03 1.865416020154953003e-02 -8.044396340847015381e-02 1.481007691472768784e-02 4.719917848706245422e-02 -3.769973292946815491e-02 -1.970387622714042664e-02 -3.311264561489224434e-03 2.725268527865409851e-02 -1.584723405539989471e-02 5.893826857209205627e-02 1.258736941963434219e-02 1.968308351933956146e-02 -1.907089911401271820e-02 -4.907894134521484375e-02 1.257058680057525635e-01 3.829224035143852234e-02 1.957853138446807861e-02 1.533518824726343155e-02 -4.601863212883472443e-03 5.517421755939722061e-03 -5.260240659117698669e-02 -4.953789710998535156e-02 -1.797700300812721252e-02 1.513409707695245743e-02 -1.272238697856664658e-02 6.308212131261825562e-02 -5.317565985023975372e-03 -1.858705654740333557e-02 -1.496487557888031006e-01 -3.665096685290336609e-02 1.105964556336402893e-01 -4.686833545565605164e-02 2.445277292281389236e-03 -3.935557976365089417e-02 9.602219611406326294e-02 -4.903993103653192520e-03 9.607011079788208008e-02 -3.122473508119583130e-02 -1.438464317470788956e-02 -2.149946242570877075e-02 5.862368643283843994e-02 7.030256092548370361e-02 -4.835962876677513123e-02 8.428607881069183350e-02 2.693505771458148956e-02 5.398080870509147644e-02 3.701232746243476868e-02 -2.390949754044413567e-03 -2.114858664572238922e-02 4.606718197464942932e-03 -3.759529814124107361e-02 3.785708546638488770e-02 -2.859526872634887695e-02 -5.039163515903055668e-04 -8.441741764545440674e-02 2.871005423367023468e-02 -6.358905881643295288e-02 9.702209383249282837e-03 -5.244452040642499924e-03 6.069793924689292908e-02 -3.780153766274452209e-02 1.466931495815515518e-02 6.650252640247344971e-02 -5.744460970163345337e-02 -1.102221198379993439e-02 -2.304530330002307892e-02 2.364061214029788971e-02 7.108901627361774445e-03 2.333366312086582184e-02 4.037920758128166199e-02 -8.490692079067230225e-02 -4.090780764818191528e-02 1.720356754958629608e-02 -5.630148202180862427e-02 -1.682640984654426575e-02 3.624324873089790344e-02 2.383881434798240662e-02 1.841040141880512238e-02 4.147214442491531372e-02 4.398538544774055481e-02 -1.998315937817096710e-02 -1.340214814990758896e-02 -2.051478251814842224e-02 -1.354834437370300293e-01 -2.051996439695358276e-02 1.415689289569854736e-02 8.850294351577758789e-02 -3.143867012113332748e-03 5.981290712952613831e-02 -3.394487127661705017e-02 6.890915334224700928e-02 4.090664163231849670e-02 1.079475786536931992e-02 -1.116545964032411575e-02 -2.969802170991897583e-02 -3.590651229023933411e-02 2.598517015576362610e-02 -3.837697952985763550e-02 6.275016069412231445e-02 -3.094298206269741058e-02 -8.753978461027145386e-02 -4.817014094442129135e-03 -2.585343830287456512e-02 9.200019761919975281e-03 8.815715461969375610e-02 6.747997552156448364e-02 -1.094894111156463623e-02 2.782669849693775177e-02 -1.610353216528892517e-02 -4.009292274713516235e-02 -6.937281042337417603e-02 -6.997508462518453598e-03 -9.300959296524524689e-03 3.665425628423690796e-02 -1.901293173432350159e-02 -2.674809098243713379e-02 -2.824530750513076782e-02 -4.022764787077903748e-02 1.489784941077232361e-02 1.218520477414131165e-02 2.246749959886074066e-02 1.721183769404888153e-02 1.005022153258323669e-01 3.600595518946647644e-02 -7.960845530033111572e-02 -1.496247202157974243e-02 2.561241760849952698e-02 -5.916804075241088867e-02 2.206817455589771271e-02 -5.645916331559419632e-03 -2.868626615963876247e-04 3.312885016202926636e-02 -9.995088912546634674e-03 -2.947830222547054291e-02 -1.942572300322353840e-03 -2.397756092250347137e-03 -3.002448193728923798e-02 -8.146573603153228760e-02 1.048994902521371841e-02 -2.902979962527751923e-02 -2.136685140430927277e-02 5.389782786369323730e-02 -1.022726856172084808e-02 -4.130990430712699890e-02 -1.205085543915629387e-03 -4.438012093305587769e-02 -3.534877672791481018e-02 1.451149210333824158e-02 -6.377327442169189453e-02 -4.339800681918859482e-03 -2.644987963140010834e-02 -6.283199787139892578e-02 3.907219320535659790e-02 2.774783037602901459e-02 -2.014430426061153412e-02 -6.250265985727310181e-02 -1.799698546528816223e-02 4.040319845080375671e-02 -1.015218123793601990e-01 2.863877825438976288e-02 6.829900084994733334e-04 7.795277051627635956e-03 -5.888560786843299866e-02 -4.150192067027091980e-02 -5.487383902072906494e-02 4.048297181725502014e-03 -4.030474275350570679e-02 -6.907823681831359863e-02 -9.883739054203033447e-02 5.507681518793106079e-02 -5.178746208548545837e-02 5.150120705366134644e-02 -6.082772836089134216e-02 -6.421047262847423553e-03 -2.212880365550518036e-02 2.631499432027339935e-02 -1.328350324183702469e-02 1.195340510457754135e-02 -3.664709255099296570e-02 -2.670599706470966339e-02 4.046586528420448303e-02 -7.158423215150833130e-02 -1.684576272964477539e-02 -8.169172331690788269e-03 4.696438461542129517e-02 3.683235868811607361e-02 3.226711228489875793e-02 9.083389490842819214e-02 -5.577023327350616455e-02 -1.815182901918888092e-02 5.878650117665529251e-03 7.464751135557889938e-03 3.959987685084342957e-02 -7.209262996912002563e-02 -2.420715801417827606e-02 6.029901653528213501e-02 9.971684217453002930e-02 -7.456697057932615280e-03 4.932725802063941956e-02 -5.662743933498859406e-03 -3.500124067068099976e-02 8.230496942996978760e-02 -4.047084599733352661e-03 9.313854388892650604e-03 -3.988231765106320381e-04 -9.326135739684104919e-03 -1.441605761647224426e-02 -7.578846812248229980e-02 7.788167335093021393e-03 2.419325290247797966e-03 -6.550354100909316912e-06 -5.937058851122856140e-02 -1.049077138304710388e-02 -4.534839466214179993e-02 -3.980856388807296753e-03 2.285026945173740387e-03 -1.033066585659980774e-02 -2.702182158827781677e-02 -6.204029079526662827e-03 3.741887211799621582e-02 -7.557381689548492432e-02 3.345139324665069580e-02 -9.541528671979904175e-02 -2.237672917544841766e-02 -7.736130617558956146e-03 -1.261417195200920105e-02 1.890162937343120575e-02 -7.296843454241752625e-03 -6.435506790876388550e-02 -1.987947337329387665e-02 -8.065191656351089478e-02 1.719711720943450928e-02 3.836834430694580078e-02 6.480258703231811523e-02 -7.018763571977615356e-02 -4.182256013154983521e-02 1.393801998347043991e-02 -3.232846781611442566e-02 -2.366694994270801544e-02 2.318651787936687469e-02 2.084215544164180756e-02 3.698040172457695007e-02 -1.312482357025146484e-02 2.485495433211326599e-02 2.832648716866970062e-02 4.315131157636642456e-02 8.166883140802383423e-03 -2.587934210896492004e-02 -2.515129186213016510e-02 3.836685791611671448e-02 -2.232948550954461098e-03 -3.507330268621444702e-02 -1.955118402838706970e-02 -3.147563338279724121e-02 1.962241530418395996e-02 -3.352482244372367859e-02 1.978624612092971802e-03 3.826667740941047668e-02 2.994481660425662994e-02 2.685770392417907715e-02 3.102978691458702087e-02 -7.755382359027862549e-02 -2.171823196113109589e-02 -7.030984852463006973e-03 -5.466258898377418518e-02 1.027272827923297882e-02 2.157040499150753021e-02 -4.249934852123260498e-02 1.902365870773792267e-02 -9.609847515821456909e-02 -1.432433957234025002e-03 -2.803344093263149261e-02 6.046242639422416687e-02 3.059073165059089661e-02 -1.168887782841920853e-02 -4.173444211483001709e-02 -3.078096173703670502e-02 4.231087118387222290e-02 1.024858746677637100e-02 -2.347773686051368713e-02 1.426959410309791565e-02 -2.591583505272865295e-02 -2.778697945177555084e-02 3.580710384994745255e-03 8.675583638250827789e-03 -4.579647257924079895e-02
-5.288472771644592285e-02 -2.009728923439979553e-03 -3.252170048654079437e-03 -1.076819095760583878e-02 2.843454107642173767e-02 -2.311399206519126892e-03 1.037323847413063049e-02 -3.201827779412269592e-02 -5.157352238893508911e-02 1.776903681457042694e-02 -5.138315260410308838e-03 8.689519017934799194e-03 -4.276644904166460037e-03 -2.353823510929942131e-03 8.320904336869716644e-03 -5.875822901725769043e-02 1.743797771632671356e-02 2.747778967022895813e-02 -3.303271532058715820e-02 2.297739498317241669e-02 -4.558276850730180740e-03 1.445110305212438107e-03 1.356029417365789413e-02 5.398980807512998581e-03 2.045892924070358276e-02 -5.098908767104148865e-02 -8.457688987255096436e-02 -1.211784128099679947e-02 4.311298206448554993e-02 -2.008822560310363770e-02 1.811471581459045410e-02 2.127760089933872223e-04 2.016773074865341187e-02 -2.533338405191898346e-02 -5.531311035156250000e-02 -4.419056698679924011e-02 -1.872532814741134644e-02 -2.513450384140014648e-02 -1.393638830631971359e-02 -4.027006030082702637e-02 -2.438629232347011566e-02 -9.780216350918635726e-05 -4.983216896653175354e-02 -1.903329044580459595e-02 -2.096642553806304932e-02 -3.510906919836997986e-02 -1.701191626489162445e-02 -5.237217992544174194e-02 4.819503426551818848e-02 -3.220780286937952042e-03 6.999211385846138000e-03 -2.110942080616950989e-02 -4.194096196442842484e-03 -1.763568446040153503e-02 -5.501341540366411209e-03 -5.206575244665145874e-02 -8.347630500793457031e-02 3.598400391638278961e-03 -8.216310292482376099e-03 -2.706559840589761734e-03 3.521455219015479088e-03 1.732500852085649967e-03 1.135090459138154984e-02 -1.762957125902175903e-02 -2.620754763484001160e-02 3.883679956197738647e-02 -2.458616718649864197e-02 1.158273499459028244e-02 -5.525776743888854980e-02 -7.793443277478218079e-03 -2.747724950313568115e-02 2.631093666423112154e-04 5.189741030335426331e-03 1.090423110872507095e-02 -2.110162377357482910e-02 3.937548492103815079e-03 3.296186029911041260e-02 -4.817019402980804443e-02 4.760476294904947281e-03 -2.691135369241237640e-02 6.771264597773551941e-03 4.034118261188268661e-03 -3.480191156268119812e-02 4.135859757661819458e-02 1.836475566960871220e-03 -1.093161571770906448e-02 -2.578370645642280579e-02 5.093609448522329330e-03 -1.425836049020290375e-02 1.567697734571993351e-03 -7.900231517851352692e-03 -4.969593137502670288e-03 3.416321799159049988e-02 -1.007171813398599625e-02 -1.040429342538118362e-02 9.951455518603324890e-03 -1.064818352460861206e-02 -6.247773766517639160e-02 -4.742298275232315063e-02 -5.586945451796054840e-03 -2.910932758823037148e-03 2.820332907140254974e-02 5.913474597036838531e-03 -4.429732263088226318e-02 4.242349043488502502e-02 3.493515774607658386e-03 -3.785418346524238586e-02 -6.105445325374603271e-02 -1.122663356363773346e-02 1.095895189791917801e-02 9.423467330634593964e-03 -4.638516157865524292e-02 -2.430016733705997467e-02 1.785475877113640308e-03 -4.653652757406234741e-02 -4.387528821825981140e-02 2.894646115601062775e-02 -1.726067066192626953e-02 3.430625656619668007e-04 8.442804962396621704e-02 -8.149623870849609375e-03 4.170463606715202332e-02 2.001577755436301231e-03 1.130312681198120117e-02 -3.588728979229927063e-02 -9.467112831771373749e-03 -2.359365858137607574e-02 4.063804633915424347e-03 -7.047343999147415161e-02 7.060876116156578064e-03 -8.558651432394981384e-03 -3.487494960427284241e-02 4.094311222434043884e-02 -4.284523054957389832e-02 5.325158312916755676e-02 2.627413719892501831e-03 1.713239215314388275e-02 1.301817782223224640e-02 -7.239644229412078857e-02 -2.720957249402999878e-02 -3.829061612486839294e-02 -7.199540734291076660e-03 8.615558035671710968e-03 -2.634034492075443268e-02 -3.936760872602462769e-02 3.396650403738021851e-02 -1.801186706870794296e-03 2.216797322034835815e-02 -7.590342313051223755e-02 -1.092855352908372879e-02 -6.405070424079895020e-03 2.013347856700420380e-02 6.776331574656069279e-04 -2.442882768809795380e-02 -1.194411236792802811e-02 3.859999403357505798e-02 6.163252051919698715e-03 -4.052471369504928589e-03 -1.666147820651531219e-02 -2.454519830644130707e-02 -8.156951516866683960e-03 -5.524310469627380371e-02 -2.862136811017990112e-02 -3.461192129179835320e-03 5.876627936959266663e-02 -2.841621264815330505e-02 7.458921987563371658e-03 -9.482747875154018402e-03 -3.405803069472312927e-02 -5.423593148589134216e-02 2.083482034504413605e-02 -1.713777543045580387e-03 -4.611675441265106201e-02 3.927651047706604004e-02 -4.677026346325874329e-02 6.808774080127477646e-03 -6.676111370325088501e-03 -1.891856826841831207e-02 -6.288535892963409424e-03 1.177545636892318726e-02 1.822042278945446014e-02 -6.834251433610916138e-02 -2.223466150462627411e-02 -2.574626356363296509e-02 -1.292775291949510574e-02 3.075962513685226440e-02 -2.833344228565692902e-02 -2.406436204910278320e-02 7.922342047095298767e-03 3.734358772635459900e-02 -3.040157817304134369e-02 4.382170736789703369e-02 -2.411738783121109009e-02 2.437295764684677124e-02 1.772540621459484100e-02 -3.373460471630096436e-02 9.162174537777900696e-03 3.202932327985763550e-02 -1.857567764818668365e-02 8.577854605391621590e-04 2.802321128547191620e-02 7.034562528133392334e-03 3.828069020528346300e-04 -2.951557934284210205e-02 3.000668063759803772e-02 -7.162311114370822906e-03 2.808382175862789154e-02 -2.579363994300365448e-02 5.977289378643035889e-02 -1.316459942609071732e-02 -2.667769975960254669e-02 5.893215164542198181e-02 -7.513149827718734741e-02 -1.072958763688802719e-02 -1.284624636173248291e-02 5.327087640762329102e-02 -1.889454014599323273e-02 -1.584245264530181885e-02 -4.115164652466773987e-02 -1.895869150757789612e-02 6.635091267526149750e-03 -3.418748825788497925e-02 1.349655631929636002e-02 -2.870135474950075150e-03 3.634258173406124115e-03 -3.262719139456748962e-02 -1.943741180002689362e-02 -5.315937567502260208e-03 4.940590262413024902e-02 -5.626910552382469177e-02 -1.771285012364387512e-02 -1.561858318746089935e-02 -2.693694829940795898e-02 -3.099182620644569397e-02 4.031943529844284058e-02 2.313531003892421722e-02 -3.913160879164934158e-03 -5.355269089341163635e-02 -4.081723466515541077e-02 2.213355898857116699e-02 7.630684878677129745e-03 -1.063493825495243073e-02 -6.543144583702087402e-02 -2.601243322715163231e-03 2.679402939975261688e-02 -8.061767555773258209e-03 -5.941145122051239014e-03 8.789317798800766468e-04 -5.160151049494743347e-04 -4.142164066433906555e-02 -4.405016079545021057e-02 1.110362820327281952e-02 1.577600650489330292e-02 -8.454125374555587769e-03 3.813742101192474365e-02 -1.591349579393863678e-02 -6.835361570119857788e-02 -1.959558343514800072e-03 -4.702115431427955627e-03 -3.017758764326572418e-02 -4.191372171044349670e-02 -3.171771764755249023e-02 9.785816073417663574e-03 4.939468204975128174e-02 1.762810163199901581e-02 -3.203894197940826416e-02 -4.214898496866226196e-02 -2.197405695915222168e-02 -1.127550285309553146e-02 2.037692442536354065e-02 -3.531113034114241600e-03 -1.161485910415649414e-02 3.131567686796188354e-02 -2.620580606162548065e-02 -1.981196366250514984e-02 -1.226527988910675049e-02 -7.010260224342346191e-02 -6.137577816843986511e-03 1.787355169653892517e-02 -5.002201721072196960e-02 -5.217828229069709778e-02 -4.753727093338966370e-02 -2.016812562942504883e-02 -4.064789414405822754e-02 -2.754626795649528503e-02 -8.316447585821151733e-02 1.110549643635749817e-02 -5.755983758717775345e-03 5.708393827080726624e-02 7.977079600095748901e-03 1.539367809891700745e-02 -4.736595600843429565e-02 -2.622358500957489014e-02 1.261164061725139618e-02 -2.799487672746181488e-02 -7.956792414188385010e-02 -4.970733821392059326e-02 1.571978442370891571e-02 2.555886469781398773e-02 7.127277553081512451e-03
-2.419525198638439178e-02 -3.433128818869590759e-03 2.269835025072097778e-02 1.780989766120910645e-02 -5.496421456336975098e-02 -3.261825069785118103e-03 5.208114907145500183e-02 -1.393672544509172440e-02 -2.144623920321464539e-02 -4.012235999107360840e-02 2.353969262912869453e-03 -3.350293263792991638e-02 -1.605847664177417755e-02 -6.924075540155172348e-03 -1.427032984793186188e-02 1.371050905436277390e-02 -2.636487595736980438e-02 -1.860370673239231110e-02 -1.860321313142776489e-02 -4.767994210124015808e-02 -2.049737144261598587e-03 -9.560998529195785522e-03 1.369423046708106995e-02 4.786141216754913330e-03 -2.105966210365295410e-02 -6.612482480704784393e-03 2.129071019589900970e-02 6.606067996472120285e-03 -2.071364782750606537e-02 1.191720087081193924e-02 -2.750777266919612885e-02 3.024254925549030304e-03 -7.007397245615720749e-03 -8.334941230714321136e-03 -1.028566714376211166e-02 7.473909645341336727e-04 -1.576878689229488373e-02 -2.631825767457485199e-02 -6.827870011329650879e-02 3.159686923027038574e-02 2.160506881773471832e-02 3.618695214390754700e-02 -7.231581024825572968e-03 -1.400644984096288681e-02 -8.935802616178989410e-03 9.642151184380054474e-03 -6.058145314455032349e-03 -1.488743117079138756e-03 -8.331023901700973511e-02 4.814674705266952515e-02 -1.183254737406969070e-02 -6.430291105061769485e-04 -1.192270033061504364e-02 8.350114338099956512e-03 -7.371809799224138260e-03 1.050032302737236023e-02 3.117424435913562775e-03 1.197686418890953064e-03 5.343192256987094879e-03 -3.746755188331007957e-03 1.725377142429351807e-02 8.401247672736644745e-03 -6.557256914675235748e-03 -9.170900098979473114e-03 1.613112539052963257e-02 -2.557373140007257462e-03 -3.675343841314315796e-02 1.197852008044719696e-02 3.065046854317188263e-03 2.827084623277187347e-02 -5.918699316680431366e-03 -8.705824613571166992e-03 2.117392141371965408e-03 -1.014396175742149353e-02 -1.044253632426261902e-02 4.299101419746875763e-03 -3.424804657697677612e-02 -3.643223317340016365e-03 -3.902909532189369202e-02 4.522274713963270187e-03 -7.779587060213088989e-03 -2.369072474539279938e-02 1.082812622189521790e-02 -6.074647232890129089e-02 -2.224695868790149689e-02 4.987315740436315536e-03 2.655896358191967010e-03 -3.902598097920417786e-02 -1.759533956646919250e-02 -1.498127914965152740e-02 -3.038826957345008850e-02 -3.337257727980613708e-02 -3.057049354538321495e-03 -2.300290018320083618e-02 -2.820750325918197632e-02 -1.521956734359264374e-02 3.687836695462465286e-03 9.451128426007926464e-05 -2.820182591676712036e-02 1.753139682114124298e-02 -2.201665751636028290e-02 -8.446003310382366180e-03 -4.390326887369155884e-02 -4.353980999439954758e-03 -5.890362430363893509e-03 -3.068513609468936920e-02 6.735718995332717896e-02 -5.061520729213953018e-03 -2.041999995708465576e-02 1.951412856578826904e-02 2.047429047524929047e-02 3.120620036497712135e-03 2.664028480648994446e-02 4.102727025747299194e-02 2.779884263873100281e-02 -2.439587749540805817e-02 -3.637854382395744324e-02 2.009696140885353088e-02 -2.689436078071594238e-02 -6.256535649299621582e-02 5.248207971453666687e-02 -2.479226887226104736e-02 1.985993981361389160e-02 -4.480610787868499756e-02 5.254245176911354065e-02 -1.097181905061006546e-02 1.528352964669466019e-02 -1.918178610503673553e-02 -2.302277274429798126e-02 7.558291312307119370e-03 -7.683254778385162354e-02 -2.981141768395900726e-02 -6.984776258468627930e-02 4.046000167727470398e-02 -4.351779818534851074e-02 3.214359283447265625e-02 -2.187329716980457306e-02 -3.483477979898452759e-02 1.525029819458723068e-02 1.605564169585704803e-02 -4.289231449365615845e-02 3.505455330014228821e-02 -2.801898494362831116e-02 5.842503532767295837e-02 -9.037306532263755798e-03 -4.069113731384277344e-02 3.339105052873492241e-03 2.474958263337612152e-02 9.342800825834274292e-03 -3.386060148477554321e-02 1.578263705596327782e-03 3.665076941251754761e-02 -2.025619708001613617e-02 -5.613000132143497467e-03 2.244891598820686340e-02 -7.083717733621597290e-02 -4.197195172309875488e-03 3.822439536452293396e-02 -1.525996532291173935e-02 1.320127863436937332e-02 3.284225985407829285e-02 3.125561773777008057e-02 7.420868147164583206e-03 -2.245608251541852951e-03 -1.255727093666791916e-02 3.180237114429473877e-02 1.602428033947944641e-02 -4.807364195585250854e-02 1.707614772021770477e-02 5.061136558651924133e-02 2.775194682180881500e-02 -8.660356514155864716e-03 4.375426098704338074e-02 -1.321439258754253387e-02 9.600014425814151764e-03 -9.686109609901905060e-03 -4.302671644836664200e-03 -1.658234931528568268e-02 -2.305096574127674103e-02 -6.091167684644460678e-03 -3.294152673333883286e-03 -4.532942548394203186e-03 1.793552748858928680e-02 -6.557694170624017715e-03 3.789403662085533142e-02 1.060135755687952042e-02 1.735898852348327637e-02 1.224244758486747742e-02 1.568713225424289703e-02 -1.892357948236167431e-03 5.441663321107625961e-03 -8.884193375706672668e-03 1.246143039315938950e-02 2.788990549743175507e-02 -2.915025874972343445e-02 1.856195740401744843e-02 -6.107484921813011169e-03 -1.043694559484720230e-02 1.973938895389437675e-03 -4.275031015276908875e-02 -1.427169144153594971e-02 -6.738123297691345215e-02 -2.160594053566455841e-02 2.643308602273464203e-02 -3.961947746574878693e-03 1.204689033329486847e-02 -7.718408014625310898e-04 1.616290770471096039e-02 -2.589961327612400055e-02 1.018041092902421951e-02 2.279524318873882294e-02 -8.044977672398090363e-03 2.053862810134887695e-02 1.377623435109853745e-02 -2.143456414341926575e-02 -1.611617580056190491e-02 2.745831944048404694e-02 2.466017380356788635e-02 -5.456553772091865540e-04 -6.746169645339250565e-03 -6.527387350797653198e-02 -2.896444872021675110e-02 3.781453939154744148e-03 2.311906311661005020e-03 -2.954119350761175156e-03 1.793387345969676971e-02 9.269936010241508484e-03 -5.469005191116593778e-05 -2.925724722445011139e-02 -2.024548361077904701e-03 -2.412419067695736885e-03 1.244976744055747986e-02 1.328697614371776581e-02 -3.342294692993164062e-02 2.099408954381942749e-02 -5.029030889272689819e-02 -2.179836668074131012e-02 1.471260748803615570e-02 -9.066356346011161804e-03 -2.668973989784717560e-02 9.705433622002601624e-03 7.024259772151708603e-03 1.838948950171470642e-02 -1.306567108258605003e-03 1.139809656888246536e-02 -4.932278394699096680e-02 1.173028536140918732e-02 2.844237908720970154e-02 3.220973536372184753e-02 4.666084051132202148e-02 2.002580277621746063e-02 2.542841620743274689e-02 -3.493555414024740458e-05 -4.069144278764724731e-02 -9.741052053868770599e-03 1.745847426354885101e-02 -9.966354118660092354e-04 2.848857082426548004e-02 1.453284546732902527e-02 2.092606574296951294e-02 4.767094925045967102e-02 7.265300955623388290e-03 3.977077081799507141e-03 1.429661922156810760e-02 6.618117447942495346e-03 6.043620407581329346e-03 3.495686221867799759e-03 -1.959173381328582764e-02 -5.483953654766082764e-02 2.756802551448345184e-02 2.116392366588115692e-02 1.106970757246017456e-02 -4.102512076497077942e-02 -3.120622783899307251e-02 2.178882434964179993e-02 3.768496960401535034e-02 5.664860829710960388e-03 1.403053756803274155e-02 3.331232583150267601e-03 -3.755697689484804869e-04 -9.902770631015300751e-03 1.642381027340888977e-02 1.342900190502405167e-02 8.928702212870121002e-03 9.717879816889762878e-03 1.619989797472953796e-02 -4.883418790996074677e-03 -2.205184660851955414e-02 -1.636940054595470428e-02 -2.987357974052429199e-02 7.900163531303405762e-03 -2.403407543897628784e-02 1.817358657717704773e-02 -3.579451004043221474e-03 7.980145514011383057e-03 2.589712664484977722e-02 3.163648769259452820e-02 1.861478015780448914e-02 -2.215756103396415710e-02 5.842415615916252136e-03
7.074328511953353882e-02 -1.317316200584173203e-02 -5.522432923316955566e-02 9.784223948372527957e-05 -1.710327900946140289e-02 -4.224476870149374008e-03 -2.774740010499954224e-02 5.716176331043243408e-02 1.665578782558441162e-02 -8.247010409832000732e-02 3.603564202785491943e-02 1.183032523840665817e-02 2.336710691452026367e-03 -3.192379698157310486e-02 -9.595967829227447510e-03 8.813259191811084747e-03 -4.374991112854331732e-04 1.823677308857440948e-02 6.929738074541091919e-02 4.221024736762046814e-02 -4.721318837255239487e-03 -1.017337944358587265e-02 1.885599642992019653e-02 -1.612063683569431305e-02 2.465822547674179077e-02 2.274009026587009430e-02 4.974097386002540588e-02 2.863651700317859650e-02 -6.523691862821578979e-02 2.359744533896446228e-02 -2.934574708342552185e-02 -3.524391679093241692e-03 -2.058762870728969574e-02 -7.805315311998128891e-03 2.148638851940631866e-02 -5.758326500654220581e-03 1.035096310079097748e-02 -1.291665900498628616e-02 9.370294958353042603e-02 -4.714369401335716248e-02 -3.016331791877746582e-02 6.727825850248336792e-02 2.009057067334651947e-02 -4.206153098493814468e-03 -1.636459864675998688e-02 -4.167067352682352066e-03 1.311099063605070114e-02 2.951685711741447449e-02 -6.969728320837020874e-02 -2.997206291183829308e-03 -1.098797749727964401e-02 1.867819204926490784e-02 9.686699137091636658e-03 4.842675291001796722e-03 -5.745336785912513733e-02 -9.872362948954105377e-03 4.361324757337570190e-02 -1.175723671913146973e-01 -4.697995260357856750e-03 -4.565768316388130188e-02 -6.293954700231552124e-02 -3.969326615333557129e-02 1.609868742525577545e-02 2.658960409462451935e-02 -2.210735529661178589e-02 3.508404269814491272e-02 -1.076846267096698284e-03 -2.412132732570171356e-02 1.197024527937173843e-02 -3.482906147837638855e-02 -3.276336193084716797e-02 -1.667398400604724884e-02 -1.800721138715744019e-02 -4.725469648838043213e-02 5.123460292816162109e-02 2.360225771553814411e-04 1.007687021046876907e-02 2.219681441783905029e-02 -1.940841414034366608e-02 2.323028445243835449e-02 -6.113366037607192993e-02 1.848626509308815002e-02 -3.196757659316062927e-02 -9.717854671180248260e-03 3.763071820139884949e-02 1.910332031548023224e-02 3.339689970016479492e-02 -1.806542463600635529e-02 1.962728984653949738e-02 2.462021308019757271e-03 2.736316621303558350e-02 1.433509308844804764e-02 2.720462903380393982e-02 -2.069295011460781097e-02 1.048682443797588348e-02 -1.048199459910392761e-02 4.980590194463729858e-02 2.322296798229217529e-02 -1.345119718462228775e-02 -3.696047887206077576e-02 -5.585682392120361328e-02 -1.340222265571355820e-02 -5.288143828511238098e-02 2.448116987943649292e-02 -3.144668042659759521e-02 -4.244297742843627930e-03 1.086093368940055370e-03 1.569196023046970367e-02 2.890629693865776062e-02 -4.559166356921195984e-02 -3.727736475411802530e-04 7.952029816806316376e-03 -1.364307478070259094e-02 1.777415536344051361e-02 7.122736424207687378e-02 4.182065650820732117e-02 -2.057009935379028320e-02 -1.382297556847333908e-02 -2.200208418071269989e-02 -4.300972446799278259e-02 1.342691853642463684e-02 -2.285707369446754456e-02 -1.908947154879570007e-02 -1.761411316692829132e-02 -1.779480517143383622e-04 5.984313040971755981e-02 1.829298399388790131e-02 -1.486244518309831619e-02 4.001553729176521301e-02 4.845187067985534668e-03 5.884673073887825012e-02 5.756757780909538269e-02 -2.296407334506511688e-02 1.564638875424861908e-02 -4.400553181767463684e-02 4.657192155718803406e-03 2.242731396108865738e-03 -3.048579674214124680e-03 5.890405154787003994e-04 2.588358474895358086e-03 -3.888611495494842529e-02 -3.217369318008422852e-02 -1.413968275301158428e-03 -2.611502818763256073e-02 7.205591350793838501e-02 -2.751078829169273376e-02 3.918340429663658142e-02 -1.950832642614841461e-02 5.353076010942459106e-02 -2.016026293858885765e-03 -6.352213025093078613e-02 -4.717512428760528564e-02 3.304709680378437042e-03 2.715417183935642242e-02 1.024393457919359207e-02 -4.229246452450752258e-02 1.712395576760172844e-03 1.917237229645252228e-02 6.169872358441352844e-03 1.457076147198677063e-02 2.206287346780300140e-03 1.109989080578088760e-02 3.095993027091026306e-02 2.938678488135337830e-03 -7.628327608108520508e-02 -2.544044749811291695e-03 1.888178288936614990e-03 1.247251057066023350e-03 4.317846149206161499e-02 2.274968475103378296e-02 -1.465071737766265869e-02 2.144346944987773895e-02 1.537823211401700974e-02 -8.265472948551177979e-03 -1.445754896849393845e-02 -9.884003084152936935e-04 7.500708848237991333e-02 6.846463680267333984e-02 6.591807305812835693e-02 2.207158133387565613e-02 -6.355730444192886353e-02 4.158236458897590637e-02 1.357890851795673370e-02 -1.689857244491577148e-02 -2.818932011723518372e-02 -8.784040808677673340e-03 1.006346940994262695e-02 1.078246440738439560e-02 -6.201760098338127136e-02 -1.895269565284252167e-02 -1.942959614098072052e-03 -3.512323647737503052e-02 -1.175450859591364861e-03 -1.177094038575887680e-02 -1.836305484175682068e-02 -1.891782879829406738e-02 -2.132929675281047821e-02 -1.498359534889459610e-02 -2.188104204833507538e-02 -9.220192208886146545e-03 -2.760142832994461060e-02 -2.443280071020126343e-02 -3.985501080751419067e-02 3.945930302143096924e-02 -3.162456676363945007e-02 2.300455700606107712e-03 1.273205783218145370e-02 4.064621031284332275e-02 -6.089817360043525696e-02 2.056368440389633179e-02 -3.119386173784732819e-02 -3.401684388518333435e-02 5.475677177309989929e-02 1.358039304614067078e-02 -8.949185139499604702e-04 -3.756375610828399658e-02 -8.405150845646858215e-03 1.732039637863636017e-02 6.115348264575004578e-02 7.269494980573654175e-02 4.256983101367950439e-02 7.917167991399765015e-02 3.919832780957221985e-02 3.016232699155807495e-02 2.382805757224559784e-02 2.442754432559013367e-02 2.572912909090518951e-02 -1.732957735657691956e-02 -6.533198803663253784e-02 -2.892363816499710083e-02 2.410652814432978630e-03 3.128078952431678772e-02 2.180450037121772766e-02 -2.469333121553063393e-03 -3.453754261136054993e-02 -2.642934443429112434e-03 1.759689487516880035e-02 5.970441550016403198e-02 -2.911134809255599976e-02 -2.050487883388996124e-02 -1.621254719793796539e-02 2.360616810619831085e-03 2.390509471297264099e-02 -3.144301846623420715e-02 -1.442025043070316315e-02 -2.568983286619186401e-02 -5.202493816614151001e-02 -8.500195108354091644e-03 -3.622157126665115356e-02 -1.419128384441137314e-02 1.230487693101167679e-02 4.800857976078987122e-02 -3.871663287281990051e-02 1.550127938389778137e-02 -2.241791225969791412e-02 4.148651286959648132e-02 -2.354642376303672791e-02 -3.565208986401557922e-02 1.210472267121076584e-02 1.996711082756519318e-02 -3.058504778891801834e-03 2.330534905195236206e-02 4.607356619089841843e-03 -4.297696426510810852e-02 -7.504453533329069614e-04 4.484559223055839539e-02 4.705183953046798706e-02 -2.177884988486766815e-02 2.063918672502040863e-02 2.866967581212520599e-02 3.096168860793113708e-02 1.108922529965639114e-02 -5.281728506088256836e-02 2.346161752939224243e-02 -8.619029074907302856e-03 -4.201680887490510941e-03 -3.253517672419548035e-02 -3.213434945791959763e-03 -3.255942137911915779e-03 6.055896170437335968e-03 4.161444678902626038e-02 1.580957323312759399e-02 1.028779521584510803e-02 2.233020961284637451e-02 -4.615180566906929016e-02 7.771098613739013672e-02 -4.721252620220184326e-02 7.223467342555522919e-03 -3.924113139510154724e-02 3.346370160579681396e-02 -7.557678502053022385e-03 -1.553846173919737339e-03 1.985017582774162292e-02 -3.369738114997744560e-03 -1.986083388328552246e-02 7.629528641700744629e-02 8.686210028827190399e-03 -1.981580443680286407e-02 1.064906173269264400e-04 3.427626192569732666e-02
-2.947417274117469788e-02 3.846671059727668762e-02 2.582567743957042694e-02 -8.675263379700481892e-04 7.296103984117507935e-03 -1.081003341823816299e-02 -3.095718566328287125e-03 2.691803732886910439e-03 -5.788002163171768188e-02 7.003650814294815063e-02 4.207581281661987305e-03 -2.423540875315666199e-02 -6.694197654724121094e-03 4.211885109543800354e-02 7.713696919381618500e-03 -2.641089446842670441e-02 -2.562125958502292633e-02 -9.255166165530681610e-03 -6.387296319007873535e-02 1.430372335016727448e-02 -6.268653087317943573e-03 3.056577779352664948e-02 1.266621239483356476e-02 2.018240652978420258e-02 1.109610311686992645e-02 -1.856245286762714386e-02 -2.428933419287204742e-02 -4.940672963857650757e-02 4.853174835443496704e-02 -7.030184380710124969e-03 4.040507599711418152e-02 -2.342036366462707520e-02 1.349442638456821442e-02 7.651865016669034958e-03 -3.570817038416862488e-02 -3.261688351631164551e-02 -2.717747166752815247e-02 -2.829022333025932312e-02 -2.413857169449329376e-02 -4.954174160957336426e-03 -3.589145094156265259e-02 1.935427263379096985e-02 -1.320532616227865219e-02 -1.375967916101217270e-02 1.869964413344860077e-02 -1.065188553184270859e-02 -4.367267712950706482e-03 -3.818343579769134521e-02 2.485038340091705322e-02 -4.209451004862785339e-02 -3.345682844519615173e-02 -3.939854446798563004e-03 8.853953331708908081e-03 -1.038169581443071365e-02 -3.077093278989195824e-03 -2.153603173792362213e-02 -2.993819303810596466e-02 6.270741671323776245e-02 -4.141950514167547226e-03 1.085343584418296814e-02 -5.877296440303325653e-03 -1.424117386341094971e-02 2.774550812318921089e-03 8.744012564420700073e-03 1.054998487234115601e-02 -3.924143966287374496e-03 -7.684097159653902054e-03 1.689214445650577545e-02 -5.850104615092277527e-02 4.728680104017257690e-02 1.571194268763065338e-02 -1.577649638056755066e-02 8.247533813118934631e-03 -1.038541365414857864e-02 3.462369786575436592e-03 6.290214601904153824e-03 -3.259099274873733521e-02 -6.347549706697463989e-02 -1.375798229128122330e-02 -2.052477747201919556e-02 1.165888644754886627e-02 -3.852098435163497925e-02 1.838365569710731506e-02 -6.668714433908462524e-02 -7.383293006569147110e-03 -6.600282154977321625e-03 -8.741433703107759356e-05 -2.852011471986770630e-02 -2.210918255150318146e-02 4.269733652472496033e-02 8.310862816870212555e-03 -5.713038891553878784e-02 1.868034340441226959e-02 1.952432328835129738e-03 3.245228901505470276e-02 1.645219139754772186e-02 -9.420369751751422882e-03 -1.743550039827823639e-02 -2.791181951761245728e-02 1.612559519708156586e-02 1.666529476642608643e-02 3.648049756884574890e-02 2.066928334534168243e-02 1.408817153424024582e-02 1.152564492076635361e-02 -1.976383477449417114e-02 -1.320022065192461014e-02 -6.593839824199676514e-02 -2.875963039696216583e-02 2.577248727902770042e-03 1.784568838775157928e-02 -3.739117830991744995e-02 2.174105495214462280e-02 -7.778796553611755371e-02 -1.785354688763618469e-02 -2.449819259345531464e-02 3.271030634641647339e-02 3.448265197221189737e-04 5.093247164040803909e-03 1.927823759615421295e-02 7.004575338214635849e-03 3.167879581451416016e-02 1.223149336874485016e-02 -6.188510358333587646e-02 -1.387995481491088867e-02 -4.446084797382354736e-02 1.493358332663774490e-02 -2.966451458632946014e-03 -3.746083006262779236e-02 -9.025841020047664642e-03 -9.051011502742767334e-02 -4.459820315241813660e-02 -3.456177935004234314e-02 -5.448539182543754578e-02 3.951058536767959595e-02 2.600581850856542587e-03 1.564392074942588806e-02 -4.690270125865936279e-02 -8.964069932699203491e-02 -2.082873135805130005e-02 5.179186351597309113e-03 -5.022219847887754440e-03 1.967689953744411469e-03 1.184646785259246826e-02 2.501407451927661896e-02 -3.978725150227546692e-02 -1.700893230736255646e-02 3.965090587735176086e-02 7.048670202493667603e-03 -1.363772805780172348e-02 1.885822042822837830e-02 1.618460752069950104e-02 2.038695104420185089e-02 -5.794070288538932800e-02 -3.400117531418800354e-02 6.465333700180053711e-02 5.495463497936725616e-03 -1.824915595352649689e-02 -3.202438354492187500e-02 2.002376131713390350e-02 5.419156514108181000e-03 -1.113018952310085297e-03 -6.954242940992116928e-03 -4.871764685958623886e-03 5.943105369806289673e-02 5.827763117849826813e-03 1.514413952827453613e-02 -7.678155601024627686e-02 -4.066750779747962952e-02 -4.673068597912788391e-02 3.339997725561261177e-03 -1.861671917140483856e-02 -8.328545838594436646e-03 1.612920127809047699e-02 -1.201961189508438110e-02 1.066382788121700287e-02 1.014571078121662140e-02 -3.638540208339691162e-02 -7.663795258849859238e-03 -6.244628690183162689e-03 2.418318949639797211e-02 -8.116629719734191895e-02 2.546473406255245209e-02 -1.113918493501842022e-03 -2.126220986247062683e-02 2.879573404788970947e-02 4.567015450447797775e-03 5.087878089398145676e-03 2.155185118317604065e-02 1.426976826041936874e-02 -2.157440781593322754e-02 3.343062475323677063e-02 -1.899064704775810242e-02 1.099210232496261597e-02 4.848506767302751541e-03 6.312330719083547592e-03 -7.144749630242586136e-03 2.675892412662506104e-02 -4.389912355691194534e-03 2.838169597089290619e-02 -2.495442330837249756e-02 8.456801064312458038e-03 -3.035122528672218323e-02 -4.165140539407730103e-02 -1.765652094036340714e-03 -2.830375730991363525e-02 1.590730063617229462e-02 -1.310806162655353546e-02 4.044210538268089294e-02 -1.355801429599523544e-02 1.766730472445487976e-02 2.018016763031482697e-03 -3.956334292888641357e-02 -8.322170935571193695e-03 -2.107715792953968048e-02 1.904493570327758789e-02 3.058575093746185303e-02 -5.134891346096992493e-02 -3.243664279580116272e-02 -2.937939763069152832e-02 2.672385657206177711e-03 -1.552824210375547409e-02 -3.381034731864929199e-02 -1.294435001909732819e-02 -4.167885333299636841e-02 -1.786752045154571533e-02 6.661608815193176270e-03 2.500345930457115173e-03 9.241772443056106567e-02 -5.062423646450042725e-02 -2.168602868914604187e-02 4.232710227370262146e-03 -1.743380539119243622e-02 3.512378409504890442e-02 1.337817683815956116e-02 -4.251288622617721558e-02 -5.356326699256896973e-03 -4.157358407974243164e-02 2.643567044287919998e-03 4.128832742571830750e-02 1.605883054435253143e-02 1.909179612994194031e-02 -2.554850280284881592e-02 2.162515372037887573e-02 3.295250236988067627e-02 -4.135841876268386841e-02 -3.429998643696308136e-03 1.729270210489630699e-03 -1.919498108327388763e-02 1.785857789218425751e-02 -2.550457231700420380e-02 2.726652426645159721e-03 -3.657505288720130920e-02 2.386638149619102478e-02 -1.268983725458383560e-02 -1.799250207841396332e-02 1.482304744422435760e-02 -3.151007462292909622e-03 -2.672740444540977478e-02 9.427084587514400482e-03 -2.537336200475692749e-02 -3.232281282544136047e-02 1.647372543811798096e-02 4.550113528966903687e-02 9.978533722460269928e-03 7.594401389360427856e-02 -2.005002927035093307e-03 6.121885031461715698e-03 -8.576069772243499756e-02 -2.541553229093551636e-03 -2.124389447271823883e-02 -1.563825085759162903e-02 1.533772592665627599e-05 2.347252145409584045e-02 4.588922858238220215e-02 4.153727088123559952e-03 -6.466223299503326416e-02 -3.736046375706791878e-03 1.194663718342781067e-02 -1.464733108878135681e-02 -4.187387228012084961e-02 1.127477455884218216e-02 7.526102941483259201e-03 -1.466707699000835419e-02 4.086285457015037537e-02 -2.543894574046134949e-02 2.249666303396224976e-02 -2.360441163182258606e-02 2.974801324307918549e-02 -5.333269760012626648e-02 1.160912774503231049e-02 4.136734455823898315e-02 -1.617416623048484325e-03 8.434430696070194244e-03 -6.007148884236812592e-03 -3.263723850250244141e-02 -1.271487399935722351e-02 -1.166098937392234802e-02 -2.121310867369174957e-02 1.284028217196464539e-02
-7.981989532709121704e-03 -9.517159312963485718e-03 4.167145490646362305e-02 3.349051810801029205e-03 1.891382224857807159e-02 -3.254294162616133690e-03 -1.642728783190250397e-02 -9.501935914158821106e-03 6.016264110803604126e-02 1.780585385859012604e-02 3.693055734038352966e-02 8.843164891004562378e-03 -1.286168303340673447e-02 -5.479029938578605652e-02 2.992680668830871582e-02 -2.137460745871067047e-02 -1.302228681743144989e-02 -1.080540381371974945e-02 -5.801151320338249207e-02 1.844435581006109715e-03 -1.813177578151226044e-02 -7.026208937168121338e-02 2.535042725503444672e-02 5.414761975407600403e-02 5.016911402344703674e-02 3.704956173896789551e-02 9.137255139648914337e-03 1.959154568612575531e-02 -5.498625338077545166e-03 2.814274281263351440e-02 3.656797111034393311e-02 -3.435918316245079041e-02 1.907112263143062592e-02 -3.294780850410461426e-02 4.305899783503264189e-04 -4.721540026366710663e-03 9.312664158642292023e-03 -2.495271898806095123e-02 -6.343703716993331909e-02 6.353274732828140259e-02 -2.342510037124156952e-02 6.484976410865783691e-02 5.165648180991411209e-03 6.536116823554039001e-03 2.122781611979007721e-02 -2.968082390725612640e-02 -2.656309865415096283e-02 4.512533545494079590e-02 3.946826979517936707e-02 1.590394601225852966e-02 8.901549503207206726e-03 -1.231480971910059452e-03 2.550651319324970245e-03 3.067230060696601868e-02 -1.147679425776004791e-02 3.818782046437263489e-02 4.859355837106704712e-02 -3.431557491421699524e-02 3.198509663343429565e-02 1.311371847987174988e-02 -7.004883885383605957e-02 2.554715238511562347e-02 1.121607609093189240e-02 1.068621780723333359e-02 -6.733869668096303940e-03 3.988360054790973663e-03 3.026912361383438110e-02 3.605681005865335464e-03 7.290555536746978760e-02 3.040472604334354401e-02 1.109412778168916702e-02 1.610920391976833344e-02 -3.157988190650939941e-02 -4.218969121575355530e-02 -2.317185141146183014e-02 -5.688980594277381897e-02 -2.980758063495159149e-02 -2.227925509214401245e-02 -1.327548269182443619e-02 7.496445323340594769e-04 -6.660634651780128479e-03 -1.623012125492095947e-02 2.051100134849548340e-02 3.908729553222656250e-02 -6.191724445670843124e-03 2.481596358120441437e-02 5.529428832232952118e-03 -2.595303021371364594e-02 -2.856240840628743172e-03 1.689355634152889252e-02 4.021444171667098999e-02 -1.129389367997646332e-02 4.890478774905204773e-02 1.856568455696105957e-02 6.297218799591064453e-02 2.049874700605869293e-02 1.000586431473493576e-02 -2.040092088282108307e-02 -2.475548768416047096e-03 3.688637539744377136e-02 -1.506263576447963715e-02 -1.022670418024063110e-02 -4.542372748255729675e-02 1.950226537883281708e-02 2.266037650406360626e-02 -2.367958985269069672e-02 -2.867252565920352936e-03 1.465853769332170486e-03 -4.160067811608314514e-02 -3.467868268489837646e-02 2.401050552725791931e-02 8.733636699616909027e-03 3.563163429498672485e-02 -8.267450146377086639e-03 -4.140603542327880859e-02 -1.333439815789461136e-02 1.467937789857387543e-02 2.989513333886861801e-03 6.567947566509246826e-03 -1.059093978255987167e-02 3.941833972930908203e-03 -4.692412447184324265e-03 -4.190513864159584045e-02 -7.106154412031173706e-02 3.652571886777877808e-02 1.426484063267707825e-02 6.568372715264558792e-03 4.396212100982666016e-02 1.246089464984834194e-03 -1.547666359692811966e-02 -6.436970829963684082e-02 9.924108162522315979e-03 6.461563985794782639e-03 4.963216837495565414e-03 3.123265504837036133e-02 -1.879949867725372314e-02 7.156503945589065552e-02 -1.564176566898822784e-02 7.243350148200988770e-02 1.332043856382369995e-02 -1.311195269227027893e-02 -3.177105635404586792e-02 1.431029476225376129e-02 -8.992837741971015930e-03 -1.931374892592430115e-02 -9.291626629419624805e-04 1.012018881738185883e-02 -2.168780006468296051e-02 1.490250229835510254e-02 -7.353175431489944458e-02 -1.132814120501279831e-02 -7.922440767288208008e-03 1.659425906836986542e-02 1.201024395413696766e-03 -7.776372600346803665e-03 6.449490785598754883e-03 1.123678963631391525e-02 3.839444741606712341e-02 1.822466775774955750e-02 4.492818564176559448e-02 4.341970384120941162e-02 1.853304915130138397e-02 -2.619263529777526855e-02 -1.239828485995531082e-02 -1.424349844455718994e-02 -2.760707773268222809e-02 7.595087401568889618e-03 3.420453052967786789e-03 2.625793963670730591e-02 3.033955767750740051e-02 1.455892156809568405e-02 -2.824541926383972168e-02 -1.152245909906923771e-03 3.626278787851333618e-02 3.253218904137611389e-02 2.660649083554744720e-02 2.109183929860591888e-02 1.171862054616212845e-02 2.128427848219871521e-02 -5.353883840143680573e-03 -6.310569494962692261e-02 1.815039478242397308e-02 1.003997866064310074e-02 2.780465409159660339e-02 -1.934477314352989197e-02 2.199975401163101196e-02 -4.092017188668251038e-02 2.552251890301704407e-02 9.641881100833415985e-03 2.147387713193893433e-03 -3.262882679700851440e-02 2.427822910249233246e-02 -1.214585918933153152e-02 -1.324413809925317764e-02 -1.040921546518802643e-02 1.512913871556520462e-02 -2.370852977037429810e-02 1.330643799155950546e-02 -4.120887070894241333e-02 -2.220459049567580223e-03 -2.992846071720123291e-02 2.329432405531406403e-02 -5.158307403326034546e-02 -2.600748091936111450e-02 1.997124217450618744e-02 -1.245731767266988754e-02 -2.517961431294679642e-03 -1.312343217432498932e-02 -1.951050944626331329e-02 3.103664517402648926e-02 1.327357534319162369e-02 1.061811856925487518e-02 2.861526422202587128e-02 1.817123498767614365e-03 -1.364073436707258224e-02 1.312750577926635742e-02 -2.649096958339214325e-02 4.446281865239143372e-02 2.386058494448661804e-02 -3.036393597722053528e-02 -4.038293659687042236e-02 1.496897079050540924e-02 1.362965814769268036e-02 1.104968227446079254e-02 -9.020883589982986450e-03 1.218450348824262619e-02 1.055803894996643066e-02 4.287727922201156616e-02 1.267426274716854095e-02 -4.752178117632865906e-02 3.571419045329093933e-02 1.185019966214895248e-02 2.374272234737873077e-02 1.825947314500808716e-02 -4.876655340194702148e-02 -2.020741067826747894e-02 -5.646152049303054810e-02 -2.755075320601463318e-02 -8.081260137259960175e-03 5.051932856440544128e-02 2.585651353001594543e-02 1.688528433442115784e-02 3.745734319090843201e-02 -8.676388300955295563e-03 1.618312858045101166e-02 3.737966762855648994e-03 -1.074930746108293533e-02 6.707888096570968628e-02 -4.350558668375015259e-02 3.125967457890510559e-02 2.896486967802047729e-02 -3.119329549372196198e-02 -8.685224689543247223e-03 -6.730794906616210938e-03 -2.362826652824878693e-02 3.012120537459850311e-02 -2.849340625107288361e-02 2.686546929180622101e-02 1.450302451848983765e-02 4.159593954682350159e-04 -1.784574589692056179e-03 1.442057918757200241e-02 2.177404426038265228e-02 -1.477656041970476508e-04 7.745946757495403290e-03 1.453595701605081558e-02 5.148029699921607971e-02 -1.187346689403057098e-02 1.050839293748140335e-02 -1.737520657479763031e-02 4.058794304728507996e-02 -3.474003449082374573e-02 1.778043952072039247e-04 9.386046789586544037e-03 -1.357798557728528976e-02 2.037355676293373108e-02 7.435763836838304996e-04 7.509361952543258667e-03 5.708266515284776688e-03 5.253979563713073730e-02 1.718788594007492065e-02 4.220234602689743042e-02 1.974149420857429504e-02 2.411177754402160645e-02 -5.207113455981016159e-03 1.240038312971591949e-02 -1.629976369440555573e-02 -2.656110934913158417e-02 5.901113618165254593e-04 -8.008279651403427124e-02 1.736137457191944122e-02 3.348381817340850830e-02 5.270661786198616028e-02 6.008243653923273087e-03 3.209406509995460510e-02 7.413114421069622040e-03 2.319371700286865234e-02 3.639668598771095276e-02 2.962184138596057892e-03 1.499043125659227371e-02
