2.737213624641299248e-03 6.643498688936233521e-02 -7.152474485337734222e-03 -2.342782728374004364e-02 -4.777415469288825989e-02 1.125455833971500397e-02 -2.017487771809101105e-02 2.702377177774906158e-02 4.095321893692016602e-02 2.577679418027400970e-02 1.058940030634403229e-02 8.629831485450267792e-03 -3.875161753967404366e-03 9.935709647834300995e-03 2.015078999102115631e-02 -4.229393601417541504e-02 -9.252312593162059784e-03 1.337277330458164215e-02 -2.201554924249649048e-02 -5.421507172286510468e-03 5.206586793065071106e-03 -1.847459748387336731e-02 3.366734459996223450e-02 1.916426792740821838e-02 -3.065856918692588806e-02 1.048470661044120789e-02 4.235693812370300293e-02 1.634696125984191895e-02 1.139879971742630005e-02 1.641047373414039612e-02 -2.420204132795333862e-02 1.412900909781455994e-02 -4.143450036644935608e-02 -1.416054740548133850e-02 -2.236355282366275787e-02 -3.204400092363357544e-02 -1.024017459712922573e-03 2.650389913469552994e-03 2.416287735104560852e-02 -8.701591752469539642e-03 -2.714148163795471191e-02 5.471593234688043594e-03 6.385768949985504150e-02 -9.701990522444248199e-03 2.612793818116188049e-02 5.996106564998626709e-02 -2.971904724836349487e-02 -5.384290218353271484e-02 -2.949773147702217102e-02 -2.935314259957522154e-04 1.110231410712003708e-02 -2.705272845923900604e-02 -1.499458868056535721e-02 -1.537521369755268097e-02 -4.191593825817108154e-02 5.957022309303283691e-03 -2.702287770807743073e-02 3.613495081663131714e-02 2.602018415927886963e-02 -2.606923691928386688e-03 1.275279559195041656e-02 -4.953942447900772095e-02 -5.868974700570106506e-02 -1.939921639859676361e-02 4.218048974871635437e-02 4.586860071867704391e-03 -1.675602252362295985e-04 -9.488309733569622040e-03 4.894443228840827942e-02 1.993111521005630493e-02 1.387816946953535080e-02 3.238319605588912964e-02 5.991821363568305969e-02 1.695548929274082184e-02 -3.225612640380859375e-02 5.615072324872016907e-02 -4.177565278951078653e-04 -2.421063557267189026e-02 8.477698080241680145e-03 -2.337626554071903229e-02 -3.446873277425765991e-02 1.407723128795623779e-02 -3.039364516735076904e-02 -4.870524257421493530e-02 1.153973489999771118e-02 6.317663006484508514e-03 2.149343781638890505e-04 3.495059162378311157e-02 -4.010184109210968018e-02 -4.376301076263189316e-03 -2.563186362385749817e-02 8.201353251934051514e-03 6.074414588510990143e-03 5.583478510379791260e-02 -6.442438066005706787e-02 -2.713074162602424622e-02 -3.962353244423866272e-02 -1.236917171627283096e-02 -2.110301703214645386e-02 6.474902480840682983e-02 2.294104173779487610e-02 4.378272593021392822e-02 1.081850007176399231e-02 -1.937560178339481354e-02 6.932492833584547043e-03 6.693544238805770874e-02 -9.343216195702552795e-03 -2.420355752110481262e-02 -2.172238752245903015e-02 -2.491606585681438446e-02 2.887958846986293793e-02 -1.604930264875292778e-03 1.588440500199794769e-04 1.523913815617561340e-03 -9.106157347559928894e-03 9.289217414334416389e-04 -9.772828780114650726e-03 -1.021759025752544403e-02 -2.823402173817157745e-02 -3.710614889860153198e-02 -1.286641415208578110e-02 6.632170639932155609e-03 -4.474274069070816040e-02 -3.843107493594288826e-03 1.032343693077564240e-02 -3.610609844326972961e-02 2.182598458603024483e-03 -1.292494032531976700e-02 -3.359717549756169319e-03 2.039089798927307129e-02 -4.454215243458747864e-02 2.426254190504550934e-02 5.544766038656234741e-02 1.694240048527717590e-02 -4.067404661327600479e-03 6.291574332863092422e-03 7.575728744268417358e-02 3.303549252450466156e-03 8.680155500769615173e-03 -2.989143133163452148e-02 1.691158488392829895e-02 7.851225137710571289e-02 -2.559433225542306900e-03 1.082754507660865784e-02 1.372475177049636841e-02 -6.682530976831912994e-03 -8.306546136736869812e-03 2.549496665596961975e-02 7.361714728176593781e-03 -3.504132851958274841e-02 1.709286309778690338e-02 3.442001296207308769e-03 -3.424854949116706848e-02 -2.809729054570198059e-02 2.319137752056121826e-02 -1.315456070005893707e-02 4.221556335687637329e-02 3.775347024202346802e-02 3.842170117422938347e-03 -2.893312834203243256e-03 4.886274039745330811e-02 1.745245233178138733e-02 2.350962907075881958e-02 1.765150949358940125e-02 5.838365294039249420e-03 -2.485905028879642487e-02 2.000441960990428925e-02 2.325968816876411438e-02 6.787507329136133194e-03 -2.880960889160633087e-02 1.079916115850210190e-02 3.741176426410675049e-02 -3.892253339290618896e-02 1.268613152205944061e-02 -6.559372879564762115e-03 1.588973589241504669e-02 9.014836698770523071e-02 -2.083372138440608978e-02 2.243750169873237610e-02 -3.317131474614143372e-02 -3.016975708305835724e-02 3.389154002070426941e-02 -4.389133770018815994e-03 7.282175589352846146e-03 -1.660702936351299286e-02 -1.697744056582450867e-02 2.871652506291866302e-02 -1.599945314228534698e-02 1.757089397870004177e-03 -3.761041536927223206e-02 1.578922197222709656e-02 1.269190385937690735e-02 -3.316480293869972229e-02 4.879103228449821472e-02 -4.299170151352882385e-02 2.707673609256744385e-02 -5.051996186375617981e-02 3.673021867871284485e-02 -1.824652962386608124e-02 3.499875590205192566e-02 1.166362594813108444e-02 3.098402917385101318e-02 2.257931046187877655e-02 1.667676307260990143e-02 -7.318465039134025574e-03 -6.173280999064445496e-04 5.805880948901176453e-02 5.261286627501249313e-03 -7.733155507594347000e-03 -1.215529337059706450e-04 -6.757559720426797867e-03 -1.088681514374911785e-03 4.472364671528339386e-03 -3.775805979967117310e-02 5.944816768169403076e-02 -3.119394183158874512e-02 7.789382711052894592e-03 -3.516961634159088135e-02 -8.346858434379100800e-03 -1.822742074728012085e-02 -5.431545898318290710e-02 8.398800157010555267e-03 -1.985696144402027130e-02 1.164928544312715530e-03 9.455892257392406464e-03 -4.819386452436447144e-02 1.940986327826976776e-02 8.714537136256694794e-03 3.296891599893569946e-02 1.504487823694944382e-02 -2.200544066727161407e-02 -2.093146089464426041e-03 -7.194262463599443436e-03 -3.511163173243403435e-03 3.081107139587402344e-02 -1.567925699055194855e-02 3.210453689098358154e-02 -3.390988335013389587e-03 -5.946144461631774902e-03 3.408040478825569153e-02 -1.143166888505220413e-02 -9.357677772641181946e-03 -1.826558960601687431e-03 -2.964294888079166412e-02 1.280406396836042404e-02 -7.052819430828094482e-02 -1.760484650731086731e-02 2.192238345742225647e-02 -4.862846340984106064e-03 6.401947140693664551e-02 7.168613374233245850e-02 7.950933650135993958e-03 -2.410396700724959373e-03 4.472362343221902847e-03 -9.222014807164669037e-03 -2.798794955015182495e-02 -1.558055263012647629e-02 5.153404176235198975e-02 3.494656458497047424e-02 -9.273664094507694244e-03 -6.113721989095211029e-03 -1.794690079987049103e-02 -1.040280051529407501e-02 -1.992954500019550323e-02 1.739329844713211060e-02 7.994460873305797577e-03 -7.599127944558858871e-03 3.720621392130851746e-02 1.959369890391826630e-02 9.939013980329036713e-03 -3.077561734244227409e-03 7.421225775033235550e-03 -5.879496037960052490e-02 -8.800686337053775787e-03 -9.631343185901641846e-03 -2.543999813497066498e-02 -5.014462769031524658e-02 -5.107912421226501465e-02 5.258817970752716064e-02 -2.271164394915103912e-02 1.456440147012472153e-02 2.946760505437850952e-02 -2.028300985693931580e-02 1.622207276523113251e-02 -3.186886385083198547e-02 1.168202422559261322e-02 -2.351573482155799866e-02 3.558015078306198120e-02 -4.452931508421897888e-02 5.200661718845367432e-02 -8.337930776178836823e-03 -1.606629346497356892e-03 1.713062822818756104e-02 2.150273509323596954e-02 1.205152552574872971e-02 -2.450348250567913055e-02 6.029481999576091766e-03 -8.968606591224670410e-03 1.611361093819141388e-02 -4.676278308033943176e-02
-3.025582991540431976e-02 7.267423719167709351e-02 -7.033274509012699127e-03 -1.200485229492187500e-02 5.336825549602508545e-02 1.256046909838914871e-02 1.728915236890316010e-02 3.755068778991699219e-02 1.864630915224552155e-02 6.683846935629844666e-03 3.724918141961097717e-02 2.884689951315522194e-03 -1.983249792829155922e-03 -2.904033660888671875e-02 3.570622997358441353e-03 3.526575490832328796e-02 6.259237852646037936e-05 -4.336189944297075272e-03 1.664986647665500641e-02 -8.063028566539287567e-03 -3.803723305463790894e-02 1.040395814925432205e-02 3.410426154732704163e-02 1.759734749794006348e-02 -6.178807932883501053e-03 6.607464514672756195e-03 3.507570549845695496e-02 -1.719107851386070251e-02 -1.875268854200839996e-02 3.982706367969512939e-02 2.266401052474975586e-02 -2.169276773929595947e-02 3.453608602285385132e-02 1.314588822424411774e-03 -6.798848044127225876e-03 1.911592110991477966e-02 1.203288673423230648e-03 -6.852048914879560471e-03 2.035366138443350792e-03 1.053614169359207153e-02 8.541250228881835938e-02 -1.400568895041942596e-02 2.802490442991256714e-02 -7.658808957785367966e-03 -1.400849316269159317e-02 -1.658083684742450714e-02 -3.533555939793586731e-02 8.507195115089416504e-02 1.645340584218502045e-02 -7.519274204969406128e-02 1.831858977675437927e-02 -2.711969241499900818e-02 1.335346419364213943e-02 -4.835535958409309387e-02 -3.215400502085685730e-02 4.925800859928131104e-02 -1.988267526030540466e-02 4.290359467267990112e-02 -1.752053759992122650e-02 -1.440407009795308113e-03 3.489856794476509094e-02 2.891912683844566345e-02 1.884312485344707966e-03 -2.762525342404842377e-02 4.067157208919525146e-02 -1.963339513167738914e-03 -2.921245177276432514e-04 1.899909693747758865e-03 -1.384000293910503387e-02 -1.330551458522677422e-03 -5.317567847669124603e-03 3.686100989580154419e-02 4.460504651069641113e-02 4.213764891028404236e-02 1.653581485152244568e-02 1.310813240706920624e-02 -1.036163885146379471e-02 1.775604486465454102e-02 -1.997763104736804962e-02 5.682037398219108582e-02 7.262801378965377808e-02 -2.890603151172399521e-03 2.294243313372135162e-02 6.445878744125366211e-02 -3.786952048540115356e-02 1.473848521709442139e-02 2.498299255967140198e-02 5.108761414885520935e-02 -5.493249744176864624e-03 -4.092677496373653412e-03 2.965455316007137299e-02 4.287246242165565491e-02 2.725746296346187592e-02 2.615995518863201141e-02 -1.789573207497596741e-02 7.866798900067806244e-03 -5.116134416311979294e-03 -1.521494798362255096e-02 1.215945463627576828e-02 1.244991784915328026e-03 -2.845674520358443260e-03 -1.984571572393178940e-03 -2.896494045853614807e-02 2.521251142024993896e-02 2.913443930447101593e-02 4.772481694817543030e-02 -3.512194752693176270e-02 -1.619386486709117889e-02 2.194450423121452332e-02 2.672115154564380646e-02 5.434923991560935974e-02 9.125152602791786194e-03 3.950193151831626892e-02 4.880461376160383224e-03 -3.453355282545089722e-02 -1.220823498442769051e-03 -9.267345303669571877e-04 -4.951394721865653992e-02 -1.736188493669033051e-02 4.381531104445457458e-02 4.229100793600082397e-02 -7.114161271601915359e-04 2.293259091675281525e-02 -4.464988410472869873e-02 7.383872568607330322e-02 -2.323322184383869171e-02 4.132848232984542847e-02 -2.190225198864936829e-02 -2.975227311253547668e-03 3.569894935935735703e-03 -1.696633175015449524e-02 2.595984376966953278e-02 1.041462086141109467e-02 4.461658652871847153e-03 4.910302534699440002e-02 5.598969012498855591e-02 7.814279198646545410e-02 -4.975095856934785843e-03 7.784816622734069824e-02 5.028292536735534668e-02 3.582070767879486084e-02 2.824105881154537201e-02 8.326405659317970276e-03 -2.022831514477729797e-02 3.304414916783571243e-03 -3.243606165051460266e-02 4.065250395797193050e-04 2.078549377620220184e-02 3.441802784800529480e-02 1.749765500426292419e-02 -3.626954741775989532e-03 -9.706222452223300934e-03 -2.372501604259014130e-02 7.898069918155670166e-03 4.276506230235099792e-02 4.017579555511474609e-02 5.729939043521881104e-02 1.741437427699565887e-02 4.937528073787689209e-02 -2.368617616593837738e-02 -3.563746111467480659e-03 -1.430161762982606888e-02 -6.858400884084403515e-04 2.695900760591030121e-02 1.314598321914672852e-02 8.640717715024948120e-04 8.195402100682258606e-03 -1.096724160015583038e-02 4.444764554500579834e-02 4.988650325685739517e-04 6.899661850184202194e-03 1.432711142115294933e-03 -2.533133886754512787e-02 1.575615257024765015e-02 3.131994977593421936e-02 5.115592479705810547e-02 1.748296245932579041e-02 -2.294845879077911377e-02 1.424234174191951752e-02 -5.804876238107681274e-02 9.495772421360015869e-03 1.412415411323308945e-02 3.071038611233234406e-02 -2.850268408656120300e-02 3.258803486824035645e-02 1.341871637850999832e-02 1.876320876181125641e-02 -3.097704611718654633e-03 -1.614128937944769859e-03 2.484230883419513702e-02 1.029435079544782639e-02 1.073011849075555801e-02 -2.802600525319576263e-02 5.229639261960983276e-02 -2.637586742639541626e-02 5.981445685029029846e-02 -4.309434909373521805e-03 1.295630913227796555e-02 1.270596124231815338e-02 6.054682657122612000e-02 1.258233375847339630e-02 -1.014724490232765675e-03 2.711632288992404938e-03 -8.385218097828328609e-04 -3.014058619737625122e-02 -3.969692438840866089e-02 6.263325363397598267e-02 -1.245318260043859482e-02 -1.839941926300525665e-02 2.986406721174716949e-02 -4.128659144043922424e-02 -1.652879081666469574e-02 3.115291008725762367e-03 1.510427705943584442e-02 -7.809959817677736282e-03 3.911789506673812866e-02 5.932252481579780579e-02 2.418175339698791504e-02 -1.225310005247592926e-02 1.322136353701353073e-02 -1.292545255273580551e-02 -1.812946982681751251e-02 -4.813831765204668045e-03 2.891301875934004784e-03 3.098652698099613190e-02 2.689286880195140839e-02 3.276946954429149628e-04 -3.908995911478996277e-02 -3.322238102555274963e-02 -3.095079399645328522e-02 -3.083158656954765320e-02 2.780349366366863251e-02 -1.846668869256973267e-02 -2.112070843577384949e-02 8.229779079556465149e-03 9.824725985527038574e-02 -6.302730645984411240e-03 3.048653341829776764e-02 -3.938982728868722916e-03 1.703557185828685760e-02 -2.745682373642921448e-03 -3.592607378959655762e-02 -9.028336498886346817e-04 3.332630917429924011e-02 -2.749328967183828354e-03 -9.736761450767517090e-03 6.355857476592063904e-03 2.116091176867485046e-02 1.789771951735019684e-02 -5.102066788822412491e-03 9.585447609424591064e-02 2.185169607400894165e-02 6.135848816484212875e-03 3.811876848340034485e-02 4.278668016195297241e-02 7.414767891168594360e-02 -1.262959837913513184e-02 -1.918705762363970280e-03 1.578932255506515503e-02 -2.216923050582408905e-02 -5.171462427824735641e-03 -4.252183809876441956e-02 -1.992942020297050476e-02 -3.409338742494583130e-02 5.603040009737014771e-02 -1.526753325015306473e-02 3.274863958358764648e-02 4.128162562847137451e-02 3.937954548746347427e-03 7.334042340517044067e-02 -3.572368249297142029e-02 -5.100056994706392288e-03 -1.046296656131744385e-01 5.225124768912792206e-03 -2.435184828937053680e-02 -5.352254025638103485e-03 1.009098906069993973e-02 -1.342788897454738617e-02 8.774016052484512329e-03 1.009751632809638977e-01 3.740447387099266052e-02 2.669125795364379883e-02 7.256279233843088150e-03 1.642601191997528076e-02 -3.102496452629566193e-02 3.111221455037593842e-02 -4.951358307152986526e-03 1.128890458494424820e-02 -3.258204087615013123e-02 -8.509817533195018768e-03 -1.653083227574825287e-02 -9.703896939754486084e-03 -3.001756779849529266e-02 3.028116934001445770e-02 2.424245700240135193e-02 -1.720585860311985016e-02 1.801588386297225952e-02 -4.204254969954490662e-02 -4.509061109274625778e-03 5.825104657560586929e-03
-6.378103047609329224e-03 -1.235772948712110519e-02 5.198531597852706909e-02 -1.049276720732450485e-02 4.234329238533973694e-02 -3.314429661259055138e-03 3.946169465780258179e-02 -4.334859549999237061e-03 -1.273719035089015961e-02 2.916764095425605774e-02 -1.129288226366043091e-02 2.017352962866425514e-03 9.809856237552594393e-06 -4.784943908452987671e-02 5.580489337444305420e-02 5.524671450257301331e-02 3.125781938433647156e-02 -2.974595408886671066e-03 -4.769667983055114746e-02 3.483015671372413635e-02 4.001454263925552368e-02 3.380082082003355026e-03 1.323557924479246140e-02 5.225694924592971802e-02 4.402900114655494690e-02 4.427558276802301407e-03 -2.126989513635635376e-02 1.537906844168901443e-02 -4.604850336909294128e-02 1.699439622461795807e-02 -1.357092987746000290e-02 1.647973991930484772e-02 1.600791700184345245e-02 -6.290137767791748047e-03 2.623431570827960968e-02 5.134205892682075500e-02 1.230603922158479691e-02 -5.947375670075416565e-02 -8.724324405193328857e-03 -3.133192285895347595e-02 3.034995496273040771e-02 2.790133585222065449e-04 3.939098492264747620e-02 2.226939238607883453e-02 1.440981402993202209e-02 3.117638640105724335e-02 1.470647286623716354e-02 2.912593074142932892e-02 4.624710232019424438e-02 -2.408570982515811920e-02 -5.496211815625429153e-03 -7.033869158476591110e-03 2.532092155888676643e-03 -5.174738354980945587e-03 -4.457764327526092529e-02 1.087146718055009842e-02 4.230508953332901001e-02 -1.017728121951222420e-03 3.220154717564582825e-02 1.811208319850265980e-03 3.788439556956291199e-02 3.859063237905502319e-02 4.181253165006637573e-02 1.096614636480808258e-03 -4.437772929668426514e-02 3.549517318606376648e-02 3.054260043427348137e-03 -1.911559700965881348e-02 -3.502266854047775269e-02 2.887845784425735474e-02 -1.062828022986650467e-02 -1.885697059333324432e-02 3.618022426962852478e-02 3.855507820844650269e-02 2.456695027649402618e-02 -7.106720656156539917e-02 -1.985103450715541840e-02 3.096185438334941864e-02 1.634574611671268940e-03 5.332620348781347275e-03 4.039363563060760498e-02 8.634235709905624390e-03 5.586895719170570374e-02 -1.983820088207721710e-02 -1.881117373704910278e-02 2.566816750913858414e-03 -1.163422223180532455e-02 3.290826082229614258e-02 4.140223562717437744e-02 -2.863863110542297363e-02 3.696288540959358215e-02 -6.896780431270599365e-02 -2.184726111590862274e-02 -1.340412255376577377e-02 1.325717940926551819e-02 -1.004133652895689011e-02 -2.097411267459392548e-02 2.431828528642654419e-02 1.070067659020423889e-02 3.707896219566464424e-03 -4.469812288880348206e-02 -1.799182966351509094e-02 -8.651686832308769226e-03 -2.686838246881961823e-02 2.862343564629554749e-03 -8.528266847133636475e-02 1.555275637656450272e-02 -9.200280532240867615e-03 3.976005315780639648e-02 4.765743855386972427e-03 -2.416629903018474579e-02 -8.837736211717128754e-03 -4.345846921205520630e-02 9.141217917203903198e-03 3.064250014722347260e-02 -1.409457065165042877e-02 6.269577424973249435e-03 -2.061181887984275818e-02 -2.584502333775162697e-03 1.851632073521614075e-02 3.350099176168441772e-02 -9.089200757443904877e-03 3.743903711438179016e-02 2.643914707005023956e-02 5.465115234255790710e-02 3.450822457671165466e-02 -4.885958041995763779e-03 5.242731422185897827e-02 5.564361810684204102e-03 1.630472578108310699e-02 -3.167796880006790161e-02 1.428964361548423767e-02 4.402196034789085388e-03 -7.625170983374118805e-03 -4.792640358209609985e-02 2.639388199895620346e-03 -4.006831720471382141e-02 2.101442404091358185e-02 -4.691139981150627136e-02 1.042027119547128677e-02 -5.308639630675315857e-02 5.484955850988626480e-03 -4.073933232575654984e-03 -1.955539360642433167e-02 2.211264101788401604e-03 5.575796589255332947e-03 -3.058966435492038727e-02 -3.033884800970554352e-02 4.907243326306343079e-02 1.024896744638681412e-02 -3.913885727524757385e-02 8.020984008908271790e-03 -2.185063622891902924e-02 2.254184521734714508e-02 2.550349757075309753e-02 1.609642617404460907e-02 -3.047264367341995239e-02 -9.715530090034008026e-03 2.416364382952451706e-03 9.175691753625869751e-03 -3.492091782391071320e-03 3.349761664867401123e-02 1.846508681774139404e-02 -2.934797666966915131e-02 2.173152007162570953e-02 -1.194232981652021408e-02 6.224484182894229889e-03 2.652908302843570709e-02 6.230682134628295898e-03 2.825051487889140844e-04 7.335884962230920792e-03 2.335647121071815491e-03 8.674899116158485413e-03 1.359985396265983582e-02 1.498724240809679031e-02 -4.768380522727966309e-02 3.027116134762763977e-02 9.353959001600742340e-03 -2.145408466458320618e-02 1.157578919082880020e-02 1.613641902804374695e-02 3.024715464562177658e-03 2.667953632771968842e-02 2.305611968040466309e-02 -2.177025191485881805e-02 -3.037129295989871025e-03 -1.565690152347087860e-02 -4.732704535126686096e-02 -3.178578987717628479e-02 -2.136258408427238464e-02 2.123775333166122437e-02 4.265229776501655579e-02 4.719156771898269653e-02 -1.807568408548831940e-02 -3.843819722533226013e-02 7.938111200928688049e-03 5.364083219319581985e-03 1.367519516497850418e-02 9.773802012205123901e-03 2.936502173542976379e-02 -2.542282082140445709e-02 1.820157282054424286e-03 2.114517241716384888e-02 -1.149199679493904114e-01 2.391805127263069153e-02 1.715454459190368652e-02 4.442008584737777710e-02 3.517984971404075623e-02 1.893127802759408951e-03 4.840312525629997253e-03 -1.868594321422278881e-03 4.546465817838907242e-03 -1.478381338529288769e-03 -5.856793723069131374e-04 -2.582710981369018555e-02 -7.519695442169904709e-03 -2.198803611099720001e-02 -1.635654456913471222e-02 1.608154363930225372e-02 -6.149302236735820770e-03 4.453737754374742508e-03 -2.834458835422992706e-02 3.999916091561317444e-02 6.235719192773103714e-04 -3.017369471490383148e-02 2.049146778881549835e-02 2.170575223863124847e-02 2.162613719701766968e-02 1.527100452221930027e-03 -8.287838846445083618e-02 3.585674241185188293e-02 -1.957558654248714447e-02 2.476348727941513062e-02 -4.946478083729743958e-02 -6.004545721225440502e-04 2.349240146577358246e-02 9.073697146959602833e-04 -7.046087644994258881e-03 3.147487528622150421e-03 -1.887380145490169525e-02 1.591217936947941780e-03 -6.573323905467987061e-02 9.170056320726871490e-03 -8.552090148441493511e-04 -1.045644935220479965e-02 3.839837759733200073e-02 2.144476631656289101e-03 5.320872366428375244e-02 2.932734042406082153e-02 -2.168510295450687408e-02 -8.838848769664764404e-02 -2.282564295455813408e-03 2.781786769628524780e-02 -1.797961629927158356e-02 1.497282832860946655e-02 6.468059867620468140e-02 -4.540462419390678406e-02 -7.236026972532272339e-02 -1.435999665409326553e-02 1.115306746214628220e-02 1.025135815143585205e-02 3.233794867992401123e-02 9.471659548580646515e-03 -1.385659445077180862e-02 -1.097937207669019699e-02 -2.819371642544865608e-03 -1.119765639305114746e-02 -4.526844993233680725e-02 -7.832866162061691284e-03 1.456942642107605934e-03 -1.601237803697586060e-02 8.959115482866764069e-03 -4.864960536360740662e-02 1.742379856295883656e-03 2.329894487047567964e-04 1.622640341520309448e-02 1.060888450592756271e-02 -1.082996651530265808e-02 -7.975501939654350281e-04 5.085796490311622620e-02 -2.540991455316543579e-02 1.020040456205606461e-02 7.754956930875778198e-02 4.415131732821464539e-02 -2.741406485438346863e-02 -3.626342490315437317e-02 -2.444901876151561737e-02 2.188049256801605225e-02 2.634417824447154999e-02 -4.455924779176712036e-02 -1.016841642558574677e-02 3.186762332916259766e-02 1.896973885595798492e-02 4.051824100315570831e-03 1.904872059822082520e-02 3.748601675033569336e-02 2.959062345325946808e-02 -3.549574175849556923e-03 1.077822130173444748e-02 -5.388122517615556717e-04
3.439758438616991043e-04 3.011439926922321320e-02 -1.416580844670534134e-02 -3.492749482393264771e-02 -8.129040151834487915e-02 -2.279207296669483185e-02 -2.806167140079196543e-05 2.968662232160568237e-02 5.143012385815382004e-04 3.601328656077384949e-02 1.836348325014114380e-02 -2.953456481918692589e-03 -1.187799870967864990e-02 4.061374068260192871e-02 1.214031875133514404e-02 7.762953173369169235e-03 2.267180755734443665e-02 6.496402900665998459e-03 -3.047636896371841431e-02 -8.759865537285804749e-03 1.876380294561386108e-02 -1.716727274470031261e-03 2.663990482687950134e-02 1.173887308686971664e-02 -3.101642616093158722e-02 -2.374527743086218834e-03 -4.307362250983715057e-03 -1.132794935256242752e-02 -3.360781073570251465e-02 5.184670910239219666e-02 -2.919831313192844391e-04 -9.589638561010360718e-03 1.492881588637828827e-02 1.689901575446128845e-02 2.731820940971374512e-02 4.513509105890989304e-03 3.510609734803438187e-03 -5.847053229808807373e-02 5.316175054758787155e-03 -2.032075822353363037e-02 -3.365591168403625488e-03 -2.221650257706642151e-02 1.452699210494756699e-02 -3.545843437314033508e-02 -6.847722455859184265e-03 3.482364118099212646e-02 1.224411558359861374e-02 1.561301015317440033e-02 4.694129899144172668e-02 -4.917937889695167542e-02 -1.332521345466375351e-02 3.175269067287445068e-02 6.583719979971647263e-03 -2.360144630074501038e-02 -5.152643471956253052e-02 -3.641290217638015747e-02 -8.109014481306076050e-02 -1.682852581143379211e-02 6.428512744605541229e-03 -2.071785507723689079e-03 -1.885539479553699493e-02 4.628946632146835327e-02 -4.438608884811401367e-02 2.647674642503261566e-02 4.088394343852996826e-02 3.327313065528869629e-02 -1.931962760863825679e-04 -5.940038710832595825e-03 7.108607888221740723e-02 -1.295162946917116642e-03 6.727267522364854813e-03 2.409250475466251373e-02 2.268396317958831787e-02 1.324522425420582294e-03 3.543020039796829224e-02 2.272435650229454041e-02 -3.920029848814010620e-02 -4.868344331043772399e-05 -2.413821779191493988e-02 -5.545373074710369110e-03 -5.455284938216209412e-02 -6.141852587461471558e-03 8.066845685243606567e-02 -3.701237961649894714e-03 2.108827419579029083e-02 -2.579152584075927734e-03 -2.477176487445831299e-02 1.271969825029373169e-02 2.558105066418647766e-02 -3.467814764007925987e-03 -2.766935899853706360e-02 3.546891268342733383e-03 -6.053105369210243225e-02 1.684806309640407562e-02 -6.722441408783197403e-03 -2.991186641156673431e-02 1.126615144312381744e-02 3.500425023958086967e-03 -4.697041120380163193e-03 4.998657479882240295e-02 1.688906922936439514e-02 5.812527611851692200e-03 6.932276301085948944e-03 -3.838437423110008240e-02 -3.219942003488540649e-02 1.539909467101097107e-02 2.188719995319843292e-02 -2.918885461986064911e-02 -1.386365573853254318e-02 -3.540511429309844971e-02 -1.088147051632404327e-02 -1.465608365833759308e-02 -6.209323182702064514e-03 3.313243761658668518e-02 -1.130674383603036404e-03 1.425413647666573524e-03 3.931173123419284821e-03 4.341571778059005737e-02 3.692542761564254761e-02 -7.112030684947967529e-02 9.239224717020988464e-03 -8.513272623531520367e-04 -1.957517862319946289e-02 1.552342623472213745e-02 -1.404852140694856644e-02 -5.463473126292228699e-02 1.921563223004341125e-02 3.465339541435241699e-02 -1.569461543112993240e-03 -3.849635273218154907e-02 -3.367290273308753967e-02 6.014537066221237183e-03 1.146010239608585835e-03 1.688097789883613586e-02 1.771314442157745361e-02 -6.199226714670658112e-03 1.593156345188617706e-02 1.825826987624168396e-02 2.005065605044364929e-02 -1.370832975953817368e-02 5.666738376021385193e-03 1.867370121181011200e-02 -4.589946009218692780e-03 -4.668974131345748901e-02 -2.721169963479042053e-02 -8.422754704952239990e-03 1.472458476200699806e-03 1.738710701465606689e-02 -6.480456329882144928e-03 -1.970180496573448181e-02 -1.366984564810991287e-02 -2.242777263745665550e-03 -5.471976846456527710e-02 -5.559902265667915344e-02 1.513459999114274979e-02 -7.613204419612884521e-03 3.990292549133300781e-02 2.011925354599952698e-02 -2.123683691024780273e-02 -5.514347180724143982e-02 3.898880258202552795e-02 1.420583296567201614e-02 2.116608433425426483e-03 -3.076492808759212494e-02 5.637341365218162537e-02 -1.546808332204818726e-02 2.057471871376037598e-02 2.127507328987121582e-02 5.529005825519561768e-02 1.756306365132331848e-02 4.502187483012676239e-03 1.655825413763523102e-02 -2.046587318181991577e-02 2.726773731410503387e-02 3.527365624904632568e-03 -1.709875836968421936e-02 7.126045972108840942e-02 -2.815835736691951752e-02 5.578282289206981659e-03 -1.449705287814140320e-02 7.993966573849320412e-04 -3.993891179561614990e-02 4.296091198921203613e-02 -4.404320847243070602e-03 -6.166948005557060242e-03 -9.976848959922790527e-03 2.801541797816753387e-02 4.226378351449966431e-02 -4.163138568401336670e-03 -4.526527598500251770e-02 1.344254054129123688e-02 -5.481593310832977295e-03 -1.893851161003112793e-02 -1.470505166798830032e-02 -3.356448933482170105e-02 5.842906609177589417e-02 3.827524604275822639e-03 -7.201102562248706818e-04 -4.619375616312026978e-02 -1.204852014780044556e-02 1.268727518618106842e-02 -1.783170551061630249e-02 1.696297526359558105e-02 -5.335914343595504761e-02 -1.802772656083106995e-02 9.769690223038196564e-03 5.512106046080589294e-02 3.193612908944487572e-03 1.985743641853332520e-03 1.106220297515392303e-02 -3.650760278105735779e-02 4.170746728777885437e-02 -2.722786972299218178e-03 1.937584206461906433e-02 1.952320802956819534e-03 6.502261012792587280e-02 -2.289444953203201294e-02 -1.794774085283279419e-02 -1.300594396889209747e-02 4.763417318463325500e-02 2.689146995544433594e-02 -5.172260850667953491e-02 -1.089037023484706879e-02 1.455404795706272125e-03 -5.861574318259954453e-03 -4.165516421198844910e-02 1.460167020559310913e-02 -1.532929390668869019e-02 2.678121626377105713e-02 -2.908708713948726654e-02 9.577469900250434875e-03 -6.764084566384553909e-03 -6.034367252141237259e-03 -7.510128617286682129e-02 1.380522735416889191e-02 1.914371363818645477e-02 -2.921975217759609222e-02 1.976282335817813873e-02 1.044153515249490738e-02 -1.070286612957715988e-02 -3.484803438186645508e-02 -7.240989059209823608e-02 4.191468469798564911e-03 2.272130548954010010e-02 -5.514557939022779465e-03 1.920210942625999451e-02 1.866774633526802063e-02 1.474763732403516769e-03 4.316959902644157410e-02 2.487382479012012482e-02 4.304949659854173660e-03 1.946721225976943970e-02 1.983067765831947327e-02 1.186421141028404236e-02 6.481038779020309448e-02 2.953734248876571655e-02 -3.066979534924030304e-02 3.441878780722618103e-02 -3.952896967530250549e-02 -1.494904235005378723e-02 -2.159655280411243439e-02 -4.627490788698196411e-02 -1.933013275265693665e-02 -2.563786134123802185e-02 -3.333575790748000145e-03 4.904162138700485229e-02 -9.269832633435726166e-03 9.844618849456310272e-03 -2.569806016981601715e-02 -4.710262268781661987e-02 -3.119135089218616486e-02 -9.529591538012027740e-03 -2.468027174472808838e-02 3.103525936603546143e-02 -2.700543962419033051e-02 -2.979527693241834641e-03 1.016237400472164154e-02 4.313041642308235168e-02 3.560544922947883606e-02 -4.561434313654899597e-02 -5.148904770612716675e-02 5.516310222446918488e-03 -3.675379604101181030e-02 6.170290522277355194e-03 -2.554385177791118622e-02 -2.740087173879146576e-02 -4.767803102731704712e-02 4.998189397156238556e-03 3.113419003784656525e-02 2.620598673820495605e-02 -5.493662506341934204e-02 6.292785517871379852e-03 -7.833662442862987518e-03 -6.259378977119922638e-03 1.297055557370185852e-02 3.095849975943565369e-02 4.747672937810420990e-03 -6.050174310803413391e-02 6.692007882520556450e-04 3.914315998554229736e-02
2.143589407205581665e-02 -6.495448946952819824e-02 -4.159708321094512939e-02 -9.731504833325743675e-04 1.161350309848785400e-02 8.769969642162322998e-02 -3.340150928124785423e-03 7.770488504320383072e-03 -1.330187357962131500e-02 -2.253954112529754639e-02 2.144204452633857727e-02 -1.582908071577548981e-02 -1.225736364722251892e-02 -8.974335156381130219e-03 -1.040065567940473557e-02 -4.209237918257713318e-02 -2.303592115640640259e-02 -1.387449633330106735e-02 4.034676030278205872e-02 -5.300209298729896545e-02 6.980294734239578247e-02 2.482565585523843765e-03 6.063151173293590546e-03 -4.144060611724853516e-02 4.969918727874755859e-02 -6.291105877608060837e-03 -9.444954805076122284e-03 -2.425479143857955933e-02 -2.723847888410091400e-02 3.944028634577989578e-03 4.279412794858217239e-03 1.549967750906944275e-02 2.874992415308952332e-02 8.408723026514053345e-02 4.610333964228630066e-02 -3.509177593514323235e-03 5.225682631134986877e-03 1.456837914884090424e-02 -3.961767628788948059e-02 -1.245789974927902222e-02 -1.650295779109001160e-02 6.070218235254287720e-02 -1.428355462849140167e-02 -3.012700565159320831e-02 -5.515757482498884201e-03 1.062820106744766235e-02 3.347849845886230469e-02 2.416688762605190277e-02 -6.096472218632698059e-02 -1.705068163573741913e-02 3.325999155640602112e-02 -4.334590956568717957e-02 2.969801239669322968e-02 4.905630648136138916e-02 3.920867457054555416e-04 1.843584515154361725e-02 5.217774212360382080e-02 -4.050366114825010300e-03 3.826813772320747375e-03 3.343467414379119873e-02 -5.028194561600685120e-02 -1.184563990682363510e-02 1.675241626799106598e-02 5.744533240795135498e-02 1.999797485768795013e-02 3.915313258767127991e-02 -2.969870809465646744e-03 2.124703023582696915e-03 -3.611201047897338867e-02 -4.435498267412185669e-03 8.411119692027568817e-03 -2.708963304758071899e-02 -1.917412318289279938e-02 -3.270908724516630173e-03 -3.303102403879165649e-02 2.440944500267505646e-02 2.244669944047927856e-03 5.891608446836471558e-02 -1.165737491101026535e-02 3.879555733874440193e-04 -2.111141569912433624e-02 3.124903189018368721e-03 -5.967203155159950256e-02 1.653038151562213898e-02 -1.044285576790571213e-02 4.616009246092289686e-04 -1.148077845573425293e-02 2.584727667272090912e-02 -2.991397492587566376e-02 -1.963447965681552887e-02 -2.091726474463939667e-02 -8.037910796701908112e-03 8.737482130527496338e-03 -6.001856178045272827e-02 -1.123492605984210968e-02 -1.029932312667369843e-02 2.351709827780723572e-02 -1.136064901947975159e-02 6.602503824979066849e-03 2.503759460523724556e-04 -4.431597888469696045e-02 -1.086517237126827240e-02 -2.313295193016529083e-02 6.802688352763652802e-03 1.412068586796522141e-02 -2.749135717749595642e-02 3.646175935864448547e-02 -4.504337534308433533e-02 -2.536464855074882507e-02 1.973535399883985519e-03 -3.790889680385589600e-02 -6.845487747341394424e-03 1.664450764656066895e-02 -1.124110911041498184e-02 2.861514920368790627e-03 4.992498457431793213e-02 -1.300106989219784737e-03 1.303953398019075394e-02 2.347292937338352203e-02 1.929941959679126740e-02 6.092520896345376968e-03 -2.084613591432571411e-02 -3.669586405158042908e-02 4.730621725320816040e-02 -4.020690917968750000e-02 1.457295659929513931e-02 2.109973505139350891e-02 -5.503361672163009644e-02 4.946898669004440308e-03 -2.301864326000213623e-02 5.410158634185791016e-02 7.656333036720752716e-05 -4.754536785185337067e-03 -4.644828382879495621e-03 5.030149593949317932e-03 3.905587270855903625e-02 -2.550318092107772827e-02 3.036228194832801819e-02 -1.681480184197425842e-02 -1.446940004825592041e-02 9.441753849387168884e-03 3.775057941675186157e-02 -1.815904746763408184e-03 6.473750621080398560e-02 6.213365867733955383e-02 -3.162659471854567528e-03 2.485813573002815247e-02 2.809198014438152313e-02 2.927448600530624390e-02 2.617584541440010071e-02 5.613723397254943848e-02 -3.941956162452697754e-02 3.826586157083511353e-02 2.604901231825351715e-02 -2.115813083946704865e-02 -2.240053378045558929e-02 -3.764395788311958313e-02 -2.658140100538730621e-02 -1.473466027528047562e-02 -1.268567866645753384e-03 -1.885598641820251942e-03 6.031306693330407143e-04 -4.250984266400337219e-02 3.218757733702659607e-02 -2.105996012687683105e-02 -6.998303811997175217e-03 -1.576611958444118500e-02 6.674943864345550537e-02 -2.998015843331813812e-02 4.545367509126663208e-02 1.547791063785552979e-02 -2.661812305450439453e-02 1.087769772857427597e-02 2.007680200040340424e-02 1.366908382624387741e-02 4.064574092626571655e-02 -3.337578848004341125e-02 7.447133772075176239e-03 -4.543168935924768448e-03 4.428466781973838806e-02 2.489389106631278992e-02 3.179440647363662720e-02 1.750632189214229584e-02 -2.308904007077217102e-02 -2.459225989878177643e-02 1.364209601888433099e-04 -2.689628489315509796e-02 -3.618476167321205139e-02 -1.408951077610254288e-02 1.144615095108747482e-02 4.065255448222160339e-02 -4.557710513472557068e-02 3.350111097097396851e-02 -2.442278200760483742e-04 2.467306517064571381e-02 8.420674130320549011e-03 3.254535794258117676e-02 5.781876388937234879e-03 -2.142498083412647247e-02 -6.733618676662445068e-02 -2.358130179345607758e-02 3.458194062113761902e-02 -1.767740352079272270e-03 5.629446357488632202e-02 -2.943781390786170959e-02 -1.919194124639034271e-02 -2.040688693523406982e-02 1.322429906576871872e-02 1.256729103624820709e-02 -4.876555409282445908e-03 -1.415516901761293411e-02 -1.249756664037704468e-02 -1.587559701874852180e-03 2.908360958099365234e-02 -1.989631541073322296e-02 -5.336409667506814003e-04 -1.267871353775262833e-02 2.427629381418228149e-02 2.546603605151176453e-02 -9.129170328378677368e-03 4.338711127638816833e-02 -2.188771031796932220e-04 -8.908063173294067383e-03 1.472226576879620552e-03 -1.678724586963653564e-02 1.649152673780918121e-02 -2.145813219249248505e-02 2.732531540095806122e-02 -1.250400859862565994e-02 1.163092534989118576e-02 1.172079797834157944e-02 -8.423954248428344727e-03 -9.849330410361289978e-03 -1.018628012388944626e-02 -1.755575765855610371e-03 -1.164476666599512100e-02 4.322465509176254272e-03 -9.000054560601711273e-03 9.701161645352840424e-03 5.005212128162384033e-02 2.269374579191207886e-02 6.267257034778594971e-02 -1.157914986833930016e-03 3.466050326824188232e-02 -5.748625379055738449e-03 5.789130553603172302e-02 2.778803743422031403e-02 -2.253969013690948486e-02 2.006536535918712616e-02 6.956730782985687256e-02 -1.640081033110618591e-02 -1.815604791045188904e-02 -3.245913982391357422e-02 -2.238466004200745374e-05 -7.636647671461105347e-03 -2.431182935833930969e-02 -1.693132682703435421e-03 6.554082967340946198e-03 -1.668170839548110962e-02 7.632970344275236130e-03 2.367556840181350708e-02 -1.224564947187900543e-02 1.363384351134300232e-02 4.395449906587600708e-02 -1.461861096322536469e-02 -4.052755609154701233e-02 2.987997140735387802e-03 3.120426274836063385e-02 5.491017829626798630e-03 2.588473819196224213e-02 1.359041780233383179e-02 -5.517274141311645508e-03 3.713689371943473816e-02 -4.327185824513435364e-02 3.464741259813308716e-02 3.006396442651748657e-02 -1.189139671623706818e-02 1.608987525105476379e-02 -3.394811972975730896e-02 2.976543270051479340e-02 1.632841117680072784e-02 1.803798973560333252e-02 -1.837215386331081390e-02 -2.216591499745845795e-02 3.420697152614593506e-02 -1.152771408669650555e-03 3.920197859406471252e-02 -1.988861337304115295e-02 -2.531727775931358337e-02 -3.606837987899780273e-02 -8.224955759942531586e-03 -1.345971599221229553e-02 1.914255693554878235e-02 -3.091846033930778503e-02 -1.498742029070854187e-03 -8.219688385725021362e-02 3.557056188583374023e-04 3.186586126685142517e-02 7.252372801303863525e-02 1.679564081132411957e-02
-1.390667166560888290e-02 6.999762728810310364e-03 -1.780044846236705780e-02 -3.961214050650596619e-02 -1.047720685601234436e-01 -3.870436176657676697e-02 2.440967969596385956e-02 1.150970719754695892e-02 2.969391644001007080e-02 -2.676585875451564789e-02 -5.381941050291061401e-02 2.467980794608592987e-02 -6.160136312246322632e-03 2.344677783548831940e-02 -3.228760138154029846e-02 -2.429606765508651733e-02 -1.432686951011419296e-02 2.626441232860088348e-02 4.127904400229454041e-02 3.964026644825935364e-02 -8.365985937416553497e-03 1.968107745051383972e-02 -1.539715100079774857e-02 -2.193393185734748840e-02 -4.292125348001718521e-03 1.650788821280002594e-02 -1.321377977728843689e-02 1.915713213384151459e-02 4.994679987430572510e-02 2.601562440395355225e-02 6.462980061769485474e-03 3.214976191520690918e-02 -8.268231153488159180e-02 3.882572427392005920e-02 4.298569262027740479e-02 -2.021965384483337402e-02 6.048926734365522861e-04 6.969933211803436279e-02 1.617246121168136597e-02 -4.949665744788944721e-04 -6.468149274587631226e-02 -7.556363940238952637e-03 -1.135307736694812775e-02 2.782098948955535889e-02 2.419182471930980682e-02 4.342003539204597473e-02 2.282157912850379944e-02 -4.851543530821800232e-02 -6.111149489879608154e-02 6.230119615793228149e-03 -2.570878714323043823e-02 2.399234473705291748e-02 4.640469793230295181e-03 1.491913478821516037e-02 2.435624971985816956e-02 -3.726827725768089294e-02 1.117847859859466553e-02 -1.540638972073793411e-02 3.288465738296508789e-02 -3.137465938925743103e-02 -3.983441367745399475e-02 2.480996772646903992e-03 -2.611130662262439728e-02 8.107800781726837158e-02 4.129296913743019104e-02 -1.748457923531532288e-02 1.610795588931068778e-04 6.012453697621822357e-03 -5.156581103801727295e-02 -2.369263768196105957e-02 -6.561496993526816368e-04 -1.796150952577590942e-02 -2.217587269842624664e-02 -4.415059834718704224e-02 -4.037725552916526794e-02 2.118838764727115631e-02 -4.632775089703500271e-04 -1.644998788833618164e-02 1.671852916479110718e-02 -2.986246161162853241e-02 -3.130339831113815308e-02 1.830726861953735352e-02 -5.436385050415992737e-02 8.575503714382648468e-03 3.315788879990577698e-02 -1.728851161897182465e-02 -4.472809378057718277e-03 -7.220507413148880005e-02 -3.925821557641029358e-02 -1.754223555326461792e-02 -1.482811104506254196e-02 -6.389915198087692261e-02 -4.190782830119132996e-02 4.859806969761848450e-02 -7.040287600830197334e-04 -6.525186449289321899e-02 7.449212949723005295e-03 3.990801423788070679e-02 -1.764963008463382721e-02 2.360010519623756409e-02 1.412495225667953491e-02 3.054991923272609711e-02 -7.819708553142845631e-04 1.695579662919044495e-02 -2.735382877290248871e-02 5.822233483195304871e-02 5.872021242976188660e-02 4.571316391229629517e-02 -1.633822172880172729e-02 3.581992816179990768e-03 -1.245799567550420761e-02 1.851752400398254395e-02 -1.403153408318758011e-02 -3.592259064316749573e-02 2.335289726033806801e-03 -2.004127018153667450e-02 5.239698104560375214e-03 2.410702593624591827e-02 9.016012772917747498e-04 -4.432702437043190002e-02 -9.741277992725372314e-02 2.242013346403837204e-03 -1.258985698223114014e-02 2.985974214971065521e-02 -6.745091825723648071e-02 2.527701668441295624e-02 1.176308956928551197e-03 -3.972987085580825806e-02 1.126999408006668091e-02 2.620499394834041595e-02 3.270215168595314026e-02 -2.509654685854911804e-02 1.049944292753934860e-02 -1.819334924221038818e-02 -1.533369533717632294e-02 -4.459877312183380127e-02 3.157635778188705444e-02 5.487240850925445557e-03 -2.125203842297196388e-03 -4.723057150840759277e-02 -6.253371946513652802e-03 -3.435802832245826721e-02 -5.271050147712230682e-03 4.514973983168601990e-02 -3.073749598115682602e-03 4.232847690582275391e-02 1.400949619710445404e-02 1.061765942722558975e-02 5.602778121829032898e-02 1.998035237193107605e-02 3.077842481434345245e-02 -1.713157817721366882e-02 3.926940262317657471e-02 -2.074950374662876129e-03 -5.499262735247612000e-02 -7.896083407104015350e-03 -2.709611319005489349e-02 -1.171323936432600021e-02 -1.002290770411491394e-01 1.767692901194095612e-02 2.951382659375667572e-02 1.314649707637727261e-03 -1.108466368168592453e-02 -1.788674108684062958e-02 -1.910276338458061218e-02 1.977732405066490173e-02 1.392986532300710678e-02 -6.567205488681793213e-02 8.961274288594722748e-03 1.021646335721015930e-02 -2.250594273209571838e-02 5.364048108458518982e-02 -1.324995537288486958e-03 3.977584652602672577e-03 -1.700960099697113037e-02 -4.843236133456230164e-02 9.080175310373306274e-02 -1.473324839025735855e-02 4.425809253007173538e-03 3.647988289594650269e-02 6.082812789827585220e-03 -2.630384266376495361e-02 -1.773217879235744476e-02 -4.386133048683404922e-03 -3.983195871114730835e-03 8.717390708625316620e-03 3.709999844431877136e-02 -2.968042902648448944e-02 -4.384630359709262848e-03 -1.075394917279481888e-02 -4.637377709150314331e-02 -4.596327245235443115e-02 1.674641855061054230e-02 -1.117286738008260727e-02 4.658731073141098022e-02 7.591981906443834305e-03 -7.527869194746017456e-03 2.043573185801506042e-02 2.373743988573551178e-02 -1.117367390543222427e-02 6.349747627973556519e-02 -3.141826600767672062e-04 4.725705832242965698e-03 4.037662595510482788e-02 3.837530314922332764e-02 2.304130420088768005e-02 -1.288695074617862701e-02 -7.271059323102235794e-03 2.217418886721134186e-02 -3.122698888182640076e-02 -1.601736247539520264e-02 2.557977288961410522e-02 1.959852874279022217e-03 1.050723623484373093e-02 4.329818114638328552e-02 3.915788605809211731e-02 -7.023127283900976181e-03 -4.470816999673843384e-02 2.997167035937309265e-02 5.114836245775222778e-02 4.979943111538887024e-02 3.458040952682495117e-02 3.813185170292854309e-02 6.301326793618500233e-04 -1.728920452296733856e-02 -9.086977806873619556e-04 1.663576811552047729e-02 3.292379528284072876e-02 6.328504532575607300e-02 1.098476629704236984e-02 3.518438711762428284e-02 -1.712228730320930481e-02 1.232127193361520767e-02 -2.796343527734279633e-02 3.028724342584609985e-02 -1.017277464270591736e-01 -3.442549332976341248e-02 3.107147291302680969e-03 1.968533731997013092e-03 2.569981291890144348e-02 3.870995342731475830e-02 5.864043533802032471e-02 6.342749693430960178e-04 -7.218974642455577850e-03 4.144170135259628296e-02 5.141777917742729187e-02 8.991429582238197327e-03 -3.019875288009643555e-02 9.894206596072763205e-05 2.447970211505889893e-02 -7.773275952786207199e-03 9.572302922606468201e-03 3.944566007703542709e-03 -4.227952286601066589e-02 -1.816581003367900848e-02 -2.656344138085842133e-02 1.816688291728496552e-02 4.022740945219993591e-02 -5.487720947712659836e-03 4.316204041242599487e-02 1.561840996146202087e-02 3.586279600858688354e-02 -1.929153129458427429e-02 -1.685359166003763676e-04 -3.818628564476966858e-02 -7.101834751665592194e-03 2.735787443816661835e-02 9.787251241505146027e-03 2.033604122698307037e-02 -7.874860614538192749e-02 -1.109328866004943848e-02 -2.781600132584571838e-02 -1.371346530504524708e-03 -4.598997160792350769e-02 6.590157281607389450e-03 5.360477045178413391e-02 -6.086516380310058594e-02 3.198768571019172668e-02 -7.415237277746200562e-02 -9.242802858352661133e-02 -1.913216896355152130e-02 -2.380193024873733521e-02 -3.545533865690231323e-02 3.665677038952708244e-03 -4.846479278057813644e-03 1.150323729962110519e-02 2.462477795779705048e-02 -1.316159684211015701e-02 -2.904257737100124359e-03 4.110443964600563049e-02 -1.357431430369615555e-02 4.418591968715190887e-03 3.784920275211334229e-02 -7.026154082268476486e-03 -1.716890558600425720e-02 -3.456121310591697693e-02 -3.461228311061859131e-02 1.260413788259029388e-02 3.312135860323905945e-02 -6.337904836982488632e-03
-5.419988185167312622e-02 6.529450416564941406e-02 -3.647121414542198181e-02 -6.772147864103317261e-02 -9.474754333496093750e-02 -8.500036783516407013e-03 7.837747223675251007e-03 3.631991147994995117e-02 4.358340799808502197e-02 -3.657642379403114319e-02 -2.819615229964256287e-02 3.452519327402114868e-02 -2.318090759217739105e-02 1.410928741097450256e-02 -1.710166037082672119e-02 -3.810181980952620506e-03 1.417967677116394043e-02 3.467779606580734253e-02 6.493079010397195816e-03 1.764422049745917320e-03 7.116402033716440201e-03 -2.891235239803791046e-02 1.507317740470170975e-02 7.091358304023742676e-03 -3.890217095613479614e-02 3.696176223456859589e-03 -1.448541879653930664e-02 1.057871803641319275e-02 5.025185644626617432e-02 3.512844443321228027e-02 -1.858700648881494999e-03 2.844318747520446777e-02 -1.796355284750461578e-02 -2.146091870963573456e-02 1.593491807579994202e-02 2.951851347461342812e-03 1.380627416074275970e-02 -1.667569624260067940e-03 1.398494467139244080e-02 1.888417825102806091e-02 6.166145205497741699e-03 1.763053238391876221e-02 8.399076759815216064e-02 -1.532075647264719009e-02 2.047276124358177185e-02 5.801917612552642822e-02 3.695524111390113831e-02 1.782695297151803970e-03 2.418150939047336578e-02 -4.095554724335670471e-02 -3.070173412561416626e-02 4.920557513833045959e-02 -4.624941851943731308e-03 2.799327718093991280e-03 -6.341548264026641846e-02 -5.814085155725479126e-02 -9.220762550830841064e-02 -4.919653758406639099e-03 4.785720258951187134e-02 1.080249994993209839e-02 -1.195846591144800186e-02 1.219892408698797226e-03 -1.318348944187164307e-01 5.683242157101631165e-02 7.943278178572654724e-03 1.362763158977031708e-02 -2.055367687717080116e-03 2.225779369473457336e-02 3.119410760700702667e-02 1.876334100961685181e-02 -2.154846489429473877e-02 4.234044626355171204e-02 5.219365470111370087e-03 -4.284904152154922485e-02 -5.548421759158372879e-03 3.474944084882736206e-02 -6.178489699959754944e-02 -1.138788647949695587e-02 -2.835208550095558167e-02 -1.369260158389806747e-02 -7.121149450540542603e-02 1.110661774873733521e-02 1.249769609421491623e-02 -1.453897450119256973e-02 6.142289564013481140e-02 -1.992452144622802734e-02 -1.036313083022832870e-02 -3.126809746026992798e-02 1.449097041040658951e-02 -7.295867893844842911e-03 -3.983992338180541992e-02 -5.908832885324954987e-03 -6.995142996311187744e-02 7.886376231908798218e-02 1.915969885885715485e-02 -5.434783548116683960e-02 5.970116704702377319e-03 1.526260003447532654e-02 -5.158904939889907837e-03 6.558819860219955444e-02 1.466169022023677826e-02 5.884141847491264343e-02 8.651094511151313782e-03 -2.387460134923458099e-02 -2.724493667483329773e-02 5.861529335379600525e-02 6.123649701476097107e-02 3.052660031244158745e-04 -6.324721127748489380e-02 -1.787615381181240082e-02 -6.226649275049567223e-04 -1.910572126507759094e-02 1.759271137416362762e-02 1.733881235122680664e-02 -3.022723644971847534e-02 -2.460125647485256195e-02 1.858191913925111294e-03 4.753544181585311890e-02 1.294639194384217262e-03 -5.144786834716796875e-02 -3.992028534412384033e-02 7.442891132086515427e-03 -1.961100846529006958e-02 2.383597567677497864e-02 1.078671403229236603e-02 -6.747737526893615723e-02 5.080860108137130737e-03 2.250175364315509796e-02 -6.565768271684646606e-04 2.697800286114215851e-02 -7.629954256117343903e-03 -2.096699364483356476e-02 3.904182836413383484e-02 7.395378779619932175e-03 6.461485754698514938e-03 3.410152345895767212e-02 4.697408154606819153e-02 2.789909765124320984e-02 5.692520178854465485e-03 -9.050613269209861755e-03 -9.687839075922966003e-03 1.231157127767801285e-02 2.400057855993509293e-03 -5.388403311371803284e-02 -5.210454389452934265e-02 9.427618235349655151e-03 4.806104581803083420e-03 -5.634835921227931976e-03 5.636281892657279968e-02 1.698258705437183380e-02 6.504528969526290894e-02 1.523536536842584610e-02 -3.157976269721984863e-02 -2.913397736847400665e-02 -2.381084486842155457e-02 1.127592381089925766e-02 2.119697444140911102e-02 5.563214793801307678e-02 -4.912722110748291016e-02 -2.144244126975536346e-02 3.381739556789398193e-02 3.853021655231714249e-03 1.706162281334400177e-02 -5.290677025914192200e-02 4.876913875341415405e-02 9.169413708150386810e-03 6.563176866620779037e-03 -9.342341683804988861e-03 -2.019922947511076927e-03 3.349803760647773743e-02 -8.459144271910190582e-03 1.168356612324714661e-01 -1.527912542223930359e-02 -4.532514140009880066e-04 1.733919605612754822e-03 -1.319027785211801529e-02 5.881620943546295166e-02 9.890142828226089478e-03 3.878511488437652588e-02 2.986493287608027458e-03 -8.021620102226734161e-03 -6.509754806756973267e-02 -3.494599089026451111e-02 -1.623766869306564331e-02 -2.858212776482105255e-02 -1.781869679689407349e-03 5.081763491034507751e-03 4.490299150347709656e-02 3.525950247421860695e-03 -4.572121426463127136e-02 -1.209371350705623627e-02 -3.681375831365585327e-02 -4.562194272875785828e-02 -1.413983665406703949e-02 -7.370029389858245850e-02 1.155021972954273224e-02 -3.086919523775577545e-02 2.590188197791576385e-02 -1.994616724550724030e-02 -1.158782187849283218e-02 7.827998697757720947e-02 -8.722697384655475616e-03 1.130487304180860519e-02 -5.227960646152496338e-02 8.046446368098258972e-03 6.376473605632781982e-02 3.130868822336196899e-02 -3.466536523774266243e-03 1.776322908699512482e-02 -2.289015613496303558e-02 -4.562904313206672668e-02 5.385952536016702652e-03 1.870210166089236736e-03 -2.975042164325714111e-02 5.742007121443748474e-02 3.651525825262069702e-02 1.661518588662147522e-02 -3.360603004693984985e-02 4.097491875290870667e-02 2.771904133260250092e-02 2.386901341378688812e-02 -3.051958046853542328e-02 1.549563463777303696e-02 1.700014458037912846e-03 4.785230383276939392e-03 1.985259540379047394e-02 1.567193120718002319e-02 2.915951609611511230e-02 7.990354299545288086e-02 2.363326214253902435e-02 8.728008717298507690e-03 -3.201382234692573547e-02 -1.632239297032356262e-02 -7.620989531278610229e-02 4.287741333246231079e-02 8.516355417668819427e-03 -2.824369631707668304e-02 3.259174898266792297e-02 7.188510149717330933e-03 -1.391781261190772057e-03 -3.353603556752204895e-02 -1.040368434041738510e-02 1.465395092964172363e-03 -2.689471095800399780e-02 2.095746994018554688e-02 3.157364204525947571e-02 -2.550738118588924408e-02 -1.687120646238327026e-02 -4.423395264893770218e-03 2.273724228143692017e-02 2.790947072207927704e-02 5.657424218952655792e-03 3.144122660160064697e-02 -1.655222265981137753e-03 1.958311907947063446e-02 4.323066677898168564e-03 1.284494344145059586e-02 7.399056106805801392e-02 -3.500118851661682129e-02 -1.339155621826648712e-02 2.251125685870647430e-02 1.607157289981842041e-02 -9.033096954226493835e-03 -4.781758040189743042e-02 5.305661354213953018e-03 1.772074465407058597e-04 1.516119576990604401e-02 2.410375513136386871e-02 2.176097407937049866e-02 -9.940737485885620117e-02 -8.215723931789398193e-02 -2.285825647413730621e-02 -5.053928494453430176e-02 1.929087005555629730e-02 -3.751522675156593323e-02 -2.782075665891170502e-02 -5.831680819392204285e-02 3.976859897375106812e-02 7.529468089342117310e-02 -6.971403956413269043e-02 -4.296176135540008545e-02 3.295151889324188232e-02 -7.269677519798278809e-02 -6.911224685609340668e-03 -1.911891251802444458e-02 -6.176600698381662369e-03 -1.323531469097360969e-04 -6.534054409712553024e-03 2.531488612294197083e-02 6.211826577782630920e-02 -6.124320998787879944e-02 2.278687432408332825e-02 2.484660968184471130e-02 2.199036814272403717e-02 2.185324579477310181e-02 1.276200078427791595e-02 1.175109995529055595e-03 2.066281996667385101e-02 -2.586142718791961670e-02 1.623414643108844757e-02
-3.345796465873718262e-02 4.648173972964286804e-02 -5.955489818006753922e-03 -7.020819466561079025e-03 -2.523835981264710426e-03 2.457354031503200531e-02 -3.959523048251867294e-03 -6.758226547390222549e-03 -4.611689131706953049e-03 -2.360347099602222443e-02 9.395834058523178101e-03 -2.719471463933587074e-03 9.570859372615814209e-03 6.338161975145339966e-02 -1.747846603393554688e-02 -4.598281532526016235e-02 -2.866123057901859283e-02 -1.564841717481613159e-02 -3.457690030336380005e-02 -2.297264896333217621e-02 -8.309821039438247681e-02 -4.870283603668212891e-02 -1.528892479836940765e-02 3.994422033429145813e-02 -4.986160993576049805e-02 -1.046558376401662827e-02 1.390532869845628738e-02 1.280710857827216387e-04 1.678791455924510956e-02 1.390865910798311234e-02 4.569322336465120316e-03 -1.248863805085420609e-02 -6.884707510471343994e-02 -6.550908833742141724e-02 -4.553290456533432007e-02 -1.931684091687202454e-02 2.989593148231506348e-02 3.333044052124023438e-02 6.142466887831687927e-02 1.079948991537094116e-02 2.792428806424140930e-02 3.181997314095497131e-02 2.273553796112537384e-02 -2.858669497072696686e-02 -2.754229865968227386e-02 -3.218563646078109741e-02 -4.810059070587158203e-02 -8.232271298766136169e-03 1.681910268962383270e-02 6.849454343318939209e-02 -3.299077227711677551e-02 -1.446340233087539673e-02 -1.873997598886489868e-02 7.754304911941289902e-03 3.109397832304239273e-03 -1.101061794906854630e-02 -6.330721080303192139e-02 1.232465915381908417e-02 4.564777482300996780e-03 -2.160590700805187225e-02 9.220606647431850433e-03 -5.668604373931884766e-02 1.340272556990385056e-02 1.022730860859155655e-02 -2.053792821243405342e-03 -1.034192740917205811e-02 -6.499388255178928375e-03 -7.988672703504562378e-03 3.506378829479217529e-02 2.489195205271244049e-02 1.148875802755355835e-02 3.233676031231880188e-02 1.162238977849483490e-02 1.794455386698246002e-02 1.055266335606575012e-02 9.593110531568527222e-02 -4.948823712766170502e-03 -5.345126986503601074e-02 -3.953206818550825119e-03 -6.889421027153730392e-03 1.269643427804112434e-03 -2.348125912249088287e-02 -3.235612064599990845e-02 -4.712559282779693604e-02 6.305980787146836519e-05 7.940413430333137512e-03 5.411985795944929123e-03 2.512299828231334686e-02 -3.078435733914375305e-02 1.924768649041652679e-02 -2.772837318480014801e-02 -7.088837213814258575e-03 3.959753736853599548e-02 6.213483959436416626e-02 3.558581322431564331e-02 9.899216704070568085e-03 -5.572003498673439026e-02 -6.319101434201002121e-03 -2.779174968600273132e-02 -7.269548252224922180e-03 2.350220456719398499e-02 2.881160192191600800e-02 4.180075600743293762e-02 5.664971191436052322e-03 1.561513543128967285e-02 3.427335247397422791e-02 -4.614549502730369568e-02 -4.716254025697708130e-02 -1.421015989035367966e-02 9.251721203327178955e-03 8.605634421110153198e-02 5.195061862468719482e-02 2.847512438893318176e-02 3.992664813995361328e-02 -2.051067166030406952e-02 -3.350824862718582153e-02 -2.907624701038002968e-03 -2.565298043191432953e-02 -1.042245253920555115e-01 -8.790463209152221680e-02 4.030085727572441101e-02 -1.871446846053004265e-03 3.170892223715782166e-02 -3.010563179850578308e-02 3.839430958032608032e-02 2.448515966534614563e-02 6.094966083765029907e-03 -2.618007175624370575e-02 -1.622756384313106537e-02 3.098662570118904114e-02 -2.147352695465087891e-02 2.090083435177803040e-02 -3.885861486196517944e-03 -4.249008744955062866e-02 -4.439045488834381104e-02 -1.214394252747297287e-02 2.806605771183967590e-02 -5.133556574583053589e-02 3.524379432201385498e-02 -1.326768286526203156e-02 1.804234646260738373e-02 -2.758899889886379242e-02 8.415728807449340820e-03 -3.639098256826400757e-02 -6.554577033966779709e-03 6.192105263471603394e-02 -4.547381401062011719e-02 -1.749917306005954742e-02 2.301739901304244995e-02 -2.504133153706789017e-03 1.793138869106769562e-02 -7.422855589538812637e-03 -4.369016271084547043e-03 4.741541668772697449e-02 2.983696386218070984e-02 3.006574511528015137e-02 7.003496587276458740e-02 1.329663116484880447e-02 4.472146555781364441e-02 6.399998906999826431e-03 2.749666944146156311e-02 -1.381347887217998505e-03 1.389705110341310501e-02 1.629712805151939392e-02 -2.206655405461788177e-02 -3.284630179405212402e-02 7.882519625127315521e-03 7.246249588206410408e-04 -1.044949516654014587e-02 -1.674007996916770935e-02 -6.445151753723621368e-03 -8.902571164071559906e-03 5.468571186065673828e-02 2.031990094110369682e-03 -5.953296553343534470e-03 -3.315762802958488464e-02 1.796567253768444061e-02 -4.903264716267585754e-02 3.178595751523971558e-02 -1.961479522287845612e-02 -3.474569693207740784e-02 2.703177183866500854e-02 -6.207309663295745850e-03 2.552516572177410126e-02 -2.288021333515644073e-02 1.344896946102380753e-02 -7.178686559200286865e-03 1.126240938901901245e-02 3.811741247773170471e-02 3.972863405942916870e-02 -1.240214612334966660e-02 2.830813266336917877e-02 -5.788413807749748230e-02 4.576487094163894653e-02 5.587463825941085815e-02 4.461779817938804626e-02 -8.626544475555419922e-02 -3.703827969729900360e-03 -4.249363020062446594e-02 4.977217316627502441e-02 9.331502020359039307e-02 6.479915231466293335e-02 1.644658332224935293e-04 6.711191684007644653e-02 3.163548931479454041e-02 7.217471301555633545e-02 6.277576833963394165e-02 -1.003021560609340668e-02 -2.454003319144248962e-02 2.271442674100399017e-02 3.039198741316795349e-02 9.423774480819702148e-02 -1.793510746210813522e-04 -4.648657143115997314e-02 -3.422714769840240479e-03 -2.020192518830299377e-02 -1.934051886200904846e-02 4.419454932212829590e-02 -2.178709954023361206e-02 -6.803099066019058228e-02 -6.527093052864074707e-02 2.077593654394149780e-02 1.093229278922080994e-02 2.869648393243551254e-03 5.571947619318962097e-02 2.066914364695549011e-02 -1.954390667378902435e-02 -6.347689032554626465e-02 -3.205183893442153931e-02 6.425394862890243530e-02 -6.047851964831352234e-02 -4.103019461035728455e-02 -2.044067159295082092e-02 1.087666116654872894e-02 -1.018031500279903412e-02 6.509414408355951309e-03 3.006803104653954506e-03 3.691484779119491577e-02 -6.707835476845502853e-03 -3.994768857955932617e-02 -1.477391365915536880e-02 7.232173532247543335e-02 7.789344992488622665e-03 -4.198007285594940186e-02 1.427408307790756226e-02 -6.019843858666718006e-04 -8.160205930471420288e-02 6.083144247531890869e-02 2.144020749256014824e-03 8.994066156446933746e-03 2.945288829505443573e-02 5.786725785583257675e-03 -4.167451336979866028e-02 -2.147592790424823761e-02 -3.491168841719627380e-02 -2.483486756682395935e-02 1.044890843331813812e-03 6.888069957494735718e-02 2.085519954562187195e-02 -4.116797447204589844e-02 -3.880621120333671570e-02 -6.485456973314285278e-02 -4.601639509201049805e-02 -4.489318281412124634e-02 1.501945126801729202e-02 5.199595820158720016e-03 1.403273642063140869e-02 4.542822390794754028e-02 4.510470479726791382e-02 -5.352622270584106445e-02 -1.968290843069553375e-02 2.015187963843345642e-02 -1.035435497760772705e-02 8.737055212259292603e-02 -2.893046475946903229e-03 -3.185572102665901184e-02 4.877957981079816818e-03 -7.032592594623565674e-02 8.325083181262016296e-03 -3.623779118061065674e-02 2.348420908674597740e-03 2.298655919730663300e-02 -4.401560872793197632e-02 -1.930633746087551117e-02 2.545777335762977600e-02 8.670722134411334991e-03 -5.057181231677532196e-03 2.734280750155448914e-02 -1.757626049220561981e-02 4.099952802062034607e-02 8.777531795203685760e-03 -5.096266418695449829e-02 -2.317180484533309937e-02 3.160295262932777405e-02 8.951193653047084808e-03 -1.456210296601057053e-02 -2.227729652076959610e-03 5.839147418737411499e-02 -5.959179252386093140e-02 -9.669203311204910278e-02
-2.288398519158363342e-02 -2.993303537368774414e-02 -7.377651333808898926e-02 -3.678629640489816666e-03 -6.236881762742996216e-02 4.775435663759708405e-03 1.199815608561038971e-02 4.104145243763923645e-02 3.189077228307723999e-02 -1.994338445365428925e-02 -7.647206075489521027e-03 3.671799600124359131e-02 -9.525504894554615021e-03 3.994570672512054443e-02 -4.436836764216423035e-02 -1.115298829972743988e-02 -3.740526363253593445e-02 3.401804482564330101e-03 1.283017173409461975e-02 -1.188322342932224274e-02 -3.924649953842163086e-02 -4.031375423073768616e-02 -6.089289207011461258e-03 -7.202817499637603760e-02 -3.859808668494224548e-02 -1.049644779413938522e-02 -7.103718072175979614e-02 9.438803535886108875e-04 2.115075290203094482e-02 -1.030932366847991943e-02 8.940538391470909119e-03 7.578866556286811829e-03 2.252079918980598450e-02 2.776618488132953644e-02 1.312994677573442459e-02 -3.613186255097389221e-02 -2.305217087268829346e-03 2.551142871379852295e-02 -3.548057377338409424e-02 1.873564161360263824e-02 2.295792102813720703e-02 2.128512132912874222e-03 3.550524637103080750e-02 -2.454165183007717133e-02 -1.640681922435760498e-02 -1.302140392363071442e-02 7.984348572790622711e-03 -2.403292246162891388e-02 2.258140221238136292e-02 -1.880488358438014984e-02 -1.583149470388889313e-02 3.228902071714401245e-02 -2.341089583933353424e-02 -3.900324227288365364e-03 1.708621717989444733e-02 -5.121443048119544983e-02 -8.113992959260940552e-02 -2.353434450924396515e-02 -4.855821374803781509e-03 -3.376839309930801392e-02 -3.647574782371520996e-02 1.535392273217439651e-02 6.979057565331459045e-03 2.107224240899085999e-02 2.276136167347431183e-02 -1.153430715203285217e-02 -3.102056507486850023e-05 1.106597017496824265e-02 2.652831561863422394e-02 -3.625093400478363037e-02 7.428157143294811249e-03 -5.166097078472375870e-03 -1.255117449909448624e-02 -1.035970449447631836e-02 1.808248460292816162e-02 -1.648824103176593781e-02 -2.597282268106937408e-02 -3.315918520092964172e-02 -1.760644488967955112e-03 -1.234283018857240677e-02 -7.010588794946670532e-02 -1.112025324255228043e-02 3.148802742362022400e-02 5.846340954303741455e-02 1.316668838262557983e-02 -3.184074163436889648e-02 4.130858462303876877e-03 1.744339242577552795e-02 2.584205940365791321e-02 1.975105144083499908e-02 -2.409605309367179871e-02 -1.750591956079006195e-02 -4.413265362381935120e-02 2.873437711969017982e-03 6.537995301187038422e-03 -3.268374875187873840e-02 1.212064549326896667e-02 -1.969485171139240265e-02 7.152904290705919266e-04 -1.045876299031078815e-03 4.053699970245361328e-02 2.047844417393207550e-02 4.057566169649362564e-03 1.654408313333988190e-02 -4.422595724463462830e-02 -8.631525561213493347e-03 -2.127803303301334381e-02 -1.072285324335098267e-02 -5.420771241188049316e-02 -8.891036733984947205e-03 -2.188360504806041718e-02 -6.154718250036239624e-02 -4.046722315251827240e-03 5.459860898554325104e-03 -1.428557932376861572e-02 -1.392401382327079773e-02 -6.608212715946137905e-04 4.975195229053497314e-02 -2.049459703266620636e-02 -8.902770467102527618e-03 -1.852893643081188202e-02 -3.999995533376932144e-03 -2.113587688654661179e-03 -2.679093368351459503e-02 -1.843231357634067535e-02 -8.330759592354297638e-03 1.173781324177980423e-02 2.760381437838077545e-02 -1.521042920649051666e-02 -1.304676290601491928e-02 1.715414039790630341e-02 -5.467845872044563293e-02 -6.715677678585052490e-03 -4.641089215874671936e-02 3.416439145803451538e-02 -1.609239354729652405e-02 -1.507053524255752563e-02 -3.343725204467773438e-02 3.084790520370006561e-02 -5.454683303833007812e-02 6.251827813684940338e-03 2.403835393488407135e-02 -7.831919938325881958e-03 -3.471795003861188889e-03 -4.001050442457199097e-02 -1.882244646549224854e-02 1.254332996904850006e-02 8.234647102653980255e-03 -8.444229140877723694e-03 2.059116214513778687e-02 1.561463903635740280e-02 -2.574655786156654358e-02 -1.520495396107435226e-02 -1.445318013429641724e-02 -4.838581383228302002e-02 -2.930154278874397278e-02 -1.306654233485460281e-02 1.331204734742641449e-02 -4.560372605919837952e-02 -1.586380973458290100e-02 2.916104160249233246e-02 -9.553815238177776337e-03 -2.149990387260913849e-02 -6.697639077901840210e-02 3.805910237133502960e-03 1.581803895533084869e-02 -7.132475730031728745e-04 2.883230708539485931e-02 -1.240947749465703964e-02 -1.704866811633110046e-02 -2.662279084324836731e-02 2.569968439638614655e-02 -1.457468699663877487e-02 -5.577476229518651962e-03 -3.661115095019340515e-02 1.335230539552867413e-03 1.947542466223239899e-02 4.897085018455982208e-03 2.678001485764980316e-02 3.352553024888038635e-02 -1.824595220386981964e-02 -4.940179735422134399e-02 -5.409815534949302673e-02 -2.155912853777408600e-02 2.776033617556095123e-02 1.645505055785179138e-02 -4.811391234397888184e-03 4.722229018807411194e-02 1.673037558794021606e-02 -9.078183211386203766e-04 -7.382305804640054703e-03 -5.213353410363197327e-02 -5.341821163892745972e-02 -1.342792063951492310e-02 -4.017090052366256714e-02 -3.390048071742057800e-02 -2.245328761637210846e-02 -3.907053917646408081e-02 -5.320230871438980103e-02 -5.530026555061340332e-02 -2.672049915418028831e-03 -1.622893288731575012e-02 -5.742020905017852783e-03 -1.581925339996814728e-02 -8.926580660045146942e-03 2.426998130977153778e-02 -2.333694696426391602e-02 -1.034897472709417343e-02 -1.706233993172645569e-02 -2.999134920537471771e-02 -2.162435650825500488e-02 -1.507085375487804413e-02 6.174555979669094086e-03 7.269358728080987930e-03 -6.071861833333969116e-03 8.556708693504333496e-03 1.591924391686916351e-02 1.879057660698890686e-02 -1.268734876066446304e-02 1.011451985687017441e-02 1.118494430556893349e-03 1.681251218542456627e-03 -4.206489026546478271e-02 -1.405893126502633095e-03 1.002075430005788803e-02 -7.495251484215259552e-03 -1.387989148497581482e-02 3.528957068920135498e-02 2.969253435730934143e-02 3.604151681065559387e-02 -5.900466069579124451e-02 1.595300436019897461e-02 -5.620171502232551575e-02 -7.675678469240665436e-03 2.701732143759727478e-02 -3.872988000512123108e-02 -3.286432474851608276e-02 1.419352274388074875e-02 -5.068477243185043335e-03 -6.313766352832317352e-03 -1.399251259863376617e-02 4.384700674563646317e-03 -8.695801720023155212e-03 -3.696776181459426880e-02 1.974832266569137573e-02 1.518193352967500687e-02 -2.194126136600971222e-02 -2.518159896135330200e-02 -5.849132314324378967e-02 2.969737537205219269e-02 4.439403768628835678e-03 -2.418119087815284729e-02 4.013224039226770401e-03 -2.163314074277877808e-02 -4.747273866087198257e-03 -8.296267688274383545e-02 5.809191614389419556e-02 1.380909327417612076e-02 8.006263524293899536e-04 -2.533756382763385773e-02 -1.216381439007818699e-03 -2.111061476171016693e-02 2.213792409747838974e-03 -2.071207389235496521e-02 1.014434639364480972e-02 1.376826222985982895e-02 2.478822506964206696e-02 2.265119366347789764e-02 -1.150295045226812363e-02 -1.383839268237352371e-02 -2.600477077066898346e-02 -2.216088958084583282e-02 1.830221898853778839e-02 -1.151477079838514328e-02 -9.307038038969039917e-03 -4.255828261375427246e-02 -2.572089433670043945e-02 -5.422872956842184067e-03 2.524644322693347931e-02 -8.018843084573745728e-02 -2.848912402987480164e-02 -2.509460784494876862e-02 -1.140158399939537048e-01 -1.434203423559665680e-02 -3.151824325323104858e-02 1.200023666024208069e-02 6.047465372830629349e-03 -1.368166506290435791e-02 2.302293293178081512e-02 4.283896461129188538e-02 -3.956507518887519836e-02 -7.666935212910175323e-03 -2.066794596612453461e-02 -1.364030130207538605e-02 2.298593334853649139e-02 7.329050451517105103e-02 -2.634156867861747742e-02 2.302721515297889709e-02 -4.673594608902931213e-03 2.436993084847927094e-02
1.239516027271747589e-02 -1.874993788078427315e-03 3.275955095887184143e-02 5.262196063995361328e-02 -1.724724471569061279e-02 -3.953123092651367188e-02 -1.391758862882852554e-02 -5.717063322663307190e-02 -3.719678614288568497e-03 6.395284086465835571e-03 -4.701114073395729065e-02 -5.197519902139902115e-03 -2.059219405055046082e-03 -9.375331923365592957e-03 3.952499851584434509e-02 1.584084890782833099e-02 3.072738274931907654e-02 -1.271883584558963776e-02 4.507742822170257568e-02 5.792614445090293884e-02 -1.109875924885272980e-02 -3.777194069698452950e-03 1.079105213284492493e-02 -3.680808935314416885e-03 -3.016398847103118896e-02 -1.040884386748075485e-02 1.777906902134418488e-02 -3.216828778386116028e-02 -2.182643301784992218e-02 -1.763321645557880402e-02 -1.602897979319095612e-02 -2.003776095807552338e-02 -3.631335496902465820e-02 -6.846664100885391235e-02 -1.899024844169616699e-02 3.812628239393234253e-02 4.579929634928703308e-03 -2.170867286622524261e-02 7.293442729860544205e-03 -3.495807573199272156e-02 -5.229746550321578979e-02 -3.333219513297080994e-02 1.231443509459495544e-02 -8.188981562852859497e-03 -1.469890959560871124e-02 1.473375223577022552e-02 -5.880616605281829834e-02 6.940963794477283955e-04 -4.477380216121673584e-02 4.593462496995925903e-02 -2.491405792534351349e-02 3.743536537513136864e-03 -6.972576957195997238e-03 8.613463141955435276e-04 1.485847774893045425e-02 -3.373985411599278450e-03 1.120832096785306931e-02 1.827858737669885159e-03 -2.125851996243000031e-02 2.417353168129920959e-02 2.591269649565219879e-02 -1.349822152405977249e-02 5.149367824196815491e-02 -4.710447043180465698e-02 -5.167953297495841980e-02 -4.192307591438293457e-02 1.471528550609946251e-03 -1.367515977472066879e-02 1.690802350640296936e-02 4.061424639075994492e-03 -1.131866220384836197e-02 -1.125534623861312866e-02 -2.613388560712337494e-02 -4.771223291754722595e-03 2.852586330845952034e-03 -1.006958540529012680e-02 1.660615089349448681e-03 5.661026388406753540e-02 4.082723334431648254e-02 -2.309581078588962555e-02 1.671472750604152679e-02 -3.533976851031184196e-03 -4.714778810739517212e-02 -2.917546033859252930e-02 -1.499134767800569534e-02 -1.504166703671216965e-02 -1.694809459149837494e-02 -2.860111556947231293e-02 4.535569250583648682e-02 2.562884241342544556e-02 -7.654203101992607117e-03 8.161771111190319061e-03 1.692268811166286469e-02 -3.428654745221138000e-02 -1.226378604769706726e-02 -2.603134699165821075e-02 -5.959241092205047607e-02 1.662320271134376526e-02 3.020071983337402344e-02 1.187746040523052216e-02 3.598399832844734192e-02 -1.126428972929716110e-02 2.922931313514709473e-02 4.746627807617187500e-02 -1.729216054081916809e-02 -2.382227405905723572e-02 1.009147497825324535e-03 -3.607548400759696960e-02 1.184097118675708771e-02 -1.039017178118228912e-02 1.495878398418426514e-02 2.542637288570404053e-03 -2.197594940662384033e-02 -3.159478772431612015e-03 2.184298075735569000e-02 -3.096252866089344025e-02 -7.956447079777717590e-03 -2.064464055001735687e-02 1.149255037307739258e-02 -1.402152515947818756e-02 -6.293653696775436401e-02 -1.158720999956130981e-02 1.602816395461559296e-02 4.465644806623458862e-02 2.860214794054627419e-03 -5.871854256838560104e-03 -4.828778281807899475e-02 -1.006756443530321121e-02 -6.454729475080966949e-03 1.002682186663150787e-02 4.403235018253326416e-02 -2.200752496719360352e-03 -8.668840862810611725e-03 -3.665567189455032349e-02 5.814248230308294296e-03 -3.675411269068717957e-02 -1.390416827052831650e-02 1.879650750197470188e-03 -2.648904360830783844e-02 -7.279063109308481216e-03 3.303861012682318687e-03 -2.330864034593105316e-02 3.502061881590634584e-04 -5.044224206358194351e-03 -1.822664216160774231e-02 -9.231906384229660034e-03 9.246110916137695312e-03 -9.117156267166137695e-03 -1.346105430275201797e-02 -3.213876485824584961e-02 -2.010204270482063293e-02 1.219560072058811784e-04 3.694429993629455566e-02 1.944158598780632019e-02 -1.429727207869291306e-02 4.807055462151765823e-03 9.611260145902633667e-03 -1.670149341225624084e-02 1.316052366746589541e-04 7.457837462425231934e-03 6.309106014668941498e-03 -1.895842701196670532e-02 1.096491701900959015e-02 1.058558840304613113e-02 -1.548299659043550491e-02 3.267454728484153748e-02 -1.590646570548415184e-03 -5.151161178946495056e-02 -1.217722799628973007e-02 -6.846826523542404175e-03 -7.692362181842327118e-03 -3.035457246005535126e-02 3.966410458087921143e-02 -1.928353868424892426e-02 -1.268363744020462036e-02 -3.048813156783580780e-02 -4.878620803356170654e-02 -2.100230753421783447e-02 2.409912412986159325e-03 5.273813009262084961e-02 4.739091091323643923e-04 -7.398656569421291351e-03 -8.948125876486301422e-03 4.171101376414299011e-02 -1.847803778946399689e-02 -1.868807524442672729e-02 -6.361505389213562012e-02 -3.280082345008850098e-02 9.484612382948398590e-03 -1.370430551469326019e-02 -3.455231338739395142e-02 5.827886983752250671e-02 2.445657551288604736e-02 1.862991228699684143e-02 8.829064667224884033e-02 -8.505582809448242188e-03 1.693902909755706787e-02 -3.256718628108501434e-04 -1.751676760613918304e-02 2.142769657075405121e-02 -3.273855522274971008e-02 -1.226184237748384476e-02 -6.055353675037622452e-03 1.486886665225028992e-02 -1.591971144080162048e-02 4.263786971569061279e-02 -3.542246669530868530e-02 -1.584865525364875793e-02 -1.610558666288852692e-02 -7.004984654486179352e-03 1.680791936814785004e-02 -3.127436852082610130e-03 1.627614838071167469e-03 -1.611687429249286652e-02 -5.501208081841468811e-02 5.776881705969572067e-03 -7.900859229266643524e-03 -5.583288613706827164e-03 -2.526152133941650391e-02 2.859855443239212036e-02 -3.493666881695389748e-03 -1.657886058092117310e-02 1.089791301637887955e-02 6.630040588788688183e-04 3.434884361922740936e-03 1.552367396652698517e-02 2.453044056892395020e-02 -2.215294912457466125e-02 -4.424729943275451660e-02 -5.865047685801982880e-03 5.361062474548816681e-03 -1.271103136241436005e-02 -1.566943712532520294e-02 -2.462953142821788788e-02 -2.982126921415328979e-02 -4.824462812393903732e-03 3.194221481680870056e-02 -2.510241232812404633e-02 -5.732032470405101776e-03 -5.559667013585567474e-03 1.341361831873655319e-02 1.537594478577375412e-02 -7.198804058134555817e-03 -7.659020274877548218e-02 4.610969871282577515e-02 -3.604191914200782776e-02 -3.892518347129225731e-03 7.372969761490821838e-03 4.534985870122909546e-03 -2.012099698185920715e-02 6.779630202800035477e-03 5.011160392314195633e-03 -4.488481581211090088e-02 -4.292351007461547852e-02 -4.934370517730712891e-02 6.132901832461357117e-02 -3.171800402924418449e-03 -2.168602868914604187e-02 1.995272748172283173e-02 3.704750910401344299e-02 -2.623671293258666992e-02 6.779856979846954346e-02 4.668881651014089584e-03 2.001391164958477020e-02 -3.106896765530109406e-02 2.109775133430957794e-02 3.283213009126484394e-04 1.886643283069133759e-02 -4.290866665542125702e-03 -5.409530550241470337e-02 4.997489228844642639e-02 1.025300193578004837e-02 5.003367736935615540e-02 -1.211606990545988083e-02 -2.355871722102165222e-03 3.855470940470695496e-02 1.233411167049780488e-04 -1.633408479392528534e-02 -6.732892245054244995e-02 -1.064339559525251389e-02 -3.512827679514884949e-02 -4.599279537796974182e-02 6.490689516067504883e-02 2.729428187012672424e-02 2.823517099022865295e-02 -5.677476525306701660e-03 -2.320915274322032928e-02 -1.578016579151153564e-02 3.192269105056766421e-06 -1.189691480249166489e-02 1.337585970759391785e-02 -5.361710861325263977e-02 8.700111880898475647e-03 -4.246504395268857479e-04 -9.016693569719791412e-03 3.688997030258178711e-02 4.259970411658287048e-02 -1.194858178496360779e-02 -4.285228252410888672e-02 -2.211208641529083252e-02
-1.929533435031771660e-03 1.208580285310745239e-02 -1.913006789982318878e-02 -8.930294774472713470e-03 6.950284540653228760e-02 5.185272917151451111e-02 2.959128841757774353e-02 2.279428020119667053e-02 4.046492744237184525e-03 4.211753606796264648e-02 5.695291236042976379e-02 -1.510646753013134003e-02 9.081199765205383301e-03 -7.607195526361465454e-02 2.769578620791435242e-02 4.563039541244506836e-02 1.850692369043827057e-02 -2.347243763506412506e-02 -1.244435459375381470e-02 -1.082542259246110916e-02 3.569950535893440247e-02 2.406837791204452515e-02 1.612843363545835018e-03 5.816433951258659363e-02 -1.077614608220756054e-03 1.161021925508975983e-02 1.547035668045282364e-02 -2.744174795225262642e-03 -3.958064317703247070e-02 1.603555306792259216e-02 2.473181672394275665e-02 1.559878350235521793e-03 7.106876373291015625e-02 2.644846588373184204e-02 1.718219369649887085e-02 3.249793499708175659e-02 -2.323091588914394379e-02 1.606704667210578918e-02 2.238095924258232117e-02 2.765809372067451477e-02 3.014247864484786987e-02 -2.217496000230312347e-02 -3.108048439025878906e-02 1.886520348489284515e-02 -7.530121132731437683e-03 -4.574216157197952271e-02 3.735013306140899658e-02 4.276980832219123840e-02 2.605001255869865417e-02 -4.309724271297454834e-02 8.840275555849075317e-02 2.501487964764237404e-03 -5.076209828257560730e-02 -1.214561332017183304e-02 -2.902046777307987213e-02 1.851941831409931183e-02 -2.570764161646366119e-02 3.621010482311248779e-02 -2.147649647668004036e-03 6.402820348739624023e-02 4.631665721535682678e-02 2.985191345214843750e-02 -1.067799050360918045e-03 -3.182294592261314392e-02 8.590617775917053223e-02 5.976582318544387817e-02 5.099500776850618422e-05 3.125081211328506470e-02 1.789944060146808624e-02 6.617357488721609116e-03 1.755840517580509186e-02 3.086762316524982452e-02 2.759755402803421021e-02 4.805160313844680786e-02 2.232609689235687256e-02 -1.066317409276962280e-02 -2.880211174488067627e-02 1.061209710314869881e-03 -3.440322354435920715e-02 5.919650569558143616e-02 1.997877657413482666e-02 -5.110590718686580658e-03 5.310699343681335449e-02 2.722079679369926453e-02 2.306096255779266357e-02 1.114349626004695892e-02 8.964294567704200745e-03 7.036762684583663940e-02 -5.848602950572967529e-02 -5.130749568343162537e-02 1.294731721282005310e-02 2.586750127375125885e-02 1.225666049867868423e-02 -1.501588267274200916e-03 1.954630948603153229e-03 1.224087178707122803e-02 1.589657366275787354e-02 1.826790533959865570e-02 2.877337974496185780e-04 -7.665938138961791992e-02 -5.386831611394882202e-02 -9.077456779778003693e-03 -3.986930474638938904e-02 -2.161108702421188354e-02 3.340516705065965652e-03 -1.407677307724952698e-02 -8.092538453638553619e-03 -9.451885707676410675e-04 2.271495014429092407e-02 4.511018097400665283e-02 -5.177441984415054321e-03 -4.414368420839309692e-02 -8.021530695259571075e-03 8.982104249298572540e-03 -4.460463300347328186e-02 4.078419506549835205e-02 8.334501646459102631e-03 -8.806017786264419556e-02 2.087770495563745499e-03 4.699357971549034119e-02 3.516987338662147522e-02 -9.401612915098667145e-04 3.255732590332627296e-04 -7.624759525060653687e-02 2.551836706697940826e-02 -3.213782981038093567e-02 2.870536781847476959e-02 1.916074007749557495e-02 8.896315703168511391e-04 3.769907052628695965e-04 -2.214503474533557892e-02 1.062387228012084961e-02 1.451863069087266922e-02 -2.487684367224574089e-03 -1.849840953946113586e-02 3.294838964939117432e-02 1.872204802930355072e-02 -4.530897364020347595e-02 4.362392239272594452e-03 4.497133195400238037e-02 3.879855573177337646e-02 6.110440939664840698e-02 -1.909079030156135559e-03 -3.510250151157379150e-02 -5.908105988055467606e-03 -3.025811538100242615e-02 -4.322826862335205078e-02 4.786861687898635864e-02 2.114503271877765656e-02 -3.174005076289176941e-03 -6.196904182434082031e-02 -5.214658379554748535e-02 -5.911646038293838501e-02 -3.860169276595115662e-02 4.680901393294334412e-02 -1.090288069099187851e-02 3.344031050801277161e-02 -2.016502432525157928e-02 9.597005322575569153e-03 -8.973697200417518616e-03 -1.690286956727504730e-02 2.772869355976581573e-02 -2.653420530259609222e-02 6.046541035175323486e-03 -2.889063768088817596e-02 -1.343155559152364731e-02 2.737881243228912354e-02 4.533995315432548523e-02 -1.761261932551860809e-02 -4.318400472402572632e-02 1.041352190077304840e-02 -9.257737547159194946e-03 -5.761835351586341858e-02 6.558192521333694458e-02 2.369943633675575256e-02 2.856955677270889282e-02 8.785135112702846527e-03 4.661620035767555237e-02 -3.649787604808807373e-02 -4.997442290186882019e-02 3.683990566059947014e-03 -1.991722965613007545e-04 6.252439320087432861e-02 -1.471079885959625244e-02 2.322152070701122284e-02 1.646857336163520813e-02 -1.997230947017669678e-02 -6.514473259449005127e-02 -8.123686537146568298e-03 8.369339630007743835e-03 5.476228147745132446e-02 2.878891117870807648e-02 -2.475379966199398041e-02 2.918983064591884613e-02 -6.625002622604370117e-02 6.189670413732528687e-02 -4.243766423314809799e-03 -2.428402379155158997e-02 3.126365318894386292e-02 1.290262956172227859e-02 6.604068912565708160e-03 6.034370511770248413e-02 3.500253893435001373e-03 -5.753619223833084106e-02 9.950273670256137848e-03 -4.170420765876770020e-02 5.056891217827796936e-02 3.719494119286537170e-02 -7.158467080444097519e-03 -2.097961958497762680e-03 1.208530971780419350e-03 -4.975225031375885010e-02 -9.993414278142154217e-05 -2.794287540018558502e-02 -2.859593182802200317e-02 -6.246416014619171619e-04 7.969799451529979706e-03 1.496661733835935593e-02 -1.099817454814910889e-02 -3.960713744163513184e-02 -2.818468213081359863e-02 -1.912812143564224243e-02 7.778093218803405762e-03 5.294738337397575378e-03 -3.184727393090724945e-03 -2.985776588320732117e-02 2.921149134635925293e-03 -2.868882752954959869e-02 3.253941982984542847e-02 -8.312555402517318726e-02 -4.306677356362342834e-02 1.172084361314773560e-02 5.189893767237663269e-03 1.471068128012120724e-03 -3.905539214611053467e-02 1.008271276950836182e-01 -1.096512563526630402e-02 2.424746379256248474e-02 1.187397167086601257e-02 -1.185774803161621094e-02 -1.515034586191177368e-02 -6.123839877545833588e-03 1.950464211404323578e-02 9.205501526594161987e-02 -2.168065495789051056e-02 -5.212020501494407654e-02 2.505993470549583435e-02 -3.658890491351485252e-03 5.037736147642135620e-03 5.193115398287773132e-02 1.211845967918634415e-02 -1.156122982501983643e-02 1.578239351511001587e-02 6.292794644832611084e-02 3.907768800854682922e-02 9.390420280396938324e-03 3.904011799022555351e-03 -3.244941309094429016e-02 -8.384421467781066895e-03 -5.416442453861236572e-02 2.432732284069061279e-02 -2.047030813992023468e-02 1.445565256290137768e-03 -6.406904011964797974e-02 3.581960126757621765e-02 -3.174859285354614258e-02 -3.682121634483337402e-02 5.555361974984407425e-03 2.295381389558315277e-02 4.053522273898124695e-02 -2.675671502947807312e-02 6.822512485086917877e-03 -1.118603050708770752e-01 7.778766099363565445e-03 -1.507220696657896042e-02 -1.969024538993835449e-02 -1.635117456316947937e-02 -5.908494815230369568e-02 -5.247101653367280960e-04 5.496860295534133911e-02 -4.084892198443412781e-02 1.270971354097127914e-02 -1.771101169288158417e-02 -2.233554609119892120e-02 3.704737639054656029e-03 1.309319958090782166e-02 -2.278691157698631287e-03 -4.525972530245780945e-03 1.521797850728034973e-02 -4.821411520242691040e-02 -1.806029677391052246e-02 -3.950182721018791199e-02 -2.101983316242694855e-02 8.870781399309635162e-03 1.485174708068370819e-02 1.431785058230161667e-02 3.129665181040763855e-02 -3.475734591484069824e-02 2.296242862939834595e-02 -9.024306200444698334e-03
-1.668362761847674847e-03 1.405664719641208649e-02 -1.411200687289237976e-02 -4.211416002362966537e-03 -8.585402369499206543e-02 -3.028585016727447510e-02 -9.650607593357563019e-03 2.651312574744224548e-02 2.437845338135957718e-03 -4.902409017086029053e-02 -7.990629412233829498e-03 8.528740145266056061e-03 -1.044144108891487122e-02 2.981436997652053833e-02 -3.170607984066009521e-02 -3.606862202286720276e-02 -3.850838541984558105e-02 -6.595981307327747345e-03 4.388530179858207703e-02 -2.791289053857326508e-02 -6.077767163515090942e-02 9.672571904957294464e-04 2.744725905358791351e-03 -2.152488939464092255e-02 -4.934879019856452942e-02 1.740671577863395214e-03 -2.406464656814932823e-03 -1.418094523251056671e-02 1.132503058761358261e-02 1.549329608678817749e-03 -2.905721543356776237e-03 -2.268319390714168549e-02 -3.351266309618949890e-02 -2.353916317224502563e-02 -6.894642952829599380e-03 -3.232835978269577026e-02 1.441587693989276886e-02 -2.377237565815448761e-02 -7.124599535018205643e-03 -2.637079916894435883e-02 -3.448217874392867088e-03 8.780146948993206024e-03 -2.353713382035493851e-03 -1.054349262267351151e-02 -1.004208344966173172e-03 2.881568856537342072e-02 -2.821574546396732330e-02 -2.249673567712306976e-02 4.550647921860218048e-03 2.279594726860523224e-02 -1.483289152383804321e-02 9.797720238566398621e-03 6.976299919188022614e-03 1.865774951875209808e-02 1.004412490874528885e-02 -1.378731243312358856e-02 -2.072855643928050995e-02 9.908533655107021332e-03 -4.079441074281930923e-03 -1.859962241724133492e-03 -1.793546415865421295e-02 2.024503657594323158e-03 5.177001003175973892e-03 4.351914860308170319e-03 -2.848391234874725342e-02 -4.611324146389961243e-02 8.675586400386237074e-07 -1.188973896205425262e-02 -1.223400887101888657e-02 -7.967584766447544098e-03 -4.327869974076747894e-03 3.927886951714754105e-03 -1.652214489877223969e-02 -4.133770242333412170e-02 -1.702052913606166840e-02 1.341182645410299301e-02 -1.046456396579742432e-02 9.951350511983036995e-05 -2.065624808892607689e-03 -3.605764731764793396e-02 -6.078693643212318420e-02 -5.507853813469409943e-03 -1.513906382024288177e-02 2.461146563291549683e-02 9.782902197912335396e-04 -1.220799330621957779e-02 5.082814488559961319e-03 -2.123745344579219818e-02 -1.437958236783742905e-02 -8.234227076172828674e-03 -3.285717219114303589e-02 4.494482651352882385e-02 1.264692982658743858e-03 -3.504118416458368301e-03 2.254681894555687904e-03 -1.676634326577186584e-02 -5.460466817021369934e-02 -1.178483664989471436e-02 -9.912450797855854034e-03 5.701436102390289307e-02 6.833520252257585526e-03 7.977456785738468170e-03 2.733664959669113159e-02 4.742262139916419983e-02 2.304722438566386700e-04 1.864273333922028542e-03 -5.868349224328994751e-02 -2.407821640372276306e-02 -6.174983829259872437e-02 -1.582822576165199280e-02 -5.395395681262016296e-03 2.789894118905067444e-02 1.403590082190930843e-03 -1.250019762665033340e-03 8.499867282807826996e-03 -2.548996359109878540e-02 -7.061862386763095856e-03 1.481085084378719330e-02 -3.385587036609649658e-02 -1.983882114291191101e-02 -7.298029027879238129e-03 -1.236642431467771530e-02 4.411321505904197693e-02 2.651047520339488983e-02 -3.465471044182777405e-02 -3.796179371420294046e-04 -1.555716153234243393e-03 -1.307165063917636871e-02 -5.877224728465080261e-03 -1.148544996976852417e-02 2.712007844820618629e-03 1.462066778913140297e-03 -5.984349176287651062e-03 -4.900893196463584900e-02 4.322300851345062256e-02 -3.791781142354011536e-02 -8.000953122973442078e-03 -8.539804257452487946e-03 1.735802553594112396e-02 -2.550541050732135773e-02 -3.679860150441527367e-03 1.557162962853908539e-02 -2.928241854533553123e-03 9.973047301173210144e-03 7.838223129510879517e-03 4.025880247354507446e-02 2.734916657209396362e-02 2.049252763390541077e-02 -1.631146855652332306e-02 1.221163943409919739e-02 1.719555445015430450e-02 -3.924981132149696350e-02 8.870805031619966030e-04 1.338651753030717373e-03 -4.212903976440429688e-02 -4.538994282484054565e-03 -8.051653392612934113e-03 2.183565869927406311e-02 -2.372861467301845551e-02 9.403251111507415771e-03 -2.123736077919602394e-03 -2.543316595256328583e-02 -7.179768290370702744e-03 -2.639204077422618866e-02 -4.039909224957227707e-03 -4.636652767658233643e-03 -9.448243654333055019e-04 -1.871957257390022278e-02 -1.963665150105953217e-02 1.445753686130046844e-02 -1.076124515384435654e-02 3.019024850800633430e-03 1.751806773245334625e-02 -1.125894393771886826e-02 2.086141612380743027e-03 -4.645527154207229614e-02 -8.101530373096466064e-03 -2.247308939695358276e-02 -7.159839384257793427e-03 4.192111641168594360e-02 -2.540560066699981689e-02 6.305097136646509171e-03 -1.251631602644920349e-02 2.113530598580837250e-02 -5.974685773253440857e-03 -2.488469518721103668e-02 2.326148003339767456e-02 4.593682475388050079e-03 -5.601938813924789429e-03 -1.645608805119991302e-03 1.602764241397380829e-02 -3.123115561902523041e-02 -3.940581530332565308e-02 4.141689743846654892e-03 3.780093044042587280e-02 9.146749973297119141e-03 -1.322504132986068726e-02 -1.622844301164150238e-02 -7.098484039306640625e-02 -4.420420899987220764e-02 1.783475652337074280e-02 3.459165571257472038e-03 -3.878051880747079849e-03 1.473290752619504929e-02 -1.248933025635778904e-03 -7.512516342103481293e-03 -1.128752063959836960e-02 4.912903066724538803e-03 -3.496417030692100525e-02 1.171835232526063919e-02 -1.043776702135801315e-02 3.818177059292793274e-02 8.464878192171454430e-04 -2.271921746432781219e-02 -8.090599440038204193e-03 1.956715434789657593e-02 4.382657818496227264e-03 6.650153663940727711e-04 -7.262717932462692261e-03 2.815000712871551514e-03 2.371607348322868347e-02 2.112158806994557381e-03 -2.290879189968109131e-02 1.322528813034296036e-03 1.600760221481323242e-02 -7.931748405098915100e-03 -1.057442836463451385e-02 -1.718006283044815063e-02 2.934636548161506653e-03 1.674631237983703613e-02 -7.180701941251754761e-03 7.174637168645858765e-03 -2.762910351157188416e-02 -3.173134848475456238e-02 -2.264364156872034073e-03 -2.894288860261440277e-02 -4.740834410768002272e-04 2.730771712958812714e-02 -8.227586746215820312e-03 2.766135707497596741e-02 2.180066192522644997e-03 5.286105349659919739e-02 2.246194053441286087e-03 -5.016407370567321777e-02 5.286196246743202209e-02 -6.428700406104326248e-03 -2.479011379182338715e-02 -1.708002388477325439e-02 -3.210539370775222778e-02 -4.255152773112058640e-03 6.941795349121093750e-03 1.003806851804256439e-02 -2.302531898021697998e-02 -7.698773406445980072e-03 -2.836223691701889038e-02 -1.783611439168453217e-02 1.834721304476261139e-02 2.008696831762790680e-02 1.405288930982351303e-02 -4.984779749065637589e-03 -2.423174306750297546e-02 -2.736981771886348724e-02 2.503622509539127350e-02 1.479523908346891403e-02 -3.850720822811126709e-03 1.552998740226030350e-02 -1.256375946104526520e-02 -9.465034236200153828e-04 -1.631526160053908825e-03 7.730632554739713669e-03 -1.734261284582316875e-03 -9.255125187337398529e-03 4.843118414282798767e-02 2.294042706489562988e-02 1.049878448247909546e-02 -2.437308430671691895e-02 -3.702533198520541191e-03 1.509958878159523010e-02 -3.164650127291679382e-02 -4.248495399951934814e-02 -3.256379440426826477e-02 -7.946569239720702171e-04 -2.661091275513172150e-02 -1.071035629138350487e-03 2.388407289981842041e-02 -1.242583338171243668e-02 -5.214588600210845470e-04 1.689708605408668518e-02 -3.236981341615319252e-03 2.726971730589866638e-02 -2.269768342375755310e-02 -3.953521605581045151e-03 -1.967792212963104248e-02 3.460764419287443161e-03 4.005379974842071533e-03 2.789945900440216064e-02 -1.302951853722333908e-02 3.438390046358108521e-02 -1.251624710857868195e-02 1.978122815489768982e-02
1.323428098112344742e-02 1.920191757380962372e-02 2.082062326371669769e-02 9.316740557551383972e-03 3.988184034824371338e-02 -1.769148185849189758e-02 3.612586483359336853e-02 2.247646078467369080e-02 3.333588317036628723e-02 2.759827300906181335e-02 -5.791895557194948196e-03 -3.042850410565733910e-03 1.736551523208618164e-02 1.076525729149580002e-02 1.689856499433517456e-02 -1.767363026738166809e-02 -1.885308185592293739e-03 -2.643543668091297150e-02 2.212438732385635376e-02 -9.900987148284912109e-03 3.730445459950715303e-04 -1.062626764178276062e-02 -5.708398297429084778e-02 1.746639050543308258e-02 -3.982794471085071564e-03 1.808683574199676514e-02 6.938354671001434326e-02 -1.391121745109558105e-02 1.998247345909476280e-03 2.669972833245992661e-03 3.974414616823196411e-02 -1.864251121878623962e-02 3.434377489611506462e-03 1.068379729986190796e-02 -2.450286410748958588e-02 2.623992227017879486e-02 -4.234370309859514236e-03 3.372294455766677856e-02 2.299775369465351105e-02 2.409169264137744904e-02 -2.625582180917263031e-02 -2.316427230834960938e-02 -1.802013628184795380e-02 7.869362831115722656e-03 -2.228057384490966797e-02 -3.293994814157485962e-02 -3.519949316978454590e-02 2.392564155161380768e-02 -4.017618671059608459e-02 1.255623251199722290e-02 3.232416138052940369e-02 -2.558634849265217781e-03 -4.722815379500389099e-02 -4.822580516338348389e-02 4.349467810243368149e-03 2.748380042612552643e-02 1.247279159724712372e-02 -4.051570966839790344e-02 -1.345271803438663483e-02 4.572817683219909668e-02 2.830033376812934875e-02 4.694631323218345642e-03 -4.481242597103118896e-02 -2.723726443946361542e-02 -4.006503894925117493e-02 -1.246010232716798782e-02 -8.653428085381165147e-05 -3.720308654010295868e-03 2.753644995391368866e-02 -1.579767093062400818e-02 1.161141786724328995e-02 2.248901873826980591e-03 1.155967731028795242e-02 3.483930975198745728e-02 6.309989374130964279e-03 -1.363450754433870316e-02 -2.319982834160327911e-02 -3.157836943864822388e-02 3.558540251106023788e-03 5.347943678498268127e-02 3.374393284320831299e-02 -1.612472906708717346e-02 1.002875249832868576e-02 -1.493224129080772400e-02 6.506838370114564896e-03 2.316651307046413422e-02 1.952201686799526215e-02 3.863301500678062439e-02 -7.157956250011920929e-03 2.724025584757328033e-02 -2.217453904449939728e-02 -5.054297856986522675e-03 5.084218829870223999e-02 1.342096924781799316e-02 1.530934870243072510e-02 2.815638296306133270e-02 1.924880221486091614e-02 8.545013144612312317e-03 -2.697659423574805260e-03 -2.144818380475044250e-02 3.407181799411773682e-02 1.034528389573097229e-02 4.914342891424894333e-03 2.648315019905567169e-02 7.171404547989368439e-03 2.439024671912193298e-02 -4.676305502653121948e-02 -2.229889482259750366e-02 1.875321008265018463e-02 1.103608310222625732e-02 2.111192233860492706e-02 -5.669049452990293503e-03 5.355680733919143677e-02 3.227757290005683899e-02 -1.587509922683238983e-02 4.694787785410881042e-03 1.616008230485022068e-03 -3.552904352545738220e-02 -2.059593051671981812e-02 -1.402707537636160851e-03 5.726706609129905701e-02 3.082995244767516851e-04 2.895066514611244202e-02 -5.320306122303009033e-02 1.394245866686105728e-02 1.047799084335565567e-02 1.427075080573558807e-02 -1.190654374659061432e-02 7.615040522068738937e-03 1.423294655978679657e-02 -4.699873551726341248e-02 1.492912229150533676e-02 -3.874154388904571533e-02 -2.935973368585109711e-02 -2.941556088626384735e-02 3.527425229549407959e-02 -1.558928005397319794e-02 -7.195425778627395630e-02 3.924355655908584595e-02 5.386188160628080368e-03 2.584599144756793976e-02 -3.228835389018058777e-02 2.748472848907113075e-03 -1.136664021760225296e-02 3.096174215897917747e-03 -6.222009193152189255e-03 -1.607533544301986694e-02 -9.888993576169013977e-03 4.431253299117088318e-02 -1.999620115384459496e-03 -3.483695909380912781e-02 -3.848244994878768921e-02 -2.184685319662094116e-02 1.135613117367029190e-02 5.858952179551124573e-02 4.899814259260892868e-03 2.775238081812858582e-02 1.604637689888477325e-02 1.816530339419841766e-02 2.053663367405533791e-03 -8.836861699819564819e-03 4.456459078937768936e-03 -4.200590308755636215e-03 4.083042219281196594e-02 -3.566275164484977722e-02 1.256189681589603424e-02 2.111654914915561676e-02 -1.567022316157817841e-02 -2.638257481157779694e-02 -3.509209305047988892e-02 -1.825843937695026398e-02 -1.989957131445407867e-02 -1.193753816187381744e-02 -2.804498933255672455e-02 7.682344876229763031e-03 6.412430200725793839e-03 -2.687602117657661438e-02 -1.221143081784248352e-02 -4.323575273156166077e-02 -2.997484430670738220e-02 2.664825005922466516e-04 -2.580939233303070068e-02 3.293652459979057312e-02 -2.353368699550628662e-02 3.838044404983520508e-02 5.215729773044586182e-02 1.772258616983890533e-02 -3.103596344590187073e-02 -2.511307224631309509e-02 3.731821477413177490e-02 -4.504738375544548035e-02 4.248932003974914551e-02 1.325713749974966049e-02 1.772365346550941467e-02 2.834515832364559174e-02 -1.151205785572528839e-02 -1.937591470777988434e-02 -3.398020565509796143e-02 -1.227039843797683716e-02 2.646098285913467407e-02 1.595230028033256531e-02 3.675361350178718567e-02 -3.045441582798957825e-03 -5.803191568702459335e-03 4.648168571293354034e-03 -1.374377496540546417e-02 4.693334177136421204e-02 -2.315156906843185425e-02 1.537586748600006104e-02 1.614677347242832184e-02 -4.273353144526481628e-03 8.039875887334346771e-03 -2.926762681454420090e-03 5.222507752478122711e-04 -3.180678188800811768e-02 -3.948684781789779663e-02 2.796845696866512299e-02 5.669175181537866592e-03 -1.983509398996829987e-02 -9.428892284631729126e-03 -7.711669802665710449e-02 7.225876906886696815e-04 -2.519538439810276031e-02 -4.116647876799106598e-03 -1.087344833649694920e-03 1.365843135863542557e-02 -1.693564280867576599e-02 -4.260107502341270447e-02 -2.989363390952348709e-03 -3.547475486993789673e-02 -8.800730109214782715e-02 4.075577110052108765e-02 -3.436041297391057014e-03 2.172058261930942535e-02 -3.655415028333663940e-02 2.263519726693630219e-02 3.631687164306640625e-02 4.175124689936637878e-02 -1.267684157937765121e-02 1.517757028341293335e-02 1.877328939735889435e-02 1.816105470061302185e-02 -8.481889031827449799e-03 -9.467799216508865356e-03 6.188542465679347515e-04 -1.893348619341850281e-02 -8.586558513343334198e-03 2.285682596266269684e-02 -1.744242571294307709e-02 -8.601513691246509552e-03 1.747355796396732330e-02 -2.600745530799031258e-03 -3.747187182307243347e-02 -9.915178641676902771e-03 -6.878391653299331665e-02 2.796567417681217194e-02 -4.169610142707824707e-02 6.022356916218996048e-03 3.159277886152267456e-02 1.238258183002471924e-02 -1.677302457392215729e-02 -1.341595593839883804e-02 -1.748598180711269379e-02 -8.280697278678417206e-03 -4.278773441910743713e-02 -1.141593791544437408e-02 2.343501895666122437e-02 1.379835791885852814e-02 -2.853178884834051132e-03 4.427343979477882385e-02 3.166923299431800842e-02 2.026644907891750336e-02 -2.012168802320957184e-02 1.907250285148620605e-02 2.254424989223480225e-02 -4.446684941649436951e-02 -7.522703148424625397e-03 -2.780948951840400696e-02 3.911110013723373413e-02 1.373042352497577667e-02 -5.569922737777233124e-03 -1.158618088811635971e-02 1.077394559979438782e-02 1.081171818077564240e-02 -2.780973166227340698e-02 1.025366713292896748e-03 1.512398198246955872e-02 2.880982309579849243e-02 -7.180394604802131653e-04 6.718440353870391846e-02 -4.399927798658609390e-03 -2.556903846561908722e-02 -1.872016116976737976e-02 3.071340918540954590e-02 3.632035804912447929e-03 3.196271508932113647e-02 2.674296963959932327e-03 8.107927627861499786e-03 -3.633854538202285767e-02 -4.152099415659904480e-02
