-2.388870418071746826e-01 -1.166164577007293701e-01 5.167004838585853577e-02 3.855235641822218895e-03 -1.100393533706665039e-01 -8.492253720760345459e-02 2.104918472468852997e-02 -6.010529771447181702e-02 1.140154004096984863e-01 -2.806011140346527100e-01 -1.337641477584838867e-01 1.083614379167556763e-01
8.106283098459243774e-02 8.246237039566040039e-02 1.081674918532371521e-01 -8.417563885450363159e-02 8.308228105306625366e-02 -1.013433281332254410e-02 -1.322786808013916016e-01 -2.177417837083339691e-02 -1.734502464532852173e-01 8.524478971958160400e-02 1.333134528249502182e-02 1.186022609472274780e-01
-1.094862967729568481e-01 -3.955718129873275757e-02 -6.310896575450897217e-02 -2.957905270159244537e-02 9.992083162069320679e-02 3.792949765920639038e-02 2.182433754205703735e-01 -4.737844318151473999e-02 -2.607877254486083984e-01 -1.140505746006965637e-01 -7.368017733097076416e-02 1.945135556161403656e-02
2.083324640989303589e-02 -2.472750842571258545e-01 -6.926214694976806641e-02 7.820434868335723877e-03 -3.547458052635192871e-01 -1.065822988748550415e-01 2.813403606414794922e-01 -6.535859405994415283e-02 -9.808902442455291748e-02 -1.781982928514480591e-01 -2.548939287662506104e-01 1.010090261697769165e-01
1.126361414790153503e-01 -1.018296107649803162e-01 -7.875839620828628540e-02 6.502696126699447632e-02 -2.788335382938385010e-01 -1.347172260284423828e-01 -1.550238877534866333e-01 -5.136470869183540344e-02 2.396706193685531616e-01 -1.445690095424652100e-01 -1.773526221513748169e-01 5.567061901092529297e-02
-2.999453805387020111e-02 4.220670834183692932e-02 1.740196719765663147e-02 -2.446159720420837402e-02 4.516526311635971069e-02 -1.737367361783981323e-02 -1.621715910732746124e-02 -2.450293675065040588e-02 -3.260685503482818604e-01 8.245848119258880615e-03 -5.126404762268066406e-02 -1.590652950108051300e-02
1.393938064575195312e-02 7.963575422763824463e-03 -4.464986547827720642e-02 -2.538654394447803497e-02 3.104109317064285278e-02 7.735176384449005127e-02 4.845153167843818665e-02 -1.182425767183303833e-02 -1.254870593547821045e-01 1.398797333240509033e-02 -1.732001430355012417e-03 -1.134926974773406982e-01
-1.491066664457321167e-01 -6.400670856237411499e-02 -9.135755896568298340e-02 -1.032278612256050110e-01 1.578069776296615601e-01 1.587771773338317871e-01 4.105006158351898193e-02 -4.997903108596801758e-02 5.777830723673105240e-03 -1.073776334524154663e-01 1.746577322483062744e-01 4.783223569393157959e-02
1.467375550419092178e-02 1.368299424648284912e-01 7.920249551534652710e-02 1.979466676712036133e-01 1.767001450061798096e-01 -4.844632372260093689e-02 -1.147831082344055176e-01 -2.513581700623035431e-02 -7.032742351293563843e-02 -1.806190758943557739e-01 2.677290141582489014e-01 -7.235116790980100632e-03
-1.702479785308241844e-03 -1.797187142074108124e-02 -4.754580557346343994e-02 1.509513109922409058e-01 1.228464022278785706e-02 3.496264666318893433e-02 -2.396458946168422699e-02 -3.485371917486190796e-02 2.042024433612823486e-01 -1.193073689937591553e-01 2.543525993824005127e-01 1.101488694548606873e-01
1.844052821397781372e-01 -1.177558675408363342e-02 -7.848542183637619019e-02 9.365051239728927612e-02 -4.457154124975204468e-02 -4.427095130085945129e-02 2.300206720829010010e-01 -1.972108148038387299e-02 -3.862749040126800537e-02 -1.375345438718795776e-01 7.453399151563644409e-02 -4.752573370933532715e-02
-3.203917585778981447e-04 3.591730073094367981e-02 4.942490160465240479e-02 -1.768900156021118164e-01 -5.662377923727035522e-03 3.024016879498958588e-02 -3.367914855480194092e-01 -5.083538591861724854e-02 8.350954949855804443e-02 -1.500782072544097900e-01 2.209023199975490570e-02 -5.847279354929924011e-02
1.743625104427337646e-01 -9.858294576406478882e-02 -7.001675665378570557e-02 -5.867094174027442932e-02 -9.841117262840270996e-02 -2.189500257372856140e-02 2.915773987770080566e-01 -3.547048941254615784e-02 -6.748194992542266846e-02 8.459091186523437500e-02 -4.202357493340969086e-03 2.393496483564376831e-01
-3.358837962150573730e-02 -1.055817008018493652e-01 -1.256013214588165283e-01 -7.320554554462432861e-02 1.505812704563140869e-01 3.890623450279235840e-01 6.199794262647628784e-02 -2.976643294095993042e-02 -9.090783447027206421e-02 -6.106037274003028870e-02 5.039939284324645996e-02 -4.260972887277603149e-02
2.047073096036911011e-01 -3.389919409528374672e-03 5.919280275702476501e-02 1.532442960888147354e-02 1.241319403052330017e-01 2.638610005378723145e-01 -1.006584987044334412e-01 -3.495436161756515503e-02 -4.601412266492843628e-02 -1.601149514317512512e-02 1.057225093245506287e-01 1.444411873817443848e-01
-1.320429444313049316e-01 4.397064074873924255e-02 1.301104575395584106e-01 1.254093497991561890e-01 -7.591015100479125977e-02 -8.590788394212722778e-02 -1.791658848524093628e-01 -4.915260896086692810e-02 -1.542199105024337769e-01 -2.706467807292938232e-01 -1.478400528430938721e-01 9.852714091539382935e-02
9.105336666107177734e-02 1.735061556100845337e-01 3.796025412157177925e-03 1.141471341252326965e-01 2.293744832277297974e-01 2.846290357410907745e-02 -1.179251485154964030e-04 -2.665137127041816711e-02 -2.058689892292022705e-01 -8.306390792131423950e-02 2.708470821380615234e-01 2.112205326557159424e-02
-2.955070137977600098e-01 -1.129567250609397888e-02 1.088195219635963440e-01 -8.931419998407363892e-02 8.313205093145370483e-02 2.320697158575057983e-01 -1.344127766788005829e-02 -8.281389623880386353e-02 1.264116764068603516e-01 -2.674869894981384277e-01 -8.429677691310644150e-04 -1.370706260204315186e-01
-6.630378193221986294e-04 1.065254327841103077e-03 -1.302571617998182774e-03 -1.430618925951421261e-03 2.287142910063266754e-03 1.517860684543848038e-03 2.465640893206000328e-03 -4.601952678058296442e-04 -4.350001458078622818e-03 4.871957004070281982e-03 -1.518862205557525158e-03 -3.954918589442968369e-03
-1.925284266471862793e-01 -1.767394691705703735e-01 -2.243349105119705200e-01 -1.162404119968414307e-01 -3.560509160161018372e-02 8.354900032281875610e-02 4.960203543305397034e-02 -6.098307296633720398e-02 -1.365056168287992477e-02 -2.500460743904113770e-01 -1.456919014453887939e-01 1.754218041896820068e-01
-4.359927494078874588e-03 3.849794738925993443e-04 -5.671901628375053406e-03 -2.337184123462066054e-04 -1.535108685493469238e-02 -3.882766142487525940e-02 -6.621295586228370667e-03 -4.077267367392778397e-04 1.597471768036484718e-03 2.809464465826749802e-03 6.749622523784637451e-03 4.128576256334781647e-04
2.932257950305938721e-03 -1.039090193808078766e-02 3.649356216192245483e-02 -1.623046100139617920e-01 -1.656978875398635864e-01 -8.243055641651153564e-02 -2.717786431312561035e-01 -5.497805029153823853e-02 7.549344748258590698e-02 1.354220658540725708e-01 -2.356993108987808228e-01 -3.790855780243873596e-02
-1.765161193907260895e-02 5.241861799731850624e-04 -1.455610897392034531e-02 -5.152598954737186432e-03 -2.162849716842174530e-02 -6.224827468395233154e-02 -1.251580938696861267e-02 -6.576662417501211166e-03 -9.976988658308982849e-03 6.152325775474309921e-03 4.964105784893035889e-03 2.491732127964496613e-02
-1.287607119593303651e-06 -9.991971311255104220e-29 -2.879608236463414079e-26 1.508262930955714496e-17 4.805610576141816637e-09 5.816388169710418055e-12 -1.004045402375197682e-09 -1.830392696206865338e-23 -2.213330543522681167e-21 2.113441496476298198e-06 -4.297092404126345855e-10 6.184316703183867503e-08
-7.744477689266204834e-02 -2.391733601689338684e-02 5.967162176966667175e-02 7.928717136383056641e-02 -7.679418474435806274e-02 -3.246475756168365479e-02 1.407559514045715332e-01 -2.744796499609947205e-02 2.236852794885635376e-02 -6.724752485752105713e-03 -6.813088059425354004e-02 -1.837418079376220703e-01
-1.710897982120513916e-01 -1.553752720355987549e-01 -3.882966563105583191e-02 -1.405416727066040039e-01 -2.218928784132003784e-01 -6.657997518777847290e-02 -2.852375805377960205e-01 -7.237493246793746948e-02 1.062382385134696960e-02 2.317793071269989014e-01 -2.470340281724929810e-01 2.223904430866241455e-02
3.189400583505630493e-02 6.540578603744506836e-02 1.426948583684861660e-03 -5.552432313561439514e-02 5.571328103542327881e-02 -1.117054466158151627e-02 -4.693279415369033813e-02 -1.414093654602766037e-02 -1.460807323455810547e-01 5.470647290349006653e-02 4.368123412132263184e-02 -1.084354072809219360e-01
-4.041546583175659180e-02 -1.982238888740539551e-02 -3.378404304385185242e-02 -2.341425567865371704e-01 -1.085930094122886658e-01 -7.735465466976165771e-02 -3.330441713333129883e-01 -6.501731276512145996e-02 1.667864173650741577e-01 4.774258285760879517e-02 -8.764049969613552094e-03 -4.254194349050521851e-02
3.587992861866950989e-02 1.116418838500976562e-01 1.000348404049873352e-01 4.314942657947540283e-02 -1.524230558425188065e-02 -1.712174564599990845e-01 -6.141372397541999817e-02 -2.045431546866893768e-02 -1.196865513920783997e-01 -7.032732665538787842e-02 5.778355151414871216e-02 -4.926728829741477966e-02
-1.049854233860969543e-01 -1.285439580678939819e-01 -1.256626993417739868e-01 -1.264415085315704346e-01 8.466304093599319458e-02 3.532606363296508789e-02 7.512617856264114380e-02 -4.773013666272163391e-02 1.954728215932846069e-01 5.874585732817649841e-02 -1.181577667593955994e-01 -2.614830434322357178e-01
-7.726994901895523071e-02 3.528708126395940781e-03 -5.851338803768157959e-02 1.645141839981079102e-02 -3.770895674824714661e-02 -2.460495084524154663e-01 -3.111519850790500641e-02 -4.271128773689270020e-02 2.034257352352142334e-01 -8.410137891769409180e-02 5.623911321163177490e-02 -8.591166883707046509e-02
-1.429490000009536743e-02 -1.701307147741317749e-01 -2.469554776325821877e-03 -2.548064221628010273e-04 -1.614260673522949219e-01 2.169078588485717773e-02 -8.329325914382934570e-02 -6.172915920615196228e-02 -8.096588402986526489e-02 -3.312661349773406982e-01 -3.389821052551269531e-01 4.603676497936248779e-02
-4.912056401371955872e-02 4.629888013005256653e-02 -8.505542762577533722e-03 1.041257195174694061e-02 -1.366687864065170288e-01 -3.645478785037994385e-01 -8.140643686056137085e-02 -4.011392965912818909e-02 -4.766497295349836349e-03 -1.564594954252243042e-01 9.676954150199890137e-02 2.162685059010982513e-02
1.357201711016386980e-07 -1.160758255165169991e-19 -6.548403515124622498e-28 -9.329487511422485113e-07 7.799276318110059947e-06 -5.758435584922103057e-14 1.284756990571622737e-06 3.354703342195888748e-29 -2.039001921487182511e-31 -1.933888297981148363e-13 4.796668306994433806e-08 1.145781496347808570e-07
-2.061359286308288574e-01 -1.083666011691093445e-01 -8.960881084203720093e-02 -4.849964007735252380e-02 -3.287074714899063110e-02 2.407922409474849701e-02 1.291961818933486938e-01 -4.484084993600845337e-02 7.318323105573654175e-02 -6.593862175941467285e-02 1.748192124068737030e-02 -1.231957972049713135e-01
-2.543920278549194336e-02 -2.065189182758331299e-02 -6.716798990964889526e-02 -7.838109880685806274e-02 1.404787302017211914e-01 2.576403021812438965e-01 -4.738813638687133789e-02 -2.425323612987995148e-02 -7.285493612289428711e-02 -7.831332832574844360e-02 -4.007663950324058533e-02 -1.430211663246154785e-01
5.202296748757362366e-02 -2.860706672072410583e-02 -7.257862389087677002e-02 1.019208598881959915e-02 -1.671755164861679077e-01 -1.096410751342773438e-01 4.243663977831602097e-03 -4.786263778805732727e-02 -3.805084154009819031e-02 -2.508719824254512787e-02 1.960493437945842743e-02 1.508107874542474747e-02
6.161293014883995056e-02 2.484919503331184387e-02 -4.349583387374877930e-02 3.271523397415876389e-03 -6.651653349399566650e-02 -1.575865894556045532e-01 -1.953513175249099731e-02 -1.963702589273452759e-02 6.376301497220993042e-02 -6.879556458443403244e-03 6.044704467058181763e-02 -1.822398453950881958e-01
-1.502244621515274048e-01 2.708810009062290192e-02 8.924709260463714600e-02 6.697426736354827881e-02 -5.572716519236564636e-02 -1.125780865550041199e-01 1.706452341750264168e-03 -4.537335410714149475e-02 -3.642190992832183838e-01 -1.008562818169593811e-01 -1.905408650636672974e-01 2.220481336116790771e-01
1.510609388351440430e-01 3.575300425291061401e-02 -5.401296168565750122e-02 -3.145250678062438965e-02 -5.830045789480209351e-02 -1.223468333482742310e-01 -4.039971530437469482e-02 -1.643366366624832153e-02 -1.585726737976074219e-01 1.779069425538182259e-04 9.704520553350448608e-02 3.092760778963565826e-02
-1.919127851724624634e-01 -2.523356862366199493e-02 5.887532234191894531e-02 -1.654825545847415924e-02 2.967611327767372131e-02 1.246106997132301331e-01 -1.436101198196411133e-01 -4.094604030251502991e-02 1.179883480072021484e-01 -2.612046711146831512e-02 -5.372471734881401062e-02 -1.524430960416793823e-01
-4.092924646101891994e-04 -4.394323006272315979e-02 -2.193400114774703979e-01 -1.425401270389556885e-01 1.258393228054046631e-01 6.658414751291275024e-02 8.196904510259628296e-02 -3.735033422708511353e-02 -4.850640520453453064e-02 7.171101868152618408e-02 1.842141896486282349e-01 -1.271927952766418457e-01
-2.485779672861099243e-02 4.419416561722755432e-02 3.015333600342273712e-02 -2.730324864387512207e-02 4.836820438504219055e-02 5.002287216484546661e-03 -7.166875898838043213e-02 -1.961543411016464233e-02 -2.129204012453556061e-02 -3.148919716477394104e-02 -1.784644834697246552e-02 -1.746854335069656372e-01
1.913160383701324463e-01 -6.627111881971359253e-02 -1.635660976171493530e-01 -1.052918657660484314e-01 -1.363963186740875244e-01 -5.760405212640762329e-02 9.619170450605452061e-04 -2.346760779619216919e-02 -1.292652934789657593e-01 1.911463402211666107e-02 -4.443847388029098511e-02 -5.702381581068038940e-02
1.471612835302948952e-03 -5.173018435016274452e-04 -1.617704692762345076e-04 2.962351718451827765e-04 -9.343151468783617020e-04 -9.554057614877820015e-04 -2.539340639486908913e-04 -2.023200067924335599e-04 8.383393869735300541e-04 -1.454466255381703377e-03 6.949933595024049282e-04 2.195712644606828690e-03
-1.279256027191877365e-02 1.395777240395545959e-02 -4.891937971115112305e-02 -3.113762941211462021e-03 5.273515358567237854e-02 -8.784180134534835815e-02 5.752184614539146423e-02 -3.397361189126968384e-02 1.363412588834762573e-01 -9.624969959259033203e-02 2.497898042201995850e-02 -2.669162154197692871e-01
7.398340106010437012e-02 -9.014507522806525230e-04 -9.457263164222240448e-03 -1.935350745916366577e-01 3.555104136466979980e-02 -1.960849612951278687e-01 -1.555931866168975830e-01 -4.416923224925994873e-02 -3.929949179291725159e-02 -2.003026902675628662e-01 9.368738532066345215e-02 1.748504638671875000e-01
3.378527611494064331e-02 -8.234626054763793945e-02 -7.767649739980697632e-02 -8.145511895418167114e-02 -4.207707196474075317e-02 3.589770570397377014e-02 2.153465896844863892e-02 -3.095288388431072235e-02 -2.596041262149810791e-01 -1.219267258420586586e-03 -1.871529780328273773e-02 2.594977617263793945e-01
8.522690087556838989e-02 -2.363592684268951416e-01 -1.454497724771499634e-01 -8.547842502593994141e-02 -2.869630157947540283e-01 1.325855553150177002e-01 -1.228970568627119064e-02 -5.620654299855232239e-02 -2.288402989506721497e-02 -3.440936803817749023e-01 -1.192155256867408752e-01 -7.083826512098312378e-02
-6.644242256879806519e-02 -1.567035764455795288e-01 -9.931139647960662842e-02 -7.991063594818115234e-02 -1.685685962438583374e-01 -7.572051137685775757e-02 -5.963377654552459717e-02 -5.190740153193473816e-02 1.782961785793304443e-01 -7.093542814254760742e-02 -7.644019275903701782e-02 -1.191682517528533936e-01
-6.052090227603912354e-02 -1.912929266691207886e-01 -2.957912981510162354e-01 -1.651910245418548584e-01 -1.035322844982147217e-01 2.213696576654911041e-02 5.221467465162277222e-02 -5.795288085937500000e-02 9.726679325103759766e-02 8.975232392549514771e-02 -3.638115525245666504e-02 1.800494082272052765e-02
2.064696550369262695e-01 1.734840124845504761e-01 1.707506030797958374e-01 3.045381046831607819e-02 1.321604475378990173e-02 -1.008369624614715576e-01 -2.314759790897369385e-01 -3.691555932164192200e-02 -1.293853223323822021e-01 1.896014958620071411e-01 7.081680744886398315e-02 -1.675895452499389648e-01
-7.321745157241821289e-02 5.991814658045768738e-02 -1.876885071396827698e-02 -5.742659047245979309e-02 1.326489150524139404e-01 4.881018772721290588e-02 -1.499260216951370239e-01 -4.012910276651382446e-02 -2.982075810432434082e-01 1.648265570402145386e-01 2.373473951593041420e-03 2.863165438175201416e-01
-8.193873614072799683e-02 8.118574321269989014e-02 1.163332760334014893e-01 2.830452658236026764e-02 -1.684135384857654572e-02 -1.528910994529724121e-01 -9.812417626380920410e-02 -2.581507340073585510e-02 -6.829659640789031982e-02 -2.970945835113525391e-02 -5.481124669313430786e-02 -6.614685058593750000e-02
1.429891437292098999e-01 -4.622443020343780518e-02 -2.093132436275482178e-01 -2.885537222027778625e-02 -1.037877053022384644e-01 -2.065182626247406006e-01 -8.141162246465682983e-02 -3.983428701758384705e-02 1.201982647180557251e-01 1.655168980360031128e-01 2.018471360206604004e-01 -4.075576737523078918e-02
-5.635542050004005432e-02 -1.498019993305206299e-01 3.412618488073348999e-02 1.170253939926624298e-02 -1.418967843055725098e-01 2.624785006046295166e-01 -5.484538152813911438e-02 -4.051322117447853088e-02 -4.304329678416252136e-02 1.466521769762039185e-01 -1.569303125143051147e-01 -1.634560227394104004e-01
7.035104185342788696e-02 -1.687554828822612762e-02 -4.312304779887199402e-03 -5.939918011426925659e-02 -1.105471849441528320e-01 -2.000353336334228516e-01 -5.752996727824211121e-02 -3.160218149423599243e-02 -1.177276968955993652e-01 -5.598100647330284119e-02 -2.370503358542919159e-02 2.185400575399398804e-01
2.865831255912780762e-01 -6.853783130645751953e-02 4.528707265853881836e-02 9.394618682563304901e-03 -3.019473254680633545e-01 -7.661961950361728668e-03 -2.356076687574386597e-01 -4.724255204200744629e-02 -1.572723872959613800e-02 -1.727495193481445312e-01 -5.859662219882011414e-02 -6.115356832742691040e-02
-2.393774837255477905e-01 -1.851507574319839478e-01 -1.129247620701789856e-01 -1.678671687841415405e-01 -1.523144543170928955e-01 -2.817176282405853271e-03 1.598348915576934814e-01 -6.750611960887908936e-02 1.251544058322906494e-01 6.763267517089843750e-02 -2.940620183944702148e-01 -1.666435301303863525e-01
-4.027725011110305786e-02 6.927473843097686768e-02 -4.409864172339439392e-02 -3.348162025213241577e-02 1.332203298807144165e-01 -1.273070871829986572e-01 -7.338768243789672852e-02 -2.601679973304271698e-02 -9.365625679492950439e-02 7.649686653167009354e-03 5.857266858220100403e-02 1.430954039096832275e-01
-2.349231624975800514e-03 6.107125431299209595e-03 1.617977619171142578e-01 1.161851361393928528e-01 -2.044070214033126831e-01 2.279838733375072479e-02 -8.438017964363098145e-02 -5.290823057293891907e-02 -9.620378166437149048e-02 -3.853221833705902100e-01 -2.329588532447814941e-01 1.182390302419662476e-01
1.078745815902948380e-02 9.436096996068954468e-02 8.210831880569458008e-02 3.713803738355636597e-02 8.701528608798980713e-02 7.196716964244842529e-02 3.960513323545455933e-02 -2.176726423203945160e-02 -2.552865147590637207e-01 -6.269513815641403198e-02 3.566426783800125122e-02 -1.382453441619873047e-01
-1.223745569586753845e-01 -1.499465554952621460e-01 -1.874479651451110840e-01 -1.820196807384490967e-01 -3.164109215140342712e-02 2.736783586442470551e-02 6.921032816171646118e-02 -5.170078948140144348e-02 -1.323879510164260864e-02 1.136429831385612488e-01 -5.816564708948135376e-02 -2.912633121013641357e-01
-7.878713309764862061e-02 7.882355153560638428e-02 4.141864180564880371e-02 -2.144111134111881256e-02 1.685902923345565796e-01 1.884727180004119873e-01 2.341677621006965637e-02 -4.081013053655624390e-02 -2.988327145576477051e-01 -3.278856724500656128e-02 4.090248420834541321e-02 3.424416109919548035e-02
-6.349825859069824219e-02 4.018934443593025208e-02 -5.693155154585838318e-02 -3.641620650887489319e-02 -1.277417992241680622e-03 -1.616929322481155396e-01 -4.561440274119377136e-02 -1.956516876816749573e-02 -2.089231833815574646e-02 5.830136686563491821e-02 6.575031578540802002e-02 1.337719988077878952e-02
-1.177662760019302368e-01 -7.282853126525878906e-02 5.252968519926071167e-02 -1.211291179060935974e-02 -1.878539770841598511e-01 -1.863170415163040161e-01 -8.006767183542251587e-02 -5.115003138780593872e-02 1.224237903952598572e-01 -6.745737046003341675e-02 -1.117492169141769409e-01 1.619771271944046021e-01
1.360830012708902359e-02 -9.725857526063919067e-02 -4.487084969878196716e-02 -1.208394989371299744e-01 1.838919669389724731e-01 2.167219221591949463e-01 -7.644212990999221802e-02 -3.555359691381454468e-02 -1.110877096652984619e-01 1.297275424003601074e-01 3.284464403986930847e-02 8.868258446455001831e-02
-2.068162262439727783e-01 5.127066001296043396e-02 5.349449813365936279e-02 -9.475070983171463013e-02 1.031339317560195923e-01 -1.686708033084869385e-01 -2.095991075038909912e-01 -6.085330247879028320e-02 1.167879551649093628e-01 5.345721542835235596e-02 3.150824457406997681e-02 -1.820920258760452271e-01
5.677693057805299759e-03 9.514247067272663116e-03 -7.780377753078937531e-03 7.450789213180541992e-02 -5.527955363504588604e-04 -4.565510898828506470e-02 1.429704427719116211e-01 -2.657137997448444366e-02 -2.582327425479888916e-01 -1.361898630857467651e-01 -2.685810998082160950e-02 8.526857942342758179e-02
-1.622632145881652832e-02 -4.348938167095184326e-02 -7.320632785558700562e-02 -1.225707754492759705e-01 -1.666220463812351227e-02 1.280179768800735474e-01 -5.926908925175666809e-02 -7.779932022094726562e-02 1.688921004533767700e-01 7.075440883636474609e-02 -4.433900117874145508e-02 -2.410367429256439209e-01
5.562356486916542053e-02 -3.600510582327842712e-02 -2.180410325527191162e-01 -1.577858328819274902e-01 -8.685393631458282471e-02 -1.991360485553741455e-01 -1.322312057018280029e-01 -4.949514940381050110e-02 -5.422537401318550110e-02 1.759123355150222778e-01 8.054812997579574585e-02 -3.108224645256996155e-02
-5.205918103456497192e-02 -1.720550805330276489e-01 -3.727291896939277649e-02 -1.456982195377349854e-01 -2.836415469646453857e-01 -1.307982057332992554e-01 -1.230349317193031311e-01 -7.388184964656829834e-02 5.350586026906967163e-02 -1.251009702682495117e-01 -3.031091988086700439e-01 9.217371791601181030e-02
3.056623414158821106e-02 -1.869739592075347900e-01 -1.985366940498352051e-01 -1.796893030405044556e-01 -2.329134941101074219e-01 -1.434596925973892212e-01 -4.272907972335815430e-02 -6.573832035064697266e-02 4.369808360934257507e-02 3.696149215102195740e-02 -1.040593460202217102e-01 -1.335726492106914520e-02
-6.251298822462558746e-03 1.012668479233980179e-02 -8.757118135690689087e-03 -1.705921441316604614e-02 1.661115884780883789e-02 7.731616497039794922e-03 3.202972235158085823e-03 -3.517607925459742546e-03 -3.977621719241142273e-02 2.924413606524467468e-02 -7.525446359068155289e-03 -6.260856986045837402e-03
4.231772944331169128e-02 -3.121954621747136116e-03 4.288297519087791443e-02 4.538824781775474548e-03 4.917100816965103149e-02 6.760811805725097656e-02 -7.787438482046127319e-02 -1.980305835604667664e-02 -4.215596243739128113e-02 3.398230671882629395e-01 1.144968625158071518e-02 3.923780098557472229e-02
-1.995188891887664795e-01 -3.578161448240280151e-02 4.109781980514526367e-02 1.716394573450088501e-01 -5.451783654280006886e-04 9.024354070425033569e-02 1.086662933230400085e-01 -7.393426448106765747e-02 7.367412000894546509e-02 -3.514022827148437500e-01 -1.640507131814956665e-01 -1.468373388051986694e-01
-1.962003111839294434e-01 -1.725085228681564331e-01 -7.503537088632583618e-02 -1.186564266681671143e-01 -2.004400342702865601e-01 -1.203214153647422791e-01 -1.176015585660934448e-01 -7.478996366262435913e-02 1.281140595674514771e-01 -1.436007618904113770e-01 -2.135264873504638672e-01 -9.754574298858642578e-02
1.136607024818658829e-02 -1.042782589793205261e-01 -1.702198088169097900e-01 -9.538567811250686646e-02 -3.451903583481907845e-03 1.133211031556129456e-01 -6.648534536361694336e-02 -2.889950200915336609e-02 -1.192500814795494080e-01 1.680202931165695190e-01 -9.530588984489440918e-02 5.444830656051635742e-02
-8.567023091018199921e-03 -1.659448146820068359e-01 1.248396039009094238e-01 1.284010987728834152e-02 -2.256968766450881958e-01 8.783834427595138550e-02 -3.597699105739593506e-02 -5.716409161686897278e-02 -5.585347861051559448e-02 -3.705528974533081055e-01 -2.776470482349395752e-01 -5.927472561597824097e-02
-1.019522920250892639e-01 -1.669279858469963074e-02 7.490659598261117935e-03 6.525328010320663452e-02 -4.100005142390727997e-03 3.022171743214130402e-02 1.413254737854003906e-01 1.017463579773902893e-02 4.730524122714996338e-02 8.618896454572677612e-02 -5.437135323882102966e-02 -9.790646843612194061e-03
1.602330594323575497e-03 -4.717351496219635010e-02 -1.530015021562576294e-01 9.312407200923189521e-05 1.765984669327735901e-02 -1.824157983064651489e-01 -7.667385041713714600e-02 -3.954810649156570435e-02 3.214170038700103760e-01 -6.596724689006805420e-02 3.642962276935577393e-01 -2.408473566174507141e-02
-4.447358548641204834e-01 -5.975421145558357239e-02 -1.270955055952072144e-01 -7.807441800832748413e-02 -8.273147046566009521e-02 -2.633222937583923340e-02 -2.323731034994125366e-01 -5.690027773380279541e-02 2.705659531056880951e-02 -6.965868175029754639e-02 -6.053927913308143616e-02 1.132411435246467590e-01
-2.469764351844787598e-01 4.320769011974334717e-02 8.573439717292785645e-02 -4.739917814731597900e-02 4.412163421511650085e-02 2.057952731847763062e-01 -5.907286703586578369e-02 -3.091409057378768921e-02 4.886930435895919800e-02 1.563023179769515991e-01 2.030058298259973526e-03 -9.722351282835006714e-02
2.121228724718093872e-02 -1.238103061914443970e-01 -1.933608055114746094e-01 -1.592506021261215210e-01 -6.216139718890190125e-02 1.046982482075691223e-01 -9.170892834663391113e-02 -5.019508302211761475e-02 1.762357801198959351e-01 4.499344155192375183e-02 -6.093600764870643616e-03 -1.442012190818786621e-01
2.183552831411361694e-01 -5.265123397111892700e-02 -1.552393734455108643e-01 -1.055874601006507874e-01 -1.804854869842529297e-01 -3.525801375508308411e-02 2.205588519573211670e-01 -3.716613724827766418e-02 -4.910055175423622131e-02 8.857518434524536133e-02 -1.524977385997772217e-01 -1.455820202827453613e-01
-1.912057399749755859e-01 -1.513128634542226791e-03 6.975570321083068848e-02 -1.359073817729949951e-01 1.555019021034240723e-01 -1.639834791421890259e-01 -3.118837773799896240e-01 -6.703885644674301147e-02 7.918167859315872192e-02 1.336126476526260376e-01 7.862213253974914551e-02 1.554166227579116821e-01
1.692063175141811371e-02 -6.444042176008224487e-02 -1.186585426330566406e-01 -9.638759493827819824e-02 1.108858361840248108e-01 1.719582825899124146e-01 3.994396701455116272e-02 -4.412304610013961792e-02 -4.441652446985244751e-02 6.974631547927856445e-02 -2.900664322078227997e-02 1.438158601522445679e-01
-5.974096059799194336e-02 -2.328445389866828918e-02 -1.581911444664001465e-01 -1.435956060886383057e-01 5.250233784317970276e-02 -1.437350059859454632e-03 -2.485345005989074707e-01 -4.521302506327629089e-02 1.542741060256958008e-01 6.814359873533248901e-02 1.212869659066200256e-01 -1.431863158941268921e-01
-1.636956445872783661e-02 8.454221300780773163e-03 -2.939790429081767797e-04 -1.490547042340040207e-02 1.494694128632545471e-02 4.796717257704585791e-04 -4.467609338462352753e-03 -3.016856964677572250e-03 -2.033984847366809845e-02 2.166700176894664764e-02 -1.214035227894783020e-02 -2.341093681752681732e-02
1.065950095653533936e-01 2.611825428903102875e-02 2.446458488702774048e-02 1.135891973972320557e-01 -3.567804349586367607e-03 1.063858419656753540e-01 1.295880973339080811e-01 -1.624081842601299286e-02 3.191787749528884888e-02 -1.272259354591369629e-01 2.834048680961132050e-02 -8.853186666965484619e-02
6.994292140007019043e-02 -5.278155207633972168e-02 7.855749875307083130e-02 -4.212620109319686890e-02 -1.775166951119899750e-02 5.332091450691223145e-02 5.549707636237144470e-02 -3.203986957669258118e-02 -5.609651654958724976e-02 5.927622318267822266e-02 -1.365063488483428955e-01 -3.176894783973693848e-02
-7.129352539777755737e-02 -9.487918764352798462e-02 -1.240501999855041504e-01 -7.229366898536682129e-02 -3.648475930094718933e-02 2.001242786645889282e-01 7.671998441219329834e-02 -2.803253754973411560e-02 -1.322229802608489990e-01 1.813035756349563599e-01 -4.910560324788093567e-02 9.908540174365043640e-03
-8.847696334123611450e-02 -1.443127635866403580e-02 2.229559607803821564e-02 -2.048682719469070435e-01 2.834779918193817139e-01 2.893738746643066406e-01 -6.675757467746734619e-04 -3.934612870216369629e-02 1.175375357270240784e-01 -5.305397883057594299e-02 -7.771471887826919556e-02 -7.317559421062469482e-02
1.366580128669738770e-01 -3.088019974529743195e-02 -1.581386178731918335e-01 -4.365014284849166870e-02 -2.999545820057392120e-02 -1.546979546546936035e-01 -8.496445417404174805e-02 -2.807441912591457367e-02 5.058859288692474365e-02 -1.765540428459644318e-02 1.979770362377166748e-01 8.281660266220569611e-03
-1.200508847832679749e-01 -1.151953861117362976e-01 -1.631856411695480347e-01 -8.435692638158798218e-02 6.396075710654258728e-03 2.132763117551803589e-01 2.037393152713775635e-01 -3.635874763131141663e-02 -2.578412890434265137e-01 1.320526003837585449e-01 1.826570741832256317e-02 -1.078726127743721008e-01
-1.229302138090133667e-01 1.316954195499420166e-01 9.179193526506423950e-02 -3.521475475281476974e-03 2.413045465946197510e-01 1.665121689438819885e-02 -1.297448575496673584e-01 -3.882333263754844666e-02 7.479237765073776245e-02 -1.994229406118392944e-01 2.220582962036132812e-01 -1.448254287242889404e-01
-7.363050244748592377e-03 3.537203371524810791e-02 7.584034651517868042e-02 3.587730601429939270e-02 5.144879221916198730e-02 4.345490038394927979e-02 -9.960818290710449219e-02 -4.883331805467605591e-02 5.536556243896484375e-03 -1.931721717119216919e-01 6.779435276985168457e-02 -3.715795874595642090e-01
2.088580094277858734e-02 -1.238714233040809631e-01 -4.795506969094276428e-02 -6.153417751193046570e-02 -1.091920882463455200e-01 -5.742915347218513489e-02 -6.659072637557983398e-02 -4.754219576716423035e-02 1.626289635896682739e-01 1.445438992232084274e-02 1.673261225223541260e-01 1.477553248405456543e-01
-5.372449755668640137e-02 -1.517140120267868042e-01 8.255142893176525831e-05 -2.011266797780990601e-01 -1.923348754644393921e-01 -3.552211448550224304e-02 -3.217672109603881836e-01 -8.481208980083465576e-02 9.476669877767562866e-02 1.394438743591308594e-01 -1.686992943286895752e-01 -2.658675611019134521e-01
-6.545505020767450333e-04 -1.771255995208775857e-07 -4.353124083422699186e-08 -2.608130671433173120e-06 3.996489795099478215e-06 -1.851736597018316388e-04 2.597269485704600811e-04 -5.525979229759059308e-09 5.775211320724338293e-06 1.185970268124947324e-05 -1.829405533726458088e-07 4.751037340611219406e-05
-5.024604499340057373e-02 -5.795183777809143066e-02 -1.576932147145271301e-02 -9.283871948719024658e-02 -4.257274419069290161e-02 1.692268252372741699e-01 -2.025403678417205811e-01 -3.265363723039627075e-02 -1.194369792938232422e-01 -9.927482903003692627e-02 -9.227545559406280518e-02 8.941806107759475708e-02
-8.638126403093338013e-02 -1.306448578834533691e-01 -1.648427248001098633e-01 -1.885833591222763062e-01 -5.330848693847656250e-02 -6.672021467238664627e-03 -1.836376190185546875e-01 -5.783195421099662781e-02 1.059281378984451294e-01 3.475420922040939331e-02 -9.356413781642913818e-02 -4.771313443779945374e-02
-7.272055372595787048e-03 1.155548840761184692e-01 1.811296790838241577e-01 4.597564786672592163e-02 8.542400784790515900e-03 -1.275565028190612793e-01 -9.778878092765808105e-02 -2.340324036777019501e-02 -6.827075779438018799e-02 -5.611388012766838074e-02 -4.784348607063293457e-02 -1.069695279002189636e-01
-9.948682785034179688e-02 -1.355825513601303101e-01 -2.014064043760299683e-01 -1.824257373809814453e-01 7.432313263416290283e-02 1.000107303261756897e-01 5.215204879641532898e-02 -4.598002880811691284e-02 1.321869087405502796e-03 1.611413806676864624e-01 -1.848206110298633575e-02 -7.643757760524749756e-02
-2.928288877010345459e-01 -4.799712449312210083e-02 2.889573574066162109e-02 1.115382611751556396e-01 -1.418192237615585327e-01 5.092412978410720825e-02 -3.102010674774646759e-02 -6.053525581955909729e-02 3.140336647629737854e-02 3.759736195206642151e-02 -1.585026681423187256e-01 9.079725295305252075e-02
1.477478891611099243e-01 8.553273975849151611e-02 1.767696291208267212e-01 2.614114060997962952e-02 -3.722497448325157166e-02 1.817167550325393677e-01 -1.007889881730079651e-01 -2.581788226962089539e-02 -2.990373671054840088e-01 -5.465373769402503967e-02 1.256500463932752609e-02 -6.649214774370193481e-02
6.681321188807487488e-03 -1.748088560998439789e-02 -4.768976196646690369e-02 2.169239334762096405e-02 -7.353380322456359863e-02 4.860626161098480225e-02 -5.469429492950439453e-02 -1.833505555987358093e-02 1.834391504526138306e-01 -1.626464352011680603e-02 2.002831250429153442e-01 5.115338042378425598e-02
3.454094380140304565e-02 5.747968703508377075e-02 -5.993150174617767334e-02 -2.557748928666114807e-03 2.566632628440856934e-01 2.030667960643768311e-01 1.696106344461441040e-01 -3.833173587918281555e-02 -3.200364708900451660e-01 1.117218956351280212e-01 2.087188512086868286e-02 -1.748312115669250488e-01
-1.238715350627899170e-01 2.543972618877887726e-02 -4.637138918042182922e-02 -8.844605088233947754e-02 7.106890529394149780e-02 4.249137360602617264e-03 -2.171654626727104187e-02 -1.895611733198165894e-02 -1.619721651077270508e-01 9.288577735424041748e-02 -5.954805761575698853e-02 3.490168601274490356e-03
5.622524302452802658e-03 4.394963756203651428e-02 -3.386842086911201477e-02 5.135795101523399353e-03 -6.111406162381172180e-02 -2.068598866462707520e-01 -4.754929989576339722e-02 -2.125797793269157410e-02 -3.545247763395309448e-02 -5.239029228687286377e-02 3.640377148985862732e-02 -1.911392249166965485e-02
1.021867096424102783e-01 -2.416332252323627472e-02 -1.550382822751998901e-01 -1.008064523339271545e-01 -7.423891127109527588e-02 -3.316306322813034058e-02 1.627908088266849518e-02 -3.195551410317420959e-02 -1.693401783704757690e-01 3.575233817100524902e-01 -1.327998340129852295e-01 -9.395645558834075928e-02
-2.118504792451858521e-02 1.233322545886039734e-02 -3.115167655050754547e-02 -1.341387443244457245e-02 -4.065568372607231140e-02 -1.463988423347473145e-01 -2.877281978726387024e-02 -1.241927873343229294e-02 -2.081251330673694611e-02 -7.075018715113401413e-03 1.925544627010822296e-02 7.879560440778732300e-02
2.980206012725830078e-01 -1.578614301979541779e-02 6.525929272174835205e-02 -5.429833009839057922e-02 -1.893132627010345459e-01 -5.782713368535041809e-02 -9.025570750236511230e-02 -2.825847640633583069e-02 -5.421261116862297058e-02 4.878170043230056763e-02 -1.031706407666206360e-01 1.560559123754501343e-02
-1.096721179783344269e-02 -3.525137901306152344e-02 -2.110865712165832520e-02 -4.114077892154455185e-03 -1.508864387869834900e-02 -3.328375518321990967e-02 -1.322926604188978672e-03 -1.037592254579067230e-02 -5.716929584741592407e-02 -5.192032083868980408e-02 1.385130640119314194e-02 2.332975864410400391e-01
-2.055854946374893188e-01 -5.732031539082527161e-02 1.512567512691020966e-02 -3.326561301946640015e-02 -1.596377342939376831e-01 9.618870168924331665e-02 -6.128811836242675781e-02 -3.596593067049980164e-02 8.982019126415252686e-02 1.752025336027145386e-01 -1.106619760394096375e-01 -1.321281343698501587e-01
6.895714998245239258e-02 -1.493701990693807602e-02 4.282737150788307190e-02 1.956088840961456299e-02 4.366092383861541748e-02 6.086613237857818604e-02 -2.468729913234710693e-01 -4.174112528562545776e-02 6.455639004707336426e-02 -2.514265775680541992e-01 9.043082594871520996e-02 2.794422581791877747e-02
-4.890817403793334961e-02 -6.310060620307922363e-02 -1.627174019813537598e-01 -7.372763007879257202e-02 -2.144683003425598145e-01 -3.410831391811370850e-01 -8.013281226158142090e-02 -5.804644152522087097e-02 1.642205566167831421e-01 2.123041301965713501e-01 -1.692265830934047699e-02 -3.826890140771865845e-02
-4.636243358254432678e-02 1.377134025096893311e-01 1.359684914350509644e-01 -2.479812828823924065e-03 9.365285933017730713e-02 -4.548726603388786316e-02 -3.293073922395706177e-02 -3.950400277972221375e-02 -4.962997436523437500e-01 -2.078937366604804993e-02 -1.046557873487472534e-01 -2.295752614736557007e-02
3.338900208473205566e-01 4.006561357527971268e-03 2.765854075551033020e-02 6.560367532074451447e-03 -1.479965895414352417e-01 2.823700197041034698e-02 3.858002135530114174e-03 -3.123155795037746429e-02 -3.169174790382385254e-01 4.194946959614753723e-02 7.167174667119979858e-02 1.088312715291976929e-01
-9.285064041614532471e-02 2.701826952397823334e-02 -1.372402161359786987e-02 -8.023816347122192383e-02 1.597773842513561249e-02 -7.106652855873107910e-02 -5.505059659481048584e-02 -2.293647080659866333e-02 -1.237316057085990906e-01 1.120451986789703369e-01 -9.831964969635009766e-02 -6.101217120885848999e-02
5.826694890856742859e-02 3.470795229077339172e-02 6.664279103279113770e-02 9.565021097660064697e-02 4.653272032737731934e-02 3.391912579536437988e-02 1.050775796175003052e-01 -3.857569769024848938e-02 1.623557955026626587e-01 1.245586127042770386e-01 -6.225741282105445862e-02 -1.883954852819442749e-01
8.579555153846740723e-02 2.534529939293861389e-02 -7.411366701126098633e-02 -8.874488621950149536e-02 4.604853689670562744e-02 -1.481845080852508545e-01 -8.581119589507579803e-03 -5.438640713691711426e-02 1.343495100736618042e-01 1.136034205555915833e-01 1.059400215744972229e-01 -3.652409315109252930e-01
-2.604627050459384918e-03 2.984924009069800377e-03 -4.427984356880187988e-03 -4.553484264761209488e-03 -5.949477665126323700e-03 -1.818729378283023834e-02 -3.290755674242973328e-03 -1.921179820783436298e-03 -3.679114161059260368e-03 1.002343185245990753e-02 9.713843464851379395e-04 -6.768455496057868004e-04
1.766147762537002563e-01 -8.657738566398620605e-02 2.151419222354888916e-02 6.826021522283554077e-02 3.620360046625137329e-02 -4.290528222918510437e-02 -9.228760004043579102e-02 -2.031156420707702637e-02 1.169290021061897278e-01 -1.252681761980056763e-01 4.713448137044906616e-02 2.371748983860015869e-01
2.170441672205924988e-02 -6.003399565815925598e-02 -1.147489398717880249e-01 1.078685838729143143e-02 -9.467029571533203125e-02 -9.332715719938278198e-02 1.690692156553268433e-01 -2.182253450155258179e-02 -1.452740281820297241e-01 -6.287210434675216675e-02 -3.286338970065116882e-02 4.441693425178527832e-02
4.127348214387893677e-02 -8.459018170833587646e-02 -2.548067867755889893e-01 -4.912862554192543030e-02 3.757987916469573975e-02 -1.016263142228126526e-01 -4.166177660226821899e-02 -3.936221823096275330e-02 2.557336688041687012e-01 7.502124458551406860e-02 2.109891176223754883e-01 -7.280227541923522949e-02
-1.069066673517227173e-01 6.670921295881271362e-02 -1.321692578494548798e-02 -4.521122574806213379e-02 1.180505529046058655e-01 -4.834345355629920959e-02 -4.515669122338294983e-02 -2.340423874557018280e-02 -2.323310673236846924e-01 2.637671679258346558e-02 -2.310956828296184540e-02 -2.141470322385430336e-03
-2.666402627935892528e-14 1.320339508299045450e-13 4.485397750648208864e-15 6.948328495686925677e-14 3.756473887506217579e-08 9.986683480178726313e-09 -6.724308694632192065e-15 -1.924259009325777559e-16 -8.446330440614602253e-12 -7.744499164543035432e-18 -3.875594167964367676e-14 -5.447393203183992227e-09
-1.276322901248931885e-01 -1.059556305408477783e-01 -2.710631489753723145e-01 -8.895378559827804565e-02 -1.807372830808162689e-02 1.019669771194458008e-01 2.021514996886253357e-02 -1.977985166013240814e-02 -2.005212195217609406e-02 -8.470390737056732178e-02 -1.728731766343116760e-02 1.424941867589950562e-01
-3.796486929059028625e-02 -1.697532683610916138e-01 -3.507575020194053650e-02 1.460841577500104904e-02 -3.066428937017917633e-02 5.314730852842330933e-02 1.194477155804634094e-01 -3.979522734880447388e-02 4.284327849745750427e-02 -1.629953086376190186e-01 -1.637930870056152344e-01 1.256943047046661377e-01
-4.718749225139617920e-02 1.407348457723855972e-02 5.001677200198173523e-02 3.606823831796646118e-02 -6.023252755403518677e-02 -1.486313045024871826e-01 -2.801666967570781708e-02 -2.171823009848594666e-02 1.131300255656242371e-01 -3.569339588284492493e-02 -1.213737856596708298e-02 -4.502981901168823242e-02
7.898032665252685547e-02 2.921979175880551338e-03 -2.008043825626373291e-01 6.093347910791635513e-04 1.444038003683090210e-01 -3.333416208624839783e-02 1.282079517841339111e-01 -4.995300248265266418e-02 2.002128511667251587e-01 -1.282257288694381714e-01 1.630322784185409546e-01 -3.062292635440826416e-01
1.266184896230697632e-01 4.293783009052276611e-02 7.390108704566955566e-02 3.392132744193077087e-02 2.943481877446174622e-02 1.641146093606948853e-02 -1.059431731700897217e-01 -2.717453055083751678e-02 1.468086242675781250e-01 -1.427219659090042114e-01 7.857293635606765747e-02 -4.280073940753936768e-02
-2.483307942748069763e-02 -6.617594510316848755e-02 1.364621222019195557e-01 -4.078939557075500488e-02 -3.259747028350830078e-01 -2.356981933116912842e-01 -2.778507769107818604e-01 -7.790178805589675903e-02 8.682285249233245850e-02 -1.098821163177490234e-01 -2.912041246891021729e-01 5.251639336347579956e-02
-4.380159825086593628e-02 2.728093042969703674e-02 -1.408858504146337509e-02 -2.457935549318790436e-02 3.940920531749725342e-02 -4.249305278062820435e-02 -4.199068062007427216e-03 -2.463569864630699158e-02 -3.240652084350585938e-01 1.172342710196971893e-02 -4.617425799369812012e-02 1.378691103309392929e-02
-9.973165392875671387e-02 -4.291222617030143738e-02 -8.860446512699127197e-02 3.732091933488845825e-02 -8.517889655195176601e-04 -1.235030498355627060e-02 8.528614789247512817e-02 -1.879031397402286530e-02 -4.014986101537942886e-03 2.198367565870285034e-02 -1.235708594322204590e-01 1.190510392189025879e-01
4.782246798276901245e-02 -1.370815485715866089e-01 3.203571215271949768e-02 -1.317904889583587646e-02 -3.349952399730682373e-01 -6.641970574855804443e-02 2.982072997838258743e-03 -5.879208818078041077e-02 1.381634641438722610e-02 1.203281581401824951e-01 -2.865452170372009277e-01 -8.906814455986022949e-02
-2.012589387595653534e-02 2.614235691726207733e-02 1.469681132584810257e-02 2.282854914665222168e-02 -6.316589191555976868e-03 -1.798897683620452881e-01 -1.288255304098129272e-02 -2.423046343028545380e-02 -8.358857035636901855e-02 -6.693308800458908081e-02 -6.106024608016014099e-02 1.364605277776718140e-01
1.176525474875234067e-04 -7.669666501897154376e-07 -5.364435310184489936e-06 4.562188493650864984e-08 5.722717105527408421e-05 -1.531106419861316681e-03 2.619277802295982838e-04 2.099584293091538711e-07 6.251107552088797092e-04 5.319660995155572891e-04 -4.412742782733403146e-06 2.896408550441265106e-03
-5.850187689065933228e-02 1.617681533098220825e-01 2.507419586181640625e-01 1.729155182838439941e-01 2.923286519944667816e-03 -1.805000454187393188e-01 -7.382273674011230469e-02 -2.904109284281730652e-02 -4.777561873197555542e-02 -1.225888356566429138e-01 -5.573107860982418060e-03 -1.340221762657165527e-01
-1.179546862840652466e-01 -1.233553290367126465e-01 1.569712534546852112e-02 -4.558834061026573181e-02 -1.236657723784446716e-01 3.221240937709808350e-01 4.887186922132968903e-03 -4.709916189312934875e-02 -2.821602113544940948e-02 2.950010076165199280e-02 -2.026131451129913330e-01 -1.471711993217468262e-01
-2.446177899837493896e-01 -8.163975924253463745e-02 -7.378521561622619629e-02 -1.794373989105224609e-01 -1.118012424558401108e-02 7.618125528097152710e-02 -3.070431388914585114e-02 -5.011889338493347168e-02 -1.193084791302680969e-01 8.939986675977706909e-02 -2.117787897586822510e-01 -7.985275983810424805e-02
-1.488501670825117390e-14 4.883985687295640352e-17 -4.232591360731063901e-11 -3.878791240884219829e-16 -7.689471821325892520e-15 -3.907390117208179203e-17 1.909932194621433155e-07 -6.454090191974903856e-14 -6.053381639503641054e-06 1.472992412857596425e-15 -2.688837481390048828e-15 5.238819994701771066e-06
-8.928240835666656494e-02 -1.371282935142517090e-01 1.581816934049129486e-02 -1.126210764050483704e-01 -1.809584796428680420e-01 -8.396720141172409058e-02 -1.862396150827407837e-01 -6.220782175660133362e-02 6.579284369945526123e-02 -2.090592868626117706e-02 -2.549579441547393799e-01 -9.427358210086822510e-02
2.321582724107429385e-04 -4.569105431437492371e-02 -1.402155458927154541e-01 -9.744720160961151123e-02 1.603855565190315247e-02 1.200672239065170288e-01 -1.667988300323486328e-01 -2.697097696363925934e-02 -8.551418781280517578e-02 3.341861069202423096e-01 5.387103557586669922e-02 -3.060033358633518219e-02
1.450833678245544434e-01 -4.140321165323257446e-02 6.795741617679595947e-02 1.473467200994491577e-01 -1.006276234984397888e-01 2.373005449771881104e-01 1.224780455231666565e-01 -4.288897290825843811e-02 -2.480081021785736084e-01 -2.388142347335815430e-01 -1.238001883029937744e-01 1.028882116079330444e-01
-4.602480679750442505e-02 -6.103715300559997559e-02 -7.302477210760116577e-02 6.290790624916553497e-03 -1.084848195314407349e-01 -1.670057773590087891e-01 -2.468860149383544922e-02 -2.823990397155284882e-02 2.786710262298583984e-01 -1.050099078565835953e-02 2.245049551129341125e-02 -6.967723369598388672e-02
-7.848175615072250366e-02 3.930978477001190186e-02 1.670752279460430145e-02 8.676452934741973877e-02 1.605044156312942505e-01 6.585194170475006104e-02 2.288347035646438599e-01 -5.104945972561836243e-02 -9.761513024568557739e-02 -2.257861196994781494e-01 -7.823012769222259521e-02 9.287062287330627441e-02
-1.197218801826238632e-02 4.482990503311157227e-02 -1.367674395442008972e-02 -5.831115692853927612e-02 4.345723241567611694e-02 -4.633906111121177673e-02 -4.556073620915412903e-02 -1.011370588093996048e-02 -1.017286032438278198e-01 9.607941657304763794e-02 -4.555855994112789631e-04 -2.465071529150009155e-02
-1.638218909502029419e-01 -1.825238317251205444e-01 -3.539534211158752441e-01 -1.865565329790115356e-01 -4.728592559695243835e-02 -1.161093488335609436e-01 1.086461097002029419e-01 -7.055234163999557495e-02 4.033512901514768600e-03 8.828289806842803955e-03 2.851391211152076721e-02 -3.097208961844444275e-02
-6.835044175386428833e-02 2.822547964751720428e-02 3.217250481247901917e-02 -4.860125482082366943e-02 3.429941087961196899e-02 -2.958454750478267670e-02 -7.276733219623565674e-02 -1.888437941670417786e-02 -3.512087091803550720e-02 5.345506966114044189e-02 -4.184805974364280701e-02 -3.670238703489303589e-02
-1.707060933113098145e-01 5.589503794908523560e-03 -1.125783566385507584e-02 5.242350697517395020e-02 -2.906931377947330475e-02 2.211338132619857788e-01 2.309667319059371948e-02 -5.214844644069671631e-02 -3.002844452857971191e-01 -1.216030493378639221e-01 -4.067873582243919373e-02 3.460734188556671143e-01
6.318886298686265945e-03 1.819432596676051617e-03 -3.802526742219924927e-02 -2.047094330191612244e-02 -1.484634820371866226e-02 -7.178460806608200073e-02 -7.151344325393438339e-03 -1.592363044619560242e-02 -1.634372770786285400e-01 -1.970639079809188843e-02 -1.368869375437498093e-02 7.747042924165725708e-02
3.952256143093109131e-01 -3.064434602856636047e-02 -8.600296080112457275e-02 -1.288835555315017700e-01 -1.555654704570770264e-01 2.063280194997787476e-01 -1.269238144159317017e-01 -3.112756460905075073e-02 -6.958869099617004395e-02 -1.790468245744705200e-01 8.860684931278228760e-02 -1.053169742226600647e-02
-1.209261193871498108e-01 -1.050986051559448242e-01 -6.517851352691650391e-02 2.494704909622669220e-02 -8.831643313169479370e-02 -1.293498277664184570e-01 -1.602533832192420959e-02 -3.357148915529251099e-02 2.753604948520660400e-01 -1.136350408196449280e-01 4.038090631365776062e-02 7.432701438665390015e-02
-4.433718459040392190e-07 1.242511098098475486e-05 7.309608918149024248e-09 8.595856471060869808e-09 -3.700204205536739011e-12 -1.986974675673991442e-04 -1.371364675151198753e-07 -1.949454153660212796e-09 1.282101264223456383e-03 3.322549673612229526e-05 -7.688510095249512233e-08 -1.580918615218251944e-05
-1.532567292451858521e-01 -7.304295897483825684e-02 -1.376341283321380615e-01 -2.072585225105285645e-01 1.766424439847469330e-02 -2.321880012750625610e-01 -1.943843960762023926e-01 -6.825860589742660522e-02 1.258202940225601196e-01 1.856779009103775024e-01 4.038675874471664429e-02 9.951715171337127686e-02
-1.094241160899400711e-02 4.789845645427703857e-02 -1.162690296769142151e-01 -1.102288290858268738e-01 1.601385027170181274e-01 -9.490938484668731689e-02 -1.293186247348785400e-01 -2.377098426222801208e-02 4.049172997474670410e-02 8.726561814546585083e-02 1.569084972143173218e-01 1.063976809382438660e-01
2.485920637845993042e-01 -9.098323062062263489e-03 4.014485329389572144e-02 1.697430461645126343e-01 -1.258433610200881958e-01 1.211796104907989502e-01 2.543829381465911865e-01 -3.500713407993316650e-02 -2.349505573511123657e-01 -2.360028028488159180e-02 -3.543245792388916016e-02 5.868722498416900635e-02
2.031196653842926025e-01 -7.277727872133255005e-02 -5.490681156516075134e-02 -6.881993263959884644e-02 -9.961934387683868408e-02 -1.279086917638778687e-01 -6.767424941062927246e-02 -3.262737393379211426e-02 9.478711336851119995e-02 -1.402378734201192856e-02 9.348995238542556763e-02 1.401181221008300781e-01
-2.126008868217468262e-01 -1.437081992626190186e-01 -1.529149711132049561e-01 -7.943818345665931702e-03 -8.371897041797637939e-02 1.310257315635681152e-01 -7.858303934335708618e-02 -4.811701923608779907e-02 1.033447086811065674e-01 4.129909351468086243e-02 -5.840087682008743286e-02 4.673986881971359253e-02
-1.412293165922164917e-01 -1.985895782709121704e-01 -9.460186213254928589e-02 1.370431669056415558e-02 -5.800035595893859863e-02 -5.563905835151672363e-02 2.421544678509235382e-02 -6.916128844022750854e-02 7.285363227128982544e-02 -2.448034584522247314e-01 -1.366208791732788086e-01 8.933418989181518555e-02
-4.078849777579307556e-02 -9.985239803791046143e-02 -6.972511857748031616e-02 -1.138646230101585388e-01 8.172398805618286133e-02 1.586637496948242188e-01 -2.033482119441032410e-02 -4.155686870217323303e-02 1.165766417980194092e-01 -3.707679361104965210e-02 -7.244715094566345215e-02 -1.364078074693679810e-01
-1.476362645626068115e-01 -1.131633818149566650e-01 -2.267921417951583862e-01 -1.221297383308410645e-01 -2.725871466100215912e-02 5.746086686849594116e-02 -8.619807660579681396e-03 -5.138985440135002136e-02 8.451769128441810608e-03 7.704241573810577393e-02 -1.916603296995162964e-01 1.247100830078125000e-01
-1.618877984583377838e-02 -3.927238285541534424e-02 -2.206650935113430023e-02 -9.799541532993316650e-02 -6.373813748359680176e-02 -9.044729918241500854e-02 -8.888424187898635864e-02 -3.259349241852760315e-02 -2.570376098155975342e-01 4.152200371026992798e-02 -1.559872180223464966e-01 7.454889267683029175e-02
-1.015585362911224365e-01 -1.582406461238861084e-01 -1.571885943412780762e-01 -1.815573498606681824e-02 -6.138245388865470886e-02 1.005199104547500610e-01 1.023691296577453613e-01 -1.385584101080894470e-02 4.694906249642372131e-02 -2.007262408733367920e-01 -8.843017369508743286e-02 4.619665816426277161e-02
-5.770789925009012222e-03 1.057987473905086517e-02 4.777872003614902496e-03 -7.246598601341247559e-03 1.360867358744144440e-02 1.098894397728145123e-03 -1.323666516691446304e-02 -1.378781278617680073e-03 -8.869553916156291962e-03 1.104569621384143829e-02 -2.457241062074899673e-04 -8.418152108788490295e-03
-1.351372599601745605e-01 -1.467513442039489746e-01 -2.292522490024566650e-01 -1.459752917289733887e-01 -7.825680077075958252e-03 1.025304347276687622e-01 -1.091428101062774658e-01 -5.992805212736129761e-02 1.621170789003372192e-01 -2.300927191972732544e-01 -1.029650643467903137e-01 -8.680640906095504761e-02
9.359642118215560913e-02 3.435394167900085449e-02 1.948513463139533997e-02 5.794075503945350647e-02 1.831112354993820190e-01 1.165343597531318665e-01 1.823050826787948608e-01 -1.644671894609928131e-02 -1.898005418479442596e-02 -1.174662355333566666e-02 1.258199214935302734e-01 1.440761331468820572e-02
-6.074802950024604797e-02 -2.553166821599006653e-03 -1.052740141749382019e-01 -1.433656215667724609e-01 1.158776357769966125e-01 7.837768644094467163e-02 -1.669570803642272949e-01 -6.174556910991668701e-02 -1.950910128653049469e-02 8.331061154603958130e-02 1.246517077088356018e-01 1.691347360610961914e-01
-4.063969478011131287e-02 3.600856289267539978e-02 5.233325436711311340e-02 -2.867730148136615753e-02 1.018933057785034180e-01 1.172414049506187439e-01 -3.928125649690628052e-02 -7.711317390203475952e-03 -7.360935956239700317e-02 -2.573323622345924377e-02 -5.605241283774375916e-02 -5.506083741784095764e-02
-5.268269404768943787e-02 -1.339087039232254028e-01 -1.641621747694443911e-05 -1.941582560539245605e-01 5.394968017935752869e-02 1.011334434151649475e-01 6.320327520370483398e-02 -6.249040365219116211e-02 -2.027893513441085815e-01 1.481234431266784668e-01 -1.600607931613922119e-01 2.604370415210723877e-01
-6.223297119140625000e-02 9.503194689750671387e-02 2.048705518245697021e-01 2.102470695972442627e-01 -5.168461799621582031e-02 1.350657641887664795e-01 1.314682364463806152e-01 -3.595742955803871155e-02 -3.425873219966888428e-01 3.808121010661125183e-02 -1.554971933364868164e-01 -5.210194364190101624e-02
-6.361369509249925613e-03 -8.773391135036945343e-03 -1.404363755136728287e-02 -3.773215925320982933e-03 -1.295884326100349426e-02 -4.248384386301040649e-02 1.014183973893523216e-03 -5.954476073384284973e-03 -4.765080660581588745e-02 -9.092320105992257595e-04 -2.296478953212499619e-03 7.479001581668853760e-02
-2.228691279888153076e-01 -1.072293967008590698e-01 -6.761135160923004150e-02 -6.665346771478652954e-02 -2.709687873721122742e-02 4.543634876608848572e-02 -3.007049113512039185e-02 -4.102463275194168091e-02 -3.447992727160453796e-02 7.550266385078430176e-02 1.739885844290256500e-02 2.922907769680023193e-01
2.645018100738525391e-01 -1.120780874043703079e-02 -4.408902022987604141e-03 -5.018967390060424805e-02 -5.809603631496429443e-02 1.431281585246324539e-02 1.223260983824729919e-01 -2.159556001424789429e-02 -1.794904470443725586e-01 2.939459308981895447e-02 -1.423348933458328247e-01 -5.064585059881210327e-02
9.100973606109619141e-02 -6.183984503149986267e-02 -1.116853654384613037e-01 -6.597381830215454102e-02 6.492254883050918579e-02 2.277389764785766602e-01 1.293960660696029663e-01 -2.180797979235649109e-02 -1.937505751848220825e-01 -5.325554404407739639e-03 -1.627531461417675018e-02 -8.114698529243469238e-02
3.015255331993103027e-01 -1.786469854414463043e-02 -4.728580266237258911e-02 -4.897262901067733765e-02 -2.389081940054893494e-02 7.900875806808471680e-02 5.588333308696746826e-02 -1.726868934929370880e-02 -1.560505330562591553e-01 1.067353114485740662e-01 1.515257358551025391e-02 1.201309636235237122e-02
-2.657381258904933929e-02 -1.279007941484451294e-01 -1.935323774814605713e-01 -1.712514758110046387e-01 -3.409266844391822815e-02 1.443366557359695435e-01 3.096538223326206207e-02 -3.350321203470230103e-02 -3.693816810846328735e-02 -8.286406099796295166e-02 8.710171096026897430e-03 -1.527573764324188232e-01
-6.751933693885803223e-02 -6.128977611660957336e-02 -1.389175653457641602e-01 9.663109667599201202e-03 -1.269038617610931396e-01 -1.387667059898376465e-01 -5.670010298490524292e-02 -4.046110063791275024e-02 1.568692624568939209e-01 -7.975990325212478638e-02 2.369080036878585815e-01 1.899612098932266235e-01
-1.423380225896835327e-01 -2.370043098926544189e-02 6.207443028688430786e-02 6.900273263454437256e-02 -2.110097743570804596e-02 2.856573276221752167e-02 -2.128018587827682495e-01 -1.486678328365087509e-02 1.630209833383560181e-01 -8.066061884164810181e-02 7.815201580524444580e-02 7.652595639228820801e-02
-1.059777587652206421e-01 1.009426936507225037e-01 2.357644140720367432e-01 1.039493083953857422e-01 1.194402016699314117e-02 -2.148092538118362427e-01 -6.812682002782821655e-02 -2.994933538138866425e-02 -3.527941927313804626e-02 -4.835534095764160156e-02 -9.402506053447723389e-02 -7.110564410686492920e-02
3.366109728813171387e-02 3.749467805027961731e-02 -1.963259652256965637e-02 7.137408945709466934e-03 -6.901814043521881104e-02 -2.189836055040359497e-01 -4.140167310833930969e-02 -2.466562017798423767e-02 -1.459322571754455566e-01 -4.479136783629655838e-03 1.973634585738182068e-02 1.791511476039886475e-02
-8.710475265979766846e-02 1.539491210132837296e-02 -6.033605709671974182e-02 4.539393261075019836e-02 1.781099885702133179e-01 1.315630078315734863e-01 1.031256839632987976e-01 -3.790556639432907104e-02 -6.694200634956359863e-02 -1.673964112997055054e-01 1.805275827646255493e-01 -1.328664869070053101e-01
5.949418246746063232e-02 1.199390962719917297e-01 1.960036605596542358e-01 2.008706033229827881e-01 6.752038002014160156e-02 1.897022277116775513e-01 2.615439891815185547e-02 -5.196883529424667358e-02 -1.479516029357910156e-01 -2.652319669723510742e-01 -5.576470494270324707e-02 -2.928929030895233154e-01
-5.609079450368881226e-02 -8.564691245555877686e-02 -1.128434464335441589e-01 -6.431304663419723511e-02 -7.545380294322967529e-02 -2.440591305494308472e-01 -8.188685029745101929e-02 -4.475568979978561401e-02 -2.076932936906814575e-01 1.841007769107818604e-01 -1.271669417619705200e-01 3.455090820789337158e-01
-3.356797620654106140e-02 -1.192179769277572632e-01 1.390033052302896976e-03 -2.755624614655971527e-02 -1.223039329051971436e-01 -5.053818598389625549e-02 7.262104004621505737e-02 -7.111679762601852417e-02 1.047033593058586121e-01 -5.819153785705566406e-01 5.097964033484458923e-02 4.823560267686843872e-02
2.157624363899230957e-01 1.081070527434349060e-01 2.728615701198577881e-01 1.722387671470642090e-01 -1.108298152685165405e-01 -1.646360903978347778e-01 3.083064686506986618e-03 -3.020296245813369751e-02 -6.097074225544929504e-02 -1.336967498064041138e-01 -2.525027468800544739e-02 -1.344510763883590698e-01
-7.255187028931686655e-06 -7.825785360182635486e-06 2.298894651175942272e-05 -7.744065442238934338e-06 -4.326620000938419253e-06 7.832853589206933975e-04 1.941495838764240034e-06 -1.600315954419784248e-06 3.853595117107033730e-03 2.393682407841879467e-08 1.784145752026233822e-05 1.660386769799515605e-04
3.371987938880920410e-01 -6.002893298864364624e-02 3.937441855669021606e-02 -1.036227215081453323e-02 -2.351766079664230347e-01 -7.819127291440963745e-02 -1.484992504119873047e-01 -4.761618003249168396e-02 8.068116009235382080e-02 -1.551307388581335545e-03 5.965631082653999329e-02 -1.812372505664825439e-01
5.827515944838523865e-02 6.388338655233383179e-02 -5.828386545181274414e-02 -3.826735913753509521e-02 -1.026825308799743652e-01 -3.131785988807678223e-01 -7.878104597330093384e-02 -3.549059480428695679e-02 -6.106572225689888000e-03 3.402964025735855103e-02 4.875813052058219910e-02 -5.240129306912422180e-02
-1.628687679767608643e-01 6.042907759547233582e-02 1.935706101357936859e-02 2.026944234967231750e-02 1.125648915767669678e-01 -1.630552709102630615e-01 5.453852936625480652e-02 -3.342326357960700989e-02 -3.308534026145935059e-01 -5.011896602809429169e-03 -1.244939789175987244e-01 4.102286323904991150e-02
2.751563489437103271e-01 1.561426967382431030e-01 2.383684366941452026e-01 2.405031919479370117e-01 2.664351463317871094e-01 1.091964989900588989e-01 -6.798814237117767334e-02 -2.835030481219291687e-02 -1.899394243955612183e-01 4.223936051130294800e-02 -4.556908831000328064e-02 9.094733744859695435e-02
-2.350236326456069946e-01 2.614009194076061249e-02 5.994841083884239197e-02 2.735544694587588310e-03 -8.475742302834987640e-03 -2.380134910345077515e-02 -6.522721797227859497e-02 -3.729447722434997559e-02 -9.366590529680252075e-02 -6.170448288321495056e-02 9.920655190944671631e-02 1.503079682588577271e-01
-3.679401278495788574e-01 -7.975866645574569702e-02 -6.289774924516677856e-02 -1.077512577176094055e-01 3.848271816968917847e-02 1.212629005312919617e-01 1.552837789058685303e-01 -6.803812086582183838e-02 -1.092443615198135376e-01 1.218507438898086548e-02 -1.521297097206115723e-01 -1.516395807266235352e-01
3.486924991011619568e-02 2.103753760457038879e-02 -5.411118268966674805e-03 1.331408042460680008e-02 -2.180089056491851807e-02 1.094959396868944168e-02 2.400339767336845398e-02 -1.621222938410937786e-03 -8.017949014902114868e-02 2.795459143817424774e-02 9.387400001287460327e-03 -1.280815005302429199e-01
1.402724981307983398e-01 7.489466667175292969e-02 1.502428948879241943e-02 9.812012314796447754e-03 9.662672877311706543e-02 -1.339235436171293259e-02 1.045321766287088394e-02 -1.741018891334533691e-02 -1.275296956300735474e-01 -1.522824913263320923e-01 1.536807715892791748e-01 -1.375936716794967651e-01
3.208009898662567139e-02 -7.178629189729690552e-02 -4.691270366311073303e-02 -3.012540936470031738e-02 -4.324236139655113220e-02 1.689719408750534058e-01 6.591724231839179993e-03 -2.198122814297676086e-02 -4.283589869737625122e-02 -6.371508538722991943e-02 8.275568485260009766e-02 6.525813043117523193e-02
-2.064656093716621399e-02 -3.982954192906618118e-03 -9.649336338043212891e-03 3.195934742689132690e-02 -6.904685497283935547e-02 -1.930265128612518311e-01 3.659141808748245239e-02 -2.688040956854820251e-02 4.555845260620117188e-02 -2.615846134722232819e-02 -2.865982055664062500e-02 -5.176024138927459717e-02
-2.221059650182723999e-01 -1.741872876882553101e-01 -1.729766130447387695e-01 -1.416265070438385010e-01 5.357361957430839539e-02 5.671470239758491516e-02 6.502612028270959854e-03 -5.900664627552032471e-02 5.891683325171470642e-02 -1.143101751804351807e-01 -7.380254683084785938e-04 1.773287504911422729e-01
-2.728647291660308838e-01 6.756305694580078125e-02 1.469116508960723877e-01 8.823804557323455811e-02 -1.518121063709259033e-01 -2.470000237226486206e-01 -1.534178853034973145e-01 -7.637695223093032837e-02 1.559918224811553955e-01 -1.671424508094787598e-01 -3.599448502063751221e-02 -1.874211281538009644e-01
-1.136926710605621338e-01 9.369579702615737915e-02 7.341323792934417725e-02 2.865923941135406494e-02 1.623521745204925537e-01 6.602838635444641113e-02 -4.919151216745376587e-02 -2.732372842729091644e-02 -1.790090203285217285e-01 -1.341241896152496338e-01 -7.742491364479064941e-02 4.483820125460624695e-02
8.084882050752639771e-02 -4.412550479173660278e-02 -3.054845333099365234e-02 -1.239958181977272034e-01 -1.357073485851287842e-01 -7.777164131402969360e-02 -2.785277366638183594e-01 -4.858079180121421814e-02 -1.960561424493789673e-02 1.407141536474227905e-01 -8.160564303398132324e-02 8.110253512859344482e-02
1.295165508054196835e-03 -2.765851968433707952e-04 -3.417854604776948690e-04 -8.324158261530101299e-04 -1.498701021773740649e-04 -1.526632695458829403e-04 2.508811652660369873e-03 -2.345365501241758466e-04 -2.022646926343441010e-02 -4.130261950194835663e-04 9.813913493417203426e-05 5.970160127617418766e-04
-1.406916677951812744e-01 -6.821269541978836060e-02 5.391061678528785706e-02 -8.215109258890151978e-02 -6.547085195779800415e-02 1.018878519535064697e-01 -2.091076523065567017e-01 -5.304522812366485596e-02 1.242271140217781067e-01 -1.881694942712783813e-01 -3.439213335514068604e-02 -1.283646225929260254e-01
-2.808942459523677826e-02 -9.611794725060462952e-03 4.859153926372528076e-02 -1.015954762697219849e-01 -1.628168821334838867e-01 -9.076305478811264038e-02 -1.908328533172607422e-01 -4.492213204503059387e-02 -8.147885650396347046e-02 8.524092286825180054e-02 -1.375110000371932983e-01 -1.677398383617401123e-01
3.991867229342460632e-02 6.907697021961212158e-02 -1.128857955336570740e-02 -5.621248856186866760e-02 -1.031077206134796143e-01 -4.015919566154479980e-01 -1.526236683130264282e-01 -5.336517840623855591e-02 -1.062598153948783875e-01 2.922311984002590179e-02 9.252366423606872559e-02 1.554223299026489258e-01
-1.634228825569152832e-01 -5.239278078079223633e-02 -1.001909002661705017e-01 3.098452650010585785e-02 -3.235362842679023743e-02 -7.198128104209899902e-02 -7.690694928169250488e-02 -2.305784448981285095e-02 3.356602191925048828e-01 -1.754604876041412354e-01 1.353675127029418945e-01 -6.623698770999908447e-02
1.253596991300582886e-01 2.698703296482563019e-02 -1.346947997808456421e-01 -3.453913610428571701e-03 4.336994141340255737e-02 -2.643239684402942657e-02 8.232358098030090332e-02 -2.329554967582225800e-02 3.179795667529106140e-02 -7.559165358543395996e-02 2.587148845195770264e-01 -6.927269697189331055e-02
-9.289821982383728027e-02 -1.206466853618621826e-01 -1.773490905761718750e-01 -1.088670268654823303e-01 2.496920153498649597e-02 1.857615858316421509e-01 8.839839696884155273e-02 -3.800096362829208374e-02 -2.019277662038803101e-01 5.424913391470909119e-02 -1.756352372467517853e-02 9.359969198703765869e-02
7.422383129596710205e-02 6.232500076293945312e-02 2.747244201600551605e-02 -4.020016640424728394e-02 2.142172120511531830e-02 -3.179456293582916260e-02 -7.434010505676269531e-02 -1.520338002592325211e-02 -1.812925338745117188e-01 2.317311055958271027e-02 1.252314634621143341e-02 -9.356799721717834473e-02
-5.036481842398643494e-02 -7.964093238115310669e-02 5.596786364912986755e-02 -6.193720921874046326e-02 -2.602064311504364014e-01 -1.490859985351562500e-01 -1.974708437919616699e-01 -6.362427026033401489e-02 1.005707010626792908e-01 -7.563389092683792114e-02 -1.480302214622497559e-01 -9.932720661163330078e-02
-1.143234223127365112e-01 -1.276982873678207397e-01 -2.691575884819030762e-02 -4.293181002140045166e-02 -2.345682233572006226e-01 -6.300561875104904175e-02 -3.025290071964263916e-01 -7.051631808280944824e-02 2.258474975824356079e-01 -1.050228253006935120e-01 -7.929357886314392090e-02 -8.317258954048156738e-02
8.315316587686538696e-02 -2.830687677487730980e-03 -4.784488305449485779e-02 1.344230026006698608e-01 -1.992091983556747437e-01 -2.235450148582458496e-01 5.036346614360809326e-02 -3.777882084250450134e-02 -1.015436574816703796e-01 -4.220517352223396301e-02 3.916437923908233643e-02 2.433755248785018921e-01
2.236794680356979370e-02 7.850608788430690765e-03 -2.882163971662521362e-02 -5.706237629055976868e-02 -6.043543294072151184e-02 -2.077870070934295654e-01 3.371810913085937500e-02 -2.684945054352283478e-02 -1.285627782344818115e-01 2.327091060578823090e-02 -9.101170301437377930e-02 2.838671505451202393e-01
-5.505982699105516076e-05 3.949903417378664017e-03 5.781932920217514038e-02 1.151891425251960754e-01 -4.631920531392097473e-02 -6.860310584306716919e-02 1.060504466295242310e-01 -7.858715951442718506e-03 -5.924678593873977661e-02 -8.199336379766464233e-02 1.111348276026546955e-03 -8.866573870182037354e-02
5.820852518081665039e-02 -1.138624921441078186e-01 -2.309111803770065308e-01 -1.544391214847564697e-01 -2.312496304512023926e-01 3.617349639534950256e-02 -1.119446456432342529e-01 -4.790136590600013733e-02 6.821598112583160400e-02 -2.258667796850204468e-01 4.485324607230722904e-04 -1.703295670449733734e-02
-4.567804932594299316e-02 -1.219675540924072266e-01 -6.042921449989080429e-03 -6.899314373731613159e-02 -1.024273335933685303e-01 1.776921898126602173e-01 6.208961829543113708e-02 -3.503634035587310791e-02 -3.743387060239911079e-03 -1.037454232573509216e-01 -1.324919015169143677e-01 -3.720259293913841248e-02
-2.463202178478240967e-02 -1.239180713891983032e-01 -1.122922375798225403e-01 -1.459190100431442261e-01 -7.300615310668945312e-02 1.060751825571060181e-01 3.165831416845321655e-02 -4.506816342473030090e-02 1.252480894327163696e-01 5.840842053294181824e-02 -1.442484259605407715e-01 -2.134541422128677368e-01
2.487799674272537231e-01 -1.544368546456098557e-02 1.052743941545486450e-01 -4.114662110805511475e-02 -1.321350634098052979e-01 4.182455316185951233e-02 -1.479731500148773193e-01 -1.940851658582687378e-02 -1.472658812999725342e-01 -1.252311468124389648e-01 -1.011918857693672180e-01 -2.431026473641395569e-02
-4.113193228840827942e-02 -5.623329803347587585e-02 -1.099306717514991760e-01 1.225727796554565430e-02 -4.925617948174476624e-02 2.580137923359870911e-03 1.558056771755218506e-01 -1.833854243159294128e-02 -9.143396466970443726e-02 -1.983060128986835480e-02 -4.690127819776535034e-02 1.927779428660869598e-02
-3.618563711643218994e-02 -4.367811232805252075e-02 -2.817049855366349220e-03 -4.244037345051765442e-02 3.641350567340850830e-02 4.183385521173477173e-02 -4.111831635236740112e-02 -1.776928827166557312e-02 7.196968793869018555e-02 -1.170385628938674927e-02 -6.308386474847793579e-02 -1.956703811883926392e-01
-1.947010681033134460e-02 4.124923422932624817e-02 -3.787159174680709839e-02 -9.512413293123245239e-02 6.009136140346527100e-02 5.594261921942234039e-03 -2.869090624153614044e-02 -2.310902625322341919e-02 -2.793944776058197021e-01 1.538650691509246826e-01 -4.828152805566787720e-02 -1.363123115152120590e-02
-1.368229091167449951e-01 7.813277840614318848e-02 9.338217228651046753e-02 6.477075070142745972e-02 1.739565283060073853e-02 1.157345399260520935e-01 -1.916639953851699829e-01 -3.893251717090606689e-02 1.716472581028938293e-02 -2.127718925476074219e-01 1.463335901498794556e-01 3.037302754819393158e-02
1.241945475339889526e-01 -5.090659484267234802e-02 -1.060298606753349304e-01 -2.825449407100677490e-01 -7.330127805471420288e-02 -1.652867048978805542e-01 -3.806249499320983887e-01 -8.635941892862319946e-02 1.019872501492500305e-01 1.678333245217800140e-02 1.659985929727554321e-01 6.774654984474182129e-02
-6.466362625360488892e-02 -1.145128189818933606e-04 -1.689234375953674316e-01 -4.780892655253410339e-02 1.682702749967575073e-01 -1.265959143638610840e-01 -1.305221170186996460e-01 -3.921780362725257874e-02 1.524510979652404785e-01 -2.204833086580038071e-03 3.307456076145172119e-01 -1.095015406608581543e-01
-5.575863644480705261e-02 5.167485773563385010e-02 -9.590472094714641571e-03 -5.463852360844612122e-02 6.764606386423110962e-02 -3.510960191488265991e-02 -4.817321896553039551e-02 -1.124603208154439926e-02 -1.045944020152091980e-01 9.789113700389862061e-02 -1.334173604846000671e-02 -2.126287482678890228e-02
1.970075815916061401e-01 -8.468588441610336304e-02 -1.055311113595962524e-01 -7.728648185729980469e-02 -1.718630343675613403e-01 9.524933248758316040e-02 2.020344287157058716e-01 -3.347422555088996887e-02 3.731549531221389771e-02 -6.483828276395797729e-02 -9.849448688328266144e-03 6.397054344415664673e-02
1.185599714517593384e-01 -1.911190524697303772e-02 1.399975270032882690e-02 1.801542341709136963e-01 2.487866766750812531e-02 1.417409479618072510e-01 1.203275546431541443e-01 -4.404636099934577942e-03 -5.498392507433891296e-02 1.289083971641957760e-03 -1.294797100126743317e-02 9.830820560455322266e-02
-1.184663389608431316e-08 -1.156070898733485564e-12 -1.742601729419219342e-15 1.189403285063728166e-12 2.379284703285522440e-12 -3.874473225737795016e-16 3.714920967468060553e-05 -2.765439984618510248e-17 1.137355861617964092e-13 -5.995124041646704427e-08 -4.650783881274267451e-13 -4.693034156844078097e-07
-1.780332386260852218e-04 8.429946377873420715e-03 -2.839762018993496895e-03 -5.499360151588916779e-03 4.994609043933451176e-04 -7.900002412497997284e-03 -4.067571368068456650e-03 -3.547312924638390541e-03 1.839841133914887905e-03 2.396501833572983742e-03 3.327367827296257019e-03 -5.803566053509712219e-02
-4.947919398546218872e-02 -6.821745634078979492e-02 -9.414381347596645355e-03 1.539018750190734863e-01 -2.283319830894470215e-02 9.649850428104400635e-02 -7.059938460588455200e-02 -6.584998965263366699e-02 1.287266314029693604e-01 -1.221752613782882690e-01 -3.613781929016113281e-01 -1.640749424695968628e-01
-1.209093928337097168e-01 3.373889997601509094e-02 4.021855071187019348e-02 -5.556804686784744263e-02 -1.984173431992530823e-02 -1.049584448337554932e-01 -1.884064823389053345e-02 -4.107280448079109192e-02 -3.531393362209200859e-03 1.019941493868827820e-01 -1.245778575539588928e-01 -2.600797712802886963e-01
-1.913669146597385406e-02 8.537989109754562378e-02 7.980835437774658203e-02 2.601988241076469421e-02 4.325049743056297302e-02 3.846200183033943176e-03 -2.482194267213344574e-02 -4.135494236834347248e-04 -6.876481324434280396e-02 -8.744063973426818848e-02 4.263436421751976013e-03 -1.298261284828186035e-01
-9.482509456574916840e-03 -1.697345376014709473e-01 -1.705830171704292297e-02 -3.158425167202949524e-02 -2.752535343170166016e-01 -2.277976460754871368e-02 1.152476761490106583e-02 -4.872099310159683228e-02 -7.485858350992202759e-02 -1.483282744884490967e-01 -2.222672104835510254e-01 1.017031520605087280e-01
1.174467504024505615e-01 -7.801936566829681396e-02 2.542574703693389893e-02 -6.730985827744007111e-03 5.436023697257041931e-02 2.093554288148880005e-01 6.014863401651382446e-02 -3.790985047817230225e-02 -1.629458218812942505e-01 -1.731870025396347046e-01 -1.135385259985923767e-01 2.190483361482620239e-01
7.552274316549301147e-02 -2.314131855964660645e-01 -3.488805592060089111e-01 -1.717759072780609131e-01 -2.866900060325860977e-03 1.515622138977050781e-01 1.551027446985244751e-01 -6.180988252162933350e-02 -4.042559489607810974e-02 1.746651679277420044e-01 -1.499370038509368896e-01 -6.544785201549530029e-02
-1.816163957118988037e-02 -1.754418946802616119e-02 2.834163792431354523e-02 1.577138751745223999e-01 -4.240860790014266968e-02 -7.248429208993911743e-02 3.203763365745544434e-01 -1.178301870822906494e-02 4.210579395294189453e-02 -3.488740697503089905e-02 -9.092781692743301392e-03 -2.256125770509243011e-02
-1.668338924646377563e-01 -9.221766144037246704e-02 -1.688911914825439453e-01 -9.466809034347534180e-02 4.125519469380378723e-02 -4.011945053935050964e-02 7.111965119838714600e-02 -4.334468767046928406e-02 1.376406848430633545e-01 1.408269554376602173e-01 9.790450334548950195e-02 -1.492338478565216064e-01
-9.478395432233810425e-02 8.749093115329742432e-02 8.717190474271774292e-02 1.471546888351440430e-01 4.319912940263748169e-02 -9.243729524314403534e-03 1.460586041212081909e-01 -3.360432758927345276e-02 -2.680536210536956787e-01 -8.830056339502334595e-02 -1.149271428585052490e-01 -9.387009590864181519e-02
-9.741193614900112152e-03 2.758144633844494820e-03 -1.318447641097009182e-03 5.283259321004152298e-03 1.282869651913642883e-02 1.333468966186046600e-02 1.338329748250544071e-03 5.543666891753673553e-03 -3.882827237248420715e-02 -6.866717740194872022e-05 5.853043869137763977e-03 -3.450080007314682007e-02
9.834455698728561401e-02 -1.045633852481842041e-01 -7.957938313484191895e-02 -1.065155267715454102e-01 4.035997390747070312e-02 4.694995656609535217e-02 -2.007165253162384033e-01 -3.157418221235275269e-02 8.156687021255493164e-02 1.027846895158290863e-02 1.558879017829895020e-02 1.891451179981231689e-01
6.196364387869834900e-02 -1.110191568732261658e-01 4.092021286487579346e-02 7.880023121833801270e-02 -1.037844121456146240e-01 1.029887124896049500e-01 8.517121896147727966e-04 -1.002121809870004654e-02 -3.041375614702701569e-02 -8.027012646198272705e-02 -1.054595038294792175e-01 5.408463627099990845e-02
1.968155205249786377e-01 -5.771280452609062195e-02 -3.433735296130180359e-02 1.643116027116775513e-01 -1.387650817632675171e-01 8.484159409999847412e-02 1.710937172174453735e-01 -2.147620171308517456e-02 -2.416186034679412842e-01 -1.046164780855178833e-01 -4.914036020636558533e-02 -1.354594230651855469e-01
1.023533008992671967e-02 5.611588060855865479e-02 -4.580556601285934448e-02 -1.249316055327653885e-02 -1.188033968210220337e-01 -3.236223757266998291e-01 -6.821967661380767822e-02 -3.448555991053581238e-02 -1.317148059606552124e-01 1.647759461775422096e-03 2.587198652327060699e-02 -3.292952897027134895e-03
1.541265682868952893e-21 3.584621531896314828e-12 -7.534787679886192550e-26 -1.105378194690208955e-16 3.070900955401412169e-12 -1.050761693477397785e-05 7.490173158353352464e-25 -1.763677087327416588e-28 -5.972534466991419322e-08 -1.120203637003711113e-17 -1.561818374592768013e-23 -6.459523194113359068e-11
-7.224748283624649048e-02 -5.599552392959594727e-02 -5.229616165161132812e-02 5.574775394052267075e-03 -6.767395138740539551e-02 -9.299029409885406494e-02 -2.153164707124233246e-02 -2.280984073877334595e-02 3.621632754802703857e-01 -7.356333732604980469e-02 3.239329904317855835e-02 -4.970941692590713501e-02
2.006641889055939959e-14 -1.036263241692815876e-14 -2.891962181033140522e-18 8.587281441485572486e-10 -5.086257803821325751e-11 5.087061319500207901e-03 -5.399887978305368055e-18 -4.644626372396487568e-08 8.636787680097994760e-19 7.740301732894749875e-10 1.462384346950784675e-07 -4.177473485469818115e-03
-4.416946321725845337e-02 7.637114729732275009e-03 1.007055938243865967e-01 -8.406273275613784790e-02 3.641810640692710876e-02 -4.623805359005928040e-02 -2.542207539081573486e-01 -4.692792519927024841e-02 1.330273896455764771e-01 -8.175126463174819946e-02 -6.517530977725982666e-02 -2.074693888425827026e-01
-1.211099848151206970e-01 2.103961072862148285e-02 -9.242284297943115234e-02 -8.079702407121658325e-02 4.459343850612640381e-02 1.864893361926078796e-02 -5.575869977474212646e-02 -2.394555322825908661e-02 -1.817935705184936523e-01 2.246906980872154236e-02 -7.996605336666107178e-02 9.471257776021957397e-02
