-3.812624886631965637e-02 -3.965920582413673401e-02 -2.465724200010299683e-02 8.481016382575035095e-03 -4.533925279974937439e-02 -7.738304138183593750e-02 -2.991361543536186218e-02 -2.218192070722579956e-02 2.197870165109634399e-01 -7.930625230073928833e-02 8.282895386219024658e-02 -8.570265769958496094e-02
3.167900815606117249e-02 -2.359887212514877319e-01 -1.704383045434951782e-01 1.760258339345455170e-02 -8.359537273645401001e-02 7.218240760266780853e-03 3.381591662764549255e-02 -4.916637018322944641e-02 -2.424887008965015411e-02 8.294135332107543945e-02 -2.947553992271423340e-01 -2.377846837043762207e-02
-2.753431536257266998e-02 1.787919318303465843e-03 -8.037072606384754181e-03 -1.294962223619222641e-02 1.595637574791908264e-02 -5.316570773720741272e-02 -6.239204667508602142e-03 -8.277311571873724461e-04 -2.672690339386463165e-02 9.928271919488906860e-02 -6.285958457738161087e-03 -3.409602493047714233e-02
-7.187236100435256958e-02 -5.101136490702629089e-02 -8.535578846931457520e-02 -9.553273208439350128e-03 5.028768256306648254e-02 -1.144114211201667786e-01 -8.998908102512359619e-02 -7.697587716393172741e-04 1.659639030694961548e-01 -4.796132072806358337e-02 1.343220770359039307e-01 -3.819826524704694748e-04
-6.889015436172485352e-02 5.639292672276496887e-02 1.332586854696273804e-01 -3.199587110430002213e-03 -4.695359990000724792e-02 7.352927327156066895e-02 -4.996557720005512238e-03 -3.751704841852188110e-02 5.576026160269975662e-03 3.865364938974380493e-02 -8.005412295460700989e-03 2.032702565193176270e-01
-2.727708816528320312e-01 -2.289469540119171143e-01 -1.242278292775154114e-01 -1.075781881809234619e-01 -2.278113514184951782e-01 4.010701179504394531e-02 7.024865597486495972e-02 -5.018385499715805054e-02 -1.178926695138216019e-02 -1.907439380884170532e-01 -2.296423166990280151e-01 -1.145041733980178833e-02
-2.016430944204330444e-01 -1.920179873704910278e-01 -1.035142913460731506e-01 -1.017752513289451599e-01 -2.381297051906585693e-01 -5.476787686347961426e-02 -1.361815184354782104e-01 -6.106856092810630798e-02 2.000546455383300781e-01 -2.556127607822418213e-01 -2.150167152285575867e-02 1.243281550705432892e-02
-5.979473888874053955e-02 -2.280177175998687744e-01 -9.666830301284790039e-02 -1.318061798810958862e-01 -2.200179398059844971e-01 -1.398343592882156372e-01 3.442195430397987366e-02 -7.290138304233551025e-02 -3.806549683213233948e-02 4.435842391103506088e-03 -2.325045019388198853e-01 -1.400340497493743896e-01
-5.721111968159675598e-02 -6.753584370017051697e-03 4.566461592912673950e-02 7.400617748498916626e-02 -2.559269592165946960e-02 -9.784644097089767456e-02 1.332780113443732262e-03 -2.813321910798549652e-02 1.010842397809028625e-01 -9.960637241601943970e-02 2.180417440831661224e-02 -1.341294795274734497e-01
-1.558955758810043335e-01 -2.275795191526412964e-01 -2.296310961246490479e-01 -5.430251359939575195e-02 3.826686367392539978e-02 7.225171476602554321e-02 -6.934843957424163818e-02 -6.515914201736450195e-02 2.419743984937667847e-01 -1.917055249214172363e-01 -4.321377351880073547e-02 -1.943997144699096680e-01
1.151663735508918762e-01 -1.403202712535858154e-01 -2.021585553884506226e-01 7.561402022838592529e-02 3.967659920454025269e-02 2.250534445047378540e-01 1.743524223566055298e-01 -9.063075482845306396e-02 -5.854921042919158936e-02 -7.342336326837539673e-02 -2.336167544126510620e-02 -3.055253066122531891e-02
2.942984178662300110e-02 -8.667035400867462158e-02 1.765864193439483643e-01 -3.859395161271095276e-02 1.015016585588455200e-01 1.854181587696075439e-01 -6.112733483314514160e-02 4.029407724738121033e-02 -6.788180768489837646e-02 -1.605960726737976074e-01 2.726455330848693848e-01 8.892091363668441772e-02
3.033534884452819824e-01 -3.831226378679275513e-02 2.209030538797378540e-01 -8.591422438621520996e-02 4.039875417947769165e-02 2.165264886571094394e-04 -3.550871089100837708e-02 -3.539971634745597839e-02 -8.568374067544937134e-02 1.665589660406112671e-01 -1.642622798681259155e-02 7.761356234550476074e-02
7.707005366683006287e-03 -1.818595337681472301e-03 -2.790963277220726013e-03 4.149365052580833435e-02 7.293485850095748901e-02 2.564261667430400848e-03 -1.635621637105941772e-01 -1.808966509997844696e-02 1.126632466912269592e-02 -6.772117316722869873e-02 4.694924131035804749e-02 2.608467638492584229e-01
-9.405571967363357544e-02 -2.288793325424194336e-01 -1.242383569478988647e-01 -1.960848718881607056e-01 -1.604629009962081909e-01 -7.161166518926620483e-02 -1.537323743104934692e-01 -8.830444514751434326e-02 2.398128509521484375e-01 -3.153969943523406982e-01 -6.840912997722625732e-02 -1.369280666112899780e-01
-1.214588806033134460e-02 1.574538201093673706e-01 -1.836477220058441162e-02 1.676959544420242310e-01 -1.004554629325866699e-01 1.819911003112792969e-01 -1.007543206214904785e-01 3.916678018867969513e-03 -1.136660575866699219e-01 -2.604124546051025391e-01 -2.472094818949699402e-02 2.265673279762268066e-01
1.801106631755828857e-01 -7.422004640102386475e-02 4.880503565073013306e-02 1.183340847492218018e-01 -1.013017445802688599e-02 4.933219775557518005e-02 1.956299245357513428e-01 2.016843482851982117e-02 -3.824453800916671753e-02 -1.628356277942657471e-01 1.922274529933929443e-01 -5.897665023803710938e-02
2.975097298622131348e-01 -1.070214956998825073e-01 4.883197601884603500e-03 -2.602382190525531769e-02 3.110552020370960236e-02 1.593011468648910522e-01 -2.193817310035228729e-02 1.196994446218013763e-02 -1.362549960613250732e-01 3.563588857650756836e-02 5.954974144697189331e-02 1.521402597427368164e-01
-1.742951758205890656e-02 2.593177184462547302e-02 -6.373308598995208740e-02 -1.960923522710800171e-02 5.631925538182258606e-02 -3.251595422625541687e-02 4.349310323596000671e-02 -1.843300834298133850e-02 -9.333097189664840698e-02 1.463219970464706421e-01 -1.707396842539310455e-02 -2.011491656303405762e-01
-4.242192581295967102e-02 7.120336871594190598e-03 -1.864070072770118713e-02 1.858235336840152740e-02 5.073729157447814941e-02 1.024531275033950806e-01 -3.408320993185043335e-02 -3.185286000370979309e-02 8.811045438051223755e-02 -1.804944425821304321e-01 -5.620293784886598587e-03 -1.490560173988342285e-01
3.545797429978847504e-03 -3.880147123709321022e-03 5.769008770585060120e-03 -4.782702308148145676e-03 7.511315867304801941e-03 2.008843980729579926e-02 9.955496527254581451e-03 9.600442834198474884e-03 4.505928605794906616e-03 -2.035421691834926605e-02 -3.134246915578842163e-02 -5.531737580895423889e-02
2.022766566369682550e-04 4.295414837542921305e-04 9.341005235910415649e-03 -3.565424049156717956e-05 -1.847241190262138844e-03 -3.484336892142891884e-03 -3.408532589673995972e-03 2.572307312220800668e-05 1.437255553901195526e-02 2.740646898746490479e-02 2.628644229844212532e-03 -3.717848286032676697e-02
-7.109031081199645996e-02 2.953865937888622284e-02 -1.922695338726043701e-02 -6.126352399587631226e-02 4.188080504536628723e-02 6.464909762144088745e-02 -6.990952789783477783e-02 -2.107514441013336182e-02 -2.813496291637420654e-01 1.042119711637496948e-01 -6.955356895923614502e-02 -4.299720749258995056e-02
-4.958617137162946165e-05 -1.119274638250455922e-11 -3.764155306895666797e-11 4.513352538926262980e-11 4.598060755929556098e-13 3.420008098942162178e-08 1.319834694868404767e-07 -8.025040701409302812e-12 3.403770421073204488e-08 -3.423527914492296986e-07 -4.384916252320181229e-08 -6.760841192443578507e-11
-5.622358247637748718e-02 7.217393070459365845e-02 7.875895500183105469e-02 -1.631949245929718018e-01 1.152189970016479492e-01 -1.001646146178245544e-01 -8.620487898588180542e-02 -3.062188811600208282e-02 1.372300647199153900e-02 3.507047295570373535e-01 1.790405213832855225e-01 -1.350922435522079468e-01
4.767762869596481323e-02 6.721547245979309082e-02 4.050444439053535461e-02 -2.103014662861824036e-02 -1.583789438009262085e-01 -4.622004181146621704e-02 -3.246589377522468567e-02 -7.435904350131750107e-03 -9.169609099626541138e-02 4.431291483342647552e-03 2.071604281663894653e-01 -7.423381507396697998e-02
-1.709199994802474976e-01 3.671785816550254822e-02 -4.394235089421272278e-03 -1.912772469222545624e-02 -1.390911787748336792e-01 -1.658515930175781250e-01 -1.832922697067260742e-01 -4.867763817310333252e-02 2.310397028923034668e-01 2.023465335369110107e-01 5.496075749397277832e-02 -6.438788026571273804e-02
1.111326217651367188e-01 -1.356455683708190918e-01 1.637271642684936523e-01 -1.390229910612106323e-01 -1.844376027584075928e-01 4.902993887662887573e-02 -4.639352113008499146e-02 -1.175204887986183167e-01 6.819134205579757690e-02 3.555180504918098450e-02 -5.508431792259216309e-02 -4.079210013151168823e-02
-6.578898429870605469e-02 1.027058660984039307e-01 -6.398978084325790405e-02 1.278879046440124512e-01 -7.266122102737426758e-02 -3.263660073280334473e-01 -1.095435842871665955e-01 -3.842710331082344055e-02 -5.225454643368721008e-02 -1.105120256543159485e-01 -3.475419431924819946e-02 -2.191385254263877869e-02
2.016360126435756683e-02 7.433249801397323608e-02 4.279017820954322815e-02 -1.534673105925321579e-02 2.822663076221942902e-02 5.782288312911987305e-02 -1.501337159425020218e-02 8.806160651147365570e-03 -5.388071015477180481e-02 8.896945044398307800e-03 -6.239519268274307251e-02 -1.392004266381263733e-02
3.362130373716354370e-02 1.895867474377155304e-02 -1.453701406717300415e-01 -1.459065973758697510e-01 1.577946473844349384e-03 -1.329976171255111694e-01 5.244115833193063736e-03 -2.466126531362533569e-02 -3.353509008884429932e-01 6.583996862173080444e-02 1.413060072809457779e-02 8.502297103404998779e-02
-2.207219749689102173e-01 -1.451479047536849976e-01 -1.795794581994414330e-03 2.462045662105083466e-02 -2.337091118097305298e-01 -1.310342699289321899e-01 1.762846671044826508e-02 -6.609389185905456543e-02 -9.434732049703598022e-02 -6.236215308308601379e-02 -2.850449681282043457e-01 1.474539469927549362e-02
8.681311737746000290e-04 -4.028298280900344253e-05 5.154887548997066915e-05 -6.770091131329536438e-04 -1.420253738615429029e-05 -2.458707895129919052e-04 3.702400863403454423e-05 -6.079148533899569884e-06 -4.094894044101238251e-03 -4.237054963596165180e-05 -1.211313647218048573e-04 -5.782688036561012268e-03
-1.987541168928146362e-01 1.258392930030822754e-01 -2.737211063504219055e-02 2.544092712923884392e-03 1.551619321107864380e-01 -3.036148473620414734e-02 2.512490749359130859e-02 -5.132719501852989197e-02 5.440068431198596954e-03 -2.889306843280792236e-01 3.594442903995513916e-01 5.745378881692886353e-02
-1.091253831982612610e-01 -1.559883952140808105e-01 -7.890471071004867554e-02 -3.358581289649009705e-02 9.870344772934913635e-03 1.874928474426269531e-01 -2.040901333093643188e-01 -3.960645571351051331e-02 4.234889149665832520e-02 -7.801146805286407471e-02 -3.723615407943725586e-02 -8.193074166774749756e-02
3.389840945601463318e-02 -1.129643693566322327e-01 -1.506012976169586182e-01 -6.955562531948089600e-02 3.695387393236160278e-02 1.694303005933761597e-01 2.071868926286697388e-01 -2.634375914931297302e-02 -1.209043934941291809e-01 -6.980033963918685913e-02 -2.065267115831375122e-01 -5.203161016106605530e-02
7.321108132600784302e-02 2.509274519979953766e-02 -5.778077989816665649e-02 -1.824515461921691895e-01 3.067173995077610016e-02 -5.079095438122749329e-02 -1.238928735256195068e-01 -2.442554198205471039e-02 1.244809129275381565e-03 -1.847033649682998657e-01 -3.037205636501312256e-01 1.861791461706161499e-01
-4.183138906955718994e-02 -1.577312797307968140e-01 2.167040295898914337e-02 -9.022988379001617432e-02 -9.572654962539672852e-02 3.766161948442459106e-02 -8.068349957466125488e-02 -8.759570866823196411e-02 -6.452511996030807495e-02 -2.250315248966217041e-01 -1.977880001068115234e-01 1.017598062753677368e-01
1.840909384191036224e-02 -6.329850852489471436e-02 -1.051827222108840942e-01 1.001953333616256714e-02 -9.391709417104721069e-02 1.757928431034088135e-01 3.469020128250122070e-02 -1.528358552604913712e-02 -1.291482895612716675e-01 -3.726642206311225891e-02 -9.786925464868545532e-02 -3.580546751618385315e-02
-9.612543880939483643e-02 1.583117991685867310e-01 4.453088715672492981e-02 -1.095946729183197021e-01 2.251840531826019287e-01 -2.179042808711528778e-02 2.202359959483146667e-02 1.446519326418638229e-02 8.681273460388183594e-02 -8.005463331937789917e-02 -9.586966782808303833e-02 -1.958466134965419769e-02
2.089003333821892738e-03 -1.782725594239309430e-04 1.135557340603554621e-05 6.225586548680439591e-05 -8.420827725785784423e-06 -2.214017091318964958e-03 2.800413873046636581e-03 -3.101971815340220928e-04 2.794978684050875017e-07 -4.430579065228812397e-05 2.349798160139471292e-04 -4.744168545585125685e-04
-5.459523573517799377e-02 -1.353261619806289673e-01 -2.233978174626827240e-02 -1.354029774665832520e-01 -8.615054190158843994e-02 -1.498074233531951904e-01 -2.610728740692138672e-01 -8.131512254476547241e-02 1.555235981941223145e-01 -5.655635148286819458e-02 -1.658709496259689331e-01 -8.324064314365386963e-02
6.524924933910369873e-02 -2.312346361577510834e-03 -7.145737111568450928e-02 -2.497959882020950317e-02 4.069276526570320129e-02 1.122866123914718628e-01 -3.885278105735778809e-02 -1.535931136459112167e-02 -1.109282597899436951e-01 -2.069341950118541718e-03 5.183240771293640137e-02 -9.012063592672348022e-02
-6.614036392420530319e-03 2.278665266931056976e-02 -6.292382627725601196e-02 6.659342348575592041e-02 7.644188404083251953e-02 -1.229294016957283020e-01 -1.508471816778182983e-01 -2.408300992101430893e-03 1.692997217178344727e-01 -2.532453648746013641e-02 2.814274728298187256e-01 6.730462610721588135e-02
2.819659560918807983e-02 6.263882666826248169e-02 1.490332484245300293e-01 -5.716234818100929260e-02 1.405269503593444824e-01 -2.365867793560028076e-02 1.001595705747604370e-01 -3.185644000768661499e-02 -3.079242706298828125e-01 -1.062677353620529175e-01 -1.703717112541198730e-01 1.824829541146755219e-02
3.039658963680267334e-01 -3.399545326828956604e-02 4.479220509529113770e-02 -2.792977727949619293e-02 -2.962113916873931885e-02 1.002956479787826538e-01 -7.363195717334747314e-02 1.909505017101764679e-02 4.276535473763942719e-03 -2.965727634727954865e-02 9.397837333381175995e-03 1.371738165616989136e-01
-1.734181493520736694e-01 1.120478510856628418e-01 9.288996458053588867e-02 6.475071609020233154e-02 -1.368454694747924805e-01 -2.856635861098766327e-02 -2.547796368598937988e-01 -3.246954828500747681e-02 -7.829947769641876221e-02 -7.819802314043045044e-02 -2.863848581910133362e-02 4.331956803798675537e-02
-3.596621006727218628e-02 -1.164657324552536011e-01 -2.202563881874084473e-01 -2.639020420610904694e-02 -9.119105339050292969e-02 -1.431314647197723389e-01 1.712703406810760498e-01 -3.319079428911209106e-02 -2.084259092807769775e-01 2.900621294975280762e-01 -4.995552450418472290e-02 3.665813128463923931e-04
5.663358420133590698e-02 -1.234859041869640350e-02 6.489506457000970840e-03 -5.446013528853654861e-03 -7.826995104551315308e-03 1.367514207959175110e-02 -1.247041206806898117e-02 -3.324489807710051537e-03 -2.527140779420733452e-03 -2.844935283064842224e-02 -1.490055024623870850e-02 -1.291469763964414597e-02
8.798408508300781250e-02 -8.817514404654502869e-03 6.589412689208984375e-02 -2.369778929278254509e-03 -3.000197000801563263e-02 -5.511060729622840881e-02 -2.105810344219207764e-01 -4.391051456332206726e-02 -3.306935355067253113e-02 -1.316849887371063232e-01 -1.934161037206649780e-01 -1.564674079418182373e-01
-1.124652475118637085e-01 3.523014485836029053e-02 -1.952401548624038696e-01 -2.326856851577758789e-01 1.956314891576766968e-01 -1.599593609571456909e-01 -5.602418631315231323e-02 -5.970228463411331177e-02 6.786938756704330444e-02 2.698245830833911896e-02 2.009925097227096558e-01 8.275523036718368530e-02
-2.161684073507785797e-02 7.169635593891143799e-02 8.235565386712551117e-03 -3.972944617271423340e-02 1.389262080192565918e-01 3.459544479846954346e-02 -6.449145823717117310e-02 -1.560849323868751526e-02 -1.447307765483856201e-01 9.529038518667221069e-02 -6.742147356271743774e-02 -1.774831414222717285e-01
1.388501077890396118e-01 9.256451390683650970e-03 -4.560096189379692078e-02 -1.086614951491355896e-01 1.102524772286415100e-01 5.567742511630058289e-02 8.855735883116722107e-03 -2.659303881227970123e-02 -1.828816682100296021e-01 -5.721003934741020203e-02 1.267259716987609863e-01 -1.688846498727798462e-01
-9.579744073562324047e-04 -5.579386651515960693e-02 -3.273291140794754028e-02 1.678509823977947235e-02 -3.653127700090408325e-02 -1.016589812934398651e-03 -2.132957801222801208e-02 -3.241492807865142822e-02 -7.726535201072692871e-03 -5.291404575109481812e-02 6.530118733644485474e-02 -1.866398453712463379e-01
1.851372537203133106e-03 5.205349251627922058e-02 2.947409637272357941e-02 1.415002197027206421e-01 -3.319256007671356201e-02 -7.268270105123519897e-02 -2.167562209069728851e-02 -7.734893355518579483e-03 2.602277100086212158e-01 -2.078395932912826538e-01 -1.059954389929771423e-01 -3.038497269153594971e-01
-4.055981710553169250e-02 -8.855528384447097778e-02 9.713810682296752930e-02 -6.126513332128524780e-02 -3.458895087242126465e-01 -2.257201373577117920e-01 -2.049088329076766968e-01 -8.714915066957473755e-02 -5.594298709183931351e-03 7.869798690080642700e-02 -9.784404188394546509e-02 -2.824096009135246277e-02
4.859317094087600708e-03 3.030679654330015182e-03 -1.438110508024692535e-02 5.090046208351850510e-03 2.397727034986019135e-02 -6.547980476170778275e-03 9.396768175065517426e-03 -7.126911077648401260e-04 -1.893170760013163090e-03 -2.409567311406135559e-02 -1.212798431515693665e-02 -1.296284236013889313e-02
-5.448231939226388931e-03 -3.451327793300151825e-04 -5.348855163902044296e-03 -1.787332352250814438e-03 -1.814220333471894264e-03 -4.264608025550842285e-03 1.113137750508030877e-05 -1.158299040980637074e-03 -1.838840916752815247e-02 4.633063450455665588e-03 -3.448893548920750618e-03 7.435669191181659698e-03
-8.651744574308395386e-02 8.101373165845870972e-02 1.347430348396301270e-01 -1.388164907693862915e-01 -1.389443427324295044e-01 -2.650844156742095947e-01 -1.641057729721069336e-01 -6.061398237943649292e-02 2.822522521018981934e-01 -4.183385521173477173e-02 2.404765598475933075e-02 -1.135833486914634705e-01
2.236003326938629243e-10 -8.975301751812381212e-11 4.975666059725547541e-11 -6.585536976855266289e-11 -1.777531082325367606e-07 3.361518849942513043e-07 -4.033666918985545635e-04 -6.772262611809409805e-11 6.254333015931479167e-07 8.097333567547160271e-12 4.403954179110769473e-08 -2.873674384318292141e-05
7.598081231117248535e-02 4.024362564086914062e-02 1.521425992250442505e-01 -6.733332993462681770e-04 1.501550078392028809e-01 5.426257848739624023e-02 4.364114999771118164e-02 -2.630945108830928802e-02 -9.616468101739883423e-02 -4.302083700895309448e-02 -1.108693853020668030e-01 1.283741295337677002e-01
-2.436148002743721008e-03 7.253009825944900513e-03 1.475216820836067200e-03 -4.599995538592338562e-02 1.032642554491758347e-02 2.089159935712814331e-02 4.934407770633697510e-04 -6.946615409106016159e-03 -8.425432443618774414e-02 7.206545025110244751e-02 4.551685415208339691e-03 -8.431955426931381226e-02
2.515250258147716522e-02 -6.359234452247619629e-02 -1.586673706769943237e-01 7.830508798360824585e-02 7.060690969228744507e-02 2.268591970205307007e-01 -1.089778766036033630e-01 -2.861330471932888031e-02 -3.821277245879173279e-02 -3.483088314533233643e-02 -1.691844314336776733e-01 -1.007556356489658356e-02
-5.007348372600972652e-04 -4.120958596467971802e-02 -8.644960820674896240e-02 -5.613773828372359276e-04 -1.792085170745849609e-01 -3.301435410976409912e-01 -6.371831148862838745e-02 -4.846967011690139771e-02 6.796088069677352905e-02 1.036909222602844238e-01 4.491982981562614441e-02 -1.255822181701660156e-01
-2.716295719146728516e-01 -1.314531266689300537e-01 -9.012938290834426880e-02 -1.830998659133911133e-01 -1.061234506778419018e-04 -1.296436786651611328e-01 -4.406053200364112854e-02 -7.613574713468551636e-02 -6.542203016579151154e-03 -1.085139065980911255e-01 -2.193672209978103638e-01 -1.007767617702484131e-01
1.473399549722671509e-01 -8.635313808917999268e-02 -1.507769078016281128e-01 -1.510320007801055908e-01 -2.159727960824966431e-01 -1.420179456472396851e-01 -1.484034359455108643e-01 -4.109115526080131531e-02 2.018859386444091797e-01 -1.188350617885589600e-01 -2.214363031089305878e-02 1.186696290969848633e-01
-3.628271399065852165e-03 5.972955375909805298e-03 -1.659118197858333588e-02 1.124705467373132706e-02 5.814058240503072739e-03 2.258467115461826324e-02 9.058134310180321336e-05 1.957126078195869923e-04 -2.585085341706871986e-03 -2.059930749237537384e-02 -1.367440563626587391e-03 -1.126294508576393127e-01
1.367100626230239868e-01 -7.213594019412994385e-02 -1.305744796991348267e-01 -2.670639939606189728e-02 -6.659829616546630859e-02 1.231967285275459290e-01 -1.203024759888648987e-01 -1.070482432842254639e-01 -1.510784029960632324e-01 -2.924573607742786407e-02 -1.702477931976318359e-01 1.229668408632278442e-01
1.621950566768646240e-01 -1.434098184108734131e-01 -8.561014384031295776e-02 -1.118437871336936951e-01 -4.141390323638916016e-02 2.185208797454833984e-01 -3.973213210701942444e-02 -3.536945953965187073e-02 5.018281191587448120e-02 1.455887686461210251e-02 -1.813140958547592163e-01 -9.739138931035995483e-02
1.405932456254959106e-01 -2.056227177381515503e-01 9.964398294687271118e-02 3.006000816822052002e-02 -1.988673210144042969e-01 -1.427836865186691284e-01 5.426891148090362549e-02 -3.120586648583412170e-02 -1.875152289867401123e-01 1.207997873425483704e-01 -1.031785532832145691e-01 4.750382900238037109e-02
4.773564171046018600e-03 1.668406301178038120e-03 -2.275726757943630219e-02 -3.898779302835464478e-02 1.855354197323322296e-02 1.063493266701698303e-01 -4.671278968453407288e-02 -1.125454157590866089e-02 -1.439800709486007690e-01 1.188208628445863724e-02 -1.211736258119344711e-02 -3.113998286426067352e-02
-2.531276345252990723e-01 2.956812642514705658e-02 -1.941377967596054077e-01 -6.813813000917434692e-02 1.080857366323471069e-01 3.590609133243560791e-02 -8.267730474472045898e-02 -6.998584419488906860e-02 6.556918472051620483e-02 -3.342980742454528809e-01 1.181091442704200745e-01 7.266154047101736069e-03
-1.039664633572101593e-02 -3.884636564180254936e-03 -1.178274676203727722e-02 3.417203668504953384e-03 -3.743724897503852844e-03 -1.617428287863731384e-02 -4.183143377304077148e-03 -2.186846919357776642e-03 -2.256513200700283051e-02 -2.377914451062679291e-02 -1.587848551571369171e-02 7.012576609849929810e-02
-8.554328233003616333e-02 -6.825192272663116455e-02 -1.362215429544448853e-01 -9.191472083330154419e-02 -3.858882188796997070e-02 -6.794797629117965698e-02 1.291195899248123169e-01 -2.760827168822288513e-02 -3.264776468276977539e-01 9.402763843536376953e-02 -9.183169156312942505e-02 8.665140718221664429e-02
1.197495684027671814e-02 -3.616133332252502441e-02 1.016116235405206680e-02 5.559216812252998352e-02 -2.029345631599426270e-01 -3.620829284191131592e-01 -6.387072056531906128e-02 -4.478629305958747864e-02 -7.162275165319442749e-02 -7.926980406045913696e-02 1.798765547573566437e-02 -4.211198166012763977e-02
1.637088656425476074e-01 -7.282091677188873291e-02 1.328907720744609833e-02 8.244662731885910034e-02 -1.476666182279586792e-01 1.667560338973999023e-01 1.650512814521789551e-01 -4.096496477723121643e-02 1.884482428431510925e-02 -6.232206895947456360e-02 -1.407480519264936447e-02 -8.319438248872756958e-02
-2.097912505269050598e-02 2.645761892199516296e-02 -8.978422731161117554e-03 1.959454733878374100e-03 -7.213305681943893433e-02 -1.357317622750997543e-02 1.796950120478868484e-03 6.176204420626163483e-03 7.954415678977966309e-02 -3.889643028378486633e-02 9.563903510570526123e-02 7.875747396610677242e-04
-2.550567984580993652e-01 3.820680454373359680e-02 -1.648703217506408691e-02 -7.414788007736206055e-02 1.657385826110839844e-01 2.269066423177719116e-01 -1.264695674180984497e-01 -6.325206905603408813e-02 -1.022938936948776245e-01 9.529234468936920166e-02 -2.613259665668010712e-02 -9.871575236320495605e-02
-1.970597803592681885e-01 -4.859581217169761658e-02 -1.990274190902709961e-01 -1.333021372556686401e-01 1.104544773697853088e-01 -5.270564183592796326e-02 -2.369986847043037415e-02 -4.422345384955406189e-02 -2.903524413704872131e-02 -8.768470585346221924e-02 3.380412980914115906e-02 -1.915287598967552185e-02
-9.814712405204772949e-02 1.942847296595573425e-02 6.011979654431343079e-03 4.299826025962829590e-01 -9.234996885061264038e-02 -8.956693857908248901e-02 -1.585573889315128326e-02 -6.187342107295989990e-02 1.764452457427978516e-01 -4.475427791476249695e-03 8.301674574613571167e-02 -1.879417002201080322e-01
6.248050555586814880e-02 -6.727968808263540268e-03 -6.542071700096130371e-03 1.269343495368957520e-01 -9.774348884820938110e-02 -1.281487047672271729e-01 -3.803258761763572693e-02 -3.160714358091354370e-02 1.313363164663314819e-01 -1.440992057323455811e-01 2.593556642532348633e-01 -1.272775977849960327e-01
3.687008470296859741e-02 -2.356893271207809448e-01 -1.143787875771522522e-01 1.452661752700805664e-01 -7.225196808576583862e-02 6.799847632646560669e-02 4.481027275323867798e-02 -5.994151160120964050e-02 -3.323372453451156616e-02 -2.280990779399871826e-01 -1.788607686758041382e-01 3.096293099224567413e-02
9.979002177715301514e-02 -1.381614655256271362e-01 -1.445889379829168320e-02 -1.438019573688507080e-01 -2.461303472518920898e-01 -1.259605586528778076e-01 -1.689870469272136688e-02 -5.276176705956459045e-02 -7.210616767406463623e-02 2.038769423961639404e-01 -2.184412777423858643e-01 -1.194019615650177002e-01
-5.233891680836677551e-02 -1.941458508372306824e-02 2.570454776287078857e-01 1.209810376167297363e-01 7.487299386411905289e-03 -8.624041453003883362e-03 -2.903991043567657471e-01 -5.459014791995286942e-03 -8.685106784105300903e-02 1.294867694377899170e-01 -1.682201474905014038e-01 1.360370814800262451e-01
-1.121606826782226562e-01 1.497492343187332153e-01 5.796023830771446228e-02 -1.038509141653776169e-02 2.044379012659192085e-03 -1.788433939218521118e-01 -2.275147438049316406e-01 -4.365810751914978027e-02 4.745381698012351990e-02 2.211757190525531769e-02 2.756243199110031128e-02 -1.103935018181800842e-01
-2.991302013397216797e-01 1.667798608541488647e-01 4.683683160692453384e-03 1.139380782842636108e-01 9.576843678951263428e-02 1.274822801351547241e-01 8.869672566652297974e-02 -2.442485652863979340e-02 -2.383200526237487793e-01 -1.356399953365325928e-01 -9.601524472236633301e-02 7.358071953058242798e-02
-3.428241610527038574e-02 -8.682762086391448975e-02 -1.679342240095138550e-01 -1.807018220424652100e-01 -9.916301816701889038e-02 -1.655757129192352295e-01 -2.032491266727447510e-01 -6.088786572217941284e-02 6.322715431451797485e-02 5.361644178628921509e-02 -1.214150991290807724e-02 2.356771193444728851e-02
9.813080728054046631e-02 3.106168471276760101e-02 3.959817066788673401e-02 -2.480794675648212433e-02 4.551489651203155518e-02 -2.032418698072433472e-01 -9.238823503255844116e-02 -3.393025696277618408e-02 1.732372790575027466e-01 5.480288714170455933e-02 5.968869663774967194e-03 -1.076491549611091614e-01
2.052265256643295288e-01 1.075918152928352356e-01 2.601704560220241547e-02 1.093148365616798401e-01 -5.784988030791282654e-02 8.701821416616439819e-02 2.719575762748718262e-01 -2.338966540992259979e-02 -1.233648583292961121e-01 -9.806932508945465088e-02 1.069587618112564087e-01 -6.046664714813232422e-02
-8.066236227750778198e-02 -1.096306890249252319e-01 -4.901122674345970154e-02 -1.103931739926338196e-01 -5.988140124827623367e-03 1.932743936777114868e-02 -7.182493060827255249e-02 4.980175197124481201e-02 2.094592750072479248e-01 1.212574094533920288e-01 -1.539062615483999252e-02 9.758123755455017090e-02
-4.121048748493194580e-02 -1.501335799694061279e-01 3.471242962405085564e-03 5.700311437249183655e-02 -9.206368029117584229e-02 3.793348371982574463e-01 -1.567026823759078979e-01 -5.711326375603675842e-02 -1.131711453199386597e-01 -7.315224409103393555e-02 -1.490728557109832764e-01 -1.002109423279762268e-01
7.064010947942733765e-02 -2.180715352296829224e-01 -1.170319989323616028e-01 8.243843913078308105e-03 -2.329715341329574585e-01 1.579572446644306183e-02 7.879224419593811035e-02 -6.348796188831329346e-02 -1.098225936293601990e-01 -1.014840789139270782e-02 1.247240602970123291e-01 2.953377738595008850e-02
7.751180976629257202e-02 2.622060850262641907e-02 -5.967744160443544388e-03 1.989022595807909966e-03 -1.462562084197998047e-01 -1.056563928723335266e-01 -6.148804351687431335e-02 -1.576705276966094971e-02 -1.534685194492340088e-01 2.961309440433979034e-02 7.120763510465621948e-02 -1.239917799830436707e-01
2.327624388271942735e-04 2.786002983867774674e-09 6.255514506392501062e-08 -6.893657200635061599e-09 1.007668774810621670e-11 -5.780401712840443906e-10 -3.665494432425475679e-06 -7.874651153372269619e-09 -1.391086273949682095e-10 1.043792963173473254e-05 -1.360113060400180984e-06 -2.458284825479495339e-06
-6.925029307603836060e-02 -1.655231602489948273e-02 -8.393357694149017334e-02 -1.797578856348991394e-02 1.548468023538589478e-01 -7.957332581281661987e-02 1.269511412829160690e-02 -2.090226113796234131e-02 5.509594827890396118e-02 -1.139801815152168274e-01 -1.153515577316284180e-01 2.943136356770992279e-02
-2.635794579982757568e-01 6.103934720158576965e-02 1.717607304453849792e-02 -1.594788432121276855e-01 -1.840701401233673096e-01 -1.611002534627914429e-01 -3.559531569480895996e-01 -9.048688411712646484e-02 1.714474856853485107e-01 1.076173335313796997e-01 1.401862502098083496e-01 5.629501119256019592e-02
-2.345730923116207123e-02 -4.569657519459724426e-02 -8.262210339307785034e-02 -7.754925638437271118e-02 3.890986740589141846e-02 -3.682702407240867615e-02 -4.286918044090270996e-02 -3.396883234381675720e-02 2.954319119453430176e-02 2.729894407093524933e-02 4.878677055239677429e-02 -1.883744150400161743e-01
-4.246277362108230591e-02 -4.603109881281852722e-02 -3.679966554045677185e-02 -3.098627626895904541e-01 1.508939862251281738e-01 1.496441066265106201e-01 5.896273627877235413e-02 -3.124108538031578064e-02 -1.710480898618698120e-01 1.842850446701049805e-02 -2.242418192327022552e-02 1.664065420627593994e-01
-1.273590326309204102e-01 -9.528975933790206909e-02 -9.218472242355346680e-02 1.624871343374252319e-01 -1.519464403390884399e-01 -2.372760325670242310e-01 1.207131445407867432e-01 -5.606822296977043152e-02 -5.824784189462661743e-02 7.120063900947570801e-02 -2.572265863418579102e-01 -4.341227933764457703e-02
2.186712473630905151e-01 -2.413587085902690887e-02 1.316639333963394165e-01 -1.663735210895538330e-01 -2.606560587882995605e-01 -7.071179151535034180e-02 -9.522630274295806885e-02 -3.207041323184967041e-02 -9.490289539098739624e-02 -1.517807394266128540e-01 7.738842070102691650e-02 -4.299784824252128601e-02
-5.897725746035575867e-02 -1.733862608671188354e-01 -5.500929057598114014e-02 -1.832010447978973389e-01 5.743698030710220337e-02 3.260658979415893555e-01 -1.526181250810623169e-01 -4.213926941156387329e-02 2.420463785529136658e-02 -8.125726133584976196e-02 2.350683324038982391e-02 -5.514683946967124939e-02
6.387660652399063110e-02 -7.464352250099182129e-02 -1.096101850271224976e-01 -1.511323004961013794e-01 1.424950920045375824e-02 -8.671263605356216431e-02 -1.126251965761184692e-01 -7.248083502054214478e-02 -5.607911571860313416e-02 -1.085854619741439819e-01 5.416538938879966736e-02 1.880630105733871460e-01
2.124276757240295410e-01 -1.045217365026473999e-01 -1.321843117475509644e-01 -2.449440211057662964e-02 -7.380464673042297363e-02 5.476867780089378357e-02 5.406976491212844849e-02 3.373554348945617676e-02 -2.403842210769653320e-01 -1.277916431427001953e-01 -1.821382343769073486e-01 -1.623606076464056969e-03
-7.963083684444427490e-02 4.191096872091293335e-03 -1.386612951755523682e-01 -1.433391273021697998e-01 8.642586320638656616e-02 1.640373468399047852e-01 -1.297411471605300903e-01 -7.981866598129272461e-03 -7.979834079742431641e-02 1.617352515459060669e-01 1.299330145120620728e-01 1.440135575830936432e-02
2.923817038536071777e-01 -6.511148065328598022e-02 -1.851404905319213867e-01 -8.619134128093719482e-02 1.483926773071289062e-01 -1.279399544000625610e-01 -1.251358687877655029e-01 -2.725473791360855103e-02 -1.796417087316513062e-01 3.742790222167968750e-02 2.147292047739028931e-01 -1.103434041142463684e-01
6.590427458286285400e-02 -5.913321673870086670e-02 -1.197250932455062866e-01 -2.268760465085506439e-02 7.908887229859828949e-03 -1.976194046437740326e-02 -8.621895313262939453e-02 4.974607378244400024e-02 8.800423890352249146e-02 7.875836640596389771e-02 4.239377379417419434e-02 9.655930846929550171e-02
-5.716042593121528625e-03 -2.415404468774795532e-02 -8.391164988279342651e-02 -2.388920821249485016e-02 8.478815108537673950e-02 1.481842100620269775e-01 9.145142138004302979e-02 -1.451250631362199783e-02 -1.671228855848312378e-01 -3.024757374078035355e-03 -8.944477885961532593e-02 -1.107902824878692627e-01
1.287820041179656982e-01 2.271858416497707367e-02 8.481301367282867432e-02 -5.874291434884071350e-02 -1.651174426078796387e-01 -2.163579463958740234e-01 -8.912046998739242554e-02 -7.737438380718231201e-02 1.583065390586853027e-01 1.848121732473373413e-01 -2.049941122531890869e-01 -7.048563659191131592e-02
-7.924820296466350555e-03 2.154041454195976257e-02 1.238431036472320557e-02 5.511539056897163391e-02 2.613675966858863831e-02 -2.265214547514915466e-02 -2.274259179830551147e-02 -1.138556562364101410e-02 -5.327739194035530090e-02 5.987353250384330750e-02 -2.197549492120742798e-02 -1.340166926383972168e-01
1.268000006675720215e-01 -1.958465948700904846e-02 -1.149407327175140381e-01 2.468587607145309448e-01 9.183311462402343750e-02 -1.165817528963088989e-01 2.856783866882324219e-01 -3.238219395279884338e-02 -3.584935069084167480e-01 -2.042649090290069580e-01 -1.492476835846900940e-02 -1.064692139625549316e-01
1.343044787645339966e-01 -5.215635523200035095e-02 -1.158720180392265320e-01 -9.482512623071670532e-02 2.913810778409242630e-03 8.194578438997268677e-02 -8.201625198125839233e-02 -8.639694005250930786e-02 1.887774616479873657e-01 -5.753080919384956360e-02 1.539650838822126389e-02 1.175829321146011353e-01
-5.305686220526695251e-02 -1.560372710227966309e-01 2.824187744408845901e-03 -3.385164961218833923e-02 -1.578013896942138672e-01 1.588483341038227081e-02 -8.291134610772132874e-03 -4.642127454280853271e-02 5.499698966741561890e-02 -2.070511132478713989e-01 -1.928254812955856323e-01 4.510411992669105530e-02
-2.767036785371601582e-04 -9.382120879308786243e-06 -6.105486136220861226e-06 -3.853807356790639460e-06 8.177305062417872250e-06 1.448053080821409822e-05 2.638720630887547713e-10 -1.012811452483219909e-07 -3.836407103108285810e-08 -9.623367805033922195e-05 7.301228833966888487e-06 -2.142689656466245651e-03
-7.825341820716857910e-02 9.419577568769454956e-02 6.890355795621871948e-02 7.071006298065185547e-02 -7.783947139978408813e-02 -2.032741531729698181e-02 -5.484814755618572235e-03 -3.694104403257369995e-02 -2.596418559551239014e-01 -9.517247974872589111e-02 7.210995256900787354e-02 -1.762451082468032837e-01
1.961066126823425293e-01 6.054197624325752258e-02 2.093287706375122070e-01 1.197889372706413269e-01 -1.882795393466949463e-01 9.252231568098068237e-02 -3.030250221490859985e-02 -3.957190737128257751e-02 -2.845047414302825928e-01 -4.976653959602117538e-03 -7.161054760217666626e-02 5.498673766851425171e-02
-2.112851142883300781e-01 3.405451076105237007e-03 6.933901458978652954e-02 7.823238521814346313e-02 -1.461343169212341309e-01 -1.223053634166717529e-01 -2.325928956270217896e-02 -4.640601575374603271e-02 -8.807370066642761230e-02 1.131158322095870972e-02 -1.509584486484527588e-01 1.272040070034563541e-03
-1.076269545592367649e-04 2.462649485096335411e-03 2.544400631450116634e-04 2.082803839584812522e-04 4.045591922476887703e-04 -7.192245684564113617e-03 -8.775831083767116070e-04 1.007892307825386524e-03 -1.986859424505382776e-04 -1.024934812448918819e-03 4.592995392158627510e-04 -9.517545811831951141e-03
9.727353230118751526e-03 -6.124690547585487366e-02 1.680441349744796753e-01 1.143272295594215393e-01 -2.570182681083679199e-01 -3.596993535757064819e-02 -1.610326617956161499e-01 -6.336089223623275757e-02 7.160703837871551514e-02 8.378207683563232422e-02 1.035004556179046631e-01 -1.754367724061012268e-02
-3.518531229929067194e-05 -1.036310786730609834e-04 -2.202420364483259618e-05 -4.771521707880310714e-05 3.981896734330803156e-04 -1.327377464622259140e-02 -1.808484921639319509e-05 -5.195289486437104642e-05 -8.275502361357212067e-03 -7.575132622150704265e-05 1.863906218204647303e-04 -1.103826871258206666e-04
-1.195136085152626038e-01 -2.024396955966949463e-01 -2.128536999225616455e-01 2.120392769575119019e-01 -1.398979127407073975e-01 6.512948125600814819e-02 3.626773133873939514e-02 -2.120899036526679993e-02 7.146466523408889771e-02 8.533717691898345947e-02 -1.015828922390937805e-01 -9.946088306605815887e-03
4.630417376756668091e-02 2.567766793072223663e-02 -7.667994499206542969e-02 -3.271508589386940002e-02 1.554901450872421265e-01 7.084327191114425659e-02 1.764675676822662354e-01 -6.244174018502235413e-02 -1.372048705816268921e-01 -2.226415090262889862e-02 8.024197816848754883e-02 1.022336110472679138e-01
-6.648425757884979248e-02 9.432873129844665527e-02 1.340654045343399048e-01 -1.364395469427108765e-01 -1.508485153317451477e-02 1.352824922651052475e-02 -5.658865720033645630e-02 -1.801849156618118286e-02 -2.203489094972610474e-02 6.762982159852981567e-02 -1.238390132784843445e-01 3.012370467185974121e-01
-1.496637165546417236e-01 -2.508392930030822754e-01 -1.573623716831207275e-01 -2.123999595642089844e-01 -1.686748117208480835e-01 -1.194717958569526672e-01 -1.697098910808563232e-01 -7.356902211904525757e-02 -4.017825052142143250e-02 -1.199428513646125793e-01 -6.886466592550277710e-02 -6.545735150575637817e-02
-7.050921022891998291e-02 -1.326471716165542603e-01 6.790859997272491455e-02 2.648440655320882797e-03 -1.961102336645126343e-01 -1.264492422342300415e-01 -6.162181124091148376e-02 -4.868806898593902588e-02 1.429960131645202637e-01 1.158028915524482727e-01 -1.645794063806533813e-01 1.644715107977390289e-02
1.063945237547159195e-04 -1.246969247858942254e-07 -8.663564221933484077e-05 -9.588591609599461663e-08 5.567291736952029169e-05 9.798264363780617714e-04 8.035974460653960705e-04 1.714320333701369838e-22 -3.103083290625363588e-04 -6.355308578349649906e-04 1.703163579804822803e-04 1.727856113575398922e-03
-2.818975783884525299e-02 -6.204437464475631714e-03 -7.260339707136154175e-02 9.184468537569046021e-02 1.866961717605590820e-01 -2.148018777370452881e-01 6.788972765207290649e-02 -3.579098731279373169e-02 -1.232686936855316162e-01 -1.258523762226104736e-01 9.073602408170700073e-02 1.941154748201370239e-01
-1.130814707721583545e-04 -7.804710185155272484e-05 -1.450273266527801752e-04 1.898715709103271365e-04 2.408781321719288826e-03 -5.986884352751076221e-04 2.126284962287172675e-04 -2.243228863839201448e-14 -2.235070103779435158e-03 -8.218840957852080464e-05 6.370420305756852031e-05 4.298089537769556046e-03
3.219775259494781494e-01 -5.439662188291549683e-02 1.533030346035957336e-02 -6.327749788761138916e-02 -3.513487055897712708e-03 -9.042079746723175049e-02 -2.168659865856170654e-01 -1.932236738502979279e-02 2.535909228026866913e-02 -9.538402408361434937e-02 1.187395900487899780e-01 -5.964889749884605408e-02
1.087553173420019448e-04 -6.279757712036371231e-03 5.261817574501037598e-02 1.034796331077814102e-02 -4.628728330135345459e-02 -1.034944802522659302e-01 -1.114894300699234009e-01 -2.588890492916107178e-02 3.217032179236412048e-03 4.766480624675750732e-02 2.756626112386584282e-03 -1.416016966104507446e-01
-8.701191842555999756e-02 1.170536596328020096e-02 -4.328029975295066833e-02 -1.151794753968715668e-02 -1.555134952068328857e-01 -5.748654901981353760e-02 -2.594354562461376190e-02 -3.784696757793426514e-02 -1.141750589013099670e-01 -9.168929606676101685e-02 -5.805745720863342285e-02 -1.332175433635711670e-01
-6.750865280628204346e-02 -1.604278832674026489e-01 -6.094366684556007385e-02 -1.081721950322389603e-02 -1.261522918939590454e-01 -8.952273428440093994e-02 -6.430602818727493286e-02 -7.248411327600479126e-02 -6.340314447879791260e-02 1.428777128458023071e-01 -2.331438958644866943e-01 1.696950942277908325e-01
6.740396469831466675e-02 4.065429419279098511e-02 -2.212363667786121368e-02 -1.873972825706005096e-02 -7.722030393779277802e-03 -3.869128227233886719e-02 7.287197560071945190e-02 -9.130034595727920532e-03 -1.331128180027008057e-01 8.229973912239074707e-02 1.269978135824203491e-01 -5.727804452180862427e-02
-1.075314730405807495e-01 1.904390305280685425e-01 1.980003416538238525e-01 1.331035643815994263e-01 9.498316794633865356e-02 -7.729291915893554688e-02 -2.064881473779678345e-01 -4.270336404442787170e-02 -4.276976585388183594e-01 -3.157268464565277100e-02 -1.286405473947525024e-01 -6.934405863285064697e-02
-1.682300567626953125e-01 4.754088073968887329e-02 8.126482367515563965e-02 -7.888402789831161499e-02 3.849504142999649048e-02 9.185888618230819702e-02 -1.135478168725967407e-01 -5.904943868517875671e-02 -3.134283050894737244e-02 -1.368993818759918213e-01 1.984490156173706055e-01 1.102610677480697632e-01
-3.632251173257827759e-03 2.155910944566130638e-03 3.098166920244693756e-02 -3.393422579392790794e-03 9.018856100738048553e-03 -1.065936964005231857e-02 -2.714349702000617981e-02 -9.128746460191905499e-04 2.042872831225395203e-03 -2.936957636848092079e-03 -1.676224172115325928e-02 -5.361837148666381836e-02
5.131739005446434021e-02 7.409120351076126099e-02 1.417321618646383286e-02 -1.975874416530132294e-02 6.233252957463264465e-02 -5.930351838469505310e-02 -6.095650792121887207e-02 -2.012920193374156952e-02 -1.580272167921066284e-01 7.457750290632247925e-02 4.276507347822189331e-02 -1.619521826505661011e-01
4.722258821129798889e-02 -5.320021510124206543e-02 4.649396613240242004e-02 -2.217992395162582397e-01 1.037265406921505928e-03 -1.688956841826438904e-02 -2.574841082096099854e-01 -3.814167156815528870e-02 3.261286616325378418e-01 1.999658998101949692e-03 1.142111048102378845e-01 -6.725852191448211670e-02
-4.981200024485588074e-02 -9.194547683000564575e-02 5.170196294784545898e-02 -1.361287236213684082e-01 -5.994714796543121338e-02 1.278899312019348145e-01 4.289161786437034607e-02 -5.595220252871513367e-02 -1.378764957189559937e-02 -1.411878764629364014e-01 -1.293521374464035034e-01 1.957668960094451904e-01
-1.191180944442749023e-01 -1.102616041898727417e-01 -6.843448430299758911e-02 -4.863533005118370056e-02 -1.815850436687469482e-01 1.315654963254928589e-01 1.309143193066120148e-02 -7.425200659781694412e-03 -1.648648083209991455e-02 2.425583899021148682e-01 -1.630381681025028229e-02 1.511499136686325073e-01
-9.380190074443817139e-02 1.941532194614410400e-01 1.762702763080596924e-01 2.460133098065853119e-02 -1.579717546701431274e-01 -1.077232509851455688e-01 -2.451977729797363281e-01 -9.817757457494735718e-02 3.226982429623603821e-02 4.722163453698158264e-02 1.225986927747726440e-01 5.702965706586837769e-02
-5.148246139287948608e-02 -2.127442210912704468e-01 -1.201474294066429138e-01 -2.248066365718841553e-01 -1.452185213565826416e-01 1.589670032262802124e-02 -1.082697957754135132e-01 -6.518127769231796265e-02 -4.674408212304115295e-02 1.576326787471771240e-02 -1.416689902544021606e-01 -1.338214576244354248e-01
-1.464790105819702148e-02 -8.150307089090347290e-02 1.692454144358634949e-02 -4.751807451248168945e-02 -7.148416340351104736e-02 2.863723039627075195e-01 -6.667039543390274048e-02 -1.171314157545566559e-02 -4.921633750200271606e-02 -1.340751256793737411e-02 -5.032830685377120972e-02 -1.416260655969381332e-02
-3.018313087522983551e-02 6.157786771655082703e-02 1.154055353254079819e-02 -3.598289797082543373e-03 5.307209864258766174e-02 5.417498294264078140e-03 -8.128532022237777710e-02 -1.506011374294757843e-02 -2.010173797607421875e-01 4.964395239949226379e-02 3.271729871630668640e-02 -6.978744268417358398e-02
2.082182019948959351e-01 -4.043852165341377258e-02 1.220545396208763123e-01 1.164311077445745468e-02 6.290750950574874878e-02 -1.435791552066802979e-01 -5.622988194227218628e-02 -6.604357063770294189e-02 -2.272191643714904785e-01 1.197884753346443176e-01 4.307770356535911560e-02 8.609084039926528931e-02
-4.689387604594230652e-02 3.380094096064567566e-02 4.395924136042594910e-02 -1.910537853837013245e-02 6.175292655825614929e-02 -2.554598450660705566e-02 -2.643307484686374664e-02 -1.209478545933961868e-02 -2.453687414526939392e-02 6.258977949619293213e-02 -6.045470014214515686e-02 -1.432978361845016479e-01
1.172492131590843201e-01 -6.009734421968460083e-02 -1.472226083278656006e-01 -1.532038003206253052e-01 -1.657316088676452637e-01 9.111787378787994385e-02 1.064141839742660522e-01 -5.008162185549736023e-02 6.418802589178085327e-02 -3.598512336611747742e-02 -4.354536533355712891e-02 -1.196263432502746582e-01
-5.753003805875778198e-02 -2.950691804289817810e-02 -2.185098454356193542e-02 8.569902740418910980e-03 -7.369683682918548584e-02 -5.374355986714363098e-02 -2.102852798998355865e-02 6.435893476009368896e-03 9.606441110372543335e-02 -6.459743529558181763e-02 9.685487300157546997e-02 5.479840189218521118e-02
-1.796506792306900024e-01 -1.048024222254753113e-01 -1.871735900640487671e-01 -1.511774864047765732e-02 -5.779269337654113770e-02 6.383036822080612183e-02 -6.358796358108520508e-02 5.003289505839347839e-02 -1.656907983124256134e-02 7.696783542633056641e-02 -1.218063384294509888e-01 1.019069552421569824e-01
-3.100850246846675873e-02 -8.953223377466201782e-02 2.534811012446880341e-02 -1.091172173619270325e-01 -6.045361235737800598e-02 -5.676956474781036377e-02 -1.057159155607223511e-01 1.498239394277334213e-02 -1.488827262073755264e-02 6.128127127885818481e-02 4.252631589770317078e-02 4.091314673423767090e-01
-3.084357380867004395e-01 4.630316793918609619e-02 -1.056853979825973511e-01 -3.139252308756113052e-03 6.294143199920654297e-02 -8.788495510816574097e-02 6.713829934597015381e-02 -1.429652515798807144e-02 -5.135000124573707581e-02 -1.357400864362716675e-01 8.421088755130767822e-02 2.800601124763488770e-01
-6.073220632970333099e-03 -7.153400778770446777e-02 -1.459690928459167480e-01 -1.576419621706008911e-01 -1.455347090959548950e-01 2.434295415878295898e-01 1.883919388055801392e-01 -3.960236534476280212e-02 -9.280084818601608276e-02 1.934155821800231934e-02 -1.349161714315414429e-01 1.577317155897617340e-02
-3.526567926570578493e-12 -1.186229309224628992e-10 1.611229549780546222e-08 -1.429265197223430226e-17 1.357645640354121497e-08 4.310054464440327138e-07 8.261035588930099038e-08 -8.081722649586933814e-29 2.281932160258293152e-03 -1.874271902124746703e-06 1.537522294455185212e-16 -2.917308360338211060e-03
5.515762045979499817e-02 3.456159681081771851e-02 -4.052171483635902405e-03 -5.918113514780998230e-02 1.163663715124130249e-01 -8.925595879554748535e-02 1.323921531438827515e-01 -2.968990430235862732e-02 4.355389624834060669e-02 9.997084736824035645e-02 -4.763295128941535950e-02 -1.861204504966735840e-01
1.258800029754638672e-01 1.461330801248550415e-01 1.846285164356231689e-01 1.877983808517456055e-01 1.421616822481155396e-01 -1.011150479316711426e-01 -9.805132448673248291e-02 -7.290143519639968872e-02 -7.499147951602935791e-02 -1.043956652283668518e-01 1.229257211089134216e-01 -7.950100302696228027e-02
-5.291423574090003967e-02 1.351244747638702393e-02 6.938160210847854614e-02 -7.039434462785720825e-02 -1.765255481004714966e-01 -1.877020746469497681e-01 -1.123589575290679932e-01 -4.177553206682205200e-02 -1.772066354751586914e-01 1.282690465450286865e-01 -3.439270332455635071e-02 2.015579938888549805e-01
1.098051741719245911e-01 2.375820651650428772e-02 6.169321015477180481e-02 -3.831162676215171814e-02 3.618919849395751953e-02 -1.317689567804336548e-02 -4.949124529957771301e-02 -4.194682836532592773e-02 1.371888965368270874e-01 -9.889862686395645142e-02 1.688620150089263916e-01 -5.760537087917327881e-02
-6.473827362060546875e-02 -6.029066815972328186e-02 -1.545215249061584473e-01 -8.764004707336425781e-02 2.697611153125762939e-01 9.749137610197067261e-02 -4.348288103938102722e-02 -4.253427684307098389e-02 -8.931920677423477173e-02 -1.187728047370910645e-01 -1.563958376646041870e-01 -1.462715417146682739e-01
5.815764423459768295e-03 1.744263172149658203e-01 8.041275292634963989e-02 -1.554781645536422729e-01 3.077104985713958740e-01 3.441739976406097412e-01 -1.822236925363540649e-02 -4.825687035918235779e-02 -1.433428376913070679e-01 9.289897978305816650e-02 2.726761698722839355e-01 1.189379021525382996e-01
1.214940547943115234e-01 -5.603654775768518448e-03 -4.782925918698310852e-02 1.931417733430862427e-01 7.502624392509460449e-02 -6.037100683897733688e-03 1.301595270633697510e-01 -4.899528250098228455e-02 1.355772316455841064e-01 -2.654017806053161621e-01 -1.753139495849609375e-02 -3.803872317075729370e-02
-2.082701921463012695e-01 1.046632602810859680e-02 -1.762405335903167725e-01 -1.747068250551819801e-03 -2.889443933963775635e-02 -1.458245366811752319e-01 1.038444712758064270e-01 -3.752212598919868469e-02 -3.241461515426635742e-01 4.107831045985221863e-02 1.874591708183288574e-01 6.892701238393783569e-02
-6.014462187886238098e-02 1.945684850215911865e-02 -2.447089999914169312e-01 -2.396818995475769043e-01 4.138911515474319458e-02 5.647681280970573425e-02 3.176099434494972229e-02 -6.324236094951629639e-02 -2.347547709941864014e-01 3.519061803817749023e-01 -2.450129576027393341e-02 -1.227449532598257065e-02
6.188045069575309753e-02 -5.022803787142038345e-03 3.578980639576911926e-02 1.422562301158905029e-01 -5.331324040889739990e-02 7.098698616027832031e-02 9.089977294206619263e-02 6.761572510004043579e-02 1.572986394166946411e-01 -6.065147742629051208e-02 6.288874894380569458e-02 1.755024641752243042e-01
8.740554004907608032e-02 -2.542313933372497559e-01 -7.386939227581024170e-02 -4.408305138349533081e-02 -1.867266893386840820e-01 -8.303693681955337524e-02 -1.247271820902824402e-01 -6.245246902108192444e-02 1.273686587810516357e-01 -1.264650672674179077e-01 5.841440334916114807e-02 -1.428181678056716919e-01
-2.936138212680816650e-02 9.089875966310501099e-02 1.573515236377716064e-01 8.641152828931808472e-02 -9.897836297750473022e-02 1.339076161384582520e-01 2.257927060127258301e-01 4.677020013332366943e-02 -1.309738010168075562e-01 -7.195156067609786987e-02 -7.317911833524703979e-02 -6.109053269028663635e-02
-3.358446294441819191e-03 -7.151278108358383179e-02 -9.742849320173263550e-02 -1.726407557725906372e-01 3.207894265651702881e-01 1.776326000690460205e-01 1.519876271486282349e-01 -1.572299562394618988e-02 -1.462539583444595337e-01 -4.314729198813438416e-02 -9.789490699768066406e-02 -2.736545354127883911e-02
-5.287466943264007568e-02 1.283002644777297974e-01 2.277858853340148926e-01 1.403713524341583252e-01 -5.128806922584772110e-03 -1.283905357122421265e-01 -1.287200115621089935e-02 -5.594987422227859497e-02 -1.918642073869705200e-01 2.204870879650115967e-01 -2.024890482425689697e-02 -4.281295835971832275e-02
9.681153297424316406e-02 -7.963206619024276733e-02 -4.667203128337860107e-02 8.631010353565216064e-02 -9.987115859985351562e-02 1.496980637311935425e-01 -5.143754533492028713e-04 -7.065140455961227417e-02 4.268847778439521790e-02 -1.218587979674339294e-01 -5.618074536323547363e-02 -1.364381164312362671e-01
-4.079932570457458496e-01 -7.472397387027740479e-02 -2.883283048868179321e-02 2.270692959427833557e-02 -1.690258979797363281e-01 8.385326713323593140e-02 -1.092359945178031921e-01 -5.624440684914588928e-02 -9.565585106611251831e-02 -9.193462878465652466e-02 1.532719582319259644e-01 -2.101601287722587585e-02
-9.371090680360794067e-02 -1.392212361097335815e-01 9.750648401677608490e-03 -4.520234093070030212e-02 -2.800404131412506104e-01 1.026818379759788513e-01 1.084317080676555634e-02 -4.659102112054824829e-02 -1.275602132081985474e-01 -1.803800091147422791e-02 -3.884536623954772949e-01 8.904269337654113770e-02
-4.853382334113121033e-02 7.763043395243585110e-04 1.091016922146081924e-02 -8.440919220447540283e-03 -7.874496281147003174e-03 3.155051916837692261e-02 -1.800329424440860748e-02 -1.182720996439456940e-02 3.864619880914688110e-02 -3.409999608993530273e-02 1.961304247379302979e-02 -9.406396746635437012e-02
-8.949786424636840820e-03 -6.852483749389648438e-02 -1.265592873096466064e-01 -7.944090664386749268e-02 1.365288253873586655e-02 1.622971445322036743e-01 1.576369106769561768e-01 -6.604314595460891724e-02 -8.636132627725601196e-02 -4.097552001476287842e-01 -1.546190977096557617e-01 -1.147694960236549377e-01
-9.667489677667617798e-03 2.217415347695350647e-02 2.761320210993289948e-03 4.083076026290655136e-03 -6.962003652006387711e-03 -2.872565947473049164e-02 -8.196244016289710999e-04 2.472844533622264862e-02 -4.700017720460891724e-02 1.370305290038231760e-05 -7.911492139101028442e-03 -1.318428963422775269e-01
-5.817655473947525024e-02 8.981653302907943726e-02 9.696761518716812134e-02 1.705910265445709229e-01 -1.605652831494808197e-02 3.479644060134887695e-01 -1.121029555797576904e-01 -4.541703686118125916e-02 1.470160018652677536e-02 -5.305525660514831543e-02 2.365342152188532054e-05 -1.261489093303680420e-01
-9.821760654449462891e-02 -2.680956721305847168e-01 -3.650938393548130989e-03 -1.492380648851394653e-01 -2.027342468500137329e-01 8.426795154809951782e-02 -1.825448572635650635e-01 -7.996411621570587158e-02 -2.146161161363124847e-02 -1.924807876348495483e-01 -2.220924794673919678e-01 -1.880247145891189575e-01
6.961713731288909912e-02 -2.482111193239688873e-02 -4.992773011326789856e-02 4.948171228170394897e-02 -9.756144718267023563e-04 -4.752906039357185364e-02 6.543929874897003174e-02 -7.508170790970325470e-03 -6.572431325912475586e-02 -1.768193580210208893e-02 1.683536730706691742e-02 -9.548099339008331299e-02
-1.530784219503402710e-01 6.209335103631019592e-02 -5.432943254709243774e-02 3.220864757895469666e-02 9.486003965139389038e-02 -2.492764405906200409e-02 3.258536104112863541e-03 -3.872693702578544617e-02 2.697843499481678009e-02 -1.293226331472396851e-01 -2.121911495923995972e-01 1.864007860422134399e-01
-1.318620592355728149e-01 1.428019553422927856e-01 3.653821349143981934e-01 1.021334007382392883e-01 -8.645509183406829834e-02 -2.106043994426727295e-01 -1.829697377979755402e-02 -5.758065730333328247e-02 -2.288568466901779175e-01 -1.090502068400382996e-01 -2.329427599906921387e-01 -7.508793473243713379e-02
-7.909076288342475891e-03 -7.096105068922042847e-02 -6.345272064208984375e-02 -6.391459703445434570e-02 -2.063816189765930176e-01 5.480940453708171844e-03 1.646218895912170410e-01 -2.201377786695957184e-02 -2.723273634910583496e-01 -1.686465740203857422e-02 8.667615056037902832e-02 5.198782682418823242e-02
6.580943707376718521e-03 -5.346291512250900269e-02 -1.611561477184295654e-01 -9.751021862030029297e-02 1.552423536777496338e-01 2.480840235948562622e-01 -2.099974304437637329e-01 -5.303038656711578369e-02 9.528702497482299805e-02 -3.125960007309913635e-02 -1.333493739366531372e-01 -9.253609925508499146e-02
-2.247448861598968506e-01 -5.963785201311111450e-02 -3.930706158280372620e-02 -1.253199130296707153e-01 6.007668003439903259e-02 -1.731496751308441162e-01 -1.165867224335670471e-01 -5.761804431676864624e-02 3.253067657351493835e-02 -2.475650012493133545e-01 1.189058925956487656e-02 1.308322846889495850e-01
-5.656379295612863622e-15 2.494317996593053977e-08 -4.139054099461247915e-10 2.454518532868377179e-10 5.725771146103397768e-08 -2.956981176843037629e-14 -3.464167264155548764e-07 -1.186717746293197706e-08 2.995804209149355302e-07 2.954814704025920946e-07 -3.290385939180850983e-05 -1.949195866473019123e-04
2.026963531970977783e-01 -5.866071581840515137e-02 -8.235830813646316528e-03 1.740892603993415833e-02 -1.631486415863037109e-01 -4.044269770383834839e-02 1.558507978916168213e-01 -3.474284708499908447e-02 -9.117795526981353760e-02 -3.596832603216171265e-02 1.569494605064392090e-01 2.378772497177124023e-01
1.113472431898117065e-01 3.707247786223888397e-03 -3.582913801074028015e-02 9.772057086229324341e-02 -7.639341056346893311e-02 1.184583529829978943e-01 2.466365462169051170e-03 -3.254045918583869934e-02 -1.589829176664352417e-01 4.929738491773605347e-02 2.901435084640979767e-02 -3.446884825825691223e-02
2.428204007446765900e-02 8.260632865130901337e-03 -5.013820249587297440e-03 -2.212644740939140320e-02 -1.452739443629980087e-02 -2.379339188337326050e-02 -2.087887749075889587e-02 -1.350341457873582840e-02 -1.752357557415962219e-02 4.384710639715194702e-02 1.869970746338367462e-02 -1.488497406244277954e-01
-6.003616726957261562e-04 -6.345017347484827042e-03 -8.309374004602432251e-02 -4.746729135513305664e-02 1.911819577217102051e-01 4.168081283569335938e-02 -1.009139344096183777e-01 -2.723732776939868927e-02 4.400430619716644287e-02 5.345322936773300171e-02 -2.489669620990753174e-02 -2.577602490782737732e-02
4.297405481338500977e-02 -1.267650513909757137e-03 4.073375090956687927e-02 1.247818917036056519e-01 2.427971065044403076e-01 2.743792235851287842e-01 2.973873019218444824e-01 -2.931507490575313568e-02 -1.133995950222015381e-01 -9.829506278038024902e-02 9.292072057723999023e-02 -5.946931429207324982e-03
-4.916698799206642434e-06 2.886342542751663132e-07 -2.272212107357063360e-08 8.486902629556425381e-07 2.483015038023950183e-08 6.605702801607549191e-04 -2.470210880289869237e-08 -3.384051705523916098e-09 1.045737896276932588e-08 -3.439924733950050495e-10 4.178117251285584643e-06 -4.247831952852720860e-08
2.683638781309127808e-02 -3.418551012873649597e-02 -2.244197428226470947e-01 -8.804130554199218750e-02 5.113976448774337769e-02 -1.011885404586791992e-01 -1.061348915100097656e-01 -1.337368227541446686e-02 2.232278436422348022e-01 5.797585099935531616e-02 7.718072086572647095e-02 1.632799357175827026e-01
-2.932171046268194914e-04 1.474942621371155838e-07 1.442508364561945200e-04 -1.639271052233937098e-09 -3.755492983259500761e-08 -7.066709455102682114e-03 -5.793412128696218133e-05 -1.329259369242663524e-09 5.057501839473843575e-04 -8.367547998204827309e-04 -2.627892245072871447e-04 -2.613766118884086609e-03
-2.562027424573898315e-02 -4.252490773797035217e-02 -3.788077086210250854e-02 -1.612766981124877930e-01 1.634329110383987427e-01 5.084835458546876907e-03 -6.059539318084716797e-02 -6.199668347835540771e-02 1.449166983366012573e-01 -2.766177430748939514e-02 -1.583516895771026611e-01 -2.820004224777221680e-01
-4.609189927577972412e-02 -4.748527705669403076e-02 2.532385522499680519e-03 -3.865830600261688232e-02 -9.281123429536819458e-02 1.039125546813011169e-01 -5.045819282531738281e-02 -1.785608939826488495e-02 -1.379601359367370605e-01 6.580568850040435791e-02 -8.138568699359893799e-02 -1.714012213051319122e-02
-4.133007675409317017e-02 6.245275586843490601e-02 -6.333754956722259521e-02 -7.143615931272506714e-02 4.286475107073783875e-02 5.427401512861251831e-02 3.053318522870540619e-02 -2.278801240026950836e-02 -2.869370877742767334e-01 1.418731212615966797e-01 -6.014800816774368286e-02 -6.473498046398162842e-02
-1.715955287218093872e-01 -2.673381008207798004e-02 -1.382276117801666260e-01 -9.856485575437545776e-02 -2.967110835015773773e-02 8.436691015958786011e-03 -1.535735130310058594e-01 -3.073454834520816803e-02 -5.156197026371955872e-02 3.577352687716484070e-02 5.126192048192024231e-02 2.667653560638427734e-01
-2.028346527367830276e-03 -1.959364414215087891e-01 -2.541736066341400146e-01 -9.254329651594161987e-02 -9.303498081862926483e-03 -3.867526724934577942e-02 1.852547973394393921e-01 -4.556884989142417908e-02 -2.459266036748886108e-01 1.918573379516601562e-01 -2.253869920969009399e-01 -1.153762266039848328e-01
-1.384038925170898438e-01 -8.093497902154922485e-02 4.088276997208595276e-02 -2.110154628753662109e-01 4.255466908216476440e-02 -1.116954088211059570e-01 -2.042387425899505615e-01 -7.795830816030502319e-02 1.058937236666679382e-01 -1.469369046390056610e-02 4.922915715724229813e-03 2.907458692789077759e-02
4.901772737503051758e-02 -8.616805076599121094e-02 -1.811429709196090698e-01 -2.126371413469314575e-01 6.418852508068084717e-02 1.130609214305877686e-01 1.009474322199821472e-01 -7.074064761400222778e-02 -1.847566217184066772e-01 -2.181915789842605591e-01 -1.644503884017467499e-02 8.914783596992492676e-02
4.172585532069206238e-02 -1.154490113258361816e-01 -2.281160205602645874e-01 -1.980471238493919373e-02 -1.320368647575378418e-01 -3.079741001129150391e-01 -1.328030675649642944e-01 -5.665153264999389648e-02 2.096224203705787659e-02 1.798345446586608887e-01 1.541292387992143631e-02 3.336465358734130859e-02
2.241161167621612549e-01 7.382554560899734497e-02 2.666314318776130676e-02 -5.269731208682060242e-02 -3.819675184786319733e-03 -2.054859884083271027e-02 -1.007700338959693909e-01 -2.171038463711738586e-02 -1.862185001373291016e-01 -1.237378865480422974e-01 2.463974431157112122e-02 8.231230825185775757e-02
9.645438194274902344e-02 -9.622700745239853859e-04 -1.163825392723083496e-01 1.759767085313796997e-01 -1.801971718668937683e-02 -3.294132649898529053e-02 6.037214025855064392e-02 -6.365109980106353760e-02 -6.708246469497680664e-02 -3.180523216724395752e-01 -6.393253803253173828e-03 9.442918002605438232e-02
7.787939626723527908e-03 -6.952921012270962819e-07 3.060796643694629893e-06 -4.298443911920912797e-07 6.470298785643535666e-07 3.292501060059294105e-05 -1.834631984820589423e-05 -4.536947017186321318e-06 8.754400187171995640e-04 -1.662209979258477688e-05 -1.972111749637406319e-05 7.291945075849071145e-05
-9.475672990083694458e-02 -5.385048221796751022e-03 7.119961082935333252e-02 6.011572480201721191e-02 -7.952313125133514404e-02 -1.189265474677085876e-01 1.355811059474945068e-01 -3.635524213314056396e-02 -5.252424255013465881e-02 -2.204639613628387451e-01 -9.707933664321899414e-02 1.927366554737091064e-01
2.231379449367523193e-01 1.327353864908218384e-01 1.470229625701904297e-01 9.111671894788742065e-02 4.735490679740905762e-02 -1.350038349628448486e-01 -8.086213469505310059e-02 -4.027037695050239563e-02 4.823524877429008484e-02 -2.169012278318405151e-02 9.380745142698287964e-02 -1.526045203208923340e-01
1.573543250560760498e-01 1.006233040243387222e-02 -7.378250826150178909e-03 -5.660988762974739075e-02 3.533584251999855042e-02 -3.228629380464553833e-02 1.323240846395492554e-01 -2.711542509496212006e-02 -1.482739448547363281e-01 2.422883734107017517e-02 -1.908989548683166504e-01 4.842359572649002075e-02
2.947754226624965668e-03 -3.054916672408580780e-02 -1.334373950958251953e-01 -1.169584970921278000e-02 4.105057194828987122e-02 -3.149909153580665588e-02 -6.562608480453491211e-02 9.879161417484283447e-02 -5.122072622179985046e-02 1.038398221135139465e-01 1.480022221803665161e-01 1.782451719045639038e-01
-1.995977461338043213e-01 1.677886396646499634e-01 -6.539143621921539307e-02 -6.658713519573211670e-02 -4.289478808641433716e-02 1.859109699726104736e-01 -1.903944835066795349e-02 -3.396159410476684570e-02 -3.059941828250885010e-01 -3.969778493046760559e-02 -2.027124166488647461e-01 3.202867135405540466e-02
-2.287298589944839478e-01 -1.947937607765197754e-01 -1.159676164388656616e-01 -4.347816854715347290e-02 -1.828118562698364258e-01 -1.655889004468917847e-01 1.766880154609680176e-01 -5.583092197775840759e-02 1.099658831954002380e-01 -7.824321091175079346e-02 -8.055169135332107544e-03 4.908296093344688416e-02
-1.561341434717178345e-02 -1.348076015710830688e-02 -1.616967096924781799e-02 8.804942481219768524e-03 -2.829628065228462219e-02 -1.188507769256830215e-02 -4.070372320711612701e-03 -5.190462805330753326e-03 1.015898585319519043e-02 -2.381077222526073456e-02 2.286251634359359741e-02 1.298489421606063843e-02
-2.915754169225692749e-02 -1.750982999801635742e-01 -3.587620556354522705e-01 -4.841067641973495483e-02 -1.664155870676040649e-01 -1.664987951517105103e-01 1.115582417696714401e-02 -8.844548463821411133e-02 1.009596139192581177e-01 -1.359554566442966461e-02 5.296201631426811218e-02 6.644912809133529663e-02
-1.200354471802711487e-01 -2.174466252326965332e-01 -2.831219434738159180e-01 -6.596551835536956787e-02 -2.917926199734210968e-02 -2.351102083921432495e-01 -2.198241055011749268e-01 -7.609268277883529663e-02 1.383754014968872070e-01 1.071220263838768005e-01 -1.083796024322509766e-01 -6.881403177976608276e-02
-3.776727989315986633e-02 -1.186201497912406921e-01 -1.474121809005737305e-01 -1.828456073999404907e-01 -1.383716613054275513e-01 6.667163968086242676e-02 -2.032284736633300781e-01 -4.065993428230285645e-02 1.572103500366210938e-01 5.654628202319145203e-02 6.807125359773635864e-02 -5.678759515285491943e-02
3.965481370687484741e-02 1.367920488119125366e-01 1.625004857778549194e-01 -2.509938925504684448e-02 -1.035153493285179138e-01 -2.305542677640914917e-01 -1.639434248208999634e-01 -4.279994219541549683e-02 -1.625136137008666992e-01 -1.047154814004898071e-01 7.071638107299804688e-02 -1.031036898493766785e-01
-3.225286304950714111e-02 -2.603610977530479431e-02 -5.180361866950988770e-02 -2.910863375291228294e-03 -2.285754121840000153e-02 -6.070443987846374512e-02 3.219617307186126709e-01 -5.230256356298923492e-03 -1.622178591787815094e-02 -2.545543387532234192e-02 -2.323743514716625214e-02 -4.343568533658981323e-02
1.647948324680328369e-01 6.916185840964317322e-03 6.799005903303623199e-03 3.350595384836196899e-02 7.041925191879272461e-02 -1.405230313539505005e-01 2.002555876970291138e-02 -2.876360341906547546e-02 1.801729351282119751e-01 -1.771181374788284302e-01 -6.536596268415451050e-02 -1.498897671699523926e-01
-1.021678224205970764e-01 -1.211580336093902588e-01 -3.428831696510314941e-02 -5.936798453330993652e-02 -8.402457833290100098e-02 -2.520487084984779358e-02 -8.718052506446838379e-02 -7.187689840793609619e-02 1.707587987184524536e-01 -2.835078537464141846e-01 -4.339841380715370178e-02 4.470305144786834717e-02
-1.713116914033889771e-01 1.679845619946718216e-03 -4.628984257578849792e-02 -5.399887636303901672e-02 5.655490979552268982e-02 -1.307234913110733032e-01 -2.611935697495937347e-02 -4.995013400912284851e-02 9.322398155927658081e-02 -1.592249423265457153e-01 -1.106206253170967102e-01 -3.510535508394241333e-02
2.569671778474003077e-04 -1.095560525518593907e-19 1.588984741829335690e-04 5.230204624240286648e-05 -7.078294176608324051e-03 4.315676167607307434e-03 -1.206622575409710407e-03 -8.900246801420440301e-23 1.223634512825810816e-06 -1.441709446226013824e-05 -4.911981250188546255e-06 -2.619611905174679123e-07
-2.485462576150894165e-01 -3.089229390025138855e-02 -2.754875458776950836e-02 4.595485981553792953e-03 9.823834523558616638e-03 9.839243255555629730e-03 -1.477919518947601318e-01 -7.061525434255599976e-02 -1.075159311294555664e-01 -1.998246759176254272e-01 -1.947529315948486328e-01 3.575484827160835266e-02
-2.350156456232070923e-01 -2.518684864044189453e-01 -1.744616925716400146e-01 -1.622917950153350830e-01 -2.612521685659885406e-02 2.027432471513748169e-01 1.527333706617355347e-01 -6.843466311693191528e-02 1.676354855298995972e-01 -1.053779795765876770e-01 -1.014419794082641602e-01 -2.177620679140090942e-01
4.695203388109803200e-04 -6.204720120877027512e-03 -5.270824208855628967e-02 -2.672908827662467957e-03 -7.265809923410415649e-03 5.463751032948493958e-02 2.562890201807022095e-02 -6.986573338508605957e-03 -6.375379115343093872e-02 -1.453790930099785328e-03 5.146243795752525330e-02 -2.579257078468799591e-02
-1.036092452704906464e-02 4.946667701005935669e-03 -2.005473338067531586e-02 -8.484150283038616180e-03 1.389665808528661728e-02 -7.699079811573028564e-02 3.018753789365291595e-02 -1.642939634621143341e-02 -1.187523007392883301e-01 7.013957947492599487e-02 -7.468740642070770264e-02 -1.058556064963340759e-01
-6.614794582128524780e-02 -8.902594447135925293e-02 -1.620727628469467163e-01 5.291812121868133545e-02 -4.049183055758476257e-02 1.472996622323989868e-01 -8.764342218637466431e-02 -2.127209678292274475e-02 -2.150168567895889282e-01 3.360850811004638672e-01 -1.180709302425384521e-01 1.635340303182601929e-01
6.555029749870300293e-02 1.396075356751680374e-03 1.050503924489021301e-01 -8.484618365764617920e-02 1.654932200908660889e-01 4.498606175184249878e-02 1.719131320714950562e-02 -4.823049530386924744e-02 -1.457279026508331299e-01 -3.132846951484680176e-01 -1.915101706981658936e-01 -2.254831045866012573e-01
5.631418526172637939e-02 -3.477897122502326965e-02 -4.728028923273086548e-02 3.078125789761543274e-02 -6.241670623421669006e-02 -3.126421943306922913e-02 4.170803353190422058e-02 -8.576977998018264771e-03 -3.671897202730178833e-02 -7.298170775175094604e-02 4.896526411175727844e-02 -5.540143232792615891e-03
8.541949093341827393e-02 -6.294868141412734985e-02 2.308150567114353180e-02 -1.242551207542419434e-01 3.351180627942085266e-02 -9.945406578481197357e-03 2.493477053940296173e-02 -6.251014769077301025e-02 1.032905355095863342e-01 1.360977441072463989e-01 8.459378033876419067e-02 1.152655482292175293e-02
-2.579031288623809814e-01 -7.684528827667236328e-02 -8.803890645503997803e-02 3.776825964450836182e-02 -7.639592140913009644e-02 1.623355001211166382e-01 1.829431653022766113e-01 -7.075549662113189697e-02 -2.277990803122520447e-02 1.569214090704917908e-02 2.316522151231765747e-01 7.315228134393692017e-02
3.627858683466911316e-02 -9.141474962234497070e-02 -2.013707309961318970e-01 -8.133873343467712402e-02 -2.768330276012420654e-03 -1.510703861713409424e-01 -1.725854277610778809e-01 1.180144958198070526e-02 3.524010777473449707e-01 1.710615456104278564e-01 1.138624921441078186e-01 -1.448655314743518829e-02
-2.307336032390594482e-01 4.427673295140266418e-02 2.181649059057235718e-01 -1.737885177135467529e-01 -1.071351319551467896e-01 -3.379217907786369324e-02 -2.594375610351562500e-01 -7.674931734800338745e-02 2.840182185173034668e-02 1.075269952416419983e-01 -2.504866719245910645e-01 -2.002237141132354736e-01
1.412257105112075806e-01 -6.798930466175079346e-02 -2.143526822328567505e-01 -4.994596168398857117e-02 2.368802903220057487e-03 -4.546830430626869202e-02 8.783008158206939697e-02 -3.223784640431404114e-02 -2.568846642971038818e-01 1.587240248918533325e-01 4.343380033969879150e-02 -1.414508372545242310e-01
-3.147928789258003235e-02 -2.592982910573482513e-02 5.084875156171619892e-04 -3.021912998519837856e-04 -1.511191949248313904e-02 -4.052424803376197815e-02 -1.533447485417127609e-02 -9.867495857179164886e-03 1.071036979556083679e-01 -6.818342208862304688e-02 -1.894794777035713196e-02 7.856736890971660614e-03
-6.081624329090118408e-02 2.079037576913833618e-02 -2.244760654866695404e-02 -1.076432224363088608e-02 -4.152867943048477173e-02 -7.297736406326293945e-02 -3.519976511597633362e-02 -1.723811030387878418e-03 -7.852555066347122192e-02 -9.900136291980743408e-02 4.847583919763565063e-02 2.362492382526397705e-01
-1.407913267612457275e-01 -1.437905728816986084e-01 -2.395263314247131348e-01 -1.145651414990425110e-01 -1.197852492332458496e-01 1.650081276893615723e-01 3.070822358131408691e-01 -2.954773977398872375e-02 7.756773382425308228e-02 -8.681163191795349121e-02 3.194690868258476257e-02 -1.459357589483261108e-01
-3.206246346235275269e-02 -6.356435827910900116e-03 -1.598120778799057007e-01 -4.908201470971107483e-02 1.969960033893585205e-01 1.714594960212707520e-01 -1.516866032034158707e-02 -5.339397862553596497e-02 9.220457077026367188e-02 -7.769372314214706421e-02 1.014645099639892578e-01 -2.282565385103225708e-01
-2.044983848463743925e-04 3.939780965447425842e-02 1.584571041166782379e-02 9.435102343559265137e-03 5.492436885833740234e-02 -2.880500257015228271e-02 -2.576032839715480804e-02 -2.628562785685062408e-02 -1.063845604658126831e-01 5.208568274974822998e-02 3.150992840528488159e-02 -2.090184688568115234e-01
3.506005927920341492e-02 -8.341921120882034302e-02 -2.764357924461364746e-01 4.854450002312660217e-03 -6.080698966979980469e-02 -2.881592512130737305e-01 -2.028304040431976318e-01 -4.399842023849487305e-02 -1.568276286125183105e-01 9.307192265987396240e-02 1.285563409328460693e-01 9.637848474085330963e-03
2.332535359528264962e-06 4.185513171250931919e-05 -1.581592414368060417e-06 8.313647299473814201e-07 -2.259853135910816491e-05 -1.397463493049144745e-04 -4.910511052003130317e-06 1.167509367405727971e-06 -1.110639497037269052e-10 -6.095833100516756531e-07 6.404805019677439759e-10 -1.070985477417707443e-02
1.482717096805572510e-01 -2.347306460142135620e-01 2.903681993484497070e-02 -1.261218190193176270e-01 -3.481113314628601074e-01 1.118425875902175903e-01 -2.381258755922317505e-01 -1.021198332309722900e-01 1.226581856608390808e-01 -6.885401904582977295e-03 -1.573950499296188354e-01 -5.068131536245346069e-02
5.407384783029556274e-02 -7.279893010854721069e-02 -5.729500204324722290e-02 -7.131087034940719604e-02 -6.248825229704380035e-04 -5.538583919405937195e-02 -1.312898397445678711e-01 -3.719130530953407288e-02 1.648256331682205200e-01 -1.912557333707809448e-01 1.312760636210441589e-02 -2.187591940164566040e-01
2.096998272463679314e-03 -2.599857689347118139e-04 5.493716525961644948e-05 -3.093476763638136617e-08 1.426155562512576580e-03 3.903388744220137596e-03 -2.962305909022688866e-03 -9.509224696557794232e-07 -1.145476591773331165e-03 6.350476178340613842e-04 3.658201312646269798e-04 -1.060084253549575806e-02
-2.198047004640102386e-03 -6.671930849552154541e-02 -2.810052782297134399e-02 -3.702949360013008118e-02 -9.732938557863235474e-02 -3.723219409584999084e-02 -1.604195386171340942e-01 3.357899934053421021e-02 1.652049869298934937e-01 6.134836748242378235e-02 -2.510557472705841064e-01 -3.882562369108200073e-02
1.250673085451126099e-01 2.992330864071846008e-02 2.011280208826065063e-01 -1.525517851114273071e-01 -2.520842552185058594e-01 5.496124271303415298e-03 -1.402979791164398193e-01 -4.044461064040660858e-03 1.682557612657546997e-01 3.087304346263408661e-02 -1.475191712379455566e-01 -6.311501376330852509e-03
-8.254220336675643921e-02 6.900712102651596069e-02 3.485736995935440063e-02 2.055191397666931152e-01 1.393698155879974365e-01 6.017456948757171631e-02 -7.131583988666534424e-02 -1.339323911815881729e-02 -1.404990404844284058e-01 -5.546083301305770874e-02 9.450187906622886658e-03 -7.604721188545227051e-02
-1.506815254688262939e-01 -5.637868493795394897e-02 6.898197531700134277e-02 -2.024401873350143433e-01 9.013082087039947510e-02 2.822367250919342041e-01 9.434889256954193115e-02 -6.523044407367706299e-02 5.267782509326934814e-02 1.084195375442504883e-01 -1.889687031507492065e-02 -7.131653279066085815e-02
3.231674432754516602e-01 -1.004790440201759338e-01 -8.170668035745620728e-02 -1.564831286668777466e-02 1.247847452759742737e-01 -1.143379434943199158e-01 2.275836020708084106e-01 -1.905462890863418579e-02 -1.668599992990493774e-01 -3.661553934216499329e-02 -1.029325872659683228e-01 7.445006817579269409e-02
-9.556965529918670654e-02 6.325571238994598389e-02 1.396443992853164673e-01 4.968642070889472961e-02 1.272590011358261108e-01 3.529316484928131104e-01 1.732363402843475342e-01 -2.983636222779750824e-02 -2.006805837154388428e-01 -4.034016653895378113e-02 -1.006697267293930054e-01 -1.016876846551895142e-01
1.218506917357444763e-01 5.150770395994186401e-02 -1.694138944149017334e-01 -2.021408639848232269e-02 9.335872717201709747e-03 1.108213737607002258e-01 -1.562973707914352417e-01 -2.049145661294460297e-02 -1.327595412731170654e-01 3.308275341987609863e-01 6.428301334381103516e-02 2.917008288204669952e-02
-9.295409172773361206e-02 -6.155226752161979675e-02 -1.089015007019042969e-01 1.007901318371295929e-02 8.292703330516815186e-02 2.161161005496978760e-01 6.931821256875991821e-02 -1.552421897649765015e-01 2.648747898638248444e-02 5.166935175657272339e-02 1.146633103489875793e-01 3.818584978580474854e-02
1.792668364942073822e-02 -2.516449987888336182e-01 -1.914696693420410156e-01 -1.714566498994827271e-01 -7.969956099987030029e-02 -2.601229846477508545e-01 -2.183060944080352783e-01 -7.996813207864761353e-02 1.852701008319854736e-01 -1.727064605802297592e-03 3.009875863790512085e-02 -2.012179605662822723e-02
1.652259565889835358e-02 3.217610530555248260e-03 -6.340363761410117149e-04 -5.210992414504289627e-03 1.978839827643241733e-05 2.342965267598628998e-02 -2.333142794668674469e-03 1.572271622717380524e-02 -8.286043256521224976e-02 1.895446144044399261e-02 -1.411003712564706802e-02 9.247994981706142426e-03
2.122870236635208130e-01 -4.331956058740615845e-02 5.946982651948928833e-02 7.812341302633285522e-02 -2.070868164300918579e-01 1.934342980384826660e-01 -1.442741006612777710e-01 -3.540552407503128052e-02 -1.839338093996047974e-01 -1.280448883771896362e-01 -1.667118072509765625e-01 -4.954167827963829041e-02
-2.188621610403060913e-01 2.286943793296813965e-01 -2.148005552589893341e-02 1.431461870670318604e-01 1.096035242080688477e-01 -2.571566030383110046e-02 -5.335278809070587158e-02 -7.038552314043045044e-02 1.714513003826141357e-01 -2.745927274227142334e-01 -3.825993835926055908e-02 -2.673775702714920044e-02
