-3.457740647718310356e-03 -5.115956999361515045e-03 4.656112752854824066e-03 -9.673978202044963837e-03 -3.640159592032432556e-02 -7.003850769251585007e-04 1.098791416734457016e-02 -1.814072951674461365e-02 -1.865526102483272552e-02 1.008979324251413345e-02 -5.484608560800552368e-02 1.506222318857908249e-02 2.545723132789134979e-02 4.553789738565683365e-03 -1.409115269780158997e-02 1.279999874532222748e-02 7.984012365341186523e-02 1.561232563108205795e-02 -2.488068677484989166e-02 -1.255745347589254379e-02 -3.697047382593154907e-02 1.453067641705274582e-02 -2.463705837726593018e-02 3.802257403731346130e-02 -3.132473677396774292e-03 -1.537631079554557800e-02 -1.559404376894235611e-02 -4.653568193316459656e-02 4.889171570539474487e-02 -8.781246840953826904e-03 -3.987796604633331299e-02 5.577266588807106018e-02 4.017614945769309998e-02 -9.645097889006137848e-03 -6.921794731169939041e-03 -8.660846389830112457e-03 -1.879115402698516846e-02 1.913462392985820770e-02 1.566308923065662384e-02 1.563545688986778259e-02 -1.676643081009387970e-02 -1.123325061053037643e-02 -8.108322508633136749e-03 9.449677541851997375e-03 7.039137562969699502e-05 4.636492114514112473e-03 5.804412532597780228e-03 1.036298461258411407e-03 -1.759199053049087524e-02 -1.082161162048578262e-02 -2.769051119685173035e-02 -2.511427737772464752e-02 2.916483022272586823e-02 1.427686540409922600e-03 -2.356047555804252625e-02 1.365915592759847641e-02 4.531344026327133179e-02 3.639982314780354500e-03 -2.018692466663196683e-04 -4.342916421592235565e-03 1.375828124582767487e-02 1.659044995903968811e-02 3.952671214938163757e-02 1.563919149339199066e-02 6.063920445740222931e-03 -2.972892299294471741e-02 1.990569056943058968e-03 -2.168924733996391296e-02 -2.401316910982131958e-02 1.893318630754947662e-02 1.328882947564125061e-02 -1.081854454241693020e-03 -3.034150972962379456e-02 -2.701099030673503876e-02 -5.251039192080497742e-02 -2.054127492010593414e-02 -1.122713182121515274e-02 3.229120746254920959e-03 -2.193222194910049438e-02 -8.312331512570381165e-03 -1.318473462015390396e-02 6.790663581341505051e-03 8.197664283215999603e-03 1.179315708577632904e-02 1.437052967958152294e-03 3.583796694874763489e-02 -3.541417187079787254e-03 -1.914034597575664520e-02 1.596853509545326233e-02 -1.763697899878025055e-02 -1.064954325556755066e-03 -1.017453614622354507e-02 -3.946846723556518555e-02 -8.319790475070476532e-03 -2.908348292112350464e-02 -1.009413693100214005e-02 8.205832913517951965e-03 -8.541300892829895020e-03 3.386695310473442078e-02 6.715959403663873672e-03 1.346695469692349434e-03 3.037112578749656677e-02 -2.985439263284206390e-02 -3.328244760632514954e-02 -1.359542086720466614e-02 5.678707361221313477e-02 2.510265260934829712e-02 -3.187713772058486938e-02 -2.586594969034194946e-02 1.697568036615848541e-02 -5.200651288032531738e-02 -4.624993354082107544e-02 -2.904974855482578278e-02 -7.081101648509502411e-04 -1.360218692570924759e-02 -2.982569299638271332e-02 1.983633637428283691e-02 5.883898586034774780e-02 -8.442265912890434265e-03 4.416780546307563782e-02 5.465478450059890747e-02 -2.185886166989803314e-02 -2.456849440932273865e-02 2.387250401079654694e-02 7.649114355444908142e-03 3.525833133608102798e-03 6.266894936561584473e-02 -1.498455461114645004e-02 -4.274090752005577087e-02 1.831179112195968628e-02 -9.073498658835887909e-03 3.889082372188568115e-02 8.472986519336700439e-02 -1.063626073300838470e-02 3.027709946036338806e-02 -1.479269098490476608e-02 1.072324812412261963e-02 5.600478127598762512e-02 1.875163055956363678e-02 -9.498028084635734558e-03 7.105499971657991409e-03 -3.414744883775711060e-02 -7.324059959501028061e-03 -3.315379470586776733e-02 -1.069271005690097809e-02 -5.295770987868309021e-02 -2.397894859313964844e-03 4.065874591469764709e-02 2.880216203629970551e-02 -5.902469158172607422e-03 1.170107908546924591e-02 2.958632074296474457e-02 -6.019652355462312698e-03 -9.584435261785984039e-03 -2.992695197463035583e-02 2.810743451118469238e-02 -4.026279225945472717e-02 5.596520751714706421e-02 -4.555360227823257446e-02 4.387906193733215332e-02 1.010070368647575378e-02 3.251526504755020142e-03 -4.611163865774869919e-03 -9.390672668814659119e-03 5.289817694574594498e-03 -3.739202860742807388e-03 -3.878890722990036011e-02 -2.106256410479545593e-02 -2.232871018350124359e-02 -1.051916927099227905e-02 -3.681284561753273010e-02 -1.797861419618129730e-02 1.355366781353950500e-02 -1.009108265861868858e-03 2.725119143724441528e-02 5.965566379018127918e-04 -2.723807841539382935e-02 -1.520467735826969147e-02 -1.149203069508075714e-02 -4.166826978325843811e-02 2.016875660046935081e-03 -2.749236673116683960e-02 2.511965483427047729e-02 1.613049954175949097e-02 -3.665516152977943420e-02 -5.284606013447046280e-03 -1.567767933011054993e-02 -6.750131491571664810e-03 3.437509387731552124e-02 1.533113978803157806e-02 5.464444402605295181e-03 -1.006206776946783066e-02 -2.505172230303287506e-02 1.049728132784366608e-02 -6.346143782138824463e-02 1.085877325385808945e-02 -3.137913066893815994e-03 9.160134941339492798e-03 -3.539330512285232544e-02 -2.744554914534091949e-02 8.218467980623245239e-02 9.573830291628837585e-03 -8.160744793713092804e-03 -1.717197708785533905e-02 -2.443652227520942688e-02 2.466712519526481628e-02 9.033262729644775391e-03 3.158387541770935059e-02 -1.957877306267619133e-03 -2.640112489461898804e-02 2.996447496116161346e-02 -1.670322567224502563e-02 -9.270631708204746246e-03 7.624740828759968281e-04 8.176165632903575897e-03 -7.289406843483448029e-03 -3.341819718480110168e-02 -3.341142088174819946e-02 -1.216195151209831238e-02 -2.292923815548419952e-02 -4.285842925310134888e-02 3.793549025431275368e-03 6.999187637120485306e-03 -3.709256276488304138e-02 1.645684801042079926e-02 -2.015960216522216797e-02 -5.445753224194049835e-03 2.081752568483352661e-02 6.088013760745525360e-03 -3.961094189435243607e-03 3.050929680466651917e-02 3.552975505590438843e-02 -3.299967572093009949e-02 -2.774674817919731140e-02 1.803818158805370331e-02 -2.283196337521076202e-02 -2.857903949916362762e-02 1.665161177515983582e-02 -4.027599934488534927e-03 3.258229047060012817e-02 1.954518072307109833e-02 -2.852125465869903564e-02 3.807356208562850952e-02 2.832313254475593567e-02 -6.743018329143524170e-02 7.574995607137680054e-02 -3.314092755317687988e-02 2.543858066201210022e-02 2.083910163491964340e-03 -3.185541834682226181e-03 -2.408890984952449799e-02 2.475803717970848083e-02 1.371996849775314331e-02 -3.920637443661689758e-02 1.385206729173660278e-02 4.273784533143043518e-02 1.292312890291213989e-02 1.874466240406036377e-02 -3.475432470440864563e-02 -1.139192190021276474e-02 1.232868526130914688e-02 -1.574840862303972244e-03 5.394298583269119263e-03 7.928772829473018646e-03 -1.000066986307501793e-03 3.471719101071357727e-02 5.693239718675613403e-02 -1.373206917196512222e-02 6.802909076213836670e-03 -2.392726577818393707e-02 7.845667190849781036e-03 2.248931862413883209e-02 -8.244719938375055790e-04 -1.375775132328271866e-02 -8.135885000228881836e-03 -2.157433191314339638e-03 -2.173844538629055023e-02 -2.726622484624385834e-02 -2.013278566300868988e-02 8.458871161565184593e-04 -2.148927934467792511e-02 3.053864650428295135e-02 -2.387332357466220856e-02 1.704446598887443542e-02 -3.067467920482158661e-02 1.699473336338996887e-02 -2.466429024934768677e-02 1.201290730386972427e-02 1.720527932047843933e-02 1.617853529751300812e-02 -3.657719492912292480e-02 -2.456955611705780029e-02 3.101440519094467163e-02 4.985375795513391495e-03 -2.367808297276496887e-02 3.686289768666028976e-03 2.493133954703807831e-02 3.216870129108428955e-02 -1.471511740237474442e-02 2.344311587512493134e-02
-2.190199308097362518e-02 -4.062852356582880020e-03 5.364838987588882446e-02 -1.013518683612346649e-02 -1.919887587428092957e-02 -2.646105131134390831e-03 9.733317419886589050e-03 9.367351420223712921e-03 -1.487207692116498947e-02 -1.598472148180007935e-02 -9.371080435812473297e-03 3.998239710927009583e-02 3.437275299802422523e-03 3.489498421549797058e-02 3.282716497778892517e-02 -3.777235001325607300e-02 -1.415348984301090240e-02 2.994679100811481476e-02 1.909910514950752258e-02 2.013874240219593048e-03 -2.070480957627296448e-02 4.945386201143264771e-03 -5.848958343267440796e-02 -1.406104955822229385e-02 -1.530328206717967987e-02 -3.104216884821653366e-03 2.674210444092750549e-02 -1.240899506956338882e-02 2.970432676374912262e-02 -2.588072791695594788e-03 1.065795961767435074e-02 1.029277313500642776e-02 2.360066398978233337e-02 3.491242974996566772e-02 4.166986048221588135e-02 8.619756996631622314e-02 4.877567663788795471e-02 -4.806122183799743652e-02 3.179802373051643372e-02 -1.141296885907649994e-02 9.959057718515396118e-02 -1.194958225823938847e-03 -2.345931716263294220e-02 -1.090816408395767212e-02 1.220967620611190796e-02 1.539170555770397186e-02 1.357075385749340057e-02 5.931434221565723419e-03 1.826553046703338623e-02 3.038736619055271149e-02 5.607014894485473633e-02 -5.054775625467300415e-02 3.859265148639678955e-02 -2.039592154324054718e-02 9.169567376375198364e-03 6.565203890204429626e-03 3.054627450183033943e-03 4.513137787580490112e-02 1.576228253543376923e-02 -2.452798932790756226e-02 -2.854831283912062645e-03 2.195465378463268280e-02 5.518196150660514832e-02 -9.061366319656372070e-03 2.442904561758041382e-02 -1.255186181515455246e-02 2.748413942754268646e-02 8.407097309827804565e-03 -2.040146850049495697e-02 -1.698787882924079895e-02 -4.387825261801481247e-03 -8.132720366120338440e-03 -3.482733154669404030e-03 -6.594303529709577560e-03 -1.999544538557529449e-02 5.309296771883964539e-03 -8.191098459064960480e-03 -2.529696188867092133e-02 7.610428333282470703e-02 4.660939521272666752e-05 -4.852766171097755432e-03 -2.933889441192150116e-02 -1.547698676586151123e-02 1.373623032122850418e-02 -7.893146947026252747e-03 1.683574542403221130e-02 1.809435524046421051e-02 -2.121024206280708313e-02 5.402833223342895508e-03 -1.054471172392368317e-02 -9.928430663421750069e-04 -1.104826759546995163e-02 -1.314668357372283936e-02 -1.386394258588552475e-02 2.383241988718509674e-02 -1.068012323230504990e-02 -1.251849532127380371e-02 -8.770783431828022003e-03 1.073444448411464691e-02 2.169307507574558258e-02 1.255699545145034790e-01 -2.286379924044013023e-03 -1.583831198513507843e-02 -5.194104835391044617e-02 1.584453321993350983e-02 5.174566432833671570e-02 -2.334784367121756077e-04 -3.672482073307037354e-02 2.439570426940917969e-02 2.177315577864646912e-02 -7.042557001113891602e-02 -3.344614803791046143e-02 -9.613914042711257935e-02 5.489231552928686142e-04 2.151825465261936188e-02 1.313059963285923004e-02 4.478255659341812134e-02 3.428953140974044800e-02 -5.926255509257316589e-02 -4.570063203573226929e-03 -2.135499753057956696e-02 6.521922536194324493e-03 -7.057477254420518875e-03 -1.184545736759901047e-02 -1.568440906703472137e-02 2.951266244053840637e-02 2.313111349940299988e-02 -1.418369449675083160e-02 2.375307679176330566e-02 -1.830451935529708862e-02 1.450159028172492981e-02 1.808696240186691284e-02 6.111048534512519836e-02 1.874684914946556091e-02 9.187287092208862305e-02 1.520511135458946228e-02 -4.932502657175064087e-02 -1.630062609910964966e-02 1.380860572680830956e-03 1.488816458731889725e-02 -4.154433310031890869e-02 -3.677854686975479126e-02 3.286282531917095184e-03 -8.338645100593566895e-03 -2.517694607377052307e-03 -4.301545023918151855e-02 -8.471262641251087189e-03 3.812807425856590271e-02 2.690459229052066803e-02 1.994277350604534149e-02 1.985007897019386292e-02 3.815822303295135498e-02 6.559446337632834911e-04 5.905180238187313080e-03 -1.674071326851844788e-02 6.639634259045124054e-03 -4.794324282556772232e-03 -1.363652665168046951e-02 -1.059795357286930084e-02 9.440142661333084106e-03 2.512001805007457733e-02 5.927063524723052979e-02 -6.668617425020784140e-05 -4.216934368014335632e-02 5.933782085776329041e-02 3.653071075677871704e-02 -8.548215776681900024e-02 -7.279457058757543564e-03 9.206599555909633636e-03 3.332525864243507385e-02 -5.085313320159912109e-02 -1.988068222999572754e-02 7.266735285520553589e-02 1.699737086892127991e-02 7.476185914129018784e-03 -3.162310644984245300e-02 -2.886845543980598450e-02 1.033317223191261292e-01 -5.202752072364091873e-03 -3.466848284006118774e-02 1.284422911703586578e-02 -3.734350204467773438e-02 3.537311404943466187e-02 1.200122833251953125e-01 4.298630356788635254e-02 4.113646355108357966e-05 5.308214202523231506e-02 -1.560319028794765472e-02 3.024838306009769440e-02 -2.114833705127239227e-02 1.177584286779165268e-02 -1.694772578775882721e-02 2.090613730251789093e-02 4.605439491569995880e-03 -4.035401716828346252e-02 5.608006939291954041e-02 -4.660452250391244888e-03 5.851401947438716888e-03 -3.504013270139694214e-02 -1.933388598263263702e-02 2.804091200232505798e-02 -1.046535838395357132e-02 7.912199199199676514e-02 2.886741608381271362e-02 -8.632722310721874237e-03 1.938278088346123695e-03 3.270261734724044800e-02 3.887853771448135376e-02 9.056372568011283875e-03 -2.953960560262203217e-02 5.919561907649040222e-02 3.225455433130264282e-02 -2.757874317467212677e-03 5.908621940761804581e-03 8.479427546262741089e-03 4.345921054482460022e-02 -3.122416697442531586e-02 2.489423938095569611e-02 3.650061413645744324e-02 -2.187452837824821472e-02 -1.025020703673362732e-02 2.991592045873403549e-03 1.524302083998918533e-02 6.014109589159488678e-03 -1.110653486102819443e-02 -6.934758275747299194e-02 1.533218026161193848e-01 1.349776424467563629e-02 2.513827756047248840e-02 1.382445357739925385e-02 1.958438195288181305e-02 2.295211330056190491e-02 3.083795681595802307e-02 -1.412009634077548981e-02 -1.755192206474021077e-04 -8.612293750047683716e-03 6.213810294866561890e-02 -3.357207402586936951e-02 8.476949483156204224e-02 2.879333682358264923e-03 3.475049138069152832e-02 4.042822495102882385e-02 8.666364476084709167e-03 3.300310298800468445e-02 5.618730559945106506e-03 4.296253621578216553e-02 1.839402690529823303e-02 1.606719195842742920e-02 -4.334710910916328430e-02 1.725450158119201660e-02 2.670540288090705872e-02 -6.833738647401332855e-03 1.182138398289680481e-01 -6.126286089420318604e-02 2.000894956290721893e-02 7.675467990338802338e-03 8.359885960817337036e-02 6.824943702667951584e-03 -4.235944896936416626e-02 9.187900274991989136e-02 -8.741764724254608154e-02 -1.052228454500436783e-02 1.371420267969369888e-02 1.335969194769859314e-02 -4.857984557747840881e-02 -4.546064417809247971e-03 -7.118330540833994746e-05 -1.458511315286159515e-02 2.854424063116312027e-03 3.216004231944680214e-03 5.907517392188310623e-03 -5.778872966766357422e-02 3.122480213642120361e-02 -2.705632150173187256e-02 2.323465794324874878e-02 6.694285571575164795e-02 -3.101552091538906097e-02 6.603587418794631958e-03 5.979337543249130249e-02 3.715151548385620117e-02 -3.428428620100021362e-02 9.957795962691307068e-03 -9.663970209658145905e-03 1.058925241231918335e-01 -2.818449400365352631e-02 5.128129571676254272e-02 -1.958024501800537109e-02 -9.233452379703521729e-03 2.489919774234294891e-02 2.575788274407386780e-02 2.659940533339977264e-02 -4.074551910161972046e-02 8.067265152931213379e-03 -7.064407109282910824e-04 -7.013841997832059860e-03 1.431627664715051651e-02 5.325652193278074265e-03 4.246472194790840149e-02 -1.176292449235916138e-02 4.931471496820449829e-02
-3.239775076508522034e-03 -2.879117615520954132e-03 -3.760235011577606201e-02 1.151221245527267456e-02 -4.155395179986953735e-02 -4.878643900156021118e-03 2.232702914625406265e-03 -3.185369446873664856e-02 -2.251834236085414886e-02 7.740354165434837341e-03 1.898766122758388519e-02 5.748182907700538635e-02 1.253211218863725662e-02 1.351837161928415298e-02 1.031456422060728073e-02 -3.459653630852699280e-02 -1.979588903486728668e-02 1.175047713331878185e-03 2.041910216212272644e-02 2.686653845012187958e-02 4.030204843729734421e-03 4.428267106413841248e-02 -3.373180329799652100e-02 -1.154703088104724884e-03 4.099503904581069946e-02 -1.165744289755821228e-02 -3.276478382758796215e-04 1.243572914972901344e-03 8.909167721867561340e-03 -1.651366241276264191e-02 -5.440082401037216187e-03 3.612457960844039917e-02 -1.215778943151235580e-02 -1.370426546782255173e-02 -8.908654004335403442e-02 -4.421951714903116226e-03 4.215743858367204666e-03 1.950016617774963379e-02 1.902752928435802460e-02 5.037286505103111267e-02 3.361034393310546875e-02 8.692176197655498981e-04 2.106472291052341461e-02 5.099112540483474731e-02 2.262227470055222511e-03 -4.337830469012260437e-03 3.125451877713203430e-02 -2.903373911976814270e-02 1.465171575546264648e-02 -1.572421938180923462e-02 2.539508976042270660e-02 -1.618028990924358368e-02 1.827985048294067383e-02 -9.501228109002113342e-03 4.907202906906604767e-03 3.196049109101295471e-02 2.533015608787536621e-02 6.776876002550125122e-02 8.514977060258388519e-03 1.609257981181144714e-02 1.293727080337703228e-03 2.209979668259620667e-02 4.963740333914756775e-02 -9.483911097049713135e-03 1.523541100323200226e-02 2.137950249016284943e-02 7.562408223748207092e-03 -6.456964649260044098e-03 -3.223110362887382507e-02 2.816347591578960419e-02 2.224951982498168945e-02 -1.999591244384646416e-03 -9.941359981894493103e-03 -1.540138386189937592e-02 3.972882870584726334e-03 9.342530742287635803e-03 -9.227162227034568787e-03 3.327695280313491821e-02 2.927522547543048859e-02 6.085857283324003220e-03 7.018349133431911469e-03 -3.673680871725082397e-02 3.400376439094543457e-02 -2.034702710807323456e-02 -9.322850033640861511e-03 3.169622272253036499e-02 2.277490310370922089e-02 5.470505915582180023e-03 7.549521978944540024e-03 -1.286583766341209412e-02 6.360090337693691254e-04 4.211380332708358765e-02 -1.833371445536613464e-02 -2.867301553487777710e-02 -3.662632033228874207e-02 -6.770499981939792633e-03 6.153178401291370392e-03 1.828327402472496033e-02 1.268882025033235550e-02 2.698626182973384857e-02 -8.051624149084091187e-02 -1.128773670643568039e-02 -2.284707874059677124e-02 -2.419834397733211517e-02 1.563102751970291138e-02 4.276569560170173645e-02 1.423736289143562317e-02 2.483557350933551788e-02 4.759363085031509399e-02 6.446810904890298843e-03 -3.440693393349647522e-02 -3.826291486620903015e-02 1.081918179988861084e-02 -1.495945546776056290e-02 -5.707463994622230530e-02 -2.097748452797532082e-03 3.794182091951370239e-02 -2.410674467682838440e-02 -2.446929574944078922e-04 -1.121145393699407578e-02 2.359966747462749481e-02 -7.993440330028533936e-02 -1.691445894539356232e-02 3.380918642506003380e-03 4.779580235481262207e-02 1.705086417496204376e-02 -2.054183185100555420e-02 -2.549434453248977661e-02 -2.310822019353508949e-03 -4.688362125307321548e-03 3.694326151162385941e-03 3.880062699317932129e-02 -1.919789426028728485e-02 -5.519069731235504150e-03 -7.838132791221141815e-03 -9.309595450758934021e-03 7.074384484440088272e-03 2.085650339722633362e-02 3.531071706674993038e-04 1.359858317300677299e-03 -2.707559615373611450e-02 -3.455850854516029358e-02 5.230379477143287659e-02 2.960972860455513000e-02 1.187814772129058838e-02 -3.437267988920211792e-02 -2.030181512236595154e-02 -9.270204231142997742e-03 3.296514973044395447e-02 -1.239536236971616745e-02 4.263687506318092346e-02 -2.263019233942031860e-02 1.552802044898271561e-02 -3.112155012786388397e-03 -9.648289531469345093e-03 1.843325607478618622e-02 -2.844921313226222992e-02 -1.755454204976558685e-02 -1.329691614955663681e-02 8.170155808329582214e-03 2.436376549303531647e-02 4.309837892651557922e-02 1.242419891059398651e-02 2.829188480973243713e-02 -1.192706637084484100e-02 -8.858628571033477783e-03 -2.012276463210582733e-02 3.067543543875217438e-02 -6.475911941379308701e-03 3.811319824308156967e-03 -2.817291021347045898e-02 -5.029774620197713375e-04 -9.343809634447097778e-02 1.899611204862594604e-02 -3.136885911226272583e-02 3.728672116994857788e-02 -1.986504904925823212e-02 -3.791652619838714600e-02 2.795837586745619774e-03 -1.401939336210489273e-02 3.387750312685966492e-02 -1.943966746330261230e-02 1.828672923147678375e-02 5.772542208433151245e-02 5.467170849442481995e-02 2.702545002102851868e-02 -1.354339416138827801e-03 -2.970846742391586304e-02 1.124484185129404068e-02 6.196391955018043518e-02 -1.909516751766204834e-02 -2.499661641195416451e-03 1.155332662165164948e-02 3.298911498859524727e-03 -1.485519018024206161e-02 -1.841820776462554932e-02 -1.483942475169897079e-02 -2.263619797304272652e-03 -4.496347159147262573e-02 1.107650250196456909e-02 2.445298247039318085e-02 3.366456832736730576e-03 -2.376060746610164642e-02 -3.942301031202077866e-03 9.264603140763938427e-04 3.722920268774032593e-02 -5.524608865380287170e-02 4.352624062448740005e-03 4.091148078441619873e-02 4.124194011092185974e-02 4.827155265957117081e-03 2.596817724406719208e-02 1.452083420008420944e-02 8.968709968030452728e-03 1.536284852772951126e-02 4.142669960856437683e-02 -4.420908633619546890e-03 1.377927511930465698e-02 6.390045396983623505e-03 -2.491932921111583710e-02 -1.540418528020381927e-02 2.370374277234077454e-02 2.354516275227069855e-02 1.384338736534118652e-02 2.932746894657611847e-02 -4.499454051256179810e-02 -6.208468228578567505e-03 -5.929493810981512070e-03 -2.995474450290203094e-02 2.720783930271863937e-03 1.192486006766557693e-02 -2.443715184926986694e-02 7.421983033418655396e-02 -8.010436780750751495e-03 3.604093566536903381e-02 -1.798657886683940887e-02 -6.472778320312500000e-02 -3.865202516317367554e-02 3.614963218569755554e-02 -2.218003757297992706e-02 3.610335290431976318e-02 7.627441734075546265e-02 4.019695892930030823e-02 -7.934663444757461548e-03 3.091161884367465973e-02 -1.938424631953239441e-02 2.037775889039039612e-02 1.466774754226207733e-02 1.519761700183153152e-02 3.491135686635971069e-02 -1.847495324909687042e-02 3.511114045977592468e-03 -6.653957068920135498e-02 6.332925113383680582e-05 1.973753795027732849e-02 1.215376611799001694e-02 7.834869436919689178e-03 3.723360598087310791e-02 2.458442235365509987e-03 6.111017987132072449e-02 -4.974380135536193848e-03 2.796729793772101402e-03 1.101070735603570938e-02 -1.194174587726593018e-02 -1.298282481729984283e-02 2.936821430921554565e-02 5.670521873980760574e-03 7.570747751742601395e-03 -7.759330328553915024e-04 1.256836857646703720e-02 2.445056661963462830e-02 1.360553037375211716e-02 6.245487183332443237e-02 5.008420720696449280e-02 3.830162808299064636e-03 -3.652090579271316528e-02 -1.592429471202194691e-03 5.244367755949497223e-03 -5.211099050939083099e-03 4.849816113710403442e-02 -2.216123417019844055e-02 1.935288496315479279e-02 2.201422350481152534e-03 -7.069452852010726929e-02 -1.481654495000839233e-02 -8.736073039472103119e-03 8.452486246824264526e-03 2.688695490360260010e-02 1.060664188116788864e-02 2.366653457283973694e-02 -4.244913905858993530e-02 1.774420775473117828e-02 -8.522698655724525452e-03 7.354054600000381470e-03 2.268556319177150726e-02 -3.623785078525543213e-02 -4.080210253596305847e-02 -4.676106385886669159e-03 -1.263334136456251144e-02 -4.827814642339944839e-03
-6.972165312618017197e-03 -3.054533444810658693e-04 -4.972066730260848999e-02 -1.646389625966548920e-02 -6.113824434578418732e-03 -5.534030031412839890e-03 -2.575739286839962006e-02 -3.157318755984306335e-02 -1.459988765418529510e-02 2.998781856149435043e-03 -2.065095491707324982e-02 1.359738036990165710e-02 -1.215643063187599182e-02 -5.685585085302591324e-03 -2.529801335185766220e-03 1.302877161651849747e-02 1.909219846129417419e-02 7.853146642446517944e-03 -1.726474054157733917e-02 -4.681386984884738922e-03 -4.904083907604217529e-02 1.381407026201486588e-02 1.758762449026107788e-02 1.723819971084594727e-02 2.582498826086521149e-03 -2.834982983767986298e-02 1.806118711829185486e-02 9.734700433909893036e-03 4.935286194086074829e-02 2.065348066389560699e-02 -5.652833729982376099e-02 1.524297613650560379e-02 1.596350595355033875e-02 6.421742145903408527e-04 1.409889757633209229e-02 3.108839876949787140e-02 1.951282471418380737e-02 -1.684416644275188446e-02 -8.027962408959865570e-03 1.934548653662204742e-02 5.488868057727813721e-02 -3.938236273825168610e-03 -2.567359991371631622e-02 3.025918453931808472e-02 -6.354821845889091492e-03 -3.263784805312752724e-03 4.053858667612075806e-02 -1.185759343206882477e-02 2.023445069789886475e-02 5.094764288514852524e-03 1.785321347415447235e-02 -5.885096639394760132e-02 3.597505763173103333e-02 4.781009256839752197e-02 -6.277922540903091431e-02 -2.184335142374038696e-02 1.536762155592441559e-02 3.400618210434913635e-02 6.344364956021308899e-03 -1.401931606233119965e-02 2.382399048656225204e-03 -6.998144090175628662e-03 1.792760565876960754e-02 2.548159286379814148e-02 2.407091297209262848e-02 -3.053243458271026611e-02 -1.019379403442144394e-02 -2.830682497005909681e-04 -1.404966786503791809e-02 -1.991345733404159546e-02 -1.295182015746831894e-02 -2.199757611379027367e-03 -2.569844573736190796e-02 2.254808694124221802e-02 4.344647750258445740e-02 -3.351063700392842293e-03 4.205841105431318283e-03 -3.002148494124412537e-02 1.461704913526773453e-02 5.947192199528217316e-03 -3.187967836856842041e-02 -1.124286279082298279e-02 3.219812735915184021e-02 7.154576946049928665e-03 -1.724214106798171997e-02 1.485861930996179581e-02 7.586571853607892990e-03 3.577245026826858521e-02 8.540474809706211090e-03 1.990986242890357971e-02 7.172013283707201481e-04 -2.634246647357940674e-02 2.021646872162818909e-02 1.558135636150836945e-02 -2.584709040820598602e-02 -8.910135366022586823e-03 -4.689516872167587280e-02 -1.045861840248107910e-02 2.162010781466960907e-02 -1.034708134829998016e-02 2.694773860275745392e-02 1.816048659384250641e-02 -1.668655872344970703e-02 -4.261956736445426941e-02 3.740257583558559418e-03 5.407291650772094727e-02 4.483892023563385010e-02 -1.639410480856895447e-02 -6.472622975707054138e-03 2.091343922074884176e-04 -2.480107545852661133e-02 -1.688446034677326679e-03 -1.781656593084335327e-02 6.309485994279384613e-03 -3.860909491777420044e-02 2.237126417458057404e-02 4.970537498593330383e-02 2.760438621044158936e-02 -5.438456684350967407e-02 1.789786294102668762e-02 6.907394528388977051e-02 3.219306096434593201e-02 -5.336183682084083557e-02 1.252828538417816162e-02 -2.442676946520805359e-02 5.380403599701821804e-04 5.194719880819320679e-02 1.008905586786568165e-03 -9.689201600849628448e-03 -3.623050078749656677e-02 -8.016763255000114441e-03 2.169951610267162323e-02 3.826428204774856567e-02 2.130983397364616394e-02 9.401402436196804047e-03 6.141233257949352264e-03 5.814059451222419739e-02 1.616463810205459595e-02 2.275587245821952820e-02 3.543137572705745697e-03 -2.139103598892688751e-02 -2.082428522408008575e-02 -7.393787149339914322e-03 6.023009493947029114e-02 -7.174531370401382446e-02 -2.980463765561580658e-02 1.669981703162193298e-02 1.893729902803897858e-02 4.275383427739143372e-02 6.671031005680561066e-03 4.121843352913856506e-02 -1.157469861209392548e-02 1.815127208828926086e-02 7.268144283443689346e-03 -6.137665826827287674e-03 8.089898154139518738e-03 9.342853911221027374e-03 3.113276511430740356e-02 -2.601439692080020905e-02 2.175333537161350250e-02 1.280674058943986893e-02 3.885966539382934570e-02 3.342239558696746826e-02 -1.347772590816020966e-02 -1.860060915350914001e-02 3.380312398076057434e-02 -2.666030265390872955e-02 1.255682855844497681e-02 2.932684682309627533e-02 2.840347960591316223e-02 -2.967928349971771240e-02 -1.283438969403505325e-02 6.320146378129720688e-03 -1.897052489221096039e-02 -6.849450618028640747e-02 2.246919274330139160e-02 2.403738349676132202e-02 2.141495794057846069e-02 -2.787849307060241699e-02 -2.057104138657450676e-03 -8.333955891430377960e-03 -1.673960685729980469e-02 -5.123645067214965820e-03 6.658800877630710602e-03 -3.034831769764423370e-02 3.871450200676918030e-02 2.830379083752632141e-02 -9.605848230421543121e-03 7.087432779371738434e-03 -2.558631449937820435e-02 4.243080504238605499e-03 -8.169252541847527027e-04 7.908288389444351196e-03 -9.237943217158317566e-03 -5.599602684378623962e-02 4.139820113778114319e-02 -5.087216570973396301e-02 9.107338264584541321e-03 -2.311220578849315643e-02 -3.901541605591773987e-02 1.103499997407197952e-02 1.672924309968948364e-02 -4.522657394409179688e-02 9.600409306585788727e-03 -2.709984779357910156e-02 3.976340591907501221e-02 -1.588013023138046265e-02 7.478440646082162857e-03 2.752272412180900574e-02 -1.536831911653280258e-02 -1.731492020189762115e-02 6.762272678315639496e-03 3.078798204660415649e-02 1.092919521033763885e-02 5.429992452263832092e-03 3.509004786610603333e-02 -3.149264305830001831e-02 4.508076701313257217e-03 4.301803652197122574e-03 4.413641244173049927e-02 -3.398353233933448792e-02 1.629708893597126007e-02 -1.467651780694723129e-02 -2.716610208153724670e-03 2.922912361100316048e-03 5.058890674263238907e-03 5.427768826484680176e-02 4.734786227345466614e-02 -9.975067339837551117e-03 -1.886018551886081696e-02 2.736597880721092224e-02 2.734738588333129883e-02 2.241598442196846008e-02 -5.784828588366508484e-02 5.829010903835296631e-02 2.443404402583837509e-03 -1.146060042083263397e-02 -2.630874887108802795e-02 -1.534660533070564270e-02 1.489748153835535049e-02 2.619640529155731201e-02 1.725974306464195251e-02 1.845567952841520309e-03 4.171031527221202850e-03 -3.657198697328567505e-02 1.556110847741365433e-02 -2.536708489060401917e-02 -4.899453371763229370e-02 -3.130598738789558411e-02 1.979826763272285461e-02 2.199757285416126251e-02 1.373539026826620102e-02 -9.688829071819782257e-03 -4.051705077290534973e-02 2.092207036912441254e-02 1.153223961591720581e-02 6.232623383402824402e-02 1.503542438149452209e-02 -7.312870025634765625e-02 4.536538943648338318e-02 3.299953788518905640e-02 3.804299235343933105e-02 -1.290066912770271301e-02 1.486723590642213821e-02 -2.352818474173545837e-02 3.228787332773208618e-02 -9.498476982116699219e-03 -4.566535353660583496e-02 -1.422061119228601456e-03 2.050523646175861359e-02 -1.818551449105143547e-03 4.754261672496795654e-02 -1.128384191542863846e-02 -3.816044330596923828e-02 -1.504640188068151474e-02 2.574424445629119873e-02 -1.365641783922910690e-02 -3.321210620924830437e-03 -1.640779525041580200e-02 -1.458411756902933121e-02 3.322041407227516174e-02 6.853449344635009766e-02 -3.357285400852560997e-03 1.141748391091823578e-03 -1.021286752074956894e-02 -4.014253988862037659e-02 3.940344229340553284e-02 1.133347861468791962e-02 3.279822692275047302e-02 1.282470114529132843e-02 -7.925606332719326019e-03 -1.946965418756008148e-02 1.001266390085220337e-02 1.673068152740597725e-03 -1.815143041312694550e-02 -5.928332731127738953e-02 2.183292806148529053e-02 7.205170579254627228e-03 -1.237150048837065697e-03 -1.059477869421243668e-02
5.368785466998815536e-03 -1.096014515496790409e-03 -1.849161228165030479e-03 1.163600608706474304e-01 -1.261102594435214996e-02 -8.439909666776657104e-03 2.834813483059406281e-02 4.243306815624237061e-02 2.034485712647438049e-02 3.965746611356735229e-02 2.173916064202785492e-02 -3.851238638162612915e-02 4.950889572501182556e-02 1.462581334635615349e-03 8.137525059282779694e-03 1.076342421583831310e-03 -3.287038952112197876e-02 2.598659135401248932e-03 -2.669538371264934540e-02 -3.634941577911376953e-02 -3.431621938943862915e-03 -1.375054824165999889e-03 3.235071524977684021e-02 -5.997582525014877319e-02 6.649321410804986954e-03 1.515099778771400452e-02 -6.440727505832910538e-03 8.527415990829467773e-02 -4.434106405824422836e-03 -2.418086305260658264e-02 6.157479435205459595e-02 -1.916642114520072937e-02 -7.620995864272117615e-03 -4.953785985708236694e-02 -2.953564748167991638e-02 -3.853788226842880249e-02 -2.430784143507480621e-02 -1.555829588323831558e-02 8.163282764144241810e-04 5.130660533905029297e-02 -7.710834592580795288e-02 4.988159984350204468e-03 -1.292593404650688171e-02 -2.347649633884429932e-02 -1.052029663696885109e-03 1.795264333486557007e-02 8.448695763945579529e-03 7.293147966265678406e-03 -2.388758398592472076e-02 -9.648399427533149719e-03 -6.624356657266616821e-02 2.459437586367130280e-02 -5.052621010690927505e-03 -1.482692430727183819e-03 -3.405710309743881226e-02 -1.354220230132341385e-02 1.987331919372081757e-02 -4.512051120400428772e-02 -8.038305677473545074e-03 4.889539256691932678e-02 2.260717935860157013e-02 -3.653414919972419739e-02 -3.442875295877456665e-02 9.168194606900215149e-03 -9.859223850071430206e-03 -9.826863184571266174e-03 2.383452607318758965e-03 -7.870129309594631195e-03 -7.514694239944219589e-03 1.171536184847354889e-02 5.889443680644035339e-02 5.579663440585136414e-03 8.822946809232234955e-03 -1.137336157262325287e-02 1.176194101572036743e-02 -1.465029269456863403e-02 -7.938268594443798065e-03 -1.125167962163686752e-02 -3.509722417220473289e-03 -2.697672136127948761e-02 7.318949326872825623e-03 1.297893933951854706e-02 3.122211806476116180e-02 1.624318771064281464e-02 -2.200982160866260529e-02 -2.655240148305892944e-02 -9.405698627233505249e-03 -5.321388598531484604e-03 1.484164269641041756e-03 -1.833144947886466980e-02 -4.681846767198294401e-04 2.700745500624179840e-02 3.895307332277297974e-02 -1.425299700349569321e-02 3.423987329006195068e-02 -1.239012088626623154e-02 2.847358770668506622e-02 -2.972603961825370789e-02 8.974538184702396393e-03 -2.659683302044868469e-02 9.508339571766555309e-04 -2.947575785219669342e-02 1.280440390110015869e-02 8.159031160175800323e-03 5.007855128496885300e-03 1.886410452425479889e-02 -2.095994725823402405e-02 -3.166161105036735535e-02 -3.707963228225708008e-02 -1.343122776597738266e-02 2.581260539591312408e-02 -1.023438293486833572e-02 2.416422031819820404e-02 -1.215591654181480408e-02 8.838845416903495789e-03 -1.196699496358633041e-02 -3.293945640325546265e-02 -1.508857775479555130e-02 1.391281932592391968e-02 2.938088588416576385e-02 -1.222654711455106735e-02 -8.031158894300460815e-02 1.895197480916976929e-02 -4.175299778580665588e-02 5.082204588688910007e-04 6.296704988926649094e-03 1.873073913156986237e-02 8.196422830224037170e-03 -2.468569204211235046e-02 4.754882305860519409e-03 -6.348211783915758133e-03 -1.487855333834886551e-02 -5.473178252577781677e-02 -4.636274650692939758e-02 -1.039224490523338318e-02 -5.484621226787567139e-02 -2.566714212298393250e-02 -1.604812592267990112e-02 -1.164923235774040222e-02 6.214079447090625763e-03 3.388565406203269958e-02 5.392567813396453857e-02 3.792607039213180542e-02 1.685347035527229309e-02 8.343097753822803497e-03 6.206043437123298645e-02 -1.303262729197740555e-02 -3.911263868212699890e-02 -1.267754379659891129e-02 4.148687794804573059e-02 2.329833060503005981e-02 -3.110108897089958191e-02 1.164550893008708954e-02 -5.278028082102537155e-03 1.243462506681680679e-02 6.166280712932348251e-03 -3.296566382050514221e-02 1.483726128935813904e-02 -3.862208221107721329e-03 -3.276047483086585999e-02 1.576516032218933105e-02 -2.182638272643089294e-02 9.421636350452899933e-03 -2.527247555553913116e-02 5.040266364812850952e-02 -8.054034784436225891e-03 4.862198978662490845e-02 -7.620611041784286499e-02 -2.887838147580623627e-02 -2.804734045639634132e-03 1.286895200610160828e-02 3.849191218614578247e-02 -3.367413207888603210e-02 2.008738741278648376e-02 -1.238895673304796219e-02 -9.838194586336612701e-03 -3.024178929626941681e-02 -3.754391521215438843e-02 -1.737957634031772614e-02 -2.396764978766441345e-02 -3.214370692148804665e-03 -1.768367830663919449e-03 1.674652658402919769e-02 -6.417176872491836548e-02 -3.698320686817169189e-02 3.391558676958084106e-02 -4.269599914550781250e-02 5.339794326573610306e-03 -3.206720203161239624e-02 5.880719050765037537e-02 -2.484895847737789154e-02 -2.589798346161842346e-02 3.018394857645034790e-02 2.079200558364391327e-02 5.169951915740966797e-02 -2.134702727198600769e-02 -1.114946138113737106e-02 2.033094130456447601e-02 -1.484152628108859062e-03 6.147376727312803268e-03 2.072869613766670227e-02 -3.738014260306954384e-03 -2.318725921213626862e-02 9.394148364663124084e-03 3.715638816356658936e-02 2.341351844370365143e-02 3.613929031416773796e-03 -7.632794324308633804e-03 -9.023543447256088257e-03 8.043347857892513275e-03 1.417551003396511078e-02 -6.408227235078811646e-02 -5.396148655563592911e-03 1.826442964375019073e-02 -4.706025123596191406e-03 -4.717351123690605164e-02 3.544216975569725037e-02 -4.554367158561944962e-03 3.495412692427635193e-02 4.392578825354576111e-02 3.072051890194416046e-02 3.177699074149131775e-02 -1.536052953451871872e-02 1.910578086972236633e-02 -4.521499946713447571e-02 5.973952263593673706e-02 -5.644450336694717407e-02 -5.249761417508125305e-02 3.383651375770568848e-02 -2.323827147483825684e-02 -2.726332098245620728e-02 7.038541603833436966e-03 2.992030978202819824e-02 3.772909939289093018e-02 1.477877423167228699e-02 -2.926560118794441223e-02 -2.043493650853633881e-02 1.115382183343172073e-02 -5.577688291668891907e-02 -3.369996324181556702e-02 -3.245661780238151550e-02 -8.298874646425247192e-02 -4.637821763753890991e-02 2.533100359141826630e-02 1.699020154774188995e-02 4.983665421605110168e-02 -1.833369955420494080e-02 4.943481832742691040e-02 -1.167217921465635300e-02 -9.566324763000011444e-03 -9.230069816112518311e-03 -1.295526232570409775e-02 -1.621086522936820984e-02 5.112224817276000977e-02 4.582829773426055908e-02 1.354042813181877136e-02 -5.032135918736457825e-02 -8.070711977779865265e-03 -2.046659402549266815e-02 5.126886442303657532e-02 -2.758667245507240295e-02 -1.707675866782665253e-02 2.147375792264938354e-02 4.203626886010169983e-02 3.444686904549598694e-02 -6.117204204201698303e-02 3.244917839765548706e-02 2.529305778443813324e-02 5.863100755959749222e-03 -1.014879671856760979e-03 -9.993030689656734467e-03 4.072592407464981079e-02 -2.293572761118412018e-02 1.251492369920015335e-02 1.792071759700775146e-02 1.939668506383895874e-02 8.377083577215671539e-04 -1.065910980105400085e-02 -2.224841900169849396e-02 1.029405966401100159e-01 6.864152103662490845e-02 3.912613168358802795e-02 2.442298643290996552e-02 6.404428929090499878e-02 -1.949214190244674683e-02 8.168275468051433563e-03 1.286688912659883499e-02 -2.189018763601779938e-02 1.139671634882688522e-02 -2.835081331431865692e-02 -4.765065386891365051e-02 4.808098450303077698e-02 9.252435411326587200e-04 -2.253526821732521057e-03 -5.420173052698373795e-03 2.248983830213546753e-02 2.395656146109104156e-02 -5.764596164226531982e-03 2.843631897121667862e-03 -1.499265525490045547e-02
1.856544427573680878e-02 4.595584701746702194e-03 -2.825246192514896393e-02 7.512453477829694748e-03 -6.517858244478702545e-03 -1.414696965366601944e-02 2.465437166392803192e-02 -2.412712760269641876e-02 -8.469155058264732361e-03 2.058902196586132050e-02 6.339528597891330719e-03 -1.766245067119598389e-02 9.129383601248264313e-03 -2.244473807513713837e-02 -1.561015564948320389e-02 3.719715029001235962e-02 -5.180225241929292679e-03 -9.929457679390907288e-03 -8.487167768180370331e-03 -3.454243997111916542e-03 4.172014445066452026e-02 1.838272670283913612e-03 1.650631614029407501e-02 -1.959061250090599060e-02 4.088351130485534668e-02 1.827595196664333344e-02 -4.270517081022262573e-02 1.527831051498651505e-02 3.097142465412616730e-02 2.040029130876064301e-02 -1.130187604576349258e-02 -2.974485233426094055e-02 6.855390965938568115e-03 -2.218822576105594635e-02 -1.728337630629539490e-02 -8.316165208816528320e-02 -1.565835066139698029e-02 7.661842741072177887e-03 1.524180080741643906e-02 6.771371513605117798e-02 -1.882383413612842560e-02 -9.817098267376422882e-03 -7.130055688321590424e-03 -3.007395425811409950e-03 1.657439395785331726e-02 -2.893104404211044312e-02 6.992889195680618286e-02 -7.014351896941661835e-03 -5.101695656776428223e-03 -1.519596111029386520e-02 9.209709241986274719e-03 -1.549658644944429398e-02 -1.007508765906095505e-02 4.368873313069343567e-02 9.455827996134757996e-03 -2.407859452068805695e-02 2.186514250934123993e-02 -3.727215155959129333e-02 -1.815147325396537781e-02 1.005934178829193115e-02 1.472039520740509033e-02 -1.164805144071578979e-02 2.456017397344112396e-02 8.180784992873668671e-03 5.919717717915773392e-03 2.623196691274642944e-02 1.401275116950273514e-02 1.698773354291915894e-02 1.976213231682777405e-02 -2.355817891657352448e-02 3.317594900727272034e-02 -1.209116633981466293e-02 -2.615035325288772583e-02 1.387324556708335876e-02 -9.407931938767433167e-03 -2.096523344516754150e-02 8.809140883386135101e-03 -9.114007465541362762e-03 -5.296869948506355286e-02 1.437638327479362488e-02 1.666065119206905365e-02 2.810907922685146332e-02 4.548636078834533691e-02 -6.379164755344390869e-03 -3.140376135706901550e-02 -1.630252413451671600e-02 2.879107557237148285e-02 3.040602430701255798e-03 1.462828740477561951e-02 -1.167309433221817017e-01 1.111101126298308372e-03 -9.024799219332635403e-04 9.512677788734436035e-03 -4.506261274218559265e-02 -3.462000191211700439e-02 1.012812461704015732e-02 -9.644409641623497009e-03 8.341053500771522522e-03 2.498625777661800385e-03 -3.722408087924122810e-03 -6.411770731210708618e-02 1.715739630162715912e-02 9.686484932899475098e-03 1.441661361604928970e-02 2.199909836053848267e-02 2.115993760526180267e-02 7.704659365117549896e-03 -3.577367635443806648e-03 -4.789027851074934006e-03 -3.140821307897567749e-02 5.015505477786064148e-02 2.952953428030014038e-02 4.554726183414459229e-02 4.036291502416133881e-03 4.682356119155883789e-02 2.122682519257068634e-02 -2.660819143056869507e-02 1.029876060783863068e-02 2.281850669533014297e-03 1.601378247141838074e-02 4.333884641528129578e-02 -6.081905215978622437e-02 -6.948599964380264282e-02 2.754506422206759453e-03 -1.509460993111133575e-02 -4.022507369518280029e-02 4.851418733596801758e-02 -8.435425348579883575e-03 1.169965695589780807e-02 -7.036150782369077206e-04 4.358863830566406250e-02 2.808922901749610901e-02 -6.253074388951063156e-03 -1.327903382480144501e-02 -1.135507225990295410e-01 -9.255186654627323151e-03 2.958352304995059967e-02 1.676332764327526093e-02 2.783681824803352356e-02 -2.804936468601226807e-02 1.921611110446974635e-04 5.682843923568725586e-02 -3.350749611854553223e-02 -8.575209416449069977e-03 -3.460033610463142395e-02 1.999725401401519775e-02 2.133577503263950348e-02 -6.668204441666603088e-03 5.317197740077972412e-02 -3.819170221686363220e-02 -1.650349982082843781e-02 5.837726872414350510e-03 1.089309062808752060e-02 -5.897399038076400757e-03 1.943610608577728271e-02 -3.402185440063476562e-02 -1.315435580909252167e-02 2.225496061146259308e-02 4.113683104515075684e-02 1.351423934102058411e-02 -3.376777097582817078e-02 -3.063000179827213287e-02 2.857531234622001648e-02 3.785480931401252747e-02 -1.569205150008201599e-02 -4.878899827599525452e-02 -7.888220134191215038e-04 -9.921856224536895752e-03 -1.881367788882926106e-04 2.883036993443965912e-02 4.689308628439903259e-02 2.388722635805606842e-02 -4.390141740441322327e-02 -2.120488137006759644e-02 -7.514342665672302246e-02 5.320909619331359863e-02 1.936399191617965698e-02 -2.454010397195816040e-02 -2.651717700064182281e-02 2.855425514280796051e-02 3.917327523231506348e-02 2.745429612696170807e-02 -5.512358620762825012e-02 -5.488310009241104126e-02 -7.359134405851364136e-02 3.123437985777854919e-02 -5.747664719820022583e-02 3.403697907924652100e-02 -1.241824589669704437e-02 4.739357531070709229e-02 1.636847853660583496e-02 -1.361510809510946274e-02 4.642894864082336426e-02 2.115741837769746780e-03 -2.913646399974822998e-02 -3.422507643699645996e-02 1.792104542255401611e-02 -5.228720605373382568e-03 1.614157482981681824e-02 -3.312868997454643250e-02 -2.260945178568363190e-02 2.286326326429843903e-02 -2.776571549475193024e-02 -9.234244003891944885e-03 1.556724216789007187e-02 1.009436231106519699e-02 2.628769725561141968e-02 -3.276124969124794006e-02 4.113410040736198425e-02 -2.200991287827491760e-02 -9.665325284004211426e-02 -4.586384445428848267e-02 1.578169316053390503e-02 -1.675854995846748352e-02 -3.511898964643478394e-02 -4.397474229335784912e-02 2.925517410039901733e-02 6.063989363610744476e-03 2.639835234731435776e-03 -4.889069497585296631e-02 1.246724091470241547e-02 -4.307529423385858536e-03 -2.939749509096145630e-02 1.587561331689357758e-02 -1.702225580811500549e-02 3.675805404782295227e-02 -6.560999155044555664e-02 -4.088358487933874130e-03 2.808412909507751465e-02 5.502589046955108643e-03 -5.971068050712347031e-03 1.305227261036634445e-02 4.421999305486679077e-02 3.695974126458168030e-02 2.100553736090660095e-02 2.179226465523242950e-02 1.191531866788864136e-02 1.019753236323595047e-02 -4.682346805930137634e-02 2.543211728334426880e-02 -4.028392210602760315e-02 -2.080791257321834564e-02 3.960815258324146271e-03 -5.517122149467468262e-02 -6.597271561622619629e-02 8.285344578325748444e-03 -5.066504701972007751e-02 1.368073187768459320e-02 4.368039779365062714e-03 -3.056939132511615753e-02 -3.053232282400131226e-02 2.020815387368202209e-02 -8.732880651950836182e-02 2.227675355970859528e-02 -4.307852592319250107e-03 2.231422252953052521e-02 -6.766350567340850830e-02 -7.237382815219461918e-04 -1.288003567606210709e-02 -2.419044636189937592e-02 -7.379162125289440155e-03 6.061146035790443420e-02 2.864505397155880928e-03 3.465170413255691528e-02 4.674468934535980225e-02 -4.112853482365608215e-02 3.135926276445388794e-02 -5.379341077059507370e-03 -4.254963132552802563e-04 -7.677602116018533707e-03 -3.940501436591148376e-02 3.301601111888885498e-02 -8.975354954600334167e-03 3.705869242548942566e-02 -3.215647488832473755e-02 -9.735868126153945923e-02 2.325244620442390442e-02 -2.745256014168262482e-02 -2.692291699349880219e-02 -5.877845454961061478e-03 3.516188589856028557e-03 6.241392716765403748e-02 2.964713203255087137e-04 -3.517679870128631592e-02 -2.013372443616390228e-02 -1.664811186492443085e-02 4.555600881576538086e-02 -2.008539857342839241e-03 1.719367317855358124e-02 -3.003687830641865730e-03 -3.551890701055526733e-02 -3.850616514682769775e-02 -3.439329564571380615e-03 1.066478528082370758e-02 -1.534782443195581436e-02 -6.587535887956619263e-02 5.891408026218414307e-02 2.413156814873218536e-02 -1.052855793386697769e-02 -7.121048867702484131e-03
1.006328780204057693e-02 5.216310382820665836e-04 -2.135376818478107452e-02 -1.526882871985435486e-02 1.543186698108911514e-02 -4.348335415124893188e-02 2.299885824322700500e-02 -1.483962405472993851e-02 -3.139936923980712891e-02 -1.952505856752395630e-02 -3.962486516684293747e-03 2.586340159177780151e-02 1.587534695863723755e-02 8.591178804636001587e-03 -5.153954401612281799e-02 2.652394399046897888e-02 -1.881021820008754730e-02 7.488274015486240387e-03 -5.429090932011604309e-02 -2.360466681420803070e-02 -2.970140799880027771e-02 -6.801775656640529633e-03 -3.059895941987633705e-03 1.484581269323825836e-02 7.140616327524185181e-02 -2.673632837831974030e-02 -1.037803711369633675e-03 -2.548328042030334473e-02 1.609433442354202271e-02 -1.062570698559284210e-02 -2.823496423661708832e-02 8.028894662857055664e-03 4.272697493433952332e-03 -3.712468594312667847e-02 -2.414162270724773407e-03 -3.207561373710632324e-02 1.286725886166095734e-02 -1.483121700584888458e-02 4.299155250191688538e-02 1.064135227352380753e-02 6.549352407455444336e-02 -8.256311528384685516e-03 -3.656661137938499451e-02 2.000675164163112640e-02 4.210674669593572617e-03 2.221936592832207680e-03 8.295583724975585938e-02 -2.358764596283435822e-02 1.629850268363952637e-02 -2.371898666024208069e-02 1.421358995139598846e-02 -5.517207086086273193e-03 2.594692260026931763e-02 3.815754130482673645e-02 -2.029159665107727051e-02 -5.269563570618629456e-02 7.276496291160583496e-02 1.237558387219905853e-02 -2.942193858325481415e-02 -3.830092772841453552e-02 2.446420304477214813e-02 1.183174457401037216e-02 8.086232468485832214e-03 1.018211431801319122e-02 1.126068178564310074e-03 9.838274680078029633e-03 1.042272709310054779e-02 -4.473729524761438370e-03 -2.177636697888374329e-02 -2.499047294259071350e-02 -2.363207936286926270e-02 -4.441266879439353943e-03 -2.211605384945869446e-02 1.742219785228371620e-03 8.547061122953891754e-03 1.399976853281259537e-02 -3.358224174007773399e-03 -2.701905090361833572e-03 2.029038779437541962e-02 -5.446048919111490250e-03 -3.590965270996093750e-02 7.357968948781490326e-03 5.573520064353942871e-02 -5.172328557819128036e-03 -7.414085324853658676e-03 -8.481671102344989777e-03 3.322615474462509155e-02 3.469220548868179321e-02 3.315835073590278625e-02 -5.581275001168251038e-02 1.044916280079632998e-04 9.009393863379955292e-03 -8.969292044639587402e-03 -3.116810508072376251e-02 -1.530119124799966812e-02 -2.869500406086444855e-02 -1.391987595707178116e-02 2.662369422614574432e-02 2.668742462992668152e-02 2.372107468545436859e-02 2.447448670864105225e-02 5.388266965746879578e-02 -9.069574996829032898e-03 -1.679234579205513000e-02 1.928881974890828133e-04 8.182189613580703735e-02 4.670256748795509338e-02 -1.551716495305299759e-02 3.211863711476325989e-02 -6.597143132239580154e-03 -8.708540350198745728e-03 -1.867476105690002441e-02 1.826381497085094452e-02 -1.674147206358611584e-03 1.266469527035951614e-02 1.132118143141269684e-02 3.847924619913101196e-02 4.344909265637397766e-02 -1.696308515965938568e-02 4.324454814195632935e-03 5.158296227455139160e-02 -4.445630684494972229e-02 -9.495219588279724121e-02 3.015107661485671997e-02 -1.525571662932634354e-02 1.306977681815624237e-02 1.952152233570814133e-03 -3.660150244832038879e-02 -1.177308429032564163e-02 -2.448405325412750244e-02 3.615606948733329773e-02 2.929240278899669647e-02 2.379178442060947418e-02 5.207640118896961212e-03 -9.188798139803111553e-04 -3.341322019696235657e-02 1.468380354344844818e-02 2.507900260388851166e-02 4.029179364442825317e-02 -1.882597990334033966e-02 -4.815877601504325867e-02 -1.788520812988281250e-02 -3.897881507873535156e-02 3.737568482756614685e-02 -5.014416947960853577e-02 -3.248813748359680176e-02 4.878421314060688019e-03 1.476160716265439987e-03 8.396598696708679199e-02 -3.751400508917868137e-04 1.630548201501369476e-02 5.824483465403318405e-03 1.576404669322073460e-03 7.894022390246391296e-03 -7.204856257885694504e-03 -3.426153678447008133e-03 -1.148784626275300980e-02 4.439022764563560486e-02 -3.028681874275207520e-02 8.163678646087646484e-02 -4.551052581518888474e-03 -3.220209479331970215e-02 3.102851286530494690e-02 3.219479694962501526e-02 7.230969611555337906e-03 2.282098494470119476e-02 -7.101881504058837891e-02 4.556294530630111694e-02 -3.369767451658844948e-03 1.945255324244499207e-02 -2.524426020681858063e-02 2.523435279726982117e-02 1.756392046809196472e-02 -2.465446852147579193e-02 -4.310302808880805969e-02 3.446336090564727783e-02 5.054496228694915771e-02 2.206299081444740295e-02 -3.226929157972335815e-02 6.201041117310523987e-02 -1.454270072281360626e-02 -7.585737854242324829e-03 -2.950578555464744568e-02 6.025939434766769409e-02 -7.593782246112823486e-02 4.855524003505706787e-02 -7.044785190373659134e-03 2.011759020388126373e-02 1.407276839017868042e-02 -7.809412665665149689e-03 -1.991974003612995148e-02 -1.462207920849323273e-02 4.064391925930976868e-02 5.752799101173877716e-03 -8.638369292020797729e-02 1.313014980405569077e-02 -2.604793570935726166e-02 2.473884634673595428e-02 -1.816404424607753754e-02 -5.505543202161788940e-02 -3.111698105931282043e-02 2.807691879570484161e-02 -3.083248389884829521e-03 -2.710908092558383942e-02 -2.291705831885337830e-02 -3.886288963258266449e-03 -2.820270881056785583e-02 1.662344858050346375e-02 8.370301127433776855e-02 5.844085942953824997e-03 -5.573876202106475830e-03 -4.811969120055437088e-03 2.301624417304992676e-02 5.091264843940734863e-03 -5.651715677231550217e-03 8.410921320319175720e-03 -2.195989713072776794e-02 4.527565557509660721e-03 4.832562990486621857e-03 -7.685566786676645279e-03 1.061948598362505436e-03 9.266957640647888184e-03 -1.988496817648410797e-02 2.159764617681503296e-02 -2.259278669953346252e-02 1.071548368781805038e-02 3.473318740725517273e-02 5.183594301342964172e-02 3.270476311445236206e-02 -3.171504661440849304e-02 3.895059227943420410e-02 1.050647161900997162e-02 4.177432879805564880e-02 -7.724714279174804688e-02 5.011279881000518799e-02 2.896253392100334167e-02 -1.866544038057327271e-02 3.334464132785797119e-02 -5.655945464968681335e-02 2.837417088449001312e-02 -4.091753624379634857e-03 7.081583142280578613e-02 1.224384270608425140e-02 6.642515771090984344e-03 -3.102840483188629150e-02 4.243181273341178894e-02 -4.271048307418823242e-02 -2.851974684745073318e-03 -5.936719477176666260e-03 -2.933831326663494110e-02 -2.599286846816539764e-02 1.681665703654289246e-02 -2.080783434212207794e-02 -3.833238780498504639e-02 3.085200861096382141e-02 3.118135593831539154e-02 -1.783542521297931671e-02 2.024843823164701462e-03 -5.629785358905792236e-02 -3.167666494846343994e-02 1.038397923111915588e-01 2.649252489209175110e-02 5.671238061040639877e-03 -2.072955109179019928e-02 -2.784753218293190002e-02 6.454423815011978149e-02 -2.222969941794872284e-02 -3.757557272911071777e-02 4.445231985300779343e-03 2.469056751579046249e-03 -3.982122987508773804e-02 9.382539987564086914e-02 1.225630473345518112e-02 -2.319979667663574219e-02 -3.159256651997566223e-03 1.173332147300243378e-02 -1.929474249482154846e-02 -3.201779723167419434e-02 -1.432517450302839279e-02 6.223030388355255127e-02 1.253630779683589935e-02 9.344159066677093506e-02 -7.727683335542678833e-02 -5.216891877353191376e-03 -4.066790267825126648e-02 -8.013216406106948853e-02 2.538645826280117035e-02 -3.022424690425395966e-02 2.583270892500877380e-02 2.954431436955928802e-02 -1.536462176591157913e-02 -7.183787971735000610e-02 -7.502482039853930473e-04 1.336050336249172688e-03 -4.031195491552352905e-02 -2.319927513599395752e-02 3.253634646534919739e-02 7.041095197200775146e-02 -1.667132973670959473e-02 1.969701983034610748e-02
-3.324400633573532104e-03 -1.747441361658275127e-03 -1.810882985591888428e-02 -5.740147083997726440e-02 4.085317626595497131e-02 1.276950351893901825e-02 2.355033066123723984e-03 3.380746766924858093e-02 1.672633364796638489e-02 2.149920692318119109e-05 6.121502257883548737e-03 2.314039692282676697e-02 7.269378984346985817e-04 -3.977552521973848343e-03 2.064566127955913544e-03 -1.286703348159790039e-02 7.904140651226043701e-02 -3.618703456595540047e-03 1.102463249117136002e-02 -3.439251100644469261e-03 3.279251232743263245e-02 3.988614480476826429e-05 -6.200519949197769165e-02 2.369054220616817474e-02 -6.639260798692703247e-02 -3.980981186032295227e-02 6.251930259168148041e-03 -8.033323287963867188e-02 5.554533004760742188e-02 -8.049605414271354675e-03 2.137807570397853851e-02 5.973260104656219482e-02 3.811500221490859985e-02 2.364996820688247681e-02 4.388405382633209229e-02 -2.070744894444942474e-02 -1.022747531533241272e-02 -1.499743852764368057e-02 -2.282616496086120605e-02 -1.696836017072200775e-02 -2.234400063753128052e-02 1.454952172935009003e-02 4.104210808873176575e-02 3.951142076402902603e-03 2.002206631004810333e-03 -3.270126762799918652e-04 3.416289761662483215e-02 7.225715089589357376e-03 -2.868926338851451874e-02 -3.051355481147766113e-02 -7.832233607769012451e-02 -2.592432126402854919e-02 -2.381533570587635040e-02 -2.566461823880672455e-02 -4.238804057240486145e-02 4.459827765822410583e-02 4.741089791059494019e-02 8.959178812801837921e-04 -1.628807373344898224e-02 5.099833011627197266e-02 -7.345562335103750229e-03 3.814180195331573486e-02 3.157344460487365723e-02 -4.211929440498352051e-02 5.332569126039743423e-03 -4.522477835416793823e-02 2.955463156104087830e-02 -1.237391680479049683e-02 -2.723815478384494781e-02 3.181954473257064819e-02 7.817653007805347443e-03 7.158018648624420166e-03 3.067686408758163452e-02 -2.044034935534000397e-02 -3.846139833331108093e-02 1.611511223018169403e-02 8.457835065200924873e-04 5.301511660218238831e-02 -2.124592475593090057e-02 -1.672361162491142750e-03 2.923078462481498718e-02 -3.054882399737834930e-02 -1.896163634955883026e-02 1.495140790939331055e-02 1.383266295306384563e-03 3.965288773179054260e-02 7.095847278833389282e-03 -8.845891803503036499e-02 1.897262036800384521e-02 -5.691108480095863342e-02 -2.111664216499775648e-04 -1.742178760468959808e-02 -1.101318597793579102e-01 -1.381543278694152832e-02 -1.714639551937580109e-02 -2.929427288472652435e-02 2.643025480210781097e-02 -2.713368646800518036e-02 1.938512921333312988e-02 3.980812802910804749e-02 -8.048184216022491455e-02 5.432279407978057861e-02 -2.737334370613098145e-02 6.135334447026252747e-02 -5.124285444617271423e-02 6.029664352536201477e-02 -1.468032691627740860e-02 3.313624858856201172e-02 -2.483404614031314850e-02 2.032442018389701843e-02 -1.313975779339671135e-03 -1.097441390156745911e-01 8.287541568279266357e-02 -2.393529750406742096e-03 -4.313329979777336121e-02 -2.284385822713375092e-02 7.153864949941635132e-02 4.422987252473831177e-02 5.127068981528282166e-02 4.359514638781547546e-02 -2.340630628168582916e-02 -5.182161182165145874e-02 -2.793358638882637024e-03 4.524557292461395264e-02 2.884785830974578857e-02 -8.021607063710689545e-03 3.570482507348060608e-02 -3.334437310695648193e-02 -4.816884920001029968e-02 8.938256651163101196e-03 1.449151244014501572e-02 8.186828345060348511e-02 1.007080525159835815e-01 -3.316166251897811890e-02 8.372130803763866425e-03 2.229148335754871368e-02 5.555140599608421326e-02 -6.309522781521081924e-03 -3.988737240433692932e-03 -4.354687780141830444e-02 2.798003843054175377e-03 -4.063527658581733704e-02 -2.245625853538513184e-02 -1.056037992238998413e-01 -8.471838198602199554e-03 -2.770685218274593353e-02 -1.066973339766263962e-02 4.049156233668327332e-02 -4.489225521683692932e-02 -2.101404778659343719e-02 -1.248551346361637115e-02 1.334260124713182449e-02 -3.542287275195121765e-02 -2.464778348803520203e-02 -2.950466424226760864e-02 -3.007031511515378952e-03 -4.178588092327117920e-02 6.147542595863342285e-02 -2.605802193284034729e-02 4.943684116005897522e-02 -5.350250005722045898e-02 -9.306732565164566040e-03 -3.135871887207031250e-02 7.490707933902740479e-02 -3.598848357796669006e-02 -3.507898002862930298e-02 -6.938247382640838623e-02 -3.049990534782409668e-02 -6.641373783349990845e-02 -2.972154691815376282e-02 -3.512755574774928391e-05 2.095680497586727142e-02 -5.305772647261619568e-03 2.288397587835788727e-02 4.289712384343147278e-02 5.417956784367561340e-02 1.158829592168331146e-02 -6.537927687168121338e-02 2.096864022314548492e-02 -2.146479859948158264e-02 -5.250830203294754028e-02 -4.180666804313659668e-02 4.223431274294853210e-02 -3.363279625773429871e-02 7.719711400568485260e-03 -4.153069853782653809e-02 -1.452225446701049805e-02 3.188041504472494125e-03 -5.086869001388549805e-03 -3.014292567968368530e-02 -1.766681484878063202e-02 8.579767309129238129e-03 -2.750219311565160751e-03 -1.552816387265920639e-02 -6.177987903356552124e-02 -1.764215156435966492e-02 -6.675955373793840408e-03 6.882396060973405838e-03 -3.616614965721964836e-03 1.236340031027793884e-01 -3.595344349741935730e-02 -4.829940386116504669e-03 -2.047146670520305634e-02 -5.499920621514320374e-02 -4.111238289624452591e-03 -9.709989279508590698e-02 2.079584822058677673e-02 1.303547155112028122e-02 -4.825624637305736542e-03 1.328010205179452896e-02 4.182600881904363632e-03 -2.253510802984237671e-02 -2.514653094112873077e-02 -2.090902253985404968e-02 5.862144008278846741e-02 -2.042725495994091034e-02 2.822859212756156921e-02 5.287801846861839294e-03 -1.275085262022912502e-03 -8.866723626852035522e-02 1.101995166391134262e-02 -3.418646007776260376e-02 -1.153513137251138687e-02 -5.946124345064163208e-02 2.895998023450374603e-02 1.213966961950063705e-02 -5.788003560155630112e-03 -2.309277653694152832e-02 -1.269348338246345520e-02 -1.647408865392208099e-02 8.742981404066085815e-02 3.331923857331275940e-02 -6.118035688996315002e-02 3.004867956042289734e-02 -3.687596693634986877e-02 2.607454545795917511e-03 1.571517437696456909e-02 3.261705115437507629e-02 -2.597602270543575287e-02 -6.575640290975570679e-02 -4.784728866070508957e-03 -6.194852758198976517e-03 2.425288595259189606e-02 8.534052409231662750e-03 2.938567195087671280e-03 7.496248930692672729e-03 1.930681616067886353e-02 -2.159766294062137604e-02 2.346428483724594116e-02 4.295714944601058960e-02 -4.224856942892074585e-02 3.193370625376701355e-02 -4.291413817554712296e-03 6.120115891098976135e-02 3.627226920798420906e-03 2.312236931174993515e-03 -2.871753461658954620e-02 -3.744175657629966736e-03 7.134164124727249146e-02 -5.533448979258537292e-02 5.622222274541854858e-02 -5.183059722185134888e-02 -4.318098071962594986e-03 -3.801826387643814087e-02 -1.102453097701072693e-02 2.132880687713623047e-02 4.582366347312927246e-02 1.760412566363811493e-02 4.722021520137786865e-03 8.036890067160129547e-03 2.921760268509387970e-02 -1.795577630400657654e-02 2.469731867313385010e-02 2.796581946313381195e-02 5.627829208970069885e-02 -1.246328838169574738e-02 2.171526895835995674e-03 1.096635311841964722e-02 2.824493870139122009e-02 -4.154605790972709656e-02 -8.725696057081222534e-02 -2.962352521717548370e-02 -6.177403777837753296e-02 -8.924339711666107178e-02 -1.564148068428039551e-02 -1.768513023853302002e-02 -3.783272579312324524e-02 2.607561089098453522e-02 1.210685726255178452e-02 2.182171680033206940e-02 -3.972413390874862671e-02 -6.904388312250375748e-03 9.003150276839733124e-03 3.035730682313442230e-03 1.828551664948463440e-02 2.026995643973350525e-02 -6.059283856302499771e-03 5.120437592267990112e-02 -1.009221561253070831e-02 2.354368194937705994e-02
-4.135515540838241577e-03 8.595848921686410904e-04 -1.461220346391201019e-02 -1.777168479748070240e-03 3.530188649892807007e-02 -8.167805150151252747e-03 1.655383966863155365e-02 -2.930157352238893509e-03 1.793993636965751648e-02 -3.156283125281333923e-02 -2.084432914853096008e-02 7.295448798686265945e-03 -1.748278504237532616e-03 7.601546589285135269e-03 -2.923881448805332184e-02 2.179716713726520538e-02 -6.450939923524856567e-03 1.704463921487331390e-02 -3.294613957405090332e-02 -2.465443871915340424e-02 3.309715166687965393e-02 -2.511182334274053574e-03 2.617763727903366089e-02 -3.114243596792221069e-02 8.280221372842788696e-03 2.181959571316838264e-03 -1.439913827925920486e-02 -4.703157767653465271e-02 2.868632972240447998e-02 -4.190193489193916321e-02 -3.018111456185579300e-03 2.510568313300609589e-02 -8.687593974173069000e-03 -6.648969836533069611e-03 3.011975437402725220e-02 -4.349318146705627441e-02 -2.007803693413734436e-02 -2.151585929095745087e-02 2.572166966274380684e-03 -1.249849237501621246e-02 -4.103561490774154663e-02 -1.760308817028999329e-02 -3.361498564481735229e-02 -4.017211124300956726e-02 -1.598365046083927155e-02 1.843453012406826019e-02 -3.761554881930351257e-02 7.933708839118480682e-03 -1.603086292743682861e-02 -1.388210803270339966e-03 -2.103918232023715973e-02 3.239291906356811523e-02 7.368710357695817947e-03 1.605726592242717743e-02 1.269073691219091415e-02 -5.681204423308372498e-02 2.071989141404628754e-02 1.228706631809473038e-02 3.932680469006299973e-03 -3.607970476150512695e-02 1.072825049050152302e-03 -1.776977255940437317e-02 -3.109351173043251038e-02 -1.935898140072822571e-02 -7.595580071210861206e-03 8.441219106316566467e-03 8.354862220585346222e-03 -1.429121382534503937e-02 1.676711812615394592e-02 5.503190215677022934e-03 -2.191243134438991547e-02 7.463825168088078499e-04 1.039762329310178757e-02 9.810817427933216095e-03 -1.443821191787719727e-02 1.431950251571834087e-03 5.243937950581312180e-03 -2.069657854735851288e-02 -6.588916294276714325e-03 -1.308887824416160583e-02 -1.406008657068014145e-02 5.941864103078842163e-03 2.827078476548194885e-02 1.245713420212268829e-02 5.129516869783401489e-02 -1.685925573110580444e-02 7.450058590620756149e-03 2.031767740845680237e-02 1.700390502810478210e-02 -7.115519046783447266e-02 2.049287315458059311e-03 -1.487297005951404572e-02 -2.755439467728137970e-02 -2.621339075267314911e-02 5.480135325342416763e-03 -2.084827795624732971e-02 3.749030875042080879e-03 -3.708410263061523438e-02 1.722840592265129089e-02 3.864422906190156937e-03 5.354665219783782959e-03 3.252036869525909424e-02 2.230808883905410767e-02 -2.322576008737087250e-02 -1.361304149031639099e-02 6.013014167547225952e-02 -2.460660762153565884e-04 -9.162748232483863831e-03 -1.750698126852512360e-02 8.711867034435272217e-03 2.218938898295164108e-03 1.094672363251447678e-02 3.878172114491462708e-02 -2.930641733109951019e-02 -4.316913336515426636e-02 -2.480250597000122070e-02 2.205726504325866699e-02 4.064203053712844849e-02 -4.057297948747873306e-03 -6.715981871820986271e-04 -6.340689491480588913e-03 -1.283528748899698257e-02 4.071186110377311707e-02 4.134990274906158447e-02 -1.672111079096794128e-02 1.857825927436351776e-02 1.590270362794399261e-02 2.188991941511631012e-02 -2.442717924714088440e-02 -1.479584444314241409e-02 2.333814976736903191e-03 3.575675562024116516e-02 3.918036818504333496e-02 9.355998481623828411e-04 -1.426518987864255905e-02 3.101482056081295013e-03 3.324665129184722900e-02 -1.485879998654127121e-02 -3.811994194984436035e-02 -1.278075389564037323e-02 -2.278641797602176666e-02 1.671359874308109283e-02 -3.494585677981376648e-02 -2.619341947138309479e-02 1.061022561043500900e-02 -6.893938407301902771e-03 -2.039017714560031891e-02 -3.360743820667266846e-02 -8.546535857021808624e-03 -3.540624398738145828e-03 -1.745695620775222778e-02 -9.688105434179306030e-02 -5.510260909795761108e-02 -2.142506651580333710e-02 2.782653318718075752e-04 1.897476380690932274e-03 3.434155881404876709e-02 5.247329548001289368e-02 -2.573959529399871826e-02 5.667508766055107117e-02 -3.506974875926971436e-02 -8.088143542408943176e-03 -2.050922438502311707e-02 1.444984320551156998e-02 1.093735639005899429e-02 1.240443252027034760e-02 -3.894501924514770508e-02 8.556019514799118042e-03 -1.728304848074913025e-02 2.798692148644477129e-04 2.623620629310607910e-02 1.234515756368637085e-02 8.798044174909591675e-03 -2.136452123522758484e-02 -2.860057912766933441e-02 1.675916282692924142e-04 -5.538384430110454559e-03 -1.731710135936737061e-02 -1.805955730378627777e-02 9.388595819473266602e-02 3.569532418623566628e-03 3.229695186018943787e-02 -3.328375145792961121e-02 -3.036205843091011047e-02 -4.946299642324447632e-02 -7.812430616468191147e-03 -7.435292750597000122e-02 5.117927864193916321e-02 -1.534690614789724350e-02 -1.302200742065906525e-02 -2.157083898782730103e-02 1.768131740391254425e-03 7.344468031078577042e-03 -4.172256216406822205e-03 1.923393830657005310e-02 -4.130243882536888123e-02 -8.193678222596645355e-03 -1.808573491871356964e-02 1.050085481256246567e-02 -4.183560982346534729e-02 -5.484010092914104462e-03 -4.298798739910125732e-05 3.418637812137603760e-02 -1.725631579756736755e-02 5.196397192776203156e-03 -4.267900437116622925e-02 3.153366968035697937e-02 -3.277946379967033863e-04 4.717854037880897522e-02 -7.574743940494954586e-04 2.596915699541568756e-03 -2.241552993655204773e-02 -9.155452251434326172e-03 -1.274777296930551529e-02 -9.249933063983917236e-03 -2.475101687014102936e-02 5.062873475253582001e-03 -2.672219835221767426e-02 -1.324400026351213455e-02 -1.082034315913915634e-02 1.003103423863649368e-02 4.846744239330291748e-03 -6.338656693696975708e-02 -1.569326617754995823e-03 -4.950760863721370697e-03 3.471218794584274292e-02 -3.287819027900695801e-02 -6.715065333992242813e-03 -1.489252503961324692e-02 -2.579064294695854187e-02 2.609414607286453247e-02 5.148165859282016754e-03 -2.254466898739337921e-02 -6.228022649884223938e-02 -1.619907468557357788e-02 -4.690143093466758728e-02 3.686955897137522697e-03 2.118325233459472656e-02 -6.396909710019826889e-03 -3.102405928075313568e-03 -1.994727179408073425e-02 -6.969729065895080566e-02 -3.441708162426948547e-02 -3.690036758780479431e-02 1.008967030793428421e-02 5.232342332601547241e-02 2.798275649547576904e-02 -2.949433401226997375e-02 -2.107772603631019592e-02 -6.637670844793319702e-02 -2.872651442885398865e-02 5.464270338416099548e-02 -3.678024280816316605e-03 -6.557702086865901947e-03 -7.971493527293205261e-03 1.863098889589309692e-02 -7.421273738145828247e-02 -6.272141356021165848e-03 -5.413901992142200470e-03 -1.814655028283596039e-02 2.329235710203647614e-02 -2.765427343547344208e-02 8.247694931924343109e-03 -1.184924412518739700e-02 -3.627256723120808601e-03 5.190436914563179016e-02 -3.310534637421369553e-03 5.512647330760955811e-03 1.970857847481966019e-03 -3.343324735760688782e-02 -1.183453202247619629e-02 3.236814215779304504e-02 1.791050657629966736e-02 -4.028401151299476624e-02 -3.267930075526237488e-02 -5.217758193612098694e-02 -4.876365885138511658e-03 -9.062086232006549835e-03 -5.280813202261924744e-02 -2.431940659880638123e-02 2.938003279268741608e-02 7.066719699651002884e-04 -2.610532566905021667e-02 -2.878995798528194427e-02 1.439306139945983887e-02 5.514131626114249229e-04 -2.775317057967185974e-02 -1.409386191517114639e-02 -2.751951105892658234e-03 -2.302976511418819427e-02 1.137092616409063339e-02 -2.806345187127590179e-02 2.275614812970161438e-02 1.531863585114479065e-02 -2.681844681501388550e-02 -4.717786982655525208e-02 3.503158316016197205e-02 1.519818976521492004e-02 1.083298772573471069e-02 -8.040104992687702179e-03
-8.967860601842403412e-03 1.885874080471694469e-03 -3.325535356998443604e-02 -1.821393705904483795e-02 1.609246619045734406e-02 4.398359917104244232e-03 -4.221778828650712967e-03 3.907385468482971191e-02 -1.517500076442956924e-02 -9.446268901228904724e-03 -2.874927781522274017e-02 2.144580520689487457e-02 2.862275345250964165e-03 -1.824437081813812256e-02 -3.938877955079078674e-02 2.211113460361957550e-02 -3.696504980325698853e-02 -3.253729548305273056e-03 2.380475634709000587e-03 2.778531983494758606e-02 2.086495980620384216e-02 -1.157185249030590057e-02 -2.991522476077079773e-02 -4.457446280866861343e-03 -3.276532143354415894e-02 -2.614059485495090485e-02 -3.898213431239128113e-02 5.266576539725065231e-03 -3.517589357215911150e-05 3.597647696733474731e-02 2.490146830677986145e-02 2.489660400897264481e-03 -5.848355591297149658e-03 5.465942900627851486e-03 -6.300077587366104126e-02 -3.168408945202827454e-02 -1.802464574575424194e-02 8.846395649015903473e-04 -6.839352194219827652e-03 9.718195069581270218e-04 7.516238838434219360e-02 1.631623250432312489e-03 -8.575579850003123283e-04 -1.793897710740566254e-02 -1.447361055761575699e-02 -2.083179354667663574e-02 2.680493344087153673e-04 -3.494470939040184021e-02 2.174408175051212311e-02 -2.212038636207580566e-02 -1.246093679219484329e-02 6.818759138695895672e-04 -9.403826668858528137e-03 9.486399590969085693e-03 -3.919032588601112366e-02 -1.099327951669692993e-02 -4.351482912898063660e-02 -2.394277229905128479e-02 -3.858324512839317322e-02 -1.815614290535449982e-02 -9.874857962131500244e-03 7.344685960561037064e-03 -2.927520312368869781e-02 2.036159299314022064e-02 5.958375521004199982e-03 1.691749133169651031e-02 -9.115626104176044464e-03 -9.499647421762347221e-04 -5.255317781120538712e-03 1.424543652683496475e-02 2.674577012658119202e-02 -5.166769260540604591e-04 -1.333996746689081192e-02 2.984629711136221886e-03 2.058986388146877289e-02 4.073341563344001770e-02 3.319712588563561440e-03 2.870960719883441925e-02 -5.608829110860824585e-02 1.312704198062419891e-02 -5.132378544658422470e-03 4.235929343849420547e-03 -2.294434793293476105e-02 4.748135805130004883e-03 -2.921252511441707611e-02 1.247468777000904083e-02 -9.394663386046886444e-03 -3.334418311715126038e-02 -4.721696954220533371e-03 -4.039373993873596191e-02 1.266153645701706409e-03 -2.535052224993705750e-02 2.071168832480907440e-02 -3.677191212773323059e-02 7.112846244126558304e-03 -1.074011670425534248e-03 1.135932002216577530e-02 1.247737277299165726e-02 -3.526022657752037048e-03 1.693775504827499390e-02 -1.632561720907688141e-02 -1.963374763727188110e-02 1.790312677621841431e-02 2.290036901831626892e-02 8.823065087199211121e-03 -5.140640214085578918e-02 -8.282547816634178162e-03 1.197653170675039291e-02 -5.805539898574352264e-03 -1.568246632814407349e-02 -1.690843328833580017e-02 -2.293624129379168153e-04 -1.903746277093887329e-02 2.952889539301395416e-03 -5.668447120115160942e-04 3.158014267683029175e-03 2.232766896486282349e-02 1.553537440486252308e-03 1.928989030420780182e-02 6.548499222844839096e-03 4.333814978599548340e-02 -8.304496854543685913e-02 -2.355435863137245178e-02 -1.293490454554557800e-02 5.314548499882221222e-03 -2.262884937226772308e-02 -4.070040304213762283e-03 2.292269654572010040e-02 -1.359062851406633854e-03 1.666807197034358978e-02 -1.412504166364669800e-02 -4.426277056336402893e-02 -2.302342653274536133e-02 3.386123478412628174e-02 -1.877722330391407013e-02 6.478032562881708145e-03 2.451660297811031342e-02 6.017516832798719406e-03 2.211501635611057281e-02 -2.148484252393245697e-02 4.039906337857246399e-02 1.097833737730979919e-02 -1.228001713752746582e-02 -2.337374538183212280e-02 -1.264948491007089615e-02 -1.009527780115604401e-02 -4.747519642114639282e-02 -9.335514158010482788e-03 -1.375533733516931534e-02 4.348467569798231125e-03 -1.918909489177167416e-03 1.008279900997877121e-02 -3.038387373089790344e-02 -7.260683923959732056e-04 5.121463444083929062e-03 -3.340756753459572792e-03 1.065487600862979889e-02 2.007690723985433578e-03 -2.397429198026657104e-03 8.208739571273326874e-03 1.410059630870819092e-02 -1.425888855010271072e-02 3.729718504473567009e-03 -1.804766617715358734e-02 -3.933019563555717468e-02 -9.624047204852104187e-03 1.845884136855602264e-02 -1.686492119915783405e-03 -2.023502998054027557e-02 -6.823633797466754913e-03 6.099971011281013489e-03 1.563797891139984131e-02 -4.944551736116409302e-03 -1.440602075308561325e-02 -6.370201008394360542e-04 -1.280325371772050858e-02 7.310199737548828125e-02 -9.037237614393234253e-03 -6.451508961617946625e-03 5.777514073997735977e-03 1.404439751058816910e-02 2.259506611153483391e-03 -3.333813324570655823e-02 -1.617531292140483856e-02 3.797918930649757385e-02 3.978906664997339249e-03 3.082930669188499451e-02 -1.936342008411884308e-02 -7.231397088617086411e-03 -4.623566195368766785e-02 -1.440796628594398499e-02 -9.859289973974227905e-03 5.520072765648365021e-03 5.807801615446805954e-03 -3.444268181920051575e-02 6.146104540675878525e-03 1.944031752645969391e-02 8.009428158402442932e-03 5.134343635290861130e-03 -1.484489813446998596e-02 -3.471659496426582336e-02 -4.112412221729755402e-03 -1.721050031483173370e-02 -6.268610060214996338e-02 1.281052827835083008e-02 -8.080363273620605469e-03 1.083863526582717896e-02 -4.530727164819836617e-04 -1.052937190979719162e-02 -1.860173977911472321e-02 -3.126910328865051270e-02 4.908647015690803528e-02 7.498996797949075699e-03 -7.873343303799629211e-03 1.331583037972450256e-02 5.018423125147819519e-02 -3.881077095866203308e-02 -2.093290211632847786e-03 2.681979164481163025e-02 -2.225633338093757629e-02 -1.546068489551544189e-02 -7.371230982244014740e-03 -9.606934152543544769e-03 1.498239487409591675e-02 -4.841284535359591246e-04 -7.284312509000301361e-03 1.352016348391771317e-02 1.849510893225669861e-02 2.449350245296955109e-02 1.570919342339038849e-02 7.038124371320009232e-03 5.900434684008359909e-03 4.880886524915695190e-03 -1.440916582942008972e-02 1.938695320859551430e-03 5.473844334483146667e-02 -3.516564518213272095e-02 3.087421879172325134e-02 -7.923241704702377319e-03 2.650072425603866577e-02 5.392571911215782166e-03 -3.308909013867378235e-02 1.737401075661182404e-02 -2.015295438468456268e-02 3.905275091528892517e-02 1.082966197282075882e-02 1.384317874908447266e-02 -3.623328730463981628e-02 9.178801439702510834e-03 1.292325463145971298e-02 -1.862429641187191010e-02 -5.967017263174057007e-03 -4.387783352285623550e-03 -2.253240905702114105e-02 -9.141217917203903198e-03 6.669464055448770523e-03 -1.665957272052764893e-02 4.832904320210218430e-03 3.404787555336952209e-02 -2.354348078370094299e-02 2.113486640155315399e-02 -6.032254546880722046e-03 -1.815445907413959503e-02 -6.393581163138151169e-03 5.424565821886062622e-02 1.128095015883445740e-02 1.645837910473346710e-02 -4.131640307605266571e-04 3.133832477033138275e-03 1.480550784617662430e-02 -2.219950594007968903e-02 -2.552292495965957642e-02 2.049901057034730911e-03 9.085296653211116791e-03 6.788362748920917511e-03 -4.600507207214832306e-03 -3.850173015962354839e-06 -5.101941060274839401e-03 -4.477195814251899719e-02 -3.940099850296974182e-02 -3.785352036356925964e-02 -4.280026070773601532e-03 7.977816276252269745e-03 -2.108359523117542267e-02 7.429402787238359451e-03 -2.279009670019149780e-02 1.117729581892490387e-02 -5.715351086109876633e-03 1.478102803230285645e-02 1.816677278839051723e-03 3.033981099724769592e-02 -1.714842952787876129e-02 8.132340386509895325e-03 -1.097811153158545494e-03 1.565260440111160278e-02 -1.263676490634679794e-02 9.457576088607311249e-03 -5.624549835920333862e-02 1.190079376101493835e-02 -6.253393832594156265e-03
2.672502305358648300e-03 -2.642781939357519150e-03 7.047726213932037354e-02 3.215428069233894348e-02 -4.152993112802505493e-02 2.200618945062160492e-02 -3.856202960014343262e-02 -1.825550757348537445e-02 -3.147070854902267456e-02 -5.290119722485542297e-02 6.923247710801661015e-04 -8.573041297495365143e-03 -2.010742574930191040e-02 4.505613073706626892e-02 -2.788574621081352234e-02 -6.653431802988052368e-02 -3.950217738747596741e-02 3.993970807641744614e-03 -1.589733175933361053e-02 2.911639166995882988e-03 8.462787605822086334e-03 7.901308126747608185e-03 -7.540588732808828354e-03 2.967850863933563232e-02 -2.706440910696983337e-02 -1.870722696185112000e-02 3.190855681896209717e-02 2.403642609715461731e-02 -1.297603640705347061e-02 3.044782020151615143e-02 -9.241784922778606415e-03 -1.038349047303199768e-02 -1.489429548382759094e-02 -3.406578674912452698e-03 1.311150472611188889e-02 3.015865944325923920e-02 -3.715087659657001495e-03 2.023880183696746826e-02 5.214800126850605011e-03 -7.766894996166229248e-03 6.626752018928527832e-02 8.020622655749320984e-03 -3.059354843571782112e-03 2.001650631427764893e-02 3.017110936343669891e-02 1.864983513951301575e-02 -1.632065698504447937e-02 3.435220941901206970e-02 1.903479173779487610e-02 7.059277035295963287e-03 6.989036686718463898e-03 -3.482680395245552063e-02 3.811830887570977211e-03 -2.245685271918773651e-02 -1.334271207451820374e-02 2.510009217076003551e-04 -3.581022471189498901e-02 -2.153251320123672485e-03 2.277499437332153320e-02 -3.575342893600463867e-02 -1.797694526612758636e-02 -1.842736091930419207e-04 -4.592698533087968826e-03 -1.174779701977968216e-02 2.876251470297574997e-03 5.403305590152740479e-02 2.605256438255310059e-02 9.059143252670764923e-03 -9.633351117372512817e-03 -1.116449199616909027e-02 6.554378196597099304e-03 2.146421559154987335e-02 -7.281916681677103043e-03 -1.715228892862796783e-02 -3.751146048307418823e-02 -6.453778594732284546e-02 -1.412751525640487671e-02 -4.537741467356681824e-02 7.684029638767242432e-02 2.231182716786861420e-02 -1.403160113841295242e-02 -2.531117573380470276e-02 8.423335850238800049e-03 3.701585577800869942e-03 -6.486352533102035522e-02 1.442274544388055801e-02 -9.407098987139761448e-04 -2.526952186599373817e-03 -1.608834601938724518e-02 -4.748766496777534485e-02 -2.911130199208855629e-03 -5.714349914342164993e-03 -4.026335082016885281e-04 2.826708368957042694e-02 6.785587966442108154e-02 1.710462849587202072e-03 -1.306909229606389999e-02 3.735704720020294189e-02 -5.985585507005453110e-03 -2.548468112945556641e-02 1.111627966165542603e-01 -5.053802579641342163e-02 8.243337273597717285e-03 -7.996137440204620361e-02 -3.438113257288932800e-02 7.412135135382413864e-03 -1.972658559679985046e-03 -2.751313149929046631e-03 3.031826764345169067e-02 4.317944869399070740e-03 -3.664534538984298706e-02 3.582130186259746552e-03 -1.358438096940517426e-02 -1.916081761009991169e-03 -3.382270410656929016e-02 -1.431021490134298801e-03 -3.165753558278083801e-02 -3.137447312474250793e-02 -6.677133589982986450e-02 -8.313728868961334229e-02 -6.122278422117233276e-02 3.963048011064529419e-02 -4.211095348000526428e-02 -5.274134129285812378e-02 -1.614240743219852448e-02 2.693965472280979156e-02 2.904038876295089722e-02 1.207628566771745682e-02 2.578296512365341187e-02 2.017488004639744759e-03 2.368055656552314758e-02 -7.068746723234653473e-03 -4.150836169719696045e-02 2.825775928795337677e-02 5.088719353079795837e-02 7.757399231195449829e-03 -8.334600180387496948e-02 -2.178494818508625031e-02 -4.958119243383407593e-03 1.747836731374263763e-02 -5.487203970551490784e-02 -8.993566967546939850e-03 -9.118421934545040131e-03 -1.201767660677433014e-02 1.636306941509246826e-02 -2.193664549849927425e-04 -5.716605577617883682e-03 1.300191972404718399e-02 3.112405911087989807e-02 4.109288007020950317e-02 1.394301652908325195e-02 4.080387949943542480e-02 -3.461868967860937119e-03 1.206732541322708130e-02 1.238660328090190887e-02 1.570258662104606628e-02 -2.592416480183601379e-02 -4.814158007502555847e-02 2.978928387165069580e-02 -5.148730054497718811e-02 5.146731436252593994e-02 4.438920691609382629e-02 -5.413285456597805023e-03 -3.282550722360610962e-02 6.007118523120880127e-02 2.073310501873493195e-02 -2.006291877478361130e-03 2.307119965553283691e-02 2.833685837686061859e-02 2.723434194922447205e-02 2.870440948754549026e-03 2.592099364846944809e-03 4.114565253257751465e-02 -5.812726914882659912e-03 5.922694690525531769e-03 -1.189547181129455566e-01 -8.486259728670120239e-02 1.947218738496303558e-02 -6.150231696665287018e-03 -6.798853725194931030e-02 5.944465100765228271e-02 -1.458385679870843887e-02 -2.611536299809813499e-03 4.787800833582878113e-02 4.978541284799575806e-02 3.907008096575737000e-03 1.296576857566833496e-02 -8.107840083539485931e-03 2.355732722207903862e-03 4.851803928613662720e-02 -1.582589000463485718e-02 9.414892643690109253e-03 4.128149896860122681e-02 -3.290790133178234100e-03 -2.346393465995788574e-02 7.014894485473632812e-02 -1.368197053670883179e-02 -2.001775801181793213e-02 1.280636154115200043e-02 -7.603218406438827515e-02 8.390660583972930908e-02 -6.403731647878885269e-03 7.287754118442535400e-02 5.041634198278188705e-03 1.378631871193647385e-02 4.586442559957504272e-02 -1.277802605181932449e-02 3.119630971923470497e-03 -1.314310822635889053e-02 5.411587283015251160e-02 4.396758601069450378e-02 3.655365109443664551e-02 -2.050664089620113373e-02 3.503765445202589035e-03 -1.789590716361999512e-02 2.501325868070125580e-02 -1.680528372526168823e-02 5.097794160246849060e-02 2.610903792083263397e-02 3.904354199767112732e-02 1.491942442953586578e-02 1.870702579617500305e-02 1.695500127971172333e-02 -1.155663747340440750e-03 -4.524776339530944824e-02 -8.890862762928009033e-02 7.979606837034225464e-02 3.336714580655097961e-02 1.250770501792430878e-02 8.486893028020858765e-03 -1.318622846156358719e-02 -2.592349238693714142e-02 5.006465315818786621e-02 -2.756479382514953613e-02 1.720982789993286133e-02 -1.432923367246985435e-03 3.378254175186157227e-02 -1.459938194602727890e-02 3.026939928531646729e-02 -4.734218865633010864e-02 2.575252146925777197e-04 5.128310620784759521e-02 -2.357378834858536720e-03 8.718164265155792236e-02 4.989100992679595947e-02 9.677140973508358002e-03 -3.454956039786338806e-02 4.250606149435043335e-02 -1.050027832388877869e-02 4.127757251262664795e-02 1.502801897004246712e-03 -2.143306471407413483e-02 1.115571823902428150e-03 1.993774622678756714e-02 2.483622543513774872e-02 -2.340862527489662170e-02 2.830996736884117126e-02 -9.338222444057464600e-03 4.239427391439676285e-03 1.256003882735967636e-02 -4.808616265654563904e-02 -2.872350066900253296e-02 2.421501092612743378e-02 -2.885822672396898270e-03 -3.664874657988548279e-02 -4.975955933332443237e-02 -2.751036919653415680e-02 -1.448771823197603226e-02 -7.154573686420917511e-03 2.953192032873630524e-02 2.115638926625251770e-02 -7.294087857007980347e-02 1.440199837088584900e-02 -4.385267198085784912e-02 -4.910079296678304672e-03 3.376926481723785400e-02 9.920077398419380188e-03 2.837728708982467651e-03 2.506189234554767609e-02 4.176358133554458618e-02 -1.141276303678750992e-02 -4.734479263424873352e-02 4.085748270153999329e-02 2.908262796700000763e-02 2.141524292528629303e-02 -3.076323866844177246e-02 -2.117370814085006714e-02 -1.811274560168385506e-03 -2.562915533781051636e-02 1.503200270235538483e-02 2.852916345000267029e-02 -2.712003886699676514e-02 9.180627530440688133e-04 -7.727304473519325256e-03 4.190362989902496338e-02 3.914886154234409332e-03 -1.735612191259860992e-02 2.244530431926250458e-02 1.397362630814313889e-02 -2.484667301177978516e-02
-1.929735019803047180e-02 -3.124657087028026581e-03 -9.616599418222904205e-03 -1.076097693294286728e-02 2.765147387981414795e-02 -1.244672201573848724e-02 -3.325252328068017960e-03 -5.489502800628542900e-04 -2.179810591042041779e-02 -3.020572289824485779e-02 -5.516280606389045715e-02 2.376733161509037018e-02 -1.046104636043310165e-02 -2.182336524128913879e-02 1.762915030121803284e-02 3.731507062911987305e-02 2.036455832421779633e-02 -3.984006121754646301e-03 -3.981034737080335617e-03 2.986022736877202988e-03 3.022707067430019379e-03 -5.762800574302673340e-03 1.497310306876897812e-02 -2.323983609676361084e-02 -1.969065703451633453e-02 -1.319108717143535614e-02 -3.490912169218063354e-02 -1.893863826990127563e-02 -9.978141169995069504e-04 -1.764445565640926361e-02 -1.193442847579717636e-02 2.288486808538436890e-02 6.105871871113777161e-03 -1.452907547354698181e-02 -7.760929409414529800e-03 -3.029180690646171570e-02 -9.393456391990184784e-03 -3.671509446576237679e-03 -5.931599996984004974e-03 -6.024797633290290833e-02 -2.080680243670940399e-02 -9.219574742019176483e-03 -1.816817931830883026e-02 -1.527587417513132095e-02 -2.623571082949638367e-02 -2.269359491765499115e-02 -3.336112201213836670e-02 1.027399953454732895e-02 -1.587055437266826630e-02 1.308348309248685837e-02 -5.181983485817909241e-02 4.770987667143344879e-03 -6.621738895773887634e-03 -1.653464697301387787e-02 3.783486410975456238e-02 -5.050115659832954407e-02 -2.808501571416854858e-02 1.493982132524251938e-02 -4.066320601850748062e-03 -8.800558745861053467e-03 -6.610477343201637268e-03 -9.991933591663837433e-03 -4.310551565140485764e-03 -3.379677236080169678e-02 1.126922084949910641e-03 2.689440734684467316e-02 -2.286250703036785126e-02 -8.691693656146526337e-03 7.572679314762353897e-03 1.794123277068138123e-02 -9.794935584068298340e-03 -1.354215666651725769e-02 2.898718230426311493e-03 7.960300892591476440e-03 2.530157938599586487e-02 2.453095279633998871e-02 -1.675997977145016193e-03 7.051353459246456623e-04 -2.752272225916385651e-02 -1.768345385789871216e-02 -1.518863439559936523e-02 -7.712319958955049515e-03 -5.430761352181434631e-02 1.580836065113544464e-02 4.952501133084297180e-02 -1.409016642719507217e-02 -4.227639175951480865e-03 4.964531213045120239e-02 -1.641249400563538074e-03 -2.500463649630546570e-02 -7.132517202990129590e-05 -7.807973027229309082e-02 -1.137692574411630630e-02 -3.520756214857101440e-02 -7.852682843804359436e-03 -1.598084531724452972e-02 5.385318305343389511e-03 2.395861409604549408e-02 7.694378029555082321e-03 6.007583346217870712e-03 -1.562752644531428814e-03 -1.934128999710083008e-02 -5.364157259464263916e-02 1.066188793629407883e-02 -5.179871246218681335e-02 2.429772540926933289e-02 -5.859580705873668194e-04 1.254847273230552673e-03 -3.078565746545791626e-02 -5.731221754103899002e-03 3.681311383843421936e-02 3.068041428923606873e-02 6.834923289716243744e-03 -3.555836156010627747e-02 -5.049594119191169739e-02 -9.715152904391288757e-03 2.117052674293518066e-02 -1.865288475528359413e-03 2.791229402646422386e-03 9.263215586543083191e-03 5.272600054740905762e-02 -4.116261750459671021e-02 3.306781500577926636e-02 1.207718811929225922e-02 1.624007360078394413e-03 -2.192106656730175018e-02 5.404388066381216049e-03 -5.558899720199406147e-04 1.059689093381166458e-02 -4.627292230725288391e-02 -1.232316065579652786e-02 3.333119209855794907e-03 -1.743586175143718719e-02 -9.756717830896377563e-03 1.272057835012674332e-02 -3.970311954617500305e-02 6.205803155899047852e-02 -1.381596829742193222e-02 -2.545098029077053070e-02 -3.036122210323810577e-02 -2.056132536381483078e-03 1.344283763319253922e-02 -3.105917479842901230e-03 -1.654858118854463100e-03 -1.838627271354198456e-02 2.545192837715148926e-02 -5.301411077380180359e-02 -2.829156257212162018e-02 -1.682724431157112122e-02 -3.035032190382480621e-03 9.580063488101586699e-05 -1.432257355190813541e-03 -4.314507916569709778e-02 -7.307042833417654037e-03 1.097119972109794617e-02 2.220917493104934692e-02 2.554284036159515381e-02 6.793733686208724976e-03 2.713302616029977798e-03 4.400914534926414490e-02 -5.418062210083007812e-03 -1.616431958973407745e-02 -3.129572421312332153e-02 5.110817030072212219e-03 -3.841020399704575539e-03 1.067701820284128189e-02 -2.097370848059654236e-02 2.463587187230587006e-02 -4.680790472775697708e-03 1.584106497466564178e-02 1.946191862225532532e-02 -2.444840222597122192e-02 3.309325501322746277e-02 -2.470210008323192596e-02 6.762255448848009109e-03 4.174861311912536621e-02 4.861381277441978455e-02 -7.846514694392681122e-03 -3.157090023159980774e-02 5.157748609781265259e-02 3.614051267504692078e-02 2.027582749724388123e-02 -2.688360959291458130e-02 -6.788038462400436401e-02 -2.533901110291481018e-02 -3.761716187000274658e-02 -5.308637395501136780e-02 -1.950343511998653412e-02 -1.940901391208171844e-02 -1.506854780018329620e-02 -4.381724074482917786e-02 5.322697106748819351e-03 -1.902001723647117615e-02 -2.057116944342851639e-03 3.617661073803901672e-02 4.010872915387153625e-03 -1.304917968809604645e-02 7.708515040576457977e-04 3.136923536658287048e-02 -3.898481372743844986e-03 2.799165435135364532e-02 -3.934762440621852875e-03 5.964521318674087524e-03 -1.399528328329324722e-02 1.773250289261341095e-03 -6.142801791429519653e-02 -2.446336671710014343e-02 -1.592632150277495384e-03 3.401125594973564148e-02 -3.801008686423301697e-02 -1.094186212867498398e-02 8.920603431761264801e-03 3.585013560950756073e-03 7.984615862369537354e-03 1.744133047759532928e-02 1.408482436090707779e-03 -9.958593174815177917e-03 -1.011037640273571014e-02 1.836552098393440247e-02 -4.412724077701568604e-02 -2.421396225690841675e-02 -2.419936936348676682e-03 -2.611382678151130676e-02 -1.611636951565742493e-02 -3.338821115903556347e-04 2.783231437206268311e-02 -4.309512302279472351e-02 2.217518910765647888e-02 -4.541013389825820923e-02 3.757655248045921326e-02 3.025382198393344879e-02 -1.638492336496710777e-03 -6.059074401855468750e-02 -2.785821445286273956e-02 -2.622941322624683380e-02 2.667034743353724480e-03 -9.324434213340282440e-03 -3.622411983087658882e-03 9.506678208708763123e-03 4.444820433855056763e-02 -1.353198569267988205e-02 -8.315509557723999023e-02 -1.811066269874572754e-02 -3.168017044663429260e-02 1.959400717169046402e-03 2.456795796751976013e-02 6.729426793754100800e-03 5.464117508381605148e-03 4.991258960217237473e-03 -4.961628466844558716e-02 -9.753212332725524902e-03 7.286573294550180435e-03 2.646612934768199921e-02 1.296529429964721203e-03 7.107749581336975098e-03 -9.377690963447093964e-03 2.169877290725708008e-02 1.768586691468954086e-03 -4.105996806174516678e-03 -6.118328124284744263e-02 8.031059056520462036e-03 -4.752748459577560425e-02 -3.404871746897697449e-02 -5.495899915695190430e-02 1.685435324907302856e-02 6.042670458555221558e-02 3.567232051864266396e-03 1.194920670241117477e-02 3.220512298867106438e-03 -1.412904728204011917e-02 -2.374351769685745239e-02 6.831721961498260498e-02 3.797522746026515961e-03 1.082996279001235962e-02 -2.787427417933940887e-02 -1.619383506476879120e-02 4.347394220530986786e-03 1.752907223999500275e-02 -3.016657195985317230e-02 -3.204767778515815735e-02 -2.959162369370460510e-02 -3.603644296526908875e-02 -1.671540923416614532e-02 2.406565658748149872e-02 3.281664103269577026e-03 1.590712927281856537e-02 -1.943494006991386414e-02 -1.107423566281795502e-02 1.559753436595201492e-03 -2.080503292381763458e-02 -1.093512866646051407e-02 2.151404879987239838e-02 1.722151529975235462e-03 1.668436569161713123e-03 -5.214626342058181763e-02 -2.078013494610786438e-02 -2.415327169001102448e-02 -6.412548571825027466e-02 1.429194957017898560e-02 -2.167119178920984268e-03
-3.466758877038955688e-02 5.557825788855552673e-04 4.212635569274425507e-03 -2.136252261698246002e-02 5.929812788963317871e-02 2.807033434510231018e-02 -1.801818795502185822e-02 -1.916022785007953644e-02 7.515958976000547409e-03 -1.867166720330715179e-02 -2.875459007918834686e-02 3.175240382552146912e-02 -5.541423335671424866e-02 -2.168173715472221375e-02 7.961445488035678864e-03 -4.223680123686790466e-03 3.010331280529499054e-02 -1.226051989942789078e-02 2.875589206814765930e-02 4.826609417796134949e-02 2.038850943790748715e-04 -6.450538989156484604e-03 -5.643249955028295517e-03 -3.567552566528320312e-02 -4.475745931267738342e-02 -3.228561952710151672e-02 1.831955462694168091e-02 5.441880319267511368e-03 9.111264953389763832e-04 3.405813872814178467e-02 5.932618677616119385e-02 1.740594627335667610e-03 5.579475313425064087e-03 3.325866162776947021e-02 6.122345477342605591e-02 -1.548578590154647827e-02 -2.667133882641792297e-02 -3.514676168560981750e-02 -1.279547344893217087e-02 -7.107296586036682129e-02 2.329354360699653625e-02 7.734888931736350060e-04 2.872819826006889343e-02 -2.313939295709133148e-02 4.597430583089590073e-03 -2.769075706601142883e-02 -2.891869656741619110e-02 -4.888839274644851685e-02 1.366861816495656967e-02 7.366084493696689606e-03 2.624307014048099518e-02 -7.201579213142395020e-02 -2.842105925083160400e-02 -4.719953518360853195e-03 -1.354910898953676224e-03 3.827298805117607117e-02 -4.391215369105339050e-02 3.491505980491638184e-02 6.422606762498617172e-03 -1.049334276467561722e-02 -4.450461361557245255e-03 4.803606495261192322e-02 2.524964511394500732e-02 -4.591917246580123901e-02 6.985938176512718201e-03 5.363316833972930908e-02 2.780606970191001892e-02 1.331614982336759567e-02 -1.367250573821365833e-03 -2.155432477593421936e-02 2.150326967239379883e-02 -5.530217196792364120e-03 -4.550341109279543161e-04 4.999681841582059860e-03 -3.098963759839534760e-02 -2.685636468231678009e-02 6.406816653907299042e-03 1.109194289892911911e-02 -3.470477461814880371e-02 1.359639968723058701e-02 4.495793208479881287e-02 -1.208637282252311707e-02 -3.148438408970832825e-02 1.055948995053768158e-02 -1.785116828978061676e-02 3.576558455824851990e-02 1.135899964720010757e-02 2.865861915051937103e-02 1.426710630767047405e-03 -6.174077279865741730e-03 1.849372754804790020e-03 -4.145106673240661621e-02 1.994490623474121094e-02 -1.620546169579029083e-02 2.653731219470500946e-02 -2.013443224132061005e-02 3.289451822638511658e-02 1.782308705151081085e-02 -8.074188604950904846e-03 7.164639979600906372e-02 5.765176378190517426e-03 3.385180141776800156e-03 1.117970701307058334e-02 -1.206257287412881851e-02 -2.269943244755268097e-02 4.836326092481613159e-02 -2.578350901603698730e-02 -1.609977148473262787e-02 3.194039221853017807e-03 3.321034368127584457e-03 -3.570327907800674438e-02 2.344830660149455070e-03 4.325895756483078003e-02 4.785655532032251358e-03 3.828008100390434265e-02 9.197692386806011200e-03 -2.235010033473372459e-03 2.177789248526096344e-02 -2.718188054859638214e-02 -3.323324490338563919e-03 -1.903425343334674835e-02 3.638973832130432129e-02 -1.469848211854696274e-02 2.272928133606910706e-02 1.463347673416137695e-02 -3.214345127344131470e-02 -3.037306666374206543e-02 -7.166467607021331787e-03 3.798815235495567322e-02 -3.562102839350700378e-02 2.163569256663322449e-02 1.196596678346395493e-02 4.601642861962318420e-02 6.304258946329355240e-03 -2.998282574117183685e-02 4.931135475635528564e-02 -2.494277618825435638e-02 -3.433528915047645569e-02 -4.012696910649538040e-03 2.060486935079097748e-02 -4.793677013367414474e-03 3.815264627337455750e-02 -9.389569051563739777e-03 -2.500595524907112122e-02 -3.991612792015075684e-02 -1.186396460980176926e-02 -1.024327799677848816e-02 8.666483312845230103e-02 -2.564590238034725189e-02 4.427536914590746164e-04 -2.061613649129867554e-02 7.978975772857666016e-02 -2.275246195495128632e-02 -8.364709094166755676e-03 4.175987094640731812e-03 -3.535268455743789673e-02 8.230823092162609100e-03 -2.446995349600911140e-03 3.647433593869209290e-02 2.807746455073356628e-02 1.912938989698886871e-02 -9.176117018796503544e-04 -2.897363528609275818e-02 2.597702667117118835e-02 -6.193470209836959839e-02 -4.672619048506021500e-03 -2.961265621706843376e-03 -2.313075773417949677e-02 9.181397035717964172e-03 3.021376579999923706e-02 4.129732027649879456e-02 3.456388413906097412e-02 5.226810276508331299e-02 1.934390701353549957e-02 -2.158831432461738586e-02 3.097681794315576553e-03 6.097241304814815521e-03 1.526209898293018341e-02 1.658136770129203796e-02 3.059940971434116364e-02 4.790513589978218079e-02 7.289640139788389206e-03 -4.253808408975601196e-02 -2.430464886128902435e-02 3.624048084020614624e-02 -2.309677191078662872e-02 6.331513822078704834e-02 1.512251608073711395e-02 1.377181336283683777e-02 -5.521537363529205322e-02 1.718545518815517426e-02 8.069411851465702057e-04 2.215755172073841095e-02 -1.674229837954044342e-02 -7.485745102167129517e-02 1.331447437405586243e-02 2.093203552067279816e-02 -5.505429580807685852e-03 5.018424987792968750e-02 4.857661575078964233e-02 -2.809289470314979553e-02 -1.778545416891574860e-02 3.002240322530269623e-02 1.972186006605625153e-02 4.126226529479026794e-02 -4.581760987639427185e-02 5.808597803115844727e-02 -1.428369339555501938e-02 4.160153493285179138e-02 2.461778372526168823e-02 -3.951123449951410294e-03 1.395380031317472458e-02 -2.182091958820819855e-02 -6.492554675787687302e-03 1.402210036758333445e-04 -1.063060201704502106e-02 -1.411593519151210785e-02 2.367508597671985626e-02 3.384431358426809311e-03 -2.239549160003662109e-02 -4.028880037367343903e-03 -3.229640051722526550e-02 2.922321297228336334e-02 1.021296996623277664e-02 2.635435946285724640e-02 -3.836790472269058228e-02 3.700257837772369385e-02 2.230767533183097839e-02 9.652121923863887787e-03 5.115243047475814819e-02 1.221676822751760483e-02 1.587805896997451782e-02 -2.733158133924007416e-02 -4.507449641823768616e-02 -5.809751898050308228e-02 1.856407709419727325e-02 6.194110214710235596e-02 -5.320256575942039490e-02 1.834697276353836060e-02 4.027495160698890686e-02 -1.096384949050843716e-03 6.237191706895828247e-02 3.516203165054321289e-02 -6.050208583474159241e-02 4.866594821214675903e-02 -2.608753740787506104e-02 1.924865134060382843e-02 -1.496242173016071320e-02 -1.250164932571351528e-03 1.475180312991142273e-02 -2.767203003168106079e-02 2.494587004184722900e-02 5.319018964655697346e-04 -5.229303985834121704e-02 -3.632127493619918823e-02 1.377876102924346924e-02 4.627344384789466858e-02 2.597828209400177002e-02 2.354265376925468445e-02 4.518179595470428467e-02 -1.460434636101126671e-03 -4.274031147360801697e-02 -1.254435162991285324e-02 -8.593419566750526428e-03 2.184904925525188446e-02 1.756498217582702637e-02 -2.572893910109996796e-02 2.478414587676525116e-02 2.177039394155144691e-03 1.715428009629249573e-02 5.033943429589271545e-02 -4.718527197837829590e-02 -7.467106916010379791e-03 5.632958374917507172e-03 9.123163297772407532e-03 9.697248227894306183e-03 2.743905223906040192e-02 -1.751076779328286648e-03 1.516687124967575073e-02 -2.915902622044086456e-02 -5.782936140894889832e-02 -5.606234446167945862e-02 7.970454171299934387e-03 5.894102901220321655e-02 3.958410769701004028e-02 4.801781848073005676e-02 -4.104975238442420959e-02 2.561664767563343048e-02 -2.172316610813140869e-02 -1.575404219329357147e-02 1.510173827409744263e-02 -4.566148295998573303e-02 1.490142848342657089e-02 9.015472605824470520e-03 2.733675949275493622e-02 -4.291226714849472046e-02 -1.442980719730257988e-03 -5.145431961864233017e-03 1.818914097384549677e-05 1.625572517514228821e-02
