2.673201030120253563e-03 -1.562414020299911499e-01 -1.958619058132171631e-01 -3.144427016377449036e-02 7.994727790355682373e-02 1.186675429344177246e-01 2.454684525728225708e-01 -4.672358557581901550e-02 -4.074350744485855103e-02 -2.658930122852325439e-01 -2.381737232208251953e-01 -2.389042638242244720e-02
-9.702903032302856445e-02 -1.308830678462982178e-01 -8.282860368490219116e-02 -8.570108562707901001e-03 2.602469921112060547e-02 1.874918788671493530e-01 -1.067022010684013367e-01 -5.220378190279006958e-02 -3.310579434037208557e-02 1.528185606002807617e-01 -2.571006119251251221e-01 -2.046005129814147949e-01
-1.109525263309478760e-01 1.717253215610980988e-02 2.542507462203502655e-02 -1.437189709395170212e-02 -2.279299311339855194e-02 -4.212832450866699219e-02 -3.556260168552398682e-01 -7.844302803277969360e-02 1.643622107803821564e-02 3.834824636578559875e-02 1.062981188297271729e-01 5.918497219681739807e-02
-8.354977518320083618e-02 -3.600928187370300293e-02 -1.805722415447235107e-01 -8.059460669755935669e-02 2.092304266989231110e-02 -6.493111699819564819e-02 -1.139303073287010193e-01 -7.307694852352142334e-02 9.146966785192489624e-02 -3.179083466529846191e-01 6.869144737720489502e-02 -2.443288713693618774e-01
-4.795884341001510620e-02 -1.249965429306030273e-01 -2.519788444042205811e-01 -6.331667304039001465e-02 8.872920274734497070e-02 -1.185115873813629150e-01 -9.144054353237152100e-02 -9.606138616800308228e-02 1.567715257406234741e-01 5.580716952681541443e-02 -1.525403857231140137e-01 -7.975018769502639771e-02
-2.575832605361938477e-01 -2.309516072273254395e-01 -1.330741792917251587e-01 -5.095985252410173416e-03 1.817976981401443481e-01 -9.732744842767715454e-02 4.382907971739768982e-02 -4.223909601569175720e-02 1.963534057140350342e-01 -2.106586098670959473e-02 -1.152832433581352234e-01 -6.153213605284690857e-02
-9.317293018102645874e-02 -1.907327957451343536e-02 -4.707074910402297974e-02 -1.792865246534347534e-02 -5.802251026034355164e-02 -9.526348672807216644e-03 1.912324875593185425e-01 -1.852742396295070648e-02 7.269354164600372314e-02 -5.254057049751281738e-02 1.963438652455806732e-02 -1.009757667779922485e-01
5.233998969197273254e-02 -1.936996430158615112e-01 3.235020861029624939e-02 -9.006924927234649658e-02 -1.342391520738601685e-01 4.271990805864334106e-02 1.694487221539020538e-02 -3.238784894347190857e-02 -3.024129755795001984e-02 -2.259356975555419922e-01 1.260700821876525879e-01 7.781033962965011597e-02
-4.068994894623756409e-02 -7.084794342517852783e-02 -8.617734909057617188e-02 -1.133569888770580292e-02 7.551992684602737427e-02 2.605262398719787598e-01 3.652933984994888306e-02 -1.407543942332267761e-02 -8.958221226930618286e-02 -5.045801773667335510e-02 -4.201802238821983337e-02 -4.585185647010803223e-02
1.192913725972175598e-01 1.435313224792480469e-01 1.799177229404449463e-01 -3.277692571282386780e-02 -2.103361487388610840e-01 -8.199714869260787964e-02 -1.462378352880477905e-01 -3.152311220765113831e-02 -5.995221063494682312e-02 -4.965983680449426174e-04 -1.260679066181182861e-01 -7.102073729038238525e-02
-9.445052593946456909e-03 1.462378650903701782e-01 2.175840139389038086e-01 -1.798186637461185455e-02 2.261890284717082977e-02 1.061222776770591736e-01 1.132225058972835541e-02 -3.981110081076622009e-02 -2.559075504541397095e-02 -2.174661457538604736e-01 -2.915140092372894287e-01 -1.327047646045684814e-01
2.393422871828079224e-01 1.642436832189559937e-01 2.021340131759643555e-01 -5.243343487381935120e-02 2.076715929433703423e-03 5.221507325768470764e-02 -1.163055375218391418e-01 -1.003950554877519608e-02 -9.725332260131835938e-02 1.830739551223814487e-03 1.268124282360076904e-01 4.638084396719932556e-02
-2.805967330932617188e-01 -6.698161363601684570e-03 1.983191519975662231e-01 -3.387962281703948975e-02 6.192588713020086288e-03 5.427474901080131531e-02 -4.104580730199813843e-02 -5.073660612106323242e-02 5.204342305660247803e-02 -2.949160337448120117e-01 1.175684854388237000e-01 4.228808358311653137e-02
-8.295466005802154541e-02 -6.184333562850952148e-02 -4.818915948271751404e-02 -9.957853704690933228e-02 1.680039614439010620e-01 -1.836658269166946411e-02 2.265270650386810303e-01 -4.311439767479896545e-02 1.004950478672981262e-01 6.964682787656784058e-02 -7.596635073423385620e-02 -1.987771503627300262e-02
7.761390414088964462e-03 1.255589351058006287e-02 3.027062304317951202e-02 -4.732960835099220276e-02 -8.601047843694686890e-02 -2.289107590913772583e-01 -9.278269857168197632e-02 -3.740396350622177124e-02 -1.599840521812438965e-01 2.408494986593723297e-02 -5.539926886558532715e-02 2.158180028200149536e-01
-8.806546777486801147e-02 -1.338430643081665039e-01 -1.526144146919250488e-01 -3.667964041233062744e-02 1.790530383586883545e-01 3.504092106595635414e-03 1.142208278179168701e-01 -4.442667216062545776e-02 -2.288308292627334595e-01 -9.871851652860641479e-03 -2.232366241514682770e-03 3.310931921005249023e-01
-6.588574615307152271e-04 1.319638080894947052e-02 -6.596425548195838928e-03 -5.529485177248716354e-03 -3.329163417220115662e-02 -6.193071603775024414e-02 -2.783675212413072586e-03 -5.668855272233486176e-03 9.480986744165420532e-03 1.286693004658445716e-04 2.528109587728977203e-03 -4.289603792130947113e-03
3.563677147030830383e-02 -1.208676397800445557e-01 1.976095372810959816e-04 -3.471069037914276123e-02 -1.624722927808761597e-01 1.021527498960494995e-02 -1.440297514200210571e-01 -2.505999989807605743e-02 6.460610032081604004e-02 -3.597886115312576294e-02 -2.665005251765251160e-02 -1.506724487990140915e-02
-4.209516197443008423e-02 -9.668954461812973022e-02 -8.424308151006698608e-02 -5.734446272253990173e-02 -6.453251838684082031e-02 -1.009097993373870850e-01 -1.859590858221054077e-01 -5.956389755010604858e-02 1.191404312849044800e-01 -1.512946784496307373e-01 -1.457037627696990967e-01 -1.104840636253356934e-01
1.754492968320846558e-01 -3.316935035400092602e-04 -2.115352898836135864e-01 -9.521392732858657837e-02 -1.382251679897308350e-01 -2.203877866268157959e-01 1.240727528929710388e-01 -7.700739800930023193e-02 -5.387852713465690613e-02 4.609533771872520447e-02 2.110132202506065369e-02 7.344727963209152222e-02
-1.387953907251358032e-01 -3.821513615548610687e-03 -2.609477341175079346e-01 2.421723119914531708e-02 -2.176079005002975464e-01 -9.760042279958724976e-02 2.524085044860839844e-01 -5.115861818194389343e-02 -1.915084421634674072e-01 1.317136287689208984e-01 3.004078939557075500e-02 1.436252146959304810e-01
-8.109951019287109375e-02 1.190402195788919926e-03 -1.371554136276245117e-01 3.825476020574569702e-02 -9.588496387004852295e-02 -1.201777253299951553e-02 -9.195483289659023285e-03 -3.435988724231719971e-02 -6.350622326135635376e-02 -7.366694509983062744e-02 1.049788948148488998e-02 2.123422175645828247e-02
1.758312433958053589e-02 -3.140708059072494507e-02 -2.367821931838989258e-01 1.007729955017566681e-02 3.586845844984054565e-02 8.095704019069671631e-02 1.130658388137817383e-01 7.496268488466739655e-03 -2.583633065223693848e-01 7.962325215339660645e-02 -1.831566244363784790e-01 -1.277890801429748535e-01
-1.894192025065422058e-02 -2.488547749817371368e-02 1.245559379458427429e-01 1.500279176980257034e-03 -1.961233839392662048e-02 1.354410201311111450e-01 -5.550941079854965210e-02 3.167358785867691040e-02 -3.384910225868225098e-01 -5.751122161746025085e-02 -1.691967844963073730e-01 2.661201357841491699e-02
-2.047001756727695465e-02 -3.674562275409698486e-02 -1.635547131299972534e-01 -2.934362506493926048e-03 -3.727143863216042519e-03 1.836438104510307312e-02 -1.581052243709564209e-01 -4.253704845905303955e-02 7.856111973524093628e-02 -1.900652945041656494e-01 1.822002530097961426e-01 2.524174936115741730e-02
-9.075771272182464600e-02 -6.719418615102767944e-02 -6.542674452066421509e-02 -7.749044150114059448e-02 -2.678022719919681549e-02 -1.842339634895324707e-01 -5.244077742099761963e-02 -6.057431176304817200e-02 8.346114307641983032e-02 1.338282972574234009e-01 1.921093277633190155e-02 -2.294627130031585693e-01
6.259258836507797241e-02 -5.344441533088684082e-02 -1.664180457592010498e-01 -6.872293353080749512e-02 7.011317461729049683e-02 -9.400983154773712158e-02 -3.486784920096397400e-02 -5.789652839303016663e-02 1.536668688058853149e-01 -4.259857833385467529e-01 7.054011523723602295e-02 -4.995348677039146423e-02
-2.259863764047622681e-01 1.159578338265419006e-01 5.793209746479988098e-02 -8.438041806221008301e-02 1.860983669757843018e-01 6.976486742496490479e-02 -7.170807570219039917e-02 -5.510531365871429443e-02 -1.364786457270383835e-02 -6.500504910945892334e-02 -6.213234364986419678e-02 1.480135023593902588e-01
3.787920251488685608e-02 3.405750915408134460e-02 4.724906291812658310e-03 -9.334887377917766571e-03 -9.191137738525867462e-03 -5.128565430641174316e-02 -4.398463293910026550e-02 -1.087225135415792465e-02 -1.714933514595031738e-01 1.970766484737396240e-02 -7.514942903071641922e-03 3.812251240015029907e-02
-1.768627017736434937e-01 -9.785372018814086914e-02 6.039615347981452942e-02 -5.124765913933515549e-03 -1.103704571723937988e-01 3.157055974006652832e-01 -3.336652368307113647e-02 -3.477536514401435852e-02 -7.626492995768785477e-03 -2.277084290981292725e-01 -3.324696794152259827e-02 4.073045775294303894e-02
-1.454737484455108643e-01 5.843237042427062988e-02 -3.003892675042152405e-02 -3.719644248485565186e-02 -3.892128542065620422e-02 1.286176890134811401e-01 2.425801903009414673e-01 -4.046575725078582764e-02 -2.006595581769943237e-01 -2.407422959804534912e-01 9.838382154703140259e-02 -4.622537642717361450e-02
1.842817962169647217e-01 2.220737002789974213e-02 2.030998915433883667e-01 -2.341114357113838196e-02 -5.240931361913681030e-02 1.782943010330200195e-01 -1.279668882489204407e-02 -1.900076121091842651e-02 -1.645302474498748779e-01 -1.323494315147399902e-01 -6.744015961885452271e-02 -6.871012598276138306e-02
-9.298459626734256744e-03 -5.129427881911396980e-04 7.169958553276956081e-04 -8.919161336962133646e-05 2.165611367672681808e-03 3.124257782474160194e-04 -4.497392801567912102e-04 -2.414985792711377144e-04 2.329164650291204453e-03 2.899827086366713047e-04 -8.528441539965569973e-04 7.368522696197032928e-03
-2.913544513285160065e-02 -4.776791110634803772e-02 -1.026125103235244751e-01 -2.115722931921482086e-02 -1.710615307092666626e-01 8.170019835233688354e-02 7.202289998531341553e-02 -1.859655231237411499e-02 -2.144248336553573608e-01 -1.199670508503913879e-01 -4.612166061997413635e-02 2.447967417538166046e-02
4.912300035357475281e-02 -1.741030663251876831e-01 -1.133663281798362732e-01 -6.990586966276168823e-02 5.282552167773246765e-02 2.628636360168457031e-01 -1.915384270250797272e-02 -6.090028956532478333e-02 -6.473670154809951782e-02 -5.706600844860076904e-02 -4.931213706731796265e-02 4.542947933077812195e-02
-7.840484380722045898e-02 -1.203886717557907104e-01 -6.599789857864379883e-02 -4.255332797765731812e-02 -1.776965707540512085e-01 -7.088203728199005127e-02 -8.815032988786697388e-02 -3.797481954097747803e-02 -5.074895918369293213e-02 -1.422646641731262207e-01 -4.596228152513504028e-02 8.362778276205062866e-02
-1.568485200405120850e-01 -2.278754301369190216e-02 4.863336682319641113e-02 -2.426047809422016144e-02 1.201305612921714783e-01 1.835138797760009766e-01 -1.371101848781108856e-02 -2.424294874072074890e-02 -7.248127460479736328e-02 -6.068724393844604492e-02 2.493928521871566772e-01 1.700545661151409149e-03
-8.567542582750320435e-02 1.751296035945415497e-02 6.866947561502456665e-02 -6.320983916521072388e-02 -1.130859926342964172e-01 1.860372126102447510e-01 -5.370687693357467651e-02 -6.096048653125762939e-02 5.702978000044822693e-03 -1.724516153335571289e-01 -1.898512095212936401e-01 -2.470553815364837646e-01
-1.403227895498275757e-01 -3.438344970345497131e-02 -5.397413298487663269e-02 -6.229554489254951477e-02 -1.039394214749336243e-01 -3.195096552371978760e-02 1.675732433795928955e-02 -4.804188013076782227e-02 -7.916928082704544067e-02 6.891020387411117554e-02 -2.159219980239868164e-01 -1.256536096334457397e-01
-2.353091090917587280e-01 -8.154466003179550171e-02 -1.588065773248672485e-01 -6.297536194324493408e-02 3.994454070925712585e-02 -2.314746677875518799e-01 -2.361103892326354980e-01 -5.784408003091812134e-02 -5.130334571003913879e-02 1.173308268189430237e-01 5.386530235409736633e-02 1.739296466112136841e-01
-1.249317266047000885e-02 -7.209430634975433350e-02 -1.096812039613723755e-01 -1.164930313825607300e-02 1.418172419071197510e-01 3.048709630966186523e-01 -4.264546185731887817e-02 -1.792986690998077393e-02 -7.620526105165481567e-02 -3.326378390192985535e-02 -9.287080913782119751e-02 -4.399483650922775269e-02
1.551267970353364944e-02 -2.074389718472957611e-03 -1.135954260826110840e-02 -6.711168587207794189e-02 1.788411103188991547e-02 -1.624317169189453125e-01 2.261768281459808350e-01 -4.130750894546508789e-02 2.528776526451110840e-01 6.087578833103179932e-02 -2.446914650499820709e-02 -1.769940108060836792e-01
-6.770454347133636475e-02 -1.684504002332687378e-02 -5.404784809798002243e-03 -7.457656413316726685e-02 4.789035767316818237e-02 3.937473520636558533e-02 8.412737399339675903e-02 -4.847949370741844177e-02 1.202018037438392639e-01 -3.211728334426879883e-01 3.852879256010055542e-02 4.346211999654769897e-02
-1.084573045372962952e-01 4.261526279151439667e-03 5.401522293686866760e-02 -4.621957894414663315e-03 -1.392587088048458099e-02 -1.264674812555313110e-01 -1.286394149065017700e-01 -5.435543134808540344e-02 4.797697067260742188e-02 -4.044712483882904053e-01 -2.854246795177459717e-01 1.539095044136047363e-01
-1.546260565519332886e-01 4.808431491255760193e-02 -1.004400849342346191e-01 -6.648574024438858032e-02 -1.812635064125061035e-01 -1.583278179168701172e-01 -2.272625714540481567e-01 -5.953055992722511292e-02 3.705339133739471436e-02 4.968867823481559753e-02 -8.351690322160720825e-02 3.110083751380443573e-03
-1.415882408618927002e-01 -8.081114292144775391e-02 -8.435720205307006836e-02 4.948685690760612488e-02 -5.626015737652778625e-02 -2.239328473806381226e-01 -3.739698603749275208e-02 1.461090520024299622e-02 1.287569552659988403e-01 -6.888716667890548706e-02 1.562980413436889648e-01 1.181364879012107849e-01
-1.519803516566753387e-02 9.352265298366546631e-02 8.350311219692230225e-02 -2.233679592609405518e-02 1.662279218435287476e-01 -8.925855904817581177e-02 -7.738164812326431274e-02 -2.477258816361427307e-02 -5.494185537099838257e-02 8.202203363180160522e-02 2.679371833801269531e-01 -7.867334038019180298e-02
-8.926258236169815063e-02 2.398406621068716049e-03 -4.635329544544219971e-02 -2.483196929097175598e-02 1.828840076923370361e-01 5.972252786159515381e-02 -9.349008649587631226e-02 -2.382006309926509857e-02 -1.374906767159700394e-02 -1.348097622394561768e-01 4.047500342130661011e-02 -1.184647437185049057e-02
1.043702214956283569e-01 1.458657383918762207e-01 7.896392047405242920e-02 -1.464330218732357025e-02 6.282465159893035889e-02 -1.306647658348083496e-01 1.157120317220687866e-01 -1.994574069976806641e-02 -1.423602998256683350e-01 -1.401024907827377319e-01 2.504809387028217316e-02 -1.034311950206756592e-01
-1.914527826011180878e-02 -1.800972670316696167e-01 -8.961971849203109741e-02 -5.038862302899360657e-02 -1.274124085903167725e-01 7.170626893639564514e-03 -6.706562638282775879e-02 -5.550902709364891052e-02 1.230698265135288239e-02 6.164345145225524902e-02 -6.271698512136936188e-03 -2.584046125411987305e-02
-2.692822515964508057e-01 -1.047933176159858704e-01 1.060910802334547043e-02 -8.722503483295440674e-02 -3.093625903129577637e-01 -1.493733972311019897e-01 -1.811768673360347748e-02 -8.267605304718017578e-02 1.580797694623470306e-02 6.550715863704681396e-02 -2.696594595909118652e-01 -1.325608193874359131e-01
4.766776040196418762e-02 1.392754763364791870e-01 1.876812726259231567e-01 -2.417660318315029144e-02 1.477548032999038696e-01 -8.580474555492401123e-02 -3.567197918891906738e-02 -2.115575782954692841e-02 8.932485245168209076e-03 -1.539418697357177734e-01 -1.218026783317327499e-02 -3.641043603420257568e-02
1.225493662059307098e-02 -1.673167347908020020e-01 -1.405913829803466797e-01 1.161104068160057068e-02 1.238393560051918030e-01 9.709869325160980225e-02 4.201407358050346375e-02 -5.412957444787025452e-02 -7.971572130918502808e-02 5.073475185781717300e-03 2.039082534611225128e-02 4.174383822828531265e-03
-3.293273597955703735e-02 1.657398231327533722e-02 5.817211791872978210e-02 -2.693128027021884918e-02 -6.679428741335868835e-03 -3.751895576715469360e-02 7.423398550599813461e-03 -1.766965165734291077e-02 -2.907376503571867943e-03 -4.552523139864206314e-03 2.818207489326596260e-03 -2.125787883996963501e-01
-2.271047607064247131e-02 5.595044046640396118e-02 2.654469013214111328e-02 2.459390321746468544e-03 -5.988317355513572693e-02 -3.632659465074539185e-02 -1.106250938028097153e-02 -4.285192582756280899e-03 -6.335116177797317505e-02 1.118901278823614120e-02 1.170973852276802063e-01 -3.876195847988128662e-02
-3.048055619001388550e-02 -1.163190528750419617e-01 -6.403850764036178589e-02 -4.254089668393135071e-02 2.488324418663978577e-02 1.226185187697410583e-01 -2.611144445836544037e-02 -2.425696700811386108e-02 -3.191890418529510498e-01 -1.171679571270942688e-01 9.979937225580215454e-02 1.409970521926879883e-01
3.675511106848716736e-02 5.770196765661239624e-02 -8.667572587728500366e-02 -4.061041027307510376e-02 3.777515515685081482e-02 -9.592949599027633667e-02 8.640973269939422607e-02 -4.001743718981742859e-02 -2.620693482458591461e-02 -5.404564738273620605e-02 -5.877768993377685547e-02 -2.894173562526702881e-01
1.478013247251510620e-01 2.227456569671630859e-01 1.433787792921066284e-01 -7.311801612377166748e-02 -1.593129895627498627e-02 1.600091308355331421e-01 -2.935343086719512939e-01 -4.012484475970268250e-02 -1.547180116176605225e-01 2.731715738773345947e-01 7.652231305837631226e-02 -5.831171199679374695e-02
2.433340251445770264e-01 -2.631226740777492523e-02 -4.404801130294799805e-02 -1.078529842197895050e-02 2.972331130877137184e-03 1.743441224098205566e-01 7.901363074779510498e-02 -2.001243829727172852e-02 -7.593394815921783447e-02 1.366928685456514359e-02 3.721079975366592407e-02 -6.460256874561309814e-02
-1.446214225143194199e-02 -4.382905736565589905e-02 -3.923343122005462646e-02 -1.468797959387302399e-02 -5.505077540874481201e-02 -3.701209649443626404e-02 1.884820754639804363e-03 -1.507227309048175812e-02 1.163343712687492371e-01 -1.044832989573478699e-01 1.124039292335510254e-01 5.430367588996887207e-02
-9.566663205623626709e-02 -1.682030707597732544e-01 6.486961990594863892e-02 -6.376959383487701416e-02 -1.831046044826507568e-01 1.751894317567348480e-02 -1.660430282354354858e-01 -7.572357356548309326e-02 1.208197623491287231e-01 2.311792969703674316e-01 -1.581396609544754028e-01 -1.109887212514877319e-01
1.185858100652694702e-01 -3.733274713158607483e-02 -2.778852880001068115e-01 -3.642590343952178955e-02 -1.474119722843170166e-01 -1.880560517311096191e-01 -9.558235108852386475e-02 -4.096505790948867798e-02 2.279111891984939575e-01 4.497615620493888855e-02 8.300521969795227051e-02 -6.169845536351203918e-02
-1.360582001507282257e-02 2.763859182596206665e-02 -3.128429874777793884e-02 3.272337489761412144e-04 6.478413194417953491e-02 -2.141053229570388794e-02 1.904325932264328003e-02 -1.020816247910261154e-02 -1.016483306884765625e-01 8.417923003435134888e-03 1.687115617096424103e-02 -1.068349033594131470e-01
-2.348974645137786865e-01 8.624075353145599365e-02 5.947898142039775848e-03 -4.102512262761592865e-03 4.444926232099533081e-02 -1.418594419956207275e-01 -5.874314531683921814e-02 -4.495459422469139099e-02 2.266018688678741455e-01 6.106876581907272339e-02 -3.389888256788253784e-02 -9.767815470695495605e-02
6.575011461973190308e-02 1.832397095859050751e-02 -2.150885388255119324e-02 -2.057477645576000214e-02 1.695284619927406311e-02 1.703557185828685760e-02 7.481699436902999878e-02 -1.862013898789882660e-02 1.296650618314743042e-01 1.945590227842330933e-02 -8.468686789274215698e-02 -9.361577779054641724e-02
-1.809605211019515991e-01 -3.419877588748931885e-02 4.512869194149971008e-02 -3.175759688019752502e-02 2.039358764886856079e-01 7.085435837507247925e-02 -9.247042238712310791e-03 -3.315787762403488159e-02 -1.181946843862533569e-01 5.091902613639831543e-02 -8.698710799217224121e-02 -4.264377430081367493e-02
1.735469847917556763e-01 4.181517288088798523e-03 -1.383611261844635010e-01 -2.834172360599040985e-02 9.345518797636032104e-02 -1.899391971528530121e-02 5.461677536368370056e-02 -3.562089055776596069e-02 5.323021113872528076e-02 -8.967254310846328735e-02 1.161689311265945435e-01 -1.968892961740493774e-01
8.920698612928390503e-02 -1.490460783243179321e-01 -4.814720153808593750e-02 -5.399386584758758545e-02 4.663159698247909546e-02 -5.337484925985336304e-02 -1.856432110071182251e-01 -2.279927395284175873e-02 1.804886609315872192e-01 9.863305091857910156e-02 -1.507779657840728760e-01 -1.953882128000259399e-01
-6.462082266807556152e-03 -6.877939403057098389e-02 -1.740158498287200928e-01 -9.563891589641571045e-02 6.718441843986511230e-02 8.193133771419525146e-02 -1.250217556953430176e-01 -6.459128111600875854e-02 5.735359713435173035e-02 1.924794353544712067e-02 4.718566313385963440e-02 4.132049903273582458e-02
-1.248045116662979126e-01 -1.433938294649124146e-01 -1.586553454399108887e-01 -5.682947114109992981e-02 1.915102154016494751e-01 6.015758961439132690e-02 2.244373038411140442e-02 -4.441538080573081970e-02 -9.997358173131942749e-02 -6.026716530323028564e-02 1.831653341650962830e-02 5.492402240633964539e-02
4.503282718360424042e-03 1.324836816638708115e-02 1.492415758548304439e-04 -1.239079236984252930e-02 -2.216825087089091539e-04 -1.368244439363479614e-01 2.272273227572441101e-02 -4.887393210083246231e-03 -1.367837283760309219e-02 -1.167311612516641617e-02 1.990419439971446991e-02 -2.466630004346370697e-02
-2.999471314251422882e-02 -4.816218465566635132e-02 6.501995772123336792e-02 -8.039215207099914551e-02 2.082984708249568939e-02 6.742247194051742554e-02 -1.132602170109748840e-01 -6.691911816596984863e-02 -7.119227945804595947e-02 2.086557596921920776e-01 -1.627184301614761353e-01 1.586244851350784302e-01
-8.640403300523757935e-02 4.995880275964736938e-02 -4.443695023655891418e-02 -2.199315838515758514e-02 7.257340848445892334e-02 -2.528497576713562012e-02 1.214423310011625290e-02 -2.345867827534675598e-02 -2.505612671375274658e-01 1.858007721602916718e-02 -7.539521157741546631e-02 -4.872902296483516693e-03
-1.974393725395202637e-01 2.697665244340896606e-02 -2.614550106227397919e-02 -3.592677041888237000e-02 -1.579326577484607697e-02 1.099379509687423706e-01 2.026392668485641479e-01 -4.049250483512878418e-02 -2.068575024604797363e-01 -8.491976559162139893e-02 -3.542869389057159424e-01 1.007668767124414444e-02
8.723133057355880737e-02 9.917854331433773041e-03 8.181810379028320312e-02 -3.294927254319190979e-02 3.786413371562957764e-02 5.794389173388481140e-02 -6.330358982086181641e-02 -3.392928093671798706e-02 8.374850451946258545e-02 -5.530831590294837952e-02 -1.438069641590118408e-01 -1.744901388883590698e-01
-1.132367625832557678e-01 -2.358950823545455933e-01 -1.693466752767562866e-01 -5.150195211172103882e-02 8.221572265028953552e-03 1.857040226459503174e-01 -7.374035567045211792e-02 -3.348429501056671143e-02 -1.496194154024124146e-01 1.980023533105850220e-01 1.108595952391624451e-01 4.849710967391729355e-03
1.033069491386413574e-01 6.058652885258197784e-03 7.676784694194793701e-02 -3.036266192793846130e-02 -6.104343384504318237e-02 -1.415894180536270142e-01 1.560392826795578003e-01 -3.282034397125244141e-02 -2.106953114271163940e-01 1.676741242408752441e-01 -2.053892463445663452e-01 -6.509554386138916016e-02
-2.739195944741368294e-03 -5.549554899334907532e-02 -4.315011203289031982e-02 -2.377941273152828217e-02 3.885668143630027771e-02 2.057253196835517883e-02 1.485342439264059067e-02 -2.149286493659019470e-02 1.853523701429367065e-01 -4.546865448355674744e-02 -2.983895316720008850e-02 -1.047373414039611816e-01
-1.465436071157455444e-01 -6.070058420300483704e-02 -2.894815616309642792e-02 -3.056882321834564209e-02 -1.156771481037139893e-01 -2.032533846795558929e-02 -5.875105410814285278e-02 -2.915017306804656982e-02 -4.041042178869247437e-03 -9.187913686037063599e-02 7.824359089136123657e-02 -1.000521406531333923e-01
1.359870731830596924e-01 1.372548639774322510e-01 -3.721050173044204712e-02 -1.584720239043235779e-02 -1.269121840596199036e-02 -1.202792897820472717e-01 -4.110529273748397827e-02 -1.738372072577476501e-02 -1.692478656768798828e-01 1.378161013126373291e-01 -6.377761252224445343e-03 -5.269465968012809753e-02
1.462278813123703003e-01 -9.108173102140426636e-02 9.874052554368972778e-02 -3.904689103364944458e-02 -2.577388286590576172e-01 -8.311795443296432495e-02 -7.150936126708984375e-02 -3.646857663989067078e-02 -9.799148142337799072e-02 2.429241687059402466e-01 -6.054446473717689514e-02 5.247147008776664734e-02
-1.526474654674530029e-01 -9.192896634340286255e-02 -9.635502845048904419e-02 -3.096607141196727753e-02 1.471636295318603516e-01 9.034432470798492432e-03 4.193991050124168396e-02 -3.386445716023445129e-02 -1.444139778614044189e-01 3.446710994467139244e-03 3.479657322168350220e-02 1.559139043092727661e-01
2.649259939789772034e-02 -4.310862347483634949e-02 -1.259528994560241699e-01 -7.520518451929092407e-02 1.919134259223937988e-01 4.582093283534049988e-02 -2.214046567678451538e-01 -3.709830716252326965e-02 3.495583683252334595e-02 -9.921897202730178833e-02 2.072985172271728516e-01 2.658708766102790833e-02
-1.441681534051895142e-01 -1.611588299274444580e-01 6.091288477182388306e-02 -5.797344073653221130e-02 -1.274577975273132324e-01 -1.412680447101593018e-01 -1.493817418813705444e-01 -8.616675436496734619e-02 4.600077867507934570e-02 2.167068049311637878e-02 -1.512071788311004639e-01 1.361073404550552368e-01
-1.396326161921024323e-02 -1.764213889837265015e-01 -1.438026726245880127e-01 -4.935197159647941589e-02 -3.084895014762878418e-02 2.187752425670623779e-01 2.919950336217880249e-02 -3.632178157567977905e-02 -1.695744544267654419e-01 -1.577862352132797241e-01 1.340978220105171204e-02 7.812159508466720581e-02
-6.574416160583496094e-02 5.875563994050025940e-02 -2.387131601572036743e-01 -8.252736181020736694e-02 1.400365084409713745e-01 -5.314759165048599243e-02 -9.738208353519439697e-02 -4.292868077754974365e-02 7.334139943122863770e-02 -2.175412178039550781e-01 -2.439313568174839020e-02 7.355801016092300415e-02
7.062772661447525024e-02 1.514296419918537140e-02 -8.425886929035186768e-02 -5.648412182927131653e-02 3.876929730176925659e-02 -9.387575089931488037e-02 -1.021549031138420105e-01 -4.130323603749275208e-02 1.344661861658096313e-01 -2.844101786613464355e-01 -1.293934136629104614e-01 -6.566897034645080566e-02
1.183864995837211609e-01 6.686166673898696899e-02 -1.140195056796073914e-01 -3.822245821356773376e-02 1.101386621594429016e-01 3.211968345567584038e-03 -3.986430168151855469e-02 -2.668920718133449554e-02 -7.877284288406372070e-02 -2.138534095138311386e-03 -4.053373634815216064e-02 -1.500074416399002075e-01
1.119151264429092407e-01 -1.881618946790695190e-01 4.030255228281021118e-02 -5.155731365084648132e-02 -4.409477412700653076e-01 7.544296234846115112e-02 -6.398847792297601700e-03 -6.713300943374633789e-02 -5.094893276691436768e-02 3.208710625767707825e-02 -6.815309077501296997e-02 -2.019064575433731079e-01
3.471774607896804810e-02 -4.242973774671554565e-02 7.233677059412002563e-02 -3.033429197967052460e-02 -1.282629072666168213e-01 2.531879246234893799e-01 -2.505757659673690796e-02 -3.675896674394607544e-02 -1.383210656058508903e-05 1.363760139793157578e-02 3.100282326340675354e-02 -8.235364221036434174e-03
6.348655372858047485e-02 -8.345361799001693726e-02 -2.516814693808555603e-02 2.669567614793777466e-02 9.563122689723968506e-02 -8.796925097703933716e-02 -2.004564367234706879e-02 -2.471411973237991333e-02 -2.957856655120849609e-02 1.259822696447372437e-01 -4.481717571616172791e-02 1.877273768186569214e-01
1.930191814899444580e-01 -7.738538831472396851e-02 6.852410733699798584e-02 3.531758906319737434e-03 6.302881240844726562e-02 7.930776476860046387e-02 -1.118724141269922256e-02 -3.370109200477600098e-02 6.486469507217407227e-02 -2.533406019210815430e-01 3.199861571192741394e-02 -5.521015822887420654e-02
4.870311543345451355e-02 2.603089064359664917e-02 -4.090570379048585892e-03 1.266992464661598206e-02 6.803618278354406357e-03 8.154445141553878784e-02 -5.533774569630622864e-02 -1.398993917973712087e-04 1.096872985363006592e-02 -1.483701076358556747e-02 2.017351426184177399e-02 -7.745467871427536011e-02
5.884141102433204651e-02 -5.649484694004058838e-02 -6.635325402021408081e-02 -4.678371921181678772e-02 -1.127016320824623108e-01 4.313633218407630920e-02 -2.068040966987609863e-01 -1.841111481189727783e-02 1.272508203983306885e-01 1.117162406444549561e-01 1.667815148830413818e-01 -3.436292335391044617e-02
1.219298467040061951e-01 6.607429683208465576e-02 -2.546576969325542450e-02 -4.583876579999923706e-02 1.630273759365081787e-01 -9.110046550631523132e-03 -9.404877573251724243e-02 -4.230958595871925354e-02 5.212777853012084961e-02 6.145450845360755920e-02 1.654848605394363403e-01 -2.046957463026046753e-01
-9.051156789064407349e-02 1.455170959234237671e-01 8.926281705498695374e-03 -2.381892688572406769e-02 2.762786746025085449e-01 8.416139520704746246e-03 6.551610678434371948e-02 -2.667648904025554657e-02 -1.708211153745651245e-01 -7.169637829065322876e-02 2.676368504762649536e-02 2.720848470926284790e-02
-1.406920142471790314e-03 1.264176517724990845e-01 -7.600681483745574951e-02 -5.848845466971397400e-02 5.842482671141624451e-02 -1.557867676019668579e-01 -1.734454184770584106e-01 -3.353262692689895630e-02 -3.322416217997670174e-03 -9.831173717975616455e-02 1.199463456869125366e-01 1.996302455663681030e-01
-4.070634953677654266e-03 -4.589824005961418152e-02 -2.888881415128707886e-02 -3.556596487760543823e-02 2.485797926783561707e-02 -8.792509138584136963e-02 3.423938900232315063e-02 -1.558623369783163071e-02 2.284237742424011230e-01 -1.416622661054134369e-02 -3.440890461206436157e-02 -5.847597122192382812e-02
1.134906709194183350e-01 -1.503512263298034668e-01 -1.328391581773757935e-01 -7.498993724584579468e-02 -1.479430198669433594e-01 -1.317826807498931885e-01 -1.083875000476837158e-01 -7.879924029111862183e-02 6.928273290395736694e-02 -1.987699605524539948e-02 2.971437014639377594e-02 1.628628373146057129e-02
-1.790150403976440430e-01 4.139281809329986572e-02 1.734421215951442719e-02 -6.889954954385757446e-02 2.000321298837661743e-01 2.368364036083221436e-01 2.900017797946929932e-01 -5.777292698621749878e-02 -1.147841885685920715e-01 -3.755383938550949097e-02 6.735068559646606445e-02 -2.103999704122543335e-01
2.786361798644065857e-02 -2.125935554504394531e-01 6.664000451564788818e-02 -4.405089840292930603e-02 -1.793984770774841309e-01 2.594478130340576172e-01 -2.555638551712036133e-02 -3.147502243518829346e-02 -5.447155237197875977e-02 -6.185615062713623047e-02 -9.328068047761917114e-02 -7.108937948942184448e-03
3.627087175846099854e-01 7.077706605195999146e-02 -2.054895833134651184e-02 3.362405672669410706e-02 -8.763097226619720459e-02 -1.376239303499460220e-02 6.073702499270439148e-02 -4.646456241607666016e-02 -7.395576685667037964e-02 -1.794689707458019257e-02 -1.376105546951293945e-01 -1.296489126980304718e-02
-1.911571472883224487e-01 -1.164482980966567993e-01 -2.666370570659637451e-01 -6.406534463167190552e-02 -1.635246574878692627e-01 -7.859487831592559814e-02 -2.824232876300811768e-01 -8.737486600875854492e-02 1.333964616060256958e-01 1.224867627024650574e-01 -1.907177567481994629e-01 -2.153789997100830078e-01
3.139449656009674072e-02 1.655010282993316650e-01 4.087130725383758545e-02 -3.965219482779502869e-03 -6.703978776931762695e-02 -4.587002098560333252e-02 1.525498088449239731e-02 -3.038407675921916962e-02 -1.754545122385025024e-01 8.991074282675981522e-04 -1.036696694791316986e-02 1.456080353818833828e-03
-3.871498629450798035e-02 5.335108726285398006e-04 -1.466081012040376663e-02 -1.152408774942159653e-02 2.474499121308326721e-02 -4.435478895902633667e-02 -2.810715325176715851e-02 -1.212771702557802200e-02 5.563751980662345886e-02 2.780455164611339569e-02 -4.045774787664413452e-02 -8.434163779020309448e-02
-4.047032445669174194e-02 1.358558423817157745e-02 4.917363822460174561e-02 -6.700410693883895874e-02 7.124745100736618042e-02 2.239123135805130005e-01 2.052781358361244202e-02 9.399416856467723846e-03 -1.189673691987991333e-01 -6.755121052265167236e-03 1.692895404994487762e-02 9.212506562471389771e-02
2.046796828508377075e-01 -8.690890669822692871e-02 -5.178806185722351074e-02 -3.530564159154891968e-02 -2.320212274789810181e-01 -7.958305627107620239e-02 2.864019572734832764e-01 -2.718476764857769012e-02 -1.311201453208923340e-01 1.004050150513648987e-01 3.672318160533905029e-02 -6.058630347251892090e-02
-5.123704299330711365e-02 -1.394138112664222717e-02 1.023114658892154694e-02 -2.175000309944152832e-02 -3.769527003169059753e-02 -1.396249234676361084e-01 -7.392217963933944702e-02 -2.228086255490779877e-02 -1.915107369422912598e-01 -3.557920455932617188e-02 -4.529444873332977295e-02 1.680991649627685547e-01
-4.072528332471847534e-02 -1.476853191852569580e-01 1.515251235105097294e-03 -6.487832218408584595e-02 -1.244629099965095520e-01 -6.755842268466949463e-02 -1.346844732761383057e-01 -5.343163385987281799e-02 6.699440628290176392e-02 1.403459757566452026e-01 -1.070566326379776001e-01 2.151390723884105682e-02
2.109113484621047974e-01 -8.612112700939178467e-02 -7.409276813268661499e-02 -1.642031781375408173e-02 -1.622981280088424683e-01 1.851874962449073792e-02 3.392031043767929077e-02 -3.741150721907615662e-02 3.729292377829551697e-02 2.404402196407318115e-02 6.675272434949874878e-02 -4.054640978574752808e-02
2.477051615715026855e-01 -6.861069798469543457e-02 -9.431510418653488159e-02 -4.367325454950332642e-02 5.590222030878067017e-02 -1.179970800876617432e-01 -9.154378622770309448e-02 -3.575095906853675842e-02 1.890093982219696045e-01 -2.170673944056034088e-02 -2.573412060737609863e-01 -1.394289284944534302e-01
-1.020481586456298828e-01 -6.359141319990158081e-02 5.443656817078590393e-02 -5.786723271012306213e-02 2.620205655694007874e-02 -8.824419975280761719e-02 -2.314305603504180908e-01 -5.624631047248840332e-02 9.025461226701736450e-02 3.326701372861862183e-02 -2.449917495250701904e-01 -1.175983715802431107e-02
-1.021264046430587769e-01 -1.657530963420867920e-01 -1.207813099026679993e-01 -4.755099117755889893e-02 -2.286960780620574951e-01 2.734787389636039734e-02 6.189401727169752121e-03 -4.264705628156661987e-02 -1.059694737195968628e-01 7.588221877813339233e-02 -2.311235964298248291e-01 1.482158806174993515e-02
-2.317808941006660461e-02 -2.051952332258224487e-01 -2.218978106975555420e-01 -6.456049531698226929e-02 -1.709718257188796997e-02 2.267895638942718506e-02 -1.281352341175079346e-01 -5.491594597697257996e-02 8.865772932767868042e-02 1.190796345472335815e-01 -4.074577242136001587e-02 -1.866719871759414673e-01
-7.762566208839416504e-02 -2.024710029363632202e-01 -2.035135626792907715e-01 -7.896889001131057739e-02 -4.317621141672134399e-02 -9.910382330417633057e-03 -2.896771728992462158e-01 -6.788115948438644409e-02 1.728814095258712769e-01 -8.643318712711334229e-02 -1.065366491675376892e-01 -2.962196245789527893e-02
6.822959985584020615e-03 2.024726755917072296e-02 -4.370660986751317978e-03 -7.962089963257312775e-03 2.328173071146011353e-02 -8.026915043592453003e-02 -2.543131820857524872e-02 -6.462665740400552750e-03 2.172754332423210144e-02 -2.542593702673912048e-02 -2.280841395258903503e-02 -6.153329834342002869e-02
1.944563686847686768e-01 -2.494599856436252594e-02 -1.275938153266906738e-01 -4.627471789717674255e-03 6.965014338493347168e-02 5.534518510103225708e-02 -1.110904142260551453e-01 -1.343342009931802750e-02 -1.250578612089157104e-01 -1.850085891783237457e-02 2.050511538982391357e-02 -3.380175679922103882e-02
9.405751712620258331e-03 1.780116744339466095e-02 3.427875414490699768e-02 -3.855440590996295214e-04 -6.447949260473251343e-02 -1.382667869329452515e-01 -1.565429940819740295e-02 -1.210613828152418137e-02 -2.678447216749191284e-02 -5.741377244703471661e-04 -4.903500434011220932e-03 5.525083467364311218e-02
-6.037918385118246078e-03 3.876578062772750854e-02 -6.454884260892868042e-02 -1.542037073522806168e-02 -1.307017449289560318e-02 -1.454793661832809448e-01 -5.542861297726631165e-02 -1.827546022832393646e-02 -1.521656066179275513e-01 -9.270419366657733917e-03 2.745125815272331238e-02 1.062559261918067932e-01
1.920902580022811890e-01 -2.828787267208099365e-02 -1.348132789134979248e-01 -2.882052399218082428e-02 -4.035861697047948837e-03 3.009930998086929321e-02 -1.548688858747482300e-01 -2.349169179797172546e-02 -1.511901896446943283e-02 9.134879335761070251e-03 -2.000617831945419312e-01 -2.625135891139507294e-02
-5.107147619128227234e-03 -8.075329661369323730e-02 4.495035484433174133e-02 -7.512050122022628784e-02 -1.438890118151903152e-02 -4.507288709282875061e-02 -2.671633064746856689e-01 -4.168261215090751648e-02 1.026418656110763550e-01 -1.212077587842941284e-02 -2.843321487307548523e-02 8.554466813802719116e-02
-5.642921477556228638e-02 1.137776393443346024e-02 -1.780896075069904327e-02 -8.493567258119583130e-02 -4.790487512946128845e-02 -4.879846423864364624e-02 -2.508649528026580811e-01 -7.682544738054275513e-02 1.371471583843231201e-01 -2.567659318447113037e-01 -6.931604351848363876e-03 -3.698399066925048828e-01
-2.586234174668788910e-02 -1.455724984407424927e-01 -4.642764851450920105e-02 -3.927963972091674805e-02 -8.791836351156234741e-02 -9.255525469779968262e-02 7.530138827860355377e-03 -2.923078835010528564e-02 -4.763453453779220581e-02 1.426901966333389282e-01 -6.480269879102706909e-02 1.531601101160049438e-01
-4.093629866838455200e-02 8.574613183736801147e-02 -2.041544206440448761e-02 -1.551025453954935074e-02 1.236205473542213440e-01 -3.414985537528991699e-02 -4.139310121536254883e-02 -1.338527444750070572e-02 3.954275324940681458e-02 3.052496165037155151e-02 -1.263054162263870239e-01 -8.088841289281845093e-02
4.679410159587860107e-02 -7.765606790781021118e-02 -1.505481079220771790e-02 -1.425753533840179443e-02 3.400932997465133667e-02 -9.792840480804443359e-02 1.674838364124298096e-01 -2.726437523961067200e-02 -3.014365434646606445e-01 -4.970075190067291260e-02 -1.231176219880580902e-02 7.282305508852005005e-02
1.911597251892089844e-01 -2.835685759782791138e-02 -1.043740585446357727e-01 -1.664830744266510010e-02 -2.092925757169723511e-01 -1.651639044284820557e-01 -3.473897278308868408e-02 -3.320805728435516357e-02 2.680981531739234924e-02 -6.288096308708190918e-02 -9.174550324678421021e-02 2.258994244039058685e-02
-1.098905224353075027e-02 3.636719193309545517e-03 -5.249365419149398804e-02 -7.066107355058193207e-03 2.836377918720245361e-01 2.340311706066131592e-01 -4.598254337906837463e-02 -4.549758136272430420e-02 -7.606934010982513428e-02 3.722058143466711044e-03 6.285793334245681763e-02 -3.442808985710144043e-03
-6.078831478953361511e-02 -5.997604876756668091e-02 -8.319496363401412964e-02 -2.374095655977725983e-02 7.574791461229324341e-02 -1.090415343642234802e-01 7.429072260856628418e-02 -2.304787933826446533e-02 1.034564375877380371e-01 -7.969151437282562256e-02 -4.792839288711547852e-02 4.516315460205078125e-02
1.969118118286132812e-01 -1.453932821750640869e-01 -7.448910176753997803e-02 -5.211925879120826721e-02 -1.131079252809286118e-02 1.234082207083702087e-01 1.854310631752014160e-01 -1.996899209916591644e-02 -1.828934252262115479e-01 -4.204988107085227966e-02 -7.860185950994491577e-02 5.648076906800270081e-02
1.265581250190734863e-01 9.307961910963058472e-02 -1.781615242362022400e-02 -6.994679570198059082e-02 -1.893205940723419189e-02 1.009301654994487762e-02 -1.219156980514526367e-01 -1.887666620314121246e-02 1.367397904396057129e-01 -3.825687766075134277e-01 9.629295766353607178e-02 -6.193379312753677368e-02
-1.248901151120662689e-02 -1.081595793366432190e-01 -1.150092929601669312e-01 -5.328745394945144653e-02 1.945044659078121185e-02 -6.968757603317499161e-03 -5.298621580004692078e-02 -3.540141507983207703e-02 -1.370908468961715698e-01 6.603631377220153809e-02 -1.294334679841995239e-01 1.248663812875747681e-01
-1.870304942131042480e-01 -4.847628623247146606e-02 -2.072067260742187500e-01 -3.972341865301132202e-02 -1.300731953233480453e-02 4.239825904369354248e-02 1.591059714555740356e-01 -4.249427467584609985e-02 -2.309744358062744141e-01 -4.645347222685813904e-02 -1.900606751441955566e-01 -2.086525782942771912e-03
-1.759002655744552612e-01 -1.736658066511154175e-01 -7.924867421388626099e-02 -6.761848926544189453e-02 -2.462220489978790283e-01 -1.119310855865478516e-01 -4.627259448170661926e-02 -5.888219550251960754e-02 1.226399689912796021e-01 -1.348842084407806396e-01 -5.287958309054374695e-02 -1.344799343496561050e-02
-2.797497622668743134e-02 -1.647909134626388550e-01 -1.664877980947494507e-01 -5.280897766351699829e-02 -2.121825516223907471e-01 6.601055711507797241e-02 -3.100338764488697052e-02 -4.646607860922813416e-02 -1.349103301763534546e-01 4.717459902167320251e-02 -2.346543371677398682e-01 -9.532992541790008545e-02
8.171460032463073730e-02 -6.678196042776107788e-02 -5.861862376332283020e-02 -4.020200669765472412e-02 -1.900489069521427155e-02 3.767046704888343811e-02 -4.762176051735877991e-02 -2.869455516338348389e-02 -1.904421001672744751e-01 4.010609686374664307e-01 -2.060352265834808350e-01 -2.034151107072830200e-01
-1.443750113248825073e-01 -7.888630032539367676e-02 -1.666170358657836914e-01 -5.738836526870727539e-02 -5.506950244307518005e-02 -2.166708260774612427e-01 -4.853460937738418579e-02 -5.223930627107620239e-02 9.646769613027572632e-02 1.178322061896324158e-01 1.569642424583435059e-01 -7.748764753341674805e-02
4.804614186286926270e-02 -7.019269466400146484e-02 -9.738509356975555420e-02 -3.246713429689407349e-02 1.159991547465324402e-01 -2.846404351294040680e-02 -2.429977953433990479e-01 -3.053339943289756775e-02 -9.253593161702156067e-03 9.124891459941864014e-02 2.637234330177307129e-01 9.175925515592098236e-04
2.415791302919387817e-01 9.545097500085830688e-02 1.137583032250404358e-01 -2.733220346271991730e-02 -1.533981859683990479e-01 -4.806104302406311035e-02 1.413989253342151642e-02 -2.815079875290393829e-02 -5.634760111570358276e-02 -2.633131742477416992e-01 -3.027594721061177552e-05 -4.204848781228065491e-02
3.536240756511688232e-02 9.502282738685607910e-02 1.334833949804306030e-01 -2.059006504714488983e-02 1.193788349628448486e-01 1.464570462703704834e-01 6.062361598014831543e-02 -2.660650387406349182e-02 -1.467576473951339722e-01 -3.085158951580524445e-02 1.302649378776550293e-01 5.034261383116245270e-03
1.184579208493232727e-01 -4.354744777083396912e-02 1.431484520435333252e-01 -6.198188662528991699e-02 -1.509057730436325073e-01 -1.060029789805412292e-01 -2.594227790832519531e-01 -4.096183180809020996e-02 2.739683166146278381e-02 -7.683739066123962402e-02 2.441192232072353363e-02 -2.959072031080722809e-02
1.936491229571402073e-03 8.719851030036807060e-04 -6.838946137577295303e-04 -1.185807559522800148e-04 -2.470301405992358923e-04 -7.234988734126091003e-04 4.474275745451450348e-03 -1.419918553438037634e-04 -1.196065801195800304e-03 -6.095704738982021809e-04 1.751848467392846942e-04 -1.229233806952834129e-03
2.096941918134689331e-01 -1.070604249835014343e-01 -2.239140868186950684e-02 -7.945454679429531097e-03 -8.479915559291839600e-02 -9.572657290846109390e-04 1.930464208126068115e-01 -5.221826210618019104e-02 -1.555825322866439819e-01 7.844373583793640137e-02 3.959412500262260437e-02 1.777071356773376465e-01
-1.108652651309967041e-01 1.060690805315971375e-01 -1.108711734414100647e-01 -7.906907796859741211e-02 -1.401986628770828247e-01 -2.298466712236404419e-01 -1.482813358306884766e-01 -5.982031673192977905e-02 2.818260341882705688e-02 -4.533593729138374329e-02 -9.026713669300079346e-02 9.180723130702972412e-02
-2.708354592323303223e-01 -6.421793252229690552e-02 -1.958507150411605835e-01 2.575710602104663849e-02 5.038193613290786743e-02 -1.002159193158149719e-01 -4.068886488676071167e-02 -3.824153915047645569e-02 5.564517527818679810e-02 -1.645831167697906494e-01 -1.160187721252441406e-01 1.240713372826576233e-01
-7.362373173236846924e-02 -8.218254894018173218e-02 -1.566475778818130493e-01 -2.541188895702362061e-02 5.458398908376693726e-02 3.217087686061859131e-01 1.790547557175159454e-02 -2.372812107205390930e-02 -1.433459520339965820e-01 -4.130042344331741333e-02 1.628225147724151611e-01 -6.072036549448966980e-02
1.281296312808990479e-01 -9.830527752637863159e-02 5.584496632218360901e-02 5.342961475253105164e-02 -9.287015348672866821e-02 2.247172035276889801e-02 -1.598008871078491211e-01 -3.842928633093833923e-02 8.391254395246505737e-02 -1.966245174407958984e-01 -1.021606102585792542e-01 -3.207715228199958801e-02
9.962476789951324463e-02 1.374275982379913330e-01 1.665803194046020508e-01 -1.448083110153675079e-02 5.896753445267677307e-02 -1.045571565628051758e-01 -1.158972829580307007e-01 -1.922808215022087097e-02 -1.070546507835388184e-01 4.682039096951484680e-02 1.320283114910125732e-01 -1.092079803347587585e-01
-5.684448033571243286e-02 3.482781350612640381e-02 -1.129823923110961914e-02 -2.088970690965652466e-02 3.215857222676277161e-02 -7.699771225452423096e-02 -1.499449089169502258e-02 -2.339003980159759521e-02 -2.693369388580322266e-01 -9.704128024168312550e-04 -3.614110872149467468e-02 3.660018742084503174e-02
-5.198646336793899536e-02 3.012007474899291992e-02 1.806791173294186592e-03 -1.592105254530906677e-02 1.095121167600154877e-02 -1.657070592045783997e-02 -5.449208989739418030e-02 -1.916479319334030151e-02 -2.349899262189865112e-01 6.760432571172714233e-02 -4.612530022859573364e-02 2.796488068997859955e-02
-7.682371884584426880e-02 -7.617366965860128403e-03 -2.866958826780319214e-02 -2.764496020972728729e-02 7.510406523942947388e-02 -1.281371712684631348e-01 -1.214388385415077209e-02 -2.996464259922504425e-02 8.423659950494766235e-02 1.664170622825622559e-01 -1.826000586152076721e-02 -1.732728630304336548e-01
-2.459311634302139282e-01 1.268766522407531738e-01 1.194086577743291855e-02 -5.288004875183105469e-02 9.627845883369445801e-02 -2.029639482498168945e-01 -7.354109734296798706e-02 -5.275142937898635864e-02 1.096016392111778259e-01 -3.617373481392860413e-02 -1.611710637807846069e-01 -8.500067889690399170e-02
-1.530605703592300415e-01 3.779909014701843262e-02 1.318804621696472168e-01 -4.967325180768966675e-02 -3.278563544154167175e-02 -1.324957758188247681e-01 2.207798659801483154e-01 -5.405647680163383484e-02 -2.495082765817642212e-01 -3.539274632930755615e-01 -7.789121568202972412e-02 1.381655782461166382e-01
-9.290496259927749634e-02 4.893063381314277649e-02 3.313969448208808899e-02 9.719274938106536865e-03 1.077595949172973633e-01 1.846459805965423584e-01 4.096841439604759216e-02 4.148970544338226318e-02 1.894872449338436127e-02 8.103011548519134521e-02 5.074702203273773193e-02 9.413848631083965302e-03
-2.087224572896957397e-01 9.525470435619354248e-02 -7.483246270567178726e-03 -9.078261256217956543e-02 -5.459742993116378784e-02 -2.162503004074096680e-01 -2.552101910114288330e-01 -8.454359322786331177e-02 1.597805917263031006e-01 -2.524541020393371582e-01 4.833829775452613831e-02 -1.599053591489791870e-01
-6.357566919177770615e-03 7.721480727195739746e-02 -1.563316583633422852e-02 2.130370959639549255e-02 4.393604397773742676e-02 4.133038688451051712e-03 -2.881235629320144653e-02 -4.613788798451423645e-03 -8.150544762611389160e-02 -2.281909435987472534e-02 4.502664133906364441e-02 -1.205572783946990967e-01
1.633425615727901459e-02 -5.523185431957244873e-02 -9.474966675043106079e-02 -2.891078358516097069e-03 -1.428796052932739258e-01 -1.068040430545806885e-01 -8.540742844343185425e-02 -3.543715551495552063e-02 1.033451482653617859e-01 6.469787657260894775e-02 -1.407130956649780273e-01 -8.067614398896694183e-03
1.167637407779693604e-01 9.164022654294967651e-02 2.743297517299652100e-01 -2.462177723646163940e-02 5.107867345213890076e-02 7.589197903871536255e-02 5.059508979320526123e-02 -2.667579986155033112e-02 -1.787217557430267334e-01 -7.402639091014862061e-02 2.043094635009765625e-01 -5.195362865924835205e-02
-2.367177046835422516e-02 4.208398610353469849e-02 2.592322975397109985e-02 -9.283817373216152191e-03 5.632463376969099045e-03 2.277052588760852814e-02 -3.984874486923217773e-02 -1.823658682405948639e-02 -2.793774008750915527e-01 6.827837787568569183e-03 -5.270000547170639038e-02 1.534268911927938461e-02
-1.090333163738250732e-01 -7.810114324092864990e-02 -1.001133918762207031e-01 -3.353883326053619385e-02 -1.578326374292373657e-01 -1.505470369011163712e-02 -7.819166034460067749e-02 -4.465962946414947510e-02 -8.054380118846893311e-02 -2.942571230232715607e-02 -3.073234856128692627e-01 3.206358551979064941e-01
-1.321374624967575073e-01 -5.085040628910064697e-02 -5.681442841887474060e-02 -5.097853764891624451e-02 1.737458817660808563e-02 -1.127737760543823242e-01 -1.027770787477493286e-01 -4.515939205884933472e-02 2.165974974632263184e-01 8.850227296352386475e-02 2.015942782163619995e-01 -4.177182167768478394e-02
2.899557054042816162e-01 3.692411817610263824e-03 5.203088372945785522e-02 -2.326871082186698914e-02 -1.887925527989864349e-02 1.455783993005752563e-01 -1.360769271850585938e-01 -4.868836142122745514e-03 -8.570563793182373047e-02 -1.029340773820877075e-01 3.983840718865394592e-02 9.986468404531478882e-02
1.029291972517967224e-01 -1.682159155607223511e-01 -9.528375416994094849e-02 -1.652764715254306793e-02 -7.192581146955490112e-02 1.557566076517105103e-01 -3.351995488628745079e-03 -2.657042443752288818e-02 -4.030263051390647888e-02 -1.075762584805488586e-01 -7.104612141847610474e-02 -4.214330576360225677e-03
-1.603535376489162445e-03 -8.765881066210567951e-04 -1.325266639469191432e-04 -3.536471517105038709e-13 1.987859839573502541e-03 -6.882910151034593582e-03 4.201406845822930336e-04 -9.212783496964551538e-15 -7.151106728997547179e-08 -5.468013114295899868e-04 -2.098208497045561671e-04 -9.530477225780487061e-03
-1.840134412050247192e-01 -7.660929858684539795e-02 -5.712350830435752869e-02 -6.383357942104339600e-02 5.462421849370002747e-02 -2.271813899278640747e-01 -1.921440511941909790e-01 -2.937749400734901428e-02 8.503022044897079468e-02 5.603045970201492310e-02 3.812345489859580994e-02 2.117606252431869507e-01
-8.189961314201354980e-03 -5.783848464488983154e-02 -1.694838106632232666e-01 -1.010631173849105835e-01 -1.335981786251068115e-01 -1.823739260435104370e-01 -2.570519149303436279e-01 -8.852273970842361450e-02 1.638617366552352905e-01 -8.853406459093093872e-02 9.289396554231643677e-02 -2.339528352022171021e-01
-2.102889865636825562e-01 -6.826674193143844604e-02 -6.354050338268280029e-02 -6.740738451480865479e-02 7.704078406095504761e-02 1.111520081758499146e-01 2.046437934041023254e-02 -5.167141929268836975e-02 -9.197847545146942139e-02 5.828524380922317505e-02 -2.116777151823043823e-01 -5.691101402044296265e-02
-2.005121586989844218e-06 1.294251639194499148e-08 -1.012846723824623041e-06 -7.156815939879379584e-08 -1.324749632658495102e-06 9.296937496401369572e-04 -6.980695161473704502e-06 -5.894737498124413833e-08 -4.367684232420288026e-05 2.336304987693438306e-06 2.869280478989821859e-06 5.302574936649762094e-05
-5.267110653221607208e-03 -1.043210830539464951e-02 -1.225858274847269058e-02 -4.962948616594076157e-03 -3.332219086587429047e-03 -2.209473028779029846e-02 -5.214733537286520004e-03 -4.843380302190780640e-03 5.860144272446632385e-02 -1.776510477066040039e-02 1.906145014800131321e-03 1.107596699148416519e-02
4.854265600442886353e-02 2.502621710300445557e-02 -1.920978352427482605e-02 -1.163961552083492279e-02 -5.012543871998786926e-02 -9.148099273443222046e-02 -2.186755277216434479e-02 -1.126254163682460785e-02 -4.092442244291305542e-02 1.229329183697700500e-01 6.787302345037460327e-02 -6.433691829442977905e-02
-1.754995621740818024e-02 2.013096958398818970e-02 -1.837390358559787273e-03 -1.079124677926301956e-02 2.006541937589645386e-02 -7.883273996412754059e-03 9.405031800270080566e-03 -1.133620180189609528e-02 1.299825310707092285e-02 -2.990239113569259644e-02 1.915649697184562683e-02 -1.432948857545852661e-01
-2.728759869933128357e-02 -3.869119286537170410e-02 -3.223292529582977295e-02 -1.427986007183790207e-02 2.948055230081081390e-02 -3.203758969902992249e-02 2.760346420109272003e-02 -1.387246418744325638e-02 1.311757564544677734e-01 6.529735866934061050e-03 -2.070032432675361633e-02 -6.648214161396026611e-02
3.987783566117286682e-02 -1.142962556332349777e-02 -1.327835768461227417e-01 -1.880155690014362335e-02 -1.526075303554534912e-01 2.834579907357692719e-02 -4.336401075124740601e-02 -3.325503319501876831e-02 1.566253602504730225e-02 4.134778305888175964e-02 2.870259247720241547e-02 -2.283914238214492798e-01
-4.770165309309959412e-02 -5.431541055440902710e-02 7.508185505867004395e-02 -6.841243803501129150e-02 -1.540907174348831177e-01 -7.520309090614318848e-02 -2.251754850149154663e-01 -6.032994389533996582e-02 3.377225995063781738e-02 7.799853384494781494e-02 -2.620179355144500732e-01 -1.879993081092834473e-01
-1.498763542622327805e-02 -1.491717156022787094e-02 -1.540154404938220978e-02 -1.841707155108451843e-02 -2.209061756730079651e-03 1.028110757470130920e-01 -1.565897837281227112e-02 -1.003174856305122375e-02 -1.860633194446563721e-01 1.599750965833663940e-01 7.020340301096439362e-03 -1.290727108716964722e-01
-8.024176955223083496e-02 -1.159446612000465393e-01 -2.245183438062667847e-01 -4.146308079361915588e-02 6.364975869655609131e-02 9.098148345947265625e-02 5.474934726953506470e-02 -3.845692798495292664e-02 -1.474021971225738525e-01 -4.739209264516830444e-02 -1.815873831510543823e-01 5.859358236193656921e-03
-8.447273820638656616e-02 -1.667131781578063965e-01 1.967282593250274658e-02 -7.794459909200668335e-02 9.313134849071502686e-02 -2.459649369120597839e-02 2.434791438281536102e-02 -4.256444424390792847e-02 3.007391095161437988e-01 -1.425059139728546143e-01 -2.604182362556457520e-01 3.037036769092082977e-02
4.382669553160667419e-02 -4.106470942497253418e-02 -3.904568403959274292e-02 -3.269190201535820961e-03 -1.608374295756220818e-03 -5.078390240669250488e-02 4.568765684962272644e-02 1.045374944806098938e-02 5.849991366267204285e-02 -9.107450023293495178e-03 -3.138166293501853943e-02 -9.172776341438293457e-02
3.230366110801696777e-01 -1.288308352231979370e-01 -1.663246303796768188e-01 -2.505290880799293518e-02 -4.656476154923439026e-02 -2.158377468585968018e-01 2.409392744302749634e-01 -3.276092186570167542e-02 -3.558612242341041565e-02 2.673356095328927040e-03 6.227881088852882385e-02 2.134740650653839111e-01
-2.026802897453308105e-01 5.742781329900026321e-03 1.387874186038970947e-01 -8.451373875141143799e-02 -2.989338934421539307e-01 -1.472153961658477783e-01 -6.652686744928359985e-02 -6.779321283102035522e-02 1.058153733611106873e-01 -1.966660171747207642e-01 7.418889552354812622e-02 -1.510705333203077316e-02
1.610065698623657227e-01 -1.603806577622890472e-02 -1.123560741543769836e-01 2.950004674494266510e-02 5.884376540780067444e-02 4.598226398229598999e-02 1.943583041429519653e-02 -2.579768002033233643e-02 2.581436187028884888e-02 -6.443541496992111206e-02 1.111096590757369995e-01 1.976702511310577393e-01
-1.015036776661872864e-01 1.302414014935493469e-02 5.422651767730712891e-02 -1.504866220057010651e-02 -1.537087373435497284e-02 -3.144706785678863525e-02 3.191959857940673828e-02 -1.760445907711982727e-02 -1.954430937767028809e-01 8.877804875373840332e-02 3.397835791110992432e-02 -1.047076880931854248e-01
1.554746180772781372e-01 -5.060534179210662842e-02 -1.559660304337739944e-02 -3.880818933248519897e-02 -2.032992839813232422e-01 -1.799356639385223389e-01 -1.156866326928138733e-01 -3.494784981012344360e-02 1.141577437520027161e-01 8.770696818828582764e-02 7.919771224260330200e-02 -1.050728112459182739e-01
2.168233841657638550e-01 1.494107097387313843e-01 1.552141457796096802e-01 -7.624907302670180798e-04 1.278735995292663574e-01 7.939176261425018311e-02 2.866097725927829742e-02 -3.273320570588111877e-02 -2.141720354557037354e-01 1.044164970517158508e-01 2.923475205898284912e-01 6.842164695262908936e-02
3.579257801175117493e-02 1.048688292503356934e-01 3.330706432461738586e-02 -2.703246660530567169e-02 -1.552999764680862427e-01 -7.631328422576189041e-03 -1.182686015963554382e-01 -3.045639581978321075e-02 -4.366223141551017761e-02 5.276253446936607361e-02 6.111615896224975586e-02 5.750505253672599792e-02
1.538586523383855820e-02 -9.760525077581405640e-03 -1.003221701830625534e-02 -7.119761314243078232e-03 6.045710179023444653e-04 -8.413852006196975708e-02 2.660951577126979828e-03 -1.508047454990446568e-03 1.786788110621273518e-03 -2.942403592169284821e-02 -4.128828644752502441e-03 -8.394191414117813110e-02
-7.431770861148834229e-02 -4.238992184400558472e-02 -1.013219878077507019e-01 -4.606647789478302002e-02 -9.725026786327362061e-02 8.584091812372207642e-02 -4.901381954550743103e-02 -4.212761297821998596e-02 -8.727477863430976868e-03 -2.209370583295822144e-01 -5.028439313173294067e-02 -1.541399210691452026e-01
1.430858578532934189e-02 2.715123072266578674e-02 3.491577226668596268e-03 -1.161005906760692596e-02 -6.267998833209276199e-03 -1.007587164640426636e-01 -3.614970669150352478e-02 -1.454390492290258408e-02 -1.086756959557533264e-01 1.643056795001029968e-02 9.409731626510620117e-02 -1.629738695919513702e-02
-8.390829712152481079e-02 -1.792103946208953857e-01 -1.424783319234848022e-01 -4.411660134792327881e-02 4.736679419875144958e-02 7.382221519947052002e-02 1.378832757472991943e-01 -3.981250151991844177e-02 -9.989748150110244751e-02 2.315198928117752075e-01 -6.952221691608428955e-02 -2.168989032506942749e-01
-2.444928511977195740e-02 3.361079469323158264e-02 6.125074997544288635e-02 -1.450985018163919449e-02 3.068709187209606171e-02 1.122883427888154984e-02 -4.160339012742042542e-02 -1.474073529243469238e-02 -8.278047293424606323e-02 6.249880790710449219e-02 -9.574922174215316772e-02 -6.506974995136260986e-02
-2.234445214271545410e-01 -8.106828480958938599e-02 4.400496982270851731e-05 -5.817934498190879822e-02 -1.394294500350952148e-01 4.070235416293144226e-02 -1.371063739061355591e-01 -7.316549867391586304e-02 1.102573052048683167e-01 -3.017454743385314941e-01 -1.587315350770950317e-01 1.450823247432708740e-01
-6.107104197144508362e-02 -8.617136627435684204e-02 -2.577537596225738525e-01 4.351627081632614136e-02 -3.544626012444496155e-02 1.483869850635528564e-01 -6.141898036003112793e-02 -4.776553064584732056e-02 -7.456842809915542603e-02 1.530703008174896240e-01 -1.835126280784606934e-01 5.031991750001907349e-02
-4.395305365324020386e-02 6.757456576451659203e-04 -7.423438131809234619e-02 -3.745976462960243225e-02 9.635654836893081665e-02 1.424344629049301147e-01 2.010389268398284912e-01 -2.354914136230945587e-02 -2.081769853830337524e-01 1.261279135942459106e-01 -1.027014758437871933e-02 7.402560114860534668e-02
-6.552986055612564087e-02 1.522215604782104492e-01 -1.056445464491844177e-01 -7.420182228088378906e-02 1.061618328094482422e-01 -2.178688719868659973e-02 1.313135474920272827e-01 -3.512567654252052307e-02 1.122569814324378967e-01 -5.303016304969787598e-02 -3.431528434157371521e-02 -3.428903594613075256e-02
2.156415581703186035e-01 5.587909370660781860e-03 -8.042529225349426270e-03 -3.532050177454948425e-02 -1.811460107564926147e-01 -3.379028290510177612e-02 3.480063378810882568e-02 -2.456455864012241364e-02 -3.189053013920783997e-02 7.925677299499511719e-02 1.567104905843734741e-01 -7.326210290193557739e-02
-1.462464183568954468e-01 -1.193655878305435181e-01 -8.726243674755096436e-02 -5.233679339289665222e-02 -1.426409482955932617e-01 -9.412440657615661621e-02 -5.007075518369674683e-02 -4.803905636072158813e-02 -1.174986809492111206e-01 -8.367378264665603638e-02 -1.683621406555175781e-01 2.196664363145828247e-01
2.213216274976730347e-01 8.711399137973785400e-02 2.012201845645904541e-01 -3.785419464111328125e-02 -4.331702739000320435e-02 -2.653791196644306183e-02 6.966589391231536865e-02 -2.862019650638103485e-02 -2.853252887725830078e-01 1.761169135570526123e-01 -7.669299095869064331e-02 -7.064932491630315781e-03
9.874574095010757446e-02 -8.901852369308471680e-02 1.211613230407238007e-02 -3.978660702705383301e-02 -6.920347362756729126e-02 -1.072964537888765335e-02 -1.711983382701873779e-01 -3.227677196264266968e-02 -4.815775901079177856e-02 1.790884435176849365e-01 7.151185721158981323e-02 -2.379292994737625122e-02
-5.278138443827629089e-02 -1.105684563517570496e-01 4.134472832083702087e-02 -1.230740249156951904e-01 -8.169847726821899414e-02 1.413136124610900879e-01 2.004832178354263306e-01 -5.086837336421012878e-02 -7.138108462095260620e-02 -1.581669896841049194e-01 -1.724886000156402588e-01 6.066576763987541199e-02
-1.899626106023788452e-03 9.724797680974006653e-03 -5.794463213533163071e-03 -1.474128477275371552e-02 -2.112968824803829193e-03 -3.628671914339065552e-02 1.125192735344171524e-02 -3.943280316889286041e-03 1.316881459206342697e-02 1.823425991460680962e-03 2.531348727643489838e-02 -8.791166357696056366e-03
-1.949942559003829956e-01 3.430340439081192017e-03 -6.737656146287918091e-02 1.264834962785243988e-02 1.287427097558975220e-01 1.336788088083267212e-01 -2.206984609365463257e-01 -2.331844344735145569e-02 2.280611693859100342e-01 -2.151709347963333130e-01 2.308026701211929321e-02 -8.554551005363464355e-02
1.668474972248077393e-01 3.696455433964729309e-02 -4.197617620229721069e-02 -1.091277226805686951e-02 -5.960448458790779114e-02 -1.045334860682487488e-01 5.917089805006980896e-02 -1.270604785531759262e-02 -1.228154003620147705e-01 -5.252478271722793579e-02 1.757811551215127110e-04 -6.596140563488006592e-02
-1.571647636592388153e-02 2.534599788486957550e-02 2.319968678057193756e-02 -1.893264241516590118e-02 -1.869484595954418182e-02 -1.033659204840660095e-01 -8.831021189689636230e-02 -1.982101611793041229e-02 -2.020864039659500122e-01 2.082998678088188171e-02 1.039276178926229477e-02 6.831935793161392212e-02
5.278870463371276855e-02 6.559032946825027466e-02 2.059143595397472382e-02 -4.435105621814727783e-02 1.200263127684593201e-01 4.807380586862564087e-02 2.354149818420410156e-01 -3.720933198928833008e-02 -3.824482858180999756e-02 -2.630301117897033691e-01 -1.623947322368621826e-01 2.072423510253429413e-02
-1.251362916082143784e-02 4.524737969040870667e-02 1.182765960693359375e-01 -2.637610770761966705e-02 -3.296017646789550781e-02 5.717120692133903503e-02 1.656912118196487427e-01 -2.129690721631050110e-02 -1.050132513046264648e-01 -1.569144427776336670e-01 -1.070983707904815674e-01 -1.012023165822029114e-01
9.693183004856109619e-02 -2.894945144653320312e-01 -4.785934835672378540e-02 -8.922839909791946411e-02 -3.210486471652984619e-01 -8.204555511474609375e-02 3.329293429851531982e-02 -7.744116336107254028e-02 2.455133199691772461e-01 6.878904998302459717e-02 -1.732801832258701324e-02 -1.797458715736865997e-02
1.056595668196678162e-01 -8.102907985448837280e-02 3.630682826042175293e-02 -1.536285690963268280e-02 -8.175258338451385498e-02 1.502920091152191162e-01 9.215280413627624512e-02 -2.293268032371997833e-02 -2.165698707103729248e-01 1.367583870887756348e-01 -8.448818325996398926e-02 -1.489071873947978020e-03
3.327479362487792969e-01 -4.560919478535652161e-02 -1.934672333300113678e-02 6.396425422281026840e-03 -4.948807880282402039e-02 5.750772356986999512e-02 7.829944044351577759e-02 -1.180468220263719559e-02 1.169481198303401470e-03 -1.423969715833663940e-01 -9.908268600702285767e-02 7.739407569169998169e-02
-1.456104964017868042e-01 7.721436768770217896e-02 -7.590177655220031738e-02 -3.599859401583671570e-02 -8.667528629302978516e-02 -2.010527253150939941e-01 -2.247418090701103210e-02 -3.748059272766113281e-02 -1.733326166868209839e-01 -1.103187128901481628e-01 -8.038994669914245605e-02 1.656720489263534546e-01
-7.263805717229843140e-02 6.367617100477218628e-02 -8.341670781373977661e-02 -5.892901122570037842e-02 -9.686944633722305298e-02 -3.189628720283508301e-01 -1.357288658618927002e-01 -5.476194620132446289e-02 1.695914119482040405e-01 -1.561174243688583374e-01 -1.264975313097238541e-02 -3.481516242027282715e-02
-4.053925871849060059e-01 8.083860389888286591e-03 2.035553604364395142e-01 -7.403305917978286743e-02 -3.217323869466781616e-02 -6.089477613568305969e-02 -1.601595878601074219e-01 -7.173892110586166382e-02 4.827872663736343384e-02 7.182677835226058960e-02 -2.850794792175292969e-01 -4.226065799593925476e-02
9.241344034671783447e-02 -2.120271027088165283e-01 -7.002206146717071533e-02 -1.063821315765380859e-01 8.303447067737579346e-02 1.410950422286987305e-01 -7.015980035066604614e-02 -2.126538380980491638e-02 -4.780352488160133362e-02 8.829147368669509888e-02 -2.056912332773208618e-01 1.009195819497108459e-01
1.598994135856628418e-01 1.234826445579528809e-01 1.470983773469924927e-01 -1.578710414469242096e-02 -2.212283574044704437e-02 -1.289436668157577515e-01 -1.086570248007774353e-01 -2.418734878301620483e-02 -1.856047958135604858e-01 -5.844397470355033875e-02 7.529649138450622559e-02 1.141877099871635437e-01
-9.560790657997131348e-02 -1.886462122201919556e-01 -9.569233655929565430e-02 -2.522783540189266205e-02 -3.813446685671806335e-02 1.401516944169998169e-01 9.721904993057250977e-02 -4.345027357339859009e-02 8.950624614953994751e-02 -1.782259792089462280e-01 7.502811402082443237e-02 -6.440538913011550903e-02
-1.150403451174497604e-02 -8.688515052199363708e-03 -2.202397445216774940e-03 -4.612528253346681595e-03 -2.954743430018424988e-02 1.093930448405444622e-03 -4.631266463547945023e-03 -2.072152681648731232e-03 -5.447430070489645004e-03 -1.258348952978849411e-02 2.245933003723621368e-02 7.687692996114492416e-03
-7.027050107717514038e-02 -1.767129302024841309e-01 -1.907679438591003418e-01 -6.249723583459854126e-02 -2.393512129783630371e-01 -1.272125691175460815e-01 -1.395726650953292847e-01 -5.128271132707595825e-02 -1.274875644594430923e-02 4.431838542222976685e-02 -3.175507858395576477e-02 -6.037944182753562927e-02
1.085065379738807678e-01 5.124686285853385925e-02 -1.514098793268203735e-01 -3.763994667679071426e-03 -1.661328524351119995e-01 -1.499576568603515625e-01 1.721291840076446533e-01 -2.988979779183864594e-02 -1.169196292757987976e-01 -1.553469002246856689e-01 -1.016574874520301819e-01 -5.235986039042472839e-02
3.435228392481803894e-02 4.110013321042060852e-02 -6.284830719232559204e-02 -2.744187414646148682e-02 -4.446709901094436646e-02 -1.853872686624526978e-01 -5.374345555901527405e-02 -2.467943727970123291e-02 5.159842595458030701e-02 -1.113820355385541916e-02 1.665139943361282349e-01 -3.156697750091552734e-02
1.699232012033462524e-01 -7.700780034065246582e-02 3.853308409452438354e-02 1.581723056733608246e-02 -1.852086861617863178e-03 2.106333225965499878e-01 -9.123758971691131592e-02 -1.270549185574054718e-02 -4.642813652753829956e-02 -5.540698021650314331e-02 1.106603816151618958e-02 -9.992594830691814423e-03
2.976790629327297211e-02 1.070045400410890579e-02 6.811036914587020874e-02 1.021170709282159805e-02 -4.042603820562362671e-02 -7.530550658702850342e-02 9.858487173914909363e-04 -2.722723968327045441e-02 -6.650438904762268066e-02 5.400617420673370361e-02 1.915027350187301636e-01 2.351230084896087646e-01
-4.996718466281890869e-02 -2.176526747643947601e-02 -4.900615289807319641e-02 -4.590642079710960388e-02 -1.963582634925842285e-01 -2.509021162986755371e-01 -2.232286036014556885e-01 -3.153485059738159180e-02 -2.759136632084846497e-02 -6.624700874090194702e-02 -2.509759739041328430e-02 1.325926035642623901e-01
-3.374825417995452881e-02 1.204431243240833282e-02 4.230087250471115112e-02 -1.190036628395318985e-02 -3.533306717872619629e-02 -4.867701977491378784e-02 -5.826807022094726562e-02 -1.479712594300508499e-02 -1.916472464799880981e-01 5.459307134151458740e-02 -1.959896273910999298e-02 -1.977862790226936340e-02
-4.104172065854072571e-02 1.961229555308818817e-02 7.991527207195758820e-03 -1.273283921182155609e-02 -8.449221961200237274e-03 -6.364784389734268188e-02 1.581628993153572083e-02 -4.583881702274084091e-03 1.950930431485176086e-02 -1.894006738439202309e-03 -2.875920385122299194e-03 -2.800596319139003754e-02
-1.665536686778068542e-02 1.174487289972603321e-03 -4.243236326146870852e-04 1.224846579134464264e-03 -5.676204455085098743e-04 1.740402169525623322e-02 -4.585357601172290742e-05 6.051284071872942150e-05 1.174356974661350250e-02 -4.528368299361318350e-05 2.326457062736153603e-03 -5.865639075636863708e-02
8.515074849128723145e-02 -9.048487246036529541e-02 -7.945201545953750610e-02 -6.641516834497451782e-02 6.833282765001058578e-03 6.852065771818161011e-02 -9.053422510623931885e-02 -6.912654638290405273e-02 1.333073675632476807e-01 -5.732723698019981384e-02 -5.935572553426027298e-03 -3.894140571355819702e-02
-5.501303821802139282e-02 -7.400012016296386719e-02 -4.672574624419212341e-02 -1.887002587318420410e-02 -7.300604879856109619e-02 1.579253524541854858e-01 -7.568484544754028320e-02 -2.190996520221233368e-02 -2.006652764976024628e-02 -1.961926184594631195e-02 2.463033348321914673e-01 1.107834465801715851e-02
8.945818245410919189e-02 9.955561719834804535e-03 1.022604852914810181e-01 -3.007259778678417206e-02 -1.589626967906951904e-01 3.308226168155670166e-01 -1.675080955028533936e-01 -2.473768964409828186e-02 -8.448900282382965088e-02 -2.666795253753662109e-02 -5.632265284657478333e-02 -6.557534635066986084e-02
-2.019616775214672089e-02 -1.392243653535842896e-01 -1.519728749990463257e-01 -5.199300870299339294e-02 8.825552463531494141e-02 1.525689195841550827e-02 -3.046093583106994629e-01 -6.156133487820625305e-02 1.252209842205047607e-01 3.185211494565010071e-02 2.486272305250167847e-01 -1.664652302861213684e-02
-5.784852057695388794e-02 1.659474335610866547e-02 -4.188687726855278015e-02 -3.011985309422016144e-02 -5.781162995845079422e-03 5.536647047847509384e-03 -7.132521830499172211e-03 -2.840343303978443146e-02 -3.593971207737922668e-02 1.550489570945501328e-02 -4.365411400794982910e-02 -1.990181803703308105e-01
-5.431127010797898169e-13 -6.107644183125899221e-19 -9.199890199669462994e-17 -1.530808896603704839e-17 -1.785575132846536905e-13 4.797304927980396150e-15 5.573050381327525145e-18 -8.504779890694611887e-18 -9.932864204875561411e-16 4.269520934713222360e-12 -5.511458099326520428e-18 4.285201669063098961e-07
1.903822273015975952e-01 -9.604725986719131470e-02 -4.898256435990333557e-02 -5.951911676675081253e-03 -5.771845579147338867e-02 9.544558823108673096e-02 2.758976630866527557e-02 -4.202374443411827087e-02 3.539815917611122131e-02 3.875069320201873779e-02 4.804655909538269043e-04 -1.153600066900253296e-01
-1.454808712005615234e-01 -6.007774546742439270e-02 5.634061992168426514e-03 -1.547692529857158661e-02 3.668017685413360596e-03 2.207656651735305786e-01 1.338377594947814941e-01 -7.754211127758026123e-02 -9.214737266302108765e-02 -1.565390639007091522e-02 -1.572098433971405029e-01 -6.066718325018882751e-02
-1.846295446157455444e-01 -8.149337768554687500e-02 -5.398285761475563049e-02 -3.590167313814163208e-02 -1.716739386320114136e-01 4.025314003229141235e-02 -1.703076809644699097e-01 -6.836286932229995728e-02 8.002938330173492432e-02 6.714430451393127441e-02 -2.859791740775108337e-02 7.857628166675567627e-02
-5.431756749749183655e-02 2.832434326410293579e-02 3.525631502270698547e-02 -1.324220467358827591e-02 4.520611092448234558e-02 2.555218040943145752e-01 5.372352898120880127e-02 -2.345132455229759216e-02 -1.919218748807907104e-01 -1.649930514395236969e-02 -9.678205847740173340e-02 -1.281017661094665527e-01
1.320625096559524536e-02 1.163408625870943069e-02 3.595527410507202148e-01 -1.450413744896650314e-02 2.488916553556919098e-02 6.880868971347808838e-02 -1.406405568122863770e-01 -2.315758913755416870e-02 -1.391014456748962402e-01 -6.827306002378463745e-03 -1.076595112681388855e-01 2.185964882373809814e-01
-3.794667124748229980e-02 7.035190612077713013e-02 1.785608194768428802e-02 -1.960555464029312134e-02 2.790495380759239197e-02 -1.473554372787475586e-01 2.799952216446399689e-02 -2.318642288446426392e-02 -1.385846585035324097e-01 6.719397008419036865e-02 6.173329055309295654e-02 -1.133882701396942139e-01
-1.943273842334747314e-01 -2.065308541059494019e-01 6.778348982334136963e-02 -8.381102979183197021e-02 -9.201402962207794189e-02 1.491030305624008179e-01 4.686893895268440247e-02 -5.334064364433288574e-02 2.971721813082695007e-02 2.396581470966339111e-01 -3.074093349277973175e-02 -2.467942684888839722e-01
-2.907040901482105255e-02 1.223167479038238525e-01 2.524995058774948120e-02 2.056883415207266808e-03 -1.330322772264480591e-01 1.189864054322242737e-02 5.227523297071456909e-02 -2.887492068111896515e-02 -2.036197334527969360e-01 -5.182303860783576965e-02 1.229844912886619568e-01 -5.227119103074073792e-02
-7.467459887266159058e-02 -1.962926611304283142e-02 -3.608399629592895508e-02 -5.016306042671203613e-02 -1.118855178356170654e-01 -3.511611521244049072e-01 1.123595423996448517e-02 -4.873663559556007385e-02 8.973012864589691162e-02 -6.376267224550247192e-02 -1.417165528982877731e-02 -7.944399118423461914e-02
4.546575713902711868e-03 -6.808879971504211426e-02 2.445951104164123535e-01 9.624263271689414978e-03 -1.779153198003768921e-01 3.724855184555053711e-02 -1.658437550067901611e-01 -2.503424137830734253e-02 -7.375670131295919418e-03 2.139078676700592041e-01 5.104011856019496918e-03 -1.409625355154275894e-02
3.908533602952957153e-02 -3.947581350803375244e-02 -2.075689733028411865e-01 -6.198794022202491760e-02 -7.662666589021682739e-02 1.904930323362350464e-01 1.959411203861236572e-01 -6.030664220452308655e-02 -8.551836758852005005e-02 -1.918725073337554932e-01 1.467265635728836060e-01 -7.130191475152969360e-02
-7.814729213714599609e-02 -1.372000761330127716e-02 1.632626205682754517e-01 -1.066118925809860229e-01 8.772671222686767578e-02 1.306638028472661972e-02 -8.865421265363693237e-02 -5.727691575884819031e-02 1.124380454421043396e-01 -2.853474318981170654e-01 1.221923753619194031e-01 8.642686903476715088e-02
-4.114368185400962830e-02 9.850391000509262085e-02 1.640924662351608276e-01 -3.505194187164306641e-02 -1.431858837604522705e-01 -2.134248241782188416e-02 -2.001179903745651245e-01 -2.915838919579982758e-02 -2.278329059481620789e-02 -1.503229886293411255e-01 -8.042891323566436768e-02 6.143187358975410461e-02
-2.387649752199649811e-02 1.346314698457717896e-01 1.154415234923362732e-01 8.851378224790096283e-03 -2.414789423346519470e-02 3.531925082206726074e-01 -8.849554508924484253e-02 -2.083765901625156403e-02 -8.688668161630630493e-02 -9.500668942928314209e-02 3.080536844208836555e-03 -7.043807208538055420e-02
6.546314805746078491e-02 -1.909597665071487427e-01 5.960825365036725998e-03 -4.663816187530755997e-03 -1.449985504150390625e-01 1.308986544609069824e-01 3.717209398746490479e-02 -2.971212938427925110e-02 -2.469798326492309570e-01 3.809188958257436752e-03 -1.566195487976074219e-01 4.354570060968399048e-02
-3.768815100193023682e-02 -2.267800569534301758e-01 3.255598992109298706e-02 -4.871146008372306824e-02 -1.503204256296157837e-01 6.324475258588790894e-02 1.051841489970684052e-02 -4.065985605120658875e-02 -8.470232784748077393e-02 -6.440930813550949097e-02 -1.189962774515151978e-01 2.325232774019241333e-01
6.706988066434860229e-02 3.040632419288158417e-02 -1.381790544837713242e-02 -4.562115762382745743e-03 -3.061716072261333466e-02 -6.078932806849479675e-02 1.914392784237861633e-02 -6.499085109680891037e-03 -1.075374633073806763e-01 2.798543684184551239e-02 5.853351205587387085e-03 -6.172512844204902649e-02
-1.193835139274597168e-01 -9.246662259101867676e-03 6.814087182283401489e-02 -3.215366974472999573e-02 -5.614599585533142090e-02 1.155472099781036377e-01 -8.318948745727539062e-02 -4.181906953454017639e-02 1.909497976303100586e-01 5.802336335182189941e-02 1.034789085388183594e-01 -1.714169085025787354e-01
-5.603751167654991150e-02 4.001317545771598816e-02 -7.440600544214248657e-02 -8.978424966335296631e-02 1.048432961106300354e-01 2.357757687568664551e-01 7.720470428466796875e-02 4.504654090851545334e-03 -8.791106194257736206e-02 6.441927701234817505e-02 9.347025305032730103e-02 2.600019574165344238e-01
4.877218976616859436e-02 5.034237354993820190e-02 7.439295947551727295e-02 -7.770162075757980347e-03 -2.538740262389183044e-02 -9.283734485507011414e-03 -5.690721422433853149e-02 -9.222326800227165222e-03 -1.694258898496627808e-01 5.175873637199401855e-03 -5.609118379652500153e-03 -3.315336070954799652e-03
-8.232044428586959839e-02 -1.673701852560043335e-01 -2.713303864002227783e-01 1.359224691987037659e-02 5.684729292988777161e-02 4.144441708922386169e-02 -8.665160834789276123e-02 -4.416141659021377563e-03 5.241468548774719238e-02 -7.266477681696414948e-03 -4.804560914635658264e-03 -6.654708646237850189e-03
