1.869148388504981995e-02 1.154854241758584976e-02 8.964267559349536896e-03 1.778444647789001465e-02 -1.031449623405933380e-02 3.784340247511863708e-02 1.733113825321197510e-02 3.321786969900131226e-02 1.712207123637199402e-02 5.244603753089904785e-02 4.868889693170785904e-03 -2.934666350483894348e-03 -3.670324757695198059e-02 -3.035725094377994537e-02 2.607026509940624237e-02 -4.739467427134513855e-02 -7.225632201880216599e-03 -3.847039118409156799e-02 2.556119859218597412e-02 1.751236245036125183e-02 5.731811746954917908e-03 -8.731297462816201005e-09 3.268025116994976997e-03 1.504799174156801200e-09 2.995467931032180786e-02 -8.699542842805385590e-03 4.723671823740005493e-02 4.152427893131971359e-03 -1.117037143558263779e-02 -1.282492303289473057e-03 -9.922517463564872742e-03 2.090038731694221497e-02 -5.041254917159676552e-05 2.483225986361503601e-02 2.745009027421474457e-02 9.934843517839908600e-03 -1.922201178967952728e-02 -6.525652483105659485e-03 9.059521835297346115e-05 1.637761294841766357e-02 -1.373214308841852471e-05 1.479648333042860031e-02 2.535048872232437134e-03 2.236655913293361664e-02 -1.694758608937263489e-02 -4.055487737059593201e-02 -6.283964961767196655e-03 2.198176831007003784e-02 -4.583236761391162872e-03 -1.288177445530891418e-02 1.956068165600299835e-02 1.604313962161540985e-02 -1.859589479863643646e-03 2.068513631820678711e-02 2.856837026774883270e-02 7.359800394624471664e-03 6.216373876668512821e-04 -3.560996556188911200e-04 3.007649257779121399e-02 -9.996619977768698572e-18 -1.738504879176616669e-02 9.172014892101287842e-03 -5.675646025338210166e-05 1.639292202889919281e-02 3.766260296106338501e-02 -6.252710241824388504e-03 1.143633015453815460e-02 -3.841596841812133789e-02 6.187026388943195343e-03 -1.384697947651147842e-02 -7.619166353833861649e-06 2.149836719036102295e-02 -6.060047075152397156e-03 9.469867683947086334e-03 -1.016891468316316605e-02 1.121797249652445316e-03 4.155564587563276291e-03 3.349175676703453064e-02 2.629731036722660065e-02 3.167591243982315063e-02 3.305820049718022346e-03 -1.721351407468318939e-02 1.917265914380550385e-02 -8.900525863282382488e-04 1.308938581496477127e-02 4.678387194871902466e-03 9.749498218297958374e-03 1.083694305270910263e-02 -1.181201450526714325e-02 3.121029213070869446e-02 8.842198178172111511e-03 -5.577080301009118557e-04 -7.055870722979307175e-03 -9.000270040360192070e-08 6.285343319177627563e-03 4.981681704521179199e-02 2.820260636508464813e-02 5.472488701343536377e-03 2.156984992325305939e-02 -2.866803109645843506e-02 3.079495020210742950e-02 -3.122605755925178528e-02 -3.532908111810684204e-02 2.217384614050388336e-02 -1.606254652142524719e-02 -5.032408516854047775e-03 1.064039673656225204e-02 9.849607944488525391e-03 9.027444757521152496e-03 -9.396157227456569672e-03 -1.683788560330867767e-02 6.417194847017526627e-03 1.362702484186684160e-08 9.967908263206481934e-03 -3.871079906821250916e-02 1.385890319943428040e-02 -2.758591726887971163e-04 1.104237977415323257e-03 -3.298878727946430445e-04 2.409067749977111816e-02 -7.620467804372310638e-04 -1.000742800533771515e-02 2.227640897035598755e-02 1.640431955456733704e-02 3.998110519639649623e-23 -1.730645820498466492e-02 -2.404829265410801664e-13 -3.170034661889076233e-02 8.831125684082508087e-03 1.158894225955009460e-02 9.014249779284000397e-03 3.854483366012573242e-03 -2.646062895655632019e-02 8.245293982326984406e-03 4.451761022210121155e-03 3.026426071301102638e-03 2.455617301166057587e-02 -1.561379060149192810e-03 2.982589602470397949e-02 -2.560005290433764458e-03 2.595854178071022034e-02 4.427533131092786789e-03 4.502696101553738117e-04 -3.483851999044418335e-02 1.757670752704143524e-02 1.790730096399784088e-02 3.877028357237577438e-03 1.703544706106185913e-02 -2.895244024693965912e-02 1.255948096513748169e-02 1.449515856802463531e-02 -7.821375547223397007e-09 2.950806915760040283e-02 -2.203529514372348785e-02 -1.133067719638347626e-02 2.461648778989911079e-03 1.993069238960742950e-02 2.530730329453945160e-02 6.503353943116962910e-04 1.126885414123535156e-02 3.610830008983612061e-02 -6.922546308487653732e-03 7.684407755732536316e-03 1.148911751806735992e-02 2.132144570350646973e-02 8.108357898890972137e-03 3.889951156452298164e-03 3.476321324706077576e-02 1.002639252692461014e-02 1.510594598948955536e-02 2.727643400430679321e-02 -9.282341343350708485e-04 1.048128772526979446e-02 1.223665662109851837e-02 1.465832814574241638e-03 -1.767035108059644699e-03 -5.066677927970886230e-03 1.840519718825817108e-03 2.284514717757701874e-02 6.347062997519969940e-03 -5.820734561012841368e-09 -3.979863598942756653e-02 -8.284554816782474518e-03 1.217877864837646484e-02 1.059766206890344620e-02 2.728405036032199860e-02 -1.084915837168409780e-07 1.197924837470054626e-02 -8.044766559578420129e-07 4.683855175971984863e-02 6.458129733800888062e-03 8.764049038290977478e-03 -7.435502950102090836e-03 2.853465080261230469e-02 1.429461967200040817e-02 -1.166112069040536880e-02 2.615744480863213539e-03 -4.519129171967506409e-02 -3.168095275759696960e-02 -7.494829787901835516e-07 -1.408826839178800583e-02 -1.204541698098182678e-02 -1.795363239943981171e-02 -6.752702407538890839e-03 8.735068258829414845e-04 3.870658576488494873e-02 3.007160266861319542e-04 1.397969014942646027e-02 3.198939189314842224e-02 2.491431497037410736e-02 -2.050916478037834167e-02 1.754924841225147247e-02 1.121316687203943729e-03 1.512887142598628998e-02 2.014888636767864227e-02 -3.755780622911141872e-31 -3.615188412368297577e-03 9.225885570049285889e-02 3.649094840511679649e-03 8.804512210190296173e-03 1.639186590909957886e-02 1.026480179280042648e-02 -6.958822254091501236e-03 1.165876444429159164e-02 5.555107817053794861e-02 3.248362243175506592e-02 3.995174914598464966e-02 2.145860111340880394e-03 5.203940439969301224e-03 -2.205372229218482971e-02 5.744424462318420410e-02 3.891102969646453857e-02 1.746980659663677216e-02 -3.231489332392811775e-03 2.868692858541052200e-21 -4.380260128527879715e-03 1.808259263634681702e-02 -3.210354142355216489e-14 1.986612379550933838e-02 1.449201954528689384e-03 -5.029513966292142868e-03 5.963150411844253540e-02 -3.931881114840507507e-02 2.689121849834918976e-02 1.152687612920999527e-02 2.837762981653213501e-02 1.498290803283452988e-02 -2.957222051918506622e-03 -3.249390423297882080e-02 1.789624802768230438e-02
2.661182358860969543e-02 3.033944591879844666e-02 1.618703827261924744e-03 2.824774757027626038e-02 7.996221072971820831e-03 5.664886161684989929e-02 8.716664463281631470e-02 6.819669157266616821e-02 2.393713966012001038e-02 1.142318360507488251e-02 -4.158772528171539307e-02 -3.779409453272819519e-02 -1.151809561997652054e-02 1.835438609123229980e-02 6.570093333721160889e-02 -2.033914253115653992e-02 -7.229148410260677338e-03 -3.314174711704254150e-02 -1.924920454621315002e-02 -2.130082994699478149e-02 -4.913819953799247742e-03 -3.647689794661346241e-08 -2.711883559823036194e-02 5.482809345425110337e-11 -1.073531992733478546e-02 6.576730404049158096e-03 6.086308136582374573e-02 1.849904842674732208e-02 7.244990020990371704e-02 -2.294963598251342773e-02 1.282158680260181427e-02 8.285447955131530762e-02 -1.468293339712545276e-04 2.549853408709168434e-03 -2.457904070615768433e-02 -2.822101674973964691e-02 3.593472391366958618e-02 3.289559856057167053e-02 -3.085548616945743561e-02 -2.005018107593059540e-02 3.042162279598414898e-05 6.163220852613449097e-02 -4.239575192332267761e-02 1.999538578093051910e-02 -1.675952412188053131e-02 -1.800672709941864014e-02 2.755738981068134308e-02 3.296908363699913025e-02 -3.142132889479398727e-03 9.465273469686508179e-03 1.953458972275257111e-02 -4.363518953323364258e-02 -5.551168695092201233e-02 -3.526081796735525131e-03 1.927532441914081573e-02 1.044091135263442993e-01 -2.438947092741727829e-03 1.069089514203369617e-03 7.504145801067352295e-02 -6.657660903154643745e-21 -1.796245761215686798e-02 -1.562909781932830811e-02 -5.548405274748802185e-02 8.523117005825042725e-02 5.230598151683807373e-02 7.619724422693252563e-02 -8.113953284919261932e-03 -1.184470672160387039e-02 -4.655399546027183533e-02 5.879409983754158020e-02 -2.941042743623256683e-02 5.506975576281547546e-03 8.649219758808612823e-03 2.180658653378486633e-02 9.545528888702392578e-02 -1.405284367501735687e-02 1.062739919871091843e-02 -5.832051113247871399e-02 1.223168242722749710e-02 3.396940976381301880e-02 3.478668630123138428e-02 2.578864619135856628e-02 4.152636229991912842e-02 2.907112613320350647e-02 3.527071326971054077e-02 -3.591062873601913452e-02 6.136310473084449768e-02 2.868452109396457672e-02 -2.521060407161712646e-02 2.602790854871273041e-02 -7.389241456985473633e-02 3.259456157684326172e-02 1.998528838157653809e-02 -3.751442889665668190e-08 1.421767938882112503e-02 6.203002482652664185e-02 -7.025512866675853729e-03 -2.616336755454540253e-02 8.208152651786804199e-02 3.167016431689262390e-02 -6.424887478351593018e-02 3.131048381328582764e-02 -9.404691867530345917e-03 -4.498635604977607727e-02 -3.731318563222885132e-02 1.316854730248451233e-02 -4.849445819854736328e-02 6.042396649718284607e-02 -9.114361368119716644e-03 -1.016461197286844254e-02 6.144240498542785645e-03 4.676131531596183777e-02 -7.938035129449950162e-19 -2.329891175031661987e-02 -1.457388047128915787e-02 5.348394811153411865e-02 -2.783692070806864649e-05 5.145850777626037598e-02 -2.920830156654119492e-04 2.867700718343257904e-02 -2.668187394738197327e-02 2.398227155208587646e-02 6.782971322536468506e-02 7.366473972797393799e-02 -1.353664264675291790e-31 4.713173210620880127e-02 -4.519264724024562381e-22 1.465717516839504242e-02 2.246759459376335144e-02 1.922482997179031372e-02 6.350059062242507935e-02 -9.406373836100101471e-03 -1.994664035737514496e-02 -8.322201669216156006e-03 4.593449411913752556e-04 -1.871140860021114349e-02 2.450677193701267242e-02 2.155231870710849762e-02 8.770779706537723541e-03 4.310260713100433350e-02 2.137559279799461365e-02 -4.748180508613586426e-02 -2.021786198019981384e-02 1.604124717414379120e-02 -9.618476033210754395e-03 -3.503590589389204979e-03 2.987787500023841858e-02 2.061765082180500031e-02 6.337722390890121460e-02 5.047721788287162781e-02 -2.852423861622810364e-02 -1.879927102602992782e-22 -8.069822564721107483e-03 -1.857402175664901733e-02 6.394783407449722290e-02 -3.112106118351221085e-03 -5.281750485301017761e-02 -1.189959049224853516e-01 1.442824676632881165e-02 3.378950431942939758e-02 -3.441241756081581116e-02 1.639202237129211426e-02 5.646131560206413269e-02 -2.625671960413455963e-02 -6.399399042129516602e-02 1.124185044318437576e-02 -1.847440376877784729e-02 2.173567563295364380e-02 3.191952407360076904e-02 -2.337551675736904144e-03 -1.574438251554965973e-02 -1.084625604562461376e-03 -6.855886429548263550e-02 2.472434379160404205e-02 -2.234760206192731857e-03 2.340724132955074310e-02 4.503230378031730652e-02 1.850553974509239197e-02 -5.653783306479454041e-02 6.549084186553955078e-02 -2.127198243939698585e-11 4.425978288054466248e-02 -2.930286154150962830e-02 -3.446691669523715973e-03 -2.487426251173019409e-02 -7.226359844207763672e-02 -1.163545704230273259e-07 4.276340827345848083e-02 -5.832261194882448763e-06 -1.906661130487918854e-02 -1.123144850134849548e-02 -3.263496607542037964e-02 2.747174724936485291e-02 4.683793522417545319e-03 4.723166674375534058e-02 -2.027334831655025482e-02 7.466106861829757690e-02 -2.984069287776947021e-03 2.538365684449672699e-02 -1.242965709025156684e-06 7.094712555408477783e-02 -3.848965512588620186e-03 -1.462094951421022415e-03 1.395892072468996048e-02 -4.898691549897193909e-02 9.802080690860748291e-02 9.335035458207130432e-03 8.227527886629104614e-02 8.391892164945602417e-02 1.037815399467945099e-02 3.952673822641372681e-02 1.309845130890607834e-02 2.014970965683460236e-02 5.246343091130256653e-02 4.014277458190917969e-02 -3.990517638552404378e-11 2.048591710627079010e-02 -1.007360313087701797e-02 -1.442243997007608414e-02 3.320444375276565552e-03 -2.102424576878547668e-02 -5.329897999763488770e-02 1.243247091770172119e-02 4.646484740078449249e-03 -1.306254696100950241e-02 2.807562798261642456e-02 1.938350126147270203e-02 -2.235343307256698608e-02 2.062989957630634308e-02 3.428110107779502869e-02 -4.744653415400534868e-04 -5.522230267524719238e-02 -2.180025354027748108e-02 4.720692336559295654e-02 -1.543687270025295710e-12 3.177042305469512939e-02 1.539037190377712250e-02 2.990485192377184687e-13 3.294616937637329102e-02 3.260653093457221985e-02 -3.306240960955619812e-02 -5.882985144853591919e-02 2.164053358137607574e-02 -9.691920876502990723e-02 -4.216475039720535278e-02 -4.322008788585662842e-02 9.267315268516540527e-02 -7.509210146963596344e-03 -4.230658337473869324e-02 4.079660400748252869e-03
-1.868562190793454647e-03 1.408953405916690826e-02 -7.935362868010997772e-03 -9.882325306534767151e-03 -5.816164426505565643e-03 4.831849411129951477e-02 4.024358838796615601e-02 1.245573721826076508e-02 4.510506987571716309e-04 6.936915218830108643e-02 4.421632364392280579e-02 3.813787177205085754e-02 -3.594867512583732605e-02 4.925781860947608948e-03 4.995603859424591064e-02 4.541252180933952332e-02 -7.129135541617870331e-03 4.557293374091386795e-03 3.492171876132488251e-03 4.103611409664154053e-02 7.068651728332042694e-03 -8.582097699161295168e-09 2.997045777738094330e-02 1.352971068513397768e-10 -2.626528963446617126e-02 -1.010856684297323227e-02 -2.414996549487113953e-02 9.894779883325099945e-03 -4.010457918047904968e-02 8.375545032322406769e-03 -5.184476263821125031e-03 1.424922794103622437e-02 -7.395789907604921609e-06 1.151882763952016830e-02 8.466704189777374268e-02 2.738042175769805908e-02 -1.655198051594197750e-03 3.500186279416084290e-02 4.226217046380043030e-02 -1.250657159835100174e-02 -4.869616532232612371e-05 2.025388740003108978e-02 3.512502461671829224e-02 -1.813047938048839569e-02 -9.807057678699493408e-03 -1.061175577342510223e-02 3.379692137241363525e-02 -2.692836895585060120e-02 3.136436687782406807e-03 2.678855508565902710e-02 -2.489954046905040741e-02 1.815641671419143677e-02 3.026771917939186096e-02 2.831395529210567474e-02 1.955195702612400055e-02 -8.825941942632198334e-03 3.287389408797025681e-04 3.681063535623252392e-04 -4.684543609619140625e-02 2.421748828586745996e-19 -1.507436204701662064e-02 8.290415629744529724e-03 6.738086789846420288e-02 -4.478364810347557068e-02 2.511263638734817505e-02 -1.830928400158882141e-02 1.454546023160219193e-02 3.874967247247695923e-02 5.140618979930877686e-02 -1.933517493307590485e-02 3.008864447474479675e-02 5.444784089922904968e-02 -3.445471404120326042e-03 -2.434337045997381210e-03 -4.019321873784065247e-02 1.505307946354150772e-02 -2.374903298914432526e-03 7.864524424076080322e-02 2.324869669973850250e-02 3.977281507104635239e-03 -3.813801798969507217e-03 3.620326519012451172e-02 -2.716917544603347778e-03 8.855144493281841278e-03 -4.204739816486835480e-03 3.595843911170959473e-02 1.764010521583259106e-03 -3.527893871068954468e-02 -9.548178873956203461e-03 -1.758857630193233490e-03 1.112547516822814941e-01 1.712198182940483093e-02 3.720826702192425728e-03 -6.012206199557112996e-08 -7.996731437742710114e-03 3.052193671464920044e-02 1.830019243061542511e-02 1.442333031445741653e-02 -2.144878730177879333e-02 6.038954481482505798e-03 1.047865152359008789e-01 -1.068867836147546768e-02 2.339641749858856201e-02 4.877936094999313354e-02 -1.189948152750730515e-02 -4.441952798515558243e-03 3.225800767540931702e-02 -4.107791185379028320e-02 6.381672341376543045e-03 -1.206555962562561035e-02 1.607743464410305023e-02 2.439490891993045807e-02 7.351476938310952391e-08 2.848203666508197784e-02 1.519523002207279205e-02 2.713724272325634956e-03 -3.076511202380061150e-04 1.078169327229261398e-02 -4.054418532177805901e-04 3.309341892600059509e-02 -3.465898102149367332e-03 -2.865961380302906036e-02 4.507004469633102417e-02 -1.220503076910972595e-02 -1.397313778854940710e-31 -3.100174479186534882e-02 -1.140007841861011774e-24 6.479056086391210556e-03 3.304891986772418022e-03 2.490518614649772644e-02 -6.211129017174243927e-03 -5.969715304672718048e-03 1.989189721643924713e-02 3.555080667138099670e-02 3.786583431065082550e-03 3.914069849997758865e-03 9.243135340511798859e-03 1.827519387006759644e-02 1.750715635716915131e-02 1.400145818479359150e-03 5.160158127546310425e-02 6.343694031238555908e-02 1.852567680180072784e-02 -3.404532372951507568e-02 5.466606002300977707e-03 2.760634943842887878e-02 -5.505433306097984314e-03 3.397931531071662903e-02 -4.087929427623748779e-02 -3.464482724666595459e-03 3.863839432597160339e-02 -4.611307247397322343e-22 -2.204223908483982086e-02 -1.984576508402824402e-02 -3.311842307448387146e-02 -4.657379351556301117e-03 4.998463764786720276e-02 5.208237469196319580e-02 -6.413677707314491272e-03 -7.890316192060709000e-05 1.348467823117971420e-02 -1.427882444113492966e-02 2.434724941849708557e-02 8.727952837944030762e-03 2.423221431672573090e-02 -3.112705424427986145e-02 4.812018573284149170e-02 7.635900378227233887e-02 4.041421040892601013e-02 1.736426353454589844e-02 6.206673383712768555e-02 -8.759783813729882240e-04 9.480399638414382935e-02 8.163712918758392334e-02 -1.889410195872187614e-03 -6.628890521824359894e-03 -2.376534789800643921e-02 6.442582234740257263e-03 8.751017600297927856e-02 1.013947417959570885e-03 -9.262833278178561613e-10 -2.961655892431735992e-02 2.810628525912761688e-02 8.206865750253200531e-03 1.416682731360197067e-02 1.584523729979991913e-02 -1.499304858043615241e-07 -2.313722483813762665e-02 -3.751823385300667724e-08 2.599712647497653961e-02 3.154447674751281738e-02 1.929653249680995941e-02 2.226482145488262177e-02 -4.435729701071977615e-03 2.084330422803759575e-03 3.197683766484260559e-02 -4.545846581459045410e-02 -2.854589838534593582e-03 3.065183060243725777e-03 -9.295659992858418263e-07 -2.973143570125102997e-02 -3.399626538157463074e-02 -2.508610114455223083e-02 -8.975377306342124939e-03 6.725714355707168579e-02 -1.878979615867137909e-02 1.804011408239603043e-03 -8.894541300833225250e-03 -1.037729438394308090e-03 5.508370697498321533e-02 -1.504453830420970917e-02 -2.635738067328929901e-02 -1.768931001424789429e-02 2.509122900664806366e-02 -7.302700541913509369e-04 9.854561287858670494e-31 5.207213386893272400e-02 8.049495518207550049e-02 1.526715792715549469e-02 -5.113617982715368271e-03 4.637351632118225098e-02 2.862289734184741974e-02 -6.605287780985236168e-04 -1.796020567417144775e-02 3.695121034979820251e-02 -3.204919770359992981e-02 2.976811490952968597e-02 2.137715695425868034e-03 -3.619733266532421112e-03 -1.296982634812593460e-02 4.236117005348205566e-02 6.178202480077743530e-02 1.293622702360153198e-02 -2.930534258484840393e-02 -1.861114262702301403e-09 5.831014737486839294e-02 2.804881148040294647e-02 9.168588875315200615e-14 1.297816541045904160e-02 -4.405088548082858324e-04 3.051431104540824890e-02 4.301239177584648132e-02 -4.272471740841865540e-02 6.163090467453002930e-02 2.474602870643138885e-02 4.432444274425506592e-02 -1.417537033557891846e-02 5.628977902233600616e-03 6.455766409635543823e-02 1.978705823421478271e-02
-2.190842665731906891e-02 6.055280566215515137e-02 7.982780225574970245e-03 -4.241843149065971375e-02 -1.852993480861186981e-02 4.986915737390518188e-02 -3.141148760914802551e-02 1.208803579211235046e-01 1.352090854197740555e-02 7.557890377938747406e-03 3.622120246291160583e-02 -1.914296299219131470e-02 -4.393278155475854874e-03 -6.235954165458679199e-02 -1.293170079588890076e-02 5.081162322312593460e-03 1.416470110416412354e-02 -3.422712907195091248e-02 4.073658585548400879e-02 7.380797062069177628e-03 7.991697639226913452e-03 -1.366451328976836521e-06 3.814136981964111328e-02 -2.606100890645279833e-09 -6.578214466571807861e-03 -6.823514122515916824e-03 -1.778389327228069305e-02 1.697512716054916382e-02 -8.192474022507667542e-03 1.006571762263774872e-02 1.428690087050199509e-02 9.981679171323776245e-02 -1.001159398583695292e-04 -5.142692476511001587e-02 2.241120673716068268e-02 4.135186970233917236e-02 -5.816772207617759705e-02 2.162663452327251434e-02 4.593229666352272034e-02 -2.703577093780040741e-02 7.189119514805497602e-06 2.387749264016747475e-03 1.620660349726676941e-02 -6.636106222867965698e-02 6.439903378486633301e-02 -5.032293498516082764e-02 8.826485835015773773e-03 5.783199518918991089e-02 -1.866752514615654945e-03 3.588979132473468781e-03 -2.565318159759044647e-02 2.348196879029273987e-02 2.857786603271961212e-02 3.466774895787239075e-02 1.809058897197246552e-02 3.229486942291259766e-02 -1.386559888487681746e-04 1.501771272160112858e-03 -2.904147654771804810e-02 -5.469318011819268577e-07 -2.355458214879035950e-02 1.940745860338211060e-02 -2.491709601599723101e-04 -2.122563077136874199e-03 3.279801830649375916e-02 -5.245494097471237183e-02 1.365238055586814880e-02 -3.064214624464511871e-02 2.490558475255966187e-02 3.753230348229408264e-02 1.693467982113361359e-02 -4.157306998968124390e-02 -6.375216878950595856e-03 4.836886748671531677e-02 3.874456742778420448e-03 -2.221918478608131409e-02 -1.003711111843585968e-02 1.013578288257122040e-02 3.414617676753550768e-04 6.855086982250213623e-02 -1.021009497344493866e-02 4.873550683259963989e-02 7.507906854152679443e-02 3.767912462353706360e-02 1.753097027540206909e-02 1.011934950947761536e-01 -3.556233271956443787e-02 -2.598081715404987335e-02 3.198575600981712341e-02 -1.631284691393375397e-02 7.424127310514450073e-02 1.166126690804958344e-02 3.274340555071830750e-02 -7.995522111059472081e-08 -2.063608542084693909e-02 -4.240636527538299561e-02 1.414716709405183792e-02 2.322802692651748657e-02 8.122422546148300171e-02 3.447924740612506866e-03 -1.325173024088144302e-02 -5.502649396657943726e-02 3.709765523672103882e-02 -9.342269971966743469e-03 -5.248641222715377808e-02 -3.377680853009223938e-02 4.484060034155845642e-02 -9.778405539691448212e-03 2.493736706674098969e-02 1.124991700053215027e-01 -5.158515274524688721e-02 1.978910155594348907e-02 3.568827722233436361e-08 9.105364233255386353e-02 6.943652033805847168e-02 6.510514020919799805e-02 -3.627854166552424431e-04 2.632080391049385071e-02 -5.277994787320494652e-04 4.316477105021476746e-02 3.548110648989677429e-02 -5.300342291593551636e-02 5.044631287455558777e-02 3.195676580071449280e-02 -2.072790422664122340e-26 -1.304793823510408401e-02 -6.084547449214383619e-11 -3.784646838903427124e-02 1.865170337259769440e-02 5.300723388791084290e-02 1.508762780576944351e-02 2.115015313029289246e-02 7.058476656675338745e-02 -3.419228270649909973e-02 5.216979887336492538e-03 2.234275080263614655e-02 -3.551615029573440552e-02 -1.822660863399505615e-02 4.173532873392105103e-02 2.636075578629970551e-02 3.094805404543876648e-02 3.576457127928733826e-02 2.079068869352340698e-02 -1.505001075565814972e-02 2.154596149921417236e-02 5.665149074047803879e-04 -1.722201518714427948e-02 4.309572745114564896e-03 -4.399998486042022705e-02 -7.192691322416067123e-03 3.402785956859588623e-02 -2.296259626888286220e-09 1.561792008578777313e-02 -1.642663963139057159e-02 -6.499233655631542206e-03 -4.532541707158088684e-02 4.475503787398338318e-02 1.857934403233230114e-03 -2.093397453427314758e-02 4.512932896614074707e-02 5.548427253961563110e-02 -3.084841556847095490e-02 1.409097667783498764e-02 6.123649701476097107e-02 -2.137772366404533386e-02 6.802012026309967041e-02 2.949674800038337708e-02 5.600781366229057312e-02 7.046812772750854492e-02 1.191822066903114319e-02 7.745850086212158203e-02 -2.821965608745813370e-03 5.448950082063674927e-02 5.675914511084556580e-02 1.961107179522514343e-02 -1.921315491199493408e-02 7.430885732173919678e-02 3.597122058272361755e-02 -3.144362568855285645e-02 -5.903671681880950928e-02 -5.184908502542384667e-09 -2.048355340957641602e-02 3.655296564102172852e-02 1.925422810018062592e-02 -2.515332959592342377e-02 4.796547815203666687e-02 -2.812159891618648544e-07 -7.370890676975250244e-02 -4.134633968533307780e-07 6.080054678022861481e-03 3.516699746251106262e-02 5.250194296240806580e-02 -2.985930629074573517e-02 9.041097760200500488e-02 -8.027874864637851715e-03 9.819789789617061615e-03 -3.804441541433334351e-02 -3.633319959044456482e-02 -2.425032295286655426e-02 -8.467168868264707271e-07 7.689266931265592575e-03 -1.886272244155406952e-02 3.275416046380996704e-02 -2.559369802474975586e-02 7.175579667091369629e-02 5.415536835789680481e-02 -6.088104564696550369e-04 -4.234290495514869690e-02 -5.702279508113861084e-02 -5.978839099407196045e-02 2.310268767178058624e-02 2.048058062791824341e-02 -2.253865264356136322e-02 -2.048060670495033264e-02 -4.501896444708108902e-03 -2.665832994352967944e-07 3.110314719378948212e-02 9.380746632814407349e-02 1.583156920969486237e-02 3.193674609065055847e-02 3.719796985387802124e-02 3.297939524054527283e-02 6.432934198528528214e-03 3.017248818650841713e-04 8.549231290817260742e-02 -7.376743853092193604e-02 5.164671689271926880e-02 6.036535650491714478e-02 -1.239393372088670731e-02 -2.769832685589790344e-02 5.404856801033020020e-02 3.133391588926315308e-02 3.526202961802482605e-02 -3.393480181694030762e-02 -2.096205570234488391e-10 -9.015738032758235931e-04 -1.701849885284900665e-02 4.166035016961444626e-10 2.579974755644798279e-02 -6.051937118172645569e-03 3.215604275465011597e-02 3.051354736089706421e-02 4.113005939871072769e-03 1.112634390592575073e-01 -2.651142887771129608e-03 2.119377814233303070e-02 -5.101520195603370667e-02 9.779925458133220673e-03 7.088669389486312866e-02 4.616536200046539307e-03
3.217347338795661926e-02 3.220659866929054260e-02 1.116336788982152939e-03 6.528242956846952438e-03 -2.204334363341331482e-02 3.550313040614128113e-02 4.914294183254241943e-02 5.771632120013237000e-02 3.889784961938858032e-02 8.840110898017883301e-02 4.246282950043678284e-02 -8.408164605498313904e-03 -3.742873668670654297e-03 -5.091008543968200684e-02 6.256569176912307739e-02 -2.431281656026840210e-02 1.655686646699905396e-02 -2.735224179923534393e-02 2.536236122250556946e-02 5.476325005292892456e-02 1.195065584033727646e-02 -3.090461177635006607e-06 -6.710560410283505917e-05 -1.579488384702287807e-12 3.076838888227939606e-02 -7.210183888673782349e-03 4.437971860170364380e-02 3.991932421922683716e-02 -1.670919172465801239e-02 5.292462650686502457e-03 -4.099250212311744690e-02 3.080417588353157043e-02 -1.775475975591689348e-04 -1.182601507753133774e-02 6.921210885047912598e-02 2.327650040388107300e-02 -4.287776350975036621e-02 -2.185847843065857887e-03 2.704871073365211487e-02 -5.004122795071452856e-05 4.247505057719536126e-05 5.245033279061317444e-02 2.051707543432712555e-02 5.466220318339765072e-04 -2.083634026348590851e-02 -1.765033043920993805e-02 1.489639189094305038e-02 -6.214416585862636566e-03 5.605961661785840988e-03 5.387516692280769348e-02 -3.935804590582847595e-02 2.068700082600116730e-02 3.337569907307624817e-02 5.814664438366889954e-02 9.289871901273727417e-02 3.777604177594184875e-02 1.264875638298690319e-03 -1.824742415919899940e-03 4.297192394733428955e-02 -1.751802591876128190e-09 -2.622306719422340393e-02 1.072295568883419037e-02 2.225425839424133301e-02 1.855559274554252625e-02 3.365699201822280884e-02 7.706179749220609665e-03 2.201805077493190765e-02 -1.869880594313144684e-02 5.053541436791419983e-02 5.295626819133758545e-03 4.260506946593523026e-03 3.708343720063567162e-03 -1.157498639076948166e-02 -3.690342605113983154e-02 -3.323231823742389679e-03 3.570977225899696350e-02 3.119045170024037361e-03 5.241439118981361389e-02 -6.169156637042760849e-03 8.624605089426040649e-02 2.945264056324958801e-02 2.588812634348869324e-02 4.961818829178810120e-02 1.245782990008592606e-02 4.080035537481307983e-02 -4.218125715851783752e-02 2.380423946306109428e-03 3.280190750956535339e-02 4.064907319843769073e-03 7.427077740430831909e-03 8.397285640239715576e-02 8.477515541017055511e-03 1.646611094474792480e-02 -1.960487452379311435e-07 -7.064446806907653809e-03 3.361633792519569397e-02 4.926916211843490601e-02 -2.986234053969383240e-02 2.433028258383274078e-02 2.172255143523216248e-02 6.205633282661437988e-02 -5.366124957799911499e-02 -1.274500321596860886e-02 8.666259236633777618e-03 -4.088981077075004578e-03 -9.937107097357511520e-04 1.535471994429826736e-02 5.375010147690773010e-02 2.571910992264747620e-02 2.989507652819156647e-02 -2.307514660060405731e-04 2.293360605835914612e-02 5.516253764881184907e-08 4.583049565553665161e-02 6.493110675364732742e-03 1.904625818133354187e-02 -3.657771449070423841e-04 5.999511852860450745e-02 -6.710581947118043900e-04 4.177939519286155701e-02 -3.894473612308502197e-02 -6.459864228963851929e-02 3.329584747552871704e-02 4.774603247642517090e-02 -1.128642399808241215e-13 -6.899566203355789185e-02 -4.014278354169675822e-10 3.543736785650253296e-02 3.319550678133964539e-02 3.798788785934448242e-02 -9.417105466127395630e-03 7.039150805212557316e-04 1.627220772206783295e-02 -1.118483301252126694e-02 1.286330446600914001e-02 1.715917512774467468e-02 7.160749286413192749e-02 -2.623145654797554016e-02 4.685979802161455154e-03 2.431257441639900208e-02 5.798728018999099731e-02 3.353249654173851013e-02 8.301367051899433136e-04 -3.740243986248970032e-02 2.497697621583938599e-02 5.632461607456207275e-02 4.612602351699024439e-04 -1.154721248894929886e-02 -7.531160861253738403e-02 -5.479206889867782593e-02 1.924373954534530640e-02 -8.081714527769335754e-21 3.319944813847541809e-02 1.886734366416931152e-02 -5.098621174693107605e-02 2.318328991532325745e-02 2.497125603258609772e-02 -2.606503292918205261e-02 4.679890349507331848e-02 -5.245190113782882690e-02 1.700273423921316862e-04 1.122814603149890900e-02 6.657280027866363525e-02 2.103542722761631012e-02 -3.607851685956120491e-03 3.353919601067900658e-03 6.687528640031814575e-02 3.873762115836143494e-02 3.237083554267883301e-02 2.695074863731861115e-02 2.264595218002796173e-02 -1.397212385199964046e-03 7.745838165283203125e-02 1.035641282796859741e-01 1.535106170922517776e-02 -2.250214852392673492e-02 3.142553195357322693e-02 -1.372583862394094467e-02 4.323802143335342407e-02 -2.213236875832080841e-02 -1.191177911863405825e-08 -5.320576205849647522e-02 1.972801052033901215e-02 2.610286511480808258e-02 1.004316378384828568e-02 5.334035959094762802e-03 -3.684795331082568737e-07 -1.660790480673313141e-02 -5.435768343886593357e-06 6.817164272069931030e-02 1.638216152787208557e-02 -1.164559973403811455e-03 -4.741642251610755920e-02 1.319081056863069534e-02 8.855672553181648254e-03 -3.599147126078605652e-02 -7.640584837645292282e-03 -3.214643150568008423e-02 -1.818199455738067627e-02 -1.263057356482022442e-06 -3.062211908400058746e-02 4.283359646797180176e-02 -2.337796613574028015e-02 -3.128632158041000366e-02 1.062864065170288086e-02 8.113032206892967224e-03 6.077340221963822842e-04 5.912936292588710785e-03 1.698704063892364502e-02 5.937714502215385437e-02 1.904332265257835388e-02 -5.150958895683288574e-03 2.944995276629924774e-02 1.992604322731494904e-02 1.500671915709972382e-02 3.188947925712205811e-14 2.566536143422126770e-02 8.695518970489501953e-02 4.347795154899358749e-03 1.077785994857549667e-02 -1.386270392686128616e-02 6.488183885812759399e-02 4.981303936801850796e-04 7.179063744843006134e-03 1.291079819202423096e-02 4.570938646793365479e-02 8.687119185924530029e-02 2.256936952471733093e-02 8.587310090661048889e-03 -3.607094287872314453e-02 2.367587946355342865e-02 6.828889250755310059e-02 3.503191471099853516e-02 -2.916216105222702026e-02 1.632656005832663904e-15 9.964600205421447754e-02 6.685008853673934937e-02 -1.974868428078480065e-05 4.153188318014144897e-02 4.312323778867721558e-02 1.818983443081378937e-02 3.638975694775581360e-02 -4.702537134289741516e-02 3.173036873340606689e-02 1.024157833307981491e-02 1.045720744878053665e-02 2.356838807463645935e-02 -1.678508473560214043e-03 6.136379763484001160e-02 2.999339811503887177e-02
4.563711211085319519e-02 3.266680240631103516e-02 1.173957530409097672e-02 3.754852712154388428e-02 -6.058057304471731186e-03 4.286134988069534302e-02 5.730881169438362122e-02 6.258437037467956543e-02 3.364088013768196106e-02 6.355418264865875244e-02 -4.976065084338188171e-02 -6.824846565723419189e-02 -2.429258823394775391e-02 -3.452854230999946594e-02 7.827714085578918457e-02 -4.083299636840820312e-02 -3.401155024766921997e-02 -6.061650067567825317e-02 2.107831649482250214e-02 5.268442910164594650e-03 2.565706148743629456e-03 2.936283465260203229e-07 -2.083971165120601654e-02 -2.359469952750714583e-09 5.666447058320045471e-02 -5.440062843263149261e-03 1.063230559229850769e-01 2.053606696426868439e-02 4.340499639511108398e-02 -1.131826732307672501e-02 -3.406591340899467468e-02 4.673381522297859192e-02 -1.065183168975636363e-04 -1.816304028034210205e-02 -3.398120636120438576e-03 -3.211265802383422852e-02 2.767135156318545341e-03 -1.639181561768054962e-02 -2.678765170276165009e-02 2.097379229962825775e-02 1.690147291810717434e-05 8.243975043296813965e-02 -3.044038824737071991e-02 2.184244431555271149e-02 -5.421417206525802612e-02 -3.925788030028343201e-02 4.675406496971845627e-03 2.452915906906127930e-02 -4.609863739460706711e-03 7.478568702936172485e-03 2.814334258437156677e-02 -3.314882633276283741e-04 -4.595685005187988281e-02 8.035580627620220184e-03 8.217941224575042725e-02 6.610345095396041870e-02 -2.549266791902482510e-04 -1.286680810153484344e-03 1.103204190731048584e-01 1.741697619461746172e-10 -3.285671770572662354e-02 3.288403095211833715e-04 -2.606204897165298462e-02 8.580623567104339600e-02 6.352044641971588135e-02 5.323861166834831238e-02 4.778827540576457977e-03 -4.958928376436233521e-02 -1.071285828948020935e-02 -2.628904185257852077e-04 -2.489168755710124969e-02 3.721192479133605957e-03 -3.897917224094271660e-03 -1.580711081624031067e-02 4.041952267289161682e-02 -1.278502680361270905e-02 1.339234691113233566e-02 -6.065546069294214249e-03 1.216876599937677383e-02 6.406056880950927734e-02 2.042076177895069122e-02 -1.393462717533111572e-02 6.311503052711486816e-02 -8.259330876171588898e-03 4.812107235193252563e-02 -5.143920704722404480e-02 5.691260471940040588e-02 6.031561642885208130e-02 -4.151326045393943787e-02 5.116358026862144470e-02 -5.376324430108070374e-02 -2.285206876695156097e-02 -4.187088925391435623e-04 -1.880368785123209818e-07 2.008078619837760925e-02 8.927490562200546265e-02 2.702701650559902191e-02 -5.240729078650474548e-02 6.193871051073074341e-02 -2.155235223472118378e-02 -4.382349923253059387e-02 -2.398673444986343384e-02 -5.268401652574539185e-02 -2.083396911621093750e-02 -3.476064652204513550e-02 1.194782555103302002e-02 -3.103124536573886871e-02 1.041629165410995483e-01 9.957431815564632416e-03 -6.376367807388305664e-02 -1.389451441355049610e-03 2.003983035683631897e-02 1.197982490985793902e-09 -2.695150487124919891e-02 -5.920805037021636963e-02 3.227069601416587830e-02 -2.463227719999849796e-04 2.991610579192638397e-02 -3.561681369319558144e-04 4.011562466621398926e-02 -3.779743611812591553e-02 -7.913490757346153259e-03 3.991853445768356323e-02 8.476875722408294678e-02 7.751607747932163013e-19 -3.616290166974067688e-02 2.175811851864713955e-23 -2.751892060041427612e-02 2.758732438087463379e-02 1.351731363683938980e-02 3.482368960976600647e-02 -9.791569784283638000e-03 -4.212756082415580750e-02 -2.683421410620212555e-02 5.084933713078498840e-03 -7.311969995498657227e-03 6.576953083276748657e-02 -1.436733454465866089e-02 3.389747580513358116e-03 2.960571087896823883e-02 3.036587685346603394e-02 -3.849228844046592712e-02 -1.715687476098537445e-02 -2.879362553358078003e-02 1.932891458272933960e-02 1.401562616229057312e-02 1.687560789287090302e-02 1.766946539282798767e-02 -9.916126728057861328e-03 6.513658445328474045e-03 -2.808849327266216278e-02 3.766760902326172854e-26 3.924525156617164612e-02 -2.997905761003494263e-02 7.987136021256446838e-03 6.086329929530620575e-03 -2.178087271749973297e-02 -9.134323149919509888e-02 1.101208664476871490e-02 -2.105532959103584290e-02 1.712029054760932922e-02 3.554533468559384346e-03 3.913778811693191528e-02 -2.439490333199501038e-02 -4.767065122723579407e-02 1.222383137792348862e-02 -1.417900552041828632e-03 1.871654018759727478e-02 1.447107177227735519e-02 9.088217280805110931e-03 -4.106845334172248840e-02 4.788820515386760235e-04 -3.206119686365127563e-02 2.029399387538433075e-02 2.721818455029278994e-04 1.757277734577655792e-02 1.472642831504344940e-02 -3.380695357918739319e-02 -1.039628032594919205e-02 1.762490347027778625e-02 -1.466275191541743794e-11 -3.914705291390419006e-02 -2.987537905573844910e-02 1.168414950370788574e-02 5.940507166087627411e-03 -6.428220868110656738e-02 -2.782979322546452750e-07 4.483653604984283447e-02 -7.102774361555930227e-06 6.046856567263603210e-02 -1.004094723612070084e-02 -1.712832227349281311e-02 -1.708168769255280495e-03 2.178274281322956085e-02 4.561098292469978333e-02 -6.056015938520431519e-02 6.430078297853469849e-02 -4.962239414453506470e-02 -3.549312055110931396e-02 -1.298129063798114657e-06 9.601243771612644196e-03 1.043470390141010284e-02 -1.269409619271755219e-02 -1.043166313320398331e-02 -4.329419508576393127e-02 7.430508732795715332e-02 1.829504501074552536e-03 5.759636685252189636e-02 1.063961237668991089e-01 4.635021463036537170e-02 -1.974199665710330009e-03 5.726190283894538879e-03 3.213905543088912964e-02 2.903607115149497986e-02 4.788467288017272949e-02 3.181222770968653690e-27 3.521011210978031158e-03 5.085578560829162598e-02 -1.429988164454698563e-02 1.289480645209550858e-02 -7.738121319562196732e-03 -2.484070509672164917e-02 -8.631619624793529510e-03 1.742238551378250122e-02 -1.667611300945281982e-03 1.049026772379875183e-01 7.841727882623672485e-02 -1.668845862150192261e-02 2.116860635578632355e-02 -1.686826720833778381e-02 1.007719989866018295e-02 5.638098809868097305e-03 6.880958564579486847e-03 2.966590598225593567e-02 -7.127173962118149575e-09 3.667535260319709778e-02 3.792274370789527893e-02 3.326636403470138984e-20 7.171458005905151367e-02 4.621635004878044128e-02 -3.718594089150428772e-02 1.196954958140850067e-02 -4.114462062716484070e-02 -7.146270573139190674e-02 2.285386901348829269e-03 -1.098721753805875778e-02 8.886350691318511963e-02 -9.945333003997802734e-03 -5.499403923749923706e-02 4.098872467875480652e-02
3.197631612420082092e-02 1.044792030006647110e-02 -7.946224883198738098e-03 1.069508213549852371e-02 -2.961993031203746796e-02 -1.907584071159362793e-02 3.689652308821678162e-02 2.915976010262966156e-02 2.673380635678768158e-02 5.139672756195068359e-02 8.242661133408546448e-03 -5.900353193283081055e-03 6.675903499126434326e-02 -7.775158155709505081e-03 1.097590699791908264e-01 -4.258346185088157654e-02 5.485293269157409668e-02 4.184168949723243713e-02 -4.704867606051266193e-04 2.459905296564102173e-02 6.250952370464801788e-03 -5.918616263755893669e-09 -2.517302148044109344e-02 -1.420720341371861650e-08 -3.176852595061063766e-03 1.517369132488965988e-02 -1.304676663130521774e-02 6.287336349487304688e-02 2.008865773677825928e-02 -8.498150273226201534e-04 -1.229976676404476166e-02 -8.816676214337348938e-03 -1.458278420614078641e-04 -4.399243369698524475e-02 6.622629705816507339e-03 -1.067622005939483643e-02 5.529568716883659363e-02 2.347172610461711884e-02 -3.099718363955616951e-03 -5.933567881584167480e-03 4.456283568288199604e-05 5.652359127998352051e-02 1.214006263762712479e-02 9.991332888603210449e-03 -4.577925894409418106e-03 5.666929110884666443e-02 -2.298368327319622040e-02 -1.202553790062665939e-02 1.538440771400928497e-02 5.997700616717338562e-02 -2.684645168483257294e-02 -2.218245994299650192e-03 3.717219457030296326e-02 3.071506693959236145e-02 5.366344749927520752e-02 3.465221077203750610e-02 2.396243158727884293e-03 -1.962370704859495163e-03 5.988112092018127441e-02 3.812846306044948008e-13 6.507916375994682312e-03 -1.383543014526367188e-03 -1.510505750775337219e-02 4.129857197403907776e-02 -2.498019952327013016e-03 6.459037959575653076e-02 8.535034954547882080e-03 1.847215555608272552e-02 6.958253681659698486e-02 3.153557702898979187e-02 -4.854732193052768707e-03 -3.318781405687332153e-02 -6.234010215848684311e-03 -3.498091548681259155e-02 4.877695813775062561e-02 4.082430899143218994e-02 6.053377408534288406e-03 -6.980284303426742554e-02 -2.976202219724655151e-02 2.224050834774971008e-02 5.191585049033164978e-02 2.938777394592761993e-02 4.416992142796516418e-02 -9.709713776828721166e-05 6.137726362794637680e-03 -9.685286134481430054e-02 2.164859697222709656e-02 5.623162910342216492e-02 4.240721464157104492e-02 -1.661387644708156586e-02 -2.269561029970645905e-02 2.028016746044158936e-02 2.922325581312179565e-02 -8.377143245752449729e-08 5.391376907937228680e-04 -5.066855251789093018e-02 2.401797100901603699e-02 -4.354911670088768005e-02 -3.030370688065886497e-03 7.820700109004974365e-02 -8.340951055288314819e-03 9.152936749160289764e-03 5.819636583328247070e-02 -4.133440926671028137e-02 8.244007825851440430e-02 -7.585134007968008518e-04 -4.977363627403974533e-03 8.122234046459197998e-02 1.242628134787082672e-02 4.151019454002380371e-02 5.919881910085678101e-02 3.662707284092903137e-02 -1.998258802871077933e-08 1.157464552670717239e-02 3.496565669775009155e-02 -1.638630591332912445e-02 -1.687832555035129189e-04 2.880586870014667511e-02 -2.444411220494657755e-04 -2.274282835423946381e-02 -1.029551681131124496e-02 -3.558519110083580017e-02 2.983443811535835266e-02 1.467228867113590240e-02 -7.924317061966000615e-22 -3.113196464255452156e-03 -1.115472246617969050e-16 1.199434697628021240e-01 2.417687140405178070e-02 1.341689750552177429e-02 -3.156475722789764404e-02 5.660171154886484146e-03 -3.049899637699127197e-02 -2.931428328156471252e-02 7.020404562354087830e-03 1.347428746521472931e-02 4.878013208508491516e-02 4.723574500530958176e-03 -5.091936886310577393e-02 -8.981849066913127899e-03 2.666360139846801758e-02 -1.224462781101465225e-02 -1.001537684351205826e-02 3.818295150995254517e-02 5.510715302079916000e-03 4.484714940190315247e-02 9.530316456221044064e-04 -5.279073119163513184e-02 -5.687820166349411011e-02 -4.500293359160423279e-02 -3.327744081616401672e-02 -7.574917049169016536e-08 1.009819563478231430e-02 4.499561712145805359e-02 -2.905264683067798615e-02 4.880500957369804382e-02 8.200589567422866821e-03 -3.382588550448417664e-02 4.555827751755714417e-02 -5.854057520627975464e-02 -4.701199755072593689e-02 1.197059266269207001e-02 7.446295768022537231e-02 -1.825937069952487946e-02 -2.381007187068462372e-02 -6.859334185719490051e-03 5.581546574831008911e-02 -5.147320777177810669e-02 -7.042442448437213898e-03 6.728934124112129211e-03 2.839238755404949188e-02 8.768614381551742554e-03 -2.633525989949703217e-02 6.262620538473129272e-02 1.798436976969242096e-02 -2.981170266866683960e-02 1.269143912941217422e-02 -1.054829545319080353e-02 1.360228378325700760e-02 -2.356064878404140472e-02 -2.097508478016152367e-08 4.834796860814094543e-02 9.374493733048439026e-03 1.608353294432163239e-02 4.235244821757078171e-03 7.143510156311094761e-04 -4.399959436796052614e-07 8.434568531811237335e-03 -8.620164408057462424e-06 4.763293638825416565e-02 -1.307944674044847488e-02 -2.641277387738227844e-02 -6.983352452516555786e-02 -1.159651484340429306e-02 7.402248214930295944e-03 -9.599098004400730133e-03 2.285136468708515167e-02 5.322869122028350830e-02 1.111025456339120865e-02 -7.071148047543829307e-06 -1.567620038986206055e-02 9.901546686887741089e-02 1.943459361791610718e-02 -2.550496719777584076e-02 -6.642271578311920166e-02 -2.436459250748157501e-02 -2.088677574647590518e-04 2.740005776286125183e-02 2.362214028835296631e-02 2.287804149091243744e-02 4.956606775522232056e-02 -1.269614975899457932e-02 7.924894243478775024e-02 1.403842493891716003e-02 1.328212488442659378e-02 -6.885121639488289702e-11 -4.479010030627250671e-02 4.330478608608245850e-02 -2.437316812574863434e-03 2.323566470295190811e-03 -8.121387660503387451e-02 7.912313193082809448e-02 1.705017499625682831e-02 2.251845411956310272e-02 -7.612662017345428467e-02 3.216894716024398804e-02 8.795429952442646027e-03 -1.923193037509918213e-02 1.058415044099092484e-02 -2.360747382044792175e-02 -1.047064643353223801e-02 2.062040008604526520e-02 1.447830349206924438e-02 2.246368303894996643e-02 -2.572993196281458950e-08 8.344591408967971802e-02 7.975689321756362915e-02 -7.667023682600415668e-10 2.512187510728836060e-02 5.379071086645126343e-02 -1.356856245547533035e-02 -3.008595667779445648e-02 6.558134406805038452e-02 -2.232312038540840149e-02 -1.924613304436206818e-02 -2.422413975000381470e-02 5.468156188726425171e-02 -2.776679582893848419e-03 7.379572093486785889e-02 -6.482031894847750664e-04
-1.183798909187316895e-02 2.207338437438011169e-02 -7.479163818061351776e-03 2.614590106531977654e-03 1.392461173236370087e-02 8.981665596365928650e-03 2.031897380948066711e-02 -1.297598704695701599e-02 -6.547864526510238647e-03 -1.567325741052627563e-02 3.176507726311683655e-02 -3.160446509718894958e-02 -1.191675779409706593e-03 4.745671525597572327e-02 2.151900902390480042e-02 8.212784677743911743e-02 1.089036837220191956e-02 1.215130835771560669e-02 -2.138029225170612335e-02 -1.227204222232103348e-02 -4.683332983404397964e-03 -5.757247436122270301e-06 -5.539074074476957321e-03 -1.205568356255071194e-08 -5.607665330171585083e-02 -1.619982533156871796e-02 -3.081639483571052551e-02 -3.992825001478195190e-02 6.201330572366714478e-02 6.535286665894091129e-04 3.673792257905006409e-02 5.376061052083969116e-02 -1.530961453681811690e-04 4.181283712387084961e-02 -2.711844071745872498e-02 4.241339396685361862e-03 8.589126914739608765e-02 2.173646353185176849e-02 4.336091689765453339e-03 1.357424724847078323e-02 -1.529628889329615049e-06 1.658054068684577942e-03 -8.840015158057212830e-03 2.215421013534069061e-02 4.606007784605026245e-02 1.864860579371452332e-02 1.894507184624671936e-02 6.999033037573099136e-03 3.742758708540350199e-04 -9.965972276404500008e-04 3.478751704096794128e-02 -1.700145192444324493e-02 -8.289606310427188873e-03 -2.537675201892852783e-02 1.414589770138263702e-02 1.961076166480779648e-03 4.396889358758926392e-03 2.109516179189085960e-03 -1.570256426930427551e-02 3.797099706633192306e-19 2.511135675013065338e-02 -1.690058596432209015e-02 -6.477925926446914673e-03 1.322158705443143845e-02 7.729029312031343579e-05 3.678346797823905945e-02 -8.029622025787830353e-03 7.124469429254531860e-02 1.335599180310964584e-02 7.859732955694198608e-03 -5.221457686275243759e-03 4.343528673052787781e-02 1.610049605369567871e-02 3.333022072911262512e-02 3.804840520024299622e-02 2.110876142978668213e-02 -4.960216116160154343e-03 -4.517237469553947449e-02 2.176122739911079407e-02 2.005055546760559082e-03 2.009659772738814354e-03 5.591764673590660095e-02 -3.369524702429771423e-02 1.582262292504310608e-02 -2.500641392543911934e-03 7.548898458480834961e-02 -5.082297604531049728e-03 -9.017180651426315308e-03 -2.147217281162738800e-03 -6.765009369701147079e-03 -2.324037998914718628e-02 3.975402098149061203e-03 -6.195568479597568512e-03 1.749559164210268136e-09 3.485722467303276062e-02 -6.242473423480987549e-02 -2.929123677313327789e-02 -1.381778717041015625e-02 4.413419216871261597e-02 -1.535983756184577942e-02 -7.761031389236450195e-02 4.389912635087966919e-02 6.189718842506408691e-02 -4.096921533346176147e-02 -2.272101864218711853e-02 5.293529946357011795e-03 1.593412598595023155e-03 -1.662462763488292694e-02 -1.136113144457340240e-02 9.126372635364532471e-02 3.275829926133155823e-02 2.465167269110679626e-02 3.026367218232231359e-27 -7.473873905837535858e-03 2.114893868565559387e-02 8.895750157535076141e-03 -1.088859571609646082e-04 -2.928397990763187408e-02 -2.776148539851419628e-05 2.777167782187461853e-02 3.565640002489089966e-02 2.293173409998416901e-02 -1.426359638571739197e-02 -1.388400234282016754e-02 -1.309594694075096077e-24 6.413949280977249146e-02 -1.874319926695178218e-12 3.314083674922585487e-03 -1.969723030924797058e-02 -2.233013743534684181e-03 3.280593082308769226e-02 -5.687019322067499161e-03 2.714319899678230286e-02 -2.177578717237338424e-04 -9.234791621565818787e-03 -1.322733517736196518e-02 -3.579354658722877502e-02 4.535841196775436401e-02 -3.364019095897674561e-02 -1.758302329108119011e-03 -3.169792890548706055e-02 -2.398571372032165527e-02 -4.303761757910251617e-03 2.722728066146373749e-02 -2.131931856274604797e-02 -1.793520152568817139e-02 6.186624988913536072e-03 1.689995080232620239e-02 3.448528470471501350e-03 3.916652500629425049e-02 2.707245387136936188e-02 -8.184447786163673300e-09 -1.677193306386470795e-02 1.653042249381542206e-02 3.582311421632766724e-02 -2.109712734818458557e-02 1.003573928028345108e-02 -1.135923620313405991e-02 5.823439732193946838e-02 4.025276377797126770e-02 -2.498231455683708191e-02 4.134112596511840820e-02 -1.678565889596939087e-02 -2.911201154347509146e-04 2.345931716263294220e-03 -6.842087022960186005e-03 -6.412040442228317261e-03 8.820298244245350361e-04 3.147505223751068115e-02 -1.395188085734844208e-02 7.892234250903129578e-03 -7.072676671668887138e-04 -3.122569061815738678e-03 -4.888217523694038391e-02 7.186969742178916931e-03 7.153028249740600586e-02 1.845389790832996368e-02 1.458094269037246704e-02 -2.087470516562461853e-02 5.427899584174156189e-02 -6.265537015674423407e-15 4.248179867863655090e-02 5.058341193944215775e-03 -2.021906152367591858e-02 -3.903480246663093567e-03 5.118193104863166809e-02 -3.586023638035840122e-07 2.274481207132339478e-02 -6.226292043720604852e-06 -2.437356859445571899e-02 -1.327845640480518341e-02 -8.402485400438308716e-04 5.519477650523185730e-03 1.062944065779447556e-02 -2.313248254358768463e-02 4.063684865832328796e-02 2.404773794114589691e-02 3.181451559066772461e-02 1.072221398353576660e-01 -3.391199356883589644e-07 6.890647858381271362e-02 5.081083159893751144e-03 3.970579430460929871e-02 1.107758842408657074e-02 2.419957891106605530e-02 2.840304560959339142e-02 3.995728213340044022e-03 6.477408111095428467e-02 -3.716131672263145447e-03 -2.955810725688934326e-02 5.346509627997875214e-03 1.048171427100896835e-02 1.502761244773864746e-02 1.719036884605884552e-02 2.306326106190681458e-02 -4.689541916305414643e-25 3.563937172293663025e-02 -2.137173898518085480e-02 -1.121949637308716774e-03 8.726894157007336617e-05 -2.153212390840053558e-02 -2.213969081640243530e-02 1.448489539325237274e-02 -1.950303465127944946e-02 -1.700754463672637939e-02 -2.897164784371852875e-02 -6.748383492231369019e-02 -1.541104447096586227e-02 3.614201443269848824e-03 4.659784957766532898e-02 -2.409183606505393982e-02 -3.065809793770313263e-02 -2.415761537849903107e-02 3.180794417858123779e-02 -3.043624241527709273e-09 -2.001705206930637360e-02 -2.436274476349353790e-02 -3.299347213214787189e-07 -1.190265174955129623e-02 -4.286769777536392212e-02 1.735410466790199280e-02 -5.632399022579193115e-02 6.162040308117866516e-02 1.664345152676105499e-02 -1.724780537188053131e-02 -1.355872675776481628e-02 -1.881219074130058289e-02 3.850954817607998848e-03 -1.618316210806369781e-02 5.328558012843132019e-02
-1.647699624300003052e-02 3.776490921154618263e-03 -6.158222444355487823e-03 9.287432767450809479e-03 1.721331849694252014e-02 3.814252559095621109e-03 7.946736179292201996e-03 -1.936681568622589111e-02 -1.910346746444702148e-02 4.272689577192068100e-03 -1.172733493149280548e-03 2.735098451375961304e-02 -1.575517654418945312e-02 5.610948801040649414e-02 1.948561333119869232e-02 9.565060585737228394e-02 -1.672489196062088013e-02 4.959241487085819244e-03 -2.175439521670341492e-02 -4.904276225715875626e-03 -2.850426593795418739e-03 -1.642330516915535554e-06 1.485225465148687363e-02 -5.813174386304353902e-10 -3.356654569506645203e-02 -1.737366616725921631e-02 -3.183043748140335083e-02 -4.183508455753326416e-02 2.020120248198509216e-02 6.583722773939371109e-03 4.386252909898757935e-02 8.388888090848922729e-03 -2.862950786948204041e-04 5.348279699683189392e-02 2.526437863707542419e-03 1.719172857701778412e-02 7.438953965902328491e-02 3.966579213738441467e-02 -2.615151752252131701e-04 4.150277376174926758e-02 -1.265924947801977396e-05 1.118237851187586784e-03 6.246328703127801418e-04 1.612649671733379364e-02 6.193743646144866943e-02 4.285176750272512436e-03 1.511976588517427444e-02 -1.855800673365592957e-02 -1.330307568423449993e-03 -2.879038685932755470e-03 6.402402371168136597e-02 4.793628584593534470e-03 3.904702607542276382e-03 -2.610109187662601471e-02 -2.908890508115291595e-02 -5.459532141685485840e-02 3.649163758382201195e-03 2.139325253665447235e-03 -1.976888813078403473e-02 -2.206499232215719530e-07 4.661442339420318604e-02 -9.294464252889156342e-03 1.843423023819923401e-02 -1.849549077451229095e-02 2.453907392919063568e-02 1.021013408899307251e-02 -8.752430789172649384e-03 3.837920725345611572e-02 -9.469364769756793976e-03 -2.953806519508361816e-02 8.143647573888301849e-03 6.065791845321655273e-02 1.437760517001152039e-02 2.960786782205104828e-02 -2.956183860078454018e-03 -3.498050943017005920e-02 -9.626714512705802917e-03 1.962172426283359528e-02 4.718871042132377625e-02 -3.428897261619567871e-02 -2.715410478413105011e-02 2.494276687502861023e-02 -4.891372472047805786e-02 1.341830287128686905e-02 3.589504398405551910e-03 6.005616858601570129e-02 8.458218537271022797e-03 -1.560509856790304184e-02 -2.484252676367759705e-02 2.207149565219879150e-02 -1.312964875251054764e-02 -2.136071585118770599e-02 -2.564241550862789154e-02 -2.987197822434950467e-09 4.306392371654510498e-02 4.314226564019918442e-03 -2.159967646002769470e-02 6.836978346109390259e-02 -1.593186706304550171e-02 -1.770751550793647766e-02 4.828560352325439453e-02 5.198957771062850952e-02 2.684784308075904846e-02 4.615328740328550339e-03 1.669011823832988739e-02 1.129845995455980301e-02 1.331128366291522980e-02 -4.526533558964729309e-02 -1.075429748743772507e-02 -4.121602512896060944e-03 2.287347242236137390e-02 7.140346802771091461e-03 1.722946230131583434e-08 -1.649461314082145691e-02 -1.030581910163164139e-02 -4.046048503369092941e-03 -2.104294253513216972e-04 -6.131736561655998230e-02 3.654769534477964044e-05 -1.762652024626731873e-02 4.996347427368164062e-02 4.966000095009803772e-02 2.607276663184165955e-03 -3.831092640757560730e-02 -2.448660018646671085e-16 9.549161046743392944e-02 -7.791280121072219345e-11 -1.114068459719419479e-02 -2.387225255370140076e-02 -1.104331947863101959e-02 3.108177892863750458e-02 -1.299487054347991943e-02 3.424019366502761841e-02 1.802293583750724792e-02 -6.092231720685958862e-03 -8.929094299674034119e-03 -2.434429340064525604e-02 2.642545849084854126e-02 -4.735041782259941101e-02 -5.015192087739706039e-03 -1.918574050068855286e-02 -6.800690665841102600e-03 7.152916863560676575e-03 1.936194859445095062e-02 -1.156571693718433380e-02 -3.243893384933471680e-02 2.505135955289006233e-03 2.896448411047458649e-02 3.608070313930511475e-02 9.007357060909271240e-02 1.318171061575412750e-02 -1.050930631407709370e-08 -2.076650783419609070e-02 1.140748523175716400e-02 2.749519795179367065e-02 -9.102634154260158539e-03 4.587257280945777893e-02 6.271298229694366455e-02 1.564322598278522491e-02 3.556254506111145020e-02 9.666986297816038132e-04 1.927914418047294021e-04 -2.718075737357139587e-02 -1.006632391363382339e-02 5.058274418115615845e-02 -2.245284616947174072e-02 -1.722780801355838776e-02 7.982007809914648533e-04 8.983031846582889557e-03 -1.179202180355787277e-02 2.329094335436820984e-02 -1.480128150433301926e-03 -5.392826627939939499e-03 -2.682366222143173218e-02 -7.976834662258625031e-03 7.165294140577316284e-02 1.300332229584455490e-02 -4.842326976358890533e-03 1.148599945008754730e-02 7.309100776910781860e-02 -2.970935275570241174e-09 1.244865823537111282e-02 -1.463194470852613449e-02 -1.993045210838317871e-02 2.018141187727451324e-02 4.662709034164436162e-05 -2.019646672124508768e-07 2.138184383511543274e-02 -7.274316430994076654e-06 -3.410156816244125366e-02 -4.160245880484580994e-03 8.399654179811477661e-03 4.041898250579833984e-02 1.024599070660769939e-03 2.780852280557155609e-02 6.813285499811172485e-02 -5.873010493814945221e-03 3.307232633233070374e-02 4.822906106710433960e-02 -7.920925781945697963e-07 4.590347409248352051e-02 -1.832179911434650421e-02 2.651466056704521179e-02 2.748662605881690979e-02 6.307278573513031006e-02 -1.201471686363220215e-02 1.335204695351421833e-03 1.146137528121471405e-02 1.436531264334917068e-02 -1.788139529526233673e-02 2.982567995786666870e-03 -5.706183146685361862e-03 -4.707924090325832367e-03 2.592527866363525391e-02 3.299197554588317871e-02 1.012612075782518189e-27 5.693380907177925110e-02 -3.623653901740908623e-03 -1.073843333870172501e-03 -6.824535783380270004e-03 2.351875230669975281e-02 1.829368434846401215e-02 -1.454766374081373215e-03 -1.566567644476890564e-02 1.696280203759670258e-02 -1.890065148472785950e-02 -3.052500821650028229e-02 -2.278561517596244812e-02 1.452612341381609440e-03 4.717520251870155334e-02 2.294709533452987671e-02 8.322180248796939850e-03 -1.875189319252967834e-02 1.894775032997131348e-02 -7.643780008947942406e-08 -2.020467445254325867e-02 -1.418668683618307114e-02 -3.061922768665681360e-07 -1.696303673088550568e-02 -3.498826548457145691e-02 1.512083411216735840e-02 6.962526589632034302e-03 2.531271614134311676e-02 3.163862228393554688e-02 -1.323142834007740021e-02 5.484613124281167984e-03 -6.539267487823963165e-03 4.546994343400001526e-03 -1.016799826174974442e-02 4.842007532715797424e-02
-9.704029187560081482e-03 1.923097111284732819e-02 -8.687936700880527496e-03 -1.218050997704267502e-02 1.210815086960792542e-02 8.110589534044265747e-02 8.609124273061752319e-02 2.405348792672157288e-02 -8.769220672547817230e-03 6.441916525363922119e-02 8.765871636569499969e-03 2.351416833698749542e-02 -4.524958133697509766e-02 1.237066369503736496e-02 8.133747428655624390e-02 9.644372016191482544e-02 -1.227776333689689636e-02 -1.440118066966533661e-02 -1.622937992215156555e-02 1.772952638566493988e-02 9.654388413764536381e-04 -3.921239226656325627e-07 3.320858627557754517e-02 1.592783266390895847e-10 -4.566942900419235229e-02 -1.862191595137119293e-02 -8.254991844296455383e-04 1.143957860767841339e-02 -1.440882496535778046e-02 1.063513290137052536e-02 1.409565471112728119e-02 6.906729191541671753e-02 -1.459044724470004439e-04 -7.483622524887323380e-03 8.936652541160583496e-02 2.754852734506130219e-02 4.891255497932434082e-02 6.450883299112319946e-02 3.849050402641296387e-02 -1.161900721490383148e-02 -2.467553713358938694e-05 4.103886336088180542e-02 1.532049104571342468e-02 -2.298145368695259094e-02 1.509973499923944473e-02 -1.759576238691806793e-02 5.066166073083877563e-02 -3.032694570720195770e-02 6.444937898777425289e-04 2.767332643270492554e-02 -1.946619339287281036e-02 2.983939368277788162e-03 -2.158267656341195107e-03 4.254480823874473572e-03 -3.985993936657905579e-02 2.194408327341079712e-02 -2.139113610610365868e-03 1.564496196806430817e-03 -1.897986419498920441e-02 -2.482591687780200118e-09 4.651199094951152802e-03 1.324228360317647457e-03 5.299555137753486633e-02 -4.016641527414321899e-02 5.866256728768348694e-02 3.361425769980996847e-04 9.181642672047019005e-04 4.613354057073593140e-02 4.713967815041542053e-02 -1.249088719487190247e-02 2.624362334609031677e-02 5.846002697944641113e-02 5.958364810794591904e-03 1.662427745759487152e-02 -3.136363998055458069e-02 -3.826218191534280777e-03 1.821374753490090370e-03 9.459374099969863892e-02 2.591829560697078705e-02 -6.579883862286806107e-03 -2.306028082966804504e-02 4.745324701070785522e-02 9.492484852671623230e-03 3.453518450260162354e-02 7.771624368615448475e-04 3.871161863207817078e-02 2.545424550771713257e-02 -5.222495645284652710e-02 -1.921892911195755005e-02 1.214553229510784149e-02 1.033838689327239990e-01 1.358947996050119400e-02 -1.651445985771715641e-03 -6.886623538093772368e-08 -1.975328195840120316e-03 6.290584057569503784e-02 -5.071373190730810165e-03 1.434033084660768509e-02 -4.114280454814434052e-03 1.352871302515268326e-02 8.539360016584396362e-02 8.260375820100307465e-03 2.492010965943336487e-02 3.691966459155082703e-02 -5.458319932222366333e-02 1.758107391651719809e-04 8.305228315293788910e-03 -5.050862953066825867e-02 -7.670395541936159134e-03 -5.526937916874885559e-02 2.380226179957389832e-02 5.827927216887474060e-02 7.336178953210037434e-08 2.756226621568202972e-02 2.460208721458911896e-02 3.293906524777412415e-02 -5.103520234115421772e-04 4.260148108005523682e-02 -5.914693465456366539e-04 2.200655452907085419e-02 -1.356455776840448380e-02 1.799090579152107239e-02 9.025652706623077393e-02 1.032225601375102997e-02 3.984750559569960033e-30 7.305939216166734695e-03 3.308673225291624908e-23 -1.277576573193073273e-02 -4.798478446900844574e-03 3.993929922580718994e-02 3.038025647401809692e-02 -1.604872569441795349e-02 5.096650123596191406e-02 5.858391895890235901e-02 -1.222133869305253029e-03 -1.117005478590726852e-02 -3.082134993746876717e-03 5.138892680406570435e-02 4.274320974946022034e-02 2.742557786405086517e-02 6.683063507080078125e-02 6.038556247949600220e-02 1.307690609246492386e-02 -3.928739950060844421e-02 -6.372343748807907104e-03 1.264658663421869278e-02 4.667230881750583649e-03 5.982216820120811462e-02 4.041997715830802917e-02 3.149838745594024658e-02 5.975633859634399414e-02 -3.195468845493150919e-24 -4.430729895830154419e-02 -4.223795235157012939e-02 8.710091933608055115e-03 -2.353966422379016876e-02 2.533582039177417755e-02 1.330868061631917953e-02 -3.136752173304557800e-02 1.463738642632961273e-02 1.068058889359235764e-02 -9.280549362301826477e-03 2.513534575700759888e-02 -1.910186489112675190e-03 -1.839742623269557953e-02 -2.825251407921314240e-02 3.378094360232353210e-02 1.026696115732192993e-01 1.041674017906188965e-01 7.517750840634107590e-03 4.621326550841331482e-02 -8.873548358678817749e-03 6.613949686288833618e-02 8.224966377019882202e-02 -1.547181420028209686e-02 4.703479260206222534e-02 2.385405637323856354e-02 3.321524336934089661e-02 6.009636819362640381e-02 5.013543367385864258e-02 -9.869972394938031357e-09 -2.105210907757282257e-02 1.689727231860160828e-02 -4.189743660390377045e-03 -1.094453618861734867e-03 1.754835247993469238e-02 -4.332173659804539056e-07 9.974784217774868011e-03 -6.880436103529063985e-06 -2.427953854203224182e-02 3.967459872364997864e-02 2.047847211360931396e-02 4.036771506071090698e-02 -1.092123333364725113e-02 4.933796450495719910e-02 3.905639424920082092e-02 -3.719205781817436218e-02 5.166980903595685959e-03 1.976908929646015167e-02 -1.520608975624782033e-06 1.491097919642925262e-02 -5.698110163211822510e-02 -1.870229281485080719e-02 -3.546127583831548691e-03 9.138075262308120728e-02 4.145954735577106476e-03 4.578195977956056595e-03 2.083676308393478394e-02 6.903090048581361771e-03 5.054706707596778870e-02 -3.416617633774876595e-03 -2.834040299057960510e-02 -3.280634433031082153e-02 6.468721479177474976e-02 1.950216107070446014e-02 -5.742166298006168290e-09 8.474703878164291382e-02 9.119079262018203735e-02 6.440642755478620529e-03 -9.034213609993457794e-03 6.153764575719833374e-02 -8.433044888079166412e-03 -3.713473910465836525e-03 -3.347802534699440002e-02 3.537734597921371460e-02 -7.317946851253509521e-02 5.640044808387756348e-02 -1.895798370242118835e-02 2.383685670793056488e-03 1.823112182319164276e-02 1.240116357803344727e-02 6.593802245333790779e-04 -8.695298805832862854e-03 -1.698308810591697693e-02 -5.970126153442834038e-07 7.256028056144714355e-02 -6.298501975834369659e-03 -3.627910473369411193e-06 2.050115354359149933e-02 1.490547787398099899e-02 7.748807780444622040e-03 3.097742423415184021e-02 -6.791258603334426880e-02 6.689231377094984055e-03 1.177742052823305130e-02 2.540959976613521576e-02 1.358767854981124401e-03 7.181702647358179092e-03 5.167381092905998230e-02 1.838148944079875946e-02
4.091581702232360840e-02 5.768745671957731247e-03 -3.810806432738900185e-03 2.855032123625278473e-02 -5.768770817667245865e-03 2.980897575616836548e-02 5.841296166181564331e-02 1.775318942964076996e-02 2.881797403097152710e-02 7.630159705877304077e-02 -1.635381020605564117e-02 -4.733304958790540695e-03 -1.401337236166000366e-02 -8.113939315080642700e-03 8.217465132474899292e-02 -2.590800262987613678e-02 -1.772758364677429199e-02 -2.970679849386215210e-02 -4.150961525738239288e-03 3.361300006508827209e-02 5.268580280244350433e-03 -3.441158698493280727e-17 -2.811368368566036224e-02 4.984326840151709348e-11 -3.405051538720726967e-03 -1.517151575535535812e-02 4.157153144478797913e-02 2.469426952302455902e-02 -3.077839035540819168e-03 -4.666993394494056702e-03 -4.827423393726348877e-02 1.117557752877473831e-02 -4.178631934337317944e-05 2.684942213818430901e-03 3.209989890456199646e-02 -1.395820826292037964e-02 1.463231816887855530e-02 1.430355850607156754e-02 -1.420926675200462341e-02 2.634874358773231506e-02 7.087644462444586679e-07 6.074208021163940430e-02 -1.278147939592599869e-02 1.368205435574054718e-02 -3.633768111467361450e-02 -1.176662649959325790e-02 3.815020434558391571e-03 -4.058126732707023621e-02 1.241834601387381554e-03 2.575133554637432098e-02 8.253876119852066040e-03 -3.584258724004030228e-03 -2.083452790975570679e-02 1.265516318380832672e-02 7.353182137012481689e-02 9.632553905248641968e-03 1.047738944180309772e-03 -2.531596226617693901e-03 6.470137089490890503e-02 1.909233269528284871e-13 -1.181935332715511322e-02 -6.912955082952976227e-03 8.754680166020989418e-04 6.154899485409259796e-03 3.865765035152435303e-02 4.038987308740615845e-02 8.436774834990501404e-03 -2.563023939728736877e-02 1.923970319330692291e-02 -3.038246743381023407e-02 -1.266566757112741470e-02 3.226377069950103760e-02 -5.163277499377727509e-03 -5.164515972137451172e-02 -7.666130550205707550e-03 -1.798392739146947861e-03 1.026317663490772247e-02 7.991128601133823395e-03 1.060557272285223007e-02 2.820222452282905579e-02 1.842122711241245270e-02 5.096648354083299637e-03 4.259208682924509048e-03 -2.690076828002929688e-03 2.470064535737037659e-02 -3.952057287096977234e-02 1.857975311577320099e-02 3.074531070888042450e-02 -2.936078235507011414e-02 3.246495127677917480e-02 1.124474965035915375e-02 -3.199087455868721008e-02 -1.640129089355468750e-02 -1.141457239839382964e-08 1.716753467917442322e-02 5.587535724043846130e-02 1.978670805692672729e-02 -2.258017286658287048e-02 -4.553308244794607162e-03 -1.920533017255365849e-03 2.623459883034229279e-02 -1.274063624441623688e-02 -3.760061040520668030e-02 -1.500547211617231369e-02 -3.180837258696556091e-02 1.468613627366721630e-03 -1.376604568213224411e-02 2.567113377153873444e-02 5.419619847089052200e-04 -4.961776360869407654e-02 2.457924187183380127e-02 2.975552901625633240e-02 1.354171885736832337e-08 -2.101408131420612335e-02 -3.846915066242218018e-02 1.868260791525244713e-03 -1.236284588230773807e-04 8.308917284011840820e-03 -2.617035934235900640e-04 1.120833307504653931e-02 -3.348932042717933655e-02 -1.044647209346294403e-02 2.656371518969535828e-02 2.976756356656551361e-02 -3.218076357904334378e-31 -3.398976475000381470e-02 3.956238141248913649e-20 7.559231948107481003e-03 1.329599600285291672e-02 2.279958454892039299e-03 -8.050322532653808594e-03 -2.068941108882427216e-02 -4.456122219562530518e-02 2.765672514215111732e-03 6.103982683271169662e-03 -1.289087440818548203e-02 6.226457282900810242e-02 6.884370464831590652e-03 -1.083977241069078445e-02 9.073033928871154785e-03 2.088146656751632690e-02 4.165431484580039978e-03 -2.040211297571659088e-02 -3.283689171075820923e-02 1.100035198032855988e-02 1.089499425143003464e-02 1.228312868624925613e-02 -5.049111787229776382e-04 -1.914297789335250854e-02 -1.848785206675529480e-02 -1.407288201153278351e-02 4.134891705219321587e-20 1.261868700385093689e-02 -9.784555062651634216e-03 -3.247930109500885010e-02 2.463273517787456512e-02 1.814727857708930969e-02 -6.298075430095195770e-03 2.044131793081760406e-02 -5.503230541944503784e-02 -4.185805469751358032e-02 4.809948150068521500e-03 3.832934051752090454e-02 -1.281718257814645767e-02 -4.184046294540166855e-03 -2.382889576256275177e-02 1.906307600438594818e-02 5.697705782949924469e-03 1.501130289398133755e-03 1.564128324389457703e-02 1.600730605423450470e-02 -1.402279129251837730e-03 1.984564028680324554e-02 5.182574689388275146e-02 -8.389730937778949738e-03 9.245663881301879883e-03 -1.308846869505941868e-03 -4.166045039892196655e-02 4.029279574751853943e-02 2.410984411835670471e-02 -3.420123517727802209e-09 -3.903340920805931091e-02 -2.768633514642715454e-02 6.362041924148797989e-03 1.113601215183734894e-02 -1.454348955303430557e-02 -1.931242081809614319e-07 1.831640303134918213e-02 -1.618023475202789996e-06 6.103761494159698486e-02 -1.066588237881660461e-02 -3.551335260272026062e-02 -1.744805835187435150e-02 -3.442101180553436279e-02 4.081406071782112122e-02 -2.621507830917835236e-02 -1.174170803278684616e-02 -2.736080624163150787e-02 -1.828592456877231598e-02 -5.960255862191843335e-07 -9.633905254304409027e-03 7.456082385033369064e-03 -2.811792492866516113e-02 -2.662209980189800262e-02 -3.641296923160552979e-02 2.231362648308277130e-02 1.101982430554926395e-03 9.609125554561614990e-03 3.904381394386291504e-02 3.458785638213157654e-02 -9.116302244365215302e-03 -1.217111386358737946e-02 3.939118608832359314e-02 5.094150081276893616e-02 3.706140071153640747e-02 -7.594991476012058484e-12 1.364541705697774887e-02 7.214491069316864014e-02 -9.752782061696052551e-03 -8.916028775274753571e-03 -4.803971201181411743e-02 2.206040732562541962e-02 -8.698148652911186218e-03 1.182171795517206192e-02 -1.614192314445972443e-02 3.815063834190368652e-02 5.638022720813751221e-02 -4.520718753337860107e-02 2.027071639895439148e-02 -2.098032087087631226e-02 2.448683604598045349e-02 3.146796301007270813e-02 -1.740877167321741581e-03 -2.302586659789085388e-02 -1.402926914782204836e-20 5.330249667167663574e-02 5.310397967696189880e-02 -3.896763020659498563e-30 4.577068239450454712e-02 4.677505046129226685e-02 -1.086418423801660538e-02 2.622442692518234253e-02 -3.749331459403038025e-02 -5.924658849835395813e-03 -3.388395532965660095e-02 -1.952261198312044144e-03 4.249825328588485718e-02 -5.092637613415718079e-03 -8.545760996639728546e-03 4.600050300359725952e-02
-1.090988423675298691e-02 -7.686158642172813416e-03 -6.437809206545352936e-03 4.226855002343654633e-03 2.439103834331035614e-02 2.093704603612422943e-02 2.893245033919811249e-02 3.734196769073605537e-03 -1.244216877967119217e-02 -2.967999316751956940e-02 -1.512569095939397812e-02 1.433813013136386871e-02 -5.591496359556913376e-03 3.749324381351470947e-02 3.316347720101475716e-03 4.811139032244682312e-02 1.600932795554399490e-03 1.122619304805994034e-02 -2.791777625679969788e-02 -2.413835562765598297e-02 -6.655844859778881073e-03 -2.257297939578002205e-21 2.907651942223310471e-03 1.170477187395491114e-10 -2.681911177933216095e-02 1.530007924884557724e-02 -5.117062013596296310e-03 -3.604348283261060715e-03 2.795782685279846191e-02 -4.749908111989498138e-03 3.760619461536407471e-02 2.670503407716751099e-02 -4.971398448105901480e-05 3.073443844914436340e-02 -1.223290245980024338e-02 -1.450855564326047897e-02 2.970745600759983063e-02 3.014774620532989502e-02 -1.470685470849275589e-03 -1.824345625936985016e-02 -3.898381692124530673e-06 -2.692333888262510300e-03 -8.640286512672901154e-03 1.460383925586938858e-02 9.630342945456504822e-03 4.530297126621007919e-03 3.157408908009529114e-02 1.075969636440277100e-02 -1.360703259706497192e-03 -9.412580169737339020e-03 1.688042841851711273e-02 -2.777957543730735779e-02 -1.160524785518646240e-02 -1.393714267760515213e-02 -4.172455146908760071e-02 2.825937978923320770e-02 -2.603396540507674217e-03 2.162245567888021469e-03 -3.083129879087209702e-03 4.041142415013799927e-20 3.867628285661339760e-03 -9.738528169691562653e-03 -1.023535244166851044e-02 8.006218820810317993e-03 7.032907451502978802e-04 3.285555168986320496e-02 -1.339103002101182938e-02 2.470661327242851257e-02 -2.446372434496879578e-02 2.398284897208213806e-02 -2.821533125825226307e-04 1.948956213891506195e-02 1.153201702982187271e-02 3.068581782281398773e-02 3.372084721922874451e-02 -1.266160514205694199e-02 5.409380886703729630e-03 -2.315251342952251434e-02 8.690660819411277771e-03 -2.164682932198047638e-02 2.938643097877502441e-03 9.501949883997440338e-03 -8.396741002798080444e-03 1.781660318374633789e-02 -3.115907544270157814e-03 1.926455274224281311e-02 2.067607454955577850e-02 -2.172944508492946625e-02 -2.643759129568934441e-03 5.062847631052136421e-04 -1.520801056176424026e-02 3.008121624588966370e-02 7.796084042638540268e-03 1.954768968914777361e-08 -1.060802023857831955e-03 3.303331509232521057e-02 -2.389717474579811096e-02 2.042992971837520599e-02 7.496424484997987747e-03 2.657363191246986389e-02 -1.663237437605857849e-02 4.380877688527107239e-02 1.512693613767623901e-02 -2.270070137456059456e-03 -1.348295714706182480e-03 9.394704364240169525e-03 -1.941066049039363861e-02 -1.816338114440441132e-02 -1.600416935980319977e-02 -3.489940660074353218e-03 6.268278695642948151e-03 1.575468853116035461e-02 -2.229773280579917036e-25 2.913188887760043144e-03 2.419457398355007172e-02 1.859694905579090118e-02 -1.132927645812742412e-04 8.861872367560863495e-03 2.363739986321888864e-05 -1.722815562970936298e-03 7.743167690932750702e-03 3.883679956197738647e-02 2.565145678818225861e-02 3.598853480070829391e-03 -3.797102129303704793e-32 3.987185284495353699e-02 -1.874826717389757316e-28 5.478816456161439419e-04 -1.165747363120317459e-02 7.483277469873428345e-03 2.978471107780933380e-02 6.447833729907870293e-04 1.470017246901988983e-02 3.051768615841865540e-02 -6.088647525757551193e-03 -1.671053469181060791e-02 -2.251500077545642853e-02 3.029858320951461792e-02 1.963604614138603210e-02 2.950788661837577820e-02 -3.338600974529981613e-03 -8.931979537010192871e-03 4.817192384507507086e-04 1.978527940809726715e-02 -2.091280184686183929e-02 -1.096873357892036438e-02 1.710369437932968140e-02 1.735709235072135925e-02 6.339707225561141968e-02 5.689001828432083130e-02 2.266192343086004257e-03 -1.387482061654098179e-31 -3.933493793010711670e-02 -6.393908988684415817e-03 5.546537786722183228e-02 -6.195339374244213104e-03 -3.291420638561248779e-02 -1.238080393522977829e-02 -1.110744290053844452e-02 4.688154160976409912e-02 -1.196714118123054504e-03 1.563866622745990753e-02 2.081813290715217590e-03 -8.234597742557525635e-03 -2.796947397291660309e-02 -1.551604713313281536e-03 -1.598560996353626251e-02 3.277425467967987061e-02 2.231487259268760681e-02 -1.062181498855352402e-02 -4.727049730718135834e-03 -4.800491733476519585e-04 -1.958954147994518280e-02 -2.018641680479049683e-03 -8.370626717805862427e-03 2.184649743139743805e-02 1.608072593808174133e-02 3.823313862085342407e-02 -3.156720474362373352e-02 4.155398160219192505e-02 -2.082604089181927520e-09 4.921009764075279236e-02 1.681199180893599987e-03 -1.598565280437469482e-02 -1.887861452996730804e-02 -2.725994959473609924e-02 -6.224924931075292989e-08 1.558240223675966263e-02 -4.001532943220809102e-06 -5.488456785678863525e-02 3.723466536030173302e-03 -3.291474189609289169e-03 4.998250678181648254e-02 -1.372181810438632965e-02 1.007679849863052368e-02 2.447067759931087494e-02 2.663126587867736816e-02 2.711062692105770111e-02 3.157641738653182983e-02 -4.987660986444097944e-07 4.480346292257308960e-02 -1.547488011419773102e-02 3.937189001590013504e-03 2.956472337245941162e-02 1.798016391694545746e-02 2.721057459712028503e-02 5.830467678606510162e-03 3.152807056903839111e-02 -8.553569787181913853e-04 -3.140411805361509323e-03 2.286957763135433197e-02 -5.998946726322174072e-03 -2.137009426951408386e-02 2.097597904503345490e-02 1.983675872907042503e-03 3.929889791529230562e-32 2.468935772776603699e-02 -3.506496176123619080e-02 1.390940360579406843e-05 -1.029028184711933136e-02 2.012023888528347015e-02 -3.041987121105194092e-02 9.803396649658679962e-03 -9.709842503070831299e-03 2.018330059945583344e-02 -1.667951233685016632e-02 -2.154060825705528259e-02 -1.043669879436492920e-02 1.299544353969395161e-03 4.873014986515045166e-02 -1.582990773022174835e-02 -3.939092531800270081e-02 -2.313757501542568207e-02 3.721279278397560120e-02 -3.167615725274686156e-09 3.351943800225853920e-03 -2.650543488562107086e-02 1.036451269110472040e-17 -1.238903496414422989e-02 -2.867462113499641418e-03 -1.201193314045667648e-02 -3.066914528608322144e-02 1.171621144749224186e-03 -3.246894851326942444e-02 -4.971600137650966644e-03 -8.848048746585845947e-03 1.426194049417972565e-02 3.865210805088281631e-03 -1.413987250998616219e-03 -2.170665189623832703e-03
-7.141510024666786194e-03 1.050700247287750244e-02 -5.073192529380321503e-03 -7.397061679512262344e-03 5.180062726140022278e-03 1.894081011414527893e-02 1.046249363571405411e-02 6.285166018642485142e-04 -6.081238854676485062e-03 3.727656556293368340e-03 2.460446394979953766e-02 1.088348589837551117e-02 -8.728628978133201599e-03 3.257891163229942322e-03 4.259326378814876080e-04 4.964919388294219971e-02 6.854196079075336456e-03 1.501552388072013855e-02 -4.077967721968889236e-03 2.224916825070977211e-03 -3.583134093787521124e-04 2.052132352936553161e-10 7.396759465336799622e-03 6.913859484924955723e-10 -2.297160215675830841e-02 -1.045713666826486588e-03 -1.347479224205017090e-02 1.975371502339839935e-03 -4.895912948995828629e-03 1.289223437197506428e-03 5.489343777298927307e-03 1.180497650057077408e-02 -3.298982483102008700e-05 6.899699801579117775e-04 1.366368215531110764e-02 1.386075466871261597e-02 -2.026647562161087990e-03 1.318794395774602890e-02 2.050610072910785675e-02 -1.602816954255104065e-02 -5.978671197226503864e-06 -8.197064511477947235e-03 8.528300561010837555e-03 -3.918754868209362030e-03 8.416911441599950194e-06 1.528275082819163799e-03 1.140316389501094818e-02 2.224938012659549713e-03 1.039565657265484333e-03 -9.466652991250157356e-04 -1.349996495991945267e-02 -3.525244770571589470e-03 3.666682401672005653e-03 2.458736067637801170e-03 -1.297358330339193344e-02 -2.768742851912975311e-03 -1.887628313852474093e-04 5.824950058013200760e-04 -2.453901804983615875e-02 -4.181377732948021730e-08 -3.094182349741458893e-03 -1.180909341201186180e-03 1.704234443604946136e-02 -1.659884490072727203e-02 -4.985876381397247314e-03 9.482679888606071472e-05 6.149662658572196960e-04 1.933710463345050812e-02 6.560340523719787598e-03 4.375320393592119217e-03 8.734527975320816040e-03 9.573990479111671448e-03 2.263884060084819794e-03 1.046564802527427673e-02 -8.636515587568283081e-03 1.427901722490787506e-02 -1.427528681233525276e-03 4.809566307812929153e-03 6.870366050861775875e-04 1.286329794675111771e-02 -2.187039004638791084e-03 2.326226420700550079e-02 -4.871037323027849197e-03 4.267600830644369125e-03 5.964615265838801861e-04 1.625239662826061249e-02 -3.655274398624897003e-03 -1.889474689960479736e-02 8.660185150802135468e-03 -4.043894354254007339e-03 3.076545335352420807e-02 1.959438808262348175e-02 2.543867798522114754e-03 -1.276392769256062820e-08 -5.424843635410070419e-03 -4.782530013471841812e-03 -7.216948084533214569e-03 1.508715935051441193e-02 1.610557897947728634e-03 4.677672404795885086e-03 1.285232044756412506e-02 6.031373981386423111e-03 2.006025239825248718e-02 7.423737086355686188e-03 -2.836530562490224838e-03 -2.800849964842200279e-03 9.321677498519420624e-03 -2.050136774778366089e-02 -5.330716259777545929e-03 1.287718676030635834e-02 1.137895509600639343e-03 1.175703667104244232e-02 4.109847395739052445e-08 8.809206075966358185e-03 2.139562554657459259e-02 3.700411180034279823e-03 1.000491669401526451e-03 3.846883075311779976e-03 -3.125482908217236400e-05 1.915823668241500854e-02 3.399170236662030220e-03 1.194766722619533539e-03 7.142973598092794418e-03 -5.425367038697004318e-03 1.175507751457886882e-31 1.972361467778682709e-03 3.064955393308287840e-21 -2.080620761262252927e-04 -4.901819862425327301e-03 6.876267958432435989e-03 1.070936396718025208e-02 -2.733284374698996544e-03 6.428963039070367813e-03 7.621581200510263443e-03 -5.026596132665872574e-03 -5.062322132289409637e-03 -1.425830647349357605e-02 1.736782863736152649e-02 1.489473786205053329e-02 6.266440032050013542e-04 5.890190135687589645e-03 1.914067380130290985e-02 2.316233003512024879e-03 -3.085127798840403557e-03 -7.618940901011228561e-03 5.265699233859777451e-03 -2.126660256180912256e-04 1.488425768911838531e-02 -2.640917431563138962e-03 9.518590755760669708e-03 1.839215867221355438e-02 -7.151685855357363470e-27 -9.808444418013095856e-03 -5.224135704338550568e-03 7.499309722334146500e-04 -7.093667518347501755e-03 3.476509591564536095e-03 7.446025963872671127e-03 3.161756554618477821e-03 9.323262609541416168e-03 4.998076707124710083e-03 1.107773650437593460e-02 3.095174441114068031e-03 8.520412258803844452e-03 1.210696518683107570e-05 -9.304599836468696594e-03 1.343612279742956161e-02 2.170624770224094391e-02 2.409969642758369446e-02 -5.846113199368119240e-04 1.786882616579532623e-02 1.241920050233602524e-02 2.020326629281044006e-02 1.566849835216999054e-02 -3.275114577263593674e-03 3.023731522262096405e-03 -7.629080209881067276e-03 1.745439134538173676e-02 8.971318602561950684e-03 -1.684834132902324200e-03 -7.795040724012380906e-10 9.541296400129795074e-03 1.633851602673530579e-02 -2.968456363305449486e-03 -5.907155107706785202e-03 5.295147653669118881e-03 -4.851846711062535178e-07 -8.558241650462150574e-03 -1.750450792314950377e-06 -1.852240040898323059e-02 1.157261338084936142e-02 7.169174961745738983e-03 1.228066161274909973e-02 5.301048979163169861e-03 -1.139845885336399078e-02 1.812414079904556274e-02 -7.109782192856073380e-03 7.542341481894254684e-03 1.858586072921752930e-02 -6.308795832410396542e-07 7.061313837766647339e-03 -1.281383074820041656e-02 2.367821434745565057e-04 4.629314411431550980e-03 2.263728156685829163e-02 5.248260567896068096e-04 1.782873878255486488e-03 7.102312520146369934e-03 -7.504727225750684738e-03 3.309384919703006744e-03 -3.710906719788908958e-03 -2.006475580856204033e-03 -1.278374623507261276e-02 5.813794210553169250e-03 -7.869714871048927307e-03 -5.069943810520271677e-31 1.440976746380329132e-02 7.332396227866411209e-03 5.965080112218856812e-03 -2.187206409871578217e-03 2.126511931419372559e-02 -4.880454798694700003e-04 5.229466594755649567e-03 -1.029391307383775711e-02 1.860447973012924194e-02 -1.981666497886180878e-02 -9.777558967471122742e-03 6.457178853452205658e-03 -2.561339177191257477e-03 7.796624209731817245e-03 1.043189875781536102e-02 1.573185320012271404e-03 -4.649351350963115692e-03 2.085297834128141403e-03 -4.730818048415130761e-08 2.233579754829406738e-02 -3.089912468567490578e-03 8.352409963663376402e-07 -3.054728731513023376e-03 -5.792268086224794388e-03 4.977376665920019150e-03 2.601590473204851151e-03 -2.997981617227196693e-03 1.390176359564065933e-02 5.521123763173818588e-03 7.807056419551372528e-03 -9.523909538984298706e-03 3.415476996451616287e-03 2.788330800831317902e-02 -1.749248476698994637e-03
-2.682183496654033661e-02 2.006260305643081665e-02 1.816092524677515030e-03 -9.771032258868217468e-03 1.019960176199674606e-02 5.131132900714874268e-02 -8.971951901912689209e-03 8.290436118841171265e-03 -1.454831846058368683e-02 -4.496021568775177002e-02 1.400401070713996887e-02 -4.497353918850421906e-03 2.247667312622070312e-02 5.038441717624664307e-02 -5.651901289820671082e-02 6.965905427932739258e-02 3.041484951972961426e-02 -4.774061497300863266e-03 -7.183431647717952728e-03 -3.609252348542213440e-02 -5.086125805974006653e-03 -1.753322139848023653e-04 1.525875087827444077e-02 -1.817836192685717833e-08 -1.730786054395139217e-03 -6.738868542015552521e-03 -3.104036673903465271e-02 -1.116387080401182175e-02 3.714150935411453247e-02 -1.523022074252367020e-03 4.515760391950607300e-02 6.130725890398025513e-02 -2.601846354082226753e-04 1.636506058275699615e-02 -5.713159590959548950e-02 6.780987605452537537e-03 -2.503618225455284119e-02 4.524191468954086304e-02 9.960790164768695831e-03 -5.796329118311405182e-03 1.010980395221849903e-05 -2.781182713806629181e-02 -1.965403743088245392e-02 -4.875192418694496155e-03 3.113457188010215759e-02 -2.744879340752959251e-03 -1.533813122659921646e-02 6.227905675768852234e-02 -4.903440363705158234e-03 -5.243834480643272400e-02 1.478875614702701569e-02 -1.634343154728412628e-02 -4.705798998475074768e-02 -1.896459795534610748e-02 -6.017933785915374756e-02 1.447669230401515961e-02 -7.057209149934351444e-04 3.483879379928112030e-03 -2.358786016702651978e-02 -1.057497229339787737e-06 3.443314507603645325e-02 -5.421708803623914719e-03 1.087231095880270004e-02 1.389640010893344879e-02 6.183252204209566116e-03 -6.637705024331808090e-03 -8.590186946094036102e-03 3.878068551421165466e-02 -9.893950074911117554e-03 5.746615305542945862e-02 -7.320431759580969810e-04 -1.446511014364659786e-03 1.517364662140607834e-02 6.855617463588714600e-02 1.891218312084674835e-02 3.123404271900653839e-02 -9.288383647799491882e-03 -5.941508803516626358e-03 7.699331268668174744e-03 1.549059990793466568e-02 -1.787516660988330841e-02 4.607338085770606995e-02 -1.768011972308158875e-02 4.240439832210540771e-02 -3.020942956209182739e-02 8.797122538089752197e-02 -4.114950541406869888e-03 -2.615122310817241669e-02 6.481726653873920441e-03 -2.749118395149707794e-02 -1.929295063018798828e-02 6.640470772981643677e-02 -1.906510093249380589e-03 -5.938860780929644534e-08 1.233322080224752426e-02 2.439123392105102539e-02 -3.568420931696891785e-02 1.515010185539722443e-02 2.173158526420593262e-02 -3.338789567351341248e-02 -7.321556657552719116e-02 2.701429463922977448e-02 1.619453728199005127e-02 -1.568230614066123962e-02 -4.425426945090293884e-02 -5.211433395743370056e-03 3.223767504096031189e-03 -2.384157665073871613e-02 -7.925822399556636810e-03 7.450278103351593018e-02 -4.056472703814506531e-02 1.319090370088815689e-03 2.721422420748353943e-09 5.466168746352195740e-03 3.086676634848117828e-02 5.139682814478874207e-02 -7.976139750098809600e-05 -1.282162871211767197e-02 2.451432228554040194e-04 6.717947125434875488e-02 5.353752896189689636e-02 8.708924800157546997e-02 -3.170610219240188599e-02 4.259945999365299940e-04 -9.548212779241990744e-15 1.021542251110076904e-01 -7.862652751100540627e-09 -4.799775034189224243e-02 -1.576452329754829407e-02 -7.818152196705341339e-03 7.431497424840927124e-02 5.433539394289255142e-03 6.330346316099166870e-02 -1.468675490468740463e-02 -6.431636400520801544e-03 -1.269794348627328873e-02 -5.722570791840553284e-02 1.164980828762054443e-01 1.125596091151237488e-01 1.268324442207813263e-02 -2.474253624677658081e-02 -1.576706953346729279e-02 3.235766896978020668e-03 2.554217912256717682e-02 -1.541897375136613846e-02 -7.026896625757217407e-02 1.344459713436663151e-03 -2.499099820852279663e-03 1.222998276352882385e-01 1.072228997945785522e-01 -1.071264123311266303e-04 -4.047248512506484985e-05 -1.125284843146800995e-02 1.638264022767543793e-02 6.143918260931968689e-02 -3.426131606101989746e-02 -1.758137904107570648e-02 4.152123630046844482e-02 2.288490533828735352e-02 6.835343688726425171e-02 1.051512919366359711e-02 4.098292812705039978e-02 -2.173196151852607727e-02 3.217618167400360107e-02 2.176819182932376862e-02 3.647540882229804993e-02 -2.101653628051280975e-02 -4.211591556668281555e-03 2.471301518380641937e-02 -1.327916886657476425e-02 4.393222182989120483e-02 3.015461144968867302e-03 -5.958429072052240372e-03 -5.198862776160240173e-02 2.678278135135769844e-03 2.832470461726188660e-02 1.941200578585267067e-03 5.669875070452690125e-02 -8.341927081346511841e-02 1.444859337061643600e-02 -1.535891858139848409e-09 8.921281993389129639e-02 1.259731594473123550e-02 -1.745411567389965057e-02 -1.857241429388523102e-02 4.954349249601364136e-02 -3.259451943904423388e-07 5.840037390589714050e-02 -9.716014574223663658e-06 -8.826987445354461670e-02 7.490440271794795990e-03 2.222645282745361328e-02 -1.301165018230676651e-02 6.326422095298767090e-02 -1.792838238179683685e-02 -1.305365189909934998e-02 6.743435747921466827e-03 2.678941003978252411e-03 5.290575698018074036e-02 -2.592676651147485245e-07 3.676626086235046387e-02 -1.761826500296592712e-02 4.601471498608589172e-02 1.556514762341976166e-02 6.161973252892494202e-02 4.999577254056930542e-02 2.756041474640369415e-03 4.005372896790504456e-02 -2.052560821175575256e-02 -3.573751077055931091e-02 -7.361476309597492218e-03 3.542787954211235046e-02 -2.653990499675273895e-02 -9.257962810806930065e-04 -1.357850036583840847e-03 -2.136301091582026856e-08 2.628741087391972542e-03 -9.775925427675247192e-03 1.345702679827809334e-03 8.684393949806690216e-03 1.197006702423095703e-01 -1.635858230292797089e-02 9.532946161925792694e-03 -1.001099683344364166e-02 2.636909298598766327e-02 -4.793509095907211304e-02 -1.516567729413509369e-02 1.160071045160293579e-02 -4.665886983275413513e-03 4.449952393770217896e-02 -9.801719337701797485e-03 -5.748550593852996826e-02 -2.054435573518276215e-02 4.116254672408103943e-02 -1.534066562669522682e-08 -5.869167670607566833e-02 -3.433477133512496948e-02 -2.993697762576630339e-06 -3.105350770056247711e-02 -4.766482487320899963e-02 2.495387801900506020e-03 -9.391197003424167633e-03 6.278610974550247192e-02 2.357319556176662445e-02 5.544325336813926697e-03 2.822416462004184723e-02 -5.053484439849853516e-02 8.364764973521232605e-03 -1.084597967565059662e-02 -4.557454027235507965e-03
-8.518116548657417297e-03 1.505604851990938187e-02 5.838874261826276779e-03 2.264466369524598122e-03 3.734154626727104187e-02 4.512445628643035889e-02 4.143395647406578064e-02 9.890222921967506409e-03 -1.278132293373346329e-02 4.269302636384963989e-02 -2.454093843698501587e-02 2.359122224152088165e-02 -2.187426760792732239e-02 4.578497633337974548e-02 -1.970506273210048676e-03 8.378634601831436157e-02 -5.679337307810783386e-02 -1.520249340683221817e-02 -2.930120681412518024e-04 -5.954487249255180359e-03 -3.919406328350305557e-03 -1.024687662720680237e-06 4.106983914971351624e-02 5.250285095570461635e-09 1.023888308554887772e-02 -8.690861985087394714e-03 2.964394725859165192e-02 5.032524000853300095e-03 -4.142577818129211664e-04 4.142447374761104584e-03 2.736948803067207336e-02 5.308303609490394592e-02 -1.451550342608243227e-04 -1.899627037346363068e-02 5.977142229676246643e-02 -3.583232313394546509e-02 9.433074854314327240e-03 3.013679012656211853e-02 1.257167756557464600e-02 -1.280886586755514145e-02 -2.525821946619544178e-05 5.360154062509536743e-02 3.696990432217717171e-03 -9.233989752829074860e-03 -2.298891358077526093e-02 -3.198987618088722229e-02 7.878874242305755615e-02 2.456304989755153656e-02 -4.476800095289945602e-03 6.162338424474000931e-03 2.478779852390289307e-02 1.369387377053499222e-02 -2.149297669529914856e-02 5.683813709765672684e-03 -4.708887264132499695e-02 6.268759816884994507e-02 -4.899771884083747864e-03 2.591951284557580948e-03 -6.127307191491127014e-03 2.997195025500332122e-08 -6.253437139093875885e-03 5.940048955380916595e-03 3.770655021071434021e-02 -7.866864092648029327e-03 5.029750615358352661e-02 1.375691592693328857e-02 -3.916343208402395248e-03 6.804589927196502686e-02 6.047698203474283218e-03 4.798820242285728455e-03 1.732460781931877136e-02 2.093832939863204956e-02 6.238105241209268570e-03 2.956817671656608582e-02 -1.222342997789382935e-02 -6.166787445545196533e-02 -1.815832336433231831e-03 8.183195441961288452e-02 2.700403146445751190e-02 3.542633261531591415e-03 -2.979762107133865356e-02 -1.422781869769096375e-02 -8.353506214916706085e-03 7.859471440315246582e-02 3.402671217918395996e-02 3.410783410072326660e-02 5.052020400762557983e-02 -2.483037300407886505e-02 -5.693726986646652222e-02 4.303338751196861267e-02 6.654270738363265991e-02 6.932192016392946243e-03 5.709905177354812622e-03 -1.382451273457263596e-07 -4.934330470860004425e-03 1.284803748130798340e-01 -1.152202603407204151e-04 3.132024407386779785e-02 2.229007426649332047e-03 -1.147667504847049713e-02 6.675762683153152466e-02 1.231851428747177124e-02 -2.345424331724643707e-02 7.291343808174133301e-02 -4.991653189063072205e-02 1.317457761615514755e-02 -1.042382325977087021e-02 -2.462833002209663391e-02 1.888997503556311131e-03 -8.812960982322692871e-02 -2.357652783393859863e-02 3.368447069078683853e-03 7.179549754710023990e-08 4.088249523192644119e-03 2.276629954576492310e-02 4.818609729409217834e-02 -2.250606776215136051e-04 3.574977815151214600e-02 -3.439443535171449184e-04 3.060465678572654724e-02 -1.879451796412467957e-02 7.409821450710296631e-02 5.464378371834754944e-02 3.338468447327613831e-02 1.827727137634795270e-28 -8.771980181336402893e-03 -3.583199709167317337e-12 -1.095434185117483139e-02 1.085075270384550095e-02 1.228521391749382019e-02 9.115582704544067383e-02 -1.170861255377531052e-02 4.385923594236373901e-02 3.085382468998432159e-02 -3.582390199881047010e-04 8.720065234228968620e-04 2.461081743240356445e-02 5.604144651442766190e-03 8.741433173418045044e-02 7.298591732978820801e-02 4.818819463253021240e-02 3.274212032556533813e-02 2.313223667442798615e-02 -1.019348273985087872e-03 4.250403027981519699e-03 -2.028974704444408417e-02 5.666259210556745529e-03 5.059063807129859924e-02 8.516420423984527588e-02 2.968735247850418091e-02 -6.439447868615388870e-03 -1.559321049171558116e-06 -2.720195241272449493e-02 -3.502266854047775269e-02 5.602988973259925842e-02 -3.065638430416584015e-02 -5.576033727265894413e-04 5.886350199580192566e-02 -6.865140050649642944e-02 2.932119555771350861e-02 5.887820571660995483e-02 -1.214468851685523987e-02 5.343110766261816025e-03 -2.169267460703849792e-02 -1.581522822380065918e-02 1.980832777917385101e-02 -1.085305307060480118e-02 8.030521869659423828e-02 5.929902940988540649e-02 2.235044259577989578e-03 -5.993169546127319336e-02 -1.925818040035665035e-03 3.804377093911170959e-02 1.062759011983871460e-01 -1.874105446040630341e-02 2.127380669116973877e-02 2.145967446267604828e-02 4.331003408879041672e-03 4.037380218505859375e-02 3.748166188597679138e-02 -2.204005311590151450e-10 -4.827703908085823059e-02 7.911131717264652252e-03 -1.555597409605979919e-03 1.421159133315086365e-02 -5.598852783441543579e-02 -2.411458694950852077e-07 4.189146682620048523e-02 -6.791735813749255612e-06 -2.295009233057498932e-02 3.784118592739105225e-02 2.377770096063613892e-02 6.688755005598068237e-02 -9.769930504262447357e-03 5.246111005544662476e-02 -2.581761591136455536e-02 7.802616339176893234e-03 -9.453551843762397766e-03 6.632692646235227585e-03 -1.221579395860317163e-06 -5.218710866756737232e-04 -5.507746711373329163e-02 -3.471634909510612488e-02 3.447568416595458984e-02 7.089711725711822510e-02 -1.699444401310756803e-04 2.980091376230120659e-03 1.052049547433853149e-02 5.496421083807945251e-02 5.076677352190017700e-02 5.906420294195413589e-03 -4.781941697001457214e-02 -5.078227445483207703e-02 1.922824978828430176e-02 1.167897693812847137e-02 -1.457707149432607707e-10 6.834533065557479858e-02 -5.365972872823476791e-03 -1.106382987927645445e-04 -4.930161230731755495e-05 6.886634975671768188e-02 3.417132422327995300e-03 -1.387235801666975021e-02 -7.243805099278688431e-03 3.487809002399444580e-02 -1.611520908772945404e-02 8.012158423662185669e-02 -1.182190515100955963e-02 -1.499906531535089016e-03 2.123114466667175293e-02 -1.953397504985332489e-02 6.673528812825679779e-03 -9.458743734285235405e-04 1.782055757939815521e-02 -1.319325377835411928e-07 5.780219286680221558e-02 -2.841934375464916229e-02 -1.944208452187012881e-05 3.859469294548034668e-02 1.080599799752235413e-02 9.912122972309589386e-03 2.277045510709285736e-02 -7.724668085575103760e-02 -2.140810526907444000e-02 4.287374764680862427e-02 2.127584069967269897e-02 1.785334572196006775e-02 6.416338030248880386e-03 1.480623520910739899e-02 2.016449719667434692e-02
