4.375755321234464645e-03 3.787746420130133629e-03 -1.552089676260948181e-02 1.212687790393829346e-02 4.119197651743888855e-02 4.445229191333055496e-03 -7.763452827930450439e-03 1.035577617585659027e-02 1.071541383862495422e-02 3.835239633917808533e-02 2.467054128646850586e-02 2.244162745773792267e-02 -1.974524371325969696e-02 -1.588121289387345314e-03 8.539318107068538666e-03 1.424346864223480225e-02 -2.023526467382907867e-03 5.841013509780168533e-03 1.121773291379213333e-02 -2.091388776898384094e-02 -1.238005817867815495e-03 -3.459571453277021646e-04 2.623794414103031158e-02 -4.098260309547185898e-03 1.805839128792285919e-02 1.253130938857793808e-02 -2.263308706460520625e-04 1.893757469952106476e-02 1.333889737725257874e-02 5.458659492433071136e-03 5.941418465226888657e-03 -1.250745262950658798e-03 -2.630425384268164635e-03 -8.233038242906332016e-04 -1.095687854103744030e-03 4.303048481233417988e-04 3.223796188831329346e-02 -4.057399928569793701e-03 -4.924357868731021881e-03 -6.983412429690361023e-03 -3.730400931090116501e-03 1.720492914319038391e-02 -6.710582412779331207e-03 -7.281349506229162216e-03 7.741776295006275177e-03 1.394384726881980896e-02 2.000343240797519684e-02 2.596284449100494385e-02 -5.230664275586605072e-03 2.308647520840167999e-02 2.043979056179523468e-02 -2.120872214436531067e-02 1.498971018008887768e-03 8.418235927820205688e-03 1.518315449357032776e-02 8.059252053499221802e-03 -8.137354627251625061e-03 -1.100405864417552948e-02 1.080713141709566116e-02 5.443198606371879578e-04 -1.415135338902473450e-02 4.308837465941905975e-03 1.895372942090034485e-02 4.586429335176944733e-03 -1.527796200662123738e-07 1.300058909691870213e-03 -1.397868990898132324e-02 1.025801897048950195e-02 1.577666844241321087e-03 2.996541792526841164e-03 1.570519432425498962e-02 -3.932467196136713028e-03 6.081255618482828140e-03 2.068431349471211433e-04 -3.394567174836993217e-03 -6.035819649696350098e-03 3.761911764740943909e-02 -4.941260442137718201e-03 -5.105472635477781296e-03 -3.905312856659293175e-03 1.627580961212515831e-03 -3.617797279730439186e-03 3.202939778566360474e-02 7.550788111984729767e-03 -1.903931610286235809e-03 -1.504345913417637348e-03 -6.252184975892305374e-03 -8.076939731836318970e-03 -2.954755909740924835e-03 8.850772865116596222e-03 1.255086529999971390e-02 1.732316799461841583e-02 -3.497402649372816086e-03 8.192895911633968353e-03 1.572024077177047729e-02 -2.999819116666913033e-04 1.327729318290948868e-02 -9.391762316226959229e-03 4.194437526166439056e-03 6.804340984672307968e-03 1.276826299726963043e-02 3.093395940959453583e-02 -2.454671515757001014e-26 -2.981620142236351967e-03 1.495256740599870682e-02 5.972188386923294178e-29 -3.825116727966815233e-04 3.159117698669433594e-02 -4.616063088178634644e-03 2.080230042338371277e-02 2.630458772182464600e-02 5.440638051368296146e-04 -5.682738963514566422e-03 6.211239844560623169e-03 -1.969022303819656372e-02 4.831729456782341003e-03 1.237067114561796188e-02 1.189286354929208755e-02 9.867392480373382568e-03 -4.847946576774120331e-03 1.297386083751916885e-02 3.143155248835682869e-03 2.444406598806381226e-02 2.985849743708968163e-03 -1.560321543365716934e-03 -4.093907773494720459e-03 6.657825782895088196e-03 8.551311679184436798e-03 2.041550818830728531e-03 1.548605039715766907e-02 -1.222284790128469467e-02 2.656300924718379974e-02 2.751691034063696861e-03 4.129807464778423309e-03 5.565006285905838013e-03 3.498079720884561539e-03 1.353000104427337646e-02 6.297696381807327271e-03 2.150032855570316315e-02 4.556721076369285583e-03 2.181267179548740387e-02 1.359825674444437027e-02 -2.396942488849163055e-02 1.258632447570562363e-02 -6.564242648892104626e-04 7.618534844368696213e-03 5.151529237627983093e-02 1.294742245227098465e-02 9.531877003610134125e-04 1.338189188390970230e-02 2.299635112285614014e-02 -1.368285249918699265e-02 3.449483215808868408e-02 2.294179052114486694e-02 1.536781061440706253e-02 3.606972098350524902e-02 -1.237417105585336685e-03 -3.147480078041553497e-03 1.801297534257173538e-03 1.023658923804759979e-02 -1.051192823797464371e-02 -1.054392103105783463e-02 2.285642363131046295e-02 2.928388863801956177e-02 8.990955539047718048e-03 -2.012882195413112640e-02 1.946593262255191803e-02 1.224206946790218353e-02 -1.783363638530807180e-31 3.165982291102409363e-02 1.767719350755214691e-02 -7.916270755231380463e-03 1.077978312969207764e-02 -1.388216391205787659e-02 4.361048713326454163e-02 4.660894628614187241e-03 -4.832822014577686787e-04 3.884300589561462402e-03 7.532550953328609467e-04 -5.220290273427963257e-03 1.264431234449148178e-02 3.144623711705207825e-02 -3.152103396132588387e-03 -3.422301006139605306e-06 -1.700911484658718109e-02 -3.007875868809839471e-17 -6.280056200921535492e-03 -2.181160077452659607e-02 -2.596609992906451225e-03 -8.150483949975750875e-07 1.553481537848711014e-02 2.156977914273738861e-02 -1.265506725758314133e-02 1.782170683145523071e-02 9.829950518906116486e-03 9.354769135825335979e-04 2.205103635787963867e-02 -7.185041904449462891e-03 -1.589591242372989655e-02 -1.940966350957751274e-03 2.591749071143567562e-04 -5.386479198932647705e-03 -3.216962330043315887e-03 -1.637993939220905304e-02 -7.318723946809768677e-03 2.678632549941539764e-02 1.617044210433959961e-02 -2.888332121074199677e-03 9.232623502612113953e-03 -3.958611283451318741e-03 4.662104416638612747e-03 1.622756099095568061e-05 -2.274149656295776367e-02 9.250916264136321843e-06 1.160754449665546417e-02 6.940122228115797043e-03 2.141659334301948547e-02 -5.550297442823648453e-03 2.096266113221645355e-02 5.098928231745958328e-04 -2.959581092000007629e-03 2.031295374035835266e-02 1.966265263035893440e-03 4.511709790676832199e-03 5.251402966678142548e-03 -1.893801428377628326e-02 3.006340004503726959e-03 2.725512348115444183e-02 1.530368532985448837e-02 -1.010641455650329590e-02 -5.457608029246330261e-03 -4.200122319161891937e-03 1.307148393243551254e-02 1.045242068357765675e-03 -2.106614876538515091e-03 -6.045456975698471069e-03 3.272825386375188828e-03 1.130691170692443848e-02 -3.532966598868370056e-02 6.650058086961507797e-03 1.197770331054925919e-02 -8.957658428698778152e-04 1.338342856615781784e-02 2.468078583478927612e-02 -1.075701322406530380e-02 7.011823821812868118e-03 3.503962606191635132e-02 1.906831748783588409e-02 3.180552273988723755e-02 2.898233383893966675e-02
8.654581033624708652e-04 -2.598616061732172966e-03 -7.659274153411388397e-03 4.215431865304708481e-03 2.445533638820052147e-03 1.415462000295519829e-03 -1.304943813011050224e-03 5.677348934113979340e-03 2.865515882149338722e-03 1.362721435725688934e-02 5.610160995274782181e-03 1.849334570579230785e-03 -2.053918782621622086e-03 -2.253499813377857208e-03 -2.606333699077367783e-03 1.788538065738976002e-03 -9.542689658701419830e-03 -2.201217692345380783e-03 -3.558059106580913067e-04 -6.796594709157943726e-03 -1.351005746982991695e-03 5.199958104640245438e-03 2.588811621535569429e-04 -1.815566211007535458e-03 3.435913240537047386e-04 1.129622384905815125e-02 1.304177567362785339e-03 2.448951127007603645e-03 -5.229904316365718842e-03 1.133461948484182358e-03 1.336183049716055393e-03 -1.821475161705166101e-04 -6.841021124273538589e-03 6.923439446836709976e-03 -3.495556069537997246e-03 -7.362065371125936508e-04 2.517230575904250145e-03 -2.446669852361083031e-03 -4.993894137442111969e-03 4.440698307007551193e-03 -2.673915121704339981e-03 2.755345078185200691e-03 -4.488728940486907959e-03 -5.250273272395133972e-03 -1.187792862765491009e-03 2.083886880427598953e-03 6.043948815204203129e-04 1.111930143088102341e-02 -2.075918018817901611e-03 9.055872447788715363e-03 1.351001113653182983e-02 -5.392738385125994682e-04 -1.643469557166099548e-03 3.603501012548804283e-03 -2.923175692558288574e-03 8.893912658095359802e-03 -2.320839790627360344e-03 4.611280746757984161e-05 -4.738347488455474377e-04 3.737857565283775330e-03 1.177574740722775459e-03 2.068280009552836418e-03 3.653347026556730270e-03 4.949697759002447128e-03 -3.345733645687687385e-08 4.212589934468269348e-03 -1.396105391904711723e-03 2.258278895169496536e-03 2.152766799554228783e-03 2.758768387138843536e-03 5.410454235970973969e-03 2.968396001961082220e-04 5.261418991722166538e-04 -4.710385110229253769e-03 -1.156027079559862614e-03 1.564032281748950481e-03 9.644599631428718567e-03 4.240013659000396729e-03 1.565832179039716721e-03 6.704185507260262966e-04 -9.920980082824826241e-04 -6.801444687880575657e-04 9.075559792108833790e-04 1.166187343187630177e-03 -2.667493186891078949e-03 -3.722589171957224607e-04 -1.473292009904980659e-03 -4.840035457164049149e-03 -5.742835346609354019e-03 1.589890569448471069e-03 2.652905182912945747e-03 6.385634653270244598e-03 3.398580942302942276e-03 6.965918000787496567e-03 2.146252372767776251e-04 1.502184849232435226e-02 6.133299320936203003e-03 -7.773287594318389893e-03 -7.332796812988817692e-04 4.741270560771226883e-03 -6.229271646589040756e-03 1.201979257166385651e-02 -1.560683866182787145e-31 -1.659017638303339481e-03 6.071079988032579422e-03 7.302127272957747476e-29 -7.211876800283789635e-04 2.243097638711333275e-03 -5.409216973930597305e-04 5.974465981125831604e-03 8.656505378894507885e-04 -4.337723832577466965e-03 1.431802404113113880e-03 -3.770768234971910715e-04 -6.844256538897752762e-03 5.586687009781599045e-03 -4.260834830347448587e-04 -5.473834928125143051e-03 3.712445497512817383e-03 4.531409591436386108e-03 -3.823925799224525690e-04 1.426834031008183956e-03 -1.013035885989665985e-03 3.091234830208122730e-04 7.067933329381048679e-04 -2.477430505678057671e-03 6.544092204421758652e-03 -3.513288451358675957e-03 7.467854884453117847e-04 3.885313170030713081e-03 2.008599229156970978e-03 -1.001433469355106354e-03 -5.532727576792240143e-03 6.229883874766528606e-04 4.722793586552143097e-03 -9.041196317411959171e-04 3.333455417305231094e-03 -9.427093900740146637e-03 3.620942821726202965e-03 2.081318991258740425e-03 1.603077049367129803e-03 4.644168540835380554e-03 1.838886295445263386e-03 -1.725911279208958149e-03 -3.801196580752730370e-03 -5.171950440853834152e-03 3.577092662453651428e-03 5.390143953263759613e-03 -7.002468337304890156e-04 8.277316577732563019e-03 6.525807548314332962e-03 -4.514771979302167892e-03 3.549993503838777542e-03 1.363060204312205315e-03 4.134743474423885345e-03 4.229303915053606033e-03 6.294397753663361073e-04 5.117288790643215179e-03 6.850529462099075317e-03 1.313518383540213108e-03 -2.838321961462497711e-03 4.756825044751167297e-03 -1.312019769102334976e-03 4.569187760353088379e-03 -4.223470576107501984e-03 -8.664262131787836552e-04 8.332482539117336273e-03 7.608174346387386322e-03 -1.357479120001902376e-30 1.069633197039365768e-02 -1.229169196449220181e-03 5.692741833627223969e-03 -7.837597280740737915e-03 -6.495949812233448029e-03 1.217889250256121159e-03 -2.198847651015967131e-04 -3.234137548133730888e-04 1.437727245502173901e-03 -1.041410723701119423e-03 3.089575096964836121e-03 -4.797913134098052979e-03 5.069600883871316910e-03 -2.971563953906297684e-03 -8.816709282655210700e-07 -3.106570569798350334e-03 1.835586338639534256e-30 -4.651166032999753952e-03 -2.318985527381300926e-03 -4.568858072161674500e-03 -1.067630250872753095e-08 8.188760839402675629e-03 -3.342605661600828171e-03 -1.869452185928821564e-03 4.586400929838418961e-03 -2.300688996911048889e-03 -5.989548750221729279e-03 3.110443474724888802e-03 -1.967523014172911644e-03 -4.236529057379812002e-04 -1.892407017294317484e-04 4.324152134358882904e-03 -2.382122693234123290e-05 -2.478456590324640274e-03 -7.219928083941340446e-04 -7.013145950622856617e-04 5.281859193928539753e-04 3.131403587758541107e-03 -8.963919244706630707e-03 3.068721620365977287e-03 4.462297074496746063e-03 -5.485662259161472321e-03 6.216076668351888657e-03 -2.018501749262213707e-03 3.685333940666168928e-04 1.119207590818405151e-03 5.905073136091232300e-03 7.813639938831329346e-03 -6.556166335940361023e-03 5.322187673300504684e-03 2.978943055495619774e-03 4.975821357220411301e-03 -5.467347800731658936e-04 1.335137931164354086e-04 5.636687856167554855e-03 -5.026644095778465271e-03 -3.553839400410652161e-03 -1.192555529996752739e-03 6.620719097554683685e-03 1.173607539385557175e-02 -1.267630327492952347e-02 -2.521725837141275406e-03 -2.157660666853189468e-03 7.608363870531320572e-03 -9.424063027836382389e-04 5.592016037553548813e-03 -1.467286638217046857e-04 -4.026931710541248322e-03 -2.208146033808588982e-04 -8.887522853910923004e-03 -1.029739505611360073e-03 7.354727480560541153e-03 -3.377287182956933975e-03 5.519004072993993759e-03 8.321596396854147315e-05 -1.876263704616576433e-04 -2.722051460295915604e-03 8.687026798725128174e-03 2.075567841529846191e-03 6.736149080097675323e-03 3.630661172792315483e-03
-8.657586760818958282e-03 -5.764029454439878464e-03 4.694986343383789062e-02 -7.777799386531114578e-03 -1.545072998851537704e-02 1.111317146569490433e-02 3.993524610996246338e-02 8.244792115874588490e-04 -1.182344555854797363e-02 -5.182395502924919128e-02 -9.027834981679916382e-03 -3.670623525977134705e-02 3.027255088090896606e-02 1.806657016277313232e-02 1.244102022610604763e-03 -1.359048392623662949e-02 4.340690746903419495e-02 6.139622256159782410e-02 5.826948210597038269e-03 6.773473322391510010e-02 1.412537647411227226e-03 -1.892481930553913116e-02 -5.284843035042285919e-03 2.471524663269519806e-02 8.203235920518636703e-04 -2.011783421039581299e-02 2.774331346154212952e-02 -1.886218413710594177e-02 1.905909180641174316e-02 -1.208701357245445251e-02 7.304261904209852219e-03 -5.465108156204223633e-02 2.569742873311042786e-02 6.185770500451326370e-03 6.214977800846099854e-02 2.931650169193744659e-02 -7.049973588436841965e-03 1.112619973719120026e-02 2.844822220504283905e-02 -5.694585852324962616e-03 1.942234113812446594e-02 -1.640646159648895264e-02 3.012776561081409454e-02 4.312791675329208374e-02 -1.257311180233955383e-02 -1.216167025268077850e-02 -9.730731137096881866e-03 -2.229518489912152290e-03 2.764779375866055489e-03 -1.162462960928678513e-02 -9.245799854397773743e-03 3.590278327465057373e-02 -4.305978864431381226e-02 -1.444666925817728043e-02 2.345240861177444458e-02 -2.488572150468826294e-02 -2.758409269154071808e-02 6.645353045314550400e-03 1.424455549567937851e-02 -1.706417649984359741e-02 1.597440987825393677e-02 -4.612950608134269714e-03 2.743767341598868370e-03 -1.689224317669868469e-02 -8.906141601983108558e-07 1.231309492141008377e-02 4.760359227657318115e-02 -1.183607615530490875e-02 -2.067114040255546570e-02 7.700671441853046417e-03 -2.813905104994773865e-02 -7.871419191360473633e-03 1.069265883415937424e-02 4.842650145292282104e-02 4.282397031784057617e-02 1.473546307533979416e-02 -6.894490122795104980e-02 1.648431085050106049e-02 2.746009826660156250e-02 -3.759629279375076294e-02 1.923788152635097504e-02 -1.543338526971638203e-03 -4.620223119854927063e-02 3.254246665164828300e-03 4.640818014740943909e-02 -5.070488434284925461e-03 -6.491369102150201797e-03 2.067921310663223267e-02 3.827992081642150879e-02 -7.284441497176885605e-03 -1.490302383899688721e-02 -6.784240249544382095e-03 1.803727447986602783e-02 3.423941135406494141e-02 7.316931150853633881e-03 -3.313586860895156860e-02 -1.731187105178833008e-02 3.093102015554904938e-02 -5.750637967139482498e-03 -1.206145156174898148e-02 1.644397526979446411e-02 -3.205428645014762878e-02 4.542275733520986878e-21 4.315970931202173233e-03 -4.220078885555267334e-02 -1.493303828404439016e-20 -2.047151885926723480e-02 -2.248842082917690277e-02 -5.605028709396719933e-04 -2.031871303915977478e-02 -1.402665954083204269e-02 4.269644990563392639e-02 3.176113963127136230e-02 -1.431107148528099060e-02 6.027127802371978760e-02 -6.929691880941390991e-03 -1.016427110880613327e-02 1.826356537640094757e-02 -2.353593893349170685e-02 -4.756338149309158325e-02 -1.221014559268951416e-02 -3.145850729197263718e-03 2.165285684168338776e-02 -3.559854254126548767e-02 -2.206296427175402641e-03 4.460293054580688477e-02 -3.828301653265953064e-02 6.452333182096481323e-02 8.056850172579288483e-03 -2.024871297180652618e-02 5.958871450275182724e-03 -1.005638297647237778e-02 3.841042518615722656e-03 -5.582751706242561340e-03 -1.568556949496269226e-02 4.928450100123882294e-03 7.036334369331598282e-03 7.958206534385681152e-02 -9.195336140692234039e-03 3.013329394161701202e-02 -1.544432993978261948e-02 3.533998038619756699e-03 -1.758713973686099052e-03 3.709739539772272110e-03 1.523229386657476425e-02 1.021953765302896500e-02 -2.316499315202236176e-02 -2.501139231026172638e-02 4.355167038738727570e-03 -1.677229814231395721e-02 -2.265666052699089050e-02 4.733321815729141235e-02 -1.978597603738307953e-02 -3.772976994514465332e-02 -5.994999408721923828e-02 -3.144998848438262939e-02 2.810459583997726440e-02 -6.415743380784988403e-03 2.197531983256340027e-02 7.224310934543609619e-02 -1.661737635731697083e-02 3.412490710616111755e-02 -3.295609727501869202e-03 -3.995328396558761597e-02 8.696473389863967896e-02 5.504251644015312195e-02 -3.071962669491767883e-02 -1.568302512168884277e-02 1.035869726161559974e-28 -4.275969788432121277e-02 4.203336779028177261e-03 2.084209024906158447e-02 2.589697204530239105e-02 2.782198786735534668e-02 4.143044352531433105e-03 1.159362308681011200e-02 1.186231733299791813e-03 1.654406636953353882e-02 -3.878480289131402969e-03 -2.835159189999103546e-02 1.392929907888174057e-02 -2.992404811084270477e-02 6.323714554309844971e-02 -1.122554203902836889e-05 3.977824002504348755e-03 -1.541134434695015654e-13 5.053728446364402771e-02 3.486527130007743835e-02 1.402553357183933258e-02 -5.080494247522437945e-07 -1.473978348076343536e-02 -3.880138974636793137e-03 -2.829032950103282928e-03 -2.674468420445919037e-02 -1.248282205779105425e-04 3.831124678254127502e-02 1.362616941332817078e-02 1.612980104982852936e-02 1.489835884422063828e-02 2.601651102304458618e-02 1.981924474239349365e-02 -1.189528312534093857e-02 7.817370817065238953e-03 5.185304209589958191e-02 -9.371442720293998718e-03 -2.344834059476852417e-02 -1.016266830265522003e-02 4.429541528224945068e-02 -7.799572777003049850e-03 2.973933890461921692e-02 2.225972153246402740e-02 1.512429025024175644e-02 2.992391586303710938e-02 -1.146635622717440128e-03 -5.918706301599740982e-03 2.847412601113319397e-03 4.173317551612854004e-02 6.143400073051452637e-02 -2.817336656153202057e-02 1.125459372997283936e-02 4.266669566277414560e-04 -1.140386797487735748e-02 8.563857991248369217e-04 -4.891937598586082458e-03 2.445241622626781464e-02 3.742573782801628113e-02 -2.714420109987258911e-02 -5.552842840552330017e-02 -3.846805170178413391e-02 5.378464236855506897e-02 1.958155445754528046e-02 5.217612255364656448e-03 1.060654409229755402e-02 -1.109108980745077133e-02 -7.255533244460821152e-03 2.238611318171024323e-02 2.227875869721174240e-03 8.370129391551017761e-03 6.303463131189346313e-02 -3.698191419243812561e-02 3.890467574819922447e-03 1.075866520404815674e-01 -4.153852537274360657e-02 2.236627787351608276e-02 -7.025967352092266083e-03 -3.732776967808604240e-03 -5.040546506643295288e-02 9.635468013584613800e-03 -2.943493612110614777e-02 -1.161105465143918991e-02
5.094526204629801214e-05 8.560210466384887695e-03 3.393678739666938782e-02 5.710417404770851135e-02 -1.349209714680910110e-02 -1.511583197861909866e-02 -6.117334123700857162e-03 4.009671043604612350e-03 6.490541156381368637e-03 -9.524569846689701080e-03 -2.793974243104457855e-03 3.133714199066162109e-03 -2.077640034258365631e-02 1.016529276967048645e-02 -1.059700152836740017e-03 -3.590217558667063713e-03 2.955276891589164734e-02 5.348439887166023254e-02 4.348127171397209167e-02 8.479542285203933716e-02 7.963031530380249023e-03 3.476110845804214478e-02 3.130356222391128540e-02 7.762296497821807861e-02 2.209932357072830200e-02 -3.945581614971160889e-02 -7.130494806915521622e-03 3.483480215072631836e-02 2.465139329433441162e-02 2.235450595617294312e-02 5.035835318267345428e-03 9.953220374882221222e-03 4.292458295822143555e-02 8.741043275222182274e-04 7.972208410501480103e-02 1.468517072498798370e-02 -2.170741558074951172e-03 2.757720358204096556e-04 7.259874138981103897e-03 -3.631915897130966187e-04 1.771133951842784882e-02 2.986635267734527588e-02 7.756726443767547607e-02 1.098899822682142258e-02 -1.491749752312898636e-02 -1.020273752510547638e-02 -2.782560419291257858e-03 -3.609077539294958115e-03 1.079662796109914780e-02 -6.656936556100845337e-02 2.990494249388575554e-03 5.078800022602081299e-02 -2.501220256090164185e-02 9.051615372300148010e-03 -7.017667405307292938e-03 -1.420051790773868561e-02 6.229955237358808517e-03 3.352582827210426331e-02 4.078024625778198242e-02 -3.423517569899559021e-02 8.952097967267036438e-03 7.455829181708395481e-04 -6.294556427747011185e-03 1.271131541579961777e-02 -7.460367896783282049e-07 2.226611599326133728e-02 -5.061723757535219193e-03 1.455517951399087906e-03 3.843357414007186890e-02 4.844398424029350281e-02 -1.635360345244407654e-02 1.165145076811313629e-02 -2.513192128390073776e-03 2.012738585472106934e-02 2.714757248759269714e-02 -4.763123393058776855e-02 -4.145578667521476746e-02 -8.169797807931900024e-02 2.283572591841220856e-02 6.882397830486297607e-02 -3.695432469248771667e-02 7.022495847195386887e-03 3.882222576066851616e-03 2.348298020660877228e-02 2.919909916818141937e-02 -2.363105770200490952e-03 -3.115344978868961334e-02 2.778366394340991974e-02 2.906160242855548859e-02 5.401620874181389809e-04 2.122863894328474998e-03 7.926493883132934570e-03 2.151818200945854187e-02 6.003608182072639465e-02 -1.397384237498044968e-02 2.524509467184543610e-02 5.793596059083938599e-02 2.074155770242214203e-02 -3.920032468158751726e-04 2.408746443688869476e-02 2.042206563055515289e-02 9.870995767414569855e-03 -1.720134668384276644e-12 2.966758562251925468e-03 2.608819678425788879e-02 -1.475637167356279571e-15 -1.570715568959712982e-02 9.319413453340530396e-03 7.241917308419942856e-03 -7.129882927983999252e-03 -1.449189987033605576e-02 7.130622863769531250e-02 7.660263776779174805e-02 2.500150725245475769e-02 6.499372422695159912e-02 -3.112288936972618103e-02 5.246191751211881638e-03 1.911176368594169617e-02 -2.408191561698913574e-02 -1.015980448573827744e-02 3.567378222942352295e-02 3.016192931681871414e-04 1.976088248193264008e-02 6.912478711456060410e-03 -1.004412584006786346e-02 1.446816176176071167e-01 -7.678626570850610733e-03 4.771165549755096436e-02 1.383963786065578461e-02 3.936080634593963623e-02 2.892989106476306915e-02 2.005480695515871048e-03 1.232230290770530701e-02 -1.145228045061230659e-03 -2.609257772564888000e-02 -3.994741011410951614e-03 -5.100202932953834534e-02 5.204513669013977051e-02 8.233339525759220123e-03 7.828129827976226807e-02 1.480493042618036270e-02 -1.875231973826885223e-02 3.198072686791419983e-02 8.344771340489387512e-03 1.097520440816879272e-02 2.067807130515575409e-02 1.651335880160331726e-02 2.851309021934866905e-03 1.631135120987892151e-02 -5.062227137386798859e-03 3.647864609956741333e-02 6.833297759294509888e-02 1.058231946080923080e-02 1.961086504161357880e-02 -8.938093087635934353e-04 -1.821650750935077667e-02 3.785919398069381714e-02 3.239009901881217957e-02 9.079397656023502350e-03 6.428579986095428467e-02 2.191347535699605942e-03 -6.147655472159385681e-02 -2.748529054224491119e-02 -2.313311770558357239e-02 5.805068463087081909e-02 -1.275107637047767639e-02 -9.909725748002529144e-03 2.975855953991413116e-03 -2.007373372812554482e-18 -2.674329467117786407e-02 -6.454393733292818069e-03 2.603235887363553047e-03 3.159094601869583130e-02 -2.654874511063098907e-02 -3.075161576271057129e-02 5.834488198161125183e-02 6.326692528091371059e-04 -2.240504138171672821e-02 -7.013252470642328262e-03 1.550018042325973511e-02 1.098587084561586380e-02 2.756400266662240028e-03 6.640137732028961182e-02 -1.670703204581514001e-05 -2.015988528728485107e-02 -4.471755268593141652e-13 6.538080424070358276e-02 -1.870909333229064941e-02 1.794697530567646027e-02 -3.145289156236685812e-06 -7.861665450036525726e-03 6.707947701215744019e-02 -1.048466097563505173e-02 -2.328275702893733978e-02 1.213162764906883240e-02 7.893850095570087433e-03 -2.323823608458042145e-02 4.766730125993490219e-03 1.083836033940315247e-01 5.538680404424667358e-02 1.850149780511856079e-02 -7.793679367750883102e-03 3.546716645359992981e-03 6.296128500252962112e-03 -7.598873972892761230e-02 -2.495011128485202789e-02 -2.008779719471931458e-02 2.740110829472541809e-02 3.511007642373442650e-03 1.481822226196527481e-02 3.090032748878002167e-02 -4.588688537478446960e-02 3.278127312660217285e-02 -2.541929461585823447e-05 3.179294243454933167e-02 4.207930993288755417e-03 1.106073800474405289e-02 2.310152910649776459e-02 -3.600862994790077209e-02 6.412407383322715759e-03 -1.165309734642505646e-02 -6.736109498888254166e-03 2.646610839292407036e-03 -1.238653436303138733e-02 5.553089454770088196e-02 1.762717776000499725e-02 -9.169160388410091400e-03 8.774275192990899086e-04 -4.581103473901748657e-02 4.768008366227149963e-02 5.969143658876419067e-02 5.288585275411605835e-02 3.821975365281105042e-02 7.981772534549236298e-03 -4.644934087991714478e-02 4.738962650299072266e-02 1.761635392904281616e-02 4.812141414731740952e-03 3.104318305850028992e-02 -3.795707831159234047e-03 4.930968582630157471e-02 1.227165982127189636e-01 -2.239703945815563202e-02 3.879425115883350372e-03 3.002504631876945496e-02 -6.374611984938383102e-04 -6.746362149715423584e-02 3.964681178331375122e-02 -1.511237025260925293e-02 2.002620883285999298e-02
1.304155588150024414e-02 2.234767004847526550e-02 3.730252385139465332e-02 -2.391669666394591331e-03 2.303668484091758728e-02 2.411653846502304077e-02 -1.762943156063556671e-02 2.426398359239101410e-02 -1.077629253268241882e-02 1.077495422214269638e-02 2.531172148883342743e-02 8.795310743153095245e-03 8.730510622262954712e-02 1.484351581893861294e-03 3.592628985643386841e-03 -9.969965554773807526e-03 -7.336019072681665421e-03 -5.153255537152290344e-02 2.896853908896446228e-02 -7.326504588127136230e-02 2.893239725381135941e-03 1.326811732724308968e-03 -4.357354342937469482e-02 -1.189371757209300995e-02 -1.348256040364503860e-02 2.526514045894145966e-02 -1.953393919393420219e-03 5.373102426528930664e-02 -5.296910647302865982e-03 2.347106300294399261e-02 6.719862110912799835e-03 7.861442863941192627e-02 1.575680635869503021e-02 -1.168523915112018585e-02 -5.019130930304527283e-02 1.492740586400032043e-02 3.864137828350067139e-02 -6.101734470576047897e-03 3.819743171334266663e-02 6.430354714393615723e-02 -4.520918708294630051e-03 8.332555741071701050e-02 -4.470705986022949219e-02 4.023144952952861786e-03 -9.353247471153736115e-03 4.342427849769592285e-02 -9.186282753944396973e-03 -3.986743092536926270e-02 5.961553659290075302e-03 3.566297143697738647e-02 2.228817902505397797e-02 -5.232751369476318359e-02 5.218818038702011108e-02 7.281029969453811646e-02 1.881558634340763092e-02 1.117591932415962219e-01 4.775682464241981506e-02 3.299255622550845146e-03 1.602401398122310638e-02 6.253659725189208984e-02 5.524626467376947403e-03 6.909084971994161606e-03 -4.161871597170829773e-02 -6.397561635822057724e-03 -2.476469660450675292e-07 5.010204389691352844e-02 1.143198367208242416e-02 1.630260236561298370e-02 -1.619369257241487503e-03 2.571349032223224640e-03 8.555117994546890259e-02 1.635030098259449005e-02 -2.076029591262340546e-02 7.224590983241796494e-03 2.021384611725807190e-02 5.957064032554626465e-02 9.628274291753768921e-02 1.977232284843921661e-02 2.868575043976306915e-02 1.139054447412490845e-01 1.633623265661299229e-03 1.772255823016166687e-02 6.064319610595703125e-02 -3.405159339308738708e-02 -8.031354285776615143e-03 1.230118051171302795e-02 3.718500584363937378e-02 -8.044555783271789551e-03 1.444111857563257217e-02 -1.305335387587547302e-02 1.680946536362171173e-02 2.676505967974662781e-02 3.232571855187416077e-02 -2.203089557588100433e-02 9.006970794871449471e-04 1.251208782196044922e-02 2.547480538487434387e-02 -5.367650184780359268e-03 5.191625095903873444e-03 8.833803981542587280e-02 -1.332240062765777111e-03 4.854498058557510376e-02 -8.598820982509691735e-13 3.229117486625909805e-03 7.182600907981395721e-03 -1.413421601981212916e-09 1.839222200214862823e-02 -9.987220168113708496e-03 9.257753379642963409e-03 4.486773163080215454e-03 -7.258004695177078247e-02 -4.315495863556861877e-02 -1.394788548350334167e-02 3.215075656771659851e-02 -4.168798215687274933e-03 -2.662862837314605713e-02 2.898493967950344086e-02 -3.114233957603573799e-03 2.474114531651139259e-03 4.586492478847503662e-02 6.433522701263427734e-02 2.488274360075592995e-03 -2.241308800876140594e-02 5.483611673116683960e-02 1.127448212355375290e-02 2.321038395166397095e-02 7.689841091632843018e-02 3.718325123190879822e-02 -4.984752088785171509e-02 6.064932793378829956e-02 -9.798830142244696617e-04 6.725685205310583115e-03 7.951319217681884766e-03 7.595659699290990829e-03 1.164417620748281479e-02 -8.546118624508380890e-03 -1.018828433007001877e-02 -3.448992967605590820e-02 8.260659873485565186e-03 -3.857159242033958435e-02 1.081978436559438705e-02 3.332128748297691345e-02 6.418805569410324097e-02 -8.965317159891128540e-03 2.550280987634323537e-05 -2.788061741739511490e-03 1.565629057586193085e-02 -4.003625363111495972e-03 3.413229016587138176e-03 1.624352857470512390e-02 5.086297914385795593e-02 -1.728219166398048401e-02 1.466743461787700653e-02 3.360623121261596680e-02 8.329154551029205322e-02 2.318870462477207184e-02 1.261941809207201004e-02 2.184005454182624817e-02 -6.483269855380058289e-03 1.141878892667591572e-03 2.500947564840316772e-02 8.789590001106262207e-02 -2.808906137943267822e-02 2.914604172110557556e-02 4.816183447837829590e-02 -2.918480522930622101e-02 3.997631371021270752e-02 1.682951487600803375e-02 -3.353629608682240359e-06 1.269314717501401901e-02 -4.262553993612527847e-03 7.913974672555923462e-02 -1.798038370907306671e-03 -1.917827688157558441e-02 -5.842082947492599487e-02 5.270111840218305588e-03 -2.769791171886026859e-04 -8.210517466068267822e-03 8.128429763019084930e-03 5.654069036245346069e-02 -3.558313706889748573e-03 2.857955172657966614e-02 -4.595702141523361206e-02 -2.253784805361647159e-05 6.460421532392501831e-02 3.556516034929734166e-20 3.185237944126129150e-02 7.648323080502450466e-04 7.658591028302907944e-03 -6.537134709105885122e-07 2.020669169723987579e-02 2.211925387382507324e-02 4.433062300086021423e-02 4.379744082689285278e-02 -3.956920653581619263e-02 -8.980332873761653900e-03 -4.250854626297950745e-02 -6.736519746482372284e-03 1.189826894551515579e-02 -2.569181658327579498e-02 -2.333214506506919861e-02 1.360148377716541290e-02 -3.159256419166922569e-03 -3.775505116209387779e-03 2.139548584818840027e-02 -1.417013630270957947e-02 -2.672221744433045387e-03 -2.916554175317287445e-02 7.568035740405321121e-03 3.764250129461288452e-02 4.416481126099824905e-03 1.454925257712602615e-02 1.835209131240844727e-02 8.555247914046049118e-04 2.572829090058803558e-02 3.920288011431694031e-02 -2.333944197744131088e-03 -2.410836331546306610e-02 1.139984582550823689e-03 3.605415113270282745e-04 2.386720478534698486e-02 1.762294955551624298e-02 1.782348263077437878e-03 -6.699543446302413940e-02 -3.721583634614944458e-02 2.876148000359535217e-02 3.253125399351119995e-02 3.838370367884635925e-02 3.131992742419242859e-02 -1.461880840361118317e-02 1.838804222643375397e-02 4.986189305782318115e-02 4.818986635655164719e-03 4.561262612696737051e-04 6.159903947263956070e-03 2.548478543758392334e-02 8.911835029721260071e-03 -7.986218668520450592e-03 1.335363462567329407e-02 5.130623281002044678e-02 3.758922591805458069e-02 -7.248102873563766479e-02 4.519436880946159363e-02 -2.040543220937252045e-02 1.007071956992149353e-01 9.293557144701480865e-03 3.532716259360313416e-02 9.771727025508880615e-03 4.141942039132118225e-02 2.844074368476867676e-02
1.899391994811594486e-03 -3.554256400093436241e-03 -1.330586848780512810e-03 4.815797507762908936e-02 -4.355814307928085327e-02 1.026518922299146652e-02 2.396705001592636108e-02 -9.282317012548446655e-03 -1.191545929759740829e-02 2.680090442299842834e-02 2.558260969817638397e-02 -1.180285401642322540e-02 2.408667001873254776e-03 -8.848652243614196777e-03 -6.285713054239749908e-03 -1.807284541428089142e-02 -2.910944260656833649e-02 -2.554673701524734497e-02 1.993619650602340698e-02 -7.246585935354232788e-02 -1.621047384105622768e-03 -1.432912051677703857e-02 -5.174529179930686951e-02 3.402011469006538391e-02 1.684802025556564331e-02 3.527910634875297546e-02 3.036289662122726440e-02 -1.821698248386383057e-02 -4.082169383764266968e-03 1.955386018380522728e-03 1.867294870316982269e-02 -4.681292176246643066e-02 -1.209235191345214844e-02 1.661331020295619965e-02 1.878400333225727081e-02 5.102241039276123047e-02 3.843396529555320740e-02 -9.649448096752166748e-03 1.468896493315696716e-02 2.115567773580551147e-02 -2.029718272387981415e-02 3.825637698173522949e-02 -2.490427345037460327e-02 2.853053808212280273e-02 -3.121165325865149498e-03 2.388282865285873413e-02 -4.038925690110772848e-04 3.508622571825981140e-02 -7.907162420451641083e-03 3.006132319569587708e-02 4.453950002789497375e-02 1.199488062411546707e-02 -2.736746519804000854e-02 5.644333362579345703e-02 2.500976808369159698e-02 2.523121051490306854e-02 2.914034388959407806e-02 -2.410910464823246002e-02 4.220314323902130127e-03 4.353900626301765442e-02 -2.003652416169643402e-02 1.001378614455461502e-02 -1.547091756947338581e-03 6.625948939472436905e-03 -6.067403290899164858e-08 3.335920721292495728e-02 2.070738002657890320e-02 2.881421940401196480e-03 -1.943340525031089783e-02 3.175119636580348015e-04 2.629794552922248840e-02 -5.803667940199375153e-03 -6.534055806696414948e-03 3.311674296855926514e-02 4.904555622488260269e-03 5.076149851083755493e-02 2.454596757888793945e-02 3.565669804811477661e-02 -1.106953341513872147e-02 3.927857801318168640e-02 -2.462363615632057190e-02 -8.118035271763801575e-03 9.018825367093086243e-03 -4.309069365262985229e-02 1.149573456496000290e-02 -3.029785118997097015e-03 4.750775697175413370e-04 -1.317437272518873215e-02 3.036084584891796112e-03 -7.935592904686927795e-03 8.916090242564678192e-03 3.379761800169944763e-02 -1.250017341226339340e-02 4.158473166171461344e-04 -4.583298228681087494e-03 1.153291575610637665e-02 4.105394706130027771e-02 -2.277802862226963043e-02 -4.713433329015970230e-03 8.625243790447711945e-04 -1.930763199925422668e-02 4.112748056650161743e-02 1.635930081701245325e-24 -8.588975295424461365e-03 -1.546507794409990311e-02 5.018108311276561652e-20 -9.351864457130432129e-03 -1.586317270994186401e-02 -1.038081664592027664e-02 1.295940205454826355e-02 -5.755243822932243347e-03 2.507204003632068634e-02 2.429890912026166916e-03 2.597994729876518250e-02 -2.425711974501609802e-02 3.593008499592542648e-03 -9.505134075880050659e-03 -2.240788191556930542e-02 7.230268325656652451e-03 -2.358873747289180756e-02 -1.650715060532093048e-02 1.866603968665003777e-03 -1.811728696338832378e-03 -1.514967251569032669e-02 5.987250711768865585e-03 1.515425834804773331e-02 4.056802392005920410e-02 2.880578115582466125e-02 -2.083442918956279755e-02 -8.416021242737770081e-03 -4.464278928935527802e-03 -1.111150439828634262e-02 -2.711118943989276886e-02 -1.962665119208395481e-04 3.174247685819864273e-03 -1.194291561841964722e-02 3.729648143053054810e-02 -9.067777544260025024e-03 4.322962369769811630e-03 -1.076642517000436783e-02 1.941143418662250042e-03 2.963079139590263367e-02 2.020885702222585678e-03 -7.793614175170660019e-03 -1.099802833050489426e-02 -1.635325327515602112e-02 2.596283331513404846e-02 -2.559380233287811279e-02 7.888885214924812317e-03 2.289529144763946533e-02 4.109659045934677124e-02 2.179953735321760178e-03 2.537464722990989685e-02 -3.006824851036071777e-02 -4.489696584641933441e-03 -1.056883204728364944e-02 2.729526720941066742e-02 -7.764598820358514786e-03 2.406534738838672638e-02 -1.072339480742812157e-03 -1.961239054799079895e-02 -3.033790178596973419e-02 -2.892088331282138824e-02 -7.787320762872695923e-03 -2.854377729818224907e-03 -3.809761954471468925e-03 5.056736990809440613e-02 4.960676655173301697e-02 2.465428835979974807e-26 1.094610244035720825e-02 -4.485336132347583771e-03 1.859307847917079926e-02 -2.040252089500427246e-02 -2.955212630331516266e-02 9.542576037347316742e-03 2.190831862390041351e-02 -7.159702363424003124e-04 2.682417444884777069e-02 -4.255167674273252487e-03 2.348524518311023712e-03 -1.343136746436357498e-02 1.918976195156574249e-02 -7.061847718432545662e-04 -8.808477105048950762e-06 1.680275984108448029e-02 2.953318589774279740e-31 5.237787030637264252e-03 -2.337875217199325562e-02 -1.045206468552350998e-02 -1.052146444635582156e-06 3.910427540540695190e-02 1.211053319275379181e-02 -1.929379440844058990e-02 8.224967867136001587e-03 -2.159961313009262085e-02 -2.502907812595367432e-02 -1.376563403755426407e-02 -3.538971999660134315e-03 -2.033491805195808411e-02 2.323544211685657501e-02 2.629242464900016785e-02 -2.918961457908153534e-03 -7.500914856791496277e-03 4.891547188162803650e-02 2.175871655344963074e-02 -2.161558531224727631e-02 1.887621358036994934e-02 3.018063260242342949e-03 3.656714223325252533e-03 6.158789247274398804e-02 -1.578708551824092865e-02 4.505502060055732727e-02 5.271706264466047287e-03 3.794274816755205393e-04 2.685494348406791687e-02 5.889933556318283081e-03 6.224192306399345398e-02 -1.755809411406517029e-02 3.715470200404524803e-03 1.181243732571601868e-02 -8.863613009452819824e-03 -7.211576681584119797e-03 3.375818254426121712e-03 -1.399459317326545715e-03 1.436577085405588150e-02 2.531019411981105804e-02 -1.752295903861522675e-02 -1.281748991459608078e-03 1.165775489062070847e-02 -3.184293583035469055e-02 -2.336500771343708038e-02 -1.558875944465398788e-02 2.907017618417739868e-02 -1.802316121757030487e-02 -1.645275042392313480e-03 2.410268597304821014e-02 -3.968578297644853592e-03 1.926729106344282627e-03 -2.163925394415855408e-02 3.628124482929706573e-03 6.021299585700035095e-02 5.988319963216781616e-02 3.333989530801773071e-03 -2.374543435871601105e-02 1.165577862411737442e-02 -2.034845016896724701e-02 5.084916483610868454e-03 1.719242520630359650e-02 2.547607198357582092e-02 1.172448415309190750e-02
7.897511124610900879e-03 2.097298949956893921e-02 1.753997430205345154e-02 1.134554110467433929e-02 8.993295952677726746e-03 -1.227293815463781357e-02 1.785908639430999756e-02 -4.108854383230209351e-02 -2.136235125362873077e-02 1.295628678053617477e-02 2.644431032240390778e-02 3.648275882005691528e-02 1.896570320241153240e-04 2.517331158742308617e-03 3.153495863080024719e-02 -1.403215806931257248e-02 3.940124437212944031e-02 -6.523882504552602768e-03 3.568963333964347839e-02 -4.444456845521926880e-02 6.538425106555223465e-03 -1.086731813848018646e-02 -2.166416682302951813e-02 2.916304394602775574e-03 2.704771608114242554e-02 9.444124996662139893e-03 -1.283823326230049133e-02 1.278949808329343796e-02 4.351789131760597229e-02 2.497615106403827667e-02 1.401470880955457687e-02 1.781258545815944672e-02 3.272364288568496704e-02 -4.887173324823379517e-02 -4.051591735333204269e-03 2.473937161266803741e-02 5.837040767073631287e-02 2.518286695703864098e-03 6.392336636781692505e-02 -1.962397247552871704e-02 -2.930120797827839851e-03 2.171674743294715881e-02 -3.131033107638359070e-02 1.778455637395381927e-02 3.326522186398506165e-02 3.175590932369232178e-02 3.668603673577308655e-02 -2.939436212182044983e-02 3.605989273637533188e-03 7.011051476001739502e-02 1.772114483173936605e-04 -1.398067362606525421e-02 3.239474818110466003e-02 3.116981685161590576e-02 4.154074192047119141e-02 1.296082139015197754e-02 5.420304089784622192e-02 -5.388661846518516541e-02 1.944964937865734100e-02 -2.881692536175251007e-02 -2.894126996397972107e-02 2.057885518297553062e-03 -3.317577019333839417e-02 -3.079601377248764038e-02 -2.170923636413135682e-07 -8.752021007239818573e-03 -2.097852714359760284e-02 7.398479152470827103e-03 -3.204754367470741272e-02 -1.559228263795375824e-02 6.952397525310516357e-03 -3.841275582090020180e-03 7.837203447706997395e-04 4.449589923024177551e-02 5.829499103128910065e-03 4.036753624677658081e-02 1.796786114573478699e-02 6.885607261210680008e-03 -3.916347771883010864e-02 4.474126547574996948e-02 -2.494863234460353851e-02 3.660638583824038506e-03 5.169701576232910156e-02 -5.561151355504989624e-02 -1.028802804648876190e-02 3.071313025429844856e-03 1.418943237513303757e-02 7.966234348714351654e-03 2.796092443168163300e-02 1.551298517733812332e-02 1.665464602410793304e-02 7.711251731961965561e-03 -4.125067219138145447e-02 -2.389436401426792145e-02 -2.303663677594158798e-05 -4.905990511178970337e-02 2.247385308146476746e-02 1.853547990322113037e-02 8.861731737852096558e-03 1.460288185626268387e-03 5.153591930866241455e-02 2.394583821296691895e-02 -3.831996371181006629e-24 1.272677211090922356e-03 -1.674836501479148865e-02 -9.240317492762664940e-21 8.049258962273597717e-03 2.852743864059448242e-02 -5.766000133007764816e-03 1.718281209468841553e-02 1.248144917190074921e-02 8.052761666476726532e-03 -2.395563945174217224e-02 3.419968485832214355e-02 -1.006609201431274414e-02 -2.791105955839157104e-02 3.220371529459953308e-02 4.259613156318664551e-02 -7.820783066563308239e-04 2.782343421131372452e-03 2.743116207420825958e-02 -8.345685782842338085e-04 1.606506993994116783e-03 9.263382293283939362e-03 1.346944714896380901e-03 -1.405434682965278625e-03 1.933724246919155121e-02 3.671957924962043762e-02 -1.900137215852737427e-02 1.085243001580238342e-02 -2.665141224861145020e-02 4.012204706668853760e-02 3.443711251020431519e-02 4.873316735029220581e-03 -1.070914044976234436e-02 3.813988761976361275e-03 2.186699584126472473e-02 2.471593208611011505e-02 1.498926244676113129e-02 -4.384147748351097107e-02 3.179909661412239075e-02 4.363412968814373016e-03 -5.723200738430023193e-03 2.182222716510295868e-02 1.643812656402587891e-02 4.011834785342216492e-02 1.670958660542964935e-02 -4.433051869273185730e-02 1.159119978547096252e-02 -1.090735662728548050e-02 4.356027767062187195e-02 1.472342386841773987e-02 4.469799995422363281e-02 -6.746670231223106384e-03 1.211545243859291077e-02 3.755466267466545105e-02 8.173265494406223297e-03 -1.479818671941757202e-02 -5.940455198287963867e-02 -2.882270142436027527e-02 -1.928082294762134552e-02 -1.358494162559509277e-02 1.451099198311567307e-02 3.285644948482513428e-02 -2.179103530943393707e-02 -2.210092917084693909e-02 1.344179827719926834e-02 -3.447305178269743919e-03 -6.893933666117513237e-13 1.604943349957466125e-02 3.151113539934158325e-02 -1.844123378396034241e-02 6.441649049520492554e-02 5.909097380936145782e-03 5.221226811408996582e-02 2.365294843912124634e-03 7.245556917041540146e-04 1.567301899194717407e-02 1.114912051707506180e-02 -3.092953236773610115e-03 4.086349159479141235e-02 2.535536140203475952e-02 -1.234577968716621399e-02 -7.112500952644040808e-06 3.151474893093109131e-02 -2.074957010651384383e-24 -4.458811308722943068e-04 -3.266765549778938293e-02 2.981900051236152649e-02 -1.148028445641102735e-06 -2.518283436074852943e-03 6.675386428833007812e-02 -2.594391256570816040e-02 7.572555448859930038e-03 -1.503892149776220322e-02 1.223171502351760864e-02 9.453366510570049286e-03 -4.305420443415641785e-03 -2.523619867861270905e-02 -7.778344675898551941e-03 -2.291893772780895233e-02 -4.431619774550199509e-03 6.346217356622219086e-03 6.359823513776063919e-03 5.754671990871429443e-03 3.242292627692222595e-02 3.848308697342872620e-02 2.722811885178089142e-02 1.461813971400260925e-02 2.528528496623039246e-02 3.573293983936309814e-02 -5.014454945921897888e-03 -2.240845561027526855e-02 -1.362772076390683651e-03 3.554549440741539001e-02 -1.031334139406681061e-02 3.765386063605546951e-03 -8.084140717983245850e-03 2.136270888149738312e-02 8.427319116890430450e-03 -4.528935998678207397e-03 4.342483356595039368e-02 5.012306384742259979e-03 -3.419231623411178589e-02 2.022049762308597565e-02 -6.572211859747767448e-04 1.552138291299343109e-02 2.524510025978088379e-02 -2.503445558249950409e-02 3.018547222018241882e-02 -4.163641948252916336e-03 3.387195616960525513e-02 9.322104975581169128e-03 1.297570299357175827e-02 -1.916951313614845276e-02 -8.847131393849849701e-03 2.732682228088378906e-02 2.426755055785179138e-02 -2.271928079426288605e-02 -3.304614685475826263e-03 2.707712352275848389e-02 4.056158289313316345e-02 1.006477605551481247e-02 8.775097317993640900e-03 -1.233297633007168770e-03 2.592715807259082794e-02 4.557775333523750305e-02 2.067167870700359344e-02 2.705284580588340759e-02 1.133457012474536896e-02
5.615836009383201599e-03 -1.416472659911960363e-04 -2.021027915179729462e-02 4.260070156306028366e-03 1.862793415784835815e-02 -1.014318689703941345e-02 4.397373273968696594e-02 2.112711034715175629e-02 -1.002353057265281677e-02 7.941926270723342896e-02 6.127599999308586121e-02 1.574288937263190746e-03 1.353039313107728958e-02 -2.638413570821285248e-03 3.301927447319030762e-02 -2.484389394521713257e-02 2.390086278319358826e-02 1.431097462773323059e-02 2.547633834183216095e-02 -5.327269434928894043e-02 -2.329587237909436226e-03 3.074015304446220398e-02 -2.934911474585533142e-02 -1.616193540394306183e-02 1.268742978572845459e-02 8.146302402019500732e-02 -4.840400535613298416e-03 1.253211777657270432e-02 1.994262449443340302e-02 3.331390395760536194e-02 2.407583780586719513e-02 -9.190050885081291199e-03 1.217434182763099670e-02 -2.166415378451347351e-02 -4.864465445280075073e-02 2.715095318853855133e-02 7.047712057828903198e-02 8.045707363635301590e-04 4.116679728031158447e-02 1.565231010317802429e-02 -3.211314091458916664e-03 -1.323813665658235550e-02 -4.674120247364044189e-02 -1.330276671797037125e-02 2.297483198344707489e-02 2.665365487337112427e-02 5.336666107177734375e-02 1.779212430119514465e-02 -8.600663393735885620e-03 1.293875873088836670e-01 6.823041290044784546e-02 -3.223089128732681274e-02 -1.614464819431304932e-02 1.242835540324449539e-02 3.037401661276817322e-02 6.891947239637374878e-02 -9.502818807959556580e-03 -6.464257836341857910e-02 8.059404790401458740e-03 -3.700430097524076700e-04 -7.380267139524221420e-03 3.633945249021053314e-03 -1.465485058724880219e-02 -5.296063795685768127e-02 -7.010212925706582610e-07 -1.581685617566108704e-02 -2.022271044552326202e-02 8.402585983276367188e-03 -4.301219806075096130e-02 1.265729311853647232e-03 -7.804856868460774422e-04 -1.226333994418382645e-02 2.676399052143096924e-02 6.031938642263412476e-02 4.633624851703643799e-02 7.869709283113479614e-02 2.901233360171318054e-02 7.123291492462158203e-02 -8.717557415366172791e-03 -9.700721129775047302e-03 -2.447481639683246613e-02 1.348978839814662933e-02 1.956934109330177307e-02 -2.091194689273834229e-02 -1.162263285368680954e-02 -3.365562064573168755e-03 4.137744382023811340e-02 -6.938173901289701462e-04 2.752266079187393188e-02 4.415774717926979065e-02 2.394587546586990356e-02 4.510403797030448914e-02 -4.130811244249343872e-02 6.659308075904846191e-02 -1.234011026099324226e-03 2.217336371541023254e-02 3.622277081012725830e-02 7.788514718413352966e-03 -2.585618058219552040e-03 2.872186899185180664e-02 3.169194236397743225e-02 8.795956522226333618e-02 1.703616108270831659e-18 -5.882012657821178436e-03 -1.890835352241992950e-02 -4.311222331822989196e-13 -1.025187224149703979e-02 1.455961447209119797e-02 -8.881345391273498535e-03 3.996332362294197083e-02 -8.903402835130691528e-03 -2.371424576267600060e-03 1.120225619524717331e-02 1.697455532848834991e-03 -6.837692926637828350e-04 -1.085190847516059875e-02 2.599209360778331757e-02 2.240902930498123169e-02 -3.079684078693389893e-02 -1.664850115776062012e-02 2.803865354508161545e-03 5.916371010243892670e-03 5.257306154817342758e-03 -1.760752685368061066e-02 2.760472474619746208e-03 -1.395920850336551666e-02 3.000852093100547791e-02 2.155861631035804749e-02 -3.971570637077093124e-03 1.368664484471082687e-02 1.305676344782114029e-02 1.445116288959980011e-02 1.545054931193590164e-02 7.081835065037012100e-03 4.248350393027067184e-03 1.126540545374155045e-02 5.655587092041969299e-02 -1.683131046593189240e-02 1.618744246661663055e-02 -1.279642619192600250e-02 2.759022824466228485e-02 8.153069764375686646e-03 3.430778905749320984e-02 1.690942235291004181e-02 1.156895700842142105e-02 1.829689741134643555e-02 -1.538593042641878128e-02 -4.016287624835968018e-02 4.733602050691843033e-03 1.935147307813167572e-02 7.487686723470687866e-02 2.092774212360382080e-02 3.508269414305686951e-02 5.277853924781084061e-03 5.324826110154390335e-03 3.586308285593986511e-02 1.941253058612346649e-02 2.439726144075393677e-02 -2.769492566585540771e-02 4.922693967819213867e-02 -5.626591667532920837e-02 6.965515762567520142e-02 -1.028665574267506599e-03 3.706458210945129395e-02 -6.236318964511156082e-03 -9.277609176933765411e-03 -8.092427626252174377e-03 1.221349183470010757e-02 -6.411268849149109883e-09 8.626422286033630371e-02 2.019997872412204742e-02 3.460211679339408875e-02 4.896867647767066956e-02 -3.778029931709170341e-03 1.060931608080863953e-01 -2.458550594747066498e-02 3.061189490836113691e-04 3.663301840424537659e-02 1.107654720544815063e-02 -2.428143471479415894e-02 2.508020959794521332e-02 4.791223909705877304e-04 -3.077715449035167694e-02 7.082160635718537378e-08 1.862882822751998901e-02 4.460076182415354117e-31 -1.766496151685714722e-02 -1.892948895692825317e-02 1.906969211995601654e-02 -3.945406206184998155e-07 1.877555251121520996e-02 2.389231510460376740e-02 -4.404515027999877930e-02 -6.110223941504955292e-03 -6.342967599630355835e-02 -8.267871104180812836e-03 6.848323345184326172e-02 -1.900387578643858433e-04 -2.364587597548961639e-02 -2.993117459118366241e-02 6.060911808162927628e-03 -2.645042259246110916e-03 3.297206712886691093e-03 4.317455366253852844e-02 6.142307538539171219e-04 3.189107403159141541e-02 8.207185566425323486e-02 -5.077511537820100784e-03 4.169612750411033630e-02 7.095979899168014526e-02 3.462206572294235229e-02 3.900209441781044006e-02 -7.507957518100738525e-02 -9.018347482196986675e-04 1.820019818842411041e-02 2.446974255144596100e-02 4.493171721696853638e-02 4.883964080363512039e-03 4.166482388973236084e-02 5.801184102892875671e-02 4.795064032077789307e-02 4.475269094109535217e-02 6.558035500347614288e-03 -1.308691129088401794e-02 -1.120420172810554504e-02 3.740207757800817490e-03 -2.448906749486923218e-02 9.599569253623485565e-03 1.379155460745096207e-02 -7.485813926905393600e-03 1.401855610311031342e-02 2.633549831807613373e-02 6.343342363834381104e-02 -1.145361363887786865e-02 7.645947858691215515e-03 -7.786151953041553497e-03 8.142452687025070190e-03 5.081772059202194214e-02 -3.380378708243370056e-02 -3.353952243924140930e-02 5.785915255546569824e-02 2.996066585183143616e-02 -2.415051218122243881e-03 3.953647240996360779e-02 -6.373640894889831543e-02 2.155409939587116241e-02 7.000899314880371094e-02 2.735028788447380066e-02 3.745161369442939758e-02 2.330283634364604950e-02
1.117846369743347168e-02 2.201471291482448578e-02 -2.398521173745393753e-03 3.379557980224490166e-03 -7.986651733517646790e-03 2.609370648860931396e-02 -3.988283127546310425e-02 -2.646493166685104370e-02 2.172061009332537651e-03 4.077225551009178162e-02 4.956563562154769897e-02 -5.901066120713949203e-03 5.490295961499214172e-02 5.557235330343246460e-03 9.057910181581974030e-03 -2.588546276092529297e-02 -1.570103690028190613e-02 -4.645154625177383423e-02 3.048527054488658905e-03 -6.217009574174880981e-02 -5.089542246423661709e-04 -1.275052130222320557e-02 -3.185632079839706421e-02 -1.089098118245601654e-02 3.039702540263533592e-03 4.247706010937690735e-02 3.631039336323738098e-02 2.308803237974643707e-02 -1.559807802550494671e-03 5.604266189038753510e-04 8.984629996120929718e-03 3.811779618263244629e-02 6.010835524648427963e-03 1.598954573273658752e-02 -2.256739139556884766e-02 4.898051917552947998e-02 7.708163559436798096e-02 -6.275785155594348907e-03 1.538866292685270309e-02 1.606916077435016632e-02 -1.931122317910194397e-02 2.632566262036561966e-03 -3.118504583835601807e-02 4.068909678608179092e-03 -1.463428605347871780e-02 6.709128618240356445e-02 -1.092063914984464645e-02 1.141533628106117249e-02 4.582802299410104752e-03 5.831771343946456909e-02 5.240837857127189636e-02 -2.211914956569671631e-02 2.941496670246124268e-02 4.365491494536399841e-02 5.200575292110443115e-02 2.610462345182895660e-02 4.429083317518234253e-02 -1.260886713862419128e-02 -9.246389381587505341e-03 2.874048985540866852e-02 -2.332390286028385162e-02 4.110931418836116791e-03 -1.555051282048225403e-02 1.109719369560480118e-02 -8.172936816208675737e-08 -2.689633751288056374e-03 1.209320966154336929e-02 1.437280420213937759e-02 -2.010833658277988434e-02 -4.030662530567497015e-04 3.533311560750007629e-02 -3.834212431684136391e-03 -1.418770290911197662e-02 2.523383870720863342e-02 3.560036793351173401e-02 3.084065578877925873e-02 5.866518989205360413e-02 5.860244855284690857e-03 1.498456951230764389e-02 4.489816725254058838e-02 -7.492787204682826996e-03 2.958097262308001518e-03 1.683637686073780060e-02 -2.446139790117740631e-02 2.536206506192684174e-02 8.902030065655708313e-03 8.322619646787643433e-02 -5.628106184303760529e-03 1.019891072064638138e-02 -2.393177896738052368e-02 1.704489253461360931e-02 2.963848970830440521e-02 -2.333924360573291779e-02 -7.257908117026090622e-03 -1.244659163057804108e-02 -7.441505324095487595e-03 1.993094757199287415e-02 -1.076869317330420017e-03 9.467657655477523804e-03 1.646005362272262573e-02 1.327130477875471115e-03 2.950765006244182587e-02 -9.713362674381400956e-29 -1.163513632491230965e-03 -4.893172532320022583e-02 3.024008981110277738e-23 1.276276726275682449e-02 -1.367673743516206741e-02 1.635869382880628109e-03 6.565083283931016922e-03 -5.628338083624839783e-03 -1.280257757753133774e-02 -1.371460780501365662e-02 2.378454431891441345e-02 -9.724736213684082031e-03 2.030511153861880302e-03 1.666694507002830505e-02 2.146147424355149269e-03 1.959094218909740448e-02 7.102495431900024414e-02 1.539066527038812637e-02 2.020643092691898346e-03 -7.189385592937469482e-03 4.210410267114639282e-02 1.512057520449161530e-02 -3.322916105389595032e-02 -1.057759206742048264e-02 6.037025246769189835e-03 -4.776255786418914795e-02 1.522925309836864471e-02 -3.077691420912742615e-02 8.221651427447795868e-03 4.162183497101068497e-03 6.053511518985033035e-03 1.482189726084470749e-02 -1.005386561155319214e-02 4.719855263829231262e-02 -3.753255307674407959e-02 -1.133674383163452148e-02 -3.181887045502662659e-02 -1.154945930466055870e-03 4.826514050364494324e-02 -5.854875780642032623e-03 -4.180606920272111893e-03 -1.617585658095777035e-03 4.105657804757356644e-03 5.688271299004554749e-02 -1.907053776085376740e-02 -3.636464243754744530e-04 1.689352281391620636e-02 2.546837367117404938e-02 -2.367402240633964539e-02 3.804307803511619568e-02 1.645273342728614807e-02 4.074281826615333557e-02 2.756236493587493896e-02 -1.601639576256275177e-02 1.137019600719213486e-02 -7.209556549787521362e-02 -4.596981406211853027e-02 3.595970943570137024e-02 -2.141542732715606689e-02 2.331360615789890289e-02 1.645900495350360870e-02 -5.642235651612281799e-02 -4.453380405902862549e-02 4.141519963741302490e-02 8.387010544538497925e-03 -3.146196969481926131e-20 1.829695887863636017e-02 4.343751352280378342e-03 4.956017434597015381e-02 1.590982428751885891e-03 -2.351168775931000710e-03 1.329552754759788513e-02 -8.857232518494129181e-03 6.664200918748974800e-05 1.774151064455509186e-02 8.111908100545406342e-03 1.052621379494667053e-02 2.308642026036977768e-03 1.685934513807296753e-02 -4.241685569286346436e-02 -1.177501962956739590e-05 4.191297292709350586e-02 9.246771463568266410e-31 1.054666098207235336e-02 -1.330610923469066620e-02 -5.038311239331960678e-03 -4.871171199738455471e-07 1.521931402385234833e-02 4.645859077572822571e-02 8.585705421864986420e-03 5.130709335207939148e-02 -1.332576479762792587e-02 -9.195517748594284058e-03 4.128129687160253525e-03 -4.910909570753574371e-03 -2.000132761895656586e-02 -1.444593910127878189e-02 5.985805764794349670e-03 1.085822936147451401e-02 -2.258322434499859810e-03 3.207228332757949829e-02 2.592103183269500732e-02 -3.491474781185388565e-03 1.684767380356788635e-02 -8.510502055287361145e-03 9.273925796151161194e-03 2.403488941490650177e-02 -9.427870623767375946e-03 2.819290943443775177e-02 -7.792938966304063797e-03 1.013211731333285570e-04 1.084868609905242920e-02 6.251448392868041992e-02 3.817966207861900330e-02 2.053633704781532288e-02 -1.423272583633661270e-02 3.630452975630760193e-02 -2.882459014654159546e-02 1.303905248641967773e-02 3.954865038394927979e-03 -2.474636770784854889e-02 -1.362470630556344986e-02 3.774509951472282410e-02 2.943538501858711243e-02 -2.941902494058012962e-03 -3.750552888959646225e-03 1.100725727155804634e-03 -9.662333875894546509e-03 -7.361910305917263031e-03 9.175830334424972534e-02 -3.749383985996246338e-02 -4.613589961081743240e-03 -2.338432474061846733e-03 1.552849169820547104e-02 -1.025816146284341812e-02 -1.181234791874885559e-02 1.268699858337640762e-02 3.798817843198776245e-02 -1.695970073342323303e-02 3.397482261061668396e-02 -2.513276599347591400e-02 -5.092799663543701172e-03 4.477672744542360306e-03 1.628322340548038483e-02 2.130781300365924835e-02 1.500490680336952209e-02 2.684121206402778625e-02
4.757284186780452728e-03 1.206750515848398209e-02 7.074823603034019470e-03 1.784779131412506104e-02 -1.794415153563022614e-02 3.906733542680740356e-02 -1.996475644409656525e-02 2.005934901535511017e-02 2.103564701974391937e-02 3.488819673657417297e-02 1.744990423321723938e-02 -3.273870050907135010e-02 2.469754405319690704e-02 8.538057096302509308e-03 7.906282320618629456e-03 -1.769304461777210236e-02 -1.099410187453031540e-02 -3.814226016402244568e-02 -1.518172305077314377e-02 -4.968309402465820312e-02 -8.690633694641292095e-04 -2.228081785142421722e-02 -2.079437114298343658e-02 6.812779698520898819e-03 1.848162896931171417e-02 3.938660770654678345e-02 4.794007167220115662e-02 1.564946584403514862e-02 5.045814439654350281e-03 -1.987897977232933044e-02 6.299509201198816299e-03 -3.692375961691141129e-03 -2.361519495025277138e-03 3.080714493989944458e-02 3.014191053807735443e-02 7.651197910308837891e-02 7.486923784017562866e-02 -2.730050357058644295e-03 9.305625222623348236e-03 6.515685003250837326e-03 -2.272097393870353699e-02 1.389369089156389236e-02 9.650222025811672211e-03 3.436645120382308960e-02 -1.201235409826040268e-02 5.534499883651733398e-02 -8.926206268370151520e-03 3.895454481244087219e-02 2.355290809646248817e-03 4.685496538877487183e-02 5.288135260343551636e-02 -3.465755283832550049e-02 -3.634517546743154526e-03 3.264927119016647339e-02 7.049478590488433838e-02 1.069633569568395615e-02 3.090438432991504669e-02 6.765030324459075928e-03 -2.736361883580684662e-02 3.577021881937980652e-02 -3.529097884893417358e-02 1.687067095190286636e-03 -1.088519208133220673e-02 2.619771473109722137e-02 -1.037514834933972452e-06 -7.012708112597465515e-03 3.351286053657531738e-02 4.634050186723470688e-03 5.875406321138143539e-03 -4.312525503337383270e-03 1.162526011466979980e-02 -1.244058739393949509e-02 -4.701246507465839386e-03 2.460769936442375183e-02 3.051302395761013031e-02 1.621199771761894226e-02 4.730987176299095154e-02 6.239479780197143555e-02 1.407695934176445007e-02 -1.879714056849479675e-02 2.414093725383281708e-02 -1.154425647109746933e-02 -5.797898396849632263e-03 3.291438100859522820e-03 5.786210298538208008e-02 2.755315043032169342e-03 6.065276637673377991e-02 9.189856937155127525e-04 2.643430838361382484e-03 -2.340538427233695984e-02 1.111655123531818390e-02 2.313935756683349609e-02 -2.918948978185653687e-02 8.755519986152648926e-03 -1.030359882861375809e-02 -1.909499987959861755e-02 1.361072342842817307e-02 5.943832453340291977e-03 8.821750991046428680e-03 -1.466142106801271439e-02 1.240143203176558018e-03 2.716555818915367126e-02 -2.821848888689021342e-25 -4.672348033636808395e-03 -3.858158364892005920e-02 -2.516776901636458433e-25 3.191200317814946175e-03 -2.684800326824188232e-02 -4.579213447868824005e-03 6.240356247872114182e-03 4.184811934828758240e-02 1.347567699849605560e-02 1.345434505492448807e-02 1.467107608914375305e-02 4.061736166477203369e-03 7.182253990322351456e-03 -2.480249153450131416e-03 3.145163645967841148e-03 2.271074242889881134e-02 3.843662887811660767e-02 -2.452499605715274811e-02 1.005544792860746384e-03 1.336715370416641235e-02 2.362222597002983093e-02 1.503109745681285858e-02 4.570488352328538895e-03 -9.677361696958541870e-03 1.499374769628047943e-02 -2.094283327460289001e-02 -1.987199671566486359e-02 -1.596836745738983154e-02 2.698149764910340309e-04 -5.280212499201297760e-03 2.055980497971177101e-03 1.395128946751356125e-02 -7.754109334200620651e-03 5.104935169219970703e-02 5.239444362814538181e-06 -2.523363009095191956e-02 8.664224296808242798e-04 -1.151042245328426361e-02 4.986790195107460022e-02 -1.055418793112039566e-02 2.119498560205101967e-03 -1.738433609716594219e-03 3.964517731219530106e-03 1.111719850450754166e-02 -4.984437301754951477e-02 -5.057877860963344574e-04 1.605988666415214539e-02 8.179779164493083954e-03 -2.202461659908294678e-02 4.643213003873825073e-02 4.910989664494991302e-03 3.338400274515151978e-03 2.363826520740985870e-02 -1.498361118137836456e-02 -2.713319379836320877e-03 -1.825160160660743713e-02 -1.135515701025724411e-02 1.389419473707675934e-02 -4.376541823148727417e-02 3.168850392103195190e-02 -5.242132581770420074e-03 -2.464739046990871429e-02 -1.779163256287574768e-02 6.011892855167388916e-02 -4.790306091308593750e-03 -1.759908023701749713e-18 -1.950978650711476803e-03 7.468160707503557205e-03 5.205914750695228577e-02 -8.898667991161346436e-03 1.427667308598756790e-02 3.745312988758087158e-02 3.450378775596618652e-02 4.744122852571308613e-04 2.714201249182224274e-02 4.131163004785776138e-03 -1.507979538291692734e-02 4.769010934978723526e-03 -1.670064404606819153e-03 -2.185362391173839569e-02 -1.353952484350884333e-05 9.693400003015995026e-03 1.508786585252552825e-13 3.174132108688354492e-02 -9.930739179253578186e-03 -1.354955416172742844e-02 -1.761205112416064367e-06 1.263736654072999954e-02 2.635764889419078827e-02 1.005161786451935768e-03 4.183626547455787659e-02 -2.737631089985370636e-03 -7.975643500685691833e-03 1.866033673286437988e-02 1.794087002053856850e-03 -2.677955105900764465e-02 7.780962623655796051e-03 3.210697695612907410e-02 -4.155966453254222870e-03 3.402784932404756546e-04 6.359109282493591309e-02 3.300609439611434937e-02 -1.395320426672697067e-02 1.010438334196805954e-02 2.775858156383037567e-02 6.129503715783357620e-03 1.765174791216850281e-02 -1.137558463960886002e-02 3.289455547928810120e-02 -2.980091609060764313e-02 6.797305832151323557e-05 -4.134346818318590522e-05 3.736951202154159546e-02 4.180296510457992554e-02 5.994724854826927185e-02 -2.216671593487262726e-02 4.446570202708244324e-02 -3.390620276331901550e-02 1.702742767520248890e-03 4.564599134027957916e-03 7.096308283507823944e-03 3.157195076346397400e-02 5.916035920381546021e-02 1.403894461691379547e-02 -2.385897748172283173e-02 -1.519056409597396851e-02 1.921840012073516846e-02 4.948930349200963974e-03 -4.938078671693801880e-02 9.038557112216949463e-02 -3.859330713748931885e-02 -6.488111335784196854e-03 1.031078677624464035e-02 1.426321361213922501e-02 -7.486162241548299789e-03 1.672945218160748482e-04 3.189524263143539429e-02 4.295614361763000488e-02 2.600511349737644196e-02 1.079945173114538193e-02 -2.188356779515743256e-02 1.850320212543010712e-02 -4.861383698880672455e-03 -5.355492699891328812e-03 7.183211389929056168e-03 8.967917412519454956e-03 3.382711857557296753e-02
-3.393656807020306587e-03 8.627508766949176788e-03 1.372400578111410141e-02 3.789234161376953125e-02 5.408881977200508118e-02 -5.645188037306070328e-03 6.729472428560256958e-03 -3.219749080017209053e-03 -1.983770914375782013e-02 -2.482270263135433197e-02 2.548190951347351074e-02 6.016201898455619812e-02 -2.417302690446376801e-02 7.217179983854293823e-03 2.238316833972930908e-02 1.307189092040061951e-02 6.664170324802398682e-02 9.300795942544937134e-02 6.341005116701126099e-02 -1.289032772183418274e-02 5.203487351536750793e-03 -2.497450681403279305e-03 3.763418272137641907e-02 8.526459336280822754e-03 3.493052721023559570e-02 -2.562456578016281128e-02 -1.810153713449835777e-03 3.206836059689521790e-02 6.556226313114166260e-02 1.644538156688213348e-02 2.575766853988170624e-02 -4.356187954545021057e-02 4.829593747854232788e-02 -4.094195365905761719e-02 3.005167841911315918e-02 1.677715778350830078e-02 4.380227625370025635e-02 4.115238785743713379e-03 2.618932910263538361e-02 -5.280592665076255798e-02 2.423257566988468170e-02 7.474305108189582825e-03 1.926719676703214645e-03 2.832068130373954773e-02 1.743851462379097939e-03 -4.214169923216104507e-03 3.603829070925712585e-02 -2.077344106510281563e-03 -3.379751462489366531e-03 -1.272518857149407268e-04 -4.250688944011926651e-03 -1.306683849543333054e-02 -6.330862641334533691e-02 -2.631694078445434570e-02 4.575824365019798279e-02 -6.085254997014999390e-02 -4.105217754840850830e-02 -5.218201503157615662e-02 6.304625421762466431e-02 -5.090823024511337280e-02 -3.016434609889984131e-02 8.132891380228102207e-04 1.085479371249675751e-02 -3.763604536652565002e-02 -4.942962483767132653e-09 8.096036501228809357e-03 -1.476650778204202652e-02 2.573735546320676804e-03 -2.903586812317371368e-02 6.306071765720844269e-03 -1.417199522256851196e-02 -1.058623008430004120e-02 1.345665287226438522e-02 5.741973221302032471e-02 2.573758177459239960e-02 -1.563272066414356232e-02 -2.732397988438606262e-02 -5.491958558559417725e-02 -1.951196789741516113e-02 1.047828234732151031e-02 -6.635075807571411133e-02 -6.917449645698070526e-03 3.520027920603752136e-02 -1.453049294650554657e-02 1.036981213837862015e-02 -1.243270561099052429e-02 -6.025816872715950012e-02 2.087885327637195587e-02 2.297419682145118713e-02 1.550971530377864838e-02 2.614218741655349731e-03 2.683370560407638550e-02 3.591350512579083443e-03 2.086340636014938354e-02 6.871336698532104492e-02 -5.260806903243064880e-02 2.841509692370891571e-02 2.481307089328765869e-02 -3.252686467021703720e-03 -4.400953184813261032e-03 5.969086661934852600e-02 1.033964194357395172e-02 -8.320585331844654320e-10 4.826005315408110619e-04 1.719003356993198395e-02 -1.732942673908499653e-13 -3.094121627509593964e-02 6.658597290515899658e-02 -1.186525821685791016e-02 8.323925547301769257e-03 4.739720746874809265e-02 6.809808313846588135e-02 -2.456041285768151283e-03 1.169069670140743256e-02 2.989416383206844330e-02 -4.587882012128829956e-02 1.642755605280399323e-02 5.546307936310768127e-02 -3.496846184134483337e-02 -7.077798992395401001e-02 3.533390909433364868e-02 2.575955295469611883e-04 8.475069701671600342e-02 -4.509718343615531921e-02 -1.827435754239559174e-02 5.789956822991371155e-02 -4.215341433882713318e-02 1.054627150297164917e-01 2.315749041736125946e-02 2.445383928716182709e-02 -3.466216102242469788e-02 4.292289912700653076e-02 1.635839045047760010e-02 2.420228993287310004e-04 -4.178214073181152344e-02 1.328261848539113998e-02 -1.622484996914863586e-02 1.079463735222816467e-01 4.607002064585685730e-02 1.170022878795862198e-02 4.256672039628028870e-02 1.433990709483623505e-02 -7.399410754442214966e-02 3.742974996566772461e-02 2.479759976267814636e-02 3.842173144221305847e-02 3.777155280113220215e-02 -1.632220856845378876e-02 1.652695611119270325e-02 -1.429812889546155930e-02 2.563674561679363251e-02 5.213528126478195190e-02 4.169926047325134277e-02 1.161963492631912231e-02 -4.030389711260795593e-02 2.440526336431503296e-02 2.955814450979232788e-02 -9.061101824045181274e-03 2.548600919544696808e-02 6.507875770330429077e-02 -4.047158360481262207e-02 -5.861675832420587540e-03 -1.264621876180171967e-02 1.377879269421100616e-02 7.276777923107147217e-02 3.774287179112434387e-03 -3.208843246102333069e-02 1.747317612171173096e-02 6.458414245880134465e-27 -9.175943210721015930e-03 2.085449919104576111e-02 -4.298361763358116150e-02 8.639778941869735718e-02 -3.665224835276603699e-02 5.864757671952247620e-02 2.167328260838985443e-02 6.435045506805181503e-04 9.310261346399784088e-03 -4.227430094033479691e-03 -3.701841831207275391e-02 4.992002621293067932e-02 3.965474292635917664e-02 6.193238124251365662e-02 -2.623229704568075249e-07 -4.326099529862403870e-02 -3.102744845563237119e-31 4.191026091575622559e-02 -4.555780440568923950e-02 2.912761457264423370e-02 -1.401557938152109273e-06 -1.409125165082514286e-03 6.159308552742004395e-02 -5.566044151782989502e-02 -3.190537169575691223e-02 -1.173796225339174271e-02 5.217140167951583862e-02 3.877542214468121529e-03 2.032753312960267067e-03 7.068607956171035767e-03 2.360853552818298340e-02 -4.575320053845643997e-03 -4.585170373320579529e-02 6.279349792748689651e-03 -1.303159538656473160e-02 -5.479536205530166626e-02 2.395613677799701691e-02 2.634597569704055786e-02 4.503609985113143921e-02 9.967561811208724976e-03 2.519685402512550354e-02 6.101400405168533325e-02 -7.063551247119903564e-02 -2.824799343943595886e-02 -2.276702085509896278e-03 3.562970831990242004e-02 -1.657471805810928345e-02 4.725188761949539185e-02 1.300429180264472961e-02 7.142200600355863571e-03 4.526591394096612930e-03 -2.632877975702285767e-02 3.351701050996780396e-02 6.637755315750837326e-03 -4.435706511139869690e-02 4.135428741574287415e-02 -3.417434543371200562e-02 -4.264341294765472412e-02 7.837854325771331787e-03 -3.171246126294136047e-02 4.983582347631454468e-02 -2.296117134392261505e-02 3.513875603675842285e-02 2.773053385317325592e-02 1.202314440160989761e-02 -6.076534092426300049e-02 1.435108296573162079e-02 1.468658074736595154e-02 4.023614898324012756e-02 -8.002556860446929932e-03 -1.690256409347057343e-02 4.034510999917984009e-02 6.562935560941696167e-02 -4.760028421878814697e-02 5.367299169301986694e-02 -4.982667043805122375e-02 1.497997902333736420e-02 -1.140755414962768555e-02 8.796130865812301636e-02 3.301755711436271667e-02 3.042199648916721344e-02
5.072390660643577576e-03 8.066127076745033264e-03 8.672991534695029259e-04 -1.953542046248912811e-02 9.995996020734310150e-03 -7.570823188871145248e-03 6.680081039667129517e-02 -2.217250876128673553e-02 4.318401683121919632e-03 9.555512107908725739e-03 -2.597821410745382309e-03 4.535656422376632690e-02 4.062821343541145325e-02 2.504458243492990732e-04 5.793348420411348343e-03 1.059513445943593979e-02 1.223126333206892014e-02 5.220067128539085388e-02 -5.398218054324388504e-04 2.294699661433696747e-02 2.139417920261621475e-03 2.277497388422489166e-02 -1.398195885121822357e-02 -2.329298667609691620e-02 -2.871175855398178101e-02 -1.041419059038162231e-02 -1.416906947270035744e-03 -1.432220451533794403e-02 -1.046330388635396957e-02 1.904713548719882965e-02 -9.669712744653224945e-03 7.813991606235504150e-02 2.422008197754621506e-03 3.272357396781444550e-03 -3.318682685494422913e-02 -3.821990266442298889e-02 -2.393533103168010712e-02 5.326720885932445526e-03 -4.981457721441984177e-03 -1.242597820237278938e-03 1.786804758012294769e-02 -5.445986986160278320e-03 6.672432646155357361e-04 -2.564713917672634125e-02 1.394369360059499741e-02 -6.694533396512269974e-03 1.451102644205093384e-02 -1.595285534858703613e-02 8.092862553894519806e-03 -6.842875387519598007e-03 -1.390643510967493057e-02 5.835001915693283081e-02 5.625306069850921631e-02 3.844703081995248795e-03 -3.078822232782840729e-02 6.058682128787040710e-02 7.513094693422317505e-02 5.327774211764335632e-02 1.095219515264034271e-02 4.631101712584495544e-02 5.330810695886611938e-02 1.322834403254091740e-03 2.752910740673542023e-02 2.666687220335006714e-02 6.887959443702129647e-06 3.911926224827766418e-02 7.944528013467788696e-03 5.520649719983339310e-03 6.309733539819717407e-02 -1.096823066473007202e-02 2.079387567937374115e-02 1.588802039623260498e-02 5.136503372341394424e-03 3.876626491546630859e-02 -3.365469351410865784e-02 4.399867728352546692e-02 5.151451006531715393e-02 -2.961301058530807495e-02 4.141481220722198486e-02 8.323010802268981934e-02 4.832861199975013733e-02 2.689161896705627441e-02 4.796744138002395630e-02 8.023465983569622040e-03 -1.977942156372591853e-04 7.262307684868574142e-03 6.599000189453363419e-03 -9.719433728605508804e-04 1.831842400133609772e-02 2.473694086074829102e-02 7.562616956420242786e-04 -2.007518522441387177e-02 3.023877553641796112e-02 1.765407621860504150e-02 1.828556694090366364e-02 2.471776679158210754e-02 -1.515943277627229691e-02 7.653609849512577057e-03 4.639089107513427734e-03 1.637728698551654816e-02 5.188461858779191971e-03 -3.331504017114639282e-02 4.208065968532019488e-17 8.494327776134014130e-03 2.813970483839511871e-02 -1.149344595191559293e-11 1.710224151611328125e-02 2.415402978658676147e-02 1.508098375052213669e-02 1.478718710131943226e-03 -2.925684116780757904e-02 -6.817809771746397018e-03 -1.626285910606384277e-02 -1.945239491760730743e-03 3.518658922985196114e-03 3.107432089745998383e-02 2.079251222312450409e-02 4.852920304983854294e-03 5.037532001733779907e-02 6.518876552581787109e-02 3.701228275895118713e-02 1.833186397561803460e-04 -3.765026107430458069e-02 2.586515247821807861e-02 -1.040060073137283325e-03 -1.859412156045436859e-02 7.876183837652206421e-02 -3.103011660277843475e-02 1.711552776396274567e-02 1.994908042252063751e-02 2.314778789877891541e-02 7.267232052981853485e-03 2.221861481666564941e-02 4.677946213632822037e-03 3.801589831709861755e-02 7.362401578575372696e-03 -1.745958812534809113e-02 -5.441934242844581604e-02 1.304821390658617020e-02 -3.202121471986174583e-03 9.521503932774066925e-03 -8.347096852958202362e-03 8.234001696109771729e-02 -3.410567762330174446e-03 4.751241765916347504e-03 3.693795064464211464e-03 -4.568153060972690582e-03 5.276928469538688660e-02 -7.887567393481731415e-03 6.558039225637912750e-03 4.622892476618289948e-03 2.252629026770591736e-03 -3.040539845824241638e-02 3.694459795951843262e-02 7.853570580482482910e-02 1.685012690722942352e-02 8.502515964210033417e-03 4.717768635600805283e-03 -1.242945343255996704e-02 -4.270667955279350281e-02 2.334252558648586273e-02 9.316373616456985474e-02 -8.086229674518108368e-03 3.308196365833282471e-02 6.719931960105895996e-02 -2.167503989767283201e-04 1.812190189957618713e-02 6.887258030474185944e-03 -8.114991456587006269e-10 4.021793231368064880e-02 -4.470549989491701126e-03 2.539814449846744537e-02 8.743093349039554596e-03 3.768454864621162415e-02 1.326691545546054840e-02 -9.464114904403686523e-03 2.525109157431870699e-04 -4.289363045245409012e-03 6.562791764736175537e-03 5.139818042516708374e-02 4.236330278217792511e-04 1.765215210616588593e-02 -4.398152697831392288e-03 -2.368081550230272114e-05 2.415071055293083191e-02 3.177262404186812441e-26 -2.359753474593162537e-03 2.667961269617080688e-02 1.182231958955526352e-02 -1.948517649452696787e-07 -1.270738663151860237e-03 -9.580093435943126678e-03 7.301326096057891846e-02 1.174317486584186554e-02 7.024220377206802368e-02 1.483194413594901562e-03 -1.518716569989919662e-02 -6.418121629394590855e-04 5.422716028988361359e-03 -6.077164318412542343e-03 -2.066880650818347931e-02 7.376018911600112915e-02 3.556264564394950867e-03 5.691873375326395035e-03 4.835857078433036804e-02 2.866074442863464355e-02 -2.738547045737504959e-03 -2.696707285940647125e-02 1.638102112337946892e-03 1.019454002380371094e-02 1.003482192754745483e-02 -5.096549633890390396e-03 8.368189632892608643e-02 1.296927104704082012e-03 -7.284418214112520218e-03 1.320854667574167252e-02 -9.807324968278408051e-03 -2.110280096530914307e-02 4.443944990634918213e-02 -1.901508867740631104e-02 6.487662345170974731e-02 1.917113363742828369e-02 -3.855549730360507965e-03 6.857227534055709839e-02 -4.033898562192916870e-02 -6.790556479245424271e-03 3.392916172742843628e-02 5.086426436901092529e-02 5.589731037616729736e-02 1.760663231834769249e-03 7.322181761264801025e-02 3.803024813532829285e-02 -4.700165241956710815e-02 2.248643338680267334e-02 7.419257611036300659e-02 -5.497150588780641556e-03 4.525049589574337006e-03 1.057604444213211536e-03 1.490826997905969620e-02 3.048704750835895538e-02 -2.616705186665058136e-02 6.921542808413505554e-03 2.838763035833835602e-02 2.538555860519409180e-02 5.684734135866165161e-02 2.017363719642162323e-02 4.016181826591491699e-02 -2.235603891313076019e-02 5.607426166534423828e-03 -2.534278482198715210e-02
7.785459980368614197e-03 3.155923262238502502e-02 2.493254095315933228e-02 -7.714478415437042713e-04 -8.564543910324573517e-03 2.006637078011408448e-04 -4.680641461163759232e-03 -3.456374257802963257e-02 -1.115089375525712967e-02 -2.728224359452724457e-02 1.852571032941341400e-02 3.346179844811558723e-03 3.889322280883789062e-02 1.667288504540920258e-02 2.915338985621929169e-02 -2.826161123812198639e-02 3.954160585999488831e-02 -8.856709115207195282e-03 2.525385655462741852e-02 -2.671315521001815796e-02 6.838890723884105682e-03 -9.574920870363712311e-03 -9.720708243548870087e-03 1.418938301503658295e-02 1.801501959562301636e-02 -1.514475699514150620e-02 8.551936596632003784e-03 1.873113773763179779e-02 3.979635983705520630e-02 1.543509494513273239e-02 9.829326532781124115e-03 2.429663203656673431e-02 4.584615305066108704e-02 -3.161678090691566467e-02 -3.280669450759887695e-03 4.156686365604400635e-02 7.442232966423034668e-02 4.441826138645410538e-03 4.395115748047828674e-02 -4.879838321357965469e-03 -1.846790080890059471e-03 2.061052655335515738e-04 3.431303193792700768e-04 2.670978382229804993e-02 1.249035238288342953e-03 4.117910563945770264e-02 9.373527020215988159e-03 -3.081833943724632263e-02 1.375412102788686752e-02 2.756544761359691620e-02 -2.440843032673001289e-03 -1.464966125786304474e-02 1.587584428489208221e-02 3.161009028553962708e-02 5.474910512566566467e-02 3.987506497651338577e-03 5.869536846876144409e-02 -1.921162009239196777e-02 1.292536128312349319e-02 1.950537203811109066e-03 -2.582322433590888977e-02 -2.065198263153433800e-03 -2.679635956883430481e-02 -1.888066530227661133e-02 -3.489705875381332589e-07 -8.029883727431297302e-03 -3.024314901267644018e-05 6.875315681099891663e-03 -7.871615700423717499e-03 -3.924423828721046448e-03 -3.225739637855440378e-04 -2.622807398438453674e-03 -5.138914100825786591e-03 4.373426735401153564e-02 2.703844942152500153e-02 2.071533910930156708e-02 -7.525698747485876083e-03 -5.128595978021621704e-03 -2.572678960859775543e-03 5.197418481111526489e-02 -1.734263263642787933e-02 1.005344465374946594e-02 2.414880879223346710e-02 -2.386497333645820618e-02 2.519673109054565430e-02 5.601326934993267059e-03 4.296101257205009460e-02 2.146919257938861847e-02 3.441789373755455017e-02 -6.717381067574024200e-03 9.329777210950851440e-03 8.155355229973793030e-03 -3.582124039530754089e-02 -1.583376340568065643e-02 -6.047453265637159348e-03 -5.311607941985130310e-02 1.507757790386676788e-02 3.692344203591346741e-02 1.073856558650732040e-02 1.974321901798248291e-03 4.707196354866027832e-02 -5.711108911782503128e-03 -1.225856981028339288e-12 3.996993880718946457e-03 -2.949593961238861084e-02 -6.117959905891025234e-27 7.454415783286094666e-03 -5.927848978899419308e-04 3.368817968294024467e-03 -3.113612299785017967e-03 2.200056798756122589e-03 2.191841788589954376e-02 -5.384115502238273621e-03 3.198235481977462769e-02 2.524272166192531586e-02 -4.051044955849647522e-02 2.551945112645626068e-02 4.197016730904579163e-02 -1.114601455628871918e-02 2.024598419666290283e-02 2.932422049343585968e-02 -1.974446466192603111e-03 1.300859451293945312e-02 2.612413838505744934e-02 2.547644544392824173e-03 1.284435950219631195e-02 -1.794619299471378326e-02 3.886005654931068420e-02 -3.185803815722465515e-02 1.137042697519063950e-02 -1.411933731287717819e-02 2.124261483550071716e-02 3.514343872666358948e-02 4.381831735372543335e-03 -1.431143935769796371e-02 -2.417314797639846802e-03 8.145169354975223541e-03 2.445367537438869476e-02 -7.000267971307039261e-03 -2.613590285181999207e-02 1.196018885821104050e-02 9.879283607006072998e-03 1.050602458417415619e-02 1.642517745494842529e-02 1.991013437509536743e-02 4.118580371141433716e-02 -6.891119759529829025e-03 -3.783477097749710083e-02 9.921791963279247284e-03 -1.586048863828182220e-02 2.609032951295375824e-02 1.660265773534774780e-02 3.566077724099159241e-02 1.847706548869609833e-02 1.360902795568108559e-03 2.362814545631408691e-02 -1.186598744243383408e-02 -8.074479410424828529e-04 -6.185401603579521179e-02 -1.383681315928697586e-02 2.798281982541084290e-02 -3.408419340848922729e-02 1.354605238884687424e-02 8.671077899634838104e-03 -6.932592019438743591e-03 -3.128982707858085632e-02 -8.534504100680351257e-03 -2.384855970740318298e-02 -1.704656180832234357e-31 -1.754992268979549408e-02 1.554342079907655716e-02 1.764082722365856171e-02 5.942911654710769653e-02 1.063326932489871979e-02 2.063437551259994507e-02 1.119913067668676376e-02 1.456965226680040359e-03 3.848493332043290138e-03 1.051166653633117676e-02 1.687751966528594494e-03 3.758142143487930298e-02 1.267510000616312027e-02 -3.533242968842387199e-03 -3.431490767979994416e-06 3.375757485628128052e-02 -1.700704662532397172e-30 3.846095129847526550e-02 -1.253098342567682266e-02 2.503367699682712555e-02 -1.572518726788985077e-06 -2.002637088298797607e-02 7.770698517560958862e-02 1.045670360326766968e-02 1.278153527528047562e-02 -2.247430756688117981e-02 2.569360099732875824e-02 -1.457026461139321327e-03 1.521042548120021820e-03 5.945263896137475967e-03 1.725786831229925156e-03 -9.177996776998043060e-03 -1.372941071167588234e-03 1.017522346228361130e-02 3.186848387122154236e-02 -2.461798489093780518e-03 6.165896593302022666e-06 2.056016959249973297e-02 3.887062147259712219e-02 8.552659302949905396e-03 1.167952921241521835e-02 3.270924463868141174e-02 -6.484268233180046082e-03 3.598458424676209688e-04 -1.619124202989041805e-03 2.385305240750312805e-02 1.777175068855285645e-02 -1.520130038261413574e-02 3.469268605113029480e-02 -2.018717862665653229e-02 1.641802489757537842e-02 -2.382135391235351562e-02 2.916240319609642029e-02 5.341251380741596222e-03 -4.947376623749732971e-02 2.669315226376056671e-02 4.036972299218177795e-02 1.974835433065891266e-02 -3.994544968008995056e-03 -5.285467579960823059e-02 6.067597121000289917e-02 1.182225812226533890e-02 2.366216480731964111e-02 3.287071362137794495e-02 -2.181126736104488373e-02 -3.020799905061721802e-02 5.484693218022584915e-03 3.758685290813446045e-02 9.986450895667076111e-03 1.766827702522277832e-02 1.202958263456821442e-02 2.454057522118091583e-02 1.415025908499956131e-02 3.870628075674176216e-03 -6.778540089726448059e-03 1.195197645574808121e-02 2.388502284884452820e-02 -1.344540994614362717e-02 2.442137524485588074e-02 -3.734696656465530396e-03 1.878804340958595276e-02
-1.914804568514227867e-03 -1.607030630111694336e-03 1.449305750429630280e-02 -1.862481469288468361e-03 2.002007560804486275e-03 -2.466645091772079468e-02 6.705533713102340698e-02 8.072938770055770874e-03 -7.069122046232223511e-03 2.033444121479988098e-02 -1.081518549472093582e-02 9.308343753218650818e-03 -2.879531681537628174e-02 -1.960787456482648849e-03 3.042390570044517517e-02 -2.981239696964621544e-03 5.092513933777809143e-02 5.979857873171567917e-03 1.407945342361927032e-02 -1.621686667203903198e-02 3.529519075527787209e-03 -5.628468468785285950e-03 -3.872545808553695679e-02 -6.379745434969663620e-03 2.401621825993061066e-02 -2.218947978690266609e-03 -9.438452310860157013e-03 -2.787703834474086761e-02 4.117249697446823120e-02 1.981640420854091644e-02 7.095462642610073090e-03 -1.760558038949966431e-02 1.396160759031772614e-02 -4.793008044362068176e-02 6.932732649147510529e-03 1.726072630845010281e-03 -5.751223303377628326e-03 9.597955271601676941e-03 3.376344218850135803e-02 -3.877885267138481140e-02 5.228993948549032211e-03 -4.495741799473762512e-03 -5.738336592912673950e-03 1.725631393492221832e-02 5.659089609980583191e-02 -1.518893614411354065e-02 5.675173923373222351e-02 -7.891976274549961090e-03 -1.961705740541219711e-03 2.742509171366691589e-02 -1.846637018024921417e-02 1.404706621542572975e-03 6.458703428506851196e-03 -7.720512803643941879e-03 6.204360164701938629e-03 -7.714951410889625549e-03 -5.962811876088380814e-03 -2.304086089134216309e-02 1.224797219038009644e-02 -6.983998697251081467e-03 4.409767687320709229e-03 -1.336424960754811764e-03 -5.853914655745029449e-03 -3.080819733440876007e-02 -1.262653427147597540e-06 -1.302533317357301712e-02 -6.630423478782176971e-03 -6.603059358894824982e-03 -3.882268071174621582e-02 -2.006876654922962189e-02 -1.211943197995424271e-02 -1.152222789824008942e-02 2.617873996496200562e-02 3.527232632040977478e-02 -1.903880015015602112e-02 4.822605103254318237e-02 -1.398154348134994507e-02 4.307340830564498901e-02 -3.210513666272163391e-02 -1.028147526085376740e-02 8.665293455123901367e-03 6.758161820471286774e-03 2.597978152334690094e-02 -8.321435307152569294e-04 -1.982830464839935303e-02 -3.878943156450986862e-03 -2.423935942351818085e-02 1.409136224538087845e-02 6.142777577042579651e-02 4.896672442555427551e-02 6.268540397286415100e-03 -8.707095868885517120e-03 -2.820079028606414795e-02 9.125227108597755432e-03 -1.106960047036409378e-02 -4.124401137232780457e-02 1.450219540856778622e-03 2.289836667478084564e-02 1.271118642762303352e-03 -3.043311648070812225e-02 4.952041804790496826e-02 1.325438823550939560e-02 -1.377299017635979401e-20 -1.261402969248592854e-03 -4.313144367188215256e-03 -1.031992569375558970e-24 2.512984909117221832e-03 1.486457884311676025e-02 -7.869536057114601135e-03 1.867210306227207184e-02 4.197221994400024414e-02 1.085523795336484909e-02 9.361808188259601593e-03 4.730605985969305038e-03 -5.215032957494258881e-03 2.398201962932944298e-03 1.256301254034042358e-02 4.028234258294105530e-02 -2.546170167624950409e-02 -4.047061875462532043e-02 -1.298865117132663727e-02 -1.854018424637615681e-03 -4.322564229369163513e-03 -2.644068188965320587e-02 -7.468756753951311111e-03 8.720612153410911560e-03 2.679467387497425079e-02 1.181803364306688309e-02 4.406151920557022095e-02 -2.291323803365230560e-02 7.059298455715179443e-03 2.697481215000152588e-02 3.350430727005004883e-02 1.189751899801194668e-03 -1.441442727809771895e-04 1.487259659916162491e-02 1.391403842717409134e-02 4.342271387577056885e-02 7.224405650049448013e-03 -7.817410863935947418e-03 2.152238972485065460e-02 -2.519646286964416504e-02 3.298436850309371948e-02 2.626867406070232391e-02 1.535900216549634933e-02 3.420767933130264282e-02 -2.363635972142219543e-02 -2.983994036912918091e-02 3.847524290904402733e-03 -1.223369222134351730e-02 1.513689197599887848e-02 2.583236247301101685e-02 1.245996076613664627e-02 -2.737964875996112823e-02 4.321765620261430740e-03 -1.501759281381964684e-03 2.326985448598861694e-02 -2.551184780895709991e-02 -4.951970768161118031e-04 2.150238491594791412e-02 -4.247692227363586426e-02 4.095807671546936035e-02 -9.743248112499713898e-03 2.086367830634117126e-02 7.491695694625377655e-03 1.860680058598518372e-02 -1.992669142782688141e-02 -9.844172745943069458e-03 -1.725497837295872902e-27 4.073997028172016144e-03 2.729416824877262115e-02 -3.874745965003967285e-02 5.061440542340278625e-02 3.516544029116630554e-02 8.333934843540191650e-02 1.052978332154452801e-03 7.810103707015514374e-04 1.515235193073749542e-02 8.940895088016986847e-03 -2.494838647544384003e-02 3.934075683355331421e-02 2.004167065024375916e-03 1.867808029055595398e-02 -1.200001861434429884e-06 4.743215162307024002e-03 4.656030396309406527e-27 -2.598286420106887817e-02 -3.816785989329218864e-03 2.514371648430824280e-02 -1.162620264949509874e-06 -9.492476470768451691e-03 1.618066802620887756e-02 -3.120367415249347687e-02 -2.601311542093753815e-02 -4.355044569820165634e-03 7.586305495351552963e-03 4.272737726569175720e-02 4.254133906215429306e-03 -3.446506708860397339e-02 -4.054864868521690369e-03 -1.897683739662170410e-02 1.258710678666830063e-02 9.650881402194499969e-03 1.982164382934570312e-02 1.105308253318071365e-02 2.957597374916076660e-02 4.477677866816520691e-02 3.908321261405944824e-02 1.136278826743364334e-02 2.610211260616779327e-02 3.843321278691291809e-02 2.137817209586501122e-03 -1.468212064355611801e-02 -1.393195474520325661e-03 1.039999444037675858e-02 -3.338655456900596619e-02 -7.808822672814130783e-03 -1.041735336184501648e-02 4.544484987854957581e-02 1.472387276589870453e-02 4.004482179880142212e-02 3.534644842147827148e-02 1.188402995467185974e-03 1.631953939795494080e-02 3.079330362379550934e-02 9.053899557329714298e-04 -9.009516797959804535e-03 6.805302575230598450e-03 -2.313671447336673737e-02 4.048940911889076233e-02 4.071955382823944092e-02 1.333099696785211563e-02 -2.067659609019756317e-02 2.715050987899303436e-02 9.132650680840015411e-03 -6.804478471167385578e-04 1.634289696812629700e-02 3.908799216151237488e-02 -1.568854786455631256e-02 -4.195785615593194962e-03 5.126421339809894562e-03 5.809151381254196167e-02 -1.867720298469066620e-02 3.219789266586303711e-02 -2.820531651377677917e-02 2.354598604142665863e-02 5.566739663481712341e-02 -8.476492948830127716e-03 1.014199107885360718e-02 -1.146815065294504166e-02
-5.028697778470814228e-04 -8.950940333306789398e-03 2.531805261969566345e-02 7.563653052784502506e-04 -1.644150726497173309e-02 1.146985068917274475e-01 -1.978195086121559143e-02 -6.806147750467061996e-03 4.403477651067078114e-04 1.585162244737148285e-02 -7.563402876257896423e-03 2.677605673670768738e-02 2.957968413829803467e-02 5.476122722029685974e-03 -1.374924182891845703e-02 -4.179760813713073730e-03 -2.689317613840103149e-02 -6.944826245307922363e-02 -4.514158889651298523e-02 3.127413988113403320e-02 3.014357760548591614e-03 -3.394967317581176758e-02 -2.616800926625728607e-02 1.720477268099784851e-02 -1.759571954607963562e-02 2.864636294543743134e-02 4.137990623712539673e-02 4.368309676647186279e-02 -2.859775722026824951e-02 -3.621345385909080505e-02 -1.177005190402269363e-02 8.386212401092052460e-03 -3.496557474136352539e-02 6.129935756325721741e-02 9.330799430608749390e-02 2.741628140211105347e-02 -5.011181347072124481e-03 5.558931268751621246e-03 2.563000423833727837e-03 5.833095312118530273e-02 -1.037921756505966187e-02 2.882174588739871979e-02 -5.505028646439313889e-03 3.469437360763549805e-02 1.255908608436584473e-02 1.168966945260763168e-02 -4.326475784182548523e-02 -2.557600382715463638e-03 6.263387389481067657e-03 3.804526524618268013e-03 -2.252131234854459763e-03 1.899775676429271698e-02 4.351389035582542419e-02 3.500043181702494621e-03 1.347768213599920273e-02 4.200160503387451172e-02 2.520298026502132416e-02 7.514019310474395752e-02 -4.360765591263771057e-02 -9.543835185468196869e-03 2.914606779813766479e-02 -7.057487964630126953e-04 -1.072885002940893173e-02 -4.858614876866340637e-02 -6.012555786583106965e-07 -1.259911805391311646e-02 7.917743176221847534e-02 -9.707011282444000244e-03 -3.511864226311445236e-03 1.122492738068103790e-02 4.588581994175910950e-02 9.396746754646301270e-03 -1.243002712726593018e-02 -4.872709885239601135e-02 1.753285340964794159e-02 5.805966258049011230e-02 6.324787437915802002e-02 7.383204251527786255e-02 1.448833197355270386e-02 -6.371378898620605469e-02 3.845973685383796692e-02 -1.136280223727226257e-02 -2.180812694132328033e-02 -1.101813837885856628e-02 1.523839496076107025e-02 1.045903190970420837e-02 8.321839570999145508e-02 -4.615379497408866882e-03 -3.204585239291191101e-02 -2.837943471968173981e-02 -9.501285851001739502e-03 5.698769818991422653e-03 3.570989891886711121e-02 -6.401540338993072510e-02 -5.272972211241722107e-02 5.433013290166854858e-02 -3.969648480415344238e-02 -1.070787385106086731e-02 3.475787350907921791e-03 3.367910906672477722e-02 -3.710494935512542725e-02 6.750350445508956909e-02 1.768079501090783433e-16 5.449706222862005234e-03 -5.006431043148040771e-02 -3.036431215581243855e-15 1.761405542492866516e-02 -7.949119806289672852e-02 1.929924939759075642e-03 -1.718181371688842773e-02 8.550642989575862885e-03 2.299815788865089417e-02 3.078388236463069916e-02 1.102505251765251160e-03 -4.905412904918193817e-03 5.059818737208843231e-03 -2.081465534865856171e-02 -3.510481864213943481e-02 2.992668375372886658e-02 2.893332205712795258e-02 -5.616211891174316406e-02 -2.241531619802117348e-03 -2.143783867359161377e-02 3.108278289437294006e-02 3.269137814640998840e-02 5.285544693470001221e-02 -2.890230529010295868e-02 5.705164279788732529e-03 -1.055150199681520462e-02 -4.943421110510826111e-02 2.459806576371192932e-02 -2.711415290832519531e-02 -2.055658958852291107e-02 -4.779946990311145782e-03 3.188106790184974670e-02 -5.604554433375597000e-03 6.654620915651321411e-02 -2.661915495991706848e-02 -3.089495375752449036e-02 3.001270629465579987e-02 -3.610912337899208069e-02 2.402477338910102844e-02 4.422871768474578857e-02 -2.313993871212005615e-02 -1.264917571097612381e-02 -2.435391768813133240e-02 3.008302487432956696e-02 2.440441213548183441e-02 -4.365931730717420578e-03 -1.124821836128830910e-03 -2.261524274945259094e-02 -3.227019309997558594e-02 -8.101650513708591461e-03 -4.352896288037300110e-02 1.813348196446895599e-02 2.362824976444244385e-02 -8.710430935025215149e-03 -1.097941957414150238e-02 3.666456788778305054e-02 -2.913552708923816681e-02 2.498163282871246338e-02 -6.420163810253143311e-02 5.077906418591737747e-03 -3.942247107625007629e-02 6.032603327184915543e-03 9.791010618209838867e-02 3.551483899354934692e-02 5.181596148759126663e-03 -1.316288269454993605e-18 -1.642890856601297855e-04 -1.240672450512647629e-02 1.936906389892101288e-02 -6.320619583129882812e-02 5.830058082938194275e-02 -2.135202661156654358e-02 1.838402450084686279e-02 7.024421392998192459e-06 3.917267918586730957e-02 4.653358832001686096e-03 3.123090416193008423e-02 -3.300874307751655579e-02 -4.409193247556686401e-02 -4.480476304888725281e-02 -2.029057213803753257e-05 9.787321090698242188e-02 -9.009062593157146637e-12 9.795082733035087585e-03 6.365169584751129150e-02 -1.166533213108778000e-02 -1.510178435637499206e-06 8.748502470552921295e-03 4.677196557167917490e-04 -5.879307631403207779e-03 -5.629357416182756424e-03 9.416487812995910645e-02 -2.204737626016139984e-02 -2.320821210741996765e-02 1.010175421833992004e-02 -7.021720521152019501e-03 -5.174317397177219391e-03 2.457795292139053345e-02 6.102020852267742157e-03 -1.117488252930343151e-03 4.301680624485015869e-02 1.068744584918022156e-01 -2.233835123479366302e-02 -2.095673233270645142e-02 2.345891855657100677e-02 -1.633249409496784210e-02 2.370726875960826874e-02 -3.673972189426422119e-02 8.200989663600921631e-02 -1.564991101622581482e-02 1.900590024888515472e-03 -2.301192469894886017e-02 1.099788397550582886e-02 3.360611945390701294e-02 4.782950133085250854e-02 -1.143979094922542572e-02 1.290446426719427109e-02 -2.706659585237503052e-02 -3.898524865508079529e-02 -1.312570646405220032e-03 4.590716958045959473e-02 1.752578653395175934e-02 3.847744688391685486e-02 1.586786285042762756e-02 -2.964805997908115387e-02 2.171122655272483826e-02 -6.280872505158185959e-03 3.477409482002258301e-02 -3.928231075406074524e-02 -2.546780556440353394e-02 2.763104997575283051e-02 4.727194085717201233e-02 1.952458731830120087e-02 -8.871447294950485229e-03 -3.191981092095375061e-02 4.210359230637550354e-02 1.980037055909633636e-02 -7.612132001668214798e-03 1.619362644851207733e-02 7.435461506247520447e-03 -6.681016832590103149e-02 1.224732492119073868e-02 -1.781710609793663025e-02 -1.380685623735189438e-02 -4.435504600405693054e-02 -1.881079375743865967e-02 -4.123365506529808044e-02
